-3.803865071848983592e-01,-1.752121153527469791e-02,-1.423454288424682440e-02,-1.034102747239251836e-02,-8.890131805355864364e-03,-1.156983937211903714e-02,-1.147842969046120563e-02,-1.091921918132640092e-02,-1.275962108073587509e-02,-1.090994433593515077e-02,-1.184339505864930031e-02,-1.487984666682521176e-02,-1.140226753096416044e-02,-1.257183133035127270e-02,-1.185731165857772419e-02,-1.415748674438401661e-02,-1.124745365378919566e-02,-1.244343203716525431e-02,-1.708958859737437844e-02,-1.714108088905232086e-02,-1.818935241466547101e-02,-1.215765023960664951e-02,-1.315379322991852042e-02,-9.875436842039305926e-03,-1.402888926932601733e-02,-1.232090031999678523e-02,-1.165567059877996130e-02,-1.708059553716703358e-02,-1.632723378128073458e-02,-1.938389043484131657e-02,-1.930457125926991757e-02,-1.576173968515928725e-02,-1.028045293882003802e-02,-1.218953256101380951e-02,-1.133318550369920123e-02,-1.198793485811247908e-02,-1.499030763444010941e-02,-1.751383470264950004e-02,-1.506095173818628070e-02,-1.852031276708311983e-02,-2.385106457255702778e-02,-1.105784705629161285e-02,-1.250492511303868612e-02,-1.176885858693857596e-02,-8.992433329323560806e-03,-8.930375552096107492e-03,-1.136724371549974709e-02,-1.583474207007387266e-02,-1.755455440838538800e-02,-2.199511145422874958e-02,-2.468593752236169017e-02,-1.285996364257533178e-02,-1.334628960304783812e-02,-8.442853931192045511e-03,-1.128715470227728383e-02,-9.421508236090083560e-03,-1.173546126369232404e-02,-1.699627794805625911e-02,-1.806449880739563821e-02,-2.024620787880301517e-02,-2.310491147234445056e-02,-1.345378542716889510e-02,-1.137364509764198124e-02,-9.407793318100978949e-03,-1.084800380070437449e-02,-1.135430199627886737e-02,-1.293104029360250644e-02,-1.760866799184041334e-02,-1.525804407710346089e-02,-2.093488771478972665e-02,-2.060440878219896993e-02,-1.185780395261793775e-02,-8.320255369333383680e-03,-9.298764228005775012e-03,-1.050384441800684965e-02,-9.632865799134339435e-03,-1.406842159528247718e-02,-1.751059280703774410e-02,-1.944633889615106706e-02,-2.255191229375595047e-02,-2.240289347484708538e-02,-1.004103075817532227e-02,-7.060720192752602438e-03,-9.237185838559458170e-03,-1.049337189038129954e-02,-1.180538522008116147e-02,-1.479507799686728686e-02,-1.435645680447760440e-02,-1.871050896422358362e-02,-1.983192930662229514e-02,-2.055130805716822925e-02,-1.304500675580410642e-02,-7.370860733558428322e-03,-8.706956364724420874e-03,-8.238952556396117455e-03,-9.829107716298529293e-03,-8.840832682353574543e-03,-1.025186983296256030e-02,-1.483239063723284373e-02,-1.772883723444766690e-02,-1.560411181190890333e-02,9.428534806539013227e-03,-7.609598731626265877e-02,-1.077709233369103792e-01,3.448721942800144630e-02,-8.993207049672648223e-02,-1.213148078656503537e-01,-1.950167723837701803e-02,-4.062317769873603768e-02,-7.606961639972091571e-02,-6.881260123283525210e-02,-7.335797731229390384e-02,-1.319857596838363012e-01,8.661500901934923724e-02,1.236266417858497557e-01,-4.141496748178996601e-02,-1.196355428286979272e-01,-8.237206543481019605e-02,2.720940701623661070e-02,1.106733294959084957e-01,1.385203353992899011e-01,-8.537625030555424585e-03,-3.368728382140342287e-02,2.174751684211741892e-02,-4.269913991858712704e-02,-1.434711605585497762e-01,-1.606017986927385510e-01,-1.452419670715464906e-01,-9.139294304228960664e-02,1.082309583096234124e-01,2.109759090237738610e-01,-1.383790179046306273e-02,-8.204101838280593306e-02,-3.064479007859638882e-04,-7.029042121297407464e-02,-1.104485725611480534e-01,-5.165600280300692432e-02,-1.053241153412205755e-02,-6.047574846593003171e-03,1.647351127504031454e-01,3.567737683416956074e-01,-6.886616065964079603e-02,-1.059286592887411921e-01,-1.817354223581442094e-02,-7.821955900180981025e-02,-8.028248760611825241e-02,3.634490144674058787e-02,8.286924556667504826e-02,6.572340094778693353e-02,2.076672091521393759e-01,4.267335891992281582e-01,-1.210482247634280112e-01,-8.355118533791838775e-02,-2.318533867735374232e-02,-1.067771317477401033e-01,-9.407487770073540145e-02,2.622546900509921744e-02,8.081592895569431056e-02,6.576230398446557268e-02,2.001875935845757459e-01,4.027635691246013172e-01,-1.746278140671289614e-01,-6.391915512005660882e-02,-1.553120394637406629e-02,-1.146037211865003486e-01,-1.046282318011652751e-01,2.730406326348106850e-03,5.420785676714471452e-02,5.830413720767781832e-02,1.904548548255595442e-01,3.536581874230680378e-01,-2.374024052758307579e-01,-5.932894497168948733e-02,1.507626407891210669e-02,-9.359959196619588306e-02,-8.236547625054010946e-02,1.909945409825110005e-02,8.890881919797624655e-02,9.554424742713868435e-02,1.901337072148616136e-01,3.242760723075769902e-01,-2.785853335882278459e-01,-1.374556701275461978e-01,-4.015577580661855439e-02,-1.241240015380434408e-01,-1.000876495978207104e-01,2.334929822968974042e-02,1.024574911949474171e-01,8.936914401028787924e-02,1.822312319080090781e-01,3.052605089990995668e-01,-3.054234846264305969e-01,-2.414077851993371160e-01,-1.904013655551443918e-01,-3.079827654095798062e-01,-3.464851597323856947e-01,-2.521372901907665831e-01,-1.256488812447861259e-01,-4.904381581577741539e-02,1.119475112707954689e-01,2.391805247179986382e-01,8.016479853336300893e-03,6.478392530297517188e-03,5.497216720102817734e-03,5.651331152578812321e-03,5.247496936488361616e-03,5.255052954916025233e-03,8.176404415584748869e-03,3.706619488509655010e-03,6.931666960901855870e-03,3.689070299627552393e-03,3.120300804876164312e-03,7.560711943869299900e-03,9.612602577919819244e-03,1.004729081760799732e-02,1.000313425935568136e-02,8.545404332980456943e-03,9.476610274619176252e-03,8.627091682823800900e-03,6.043799066797510972e-03,1.008733039194029471e-02,8.708176897116346252e-03,1.004882316528449109e-02,9.096874984450683752e-03,7.337311162367485783e-03,5.775822468318597344e-03,7.079196723201132066e-03,6.247529292588034459e-03,6.126915911292952696e-03,1.063347107838429409e-02,7.792569670911945849e-03,9.427986979335214665e-03,8.636549979029536570e-03,1.059152676978006649e-02,7.051765734261564514e-03,1.007900648345659914e-02,9.526461297589980393e-03,8.722051522019543673e-03,6.128182912308882332e-03,9.327500852262136585e-03,1.179773480780274900e-02,9.344290040506060199e-03,8.417722579664575766e-03,9.546054282951077496e-03,9.446388817409862027e-03,7.365436371562200657e-03,9.331399976044636377e-03,1.162573950277177685e-02,1.050486521349459045e-02,9.494129682909331971e-03,1.263906868487062359e-02,1.006087316428817477e-02,7.946817638764530969e-03,9.132521249531986435e-03,8.850359754725875897e-03,9.142412012462198742e-03,8.691967823690914183e-03,1.081851570750898620e-02,7.289543182047368390e-03,8.715170992056656823e-03,1.117369989737810980e-02,9.498113873954529274e-03,8.301957451879175137e-03,9.011095255666354623e-03,8.424503447731594707e-03,7.245268237051675185e-03,1.008988723146408972e-02,8.054766098314583567e-03,1.012385583908028547e-02,8.976113031341319271e-03,8.767646907297711387e-03,5.844241877286401529e-03,9.056028747267606122e-03,8.194426181260001246e-03,7.947005330738127898e-03,1.077698422327341699e-02,9.905925027652258408e-03,1.082348393078665788e-02,1.016000889321686841e-02,8.792810679926136089e-03,1.080430725465258979e-02,4.597826573026601166e-03,6.156586216645286262e-03,6.754605222466412810e-03,5.122247400722068286e-03,8.627196624525419397e-03,6.840358137376303417e-03,9.000958041292824938e-03,6.392589239310175579e-03,7.096314486450346418e-03,9.823186360036631828e-03,5.384313509570024144e-03,7.144336875106678357e-03,4.242103562359250853e-03,3.067582518772574932e-03,3.686671356894940556e-03,4.636875409140150082e-03,8.379252989122653802e-03,8.539465112101388491e-03,9.782912881269102343e-03,8.202427950482706412e-03,-1.480618570055101599e-02,-1.354704177764178355e-02,-1.384428547123308512e-02,-1.442096155840813868e-02,-1.733494735992209893e-02,-1.734892567499880453e-02,-1.451368550698058091e-02,-1.679700473695332555e-02,-1.422623149939516995e-02,-1.678450853172882076e-02,-1.757187794749301077e-02,-1.304324146744162416e-02,-1.522076442489617501e-02,-1.372154956857535649e-02,-1.760459857492074551e-02,-1.658546411317787100e-02,-1.301050353458625686e-02,-1.407327705662391598e-02,-1.388962007932430590e-02,-1.684714081509923120e-02,-1.403370483914696820e-02,-1.771878209726816464e-02,-1.324169164726657355e-02,-1.577811853968134198e-02,-1.309815645897883032e-02,-1.758756115683183033e-02,-1.327093324388078227e-02,-1.274906820684094250e-02,-1.510829921557274927e-02,-1.389901277271346491e-02,-1.516113571335148125e-02,-1.338849888404456193e-02,-1.450945500877461047e-02,-1.634795912522636271e-02,-1.662956375712668772e-02,-1.381246424665896755e-02,-1.410810121055705926e-02,-1.603640048891426945e-02,-1.500151664375498628e-02,-1.567202018981883258e-02,-1.506444667514050123e-02,-1.636122939850906052e-02,-1.579972573192433422e-02,-1.424350368486928739e-02,-1.277235734054542673e-02,-1.303442865488284308e-02,-1.313077597481464992e-02,-1.731523173934335427e-02,-1.719410419032806406e-02,-1.510549449322966947e-02,-1.290072574990245441e-02,-1.488404917358262733e-02,-1.689161434985464796e-02,-1.723609323600324914e-02,-1.280014132916638264e-02,-1.476286546128320956e-02,-1.769707600036721576e-02,-1.488365548637418656e-02,-1.664113782368839556e-02,-1.617383011235120835e-02,-1.360778930516386848e-02,-1.297969600321927097e-02,-1.741242526293897488e-02,-1.428776446211107304e-02,-1.757738543925803018e-02,-1.506652028610172209e-02,-1.590655362571300260e-02,-1.564477970188323311e-02,-1.772603795726440321e-02,-1.634215868062967314e-02,-1.309120021167281545e-02,-1.357040728292901316e-02,-1.489635390103945245e-02,-1.522429474232320917e-02,-1.322145890877161542e-02,-1.330881842620599761e-02,-1.501419392789539800e-02,-1.286308976923245667e-02,-1.431741578140202642e-02,-1.466770104874494385e-02,-1.348461833624476497e-02,-1.727594091411889174e-02,-1.352707933254878453e-02,-1.627415012165588093e-02,-1.594557745578121730e-02,-1.746629205070506299e-02,-1.364670039645368010e-02,-1.299228030508075421e-02,-1.520318242048775137e-02,-1.298857475885761836e-02,-1.320932194349690864e-02,-1.341231708597858882e-02,-1.287310064436764448e-02,-1.699148916857048594e-02,-1.643365163819191996e-02,-1.436727099607348554e-02,-1.294008179132114314e-02,-1.597991584449653252e-02,-1.637346254889075065e-02,-1.472357892130629273e-02,-1.513473146787227240e-02,2.235169596180763569e-03,-2.529698829018582618e-02,-1.801593710473337051e-02,-1.075716638329625267e-02,-1.518746792337214921e-02,-2.262803280141839971e-02,-1.621570087112634076e-02,-1.987971718695323922e-02,-1.706476865671214052e-02,-1.747020541628619295e-03,-2.272085001093959722e-02,-2.756521468170632094e-02,-1.599748439708662331e-02,-6.790255497235625319e-03,-1.169037762063000752e-02,-1.797934833325783369e-02,-2.155985833367236523e-02,-2.922059439168692846e-02,-2.838783500418174538e-02,-2.086279946783353018e-02,-2.538399342206049819e-02,-2.847436405166551762e-02,-1.695529129636859714e-02,-1.338380191393525112e-02,-1.981925720333068894e-02,-1.940685325798326491e-02,-1.787830553751150811e-02,-3.226957381876568304e-02,-2.816902062409621516e-02,-1.868187979315445724e-02,-2.530658777574573345e-02,-2.314316119636107907e-02,-2.571009792595061946e-02,-2.439872897171770083e-02,-3.157482124941114049e-02,-3.049925587140956199e-02,-2.784528487158533308e-02,-2.871345018249796613e-02,-2.518623823821175556e-02,-2.435954844395610275e-02,-2.948884151205114976e-02,-2.585817302901941700e-02,-3.291109794109162850e-02,-2.915583605636513920e-02,-3.313200166545471337e-02,-3.604357004841957784e-02,-3.086383337864040746e-02,-2.920012876717780967e-02,-3.004651124300378867e-02,-2.351960038047595791e-02,-2.730183444667593634e-02,-3.001014908593508182e-02,-3.422154492934425390e-02,-3.385617947891804425e-02,-4.048361740556995214e-02,-4.317352757464418961e-02,-3.476413496669400471e-02,-3.198082266358708015e-02,-2.261498542028447453e-02,-1.962517994726392309e-02,-2.377450488771482712e-02,-2.597892624357948932e-02,-3.455940796666379794e-02,-3.638433208154159826e-02,-4.400502560032733268e-02,-4.383700123627028850e-02,-3.489062678239174958e-02,-3.138825263237950830e-02,-1.747671622234524963e-02,-2.047318537845820713e-02,-2.759111089730533969e-02,-2.402498164810099382e-02,-2.417628315991920615e-02,-3.117163375892601646e-02,-3.718634487592009652e-02,-3.248451595688536114e-02,-2.429477022152184973e-02,-1.865796803725090075e-02,-1.794189078077858962e-02,-2.067174922332765813e-02,-1.890192286031176783e-02,-6.416028035285598931e-03,-1.203577720532458470e-02,-1.696670601483883656e-02,-1.953890197459623446e-02,-1.185592462933710879e-02,-1.291478584779754031e-02,-1.477086867485958958e-02,-1.040244086795152900e-02,-1.791212587170241261e-02,-1.670069351503216185e-02,-3.544735701549940349e-03,1.318726416781993913e-02,1.618146428011426816e-02,8.604763743907197643e-03,3.269812066299356175e-03,4.985248792899754384e-04,-5.580879788982621818e-03,-4.553450035998342880e-03,-1.740366892869232157e-02,-1.149231266489691462e-02,-9.205987374102135232e-03,-8.816718021868735419e-03,-1.113224486103821589e-02,-1.001763642894162865e-02,-9.296577146352203239e-03,-1.311272976961719815e-02,-9.943715573336946167e-03,-1.362858318846241201e-02,-1.604123175521545222e-02,-8.211021340558543810e-03,-7.644813955244113279e-03,-8.485243138571973293e-03,-7.647874755430992752e-03,-7.463422166941666158e-03,-9.139402554131419165e-03,-1.176100444237964185e-02,-1.441941415157636797e-02,-1.328555177262497923e-02,-1.370569559241385273e-02,-7.867744703597709041e-03,-4.187941641595317385e-03,-3.332885867002210317e-03,-3.807021228765394491e-03,-7.312815001681324638e-03,-9.108407134435538011e-03,-1.108742356917888534e-02,-1.219866653553721911e-02,-1.195289371412053096e-02,-1.128396541041348268e-02,-9.179485203235989918e-03,-2.346357332691955885e-03,-3.087059185310449781e-03,-1.721593390693766830e-03,-2.463496775028207325e-03,-5.674128466385447260e-03,-9.543566511907497149e-03,-1.127337015211846150e-02,-1.037672861108201137e-02,-9.799832033830731259e-03,-3.868583793329574434e-03,-2.473811323101878824e-03,1.047229982625920734e-03,-2.037751418148911736e-03,-3.510240894645807932e-03,-3.090108569193860712e-03,-4.437881563353738082e-03,-1.074703009458309946e-02,-8.932272394763407508e-03,-9.645570730080007746e-03,-3.496262157298362684e-03,5.364894642868262356e-04,1.305850410183980858e-03,-1.736890327686616822e-03,-2.494743998631528820e-03,-5.102459260512897006e-03,-5.471202524765791247e-03,-9.578573168168210208e-03,-9.334175258339707376e-03,-8.769360608234074567e-03,-3.272132764997888899e-03,-3.652046350801191853e-04,2.373415436659166971e-03,-6.045076265407035463e-04,-6.510105455227269697e-04,-2.557489178397270944e-03,-5.282541759543317103e-03,-8.854713585020415959e-03,-8.417831061143084270e-03,-8.190059192891160911e-03,-7.109595434949261307e-03,-1.184576559815551889e-03,-2.771276960377168017e-03,-1.891523849567458039e-03,-2.038670271842129341e-03,-2.722629422796946173e-03,-2.280898279553761170e-03,-5.145087031767914265e-03,-6.875623654143712266e-03,-8.601782559318982280e-03,-3.788433370155379776e-03,-3.175508384519562088e-03,1.946006251092838703e-03,9.772245931189223103e-04,4.458911554707338520e-04,-2.541970805917977919e-03,-5.554679935922803534e-03,-6.463187287087944141e-03,-7.945531228773779903e-03,-9.571633298356019975e-03,-6.361480938460950529e-03,-2.662472705422108676e-03,-2.357439316678863923e-03,1.203536148256091490e-03,1.990088253712952657e-03,-2.568658293514496701e-03,-3.474474482408140634e-04,-2.980529667849739911e-03,-6.350315088369420762e-03,5.830594811315057378e-03,-9.350836968977944974e-02,-1.357192763492479914e-01,2.024454610375257535e-01,2.934156684033499829e-01,2.517647722981750102e-01,2.447053643931377531e-01,1.230644668788490187e-01,1.124895571961991719e-01,1.386251474827204788e-01,-7.399426763741030755e-02,-1.775347103730395837e-01,1.268735101816201583e-01,2.690427437537225575e-01,1.838261753955102995e-01,5.991871936801817372e-02,1.898786496219868891e-02,1.350010997398447092e-02,5.787652644990454870e-02,1.085435517055421406e-01,-8.256331066328492785e-02,1.386352377082610519e-02,-3.214445955804918521e-03,-3.806473838999915177e-02,-7.131675957394870147e-02,-1.044945293700588751e-01,-1.632544896732861239e-01,-2.259789943044529514e-01,-1.461545926770197734e-01,-5.785780138891102181e-02,4.151180999436051428e-02,2.467819361686261065e-02,-6.935984828501823296e-02,-1.660187230046089868e-01,-1.711087425695728137e-01,-1.342584041733562716e-01,-1.445211513982322393e-01,-2.375947853915163221e-01,-1.950879309107912130e-01,-5.590538889723643129e-02,1.848201481938399060e-01,7.387872699197740867e-02,-9.347871356307761725e-03,-1.326878268163928509e-01,-1.329206874293270835e-01,-4.829531674377675332e-02,-3.016636681192601602e-02,-1.380106934472557778e-01,-1.382979143769351160e-01,2.751420369462751706e-03,2.655666293474142625e-01,2.405264909942589902e-01,1.423739111277277092e-01,-2.060040986223502998e-02,-4.066459859448134234e-02,1.717716958153223464e-02,3.705999653447080572e-02,-6.846997209001408347e-02,-7.743402337959968962e-02,5.121506057569871068e-02,2.366309668440273739e-01,3.282741125682471228e-01,2.263109872851896409e-01,3.542446898248162446e-02,1.656394361383986590e-03,5.085476860398940868e-02,7.232767589225004567e-02,-1.884673605347910244e-02,-1.730201260415848916e-02,7.993968240863601193e-02,1.543596152836631263e-01,3.502872205207644973e-01,2.690865321563159496e-01,6.006604398760544139e-02,2.028041500083872101e-02,7.238830188709154123e-02,1.112114265618327491e-01,3.493674737757428844e-02,3.721616322437054647e-02,7.891732010012231235e-02,5.257916410834582999e-02,2.157689371833588221e-01,1.569380061250741643e-01,-2.462260617614915603e-02,-4.218237384758594111e-02,3.779150892374767701e-02,9.518113147083744063e-02,3.778279562173070955e-02,3.797913377653123340e-02,5.347689459374523058e-02,-7.996658374807060626e-03,3.763061714310961953e-02,-9.425203840419342505e-02,-2.562725830225418555e-01,-3.005116637132980162e-01,-2.012565821610273753e-01,-6.671284216891233687e-02,-5.710779676722715914e-02,-2.141726593600861567e-02,-1.390869793642196192e-02,6.108467879210919584e-03,4.674959470123285152e-03,4.622982323735974966e-03,5.900339614396689879e-03,7.623281175474707662e-03,7.668884907917777362e-03,7.837184933014468280e-03,5.775310838395926981e-03,5.208818959003034578e-03,5.781534346757743678e-03,3.060817481994992061e-03,2.976514086203213387e-03,7.508623501795199870e-03,5.466705547191258105e-03,6.738735946135148563e-03,5.109754676815391264e-03,5.901778820971603952e-03,2.848156474253999478e-03,1.910635909373130121e-03,4.142001601897290879e-03,4.163059237558813970e-03,8.598336836861068116e-03,9.255548208775693508e-03,6.309081766086622328e-03,5.924640680137818576e-03,3.079340466805147343e-03,6.500967628534557591e-03,4.984238385362909328e-03,5.211635513924518445e-03,5.764157187822187278e-03,9.724139898182146413e-03,5.240253686268394814e-03,5.127626438011002180e-03,6.174002890290120754e-03,6.617421120499915668e-03,6.010364506270891340e-03,7.073871288922346789e-03,5.714147159985210993e-03,4.360039798524381616e-03,6.325896676827802260e-03,8.157201985851699963e-03,7.531161883042507797e-03,7.174841910745379664e-03,3.704119530221357780e-03,5.293690962810141711e-03,5.243757498941694316e-03,8.744018924190875841e-03,4.778581617324372671e-03,4.000378926975510854e-03,5.350611316599076725e-03,7.419378885925805717e-03,6.169301601708251231e-03,8.688617099309972613e-03,5.196394238186525204e-03,8.889570697860766854e-03,7.717688112357144747e-03,9.255335399743056315e-03,5.027688804336763635e-03,6.306459595722673818e-03,8.228198525895407886e-03,1.075996772650547259e-02,9.951380724647679657e-03,5.394495434276335398e-03,5.955536905315225553e-03,7.612125876759219013e-03,8.756387415460017976e-03,9.106038954077305334e-03,8.035365316055196813e-03,4.020306128506559093e-03,6.371141444612735821e-03,9.505673861281054363e-03,1.047487963905061742e-02,9.465441325535405709e-03,5.279790091685718396e-03,9.561275256851837698e-03,8.484831058877553844e-03,8.966215204256916538e-03,6.089957191170268860e-03,7.232044127595900831e-03,4.130610642133015868e-03,7.069062687889789490e-03,9.036523430277509233e-03,6.718878679974600240e-03,4.739347585345329156e-03,3.464370322552497768e-03,8.849898052550970659e-03,9.614279397072836297e-03,8.303499616564395669e-03,4.534523639943700835e-03,5.559478042856528732e-03,9.187188010858710410e-03,6.192510492140771740e-03,5.111387022671051023e-03,1.331242596995708570e-03,4.771529418134936446e-03,3.921513408034913752e-03,4.077669590815029624e-03,7.197940192594895654e-03,5.368774945993806495e-03,2.937557790326479970e-03,-1.296397414876561752e-02,-1.356097843965358915e-02,-1.355066291928390398e-02,-1.518934205437190085e-02,-1.554162781700532854e-02,-1.400916485308917672e-02,-1.579942341361339347e-02,-1.754104350569052687e-02,-1.638768978792283504e-02,-1.384500658544409249e-02,-1.457559294510131845e-02,-1.488476929950622446e-02,-1.396973784239459102e-02,-1.446731009030179094e-02,-1.455345589750730098e-02,-1.649427835270184106e-02,-1.331370153364802578e-02,-1.659381734134464381e-02,-1.412344968720114294e-02,-1.689553128647388117e-02,-1.726522817076067348e-02,-1.763510488524242317e-02,-1.648221014182019509e-02,-1.512775089639340279e-02,-1.449362140370367633e-02,-1.560585292741476990e-02,-1.373165553111588971e-02,-1.301668858282278851e-02,-1.327597780135080299e-02,-1.535419224125621554e-02,-1.480285754155880040e-02,-1.290676549004248289e-02,-1.507301124854689561e-02,-1.510907437638546458e-02,-1.415597996660012195e-02,-1.302459158503571635e-02,-1.660212576387370964e-02,-1.668265880889073516e-02,-1.588873661793599110e-02,-1.291599290156907054e-02,-1.686166568980196692e-02,-1.433524898473683556e-02,-1.432146820456134742e-02,-1.635567604295642963e-02,-1.581013899960304059e-02,-1.627613650859085007e-02,-1.510242983311508788e-02,-1.303534041261144444e-02,-1.312831663420298278e-02,-1.486500463917444365e-02,-1.650831519766683339e-02,-1.664899046958855794e-02,-1.625131506415854535e-02,-1.768087677635303209e-02,-1.731186278745954280e-02,-1.291750372040580477e-02,-1.357195270043979815e-02,-1.713945782187053721e-02,-1.497596585408998357e-02,-1.489821033332540054e-02,-1.461027706706330420e-02,-1.623856950207848773e-02,-1.563717421461259874e-02,-1.420869740746710796e-02,-1.566485297250310924e-02,-1.422671306446452247e-02,-1.702330063499988763e-02,-1.602690837043559829e-02,-1.645964649320838177e-02,-1.430346255082086404e-02,-1.415211070106160360e-02,-1.357857878935095006e-02,-1.425903332067826254e-02,-1.610190941151795965e-02,-1.391565828572651625e-02,-1.398069299715738040e-02,-1.491981024966594627e-02,-1.415001032309997145e-02,-1.770153662965473843e-02,-1.276729550477908107e-02,-1.444451209781595982e-02,-1.556880590784656508e-02,-1.378111360865901316e-02,-1.693486009400900147e-02,-1.730657342293907483e-02,-1.374546477617854395e-02,-1.300310292893733580e-02,-1.546221368374792529e-02,-1.704670108992832958e-02,-1.297439047184525962e-02,-1.497549683907792306e-02,-1.663566290053732077e-02,-1.290743192784201201e-02,-1.763902521012949628e-02,-1.564338951990624019e-02,-1.390651677390992297e-02,-1.288340009842198902e-02,-1.508291824835895564e-02,-1.352351369962185093e-02,-1.379554565456027684e-02,-1.689942575717977638e-02,3.098609477130933720e-03,-1.848235279634899419e-02,-1.655044615177983514e-02,-4.277941627405682477e-03,-9.016472009626859407e-03,-1.221327142199652403e-02,-5.714406790385456736e-03,-7.389306694924982141e-03,-6.820954703117040885e-03,-6.457196562139604513e-04,-1.855584296591047261e-02,-2.092052314949914213e-02,-4.740559641228833145e-03,4.763674102965828432e-04,-2.322644377309649680e-03,-7.694851871134908948e-03,-6.221880136626893772e-03,-1.257092923739091747e-02,-1.034438731660042646e-02,-1.874001245721347922e-02,-1.569123359820135885e-02,-1.798128879703071378e-02,-3.615356813549213365e-03,-1.524307722644336650e-03,-1.070847280342926075e-02,-1.092182807255484035e-02,-5.989331397030524425e-03,-1.013518932503677632e-02,-1.487701155330193106e-02,-1.921621297403344752e-02,-1.192369723640122545e-02,-1.240267702200562559e-02,-1.421538212346573453e-02,-1.403583770738623011e-02,-2.017261981875837634e-02,-2.104041301288873955e-02,-1.050893689634396257e-02,-1.100722968336450593e-02,-1.342778143230071580e-02,-2.572275829996590116e-02,-1.814380757017675441e-02,-1.921162102743166275e-02,-2.388180364305720130e-02,-2.447722342401113804e-02,-2.375068182373702569e-02,-2.343549554791777775e-02,-1.589606521259196922e-02,-1.095229574823852574e-02,-1.646005141663758539e-02,-2.538241216292204394e-02,-1.541615004321405386e-02,-1.691733842428464960e-02,-2.155183984468806921e-02,-1.893658106582203279e-02,-2.657023613634055398e-02,-2.303543165148551342e-02,-1.718191840937650927e-02,-1.234439750824018606e-02,-1.275284082999489019e-02,-2.411961030361152794e-02,-1.777711457998733605e-02,-1.116259845674387637e-02,-1.712891219691631273e-02,-1.715352446901911507e-02,-2.156327384651742299e-02,-2.261308885068241681e-02,-1.009792907298791113e-02,-8.534762715780529890e-03,-8.179052209212982899e-03,-2.318143078602607696e-02,-2.140673335806203212e-02,-1.655451363894772793e-02,-1.256297142035701225e-02,-1.521148604405526787e-02,-1.431090376507961059e-02,-1.104203172411835111e-02,-6.232034213854490551e-03,-7.627167505604370672e-03,-1.062517039491047040e-02,-1.991993731848724566e-02,-1.018487154611259944e-02,1.993831871636999719e-03,-2.596828266566186903e-03,-4.788844224211745090e-03,-4.942307103645178328e-03,-3.842752276623494570e-03,-3.848984993919201889e-03,-3.305643216629636574e-03,-4.754784683013795442e-03,-2.095855295857009318e-02,-9.998988185207764376e-03,-5.687426505642271065e-05,1.058684280226615190e-02,1.268563056178950363e-02,6.803779611147851326e-03,2.457475287062473816e-03,-1.106890152570475048e-03,-3.826528510356766010e-03,-4.091153380132475127e-03,-1.396427658477561451e-02,-1.330209986102591502e-02,-1.199647561633031788e-02,-9.015688256864981542e-03,-8.070834293948624810e-03,-4.682942726157758757e-03,-7.000291308645100428e-03,-6.916125986382401503e-03,-6.026673929777746734e-03,-8.656085841311934176e-03,-1.482857748739427328e-02,-8.640103677546208047e-03,-9.449021866494008645e-03,-6.274096324577273752e-03,-5.901622395307789572e-03,-5.338663413844813022e-03,-9.658944531600453798e-03,-1.259696369374684391e-02,-1.399185792696175205e-02,-1.385464961081040412e-02,-1.312356312351042366e-02,-1.049371910080193829e-02,-8.916926360215564340e-03,-7.143957181819737476e-03,-4.361887508241593832e-03,-4.281479910139944674e-03,-9.859980588808743909e-03,-1.185444932155099718e-02,-1.240938134969442330e-02,-1.601197006798283501e-02,-1.684672274993328361e-02,-1.105846316945574732e-02,-4.119773006246010838e-03,-1.650872946987253214e-03,-5.565368094124062935e-03,-6.329690079779144891e-03,-9.323422126459191689e-03,-9.294773554810892638e-03,-1.412632120929427880e-02,-1.381529872244408735e-02,-1.462581299344975841e-02,-9.694990428808039976e-03,-6.514979813300198624e-03,-1.885342868324627183e-03,-2.586857054649785697e-03,-8.093850787805095121e-03,-9.918564546788712771e-03,-8.212237585172197860e-03,-1.541471969123981746e-02,-1.659663533590452836e-02,-1.298829530115074883e-02,-1.067190525133287528e-02,-1.789989986531726829e-03,-4.474805434930049543e-03,-4.936773231872567357e-03,-6.965998509374382239e-03,-6.120973166040054141e-03,-9.990286411948930828e-03,-1.423178778765082225e-02,-1.266045382410813797e-02,-1.058708122195488148e-02,-7.152217239450111425e-03,-3.680872116671679226e-03,-4.394449681483256036e-03,-2.904440155886908303e-03,-4.598311267338268601e-03,-5.217040093047857659e-03,-1.028864937262679094e-02,-1.082633702099441292e-02,-1.327705396700133884e-02,-1.272674041334514831e-02,-8.061898085417712467e-03,-4.335952265450607364e-03,-7.075870402406416295e-04,-2.189485539471375253e-03,-4.819493743529418804e-03,-9.629880702816440846e-03,-9.871179681561046207e-03,-1.080147368646778780e-02,-1.454079913815034715e-02,-1.254972441169255326e-02,-6.427045600831154948e-03,-5.009624995993805507e-03,-3.322833932919630733e-04,-2.436653450765374675e-03,-5.543943525750022472e-03,-4.406521105821824442e-03,-8.274508976720705913e-03,-1.213341466655039336e-02,-1.505914027350542875e-02,-1.312881561456195542e-02,-5.111580123287472362e-03,-2.716289162446344340e-03,-8.838613254521763846e-04,-3.379603507979211333e-03,-3.958657955609611381e-03,-6.756878801542715897e-03,-8.337187274874598153e-03,-7.881027054238886470e-03,-8.471634564947087831e-03,7.953056496092372057e-03,-6.840273470827717972e-02,-2.605913134863279135e-01,-2.296107089398034262e-01,-2.051158765319381627e-01,-1.385796462375935567e-01,-7.130335151380023939e-02,-2.208584406016795842e-01,-2.982731595921374601e-01,-3.002606798253798503e-01,-3.875293027192985157e-02,-1.666657938604615696e-01,-3.348570909301992748e-02,1.076818347518526259e-01,1.630686714699746964e-01,2.572975890722070669e-01,3.726901150926430484e-01,3.814191290001446299e-01,2.977236465484890404e-01,2.770584764940739464e-01,1.544100203334560772e-01,-2.586842290600488078e-02,-1.774116362134573188e-01,-1.457580633961465810e-01,-4.224820958899759560e-02,1.175727614583026992e-01,2.036934760732100336e-01,1.641184835598370750e-01,1.440873903353958041e-01,1.836417683067022022e-01,1.884955263224723510e-01,-1.261311545318205551e-01,-2.379487674858039858e-01,-2.659341336277276091e-01,-1.722347936231584387e-01,-2.243301344868395969e-02,5.909805245037923205e-02,-6.542979909628307555e-03,-7.286750285352487991e-03,5.387177866726684805e-02,1.530568958514409994e-01,-1.434108744808532121e-01,-1.698927256745957348e-01,-2.268236029247788499e-01,-1.681571120401184338e-01,-4.737471744508812282e-02,-4.806899355758212714e-03,-9.069676162253126339e-02,-9.320211962236504832e-02,-2.506386832002731324e-02,8.491330355710996480e-02,-2.379447631489062590e-02,-2.207186846535628966e-02,-9.417468778440429844e-02,-7.170912043926867818e-02,-2.095246076643276709e-02,-2.126432756284136333e-02,-1.144025013256874390e-01,-1.182927912897913936e-01,-4.340617386952434070e-02,4.857048847993188784e-02,5.490799267186925736e-02,3.736553209551225080e-02,-7.580411428956684849e-02,-8.084718025768881933e-02,-5.689384230952308080e-02,-7.521639609231255130e-02,-1.562124335579249679e-01,-1.657178996141225324e-01,-7.215171366874290060e-02,-1.646741675063382801e-02,7.503163037070471886e-02,7.509300770938216740e-02,-4.718370943233900910e-02,-5.898313929192223332e-02,-4.870487296640257924e-02,-6.921740371162285466e-02,-1.413850712531865006e-01,-1.497447148207944889e-01,-5.933692223354121442e-02,-1.082541959568875806e-01,-1.061532941423545644e-02,3.720603232451279163e-02,-5.662812611451287226e-02,-5.270789608963835637e-02,-2.188426943150751161e-02,-1.783249289033737167e-02,-5.049947633427740584e-02,-6.280743380616184493e-03,5.345446286850728812e-02,-1.590539824939754543e-01,-1.964035045424863679e-01,-1.925901540828283132e-01,-2.140153243796784621e-01,-1.563318724632592471e-01,-2.298330252635974458e-02,1.045660311197613157e-01,1.569790226249360710e-01,2.186124124847987904e-01,2.381733721460469744e-01,9.726642100665316981e-03,4.001162656856590769e-03,1.773934996666703175e-03,1.559949725646805809e-03,1.874203611900623337e-03,5.148955938170353235e-03,7.102452393686671354e-03,2.253739090999150752e-03,4.145948318973996516e-03,3.895759599541567808e-03,4.846430074615323998e-03,2.016527971904025305e-03,6.646830718787097823e-03,4.607434510606085720e-03,5.663656017847447897e-03,5.028675869181572881e-03,6.762368717381439347e-03,4.160253960255488014e-03,4.189800645975941609e-03,6.881704492678131571e-03,9.908546950144456883e-03,7.880729812551817010e-03,5.480217498551223643e-03,3.636968664299687279e-03,5.025985051858511583e-03,8.236451589731142928e-03,5.594916733183073407e-03,5.900570764351353859e-03,6.386198190807029079e-03,3.200734287861378181e-03,1.118195571037101932e-02,4.530173161938320578e-03,6.996534124355760498e-03,4.007050714157312996e-03,5.219385695265857904e-03,3.922955272422729879e-03,6.830270932163387543e-03,6.150169752359172827e-03,4.334409264946432853e-03,5.984957947586159663e-03,1.194226191385333070e-02,5.563531182169115762e-03,4.203478273467225503e-03,2.974801673187906902e-03,6.157579161966906731e-03,4.129607212190512973e-03,4.280039330071049725e-03,3.081670355850957971e-03,2.127854584381720735e-03,5.928024795358804479e-03,1.205100096736903478e-02,8.195626311811417958e-03,5.013902608731806917e-03,5.844430411085837530e-03,6.627278004086955068e-03,3.826453886952910482e-03,5.283228523712893421e-03,3.989120507330180983e-03,4.584750167353104748e-03,1.947846807490774155e-03,1.188036976716104302e-02,8.823400284981913408e-03,6.189756368483874741e-03,4.377803648693143895e-03,5.901304330077065084e-03,7.603143895840671317e-03,7.137629727924256831e-03,4.788616124376700658e-03,6.726681827727343244e-03,4.429552920137604793e-03,1.044918249656302638e-02,8.644264467253134215e-03,7.499207445758976527e-03,5.672981180860967379e-03,6.473836838596506646e-03,6.831486432026675180e-03,4.170054317693149860e-03,3.695160694835236941e-03,6.513631674600243483e-03,3.876289215366225498e-03,8.001749773307536770e-03,4.803559412293330333e-03,5.274899071071415674e-03,6.104999195252270791e-03,2.371572658272484441e-03,6.581250714515056791e-03,7.276854702168679238e-03,4.450275584287742385e-03,7.333503046446767336e-03,6.790657523596536210e-03,9.697929458178733766e-03,4.773417093727003006e-03,4.495132191881644895e-03,1.461277369665873191e-03,3.712988511036257547e-03,2.817430093723936706e-03,5.846152429057234479e-03,4.073558549024851316e-03,5.165349612299218775e-03,3.718824973703631527e-03,-1.301447599319883672e-02,-1.692482496573348080e-02,-1.668166636623957810e-02,-1.463186983161782542e-02,-1.652954166635852568e-02,-1.695920628661311616e-02,-1.341420119667439265e-02,-1.694191592764645107e-02,-1.361156466613854324e-02,-1.617596324215691758e-02,-1.686912366790708703e-02,-1.516377548210788920e-02,-1.441499592680343597e-02,-1.293092725303144480e-02,-1.522268915010768428e-02,-1.607306262614328560e-02,-1.545237075432310050e-02,-1.485707554684913279e-02,-1.630811710119629485e-02,-1.564870900590921432e-02,-1.527039693329525216e-02,-1.387519185886118209e-02,-1.659958969070129964e-02,-1.337971677057850708e-02,-1.486131656200014722e-02,-1.575494808463666352e-02,-1.713626545469129972e-02,-1.766956333855168940e-02,-1.419859140550098348e-02,-1.380517868902251394e-02,-1.383966504941660375e-02,-1.652840283722642120e-02,-1.682153503915398765e-02,-1.768190762237449934e-02,-1.383287484535412545e-02,-1.500146840874033369e-02,-1.276938037002892101e-02,-1.612168788101925668e-02,-1.387779028646001986e-02,-1.452388717310895694e-02,-1.557526645660597432e-02,-1.721253633641496930e-02,-1.748203201635764939e-02,-1.360596611233807346e-02,-1.490303305133059558e-02,-1.293376690256532388e-02,-1.625831691733715251e-02,-1.521847066540452445e-02,-1.606774194736338215e-02,-1.756958628051503643e-02,-1.581047064427457821e-02,-1.295366979921619421e-02,-1.490225061696205319e-02,-1.290551102260388550e-02,-1.764321090593862565e-02,-1.767458982523524222e-02,-1.343703536094969023e-02,-1.487051204012074246e-02,-1.450718796507430991e-02,-1.640053921319082481e-02,-1.731135416002455366e-02,-1.768847515548005803e-02,-1.354584050097127831e-02,-1.287238068063362509e-02,-1.341467172129652899e-02,-1.314936693128244266e-02,-1.325277220434204623e-02,-1.483498628558717683e-02,-1.722478436689303324e-02,-1.589651366103744107e-02,-1.689059610058310859e-02,-1.554507684946136552e-02,-1.324194105459371856e-02,-1.758633653742462319e-02,-1.443981693304920155e-02,-1.456792900765479723e-02,-1.278056173609193671e-02,-1.636757563869422824e-02,-1.307011486473595371e-02,-1.699830776796522683e-02,-1.464129280510248141e-02,-1.614723283581622620e-02,-1.592761862497936096e-02,-1.332987604897963030e-02,-1.754153887044212698e-02,-1.507957613816325940e-02,-1.552218841747409622e-02,-1.636345774108530562e-02,-1.522233016621914528e-02,-1.549708431669063330e-02,-1.612337217867410022e-02,-1.769979680557643917e-02,-1.628253643619041388e-02,-1.758414390891632414e-02,-1.462784221908219884e-02,-1.334578380971961770e-02,-1.469267473745130073e-02,-1.714119105949612684e-02,-1.278646205936015759e-02,-1.314804845511902479e-02,-1.342102117101639375e-02,1.041978803850151635e-03,-1.418904837853496130e-02,-1.512548200240772592e-02,-1.095675099301885412e-02,-1.323115574535876221e-02,-1.247335659693391691e-02,-8.567407277886202738e-03,-1.085645435480706716e-02,-9.076227300175706419e-03,-7.036769254843531704e-03,-1.370714431269185601e-02,-1.462540306433681228e-02,-2.943238849900471112e-03,-2.003199432896795446e-03,-3.304483751186240801e-03,-1.320933648388026606e-02,-9.454736276526810174e-03,-9.764749322044257232e-03,-1.245739948820857000e-02,-2.513573857912041604e-02,-1.468068071194142225e-02,-1.026123540000542511e-02,-2.276879118086298434e-03,-4.218795397630877020e-03,-7.390167293157783208e-03,-1.007688555185510051e-02,-1.181029570328009579e-02,-1.313490204627936961e-02,-1.381870465414028470e-02,-2.083676703785215800e-02,-1.130629395582175012e-02,-1.101713780812893159e-02,-1.040504657855890504e-02,-1.298587007995129217e-02,-1.517865708973585581e-02,-1.628247907793490407e-02,-1.120713466324476347e-02,-1.259880022361285073e-02,-1.236035307936725336e-02,-3.238907237468986039e-02,-1.950941702798475105e-02,-1.068763343087420110e-02,-1.026888621585124971e-02,-1.642089402136465495e-02,-1.332794622731598398e-02,-1.413612747022175049e-02,-1.170526733384031660e-02,-1.105954967487729305e-02,-1.577417550262782964e-02,-2.636172632619097900e-02,-1.502270274749388339e-02,-1.013053069807366355e-02,-9.870763737396412441e-03,-1.463740818057330563e-02,-1.407368635937782629e-02,-1.332857054049357490e-02,-1.145504655819351049e-02,-1.320062715122615436e-02,-1.096421354659298658e-02,-2.528295859612882113e-02,-1.251546174197100923e-02,-3.734726839975157416e-03,-7.620555925921456038e-03,-1.147486958048710322e-02,-9.606638183834077110e-03,-1.235191463288659412e-02,-1.525594493009644996e-02,-9.710816474698086981e-03,-1.168214043368849889e-02,-2.523006354628955575e-02,-1.916365300519818488e-02,-1.021698385730832569e-02,-9.302345234372809413e-03,-9.783241972184435198e-03,-7.733963546748573448e-03,-8.529909056296436712e-03,-8.615863358767064314e-03,-1.329388239484385024e-02,-1.003846496931275374e-02,-2.423100946037336570e-02,-1.819473106246265875e-02,-5.598009957006331097e-03,-2.481714590471937720e-03,-6.490922303157985358e-03,-4.962168891300812977e-03,-7.362266019465700875e-03,-8.918169013263328032e-03,-9.386067630090181094e-03,-8.525466079204395420e-03,-2.842512409140716609e-02,-1.868232120780295713e-02,-3.817517165884665251e-03,-4.660428012963169046e-03,-5.156740757888449850e-03,-4.222887551010363893e-03,-5.445875945476952133e-03,-7.980285957673104169e-03,-9.979776345145931898e-03,-7.897620721852374043e-03
-4.686567547959735736e-03,5.735286423425516034e-03,7.618777296934578676e-03,3.608186257328183273e-03,3.773013494448459147e-03,8.152102538321591776e-03,7.362502649030141198e-03,6.145776537244028274e-03,4.977663096482782927e-03,6.279895199493398979e-03,6.257928685061712494e-03,6.040943931685229841e-03,7.763257086407398568e-03,7.868987321691063574e-03,6.967393918459451399e-03,6.913139298411148659e-03,5.915841806739375631e-03,6.040704236965325873e-03,6.284540407391202288e-03,7.543860779253092064e-03,7.648895505254135578e-03,6.822592341085270858e-03,6.127686545698402508e-03,6.177523344769562594e-03,4.815139275200800047e-03,6.644335004377591516e-03,4.629609830944422452e-03,4.713540246683359074e-03,6.172505359341167938e-03,5.913983205868821383e-03,8.021660764507186625e-03,5.876295881601286027e-03,5.045770282128350832e-03,5.324202868958616101e-03,5.478762964064897226e-03,6.243763258962405603e-03,5.250888243166833454e-03,7.325470818519520984e-03,7.328239519011641237e-03,7.252253472178794499e-03,4.795450797975217734e-03,3.806962653361490451e-03,5.000764176223017506e-03,4.429671655501310826e-03,4.168592092648691280e-03,8.454060039176992600e-03,4.836293301411456746e-03,5.123735084492790290e-03,9.094878303344256648e-03,9.068974786989425496e-03,6.072254075937527119e-03,7.021478761426349323e-03,4.490875910273965654e-03,8.398774616898536938e-03,3.964548048795662853e-03,5.979890574861840280e-03,8.633171038034610431e-03,8.898489398327272953e-03,5.967072239293571417e-03,8.251162974794662777e-03,6.468416561198362356e-03,7.769572461147318011e-03,4.507178192734285702e-03,4.479199564037199439e-03,4.119855668543264543e-03,5.359955689031067894e-03,7.231621249963265073e-03,6.972239557800455866e-03,9.092616090762882866e-03,8.726086202534944630e-03,6.795300308124704348e-03,5.178817585600759346e-03,4.759450487460963226e-03,4.071417446833786903e-03,5.942666055763816402e-03,4.112943557771241501e-03,7.487674141065858366e-03,8.388227698698322993e-03,6.934579495075916637e-03,9.113593466844295554e-03,6.289098970197537671e-03,6.837720406246169773e-03,4.883349727948040758e-03,5.386394418202816205e-03,4.492501531120410112e-03,6.067177825631702749e-03,5.682250331152942542e-03,6.228245312624631352e-03,9.228082057130736204e-03,7.719666583216545398e-03,8.656214274725671648e-03,3.684694881986406295e-03,4.063533912657147154e-03,8.310529018604640925e-03,7.394163261955292998e-03,5.913015276183955678e-03,5.741011827589611281e-03,9.137858221522562885e-03,6.459693482483634501e-03,5.064018402944506746e-03,8.392130111870330089e-03,9.095025434617987070e-03,1.961125514838082950e-02,4.020590339074775477e-02,3.993416957691488939e-02,2.190780235117598118e-02,1.076998082062135750e-02,6.308184425117107849e-03,1.469761751135903287e-02,1.912320725724980797e-02,1.403744587875692222e-02,1.021180743527429213e-02,1.911662552913494587e-02,3.335093407932056275e-02,3.309519397699538235e-02,1.558154589950541159e-02,4.910853565306556520e-03,5.935042535960255959e-03,4.376035943488693764e-03,8.889946288677006911e-03,6.920116658815009085e-03,6.031017359941522396e-03,3.433568853453559250e-03,2.214224016681852480e-02,1.647806565356699227e-02,1.668887369261497222e-03,-5.553550407743976583e-03,-1.043391754734051928e-02,-1.170600479163844826e-02,-1.115834054436014473e-02,-1.383225637778193705e-02,1.023052448327412944e-03,3.692106306722895900e-04,1.514110262227207071e-02,8.557415901603363656e-03,9.059095307412925926e-04,-3.719060073208972465e-03,-9.619542137738731902e-03,-1.363376781787095128e-02,-1.851817677943237012e-02,-2.104696888856369755e-02,-4.438130317960671881e-03,-2.295139332266913496e-03,9.324690348276692270e-03,6.228553768208495468e-03,-6.524548922399145585e-04,-2.213802657306146535e-03,-6.933068971308502942e-03,-1.408439313976650627e-02,-1.747728707466503911e-02,-2.414730466650480412e-02,-1.302076801841410905e-02,-1.346013352714703175e-02,-3.118463717617008055e-03,-6.434576790964378207e-03,-7.556830330618503552e-03,-7.285503347789216294e-03,-1.202128653406535352e-02,-1.779898065282522687e-02,-2.593663142376390410e-02,-2.832133016772064860e-02,-1.724710610281536896e-02,-1.624807225048104098e-02,-1.443508256901137633e-02,-1.762415000042508173e-02,-1.292565993874448399e-02,-9.936453371074415591e-03,-1.443054356604349733e-02,-1.873273792123134399e-02,-2.504623838898793059e-02,-3.174340763347019423e-02,-1.789193771589537088e-02,-2.031234204158317846e-02,-1.808579681730328181e-02,-2.058723474037092369e-02,-1.691706306517207214e-02,-1.708768264901550094e-02,-1.763051436618175496e-02,-2.412921507242387145e-02,-3.005200227264804430e-02,-3.384694331639352682e-02,-1.621694250607451024e-02,-2.403612832015936812e-02,-1.995734679901745717e-02,-2.961750011989740944e-02,-2.692067573552929527e-02,-2.381830502858223869e-02,-2.158637003072361518e-02,-3.215413109529782765e-02,-3.455242300312878767e-02,-4.092383922068498076e-02,-1.504032119893010389e-02,-2.004888441883811989e-02,-2.106609161610661918e-02,-2.943932212161114864e-02,-3.260482576653529752e-02,-2.926127969715413071e-02,-3.142716030422915835e-02,-3.877368030572571345e-02,-4.136028545467084622e-02,-4.393977109508987594e-02,7.343351366981091047e-03,5.209911497062569286e-03,8.290871021132557514e-03,6.841353284569309627e-03,9.926881345125924613e-03,6.197804564337544043e-03,9.155364338821091880e-03,5.170803005198085743e-03,6.061617178502691841e-03,7.547817844708007602e-03,7.210254348353184115e-03,7.362210931312891497e-03,9.676884581602684596e-03,6.421032573771511334e-03,6.094444141421218562e-03,8.003631571875788678e-03,6.130225449097491397e-03,7.586718688338651810e-03,5.140339551875446229e-03,7.683265409989885678e-03,6.662845800603824260e-03,7.061058513189171978e-03,8.954139416570002299e-03,6.198664544588926469e-03,7.429714984460543924e-03,5.152597744525889804e-03,6.196990552664333012e-03,5.439067069636691933e-03,5.583322996726475598e-03,8.253100946493934637e-03,8.951849141218245001e-03,8.072426744480278374e-03,8.749491566693450711e-03,9.286093503355347459e-03,6.833788241112160981e-03,9.064261553182956579e-03,5.456381519204834239e-03,8.146668724742584661e-03,9.219910796164692765e-03,8.835644052879995658e-03,5.634464283175285790e-03,9.194934508376753982e-03,7.723515360058753887e-03,8.677749074564842374e-03,5.910191031898096546e-03,6.585258543468533281e-03,6.617284714996811944e-03,5.919505232713703595e-03,5.451493064037781118e-03,5.199669437183724631e-03,8.759598439390395980e-03,5.001290059134496160e-03,9.711916695863567414e-03,5.222112827844100670e-03,9.666549378231000314e-03,7.283999965942733121e-03,7.421158596522186429e-03,5.660583583259338677e-03,6.309941888038092181e-03,9.003042106397195904e-03,8.512837841815191001e-03,6.190316962914052708e-03,6.705804746595141717e-03,8.631504740117937335e-03,7.769271918265067620e-03,6.479976971472581337e-03,8.885754090078964301e-03,8.339162796546497822e-03,5.370636102139980314e-03,5.152496743036765262e-03,9.145044727171206672e-03,5.287770852557729939e-03,8.165400788975457624e-03,6.007744977010345648e-03,6.265644446035595512e-03,6.899363494329588051e-03,6.905907608646817165e-03,6.163056902309014921e-03,7.793891424082454757e-03,7.811756768931229881e-03,4.922091925417570665e-03,8.995634273303165437e-03,5.677668035607536315e-03,6.368038903904589543e-03,9.648374754150550528e-03,7.797647761392476409e-03,5.500079270288028670e-03,6.337099267465195508e-03,5.409614941888051150e-03,4.694890118960885587e-03,9.182586732172049945e-03,5.190205765363218801e-03,7.922821174666284938e-03,9.069320631745040467e-03,5.651328492629960863e-03,9.391234773172657882e-03,7.143045333994747434e-03,6.628658771971433772e-03,8.086385580696259928e-03,5.854468536855455749e-03,3.836338823821291467e-03,6.081456770245427176e-03,8.242409652535451908e-03,7.806776023683689204e-03,5.443099835430774761e-03,5.690198409213030259e-03,8.052107500509383259e-03,6.712686621203015069e-03,3.514577888212792010e-03,7.202976901081186920e-03,7.055898399643526289e-03,3.991267495595010942e-03,6.782292105081468361e-03,4.476147033384957757e-03,4.587303776658325366e-03,5.388535724191194712e-03,7.990072736114196481e-03,6.538131496242032686e-03,5.779090646818132657e-03,4.910650755778353874e-03,4.257095783070364431e-03,7.981193002858148755e-03,5.993195206386676618e-03,6.714761810498513436e-03,6.141579903214186911e-03,6.330765373581551461e-03,6.937166945378998861e-03,6.192341428426622815e-03,4.408530405905069019e-03,3.948820577694750131e-03,7.864205185733779899e-03,7.261842229085432171e-03,6.639962644980349632e-03,7.504144121089359812e-03,5.228135994245975554e-03,7.968169657325496757e-03,5.676295373568592331e-03,5.384915561203525158e-03,4.865082785072432150e-03,4.412653394996019288e-03,7.325580767228825549e-03,3.862274103534505364e-03,7.050015606923020275e-03,6.682353776537294787e-03,7.493944406179483923e-03,6.690147201262165375e-03,5.129713793954439674e-03,7.259553233514307036e-03,3.707620375999452940e-03,8.305338406506872218e-03,3.458534301298961562e-03,4.247055609372194646e-03,6.265845402719199056e-03,4.786397752453730794e-03,6.531059248648878046e-03,3.510821917801726887e-03,8.147955874048085773e-03,7.514204569147949278e-03,6.839045533307627420e-03,7.397677071962220109e-03,4.577828581177369183e-03,3.528185869169537213e-03,6.113326007942081544e-03,4.588719406076026755e-03,5.901095546770965608e-03,6.121343955859790201e-03,6.039778624205120738e-03,5.764123413993292241e-03,6.881524651347035310e-03,4.640323938016980079e-03,4.757740109972898729e-03,4.740086856031123716e-03,8.135510124024965956e-03,7.116010584206650808e-03,5.628297601278538231e-03,7.745957871501000201e-03,8.114479841440532665e-03,8.433272077005955769e-03,5.662212675079960483e-03,7.621955091560759545e-03,5.163016679817547180e-03,6.894828747458515636e-03,8.165527009957426058e-03,3.947039473355047276e-03,6.801015200704198585e-03,3.926625159478413542e-03,4.979618554819266810e-03,5.306681716230629217e-03,5.167911320109873363e-03,7.055506852515821409e-03,8.005465729279933121e-03,7.264200839002303567e-03,5.178724872500701029e-03,5.260874387962063969e-03,7.886011049377287044e-03,8.244482589523861177e-03,6.331464585700807488e-03,3.512954460012758344e-03,7.549150457717134291e-03,5.952320341664716144e-03,7.176783413830670200e-03,4.118900056479970866e-03,5.865552087804612111e-03,7.529593424008156934e-03,4.603225069377520073e-03,8.049744700060430802e-03,4.480074614388991627e-03,3.838273216894002443e-03,5.164135082206857894e-03,8.051373271374310733e-03,6.002966253408664049e-03,7.873286534379709059e-03,7.060824315402249723e-03,5.189127994693036247e-03,8.238914495743624930e-03,8.683941351957274665e-03,6.108320618023063697e-03,8.096580226814708431e-03,6.143923395337516115e-03,5.716956576600122283e-03,5.023673529613030715e-03,8.178719096676357117e-03,6.808689981673705580e-03,5.980197600586201027e-03,7.918764027253296853e-03,7.490357108457779654e-03,5.474316173295663314e-03,4.023477180944998698e-03,4.111412060561693733e-03,8.533396909909719136e-03,6.588269555448797096e-03,5.747644453029973448e-03,7.643698107619996233e-03,5.245271194065283075e-03,3.797950676953906583e-03,3.824855709135868351e-03,4.258856504318548827e-03,4.048791468776283785e-03,6.495417529730694063e-03,8.441325998334889974e-03,8.368119830628370157e-03,3.724730868689857342e-03,8.165969613525983842e-03,6.699978515466453906e-03,3.495703664701174055e-03,8.500665476384255959e-03,8.728920761043076904e-03,7.574272450555164307e-03,8.973192549303246612e-03,9.367594066683939541e-03,8.478957491796416598e-03,5.034005556040609640e-03,8.145394672628720328e-03,8.276566568292488546e-03,4.760351004904119117e-03,5.919871294094546620e-03,8.293278517287522994e-03,8.071331422900627009e-03,5.074248014484764036e-03,9.497691562336053536e-03,6.642306452136954344e-03,8.206884742156720855e-03,5.491758879654232497e-03,6.626785381681063111e-03,7.028959989605515143e-03,7.827805518588882086e-03,5.153082968125701803e-03,5.525501235504360308e-03,7.607104088094676468e-03,6.618016148087656723e-03,4.353907420442876437e-03,6.212068245991229400e-03,4.489186766478417238e-03,7.427608876859417147e-03,4.439119577142943730e-03,7.102657903217688209e-03,4.425241165239315183e-03,7.140463951763718724e-03,7.496857689093962447e-03,8.052212709828960799e-03,5.485750265705262654e-03,6.847196366830150295e-03,8.369673660413417746e-03,6.101662940347037968e-03,4.592673915230933816e-03,6.549256172286629235e-03,8.900172085111656903e-03,8.568416694477758860e-03,7.443453676066298479e-03,7.762688040064964594e-03,4.099940622380345012e-03,6.862309913313372443e-03,7.321785255383342003e-03,6.410191341809510363e-03,4.475636644455121063e-03,7.051011955210839503e-03,9.162996219698333819e-03,6.385723563733259125e-03,6.328651445525373780e-03,6.107251766571360381e-03,4.491499890019626934e-03,5.313793074470744490e-03,7.033979932272937767e-03,5.733391174721901885e-03,7.098094708337479922e-03,5.118524446523390475e-03,5.895743911515483916e-03,8.003799609260410161e-03,6.046611339578276435e-03,5.407063223195581955e-03,8.151659135496711409e-03,4.089747821976703196e-03,5.554478748662090501e-03,3.837782458380933123e-03,4.409414289930560851e-03,6.856812885350561416e-03,8.086798683350581926e-03,6.855884823860409170e-03,7.400873251156070420e-03,6.296885438494426862e-03,8.188517649253409039e-03,4.698052971616460335e-03,4.316874846409734894e-03,5.801718612020342371e-03,4.989654250685570010e-03,6.162474447859165802e-03,5.675039724780188768e-03,7.579797388508275127e-03,7.343832863196642427e-03,7.733997433945248925e-03,6.480005005375938029e-03,4.494240494081125012e-03,3.750555801843200379e-03,5.512216445236132155e-03,7.969863910816984975e-03,5.530943939295671595e-03,4.740990122115670488e-03,5.517246324482435668e-03,7.609621991815464399e-03,6.828113738298379268e-03,6.964084248887012288e-03,4.093464244982331079e-03,8.263537954004999617e-03,5.868121379335736014e-03,4.558576045321042873e-03,8.408327265298130848e-03,5.812588820002101420e-03,4.706147642932784203e-03,6.570807980697911457e-03,9.336221300981363547e-03,4.034601477131111169e-03,7.290279899136213604e-03,5.802866809780080938e-03,8.336486791409566943e-03,7.227693380664211402e-03,7.147442876454970610e-03,5.623219715979074253e-03,6.947369018715101631e-03,9.090723135525150336e-03,4.603536180732799472e-03,4.985105934303062959e-03,9.028145260263967936e-03,8.665131676046936710e-03,5.778858921785340330e-03,6.898320668279435582e-03,5.923831265226445902e-03,7.227282953103983561e-03,7.463459034727028957e-03,5.302744287816474507e-03,9.105395039084975342e-03,7.507030154370657356e-03,7.905445481467154867e-03,7.104071731673261905e-03,6.035972730920737689e-03,8.729024000772271294e-03,5.222364936842862140e-03,6.121559916734243580e-03,6.860257416960162391e-03,7.107325974668570953e-03,9.484199259476456395e-03,5.646094128595372137e-03,4.060745602180178271e-03,7.827653936648871699e-03,7.583972656756155124e-03,6.620657515043177656e-03,9.001664204570743524e-03,4.902496017651262507e-03,6.827630812060194593e-03,4.846887682170415018e-03,5.103872102395078277e-03,7.819634704552482982e-03,5.432957235582907760e-03,6.020761704099773619e-03,6.954859435713152925e-03,5.369085315380482150e-03,7.779773391532305953e-03,6.391072606289007092e-03,7.297920090640944678e-03,5.418739622612648611e-03,8.685895401697568338e-03,1.047372824535894829e-02,1.935395491517579586e-02,4.632086413131202007e-02,3.714388543034130574e-02,1.770923184675544243e-02,2.037679991713585957e-03,-2.493355919842057608e-03,2.100350646494222265e-03,6.441141910089737133e-03,4.129517277594618382e-03,8.484553261347772130e-03,1.803688546731473802e-02,3.526191995597086071e-02,2.929327888967101293e-02,7.226975102082863062e-03,-3.666756241215602362e-03,-9.664122134189727722e-03,-1.352352149978117493e-02,-9.107354526241270842e-03,-9.514745067772181764e-03,3.458614883677831910e-03,-1.087795070022922698e-03,1.349239115308084255e-02,7.751673491628677595e-03,-1.025081312439860698e-02,-1.804012676231677575e-02,-2.029752869904464033e-02,-2.566746115427879713e-02,-2.680287263329873479e-02,-2.754753690563620933e-02,-7.113927504291710745e-03,-1.159425314207939914e-02,3.510418991931765851e-03,-2.752960900065890785e-03,-1.266335008976397260e-02,-1.736125738120988110e-02,-2.078135791350171208e-02,-2.630527940669710393e-02,-2.983164545806105475e-02,-3.279833733963766207e-02,-1.420071395156993939e-02,-1.860616924996383315e-02,1.198974602769489490e-03,-4.613956514663774926e-03,-1.072972207274685424e-02,-1.200586697069241926e-02,-1.799046115317068026e-02,-2.155483372693795668e-02,-2.845121013080689418e-02,-3.114231615255914215e-02,-2.352085703839747882e-02,-2.790222408538872018e-02,-1.180319044499430169e-02,-1.648747875600048082e-02,-1.292190542091687516e-02,-1.648960039398632282e-02,-1.329640638842272474e-02,-2.007100144094469199e-02,-2.477544929426921463e-02,-3.066049079727639973e-02,-2.693647569170531941e-02,-3.173701942877294596e-02,-1.794564665170947718e-02,-2.075941131823322294e-02,-1.889121773221761474e-02,-9.585209680498909743e-03,-7.527080426511808739e-03,-1.351963697661123613e-02,-2.074765327441115137e-02,-3.029016689571296245e-02,-2.501940898117154324e-02,-3.176499292582483230e-02,-2.315870003718886738e-02,-2.592626510951542840e-02,-1.879542460443489604e-02,-1.527655710976133507e-02,-1.102968612508310048e-02,-1.537134789965193503e-02,-1.999552188143380316e-02,-2.882925302953628227e-02,-2.681935196308303862e-02,-3.677154299552876093e-02,-2.736049580385754854e-02,-3.532286697393083319e-02,-2.873294403466438579e-02,-1.965563859989381476e-02,-1.689363332849913926e-02,-2.019408692667140279e-02,-2.635290584680634318e-02,-3.417603022114840128e-02,-2.498343223944132774e-02,-3.676035856701946603e-02,-2.972944327334336653e-02,-3.923847196788377706e-02,-3.610981678992120775e-02,-2.950058714331389720e-02,-3.071747848504479544e-02,-3.264211854922611372e-02,-4.016682918067578101e-02,-4.409730411089114732e-02,5.410764922996936892e-03,9.474612261651789089e-03,7.659329223601584608e-03,5.698236253653169402e-03,6.956883932349446423e-03,7.080715505870035544e-03,8.914203583005953294e-03,6.607579898798429489e-03,6.973479012162258489e-03,9.870520797605605509e-03,7.985898947619892232e-03,7.128448180317511693e-03,7.057361278544990735e-03,8.977304257071957658e-03,8.876585885452330585e-03,8.404052937396027517e-03,5.090951299068507616e-03,6.502174644622463369e-03,7.741763491252642328e-03,5.909735382922130797e-03,5.063817969738173413e-03,5.045834799665630498e-03,6.930249586914936227e-03,5.028443519341311771e-03,6.298062716331490757e-03,8.893226695332597659e-03,4.930236234464786295e-03,7.759469893802843979e-03,9.214583596017655517e-03,5.279923947889384774e-03,4.947024850108516954e-03,6.323346166156075532e-03,5.126514892651309191e-03,8.287237270491095917e-03,8.940396738944113991e-03,6.949172621505535392e-03,5.557493935406269958e-03,7.014719772065353479e-03,9.246501134462931093e-03,9.226538920334610011e-03,5.734875062611879612e-03,6.801742559317245675e-03,5.751847835594856365e-03,8.663217284522538308e-03,7.840744761735537680e-03,5.501437814360330553e-03,6.639314561452473382e-03,7.111017614090301905e-03,5.254970217286243118e-03,5.048775777915534210e-03,6.526144136353199780e-03,6.872820937799747551e-03,5.924503836042938239e-03,7.129900950157456833e-03,8.980944887901172111e-03,7.167439176220521090e-03,9.180226922232566020e-03,6.031353209868811280e-03,6.359252136588120288e-03,4.636640975040257767e-03,6.071723430629583432e-03,7.523917785025219934e-03,8.354266247088846728e-03,7.590132906676341079e-03,8.093410709444470719e-03,5.394371830050360278e-03,9.389604293407778288e-03,8.856249928183224790e-03,9.610040976948322836e-03,7.123379286730370345e-03,7.370713431644002750e-03,7.386583531607035687e-03,7.279779620445319364e-03,9.071015309854013955e-03,4.742457879198428740e-03,8.420938783336601521e-03,8.828721040613159848e-03,6.480320651978109005e-03,9.014939064471767793e-03,7.079826583729108454e-03,6.337837751388770459e-03,8.907282865580517725e-03,9.025616532971581993e-03,8.364886215822946516e-03,5.226131936811615440e-03,4.838665674697122630e-03,9.625240682887264282e-03,5.151637133435224385e-03,6.078526694737487919e-03,7.062201011259635307e-03,5.423527675285094371e-03,6.589901213684908748e-03,7.741807527867444055e-03,5.821232649022982028e-03,4.858290649568203397e-03,8.982403380995604772e-03,5.739439170912033483e-03,9.376578992692497644e-03,9.362725420428100881e-03,9.013992261306709095e-03,7.824279178841592533e-03,6.767474551804824809e-03,4.511922726198772798e-03,4.669699200838621153e-03,5.007554982428110216e-03,8.091547134683869241e-03,6.288555040477558297e-03,7.341632891334699471e-03,4.510608722128210679e-03,8.400912125238337025e-03,3.992755646227601554e-03,5.433599796264839549e-03,6.183710172343627465e-03,8.049744540821884842e-03,6.373203010329011112e-03,6.898154688753731223e-03,5.541937988496118545e-03,3.518216276357562060e-03,3.452159683890368598e-03,7.685360840297149158e-03,3.573956523661099387e-03,4.182052447772232825e-03,7.432163654759483921e-03,4.392302304057920173e-03,6.019477086134083013e-03,8.416454012157008335e-03,6.253690731410566778e-03,6.675330050363158241e-03,5.936669046942713926e-03,6.578901254933898490e-03,4.024818019797532856e-03,4.309170455033171920e-03,6.804289908292527819e-03,7.344453130849802266e-03,7.111075805896116889e-03,4.506709635093662791e-03,4.350160925231733727e-03,5.569181640558898763e-03,4.645029595323717578e-03,4.962417973185105635e-03,3.991232499158415062e-03,3.994911043786488619e-03,7.155504746055370291e-03,4.839948846312796052e-03,5.268795772590952747e-03,4.246861549371047997e-03,6.784848042245076802e-03,4.471485764177725308e-03,4.036703543621605189e-03,8.250997077371605148e-03,4.931031201560005447e-03,6.777346750664339781e-03,4.384149330655066207e-03,8.094740815481026031e-03,7.971738551432721448e-03,5.470601039254971085e-03,8.354551081152471886e-03,5.760735427836744665e-03,4.208793445471415567e-03,5.577683641618074589e-03,7.449701143676754934e-03,5.365890557012592196e-03,6.545516040412330955e-03,7.985711383438683086e-03,3.635225805726162614e-03,6.079874493119790529e-03,3.524192602587920310e-03,5.956050766644464117e-03,7.610864426587837274e-03,7.827015186102936548e-03,6.770193503155894424e-03,5.466875555155873909e-03,7.570774260775227534e-03,6.946552574462600688e-03,5.661075492865793105e-03,7.003643593662798109e-03,5.375774499517088981e-03,8.353293984814616491e-03,6.708590174570441822e-03,6.796229101341524567e-03,4.038733268040566385e-03,5.578464004560506478e-03,4.169018884393322494e-03,4.506021211551724734e-03,6.838056556529411439e-03,3.777862162465359629e-03,6.335887074039488198e-03,6.733680135341575321e-03,5.732753977876625315e-03,3.549034053521460223e-03,3.482956954237898493e-03,3.672185118820384640e-03,4.097531186956378940e-03,8.391834590141488553e-03,4.640798998162092709e-03,5.281524347886163567e-03,4.031378539655515111e-03,3.635546903022371205e-03,5.706300694680905769e-03,7.163380858950430322e-03,5.195644760294238287e-03,6.831847566057293319e-03,3.960143695078869631e-03,5.049530904924368069e-03,5.568472190844712087e-03,5.173910375520985282e-03,5.130079697386912170e-03,4.640818179606942713e-03,8.479125633197682338e-03,8.057033401133905509e-03,6.800529691205910686e-03,6.729242554554843748e-03,5.774767219072629056e-03,8.064740790062134568e-03,4.516105612547667396e-03,5.687800765634946736e-03,4.893622442184949496e-03,4.577158670359490582e-03,8.775364119599714588e-03,8.839348403706228513e-03,8.874903403436475158e-03,4.354023736602058263e-03,7.899351395374135110e-03,6.972973617439507006e-03,4.970503938211928534e-03,8.755942540488559356e-03,5.752763737139888339e-03,9.013068138386889569e-03,8.555470615224576927e-03,8.979802354131580233e-03,5.162817335455860239e-03,7.634494011077169913e-03,4.293900812775009422e-03,5.888863713000349991e-03,5.654122613530078445e-03,6.566702958442860449e-03,6.629665875344208439e-03,7.897875991559017567e-03,4.820111185131302836e-03,8.531628403073962530e-03,5.763740607691777811e-03,7.068321914333202706e-03,6.093048730991156708e-03,4.180551022379916729e-03,6.961426402774822768e-03,5.439723657730795650e-03,6.519940112296339005e-03,6.913639148692576550e-03,8.742005667063002666e-03,6.029304107433201311e-03,6.071507473793301760e-03,6.775555424112911403e-03,6.182133162396169675e-03,7.125625410278755428e-03,8.145816443952055841e-03,4.390687860146933602e-03,8.067668068553031369e-03,9.197997514278688502e-03,6.478760820781677074e-03,8.943922170619280840e-03,5.380958065620302516e-03,7.506270160897787064e-03,7.336868161864887675e-03,6.062883576064570859e-03,7.875524553919606430e-03,7.381218989533299205e-03,4.872076014285780382e-03,5.379945973038885269e-03,9.511202931388958864e-03,8.989081319917709839e-03,5.024972813160702781e-03,6.198227397990595938e-03,4.729919768373965980e-03,6.426388652256690391e-03,7.691948798382478719e-03,5.950614665363233163e-03,7.115099829160972250e-03,6.192280467893707813e-03,9.392312817768136077e-03,8.033964310517578006e-03,7.384154114938802811e-03,6.309988875306539804e-03,8.070586861043626409e-03,7.139997560063052716e-03,6.252965825219533418e-03,9.109555916421150853e-03,7.887545034515072370e-03,5.721889387199626496e-03,8.490775195313342641e-03,5.210847631506640605e-03,7.953205720595300093e-03,6.122440376112528101e-03,5.113671842574203305e-03,9.372348047934983203e-03,7.069805542637060472e-03,8.664605782728084307e-03,9.855167488465354717e-03,4.915150310129600894e-03,9.294230292879460814e-03,7.718954662848580804e-03,6.552311897978146601e-03,4.392292632830870937e-03,7.942358573078522194e-03,6.356753634317489736e-03,7.330653768628814584e-03,7.648670823512997152e-03,4.325150505607986730e-03,7.914006973679858434e-03,7.566994230318325673e-03,4.932424917045926532e-03,4.605330433744287376e-03,4.579235670463754036e-03,6.454493366235567429e-03,8.041098877051167798e-03,7.253691817202871824e-03,7.133674932080236349e-03,9.252258680058465454e-03,6.280496237301624526e-03,7.167473092020755325e-03,8.595323722825358795e-03,7.839844510900658911e-03,7.673214334836519872e-03,8.025390338367188736e-03,5.819307490191652152e-03,7.418902667838219410e-03,7.986360630410804795e-03,6.384512924762233109e-03,9.609755303665519152e-03,7.647339816493024627e-03,8.474638604591969854e-03,7.775766251220355210e-03,6.073800888965087165e-03,4.871883381358464368e-03,8.814508859677178815e-03,5.054318496857746271e-03,8.322276047305766922e-03,7.868206089895276104e-03,5.773953080280009274e-03,7.423871007088661544e-03,6.304073661682100052e-03,7.035296060592955911e-03,4.665870306814731520e-03,6.890431200012392746e-03,4.661714906252248554e-03,6.232077054079692910e-03,8.385903491654154995e-03,8.821649619454067018e-03,6.508658123383020445e-03,9.144292841843785699e-03,9.041485834478397987e-03,5.247081584842388721e-03,6.997089599797475315e-03,5.532802775705863985e-03,4.859476562857800892e-03,7.296296303335944762e-03,7.467837328052183248e-03,9.696835836306434697e-03,8.380108025081369968e-03,5.803142378387512144e-03,8.506899911002145306e-03,4.902247541424296223e-03,5.504672782085036006e-03,4.291664951605704548e-03,7.702868800929180484e-03,7.637291295770895667e-03,9.051249776114746182e-03,8.176485411808253126e-03,5.052723272357249884e-03,8.793394520215023352e-03,5.741837758692561536e-03,7.271986730689415472e-03,7.759243350225509921e-03,7.168948997271522815e-03,6.945482920343739805e-03,8.748135978413723937e-03,7.795911007920503649e-03,6.669789830090373794e-03,5.193013441886247007e-03,7.062281405193741521e-03,5.898047251081985944e-03,8.121748572634873362e-03,6.681008115617972226e-03,9.012807825140021697e-03,6.742524542994603881e-03,5.857686240102473463e-03,6.537250661580673583e-03,6.945280528602358790e-03,6.874541082662828477e-03,7.695525237995813964e-03,8.496335042609996085e-03,6.457137680756022680e-03,6.954346067753395047e-03,8.344830012519887166e-03,4.292424568645676099e-03,4.947102533545054588e-03,8.329434700832305527e-03,6.152136068843479418e-03,4.990460884608671419e-03,6.665752831243605681e-03,8.013756392686973568e-03,9.819843943788122281e-03,2.403553436465688878e-02,4.220723760400383467e-02,2.641644375459383659e-02,-1.540656283388719058e-02,-4.030846373673062366e-02,-4.440621175509269769e-02,-3.332933729816362628e-02,-2.945587338256124704e-02,-2.522531871672700418e-02,1.185199029043897644e-02,1.762148628316989249e-02,1.620868199667036685e-02,-8.558777923814387886e-03,-2.893522512761069476e-02,-4.115749964937737149e-02,-4.436335422510045978e-02,-4.233338495827870807e-02,-4.164436066510089629e-02,-4.811956741293640233e-02,9.281543486352471922e-03,-8.571567694884188807e-03,-1.063971988169588531e-02,-2.505693059467518913e-02,-3.349215985190042572e-02,-3.539384805780709103e-02,-3.569839059469476911e-02,-3.469932318291777534e-02,-3.693190213290046403e-02,-4.872566985928729333e-02,-1.478840251676694605e-03,-2.057069565599204189e-02,-1.153772752447847043e-02,-1.423532240501467795e-02,-1.168047491456983625e-02,-1.096094593517360494e-02,-4.448490814695069476e-03,-3.077824364995364499e-03,-8.426885332295280112e-03,-2.294807536268216389e-02,-4.625295143867535694e-03,-1.823008029949873404e-02,1.462763199093614595e-03,4.473535852434814414e-03,1.448400918975356090e-02,2.159368808584351263e-02,2.700284016440177709e-02,2.719964065190216135e-02,2.244606776415588451e-02,2.065495606716372112e-03,-6.532917359259067872e-03,-1.635140924339992599e-02,5.875795147203268301e-03,1.874131126584815954e-02,3.402151769110634688e-02,4.523611945114115740e-02,5.387976386024623948e-02,5.958272841256561508e-02,4.934578216985234522e-02,2.447866712984518578e-02,-9.043250971896288348e-03,-1.655186106128463119e-02,6.098288312607258108e-04,1.640868258184787626e-02,3.967320298696259268e-02,5.932137324391627969e-02,7.270254399304354465e-02,7.482937524344492053e-02,6.501375734529911410e-02,3.834741924799402180e-02,-1.099582506991021724e-02,-1.922059208555195950e-02,-2.727335103894438194e-03,1.339366602687420971e-02,3.605294526916495712e-02,5.651664405496594629e-02,7.304642976794170628e-02,7.617447537423996384e-02,6.431480583255126671e-02,3.606680621977294277e-02,-9.618038211460493841e-03,-2.050279176996356797e-02,-5.830701164604139113e-03,3.376335964540938712e-03,2.495033662376258329e-02,4.361037340971554016e-02,6.275521031018617413e-02,6.498886993005886792e-02,5.055240124082072128e-02,2.360217223123910538e-02,-1.127701760458866762e-02,-2.163539132195093848e-02,-1.194616734241498585e-02,-3.167404891585573132e-03,6.393310599575608918e-03,2.215706145673920768e-02,3.926813126046148350e-02,3.679157126470359446e-02,2.895447063311055655e-02,6.023520238122775927e-03,7.862778769641712295e-03,5.977840393277382772e-03,6.794252777517771277e-03,7.410386050191650024e-03,7.399507537716852427e-03,7.109856817378976471e-03,7.677938862196115322e-03,5.212226353781278070e-03,7.005076073370039048e-03,7.556592866007882589e-03,8.639255801317914998e-03,7.077085476385783572e-03,7.261740057850771084e-03,9.507914708713153390e-03,8.944889032770539025e-03,8.025470836309469419e-03,5.143496176052388819e-03,5.746726534584973255e-03,7.016218363400255481e-03,5.040141883471790235e-03,6.851610353147394306e-03,8.809580353154503052e-03,4.706063773553120777e-03,4.735630793912746529e-03,5.923452419090413472e-03,4.448286775159898156e-03,6.360607057677011497e-03,6.196345849037067886e-03,8.504290943297293862e-03,7.311603313389332566e-03,9.335634000620346429e-03,8.646096377894733551e-03,9.278044020552629959e-03,5.354512995167075122e-03,7.651160193309542584e-03,8.615786089659816308e-03,9.325692873206035266e-03,9.283179822572739867e-03,7.309269740973147605e-03,7.638941218033050602e-03,8.591514408659961521e-03,5.816175358379278328e-03,8.858590561029118515e-03,5.107003468031783185e-03,7.685269559698499134e-03,8.081667627604670334e-03,9.736479465656757218e-03,8.312621040853600957e-03,9.138556364532878645e-03,6.170513620832107811e-03,6.507309866554729198e-03,5.361699317469861316e-03,7.336448148368035493e-03,8.973684870213870582e-03,5.946446388372506227e-03,8.979690641906394599e-03,8.309911118275867953e-03,7.705547403085493893e-03,9.059425495063675240e-03,9.063838377612818895e-03,7.564229235286014201e-03,8.351993346047487804e-03,6.019469360842215865e-03,5.858365968860525588e-03,5.061089075220849033e-03,6.008723849370591757e-03,5.117239921398671759e-03,5.371311405196267305e-03,8.481890677293558653e-03,7.106370652221731359e-03,8.638305508897643412e-03,8.393075912671674188e-03,6.402248789495164696e-03,8.612425668666733036e-03,6.160537035777587274e-03,6.297641379089817353e-03,7.841269729795052185e-03,6.514592029998820741e-03,7.192260368205730461e-03,5.297455766560430108e-03,8.823779557683866445e-03,9.121478250205485375e-03,8.436645018473120164e-03,5.849928188853242839e-03,9.593430195342140046e-03,7.910197449861669505e-03,7.108500809706274487e-03,6.751174307474106483e-03,8.379030884647184485e-03,9.697870217256217285e-03,7.120852002347904421e-03,6.046774959689429040e-03,4.682996009642625274e-03,9.414945659906408248e-03,5.221587179534106955e-03,6.828182713643870042e-03,7.532619788266211799e-03,9.567978617086690327e-03,8.946269286642638194e-03,7.258669992631545248e-03,7.482244511860231158e-03,8.418100513551178554e-03,5.526492893565305986e-03,6.560082510966631919e-03,6.542359833892327781e-03,6.441619564007274035e-03,7.528010301937428095e-03,4.562668472090485386e-03,7.720079647306581951e-03,4.127691052591796542e-03,3.699352533586987464e-03,8.239075030256108600e-03,8.211440970089925462e-03,7.333297231075949080e-03,7.702322178971103724e-03,6.840658917412300102e-03,7.850427734964280507e-03,7.904048574287267370e-03,6.094701058116484826e-03,7.532253720589302676e-03,3.835181976431656890e-03,5.308671851856868948e-03,6.811925053055598034e-03,8.218059543738831518e-03,5.575550801311500090e-03,7.387549093507572544e-03,4.782303913632183698e-03,3.453728021645397807e-03,4.035262113192949335e-03,6.784466559200038119e-03,4.043889668593769054e-03,5.402770679471652002e-03,3.525509427597558511e-03,6.992157932533436468e-03,6.918496309146829337e-03,7.031941445415716349e-03,5.765121671786149066e-03,5.844985548423255184e-03,6.362015278145231184e-03,4.126007806000017708e-03,8.375392269792569094e-03,3.654077550577199650e-03,4.847527196781872827e-03,4.524826078637682325e-03,4.733647495380089928e-03,7.759133416488778016e-03,6.465355110145797751e-03,8.333833004310672171e-03,5.974363713504435985e-03,7.754582973812154494e-03,5.176095374816959069e-03,7.075640862697716443e-03,5.858095185284514089e-03,6.897953602948647678e-03,5.128248177959773835e-03,8.084182554745356075e-03,3.531496478003878954e-03,6.636545521700246142e-03,6.339505518960963232e-03,4.821192656305216956e-03,6.263917343473555943e-03,3.766628230601740991e-03,5.682472489612601374e-03,6.151500805973059843e-03,7.716123743316725091e-03,8.280865988140449774e-03,6.941052844110359374e-03,7.602088793643892693e-03,4.533765158624645034e-03,5.037300799861969824e-03,6.311258670466869669e-03,4.697915215331584585e-03,6.631192639301571046e-03,6.286217260095422824e-03,3.850294381651227747e-03,4.114114245646706414e-03,7.725789202658618453e-03,5.907804840769670038e-03,4.417351303812433461e-03,4.168138663663197366e-03,6.471073044070057428e-03,5.716565931330526429e-03,5.877291583561938121e-03,8.035823349338900787e-03,3.766303147167152955e-03,5.190423013063645216e-03,8.058448477209771005e-03,7.937901774309093217e-03,7.702798977242348959e-03,7.571344945204818745e-03,4.734968103117126806e-03,3.915094666878090983e-03,3.784759514573329646e-03,3.581321454125446606e-03,3.846162103080170459e-03,8.192869239382616353e-03,4.635806634984663069e-03,4.033755330445372433e-03,6.714774837201923849e-03,6.880533162009882381e-03,3.963691581903449127e-03,6.667212215460570010e-03,5.830220271868167409e-03,6.341498399280242650e-03,4.907065159989449157e-03,9.310417244269507051e-03,5.439151039379259978e-03,7.222107710740258493e-03,6.336498827291479549e-03,6.843186224168632675e-03,3.915679355322217864e-03,7.448246690808347538e-03,5.274709012898358418e-03,8.951051102277934185e-03,5.136298851709888459e-03,8.785918490687103996e-03,9.561107458330081466e-03,6.355494433644488968e-03,5.928341734047375133e-03,7.530658275457630633e-03,8.154891182493581928e-03,6.581850031076669216e-03,5.013625197308742114e-03,9.199766199709672257e-03,7.949472554262117935e-03,8.029527281846882483e-03,4.893892766177795201e-03,7.064196224609731872e-03,7.793899281140257741e-03,6.341990274214036501e-03,7.780025207906575077e-03,6.019899211369610613e-03,7.719163576611482759e-03,7.714177100140841813e-03,5.315488920489292585e-03,7.163480982874232371e-03,7.811677768769824219e-03,8.818073765155668917e-03,5.487143671309371688e-03,4.755777119014055650e-03,3.893628618201777202e-03,6.735795775045069940e-03,8.900529244385425864e-03,5.511801038458449299e-03,8.746106175678010353e-03,6.208028617775637921e-03,6.653229250966033632e-03,9.298429525969695297e-03,8.431091274305033481e-03,8.722643893192622705e-03,8.472762093382874352e-03,6.986423881676569712e-03,4.180997659147564320e-03,8.758413901118177955e-03,5.261348911010261913e-03,7.907082834226308865e-03,5.765028157458152586e-03,9.431082129831071595e-03,9.680991531405787331e-03,5.849186569770302262e-03,4.873611641325585435e-03,8.106457804216425297e-03,5.360761891457145427e-03,8.459303791236346889e-03,8.122815519305933568e-03,7.037831781217213784e-03,5.642943336796706066e-03,9.426181571086154551e-03,9.232139207119040986e-03,8.327365833791544256e-03,8.535738991735630429e-03,5.429134708624862304e-03,4.555366847161735656e-03,4.976192633898091078e-03,4.940719233470122242e-03,7.850244234931814599e-03,6.099892322841417650e-03,5.273773134554148034e-03,6.464466872369470374e-03,8.548857108754161910e-03,7.528295913091309979e-03,7.054321968713715696e-03,8.769727241913091720e-03,8.588940253443781356e-03,5.579379549089955558e-03,8.561554545314643133e-03,9.433936374049770729e-03,7.262011380324596976e-03,5.107859733267883229e-03,7.037640361195336182e-03,3.990200674542220861e-03,8.330568140826799875e-03,5.158463347378464819e-03,8.789756669021289021e-03,9.359577929089439932e-03,6.629651839868154484e-03,5.284883968939830048e-03,5.943209685122930255e-03,5.144399488282290489e-03,5.191284558349991245e-03
-2.026331544507550125e-02,7.177389775866725198e-03,8.476092189910725341e-03,9.939935101213612581e-03,7.504705389165018323e-03,6.614975814011416801e-03,7.615983458268555696e-03,6.668660743273473884e-03,9.342997748092532820e-03,7.593426570998895210e-03,1.012752854725396806e-02,7.773378084744635846e-03,7.222895521894862406e-03,8.015112037753279253e-03,1.068897173975933736e-02,8.623882264424854657e-03,7.331332811431501284e-03,1.057494896568426587e-02,7.905199083414747238e-03,1.045279977159053325e-02,9.910920497845995478e-03,8.503738622892663065e-03,6.629565501540677502e-03,6.435452641751551565e-03,6.269242912197612976e-03,8.677661982097966895e-03,1.029365537339918882e-02,8.109022432615369327e-03,9.118481931928098388e-03,9.736262606311761950e-03,7.665856867222793983e-03,7.212316857092108957e-03,9.594850605657737758e-03,8.855781314104565344e-03,6.391220939509575580e-03,7.312646388410016726e-03,7.731867731378332803e-03,6.794641620839112460e-03,9.136462437709078760e-03,7.038788612212929473e-03,1.036308880120029308e-02,6.589401280408517525e-03,7.810551183152607442e-03,7.203924385550634392e-03,8.442504031180207702e-03,8.271651110426178274e-03,9.408022897693326184e-03,8.603257474709389424e-03,9.746579623988151087e-03,1.038248996594476163e-02,8.930544157044724776e-03,1.058874101916187742e-02,8.316372709924503559e-03,8.473855463316696396e-03,8.803876374099873017e-03,1.094669271066803923e-02,9.996378312713796038e-03,1.018390642246683880e-02,7.406104129092373235e-03,8.383717614825945963e-03,6.889956452501849390e-03,6.130581379745603417e-03,1.016884038407983928e-02,8.283679192848586448e-03,6.260838408170183757e-03,9.608303659978126299e-03,7.632601752678196821e-03,8.096598707577598933e-03,7.700411958002271150e-03,6.456666487661207217e-03,1.115669345139353938e-02,6.182979247657153371e-03,9.455976070941720865e-03,9.631892307357029989e-03,7.313831999664410950e-03,8.402051368898809727e-03,8.188372376453312285e-03,1.081420249758064701e-02,1.037798915342534947e-02,1.030569479102737274e-02,7.660518215026064504e-03,1.005002264408401576e-02,6.048786301009426158e-03,6.825733105138889409e-03,6.815006159437868478e-03,7.946372900051183047e-03,8.222634555375545398e-03,7.773641289674429813e-03,1.079786431621006758e-02,7.193556895774212874e-03,9.077144304021310395e-03,5.927242133426533811e-03,9.837017314328823370e-03,8.183972036526734189e-03,9.545104427704407049e-03,9.491291231284771507e-03,1.059498040948774443e-02,6.317117095833524841e-03,1.026406804916028467e-02,9.930279225466236148e-03,7.384692586903684498e-03,7.942527040907403774e-03,1.205508300473158260e-02,6.393163686729508646e-03,-2.159240652632658623e-03,-1.799863279106112338e-02,-2.593639700639151918e-02,-2.591138562433344464e-02,-2.425233859834974998e-02,-2.084271751612986820e-02,-1.734223765428509478e-02,8.582395842973777195e-03,6.830039617936357887e-03,-3.021775093152479635e-03,-1.313058524101314711e-02,-2.092712105176433579e-02,-2.908967043723007309e-02,-2.727861770282078921e-02,-3.089962809249380965e-02,-3.329646320167911622e-02,-3.018882058818058572e-02,8.058562272765357193e-03,1.415849417382734335e-03,-1.012843538435390447e-02,-2.074099568339528299e-02,-2.747399353821265364e-02,-3.024203514937960288e-02,-3.211609223818561593e-02,-3.260810367031915374e-02,-3.568313215013054623e-02,-3.749863436770135838e-02,1.478084730678159422e-03,-1.070026160652544009e-02,-1.975017204226664838e-02,-2.507248786127986781e-02,-2.999794576106962901e-02,-3.177348722951496562e-02,-3.204479460230936355e-02,-3.789000210179624406e-02,-4.028286256721744923e-02,-4.455026394623377850e-02,-7.256188427452157225e-03,-1.570320120754487014e-02,-2.508204674674328546e-02,-2.604312720648395071e-02,-2.993640168207309035e-02,-2.857039770008040075e-02,-3.216498604691746255e-02,-3.611404728274764803e-02,-4.031744056822222227e-02,-4.691559163442934194e-02,-1.088106537058013482e-02,-2.023168325045335281e-02,-2.337681107451435036e-02,-2.624637787204389672e-02,-2.543997188877725191e-02,-2.837412863405036970e-02,-3.191055633450631118e-02,-3.298045915833166392e-02,-4.157114834460678282e-02,-4.328415242486223502e-02,-9.380915782247339907e-03,-1.732858749044948951e-02,-2.533267127865011445e-02,-2.761594263487953532e-02,-2.556592951380674480e-02,-2.588793362458641570e-02,-2.682254092921606756e-02,-3.265656377845201075e-02,-3.734777182724108996e-02,-4.645182305713838750e-02,-9.008579909806115060e-03,-2.131960695812924050e-02,-2.676748458333001734e-02,-2.489699329895002713e-02,-2.362190256928958093e-02,-2.241446994825669822e-02,-2.823040842694324315e-02,-2.991820509111480647e-02,-3.907313228147833717e-02,-4.188556051043003381e-02,-6.795265120973891480e-03,-2.188747687825541924e-02,-2.283884658156698846e-02,-2.692423355840540058e-02,-2.457995115594215421e-02,-2.226402758380786537e-02,-2.607234550423981681e-02,-2.948815317933798502e-02,-3.873557923657384300e-02,-3.979069271280684383e-02,-5.883834040565067910e-03,-1.697471647206356266e-02,-2.437876289324722098e-02,-2.375141137860917184e-02,-2.208760633947459695e-02,-2.454463015305671444e-02,-2.601574892199213368e-02,-2.980905498519929864e-02,-3.940240411775979695e-02,-4.259193378814922493e-02,8.726677134105400788e-03,7.312079175305415991e-03,8.369756628460756423e-03,8.799873110622314851e-03,5.829103301864335153e-03,7.721322599895711312e-03,6.878987723230125563e-03,5.368114278103608070e-03,5.624723730302745237e-03,8.948388439225312199e-03,8.079878310006394226e-03,7.128524621209760513e-03,8.114548340926621209e-03,7.647842677414167477e-03,8.658890149545751466e-03,9.641101515118235404e-03,9.022901492704425708e-03,7.703158307365094194e-03,9.075902606150040158e-03,6.033339927679360823e-03,5.279135045209428119e-03,6.267452162094309075e-03,6.274848488238564566e-03,8.903791159863031976e-03,5.318610220083399946e-03,6.200293343906043350e-03,5.642078166396764446e-03,4.854232179956725728e-03,6.750038400118296873e-03,7.347794955884149985e-03,8.498670082148994040e-03,9.873730727615926545e-03,9.071433881388308099e-03,9.639548636131844636e-03,6.284734367379018853e-03,7.995348039456975225e-03,6.246613345051084745e-03,8.157951493328095480e-03,9.309398065005813211e-03,8.358416489218339906e-03,5.255161513055632214e-03,9.335066068401747311e-03,6.300124765161036790e-03,8.321026950877217707e-03,6.085603522512505678e-03,4.777815221397342660e-03,6.073115418349078060e-03,4.662420381094106378e-03,8.343939692599005795e-03,8.857993067065137935e-03,5.853758964293667190e-03,8.320278084734598206e-03,5.619145010971460588e-03,9.328425557436140214e-03,7.750683281973061618e-03,8.336356661575864899e-03,5.763010496844612161e-03,6.138237898772654771e-03,6.815567817414759817e-03,5.686790601692667639e-03,9.027000742384714768e-03,7.271681856863766030e-03,6.776635818785515554e-03,5.237655057821222551e-03,9.183239782826072353e-03,7.708377359751815774e-03,6.216460577383790126e-03,5.559459216608493397e-03,8.220153064138459309e-03,7.190987315427731057e-03,7.505320298382489944e-03,8.719896610019397393e-03,9.221940335223522203e-03,4.944229990372669796e-03,9.548731256135640014e-03,7.005974720513714546e-03,8.913414699325992660e-03,5.504588095441816271e-03,8.319344042205072121e-03,7.675212171774957806e-03,8.638788486924836932e-03,9.501716111951427624e-03,8.467910133825378230e-03,8.727393834203936787e-03,7.457180159223046091e-03,8.258468617981955251e-03,6.351447389427107397e-03,8.815920912944717747e-03,8.031232365445816965e-03,5.935559566864097303e-03,7.193174720472670335e-03,7.279186693973198341e-03,6.331327589006371763e-03,5.831481680009863861e-03,8.533848194644805610e-03,7.821656747268285192e-03,8.860197477291343812e-03,8.388479237130685648e-03,8.320659705636088838e-03,6.889456923698092372e-03,6.461720826558963425e-03,8.392247994774563319e-03,1.017700026823867981e-02,8.871326459776687767e-03,7.050638655067911938e-03,9.954379698738927140e-03,9.981241915324189778e-03,9.990141255249079810e-03,7.383072378614925942e-03,9.736113124456245022e-03,7.955816116636737698e-03,6.383166534443668154e-03,6.062073802409089114e-03,9.798750500387806012e-03,6.138072103768797867e-03,8.029195411929482967e-03,6.614154227991437922e-03,8.391480127133914280e-03,9.086195959755776624e-03,7.531026771776637950e-03,7.938030269403142589e-03,7.848278039844034520e-03,8.173934166832550266e-03,9.257059320866563995e-03,1.089667959695611588e-02,6.564253345870979355e-03,6.703194006031982198e-03,7.428649482952667284e-03,9.398154659915516906e-03,8.979362680374029099e-03,7.521847154654095861e-03,8.102275421216827839e-03,9.136920368474230059e-03,6.903944540657830538e-03,1.070558726362156460e-02,6.235481499199645346e-03,8.297297963349608771e-03,1.078569399087872874e-02,1.027388543345064340e-02,6.526857309282132515e-03,7.926294446600739424e-03,8.970527951597015437e-03,9.069109478081358033e-03,7.838057692560816692e-03,9.577596506083533440e-03,8.901762544434789481e-03,6.894599748153726858e-03,1.022103274077877655e-02,6.389634932019266390e-03,6.809771995328068282e-03,1.026055252487170430e-02,7.194146277390266360e-03,6.321876122037714714e-03,8.688880173359954384e-03,1.025820078116035372e-02,8.461899928880915051e-03,1.036273658585398078e-02,6.303956890655865349e-03,8.281129237886703312e-03,9.029994269815842800e-03,8.160153737016501499e-03,9.257865401446352394e-03,7.819785841011509669e-03,6.475099198265767304e-03,1.037534538289609440e-02,6.793952715244878753e-03,7.459405326654808786e-03,8.145804132413905774e-03,7.054167787077967981e-03,8.010353877367482056e-03,7.015976058680025405e-03,1.079449902017821927e-02,6.572271474483310470e-03,8.692293981690552007e-03,8.089596598279191059e-03,8.093200544137696753e-03,6.818209757979062750e-03,1.010048014935865587e-02,1.021223390175388102e-02,9.749534281047352730e-03,7.247177376477968204e-03,8.890011050537827142e-03,7.270998837554053761e-03,9.880076306252014856e-03,5.986559983429185113e-03,8.099396694788778620e-03,8.936911552354091792e-03,1.034462432439324509e-02,6.589786873278030872e-03,7.076572615994575384e-03,8.788507240327935593e-03,9.132862814381102756e-03,6.812294848268763379e-03,8.324742555783913242e-03,1.030632405269839638e-02,7.315520431946003106e-03,9.150654548233723429e-03,1.044201462692980614e-02,1.070652588827215868e-02,9.587125295198818675e-03,9.901658488610354247e-03,9.992850910819365412e-03,6.552543199468031584e-03,1.130746370539091952e-02,7.043967960426468326e-03,8.135074706033191064e-03,1.068105828510962189e-02,8.810828179489343243e-03,9.752063877310883713e-03,1.139001874361865625e-02,1.044293239052841889e-02,5.846526182312588964e-03,8.729814290955028103e-03,1.165880690003975872e-02,9.677610141767760410e-03,9.475562694854994597e-03,1.045717433511464227e-02,1.046625253381086411e-02,8.864519812532393322e-03,1.139945146312758978e-02,9.732615810093788941e-03,7.903812766133281459e-03,7.116963026840939649e-03,1.157314092345840262e-02,1.199959744010297043e-02,1.218090684165698892e-02,8.951329856412752403e-03,9.821562236528826734e-03,7.508507003954049963e-03,8.462245760673227715e-03,8.624418561514687193e-03,1.027077961968924334e-02,1.023062043227680913e-02,1.207745023602124074e-02,7.414839219017149360e-03,1.168294528974107849e-02,8.811810700059242996e-03,1.050776306863521713e-02,1.005102857110916348e-02,6.609646513584472097e-03,1.060546677593553373e-02,7.037230980994208830e-03,9.758545892211282699e-03,1.065508236014460486e-02,8.276883123570824216e-03,8.747219726909864421e-03,1.016148166365775200e-02,8.583877649458289405e-03,7.203798016618251018e-03,7.079067205078299480e-03,1.121470893300535558e-02,7.666721502207614510e-03,1.194952034020022903e-02,1.155733848581323026e-02,9.664693992187532029e-03,8.803040548718941635e-03,9.435064847529157916e-03,1.236569810360809568e-02,7.622591310023879574e-03,1.011367821970699833e-02,7.097713633297942151e-03,8.124881580206274115e-03,9.707268979314571944e-03,1.115052065794867875e-02,7.996137532836391712e-03,1.118645256465865961e-02,8.365136229875499291e-03,1.103470709392595679e-02,1.169240356977490833e-02,6.494572207691920625e-03,1.004323711525534520e-02,8.042681065911650579e-03,1.107644602359530300e-02,7.862235838877970964e-03,9.653488039833695369e-03,1.034250852713725945e-02,9.082846759486810570e-03,9.399668945331621922e-03,7.287389479388213173e-03,9.722023797815029095e-03,1.019899081235163714e-02,1.026127921052827005e-02,9.735470607766206694e-03,7.095032164116016164e-03,8.419586201542806486e-03,7.547412160286407282e-03,9.313072051691463973e-03,8.978447419783604222e-03,9.711819271752466023e-03,9.890229265612782150e-03,1.084019733469252823e-02,9.603596406744038458e-03,1.125541012059389293e-02,6.809781954998582812e-03,9.634353178866655876e-03,9.124644390243562622e-03,1.021275439122266808e-02,8.614292730642236773e-03,9.854119976062539546e-03,1.009292177890472493e-02,9.880567397570188398e-03,1.056933101570337388e-02,7.137386014785041151e-03,6.180440193894874701e-03,8.096667209097590037e-03,9.706451667395728580e-03,1.012807030753338361e-02,7.968932097137877354e-03,6.086082606240407304e-03,5.786944371069261718e-03,1.026341464649318733e-02,6.495024193026567236e-03,1.047257904592477536e-02,7.241637348801637300e-03,5.929475083810077825e-03,6.664626398390512303e-03,9.954827338883937698e-03,5.662846384579729199e-03,5.299361495439612775e-03,5.567649976601612115e-03,7.893342489662715997e-03,1.041467165673045682e-02,8.079947435509255912e-03,5.317131649163895496e-03,6.993800614406575633e-03,7.305414825619967883e-03,9.967577028204131773e-03,9.903545352223121906e-03,6.151014729427304803e-03,7.391248640803651897e-03,6.181411766192391154e-03,1.011660653739927286e-02,5.355366259042632256e-03,6.497546118572660248e-03,9.414893133199929084e-03,9.233414797792794185e-03,8.113275717948056562e-03,9.558929468643999339e-03,8.809263738704251750e-03,8.179878170129953330e-03,8.282135267837205037e-03,7.968350558956900642e-03,9.091733068023655565e-03,8.999463359958277675e-03,9.057571293755523750e-03,5.849951168593792508e-03,8.148462195057359567e-03,5.347620071213180296e-03,5.954846021566245935e-03,9.130057664475669382e-03,7.556514742110451502e-03,5.789715610000662795e-03,8.545362539097397722e-03,9.516687816324313071e-03,6.216045844397609030e-03,6.140454175548231384e-03,5.598591231263699147e-03,5.168866784441464302e-03,5.604056226284592247e-03,8.662681055123428592e-03,1.064006592579019687e-02,6.695249487964185023e-03,7.470272981585414536e-03,7.641601363391193474e-03,8.815418923677844493e-03,8.506530358283718660e-03,6.896463294358590700e-03,7.076257157832852550e-03,7.444028348731664309e-03,8.089227463551153241e-03,8.788213673436358342e-03,8.609178967296611182e-03,5.662963141451348922e-03,5.396452830657201376e-03,9.234592106400140235e-03,9.049197056352211235e-03,5.761918786833760894e-03,6.129403994510074401e-03,8.753646999681096927e-03,9.849777615132055200e-03,7.077450854523607143e-03,9.596950181397027532e-03,9.623080763471267979e-03,9.573354852411283117e-03,6.494045097127091465e-03,8.689964016543460720e-03,8.540323910752600778e-03,8.321809485022221495e-03,5.327050781746765253e-03,6.783378395947853128e-03,9.632008750423262655e-03,8.946621386865851941e-03,7.269869463573052325e-03,6.739431585941682915e-03,6.766822250316832828e-03,9.147589439671394151e-03,9.443582874109191991e-03,5.092173327092290071e-03,7.820084136173419478e-03,5.330697174121601378e-03,8.357272172765464052e-03,8.977641441924286841e-03,1.318718896594264084e-02,1.135241890785278901e-02,5.593978132677635690e-03,4.021172652917802230e-03,4.507683097018535742e-03,9.304595068768579946e-03,1.284132242105625460e-02,1.192116913296227369e-02,8.743443494439492869e-03,2.598527946600034683e-03,2.980624245323408236e-02,4.407327193373837548e-02,3.864337470335739433e-02,3.557657803767814986e-02,3.370639847233036085e-02,4.006564004734929074e-02,3.984633146704789908e-02,4.001263903564775126e-02,-2.351302642588803775e-03,2.707803115444049752e-02,5.751229530374450671e-02,5.669016884066280237e-02,4.549640219434601673e-02,3.197918622255249005e-02,2.997504414875822379e-02,3.297460671519240188e-02,3.915986523022933069e-02,4.090020016399500274e-02,-2.858080864341373470e-03,3.901693579362056075e-02,5.979252624323914966e-02,5.270551902939815681e-02,4.017042817314073200e-02,2.871605713864734677e-02,2.459388138775251906e-02,2.411459534306577626e-02,2.691895114013904272e-02,3.231692567282315465e-02,-6.256136350359974355e-03,3.774734783882879169e-02,4.901663934975454551e-02,4.052928480725810634e-02,2.844815509135978013e-02,2.571907725800662986e-02,1.911602797822303801e-02,1.646110692549959675e-02,1.739990916200787746e-02,2.826118935947090002e-02,-1.019355590565278712e-02,3.802004147381952276e-02,3.879894042603979076e-02,3.569444954129573355e-02,2.369342700140449412e-02,2.182072412223070440e-02,1.454331203117759791e-02,1.461324451993077471e-02,1.283916288345957925e-02,2.350659433635279155e-02,-9.363616170509922107e-03,2.832732122426224672e-02,2.944515919475750032e-02,2.682959743448932316e-02,1.990084204318655348e-02,1.868423696654990251e-02,1.255036490406856269e-02,7.330219096529087472e-03,4.802362379411988930e-03,2.012611649942830372e-02,-7.263577042221817416e-03,2.127559537007270643e-02,2.889343645681713424e-02,2.439759212467827731e-02,1.798752890757137485e-02,1.663982890644605597e-02,1.066922781875698917e-02,8.960475540149748577e-03,-2.072103451189624343e-03,1.663523814878471729e-02,-7.986024366758315979e-03,2.256898128630919348e-02,3.036537815541039825e-02,2.636361103396679673e-02,2.385810448507797582e-02,1.559124140669948706e-02,1.209033850470421327e-02,5.930234422366164986e-03,-1.697911861574774063e-03,1.486585539629114300e-02,-7.498568340072958235e-03,2.508069756659466951e-02,3.390255530872571949e-02,3.620653187278925766e-02,2.954198597136201837e-02,2.293661492608823835e-02,1.171026932146610605e-02,7.756883286754837764e-03,5.513164171285486748e-03,1.965049515094872967e-02,5.093245012961130150e-03,6.901837134071933319e-03,8.508080795651847689e-03,5.906538392663537342e-03,8.969028863425617878e-03,6.650960721658342491e-03,1.013745130475133226e-02,9.013300764604706070e-03,8.845754457215042679e-03,7.912878037912849868e-03,9.440721548665690147e-03,8.884993180264345869e-03,5.573400248973166791e-03,9.668787564897708339e-03,7.959372725761507464e-03,7.086914026055157745e-03,7.700828502746088523e-03,1.002410961296210101e-02,6.161447579754144449e-03,8.511502544418967156e-03,7.301622117803226175e-03,6.890770632254848357e-03,9.052149721478488717e-03,5.587810844533910165e-03,9.709383864972625025e-03,5.508802343527844335e-03,9.410444339455696638e-03,8.510898361367353823e-03,1.001913822211201836e-02,1.017798406858583422e-02,5.806533061271102782e-03,7.834431074047012653e-03,7.019998222833552341e-03,9.696769886018237125e-03,8.397491857263459855e-03,6.302637104121881946e-03,7.018660879389158197e-03,8.261587514355035050e-03,9.628549354674159969e-03,9.546465990251860184e-03,6.422639710924624677e-03,9.943543000164435305e-03,5.642646720057866924e-03,7.257064262361927892e-03,1.019928206149614373e-02,9.532778301080502975e-03,6.363239804803292286e-03,6.958461722343670108e-03,6.236107811552501698e-03,7.841962223581168401e-03,6.402716057819239116e-03,9.121306515308473875e-03,8.315038413284746993e-03,9.086803846739955129e-03,9.546660522627569909e-03,7.669663832385577307e-03,9.598374784319740893e-03,5.616843230689501192e-03,7.579318994350551369e-03,5.597038120663150838e-03,8.222424394783560755e-03,7.230073474241552334e-03,7.611458341961769430e-03,6.551455054102207388e-03,9.587869907676880438e-03,9.697044129357330552e-03,8.604454712023978935e-03,7.526553009324267983e-03,7.938488675402994438e-03,7.955067469158817392e-03,5.960497047209844038e-03,7.269194122384426901e-03,8.942916938682054367e-03,6.434421301612975111e-03,9.068522602926815113e-03,1.016739101028802869e-02,7.888840248384177203e-03,5.917241404880323880e-03,9.228425139040940389e-03,5.932104360566734999e-03,7.100304104538895759e-03,6.012433167778235069e-03,5.860556179267315674e-03,7.000906942932191845e-03,5.859142990207235994e-03,7.890144511782064621e-03,7.387011014831772714e-03,6.166997593294492111e-03,7.763983119332278776e-03,7.012353522221114258e-03,8.279909805554434149e-03,6.419200087087045814e-03,6.002438682418303854e-03,8.651149213604741872e-03,6.677859660622863236e-03,9.209405754912573794e-03,9.017223316981471878e-03,8.082552772263853352e-03,9.136919893039437829e-03,6.062869249356448928e-03,6.680499702380976630e-03,1.011040999290514081e-02,1.046141122149795918e-02,9.771791040499099024e-03,9.090325129220134387e-03,6.463767404205200164e-03,7.593318479782183543e-03,8.343086181569097856e-03,6.819662926453724273e-03,1.011584443619452031e-02,9.247669008822376885e-03,6.820922222459216942e-03,7.008375678525679935e-03,1.086221009871394388e-02,9.576443302144264924e-03,1.086133514097383304e-02,1.057262704143462767e-02,8.742082359190626872e-03,9.108756589094327977e-03,1.078297583240682075e-02,1.030841390286902498e-02,9.943048918695011895e-03,8.398927673035436886e-03,7.812843712282866240e-03,1.035122531875116644e-02,9.703727202408102964e-03,9.127158298908314565e-03,1.028983498610257230e-02,1.073978034515166852e-02,9.003142943301511991e-03,1.013537770021647258e-02,8.640544906138431652e-03,6.782999287902591150e-03,6.570353569871892861e-03,8.710329367210500884e-03,7.562766797054586675e-03,8.417376088164285619e-03,9.649505806741599800e-03,1.022667044641326420e-02,9.725782281328251150e-03,9.441494268635605008e-03,7.657365951556732893e-03,8.273227836732075305e-03,7.222650566735883647e-03,7.343452332852671953e-03,7.459232919283039116e-03,7.038376568666677817e-03,7.356782080521242530e-03,8.305527343288430717e-03,7.336887268098685015e-03,6.710924226308007980e-03,9.752672489850986587e-03,1.026029707993448073e-02,6.302572797863039734e-03,7.228162231212152504e-03,7.314909522448581440e-03,9.192857282363284255e-03,9.803105035029763270e-03,9.922501524893545533e-03,9.188922018567087513e-03,8.479685689866386933e-03,9.313519615580617000e-03,7.059066875857915833e-03,9.469598605762203497e-03,9.668318247740854271e-03,7.597306511312071527e-03,9.164321226371733436e-03,9.035495281781335403e-03,8.797668766850657435e-03,1.043489892960070345e-02,9.242696449801961200e-03,1.066723665565766713e-02,6.641952550600754672e-03,7.257645178458871880e-03,1.088375651025428117e-02,8.324119514216210894e-03,7.618032152938787778e-03,8.077570087188661735e-03,1.041024741109742441e-02,1.018776223246129278e-02,8.242460054565295055e-03,6.833649303053365189e-03,8.694388222804994015e-03,8.079781931733419006e-03,6.257637767529152135e-03,8.771100345939121523e-03,6.381513977266780636e-03,9.346648665605843814e-03,7.998235476032010058e-03,1.078044523033959423e-02,7.939973298377391714e-03,8.222497518595035457e-03,6.242916990194206407e-03,9.274998224649898954e-03,1.019088967896967027e-02,7.695954266812569076e-03,7.690026591444908653e-03,9.570881057997047969e-03,1.012248042240040946e-02,1.006882108745188464e-02,6.495718393370663452e-03,7.844303166469229413e-03,8.629783038670868836e-03,9.750192944719604168e-03,8.578002380426115459e-03,5.617803993853971549e-03,6.670925195189428281e-03,5.497562493229376721e-03,7.019205857989139520e-03,6.599105296165552227e-03,1.001093911838288678e-02,5.019507327340742495e-03,6.309918684936488033e-03,6.196472574624116263e-03,5.229727734973499582e-03,9.293033395962968166e-03,9.844939977628877625e-03,9.291198544839743279e-03,5.727264148119808225e-03,5.858302770037726419e-03,6.039185806339240035e-03,5.388257520396967301e-03,7.210934234483350712e-03,7.646517158983151541e-03,9.971594779232163461e-03,5.727093340269549457e-03,1.001592688671279138e-02,8.372810060865459869e-03,8.787187135695102846e-03,9.788974946853474732e-03,7.619205884506791149e-03,8.934420508753572465e-03,8.032032024213870205e-03,6.999854237401970276e-03,9.454608324229956881e-03,5.407952781279369917e-03,6.222394284270417117e-03,6.473382734145652871e-03,7.369059163414159661e-03,7.189938630798961561e-03,8.744803212748090623e-03,9.548113486083162002e-03,