-1.108829717712661034e-01,1.672126301594733903e-03,3.395540964366031752e-03,6.145175544167643354e-03,5.666253078710745822e-03,3.349097274548512061e-03,3.453784454288928198e-03,5.227808430797413822e-03,5.743176012967628717e-03,4.025627219439993458e-03,2.715382484653272935e-03,1.210279016193827831e-03,3.604436862579772291e-03,2.020036969749917748e-03,2.158869145383367997e-03,1.499404328342714100e-03,9.026528530069019736e-04,4.108658428539121998e-03,1.534304369893811117e-03,1.679808689974541559e-03,1.951853462755166789e-03,3.896318785580075994e-03,4.691024585160897403e-03,1.966254925666205324e-03,1.526433562645613693e-03,5.817734100506850858e-03,2.415424705603308204e-03,6.652992806721377134e-04,3.306727803832413800e-04,-1.856858220009903818e-03,-1.043757149642551580e-03,3.903643277904803380e-03,3.171168626810359943e-03,5.895282532009121605e-03,2.631546370935917631e-03,1.779069861361647032e-03,4.862124966041490512e-04,1.226989983124358342e-03,1.381019233715748780e-04,-6.788980487495347273e-04,-3.382768915635917754e-03,3.457531766440365400e-03,6.015234295592427650e-03,4.839661254367316583e-03,7.144249562730561019e-03,1.603722764183251751e-03,2.412907803091877447e-03,1.772779785748422425e-03,-9.044199172707908466e-04,-1.444366961698887938e-03,-3.549303735905214984e-03,5.123498079858191008e-03,3.904533278360352959e-03,7.098735433063083772e-03,7.294312265581478529e-03,6.015743658590540222e-03,1.458882502017951402e-03,2.361385806450788660e-03,2.672293576595855761e-03,-9.005285483765994954e-04,-1.912215643319521881e-03,3.035400157831502372e-03,3.798579147035009013e-03,6.691046393499619147e-03,6.373600222526158189e-03,4.020385312708319760e-03,8.972897955228767474e-04,1.974479721962968046e-03,8.488215520604003609e-04,-2.942411364791659798e-03,-4.384286178084385172e-03,5.188736522420212341e-03,7.709493429740922089e-03,5.093671827960463347e-03,6.374170430014836422e-03,5.287007332924936569e-03,4.585306432754236022e-03,1.791585122572772731e-03,-1.877824954508206575e-03,-5.338441829192913744e-04,-2.538744785122592270e-03,6.976677756332154597e-03,4.915814562431566719e-03,6.199250336083612228e-03,3.022046698835309953e-03,6.646992605760876360e-03,9.879433239813042653e-04,2.882942810912588263e-03,1.700659865312843712e-03,-1.511083527721265429e-03,-2.215095202282898156e-03,6.737871464764505838e-03,7.948053931261824662e-03,6.004710857587811437e-03,7.584670564781404757e-03,3.110800753872035914e-03,6.087145725753239159e-03,8.926424748377359943e-04,1.770002984515110398e-03,-1.521751493772108060e-03,-9.681411058819925719e-04,6.356071209336673460e-03,-2.521524239463215564e-02,-1.152950112448388187e-01,-8.405612355493537191e-02,-3.993761059193167567e-02,4.822800323249058947e-03,5.345565765813387049e-02,6.352404835387415183e-02,6.062163751300878034e-02,5.743479614751922924e-02,-2.338291074829713240e-02,-9.741730971708850717e-02,-2.806235431149926851e-02,-1.865494964072279133e-02,-6.167784775822048732e-02,-8.242721972203966019e-02,-6.133985082673989314e-02,1.136682521651638522e-02,7.491172866962934884e-02,9.166376750471465218e-02,-4.695710144706310984e-02,-9.488267786432108553e-02,-6.571355470766312989e-02,-9.399687020498097290e-02,-1.199595189707479553e-01,-1.298126599151269156e-01,-1.190827298439916110e-01,-7.460776768647116308e-02,4.563913274262052649e-02,1.019086058737643935e-01,-6.298821016577214882e-03,-7.464242433935752707e-02,-4.107738441290742504e-02,-9.725731181353727828e-02,-1.090096764896623521e-01,-8.710611185827230041e-02,-7.341335222313709330e-02,-4.969417133120712649e-02,6.669985924103248587e-02,1.627663062529216276e-01,-3.548250135286916407e-02,-7.351874948855620373e-02,-2.940138762709587975e-02,-9.282497529170430361e-02,-9.007668072437254037e-02,-4.282490668665241834e-02,-3.026996765648080553e-02,-1.924393000620614608e-02,8.441282309992531596e-02,2.055191563729169002e-01,-6.309438320141569356e-02,-5.604881360988347300e-02,-3.521389004951211432e-02,-1.074989838694559718e-01,-8.986249316947406141e-02,-3.793697546658279796e-02,-1.655824420208045628e-02,-8.218650219966316950e-04,9.584406652527878434e-02,2.016167969383907410e-01,-8.306065643661739162e-02,-3.234046874333028343e-02,-2.771724167098321007e-02,-9.665073615006077035e-02,-8.261563709331462557e-02,-2.816609410318341930e-02,-4.236843381234868880e-03,1.791981857107310602e-02,1.027421215209611549e-01,1.946098550315436548e-01,-1.143531451284980488e-01,-3.004691129137914904e-02,-1.408653618729445792e-02,-8.162889403914093400e-02,-6.022139604632747306e-02,3.394504138076612221e-03,3.700189650378296613e-02,5.877859965389670843e-02,1.148194108529772273e-01,1.864140198320226316e-01,-1.376633331235000146e-01,-7.729157957125856737e-02,-4.255634966331363345e-02,-8.676619533944145146e-02,-4.910607497307176161e-02,2.665042860680883613e-02,6.828004555649100360e-02,7.497049478989493976e-02,1.253224007166278964e-01,1.910854228605489702e-01,-1.555583233764997741e-01,-1.388078000131059142e-01,-1.286501160796679755e-01,-1.820492829450033045e-01,-1.510923380535888760e-01,-8.171007998109033887e-02,-2.164824296982254329e-02,2.052815385620071487e-02,1.025154646530215541e-01,1.795950442614904496e-01,3.944835341146431251e-03,4.449195568880452700e-03,4.626800804108113785e-03,9.597757086230154690e-04,4.828549458501103092e-03,4.564718820292853335e-03,4.609585683496604178e-03,1.346966973051500708e-03,4.702574749686855293e-03,1.222082462081242396e-03,1.295288206294695644e-03,1.503561249921829372e-03,3.012544902571601905e-03,3.753040400976059236e-03,1.804501588287424005e-03,2.892254650372498830e-03,1.537967152548521451e-03,1.272636114127033511e-03,1.604980328731637606e-03,4.138540326689148403e-03,3.689847813432426456e-03,3.895788735824582110e-03,5.478523910617491902e-03,1.084684189468969415e-03,6.386704425315734880e-04,9.148437330058851926e-04,3.605248294804186838e-03,4.930136414744403645e-03,2.756155126207443084e-03,1.736834219096398176e-03,7.507474131430631227e-04,2.114294862731125758e-03,1.480345042278142891e-03,2.309482546268798713e-03,5.468882607615252814e-03,3.269403786381674341e-03,4.894740515729380931e-03,3.254507374520552391e-03,5.045174963239173679e-03,4.351855734147348775e-03,5.184864949556052677e-03,4.814145998283531069e-03,3.903733609974365231e-03,4.342297868338462069e-03,4.361774188957336443e-03,4.289955793495022970e-03,2.999006420292525416e-03,2.964640565663376106e-03,2.095697222867492788e-03,3.040048399187862942e-03,4.641818285937614544e-03,3.529595140937518121e-03,4.193375452400814780e-03,2.505455109017641017e-03,4.971622645119742542e-03,2.033490960820564814e-03,5.923906599633428031e-04,4.444401991940629196e-03,1.725881565503182332e-03,5.229510345910586347e-03,5.439444546021247190e-03,2.165721243488391134e-03,6.102301708731472461e-04,2.198214738357082056e-03,2.699802062429674989e-03,2.177388819552116429e-03,3.812095707443447726e-03,5.360479637473216166e-03,1.608065969298948499e-03,2.991798124675321222e-03,3.257119099813554717e-03,3.982475231345627628e-03,5.279783855007557508e-03,2.195969371873010122e-03,3.690581216857920146e-03,1.532656311238632819e-03,5.307993813695106519e-03,2.258432838248509555e-03,2.875012136185727766e-03,3.176979274183743766e-03,1.353475483641854247e-03,3.711567843069395797e-03,5.329669527910035551e-03,4.668255148027636650e-03,1.686212795341487849e-03,3.183364112001773900e-03,4.596051239933509128e-03,5.019480462587712702e-03,3.383494337070705026e-03,4.400864564306118318e-03,4.056066706174688702e-03,4.237951351403286895e-03,2.457940305528608527e-03,1.930482300109323101e-03,1.367899659704554551e-03,1.251766893862502755e-03,3.731315939111767756e-03,5.444106964606641730e-03,1.191912922736011564e-03,3.017762440269452628e-03,5.211157466198278881e-03,1.247786352923264779e-02,3.504115976530226394e-03,5.272659443049090323e-03,3.746503375649514953e-03,1.849149027125368376e-03,-1.253794266270744518e-03,-1.968459673706896354e-03,8.247565555752090502e-04,1.138389706140361692e-05,8.868669710331546219e-03,-1.229348918320816641e-03,-2.000387860467188125e-03,5.122115516660211143e-03,8.300894802567503408e-03,5.864358211062492207e-03,2.279859633119179010e-03,4.546154560368319514e-04,-6.666660849856339416e-03,-4.002348410479483927e-03,1.333220722472353188e-03,-2.332060981002660998e-03,1.488923747661728822e-03,7.443218603179097524e-03,4.044261159843420134e-03,4.492104429333493580e-04,-9.861195963652335996e-04,3.396629806782337302e-04,-6.319613780355901392e-03,-4.055374768344384255e-03,-1.625462526249063467e-03,-1.402652006054461132e-04,-1.484137594975017127e-03,-3.699120324066784010e-03,-4.833018602846122537e-03,-4.130341003379869348e-03,-5.189678627506582806e-03,-5.195631199575388368e-03,-2.303363128600946844e-03,-6.790252771065589943e-03,-1.094539119542148591e-03,-8.443464393128161018e-04,-5.092043000462695944e-03,-4.811474978841901243e-03,-6.673656838208062020e-03,-6.044768789557077547e-03,-5.237393018722013432e-03,-6.831614916002301530e-03,-4.481687826436927397e-03,-5.239947713844920682e-03,-1.929725483910968236e-04,-1.096158327918730002e-03,-2.271572342968352851e-03,-5.315429712696159888e-03,-1.017719638689211156e-02,-9.339805345784265439e-03,-9.951869107883978133e-03,-9.112286098224169073e-03,-9.369964519258120600e-03,-2.396777682274828757e-03,-1.640249850865512578e-04,-2.497546120050596428e-03,-3.248644809453056850e-03,-7.121635410682216824e-03,-1.102790568204111560e-02,-1.127740935884372075e-02,-9.767092442188386389e-03,-8.966524058437523939e-03,-7.525062986599421848e-03,-4.215255552946602785e-03,-2.762942809687403065e-03,-1.986569879678246140e-03,-1.870127664461185149e-03,-3.611732533096231965e-03,-8.350166387086728134e-03,-1.211900494365476290e-02,-7.668807143896577520e-03,-9.047441750975699845e-03,-8.968455492394551958e-04,-4.705321437725937250e-03,-3.575035186336139072e-03,9.323154288656012017e-04,-1.384331054559141856e-03,-8.041471148703854040e-04,-2.318732831493381524e-03,-4.162105823070420992e-03,-2.146817384693962966e-03,8.967490952137818078e-04,-2.094079357935302917e-03,-3.343779701305455722e-04,-2.709979245637332036e-03,1.493502089569668373e-03,1.948131963289768129e-03,7.038318529064599427e-03,5.601834635891425433e-03,1.006056598547685164e-02,5.550270639108117500e-03,7.026271928380002814e-03,5.671209393603848271e-03,2.239656026295109778e-03,2.514107887461240580e-03,4.034410997406660294e-03,5.504033118567089496e-03,3.445028347140017405e-03,6.498820143411129964e-03,6.836105676735172547e-03,3.628717291654322274e-03,6.570005813155402677e-03,4.544706190800576646e-03,3.458473995041000219e-03,2.977540474043909903e-03,2.135522999750434723e-03,6.459781067316474820e-03,4.625827181974059843e-03,3.918978297826788450e-03,3.887076369317546323e-03,2.924602478862467145e-03,3.873189681225614953e-03,5.693763071310184443e-04,5.110645879148325785e-04,9.467573953661463995e-04,4.430589933701272951e-03,2.405601111519460600e-03,5.787308498951748530e-03,3.172367448916068970e-03,2.678319047851636468e-03,3.091579786762100896e-03,4.449791643076630825e-03,2.443807783525095596e-03,2.368629645713666697e-03,4.636772186896655212e-03,3.026738816491529073e-03,4.675090028606384424e-03,4.967624598839161763e-03,3.472911993718737038e-03,6.003871926236767007e-03,5.458678826740309686e-03,4.825269739002787002e-03,3.994177488544632497e-03,-9.132715669164289535e-04,4.984030231847360291e-03,4.556176831855983725e-03,4.853575510444210935e-03,8.701239720829218732e-03,7.883854583598963461e-03,4.518642170291962620e-03,6.536217098315518469e-03,5.836593515457118991e-03,1.951402784569922135e-03,6.732740173740050854e-04,5.422976189709294639e-03,5.109900940720222759e-03,4.812016841097615724e-03,9.059256683213175176e-03,7.124623854793584940e-03,7.385833522845692591e-03,7.882582390243265610e-03,6.769838426826134577e-03,1.359936833004737411e-03,1.908257899394869136e-03,4.829379335357210715e-03,6.094297566719744305e-03,9.447324634813019859e-03,8.870385943316112451e-03,5.320687758050744731e-03,4.402889851062166161e-03,6.656360954168848154e-03,6.939175264945207817e-03,9.705357935904336195e-04,4.436671256482673312e-03,3.228332802429940192e-03,3.941164605635599436e-03,6.185027691427297421e-03,5.252167888020145559e-03,8.361025373086944379e-03,3.992545576733751156e-03,7.316956995805819208e-03,2.542654148411065650e-03,2.948903235978958710e-03,3.070167490600870207e-03,7.203703931049069108e-03,6.413733327643975773e-03,7.292457863646335456e-03,9.432600458393993956e-03,6.024094051135393466e-03,8.244828796645526509e-03,6.428404557026643103e-03,6.678190273896471990e-03,5.445175694688913180e-03,4.009214177330708805e-03,4.732723022935520114e-03,6.152495053753627430e-03,5.825446372389618023e-03,5.265887836933999012e-03,5.038704084774091145e-03,4.804741245631504246e-03,4.983348728475497230e-03,7.895019738719933830e-03,6.150747706747910007e-03,4.972634778704140314e-03,7.669135436039895698e-03,-2.195204874617411039e-02,-1.517087929047940265e-01,-4.562816246857034908e-02,8.084603890754542277e-02,1.270478337775534372e-01,1.261940982158631652e-01,1.168451785971913182e-01,1.055136748700348237e-01,9.780134978724537576e-02,-8.288194211024074547e-04,-2.973850003938604061e-02,1.570047660930235511e-01,1.947497373456884562e-01,1.551140321891300300e-01,9.926347946936661670e-02,9.403809811171158495e-02,1.459136074639703073e-01,1.995226191019602024e-01,2.091120345555338988e-01,1.095348355465151783e-03,2.580994115396230415e-02,8.017636200587596740e-02,4.450677721463727060e-02,-8.182040033890780606e-03,-7.266791385596507724e-02,-8.026332535988338346e-02,-4.589870965984045592e-02,6.288810170620720563e-02,1.263144404797129361e-01,7.294376733798917101e-02,4.442054775253877902e-02,3.488439097905617764e-02,-5.128879170596765263e-02,-9.311986734521930653e-02,-1.182653655071884413e-01,-1.091680337347842727e-01,-9.247574363684453458e-02,7.858970499643454059e-04,1.037359372258116891e-01,6.853985881856873574e-02,6.496675104704405235e-02,5.718209216948123147e-02,-5.676506158499395466e-02,-9.274794659932797392e-02,-9.395566379097569643e-02,-8.671676172744902100e-02,-9.204779821194090939e-02,-2.519188680635647479e-02,7.190111530067179457e-02,5.636983130581285639e-02,1.044752356665956394e-01,8.576670844477708722e-02,-5.095001271332821186e-02,-8.699479003764427898e-02,-8.127806262366137069e-02,-7.847902433660015886e-02,-8.320017994978552711e-02,-3.733470963004927035e-02,2.860996406060829778e-02,5.607041167741466658e-02,1.593130404122216071e-01,1.169021146120335503e-01,-2.899384712788032406e-02,-6.592071414242767213e-02,-6.234355210129979147e-02,-5.519857416123408883e-02,-5.478779411576412822e-02,-2.299850498215626898e-02,1.150154437859773199e-02,3.701543201611502687e-02,1.718004559115285657e-01,1.315124715612440431e-01,-1.125002960518521090e-02,-3.126797088885928388e-02,-2.052148029335227816e-02,-2.421213194772858616e-03,-5.815949538993628321e-03,4.475810169110198272e-03,1.079246343414984495e-02,-1.762359565672952724e-04,1.088428856408708012e-01,9.214072126509902094e-02,-2.285870971227885531e-02,-2.269459921920445947e-02,8.678995900143702744e-03,3.912191890250318882e-02,1.979286535205277905e-02,2.142146058309224790e-02,2.357907159847561634e-02,-2.678147767965121523e-02,2.537828516504923859e-02,-2.513660916891966371e-02,-1.353047183946944343e-01,-1.243800360605488986e-01,-7.230882091150214741e-02,-2.303563260863829287e-02,-5.137642580308455359e-03,2.340572756900932694e-02,3.349636856246115263e-02,5.504802353804972778e-03,3.461062125598981295e-03,1.881486501660421026e-03,3.436800260988762557e-03,5.364011602473685650e-03,1.954217126781078537e-03,2.569459159783746196e-03,3.111768387090511120e-03,3.859444125904480053e-03,2.903229123504969932e-03,5.223295093538094999e-03,5.440014526247701626e-03,2.921376077475301616e-03,3.462731873183658767e-03,5.474224952413739645e-03,5.345637817322215421e-03,5.206166227396990046e-03,2.892010294075999643e-03,4.999735506740725713e-03,4.283390652477384389e-03,5.025301438767287507e-03,3.374760615764762616e-03,4.435775997823588820e-03,1.465875558074225017e-03,4.018470251271834617e-03,3.271357461188904251e-03,1.577893262949136340e-03,4.796150933651283782e-03,1.457290884586304354e-03,1.540016156585488454e-03,2.350498040331802912e-03,2.412169355829699071e-03,4.991242725658895721e-03,5.007465289965868163e-03,2.502074388667610647e-03,2.346291041376775185e-03,1.841972573042823576e-03,2.699537799173686980e-03,3.015768263773526293e-03,1.847545594304583327e-03,1.763936647275920599e-03,5.084661325676819582e-03,1.079264919064763014e-03,1.801758206243678911e-03,2.237871285745378098e-03,4.365746783904942904e-03,4.326554510596682807e-03,1.406950264220251275e-03,3.701726950860246678e-03,3.024747623041237465e-03,2.710589397608276826e-03,1.271061426201132525e-03,1.462239264391194428e-03,1.455351605673752165e-03,3.643593359793648959e-03,5.137628517536531412e-04,5.489731033785654260e-03,2.219391017304844001e-03,2.248638130636496698e-03,5.206050136067253212e-03,3.827478405170686108e-03,3.380502254669799211e-03,3.465529039767511945e-03,4.196907816245998464e-03,1.674477928724364944e-03,6.046295239527362062e-04,3.190340944633666704e-03,8.363222038735645351e-04,2.928683352463512437e-03,2.640159525800575818e-03,4.535613501731297972e-03,5.215776351255764151e-03,2.651119544622459936e-03,1.159616925399523969e-03,1.712870622873400011e-03,2.178545297528856634e-03,8.342322540917069488e-04,5.191927926315193648e-03,5.261724647165939503e-03,4.809131942607246940e-03,3.921363632593675985e-03,2.157355025523325764e-03,1.176838177484716523e-03,3.581357310958672730e-03,2.796297882908119117e-03,4.014840090359819008e-03,4.746500403488704972e-03,3.425164769609648652e-03,2.693228248508944527e-03,4.860435679613672386e-03,9.497212876137630429e-04,5.097787375127746032e-03,1.760132291299365461e-03,5.445329318958993386e-03,3.697619227176358100e-03,1.911398368015450929e-03,2.080868559634257379e-03,4.973636954804893165e-03,2.362407914163416802e-03,3.987376628945911786e-03,4.428097314702138243e-03,1.110098321200498998e-02,4.958720967345892419e-03,-1.031944299843201617e-03,3.085457988243904461e-03,7.972356546601943065e-04,3.441984364703138278e-03,3.972056900289923191e-03,4.211360437053606777e-03,1.845818430615683891e-03,8.946580106377919478e-03,-5.455681164773307397e-03,-1.847243624187712733e-03,2.037579519795894994e-03,7.374620058680707996e-03,5.575557896927584370e-03,4.398096999904618082e-03,2.388998993535542716e-03,-5.107576831873221739e-04,-2.284140510823682874e-03,-1.072185953686954516e-03,3.303899318951866986e-03,-1.152881128887838684e-03,5.852365403917644121e-03,8.946449370723563374e-03,2.658598737006238021e-03,2.896619485086995762e-03,1.884820235385973458e-03,-2.949755748051599319e-05,-1.223406829865861592e-03,-4.594298876857288300e-03,-1.651301733719824248e-03,1.065125052515263505e-03,8.396166265372573571e-04,-1.700459394146825072e-03,-7.392398133755334177e-04,-2.053540981506465912e-03,-7.177505008950656228e-04,4.222110884305775580e-04,-1.437743971455536897e-03,-2.955770651958499265e-03,-1.867430098728380073e-03,-1.744225775020290204e-03,-2.386536780370232275e-03,-5.022142006046169914e-03,-6.877251509580143730e-03,-2.411910858180914535e-03,1.027575555982436278e-03,3.130462176558928156e-03,-1.228856977554036375e-03,-1.428908921741251468e-03,2.578355787519169724e-03,5.093108011506358094e-05,-3.344717942638920135e-03,-1.697244141492280445e-03,-8.021773692236812414e-03,-4.331055406472944166e-03,-3.390016485365977914e-03,3.142343446171176526e-03,1.221852380056695801e-03,-1.441239068297664591e-03,1.769569427909940687e-03,1.967595946153061649e-03,9.568709638476130151e-04,-2.586809247451453235e-03,-3.599974105127929074e-03,-1.779159820361820351e-04,-1.595928014905316928e-03,3.578785222458165296e-03,1.211385119238921840e-03,3.293144726033419168e-04,-1.393645425235409815e-03,-1.221618994029009114e-03,5.184973748972692949e-04,-5.553997739955269554e-03,-3.558959476427436992e-03,-1.000551576480790021e-05,-7.768798028098599989e-04,3.508284542323163342e-03,2.056205144798014530e-04,-3.763563156671739102e-03,1.871489619945765565e-03,1.606528612872432137e-03,3.960989384679316767e-04,1.110547647607231436e-03,-5.250822563490662809e-04,2.585718691636219955e-03,2.085831479853221624e-03,2.222293933260832514e-03,1.943221164069716764e-03,-1.588942555633818775e-03,2.321729974103323418e-03,2.616724193883575821e-03,5.946169222730553032e-03,6.124909855721429042e-03,6.172076400608150250e-03,9.187773944456478076e-03,6.422381865107527725e-03,7.287551585776160835e-03,6.562647260452897542e-03,2.471132652784815368e-03,3.770737304081575158e-03,6.340574804715444317e-03,8.402607016589640557e-03,8.923516440273641590e-03,8.406637822711671149e-03,8.251144490067401777e-03,6.117965167943718342e-03,4.449192939329764396e-03,6.373942898037032387e-03,1.817012427096219730e-03,5.087602577674114369e-03,3.703667186244253423e-03,4.326559259633924390e-03,2.917992104427276183e-03,6.092093981361577752e-03,6.337734618600267614e-03,4.705377789644243393e-03,3.111489344815300279e-03,5.013258864411525469e-03,6.731181537302601860e-04,1.860686164004602934e-03,6.006118923130893301e-03,4.885610889662256491e-03,7.566875853728759378e-03,6.877030264078669644e-03,3.176803303564317959e-03,2.251090143929666224e-03,1.413540235036929178e-04,2.028445367162734925e-03,3.703958098499400293e-03,5.744658291435985296e-03,5.295502672019361708e-03,4.787445195402760360e-03,4.912899806020110983e-03,5.790179260102850181e-03,4.300426338337860754e-03,1.008729712008375745e-03,6.609551976226411959e-04,3.342615626848839878e-05,4.506362125946032117e-03,2.999784329072279973e-03,7.805614637753238889e-03,8.884847237538791992e-03,6.266770224988569941e-03,7.089327288536803259e-03,3.759698872387494829e-03,4.673111645403899353e-03,2.052036563697985129e-03,1.112158456516694970e-04,1.642283777659832170e-03,3.282301543795952334e-03,8.295421498990816420e-03,6.180566282662900215e-03,7.514808506716122612e-03,4.906774965901748373e-03,6.325453050998983660e-03,3.166544308747667926e-03,4.212256573824831561e-03,2.904210365557112310e-03,4.405767017557486384e-03,6.639753530392663791e-03,4.584296279693299628e-03,9.166148637077412356e-03,5.949609537017792014e-03,4.505959041010819226e-03,7.131080123058669736e-03,3.101173577873669526e-03,2.615367163127958468e-04,1.856428468792704336e-03,4.434770883842554037e-03,7.201711446452475213e-03,6.468667714674534823e-03,8.844393476759649861e-03,5.192703042064963394e-03,7.889768840422915416e-03,4.394358467932285919e-03,3.846364762130374121e-03,1.352950200835617350e-03,1.196163099549430418e-03,5.278122716387762155e-03,4.860122058023870137e-03,8.188553708691936189e-03,9.300026075274902063e-03,7.668135745208385853e-03,5.707509925324726931e-03,4.635080758503811599e-03,3.083381893697954238e-03,-1.262016385853021708e-05,2.735043920128685420e-03,4.387726353845506494e-03,4.828920020061307217e-03,7.566531393746355437e-03,7.414146202073811608e-03,7.194479551187816027e-03,4.875317487880547265e-03,5.762919840755667371e-03,6.933587062404674047e-03,4.142324614939059922e-03,3.095915741386475947e-03,7.924951192262974162e-03,-1.457227485510472625e-02,-2.553108988870406160e-01,-3.093404182575918426e-01,-1.998229131781653345e-01,-8.808914010833372721e-02,-5.276717426269400546e-02,-8.562926182236599293e-02,-1.176852105007004240e-01,-1.387338686263284160e-01,8.765156718246947670e-03,-4.508048094435171405e-02,1.803246880449433168e-02,5.699135774058726456e-02,9.393854479800319013e-02,1.299494347696356911e-01,1.808770718792287735e-01,2.301781455683498401e-01,2.272299004325346594e-01,2.032005545474004360e-01,9.202132166591271700e-02,-6.155907568116483070e-03,-5.425286446792939449e-02,-5.496672539063247875e-02,-2.535325961556855745e-02,-6.157458008789389557e-03,3.661278982792192521e-02,9.208752640793052557e-02,1.448941564202849974e-01,1.708258737209517597e-01,1.279423724223127390e-01,-3.289523279803094336e-02,-8.383094147047558120e-02,-1.346240223059975982e-01,-1.134578495569021767e-01,-8.547322404914575733e-02,-3.451609478979088957e-02,1.229854924587940428e-02,7.240090389092705692e-02,1.179694602663596409e-01,3.477868324794110982e-02,-6.854963422706850107e-02,-7.403377984546034851e-02,-1.424147072689161686e-01,-1.326239197297920946e-01,-1.152256724237839536e-01,-8.385889915016245255e-02,-4.853109151157652956e-02,-5.447889140682587138e-03,3.488470767630092589e-02,-4.838185125236535433e-02,-6.995950647806467582e-02,-5.927341620447393322e-02,-1.397111426047448479e-01,-1.328897925080646247e-01,-1.254428412321110242e-01,-1.000530033675989666e-01,-6.855823736923853662e-02,-3.964258302934960121e-02,-2.705623697958077847e-02,-5.633482831247753342e-02,-1.258150088847896468e-03,-1.615869509807894844e-02,-1.147445874996764897e-01,-1.185654282264941017e-01,-1.145108146912452579e-01,-9.720092679749035847e-02,-7.296661428674927619e-02,-6.157632135148956992e-02,-6.637230595656684606e-02,-5.550737496080242195e-02,3.741299527096971639e-02,2.465979252703333346e-02,-7.657146274377944761e-02,-7.650962764520907733e-02,-6.999131086819669612e-02,-5.623938156879482869e-02,-4.571129910267623941e-02,-5.337567987310729706e-02,-7.313540073905114292e-02,-1.004771268229263936e-01,-2.675291641576817495e-03,1.894324072707305462e-02,-5.673487525460296776e-02,-3.577802935238034304e-02,-1.640620973703351554e-02,5.030527523106642120e-03,9.476404573312981194e-03,-8.056874457175486164e-04,-1.800909372995970412e-02,-1.255577786105624427e-01,-9.136109035758119279e-02,-9.398468697661856164e-02,-1.302835679218091181e-01,-7.074069959729274715e-02,-1.992943208169799599e-03,5.937686375312292014e-02,9.543897009394571029e-02,1.112912479393798892e-01,9.705727877894054778e-02,1.081013251783140370e-03,3.176249312551033144e-03,5.375983578285102940e-03,1.364649196324911086e-03,3.831500922126691248e-03,4.764726430591000733e-03,1.375549747970388967e-03,7.698891423710521771e-04,2.401123986899793891e-03,3.053269994439732331e-03,1.764901024680058921e-03,4.240949751546424853e-03,7.794006208301719647e-04,3.869396509681929681e-03,7.016009941504552407e-04,2.879678548291282700e-03,3.874904754252260237e-03,2.293547262673248984e-03,2.861842841022385706e-03,3.936900275185345119e-03,4.420299989442566871e-03,8.416447989542665768e-04,9.035726423182453056e-04,2.653306982520688747e-03,3.621308071083724576e-03,2.033311053208444481e-03,9.481403819077969305e-04,3.256687704112785301e-03,1.517633183084972533e-03,1.162557787478059150e-03,1.125126845424621099e-03,2.454243171143558142e-03,4.200305067928552204e-03,8.294071569360658095e-04,3.757072648896171794e-03,2.516400854390761065e-03,2.381252708640846458e-03,3.030847101797607811e-03,2.608094757704457808e-03,5.110672455989690582e-03,4.098076499130214566e-03,1.777516008313500748e-03,4.738440257559158042e-03,1.901274673309050114e-03,6.750996476240452883e-04,5.422881074775402505e-04,3.253261358741473073e-03,3.331438240577776818e-03,4.820804038559604876e-03,2.840571738829763496e-03,4.764759571634382546e-03,5.305889645587900244e-03,4.754053365345626420e-03,5.200146481836670498e-03,5.439381952800824427e-03,3.262138792994083523e-03,2.106516080027568457e-03,1.565640145681969613e-03,4.969128852586811654e-03,4.002457968315286524e-03,4.109892615222362176e-03,1.568978416538369721e-03,2.842435676460872921e-03,2.454446341975537616e-03,3.214384629634549611e-03,2.085441254901442779e-03,1.224838696137367164e-03,1.440123410162094143e-03,1.499802951683064552e-03,5.405040595751409854e-03,3.326293183513109788e-03,1.963824298624941480e-03,1.839224314099855481e-03,4.130284525689083101e-03,2.724029703865519462e-03,5.458543970750120641e-03,3.379087607484922411e-03,4.846568482353491233e-03,3.398818875989490212e-03,3.269152011698100383e-03,3.375723655211263895e-03,4.757391237385714955e-03,2.972211297064808726e-03,7.146745963635095684e-04,1.758839028953694799e-03,3.604275735142853810e-03,4.076698589547376322e-03,4.498717873917418633e-03,3.749026538062365851e-03,4.372912964895949231e-03,3.631985457316602457e-03,4.027853962790338416e-03,7.458320412504272114e-04,1.979613600273415468e-03,3.106811771761611770e-03,4.441760109492322653e-03,3.275869163134130600e-03,4.714406467362684122e-03,4.065082283608916977e-03,3.263739886748116218e-03,3.941564655885983377e-03,1.119690018687360608e-02,4.357611514042825616e-03,2.694396204438110048e-03,3.840018366318077164e-03,1.785366772657265462e-03,-3.683293150342378900e-05,1.989728217961936330e-03,-4.432606380055739579e-05,4.876981396532703442e-04,8.779013797124160523e-03,-3.806434083434045079e-04,2.333737510287006885e-03,7.706383186436504065e-03,5.050251365007338115e-03,8.102942594511254593e-03,2.704218947409639008e-03,2.963514424897281847e-03,1.610780712085098593e-03,2.545048526787541815e-03,-4.825750454244953462e-03,3.535955887165407024e-03,1.121708157259652039e-03,4.710525111791788629e-03,5.455848782958971216e-03,5.979960512562324491e-03,2.623748539650003469e-03,8.102365143756936087e-04,-1.504195746819777515e-03,2.645397026383914871e-03,-3.119214906316282801e-03,3.184177128850915455e-03,6.041653246337943877e-04,3.939055537981378530e-03,1.622265924414783992e-03,-2.025928165993227600e-03,8.402815019327888576e-04,-2.939516800867729863e-03,-2.438704413576405199e-03,7.079338107682086462e-04,-4.435349889254838925e-03,1.860260667467509730e-03,-6.127406407842658905e-04,2.817263101469897127e-03,-1.490347385638165437e-03,9.542418017383292499e-04,-1.331928980861494041e-03,-4.155623460351471135e-04,-1.618180738978933046e-03,2.730536694913380082e-04,-1.426615281543986693e-03,4.040809068437632972e-04,3.251717185794889779e-03,7.321149429824985819e-04,-5.954553171989606167e-04,-4.006787213261082340e-04,-4.315844152765888259e-04,5.330604101672800459e-04,-2.535057149933446149e-03,-1.931452040659258030e-03,-5.026294991586335338e-03,1.621992748657830876e-03,3.233985084356566855e-03,3.595596320601383931e-03,-3.645924506666002379e-04,1.125936978461207147e-03,2.594354332498277280e-03,-6.670520401869966436e-04,1.540275651965250471e-03,9.630859084310872164e-04,-2.045574852601021992e-03,-1.264267334933360035e-03,4.733599861338150770e-03,3.823091460749016447e-03,1.605913863731503683e-03,8.061955870044342116e-05,-6.610777682125986094e-04,1.323061446049473774e-03,-4.961659416105817057e-05,5.889159018960005588e-04,-2.993412045696948378e-03,2.315313013454180311e-03,7.781312488704701788e-04,4.615436459425745165e-04,1.602524704940615349e-03,4.381207062757455292e-03,2.782047426029977521e-03,3.005048793706780168e-03,2.651789073007253337e-03,2.301194358350714016e-03,-5.379595820480792719e-03,-1.102944542846045204e-05,1.441482880337819576e-03,9.766779865728080542e-04,2.407899181610704143e-03,3.325277563642728591e-03,6.117495161844311094e-04,1.926259225121509315e-04,8.280537963212885677e-04,1.392130436589281758e-03
-8.464769742419411130e-04,4.920227262692237861e-03,6.356290773765769023e-03,8.646910272242848763e-03,5.214785315732346077e-03,7.062615493640196813e-03,8.772226785640640373e-03,9.494966497168202957e-03,7.192904169839671805e-03,7.798848968575084438e-03,9.381562992444022336e-03,7.154035480728213742e-03,6.702098978860304528e-03,5.217420340614928147e-03,4.987171298972602196e-03,6.365234387896259380e-03,5.493937471254482438e-03,7.632213902663302282e-03,5.572282619360929314e-03,5.477563885931702528e-03,9.352606092144567437e-03,7.023721476812226985e-03,6.837190600410557144e-03,7.160525029340511841e-03,6.268802960066317646e-03,5.859409831558028484e-03,8.156328326774766116e-03,9.187898497271598797e-03,7.117036592339011369e-03,7.460618660399678109e-03,4.964836427301771472e-03,4.976653704420797020e-03,4.909338775290953902e-03,5.224279747825814370e-03,8.570308034164489386e-03,8.291145069097319645e-03,9.762792593912463651e-03,5.797661617532902378e-03,9.340156964813146542e-03,9.057712438535578392e-03,6.025785783048209256e-03,8.981452503693211284e-03,6.034948373590281155e-03,9.382654065899696111e-03,9.177069075764628450e-03,5.904882411282503032e-03,7.064695743870237285e-03,7.523911776321566373e-03,9.525808051609570976e-03,9.424484463239219886e-03,9.367610239722063553e-03,8.867466291768981435e-03,5.939263399658609340e-03,5.352356118201533584e-03,7.943814748484467544e-03,6.178258429858292031e-03,6.917362422509881932e-03,6.386675032041828903e-03,8.809453479262360776e-03,7.598624304650982396e-03,8.615298958954686892e-03,7.944446291805427884e-03,6.451655691488915323e-03,6.453411288836363724e-03,8.821774148688796627e-03,7.810109942048076674e-03,9.344216299789057101e-03,8.144811795914683183e-03,6.718505372212002155e-03,8.353032946206793291e-03,6.422497860521790211e-03,8.704240249286060785e-03,5.240835008683500211e-03,6.197630903679716106e-03,9.759860820270919307e-03,4.997755225329043177e-03,6.515516018858412937e-03,8.598368562304973747e-03,7.920703933412969605e-03,8.838210438263957233e-03,5.068681264076437161e-03,9.444883741639755956e-03,7.491868730183817542e-03,7.844008830074720301e-03,7.858098647356325656e-03,8.184414391906679950e-03,8.586732762149010267e-03,7.833212440572938362e-03,6.595259211368942331e-03,6.092223059831558020e-03,9.785168246629859234e-03,7.606194073323373564e-03,8.432870812274945518e-03,5.607203809726574693e-03,6.870686462912945804e-03,9.622380479654406293e-03,5.810688859705401103e-03,7.733853103648474954e-03,7.536077238190755714e-03,6.702891704707344446e-03,9.785072723951996135e-03,1.055538153062683671e-02,2.966615815596536712e-02,2.758319011744201840e-02,2.353002715283474336e-02,1.762708893271743363e-02,2.318338215487202817e-03,-7.194952493928218323e-04,1.514256836746380366e-03,-8.818885306787583667e-04,1.985213851647348125e-03,8.921122595007720257e-03,1.908442803901904544e-02,2.201299270642177036e-02,2.487801004999436530e-02,2.158081473305419398e-02,8.891401520246644541e-03,2.588887103433378401e-03,1.607070177921578885e-03,3.783725716122784272e-03,1.915659968503989358e-03,7.689070474918775419e-03,9.736878310376050408e-03,1.329384353315899922e-02,1.531335004156141565e-02,1.156082378494929092e-02,4.153096225914899853e-03,3.134830779106818031e-03,-2.265897577157485656e-04,-3.136606781663169204e-03,-7.590867794839750715e-03,-1.562027283240310016e-04,1.903120283434763839e-03,3.388789325577853430e-03,9.208063470836875403e-03,5.624842639185220067e-03,5.054047277548704385e-03,1.035830653458327116e-03,-4.735744222998584940e-03,-3.318326702376010566e-03,-4.903392245654155344e-03,5.232325300202013765e-03,-2.814688468244814644e-05,2.478562148004350655e-03,1.465475506099208052e-03,2.579409748746098931e-03,7.529842571027400844e-05,-1.943874591281063123e-03,-7.450960600350936026e-03,-9.128124804927802843e-03,-8.765367304967682655e-03,-1.968674958738752569e-03,-4.176629287371682285e-03,-2.712179934732592002e-03,-1.097122606082676956e-03,5.939091911284757799e-04,-5.900392767890676789e-04,-4.154132331851072280e-03,-6.025939202091545877e-03,-1.183556618430447321e-02,-1.177536158446992887e-02,-1.288902184381522827e-03,-7.209083798002139873e-03,-1.486785892447145714e-03,-2.690760850361090511e-03,-2.107055277810456970e-03,-2.118547022241126180e-03,-4.253668652905153932e-03,-7.711134501804729410e-03,-1.166125750805471935e-02,-1.302420641568199748e-02,-6.952337293349427163e-05,-9.316600771065136621e-03,-5.055977623511714175e-03,-7.324116769608009572e-03,-4.195673453648751834e-03,-3.873238984496161878e-03,-3.381088568744906181e-03,-7.042519817202498936e-03,-1.114830271880951768e-02,-1.187919525281069984e-02,-7.623998159392281595e-04,-6.229863307379614364e-03,-1.115233283734012523e-02,-8.717413693828477556e-03,-8.685135961537729724e-03,-5.824403061239891329e-03,-6.631113670006594588e-03,-7.845381998653882041e-03,-1.232335424775220928e-02,-1.702711145278674662e-02,-3.180346969100069851e-03,-1.123015956604528701e-02,-1.189700153630972486e-02,-1.256055565392665690e-02,-1.383975791613852556e-02,-1.491304892733011714e-02,-1.489120782912187017e-02,-1.559638570648359465e-02,-1.616941721086044906e-02,-1.912713900121658719e-02,4.939990465048571706e-03,9.421711056913487092e-03,7.818265603447702855e-03,9.411269981650691174e-03,6.508862451198935660e-03,5.903444536440267086e-03,6.462141304667250001e-03,8.647936568943376950e-03,6.448942383148849496e-03,8.093411440714327887e-03,5.031970914143466846e-03,6.618497005308482915e-03,5.018790551184708522e-03,8.858488782852308452e-03,6.575652209086753526e-03,5.425171613485472825e-03,7.691858996074035087e-03,7.015696030666605625e-03,8.692268913270198571e-03,8.507781996899974747e-03,5.248582938528104959e-03,5.166332552608830266e-03,8.492041305740192364e-03,4.750229202300479230e-03,5.414536028988469786e-03,5.407093987172072354e-03,9.154652368620373043e-03,8.453281235141201638e-03,5.819575409562648995e-03,4.485679704938227812e-03,7.025911597174292790e-03,5.424202190458548602e-03,7.773644771449273946e-03,6.083792138105726700e-03,7.973191987361296154e-03,7.415453464761468695e-03,6.001922522930911059e-03,6.987120642983106304e-03,5.730598408384105120e-03,5.729746441537823635e-03,6.654864117853500315e-03,8.219622476453344873e-03,8.810165999233315892e-03,6.260069810806924255e-03,8.894497832253957931e-03,7.322288784834904245e-03,6.654866158092252564e-03,9.413405130485798938e-03,9.222596640920104755e-03,7.967818729415371629e-03,8.967869532936066646e-03,9.260966819588250382e-03,5.575949583071902575e-03,4.769244195804233678e-03,6.726645590212480298e-03,6.802635705881086674e-03,8.136516207108625276e-03,9.012784042330867357e-03,6.682495934456776816e-03,4.932435988054042868e-03,6.945329453460577333e-03,8.468845234984447717e-03,5.924607385982209005e-03,8.887367509935770876e-03,5.071572443274289556e-03,8.709047576062382834e-03,7.234297822315264269e-03,7.279651767749689174e-03,6.017613378534447492e-03,8.074345622786860410e-03,6.740539977064659467e-03,6.470922363141214627e-03,6.135332384895538470e-03,7.015800400757869586e-03,5.672317513191638995e-03,5.920872492302592556e-03,6.195689667549805248e-03,8.522798591329795725e-03,7.872564937226435647e-03,9.338505133015991000e-03,5.120499736350822041e-03,6.352068510861254118e-03,6.163723941507426134e-03,7.578350460105923170e-03,8.204198657874830353e-03,5.006038871758462273e-03,5.018897193779054029e-03,5.765605433422692737e-03,5.298013224848117410e-03,6.513667873470578747e-03,4.921094560728035174e-03,5.761202408382240341e-03,9.285639187875973505e-03,5.525649508689066229e-03,5.801810580615878420e-03,8.140234039162974611e-03,6.136085651681840759e-03,8.191390782484625488e-03,6.224195817647520078e-03,8.824936415481092478e-03,7.142187250029167871e-03,5.025013233577146389e-03,8.475572029161916598e-03,8.609656264218421701e-03,4.661460719866781718e-03,7.897529596513139585e-03,6.453506297908300805e-03,5.621672716631154025e-03,6.133772133475517106e-03,6.912768217019925159e-03,4.430958057417343915e-03,6.022712871206431159e-03,8.963265276470185061e-03,6.726215556426711796e-03,7.037413916998033238e-03,4.583094861931294797e-03,9.241400983477391848e-03,4.891491646929462672e-03,4.680370388558150602e-03,9.372382311886279238e-03,6.798504603274690972e-03,7.197896683023475954e-03,5.486580680663729823e-03,4.393968484183213320e-03,7.798177473152543074e-03,7.701655303196727233e-03,6.545394510483389452e-03,5.837544495460990877e-03,9.185064658342850449e-03,8.631465074321607520e-03,6.153606431102878055e-03,4.916795553325559696e-03,7.718011177643369081e-03,4.318839802749187100e-03,4.868571310240736236e-03,8.641939759807905352e-03,6.990319636552614485e-03,5.774822031514821770e-03,4.702127707930885310e-03,8.241713416926433819e-03,7.204547228436557378e-03,7.976262107545808652e-03,4.803818604898781736e-03,7.847136114980930374e-03,8.184918399318973081e-03,6.512759835724786159e-03,9.553658579455108490e-03,7.819147340894616605e-03,9.693135727051929371e-03,5.806616276614724736e-03,7.517322627933515841e-03,9.237334137694633296e-03,5.926015853761556866e-03,7.471191496275007490e-03,8.955593011564986355e-03,7.434020896067863524e-03,6.199133034198487692e-03,6.854726962832604666e-03,9.741152345877900423e-03,8.294976511486881407e-03,5.938820430470354711e-03,6.549251504247129152e-03,7.248119549372582064e-03,7.954146003212396107e-03,6.802858495387390132e-03,5.301124152010868243e-03,7.042102481869856254e-03,7.127154444767763546e-03,6.992723150356337791e-03,5.003991347341732801e-03,5.899799522280448766e-03,6.080575815415466441e-03,8.397407105647599138e-03,8.837865286285702046e-03,7.251104142104374678e-03,8.776287613041083846e-03,4.809610522713307287e-03,5.314356205325454670e-03,7.655464184146561560e-03,7.947851233531975576e-03,7.370967349473825717e-03,4.848452480689081044e-03,8.632848460202896881e-03,8.772635603423308698e-03,7.896351546821655035e-03,5.534219332933931236e-03,7.485170739928949900e-03,9.299397225010989920e-03,7.175914230517003306e-03,8.200633895910589347e-03,4.987353386878024333e-03,5.187428664888916498e-03,9.392219889560991103e-03,7.197034702600376040e-03,8.831705214655928907e-03,7.362335993861945233e-03,7.624137566573088373e-03,5.601093091487939317e-03,7.026922049706081815e-03,5.065496387156001763e-03,5.506308947815776074e-03,8.661327616996733134e-03,9.179950444248683936e-03,5.174195878400212299e-03,6.672600254028405835e-03,7.279690654396879686e-03,6.142848138293454177e-03,7.976553706544570188e-03,5.952077227455663741e-03,8.005028122766951956e-03,7.353365183233475863e-03,5.760010052036440564e-03,6.424096837054487155e-03,5.968227126307845687e-03,9.103921957756441058e-03,5.257000795186287864e-03,8.141665358656046889e-03,8.034464343021557181e-03,6.460216584517091375e-03,8.590721697805635271e-03,8.266229677568879414e-03,5.236002553491727295e-03,5.633778802672607944e-03,8.285490526573307049e-03,8.566915902797444041e-03,6.535154489190462927e-03,7.697501186011085697e-03,9.588052645060532453e-03,8.534701088710766603e-03,5.980071230678487594e-03,5.020822300637297481e-03,8.844733593582702544e-03,8.321218330389934179e-03,9.215668854246720013e-03,7.507162255799193842e-03,6.262269074885453736e-03,9.120106470016606584e-03,7.196292134790763587e-03,5.587886809208472173e-03,5.240856221625509077e-03,5.012964004011194984e-03,7.243489627559970660e-03,6.328436754218932751e-03,6.180569694875267042e-03,9.523751147737683637e-03,7.246691736179590795e-03,6.934808283616767863e-03,6.219865052259032807e-03,5.332504307972217236e-03,5.340628010790238536e-03,7.814393221246199520e-03,6.360630683548746181e-03,6.498927146780183323e-03,5.150758251449310231e-03,5.598468953655543097e-03,7.987097082788751842e-03,8.721455457862702099e-03,8.596884350929073076e-03,7.394611904862962923e-03,8.152008807285714490e-03,6.876974786565087476e-03,6.572314735812222024e-03,5.880409113613291154e-03,7.395841493698246567e-03,9.858987111697629924e-03,7.849564686226323876e-03,7.660616257671194577e-03,5.951555533102732831e-03,5.903821434015765236e-03,9.061124569212847257e-03,8.495132189864163311e-03,9.944360498076159488e-03,5.450493231474129625e-03,7.477582562820068307e-03,8.588923437855024851e-03,9.151620495559056531e-03,5.361461293839965038e-03,5.655008275025345810e-03,1.033379755270275556e-02,7.134345165640625618e-03,5.972328191287344309e-03,5.573511116456686919e-03,7.775205696592218246e-03,8.039765949619324947e-03,5.318373549659269860e-03,8.479240503350832237e-03,1.005025813040825999e-02,8.461050143667592921e-03,6.593951749367500149e-03,7.236913388921529730e-03,7.038915438112710796e-03,6.478826853023770573e-03,6.983305125642945248e-03,8.661875391533232355e-03,6.056836726007997114e-03,8.166623703761971900e-03,7.065845506809711671e-03,7.316493424365099786e-03,9.940963510085203819e-03,7.853789293787742307e-03,1.083652359764474861e-02,2.952440046946648577e-02,2.273830274406693497e-02,1.110465162259510058e-02,-2.877678068006663502e-03,-1.656964204345516209e-02,-2.674785325212548914e-02,-2.307329739870131458e-02,-1.790832145986484200e-02,-1.607369128382835771e-02,1.030631256672036658e-02,1.241817597550969911e-02,4.222304803685109423e-03,9.397801046906868044e-03,2.737790206880119301e-03,-1.175446220768844828e-02,-1.827643551871421454e-02,-1.700565806323913257e-02,-2.134417266703172306e-02,-2.439259840005816166e-02,2.402862863729772567e-03,-4.208425925392567275e-03,-2.835372369363537218e-03,3.445667859087880609e-03,-4.156286649623329443e-04,-1.009635740874898976e-02,-1.308745633841810856e-02,-1.544755542557542730e-02,-2.148824655623857507e-02,-2.808078096627414713e-02,-1.016364787110717732e-02,-1.628191261985296318e-02,-8.316034441468949864e-03,1.065751326764729189e-04,-3.250228231091968449e-03,-9.097248947142495129e-03,-9.410589745727872268e-03,-1.413012128160972235e-02,-1.699966659121907378e-02,-2.196939900543129140e-02,-7.363666996925207799e-03,-1.734497430905621376e-02,-8.492876181829225185e-03,-7.239249078120592144e-03,-7.411839383157340852e-03,-9.948223850513795638e-03,-1.135636012410210990e-02,-1.237424957838918760e-02,-1.539991599482634817e-02,-1.775129344241212909e-02,-1.186635086419162398e-02,-1.746967433938583641e-02,-1.131873858685502471e-02,-8.919998064241371066e-03,-1.088577840116299739e-02,-9.596805887276198613e-03,-1.101282179734347499e-02,-9.939022144351838256e-03,-1.453722265232378942e-02,-1.919780513672921657e-02,-1.260807410297328304e-02,-2.105912578072998212e-02,-1.295672716384765194e-02,-1.272583174369261091e-02,-8.421160897690694799e-03,-1.049613973609145150e-02,-7.157794774215367473e-03,-3.554794366911820814e-03,-1.206526803065361211e-02,-1.564723928014730495e-02,-1.481797362023291355e-02,-2.200521265118421041e-02,-1.358727308274307669e-02,-1.742060305779873433e-02,-1.005371429776594910e-02,-8.475459200566731049e-03,-4.067548700575585215e-03,-5.193227347704210822e-03,-6.761121186352182962e-03,-1.656615613723297353e-02,-1.151457027906883403e-02,-2.448465590351546484e-02,-2.111741993059680286e-02,-2.067164623519684649e-02,-1.458949975293099069e-02,-1.395976878640258628e-02,-6.595837067854447115e-03,-3.366464899973682385e-03,-8.590527710739455716e-03,-1.892149395474774023e-02,-1.372731580662160493e-02,-2.676379767206493385e-02,-2.645106179683668832e-02,-2.831952491315624723e-02,-2.423620284774813741e-02,-1.957915078878908616e-02,-1.390493349398545797e-02,-1.275013362041864905e-02,-1.649613423110401350e-02,-2.189255743787916694e-02,5.080925384944410574e-03,5.856145124313177040e-03,6.958738709605152319e-03,5.420561587552249865e-03,6.339965452479059786e-03,5.104116328076636726e-03,7.873233106615248195e-03,7.894400493004646857e-03,8.047019129004948090e-03,8.285767652128513822e-03,7.043067011614422175e-03,7.312010600640620438e-03,7.506764128693502007e-03,9.104299627422526853e-03,5.387336050465543584e-03,8.979808746394871838e-03,8.635142344949640197e-03,7.501578409597596357e-03,6.854880506840055863e-03,5.821893739571691075e-03,6.560355959339633260e-03,8.487992881521001787e-03,8.939319318658628388e-03,5.832628624829114088e-03,8.660796758617465840e-03,6.818788441674662228e-03,6.563901584566441717e-03,7.534375412819603428e-03,5.737433939013737542e-03,4.812938031604325172e-03,7.530806055331274416e-03,4.837892511776616632e-03,7.112586873105384601e-03,7.209651200926615704e-03,5.083420500426527426e-03,6.053991438046903324e-03,9.207009019252979792e-03,7.167967169127663178e-03,6.210102968947286452e-03,4.984406455659511244e-03,9.130876340133538965e-03,4.706585563467033557e-03,6.097570458043146020e-03,5.801209917079395810e-03,7.608132835878108138e-03,6.699135858127701869e-03,9.285285045709312096e-03,5.689517790043534771e-03,8.026733314336582242e-03,6.609285860338960129e-03,6.197496157587291561e-03,6.409479338178875572e-03,8.033111250063784681e-03,7.896763183239442069e-03,6.108100938111202423e-03,4.523534690897984718e-03,5.501854124931238564e-03,7.895553873538064399e-03,8.218106647295688599e-03,7.394206992489341969e-03,8.290658690824518479e-03,7.252714178182254924e-03,9.159780640370915328e-03,7.085480137089573104e-03,7.920201104163122549e-03,7.675822716427173342e-03,6.974443306565914456e-03,9.327638150834757086e-03,6.256674993921454951e-03,8.738123745157342498e-03,5.207243367682926928e-03,5.041130145878271705e-03,8.739496215362137221e-03,4.630345383554561496e-03,4.625431014593919983e-03,5.557781967060052182e-03,6.075048618862621298e-03,9.004047122502970707e-03,4.511749912089206040e-03,6.476028598665982232e-03,7.841764556920960069e-03,6.892247678618515332e-03,8.286294085339040993e-03,7.021103848148067296e-03,7.373817321679667670e-03,5.191888008023886648e-03,7.656750607537402692e-03,4.966306406780185249e-03,4.867223563880585836e-03,5.659226168095245028e-03,9.190847076414019462e-03,4.919157896891570951e-03,4.989126329949240650e-03,7.401936380988624782e-03,6.022807795222310558e-03,7.493049128247352732e-03,8.883464858070320297e-03,7.666610773315469737e-03,5.474632231304407161e-03,7.887546400537463059e-03,6.813854775285948552e-03,5.480617901131650330e-03,6.590979718399850307e-03,7.676870199967141505e-03,8.793434910817393008e-03,6.547223318049590589e-03,5.797717597804470831e-03,7.498203573882567495e-03,9.043602663334218694e-03,6.381446429202359237e-03,8.145227019681915495e-03,5.575022103029294955e-03,6.667115125813909138e-03,8.330234980519775345e-03,8.644186509409380881e-03,5.300767469653364442e-03,8.789055904619452741e-03,7.809604353647360032e-03,8.172007475748643834e-03,8.634430456881354160e-03,9.650339250490668971e-03,5.600834331363440874e-03,8.960487886082269676e-03,4.564157437703516770e-03,9.327084074902345853e-03,6.387358985795139193e-03,7.666386776570425880e-03,5.590758311497600642e-03,6.625023330392392981e-03,8.705978290656777793e-03,8.753723800715000961e-03,8.801367601489515358e-03,5.754952617160879504e-03,8.405229500762152403e-03,7.394899739847537318e-03,7.847983959339461385e-03,5.474426550794117899e-03,7.588900825328387216e-03,5.001370639064652533e-03,5.535933914850427011e-03,7.653095081826552862e-03,5.828573430729064482e-03,9.303340118026252187e-03,8.705905395243639794e-03,9.194484140328695876e-03,6.297111675389429480e-03,6.099992631689564633e-03,7.389821649272582289e-03,5.856814706967030174e-03,9.691100543420485061e-03,7.398577031606596612e-03,6.415709456829558031e-03,5.905426352408166962e-03,8.261957276719758547e-03,9.081843600163270677e-03,4.759688340255589963e-03,6.575558631706760263e-03,7.969826509256802693e-03,6.202419180337502558e-03,8.372147633793819432e-03,9.537760064693838122e-03,7.354648798841640495e-03,8.174072582633046952e-03,8.984723990467883073e-03,6.828466030094012401e-03,4.971857913988014278e-03,5.533177173708140120e-03,9.381184701165921208e-03,8.963598179867022023e-03,8.481090370853811358e-03,7.844136903524274312e-03,7.032796082331620700e-03,7.948539612701723683e-03,8.929764579245526301e-03,8.216618799899731707e-03,7.521062156654063219e-03,7.331392239845814160e-03,7.616742717991455483e-03,5.900230321240981964e-03,9.190251372387383058e-03,9.244432807610608940e-03,4.917939785908284275e-03,4.988825309993344913e-03,5.892140498920336172e-03,7.659105497888667180e-03,7.833150220641677333e-03,6.146900542053043356e-03,5.060572842373555619e-03,4.953347857117119772e-03,8.557489752212044110e-03,6.380239247699200783e-03,8.463132127687063994e-03,7.353082522526633441e-03,7.797722426843111190e-03,7.555203112837268961e-03,6.661781375887399631e-03,7.486143323068527450e-03,5.385526052413820534e-03,5.701319599459848779e-03,7.653342922209187965e-03,6.055523068310894423e-03,6.388476779246476944e-03,7.458636130967070781e-03,5.206846335232637873e-03,6.951086650373472509e-03,8.096467388227597192e-03,8.909847644602512245e-03,8.495976957970123936e-03,7.010918437686249755e-03,8.379704385011042117e-03,4.664845188127151807e-03,4.937228617301088821e-03,7.551418633500130671e-03,7.487666729545316979e-03,6.149047546022834085e-03,1.000899532605119789e-02,8.463397562336110944e-03,9.362683569590527638e-03,7.461644711574501494e-03,6.852297630984658001e-03,9.213299032564476604e-03,5.018879585751097328e-03,5.741321214985477088e-03,9.764862010487427788e-03,8.918285490876694949e-03,7.853818758626687768e-03,9.137894290621806706e-03,6.522221123466552008e-03,9.234969169588613108e-03,1.005853204435612491e-02,5.725213863653404699e-03,6.079418628699938959e-03,7.832546413167345081e-03,5.708464353327920640e-03,6.981746226290522390e-03,5.475158834585914201e-03,8.018817599194826701e-03,7.351785620042282712e-03,6.072812051918704060e-03,8.352512609530951190e-03,5.243880632065115767e-03,5.874499523373591901e-03,8.817774920749950687e-03,8.467963516538520516e-03,8.971010160600669664e-03,8.345667115191648944e-03,7.817655270129559089e-03,8.085061910616123462e-03,9.842802834836954229e-03,6.646336019741135893e-03,8.141898579098531125e-03,8.716218660016117684e-03,9.458098042692843904e-03,8.001568774815672261e-03,1.035257740413141232e-02,6.563027363402516336e-03,1.048688406756158494e-02,9.162399388006923356e-03,6.858030180429849215e-03,6.000175227008615851e-03,8.871175282631756781e-03,5.312063943794159693e-03,8.761834645091656770e-03,1.030142228206681193e-02,9.094811649299266651e-03,5.803001957837459861e-03,8.190687441836499993e-03,8.955893568828790854e-03,8.387381697893827107e-03,6.378197044476067307e-03,9.457302899726885773e-03,7.564613308045386487e-03,7.166416765002663752e-03,9.979081633549349156e-03,7.633657211022918179e-03,5.623868100882081084e-03,6.455701855290207902e-03,7.428002643717060080e-03,1.022914099111698130e-02,5.881335002075109737e-03,6.159461605374376252e-03,7.348197418972601293e-03,5.815630754064893444e-03,6.644739828500960746e-03,7.179664909284640302e-03,6.057754085579993876e-03,8.771917591062140807e-03,5.725520090413718614e-03,5.849338019907301435e-03,5.885257949992224284e-03,7.307589197845736073e-03,6.313277471342739963e-03,8.203377785559571797e-03,7.558025533818780312e-03,9.166704342315137519e-03,7.140719650098248904e-03,8.625560222927168910e-03,9.412967826042362499e-03,7.415598525056391402e-03,9.581361053638152991e-03,1.088079630389100078e-02,3.268586115807962933e-02,2.467907497057673927e-02,-3.470894589877968062e-03,-2.281871736262069961e-02,-3.946947516225846053e-02,-4.165537236028842016e-02,-3.905267220164288650e-02,-3.797944544214948426e-02,-3.388939942199390570e-02,1.497894234087723472e-02,1.398123472368810460e-02,-5.791340331978548674e-03,-1.593087030337144924e-02,-2.451715376373458238e-02,-2.900803045601497987e-02,-3.450682734912913913e-02,-3.660767577203218048e-02,-3.887124319582041521e-02,-4.042335962991774195e-02,9.071905894543000337e-03,-2.134593653728571530e-02,-2.843130862182768198e-02,-2.136978965233238270e-02,-1.022628153405452309e-02,-1.491915934009337488e-02,-1.634268727898677623e-02,-2.018270694185503311e-02,-2.578749498865523862e-02,-3.700480261900340739e-02,-7.238248379306877651e-03,-3.602233739622888453e-02,-2.940540731352356621e-02,-1.251336070082284188e-02,4.057556447814763059e-04,4.521525914961354274e-03,6.353345996376095171e-03,8.913242137293258399e-03,-1.869259382061064928e-03,-1.530708992058587778e-02,-9.302663723940968882e-03,-3.302455279667834698e-02,-1.546209623109588878e-02,1.510009702219486209e-03,1.288099916889185945e-02,2.300439051750973601e-02,2.780440817254314564e-02,3.131007911308195807e-02,2.125952950706153435e-02,3.609951187932435371e-03,-1.161017406136468852e-02,-3.292835835380746035e-02,-1.374179396303542786e-02,-9.685745886403931970e-05,1.406024294069280027e-02,2.850677259701339672e-02,4.035699776885634527e-02,4.201684011259020773e-02,3.667089184314521744e-02,1.578791706756076801e-02,-1.320500590167479095e-02,-3.380447516842577382e-02,-8.940018943940062496e-03,5.592451309134015280e-04,1.519830860038404174e-02,3.222164679724397185e-02,4.386311265535809689e-02,5.220860438104112794e-02,4.348650046876035430e-02,2.464468339084847914e-02,-1.406966150077738377e-02,-3.039639447542848150e-02,-1.351290118755077950e-02,1.495450084953194383e-03,1.340419585533176444e-02,3.438206180126268663e-02,4.734685864983789738e-02,5.472645944956785330e-02,4.895355292791808005e-02,2.882380344925850393e-02,-1.288564049028250412e-02,-3.506887281699839348e-02,-1.922508337321911578e-02,-7.665606092536185467e-03,7.045929929883470826e-03,2.363002932380166635e-02,4.334117032386206048e-02,5.050679155123127123e-02,4.223665321414444423e-02,2.213855311029254772e-02,-1.287982690800399364e-02,-3.815714283627782977e-02,-2.688961127855158534e-02,-1.813566202635249688e-02,-8.348173334666794676e-03,1.115817954312917082e-02,2.826877064653315896e-02,3.170590671169209313e-02,2.813660965898278493e-02,1.017449732751025959e-02,5.738539374993923033e-03,9.361329310007483057e-03,6.595536501120445420e-03,8.151479821661235248e-03,7.902745074103427469e-03,8.741108753344779825e-03,4.929535289849801792e-03,8.499699871788966854e-03,7.234986889155188387e-03,7.172207048457825314e-03,5.465203153139432633e-03,9.355436759443582634e-03,6.771074998737604093e-03,8.318602603652924116e-03,6.734152812981828752e-03,6.958659648282722494e-03,4.568662353657377932e-03,7.182466961886692890e-03,7.296462196656863623e-03,6.133566139827421361e-03,5.478698603053337897e-03,6.577501602173946478e-03,6.086128274566024975e-03,5.108765921892333660e-03,7.875801770502909721e-03,5.529669620225175115e-03,4.523056674073108220e-03,7.118313131325197489e-03,6.020029656841826247e-03,5.174157686190057441e-03,8.528788912566181296e-03,6.033223321244225550e-03,7.468488345700674373e-03,8.772626613294753906e-03,8.486121005204790707e-03,4.559203378658955273e-03,4.455982832207181464e-03,6.478460598728569449e-03,7.156723281078935552e-03,6.521050454591237507e-03,5.103549870563397171e-03,7.095688639810241415e-03,8.032902499355495940e-03,7.432725758089920969e-03,4.877622470678734563e-03,7.892561419150692648e-03,4.892166620715700069e-03,6.978257492720212583e-03,8.466737844913207328e-03,8.043810764418894699e-03,5.052868513598146073e-03,7.760586318264910827e-03,7.388739776308684941e-03,7.691929339302058799e-03,9.031492963141891234e-03,4.584335979316248900e-03,4.486329960897970405e-03,8.007625282874610007e-03,8.591023162630953558e-03,6.169098768253744071e-03,8.716394643922643209e-03,7.583622512425452697e-03,8.617358398058872632e-03,5.215884116281768561e-03,8.501816366500210970e-03,6.003411590871441349e-03,7.338845551893800716e-03,7.555159856600385769e-03,8.891916155013768891e-03,5.864238703009773575e-03,5.646384040725782073e-03,8.103710587485622729e-03,8.970501102787745845e-03,7.463897784514881596e-03,7.719607872514494540e-03,7.311726865750230349e-03,9.032157646882116309e-03,8.264819313011831370e-03,5.621687066321236041e-03,8.879364503644366496e-03,8.088500143503530443e-03,9.121552757683563245e-03,8.125538711839901118e-03,5.075409558260861494e-03,7.767194730554601023e-03,6.793287602428811113e-03,4.529454958303816108e-03,8.726911191583745786e-03,6.325580530664033467e-03,5.314374362464970546e-03,6.090430885167788001e-03,9.225814877175643469e-03,8.027890724192823096e-03,4.468796146264050924e-03,7.088102499413173781e-03,6.634226290175297865e-03,7.195261015531064820e-03,7.046710291735264718e-03,6.663924330290288932e-03,7.599945746561210733e-03,6.253009462598469424e-03,5.744465718568153578e-03,5.312993046777359125e-03,5.311506961219179465e-03,9.360887928380516587e-03,7.346357544560615759e-03,9.876253998739250792e-03,6.681242089153968493e-03,5.270580941514121411e-03,8.618010794622195034e-03,8.057203946521967336e-03,7.617345285522220642e-03,7.918063142069936902e-03,7.635273676549175770e-03,9.094057026919590697e-03,8.834822909410433231e-03,7.369492776926989813e-03,4.945216780173983251e-03,5.298982982463984123e-03,9.211829555920029999e-03,7.357205158794754597e-03,8.373448657837572959e-03,5.908352782908270727e-03,7.767781591053480109e-03,7.960153801132323001e-03,8.327161792703218629e-03,6.713099221552029476e-03,7.775099334693305782e-03,8.948255419264687649e-03,6.470326266104980267e-03,8.566619770860785937e-03,6.881275118756060606e-03,4.737008238014938505e-03,8.493788618926497239e-03,8.379460367636258275e-03,5.659334430826334916e-03,8.315359918431207420e-03,9.499670798053437559e-03,9.004577167390680897e-03,9.617742728313562542e-03,9.521171185910549256e-03,8.981602535670501000e-03,7.713851115467195568e-03,6.885940433886666295e-03,5.953743801856772877e-03,5.098665094637342722e-03,5.353055050153439354e-03,9.089886388514456864e-03,9.591633985496400214e-03,8.875157034053773528e-03,6.871903809736778883e-03,8.528499569796356081e-03,5.429706535854676892e-03,8.658985974992372547e-03,7.540382091259115703e-03,5.444606207825064721e-03,8.282399373684247793e-03,9.526348126056339433e-03,7.957968489786002714e-03,8.931502356158292980e-03,7.711915367373708453e-03,8.848194462057095908e-03,4.722351979938132875e-03,7.407141079520110014e-03,7.774864870315654000e-03,9.060212826598879401e-03,6.237827438953838163e-03,6.742391446347933796e-03,5.115573917530911487e-03,5.985424634398363308e-03,8.439558585825197162e-03,5.051643032139403744e-03,5.642217857447084407e-03,9.591752682814161379e-03,9.483095395630898247e-03,7.703937619690593222e-03,6.846274860216748810e-03,7.928327542940968864e-03,5.435724301409325734e-03,9.462871651203462117e-03,8.119405286544693900e-03,6.427813374499955455e-03,8.960530415198149704e-03,5.867263635272718277e-03,5.258160742908912777e-03,8.129148391330966866e-03,6.451053241659124131e-03,6.441934465401888757e-03,8.143188374070492452e-03,8.798384086807560511e-03,9.544250623760384272e-03,5.254613192579782842e-03,8.810763611490779121e-03,4.822000062040035333e-03,5.104371465820368298e-03,6.674981025829934515e-03,7.476022499835327344e-03,8.019232313321479275e-03,5.699238014945245262e-03,6.266722622005921339e-03
-1.112431703708910598e-02,1.204770946972278517e-02,1.232521801947837788e-02,9.747286234496990373e-03,1.170742967784778668e-02,1.023692032280486622e-02,8.120881064662325774e-03,1.098187114819180847e-02,1.107359614448298959e-02,1.184150356671986523e-02,1.119701786544421984e-02,1.029578047289377192e-02,8.776763659925692143e-03,8.526866854025996756e-03,8.528230131277363471e-03,1.104932712617679239e-02,8.053503822641857463e-03,8.191544178784482266e-03,1.077776691894215440e-02,9.843160873569340233e-03,1.101993562613628845e-02,1.099178377022697051e-02,7.818867724941351918e-03,1.017647146619402032e-02,1.038578599465274886e-02,7.648793857643601188e-03,1.161144325677219806e-02,8.821946192601680045e-03,1.065343090214839784e-02,7.906298209172853489e-03,8.992747549779531516e-03,9.814655060987042060e-03,1.138221175375531483e-02,8.812594826578682219e-03,8.853824536420014032e-03,7.783881443641746042e-03,1.116175504265233716e-02,1.167906008950628585e-02,9.576006081815991236e-03,1.216630918520101266e-02,8.974774551483592766e-03,1.084708016092670799e-02,1.166582837798639874e-02,1.169448189564630328e-02,9.223862439643071287e-03,7.869327473970323672e-03,7.726222521690221876e-03,1.238600347170556830e-02,1.212438673019566003e-02,7.990933117349489911e-03,1.190260552682496573e-02,8.518717964322415626e-03,8.108508653526481577e-03,9.766926965887214387e-03,7.519504485030570166e-03,1.179584679242146224e-02,1.048509242874460720e-02,9.553436338282509863e-03,8.579129368548894102e-03,1.146752608747796456e-02,1.248928782373631870e-02,1.054887877617849412e-02,9.904151945939333734e-03,1.135002388172404175e-02,7.352432541500810229e-03,8.331700902269333076e-03,7.600171414798818741e-03,1.050968234811058659e-02,9.296835867555962654e-03,8.915974209318385663e-03,9.950147049660443624e-03,1.012374783984614467e-02,9.287374653670417424e-03,1.197381276468498235e-02,1.010790730292550517e-02,7.397839314042831474e-03,9.755404181059882870e-03,7.710073436462660731e-03,7.482544682775562478e-03,1.084017150274119157e-02,9.579935549007443166e-03,9.031914044132619696e-03,9.594415344734773948e-03,1.139201385796453740e-02,9.835126304692767135e-03,7.507353980296715794e-03,9.682277637850870630e-03,1.121535435316011950e-02,7.903740506080071324e-03,9.740129370935247943e-03,8.916897831166885335e-03,1.119572766285294695e-02,7.742779871531840601e-03,1.135345409106050182e-02,8.620197507082403426e-03,9.031450059663898716e-03,8.068030163217511028e-03,9.789108770440688168e-03,1.212985776331227880e-02,8.872511170442607537e-03,8.812993884746505094e-03,7.990481723726305247e-03,2.647321005128099036e-02,2.965755414605577428e-02,2.919043995425904536e-03,-1.905264435360829248e-02,-4.216375422739244982e-02,-4.698420864580241108e-02,-4.928605208664202375e-02,-4.225571610388790394e-02,-3.542677797501612297e-02,1.793098584394850481e-02,3.057347000912179202e-02,1.681990601197025023e-02,-4.007978367999874211e-03,-1.430183689405342337e-02,-1.996172235151408292e-02,-2.425108350761363135e-02,-2.869793648959570453e-02,-2.974326105538997039e-02,-2.719917775363307755e-02,3.844331554439243959e-02,3.357910153764308292e-02,7.788160284454889032e-03,-1.370637593600170477e-02,-2.091109786653736966e-02,-2.331215380007153198e-02,-2.527126841953990580e-02,-3.576383600696874526e-02,-4.272823468363662336e-02,-3.899735849379013658e-02,3.777181661547123620e-02,2.178829425091229413e-02,-1.173614228166694820e-02,-2.970540925587146497e-02,-3.603452423285537914e-02,-3.589112208256881736e-02,-3.746577281579895058e-02,-4.532416847095638301e-02,-5.605399938679590799e-02,-5.248170421119919410e-02,2.111549620248488746e-02,-2.583692993036882171e-04,-2.584303764824542882e-02,-3.745688719873299655e-02,-4.288518981284113185e-02,-3.762729676549847468e-02,-3.981095697116721760e-02,-5.174835024623705704e-02,-6.708866403650372290e-02,-6.797060123970541379e-02,1.189527711677641070e-02,-1.378236297537718293e-02,-3.914724033821135457e-02,-4.602631275007829093e-02,-4.533822041663111702e-02,-4.237690723731620673e-02,-4.598702653547034197e-02,-5.765190779840406038e-02,-7.456387235519074119e-02,-7.663920947266673889e-02,1.551673130810066192e-02,-2.212299524294260994e-02,-4.212852752724428884e-02,-5.009110155483528781e-02,-4.780969647340653494e-02,-4.562435657986835952e-02,-4.592679155881210923e-02,-5.912954029863155825e-02,-7.195944206125934328e-02,-7.417431646941337331e-02,1.866903077808187983e-02,-1.983561768959634167e-02,-4.157593586565676985e-02,-4.532453641246611542e-02,-4.347620054329085632e-02,-3.907505431379217076e-02,-4.121806119511151056e-02,-5.237919379596685243e-02,-6.688775877795977154e-02,-7.067085117297840224e-02,2.374131148867037952e-02,-1.315042467353047875e-02,-3.081052263262828300e-02,-3.425232530641207640e-02,-3.219854401616291384e-02,-2.677747799859314659e-02,-2.782963219682939998e-02,-4.425740761896678616e-02,-5.977616715913155326e-02,-5.514292905440304482e-02,2.838325316383931082e-02,-5.943482985953558312e-03,-2.158167554815847849e-02,-2.508677722091066237e-02,-1.881763708903843799e-02,-1.516025534251376830e-02,-2.072727885152976512e-02,-3.365917298421321202e-02,-4.803711106317676283e-02,-4.490400842658319458e-02,1.059447943439112416e-02,1.293225929598390209e-02,1.165981508713350573e-02,1.200830396586185372e-02,1.185608296156887703e-02,9.373328247648408940e-03,9.018350577753082853e-03,1.032931459813675804e-02,1.114121300773384532e-02,1.122002651537323120e-02,1.321272316261454943e-02,1.286722626473502801e-02,1.160751285230089344e-02,1.255027301262701817e-02,1.119041736288852243e-02,1.021806334568525418e-02,8.968591206039161143e-03,1.191442318932110084e-02,1.302865092341129113e-02,8.846950203218762257e-03,1.216348853408826675e-02,1.100594169183459828e-02,1.280440588021949239e-02,1.020868105317085731e-02,1.318642358538957976e-02,1.083272215039730868e-02,8.432894516438688495e-03,8.705264336122699870e-03,1.208362234636323890e-02,1.186761409595906910e-02,1.114485162070642799e-02,8.526604135746337909e-03,9.382810941097930596e-03,1.166061483794041120e-02,8.760972557530201377e-03,9.595882193329942356e-03,9.664803818424959336e-03,8.707619580228391151e-03,1.293009230214209673e-02,1.069511870203870146e-02,9.870909048518731327e-03,1.229615055223457973e-02,8.726558973810645548e-03,9.460123568252622878e-03,1.091490256585614382e-02,1.201998250657682066e-02,1.239670517274494427e-02,9.240497769714885873e-03,1.151972188063299721e-02,1.281727081463356413e-02,1.013306649389278391e-02,1.342732257028936282e-02,1.252316729933857994e-02,1.210751071050709601e-02,1.257378247003396871e-02,1.270205968714307673e-02,1.266344383211559510e-02,9.789459338581059378e-03,1.276726616685158050e-02,1.238887837030288458e-02,1.205551842027792475e-02,8.804959894705371645e-03,8.904113490326383620e-03,1.023610582619327233e-02,1.264614447542192904e-02,1.008777560609967414e-02,9.576174613472480945e-03,8.802501861946298092e-03,1.258388902110251645e-02,1.105186969153061638e-02,9.925665658723901996e-03,1.271839784450940619e-02,1.205413202027055472e-02,1.306261432569501280e-02,1.010888176401288086e-02,1.220255277259340090e-02,9.531431407478935941e-03,1.138208716040909133e-02,1.001297919816898641e-02,1.280605584577847872e-02,1.317643158465460831e-02,9.119970212105522195e-03,1.180297542618215234e-02,1.122653226867200565e-02,1.201239092376886475e-02,1.080988074537836408e-02,9.115893087128113664e-03,1.159551842234322547e-02,1.099899741133973999e-02,1.007405137452441549e-02,9.614144426817222006e-03,9.044695810076821760e-03,9.321873974366241822e-03,1.113735125911095511e-02,1.179598110999930186e-02,1.303735374133991112e-02,1.028891197542565472e-02,9.038535202273136060e-03,1.156884444185848210e-02,1.337637061517508996e-02,9.465997525424273834e-03,9.363556731507044484e-03,1.319103024853324896e-02,1.275877763689130945e-02,1.317926310228932293e-02,1.098292098782039858e-02,1.125370906218536686e-02,1.084372853611133107e-02,9.856543992430287851e-03,1.138608798404004523e-02,9.656294621460064995e-03,1.013375981335195263e-02,9.196891701198644728e-03,1.177089183196217831e-02,1.228493737327745333e-02,1.290548696082360544e-02,1.360859906425785672e-02,1.132194919521177165e-02,1.029500946186642438e-02,1.083469097014139876e-02,8.291533567524827716e-03,1.114848846771586931e-02,9.790263580552953371e-03,1.326704734992617367e-02,1.443773868562995763e-02,1.330794675035081899e-02,1.013612160389642733e-02,1.053316607313619681e-02,1.358228541434809179e-02,1.250220393525704882e-02,9.160915077366670739e-03,9.029957066113333472e-03,1.266990128142724513e-02,1.193187277875629344e-02,1.024824378242951070e-02,9.919891073072718141e-03,1.300318716352450582e-02,1.337708401610624050e-02,9.674215908049921611e-03,1.355305164258029625e-02,1.117581802879759507e-02,1.043579007204169067e-02,1.133965266038588701e-02,9.911768808795436494e-03,1.384303922289033435e-02,1.428880470252856874e-02,1.071648381882762610e-02,1.376413778533547815e-02,9.896704316377555322e-03,8.759009672746453923e-03,1.196818710650695075e-02,1.256228602863443400e-02,9.361762500061862613e-03,1.062295071891345734e-02,1.038829886131338066e-02,1.471710441448365742e-02,1.476808828552035775e-02,1.360133896718017203e-02,1.425784874037035709e-02,1.051940399252151472e-02,1.205714709279057453e-02,1.340432484214015667e-02,1.357745795749550066e-02,1.091801788074240297e-02,1.174655055697177916e-02,1.025211475103291088e-02,1.210575704611952311e-02,1.212547330741285158e-02,1.050520275494154498e-02,1.128463138443402264e-02,8.435176770719705897e-03,1.250577393562485144e-02,1.045377033050653298e-02,1.010459039876866229e-02,1.098093075525698702e-02,1.030983301398364325e-02,8.166403303363749949e-03,1.109522096454755580e-02,1.279241532475824082e-02,1.096914017743992609e-02,8.450724137052233881e-03,1.115239989198036318e-02,1.015895084791770299e-02,1.161684226669780322e-02,7.087186141241274412e-03,1.049011470664603513e-02,7.292997267763310504e-03,8.045962113941774671e-03,7.515015025351430046e-03,9.903710105799328964e-03,1.009984469810885563e-02,1.057437841185386411e-02,1.069092181200729727e-02,9.895945691474403519e-03,9.430125333835302423e-03,9.937671543202167626e-03,8.008508705864102531e-03,1.024614632134638464e-02,1.107161826508943660e-02,8.797064687634860783e-03,9.085212838368989310e-03,1.018576849246324509e-02,1.036333927364830633e-02,8.206300860991978807e-03,9.793397581378971567e-03,1.090895151081390860e-02,1.182771543622337593e-02,7.874505186745423338e-03,8.563329919611024216e-03,1.217214191546586374e-02,1.150128573462227792e-02,1.031939281257601183e-02,6.995985543382359645e-03,8.704840711245566062e-03,1.004497179282819695e-02,6.674254929752566727e-03,1.085561402176931159e-02,8.710659532332963237e-03,8.966478542741627630e-03,1.126038046092108988e-02,1.039154427594606717e-02,1.016603826767560788e-02,1.053241554867572795e-02,1.021732099096701006e-02,7.633614175676240420e-03,8.010975373250251927e-03,8.451682130250234501e-03,1.004201416123629183e-02,6.962789186300938696e-03,6.157502102953418821e-03,1.251613563598328975e-02,9.783822735823824793e-03,1.027571668470287150e-02,9.278837165329199832e-03,7.282140257067342554e-03,1.071418077935967078e-02,9.445111639537435988e-03,1.058074666387135744e-02,7.227355828870370320e-03,9.034805418831897902e-03,1.063274327575000969e-02,1.035812965445287274e-02,1.030947832935642273e-02,9.035231503381275370e-03,8.165486159419052190e-03,7.050044327176553313e-03,7.510677664879767020e-03,9.797124067895913654e-03,8.183211997413902469e-03,9.969261109254251574e-03,8.549345859000339470e-03,7.706109688572930494e-03,7.230278006615413651e-03,6.148373176534299711e-03,6.424973964620444775e-03,8.183977852827180668e-03,6.859723312244760292e-03,9.938101461924636962e-03,8.192948739075837233e-03,7.124427270729538630e-03,8.891632362444293336e-03,7.004081419738286338e-03,8.312052323648707122e-03,8.092997572258210648e-03,8.847002743238102651e-03,8.473102374321198754e-03,8.884211563815901450e-03,1.007980355953867584e-02,6.669089591113030492e-03,7.736353203941521289e-03,1.045316139623518430e-02,7.081583061555744678e-03,7.619652336242824578e-03,6.602691397821686993e-03,5.387202551620826063e-03,9.935095141452745041e-03,7.088399405080237151e-03,5.469946354800444936e-03,5.991729870147141299e-03,9.990868924016125738e-03,1.082007572684881916e-02,9.661226187965570381e-03,1.078016323424957346e-02,5.961922669074209806e-03,9.893716296299048113e-03,8.056889770297937653e-03,8.928073547190220130e-03,9.694569682126006824e-03,9.117441380532727291e-03,7.708850847002045488e-03,1.253107589398923943e-02,9.776626895999219330e-03,9.794585936132190612e-03,5.655191993044195869e-03,5.923060315493900926e-03,9.781760297042063276e-03,7.662364836561455159e-03,7.714886471446424226e-03,9.791674373635461323e-03,6.297691507560202427e-03,6.391320388572208945e-03,3.499134566005791119e-02,7.497614297925682403e-02,3.960834764646519596e-02,2.946340421198508780e-03,-1.462957763215879878e-02,-2.247210929244597075e-02,-1.242357977829745656e-02,-9.348588455501615282e-03,-2.794782196727792906e-03,2.134020981779199966e-02,4.989826602711307235e-02,8.915893851767206502e-02,7.433535029342158706e-02,5.120447159408941101e-02,4.392764394878975742e-02,4.777749522632007695e-02,4.826322930384745885e-02,5.225076386301385351e-02,6.378254951037463927e-02,3.128099329241455784e-02,7.607180878639396848e-02,1.144562440761151267e-01,8.291997853974754362e-02,5.469769013920025569e-02,4.724979341195123528e-02,5.015533675503768690e-02,4.965458373113164348e-02,5.849577569153389944e-02,7.576401433561895382e-02,1.549248955091806282e-02,8.957836312913888821e-02,1.165123472987761588e-01,7.681025952175997429e-02,4.498242179758090570e-02,3.858741414380797985e-02,4.120011054870383743e-02,3.665914718799542782e-02,3.995547790278814598e-02,5.512436885724698171e-02,-1.508166451848890616e-02,7.252172669654824433e-02,9.162294746240018384e-02,5.844230880317809879e-02,3.812412389778181698e-02,3.444060337043107489e-02,3.785445254305208618e-02,2.801331848975161312e-02,2.173707517439065276e-02,3.583548315890910940e-02,-2.758752172735112751e-02,4.834057842408589351e-02,6.637867284359227904e-02,3.734188552461737559e-02,2.712112718763426411e-02,3.064806222585529302e-02,3.306079824237691256e-02,2.228104876950123131e-02,1.387977356024383546e-02,2.275473019059861407e-02,-1.450839238954384873e-02,3.529234131518699941e-02,4.639112012696749998e-02,2.028507129031919751e-02,1.430773043532514513e-02,1.824713620177948956e-02,1.833121354349067506e-02,1.323422499960190402e-02,-2.730414251392969394e-03,1.544448067262331470e-02,-7.984000803461198392e-03,2.784163322239233823e-02,4.225321300739475622e-02,2.312227942317067811e-02,1.517978601287900062e-02,2.005722288251393648e-02,1.946012433998796712e-02,7.352258047189105458e-03,-8.595220686557620421e-03,1.342284788624616143e-02,-3.068878265535734604e-03,3.922706318728248071e-02,5.740333379234897893e-02,4.077386994298212719e-02,2.705574151339405070e-02,2.972247144762079837e-02,2.327815208027397831e-02,8.612411165039315919e-03,-4.420296563579730401e-03,2.351152933232915007e-02,-2.313054433773230160e-03,5.005060964102989174e-02,7.892945766326586732e-02,6.458437429948481190e-02,5.249305182760780758e-02,5.017530064999178863e-02,3.719121190469355798e-02,2.843084834551524998e-02,2.313372890183332253e-02,4.648703676533978701e-02,9.415083366013248661e-03,1.272898922798105723e-02,1.294084507937078021e-02,8.447592763551423772e-03,1.164139639973366461e-02,1.262669694852425542e-02,9.638608563498823889e-03,1.164962218553383666e-02,1.101295412481338720e-02,1.079553235881567166e-02,1.183790659422007813e-02,1.075608528921453977e-02,1.237580644444236447e-02,1.265115688552841122e-02,1.207439016759971617e-02,1.070548887914941558e-02,1.298188764548796614e-02,1.087047130996457098e-02,1.211837228157222959e-02,8.860146115892522309e-03,1.202676895923170466e-02,1.205008972857542562e-02,1.176265603306505050e-02,8.888602048073528453e-03,9.903528926697324763e-03,1.050293282242216117e-02,1.084770998406555872e-02,1.040791120506149442e-02,1.042473922029641537e-02,1.267736876280978892e-02,1.094413744633162058e-02,1.074059259733717644e-02,1.214931250748665578e-02,9.184818244135296156e-03,1.276494676487158891e-02,9.599438844644665042e-03,1.139085026389937555e-02,8.832234037484136893e-03,9.641778406235007592e-03,1.199662457329763940e-02,9.222661678725745799e-03,1.210109729828765315e-02,1.209230720798212463e-02,1.266401586641513130e-02,1.156836694707435997e-02,1.233798604787893910e-02,1.166529471004744412e-02,9.450423229737270336e-03,1.128938026737297609e-02,9.704522841816207168e-03,1.021834970168053469e-02,1.296269022761409317e-02,1.071717145532396012e-02,8.987501948698978921e-03,8.669751717195759225e-03,8.980528915003576154e-03,1.144202410684519444e-02,9.905120680195601129e-03,1.107067972538830145e-02,1.228281730216454828e-02,1.081773855763299916e-02,1.296533801261916599e-02,1.178591784526029571e-02,1.292970271013919523e-02,1.312628554029547298e-02,1.107510338574466818e-02,9.923924233801666162e-03,1.066160058343161229e-02,9.095895277866852466e-03,1.297967942111950476e-02,1.171340244620219795e-02,8.821431224219491302e-03,1.202027872270960626e-02,1.049282705320192521e-02,1.066116942022087358e-02,1.264482357266396434e-02,1.230853918211533699e-02,1.242942208012790678e-02,8.827109331517363558e-03,1.084246367813006609e-02,1.248224331751058777e-02,1.032806071647583007e-02,1.217541942399270882e-02,1.227601597785683493e-02,8.473534455871454749e-03,1.143040501742528109e-02,1.117601922773011833e-02,1.256117611691900601e-02,1.331496600004296663e-02,1.061732601477743260e-02,1.224745474064047393e-02,1.202477189324831913e-02,1.035246598663901174e-02,1.092943090437295886e-02,8.764848910626933665e-03,9.230296883985193018e-03,9.619239936854748207e-03,8.487849042469661903e-03,1.326354172827642550e-02,1.008752533331994800e-02,1.133400152467714701e-02,5.344700355181603718e-03,1.007951605799137229e-02,6.673139735318924480e-03,7.234282545074091630e-03,1.006831875770489507e-02,9.874780833172405736e-03,6.827735110497698372e-03,7.479882983723371188e-03,9.685372338974285525e-03,5.538427669728333835e-03,9.974202897156310768e-03,5.213633924792221604e-03,7.974343546924929013e-03,7.919342518650297411e-03,6.845847584041764994e-03,6.114663977253290660e-03,8.321232081935622804e-03,6.258705619826655971e-03,6.600142070812695799e-03,7.858392304410139959e-03,9.297421944249574521e-03,9.337636796963998120e-03,7.937854248534784163e-03,9.203600797796224198e-03,1.058859281166504331e-02,1.013511965514857227e-02,6.769772178804983262e-03,6.284806907464240457e-03,1.059655075525448194e-02,8.985711016487020475e-03,7.993872602352129070e-03,8.592869993194343983e-03,5.807976855172209373e-03,5.661194689798728155e-03,8.178127451034923265e-03,7.091587062983658110e-03,8.112221582299518688e-03,9.373745495630624383e-03,9.624099502886429222e-03,1.197838074471632361e-02,8.002924978459544092e-03,5.504563871001094677e-03,5.649691803730312427e-03,7.945811564070429794e-03,1.073394571883646426e-02,7.174634489323135876e-03,6.507517704963356776e-03,7.833843019270460284e-03,1.002526880066940095e-02,8.309542242088231029e-03,7.770673573555129249e-03,9.884237115194165549e-03,7.996707991980326474e-03,1.073897202907302291e-02,1.020670430089952452e-02,8.413521600027822761e-03,7.365945563707408487e-03,7.626298665644362651e-03,8.503228584495845649e-03,6.951775775989077130e-03,9.444954074904405791e-03,8.737767963829806347e-03,5.736867951689020653e-03,7.086877877823637671e-03,9.969382081102219281e-03,6.047761004822130131e-03,7.823034483470122855e-03,1.067677977702933753e-02,8.274445341502244949e-03,7.305688571371325539e-03,7.426912979981342526e-03,9.928536475105118400e-03,6.242940566595994722e-03,7.540523068772094287e-03,7.876157508458036041e-03,7.518790773633071689e-03,9.687902184785161103e-03,8.081555819888494585e-03,8.369679925385408586e-03,6.523561883584798847e-03,1.037804339329742934e-02,9.643045430487917277e-03,7.032895657755224364e-03,8.516360506529114388e-03,6.631502821613520331e-03,7.705065405693786382e-03,7.853126319335773306e-03,9.438465607565751231e-03,1.082494332433006461e-02,8.855662624398271190e-03,6.153681987975305120e-03,1.011522563997847672e-02,8.698310307549816239e-03,6.341275685826282434e-03,1.087616918356069245e-02,7.270346060569071039e-03,7.697823046611322780e-03,7.019203095180468442e-03,7.360600155151022367e-03,1.164712312836117640e-02,8.997626699390144644e-03,7.620925027701540462e-03,8.230490069853386992e-03,1.002528751410583681e-02,9.282957542032545251e-03,1.265128920767894134e-02,1.198774453258611740e-02,7.881833542390368277e-03,1.175203330103815128e-02,9.421888534425769055e-03,1.184664092641346880e-02,8.937692724999293792e-03,8.984040258319746231e-03,8.175447677293560395e-03,9.617379405438965939e-03,1.130424638673170265e-02,7.865677285571859301e-03,7.731575162154203339e-03,1.013275165659057245e-02,8.810724430363348070e-03,9.759413518042117652e-03,8.296844512419711964e-03,1.145158963162250590e-02,1.005020813988920063e-02,8.991686500071174176e-03,1.139770661712950772e-02,7.960559937712951423e-03,1.169619929422244589e-02,8.302158104558820390e-03,1.208756173331962565e-02,1.046048367429007649e-02,1.150996931394799444e-02,1.119847308621804878e-02,9.510228975026237611e-03,1.031048664792250449e-02,8.190768902878526464e-03,8.395158174994553357e-03,1.014114640951571319e-02,1.012866233249936493e-02,1.090120455610655952e-02,1.135163633147862582e-02,1.098899914887357422e-02,7.049767239324397292e-03,7.401283581281080381e-03,1.150254127925298686e-02,9.869318217123350737e-03,8.818237491402529382e-03,1.101332102563292066e-02,7.492929982686575077e-03,9.350224898626535025e-03,7.941596383092495645e-03,7.302247396062916396e-03,9.169471810509666546e-03,8.541602424095856225e-03,7.760635821876668387e-03,7.247106010576116926e-03,7.508638917127295753e-03,8.855948543432121123e-03,6.910015371761298215e-03,1.224572929930247203e-02,1.232275034364412568e-02,6.927670315228265721e-03,1.101237880183968468e-02,7.077773292160184811e-03,9.004302346002031332e-03,1.099526001271211931e-02,7.012631410315146516e-03,7.967817696997914548e-03,8.224250640340199925e-03,1.275293710671153435e-02,9.227618314104861844e-03,1.119056247427099686e-02,7.752055529205442372e-03,1.074142272506811019e-02,8.868495245756705461e-03,1.025616704157714804e-02,1.124345191317624275e-02,1.077561330149708757e-02,1.120809852058453696e-02,8.713278021206945570e-03,9.158849584127019480e-03,8.609796719244196608e-03,1.113222502789964867e-02,1.177241887889186010e-02,8.018391311697486978e-03,1.135098230889709618e-02,6.979542918836229362e-03,8.400491888790219755e-03,9.646923748650637967e-03,1.299140523081052101e-02,9.873682799235660237e-03,1.088842793936284012e-02,8.456977016515536405e-03,1.107766912955101928e-02,9.798029142694496610e-03,9.587914195976566037e-03,8.162672234441233077e-03,9.867838357584087644e-03,6.999175009194474016e-03,6.647117673808217685e-03,2.786387723296773408e-02,4.890928704542954475e-02,-2.322507337356381242e-03,-4.720195492460681902e-02,-7.093837703132964412e-02,-7.473376862993683090e-02,-6.909471973407235734e-02,-5.934425812474657808e-02,-4.912285103500005357e-02,1.469314207915170013e-02,1.148344035161733695e-02,1.914821366318239515e-02,-9.129398178475545481e-03,-3.859680295375401970e-02,-4.262091521974887415e-02,-3.648046839696160448e-02,-3.968294160020346267e-02,-3.242212960053066084e-02,-2.770753553773198583e-02,7.496204143541640615e-03,-2.456911133655528909e-03,1.776958851534748279e-02,-1.331507809087015444e-02,-3.400101466069957445e-02,-3.390249630206768755e-02,-2.737571329198625059e-02,-2.644377040015655211e-02,-2.312629182899050145e-02,-1.579575334152280228e-02,-4.149056204160923855e-02,-1.754836296109894833e-02,1.043820747532053263e-02,-1.589653081818730856e-02,-3.401210353028943922e-02,-3.097351610659670323e-02,-1.995205237191224196e-02,-2.231606177545006689e-02,-2.803279159654868680e-02,-2.483129674341557486e-02,-9.062097568462178232e-02,-3.716282653612479336e-02,-6.241272903832971106e-03,-2.238481040688060364e-02,-2.830950604379934774e-02,-2.079941233063779815e-02,-1.143548076075609141e-02,-1.753933518106260553e-02,-2.503610260004147936e-02,-2.967074381259900834e-02,-1.074677865687380246e-01,-5.482772259403750903e-02,-2.187121398630222091e-02,-3.243189665914274211e-02,-2.925773622123616774e-02,-1.193825558940590781e-02,-5.355278059689554289e-03,-7.462066056814168659e-03,-2.245262906176540701e-02,-3.080299437798882795e-02,-9.491925543458355763e-02,-6.373568172355915940e-02,-3.193519170471683516e-02,-3.728675251712202515e-02,-3.131666087550280531e-02,-1.236586155632952988e-02,-7.686191713024038454e-03,-6.982281355876598060e-03,-2.323559357836902511e-02,-2.973060002238681401e-02,-8.816024970112676384e-02,-6.804821156946012917e-02,-3.352849435390613947e-02,-3.148764362085864493e-02,-2.517895150670406562e-02,-8.781359524081574011e-03,-3.324501917807913542e-03,-5.439040837526900284e-03,-2.516535652470419659e-02,-2.904819415571793795e-02,-8.017063531216658823e-02,-6.983986182262572062e-02,-3.012317886736952041e-02,-1.857485237650379969e-02,-1.577173506530846203e-02,-1.694737250235505040e-03,-8.981155706777772807e-04,-7.122264404459181970e-03,-2.116723507923850070e-02,-2.255151091168492578e-02,-7.624106500243847673e-02,-6.542435324786735618e-02,-2.407240794241171516e-02,-1.361226919620372663e-02,-1.014411566215681071e-02,-1.287257289622991373e-03,-2.874384638774756841e-03,-4.741465870756388264e-03,-1.824898586381260360e-02,-1.642656629561557377e-02,8.748408694764571447e-03,1.268101835608383479e-02,1.009150347618853472e-02,9.712128172512556751e-03,9.918149629277867030e-03,1.101045136641426794e-02,1.336090414327267828e-02,1.071759644003059814e-02,1.273086283703743840e-02,1.248912747597876252e-02,1.094542790413150987e-02,1.127538648633593515e-02,1.098391633969207984e-02,1.102959848886827729e-02,1.066635583640695648e-02,1.241187702066234855e-02,1.330740068907111662e-02,9.656273145032947397e-03,9.017634612835839433e-03,1.157216200472715659e-02,1.029641275792483532e-02,9.774894358696412100e-03,1.106484701715658089e-02,1.294438783479053001e-02,9.327858380864188781e-03,8.923622749321485914e-03,8.862472739715179446e-03,1.039024282759513224e-02,1.152817161149163883e-02,1.235048066576238321e-02,1.047047892208630843e-02,1.300388637722889318e-02,8.760131617315335129e-03,1.194412170361277767e-02,8.737227662963748323e-03,9.562622603013212069e-03,8.875137128030856706e-03,1.069149211647372338e-02,1.080561474696022095e-02,9.097124934579705127e-03,1.295722711454342160e-02,1.120039354883585123e-02,1.283132500094538025e-02,1.283712269709639045e-02,1.144419461933215282e-02,9.120897704414068080e-03,1.108958444719567588e-02,1.037418702000852955e-02,1.068933454569878302e-02,8.603657057173667508e-03,8.725060183190943078e-03,1.094076226514343816e-02,1.099103527697262855e-02,1.131963423274666772e-02,1.264943869573403185e-02,9.207091697971105104e-03,1.202704752544686215e-02,9.684713044375715951e-03,1.283642295883926157e-02,8.992960950771330952e-03,1.105612763811204477e-02,1.327614753335355086e-02,1.304474663600721507e-02,9.625338868457875702e-03,1.060985693257844240e-02,1.216454933932266738e-02,9.642795831667140549e-03,1.305444457669059644e-02,1.292396471138929082e-02,1.021065851898611890e-02,8.596021831324756127e-03,9.970159537458538751e-03,9.028032290814540922e-03,1.100288328714493780e-02,1.278212902937474887e-02,1.005575376089766493e-02,1.256203364214210361e-02,1.340961273731735084e-02,1.146027484390474416e-02,9.088176629460292810e-03,8.645569816937922342e-03,1.205209355445129027e-02,1.022229764832317117e-02,1.102749301085070507e-02,9.389082247549401100e-03,1.015620408722107265e-02,1.218584136485609259e-02,1.075081090000139239e-02,1.201368139973506277e-02,9.303879824965870932e-03,1.316657634854726672e-02,1.034113146975884287e-02,1.175022170758904805e-02,1.103568008311319598e-02,1.042648715775500168e-02,1.004705990501505650e-02,8.902892745340534875e-03,1.213590327260058790e-02,1.323388796652504723e-02,1.013797923986841515e-02,1.264989569818391647e-02,4.638417758150164757e-03,1.204876459010456764e-02,8.090918739224189568e-03,7.991879936578513005e-03,1.107254306288611538e-02,9.968277208017212176e-03,1.094436348144483748e-02,7.344855680429782790e-03,1.054302897687161081e-02,7.254038880699495082e-03,9.980910098534771444e-03,1.048413068911868869e-02,5.969435698001350661e-03,9.283844392767399631e-03,6.621388773210150173e-03,7.040430771194683066e-03,8.551785087828158924e-03,9.417291440849299283e-03,6.789915884137114749e-03,8.655878966143717643e-03,7.320847342427320124e-03,7.073315582943920724e-03,6.772204124414109641e-03,9.524958923595439747e-03,1.027753739207789598e-02,7.939067659909022565e-03,1.083601729551147454e-02,8.976290272782924337e-03,9.333781428419439877e-03,1.263442366348298262e-02,7.461506245852070167e-03,6.569205565789329286e-03,1.093931212272553424e-02,8.960073719655445301e-03,6.784683247154491004e-03,8.893151982963948265e-03,9.368672687783272807e-03,7.772041102026218569e-03,1.160672761634000232e-02,1.154252634500431939e-02,8.532496801987601853e-03,1.129335071309321877e-02,1.014278248963570994e-02,8.212775514019459225e-03,1.046466865967611917e-02,6.827300217256544908e-03,1.121554895037436654e-02,1.096440739449960899e-02,1.070915037165997424e-02,1.121527832816254788e-02,8.036369159476816973e-03,9.741796718795190518e-03,1.083347308219531277e-02,6.828293297501139211e-03,1.087772830807600885e-02,8.573863133115613294e-03,1.007625679454574388e-02,1.177417049985016867e-02,9.107320602586071664e-03,7.846643362905875857e-03,9.719285989162024242e-03,9.387216272112764923e-03,1.010123292481519483e-02,1.159007298574081177e-02,9.059479264306922325e-03,9.472043358189834866e-03,8.449743822313334624e-03,1.181274266973332196e-02,9.781117924415081571e-03,8.986761761624663739e-03,1.017340612972200166e-02,7.659230419289918268e-03,6.853414856849665386e-03,1.120038612100576064e-02,7.330347035509208499e-03,1.081919348097078182e-02,9.090771791697887030e-03,7.275698011907942228e-03,8.746457423574145393e-03,9.484377078362736871e-03,9.114656206601044058e-03,1.164150217551773898e-02,8.324145762739470350e-03,1.003997233136851366e-02,7.809569053686198428e-03,7.847891639767961766e-03,1.140644234102260873e-02,1.123780165940354604e-02,7.867321116389927246e-03,1.050874731634798658e-02,1.090360936111636758e-02,7.921284640518454906e-03,9.072955068867573705e-03,8.487375141622462149e-03,9.951808817091380155e-03,9.124249196630645001e-03,7.487866223930301525e-03,1.072595904295068139e-02,1.072497423898487005e-02
