-1.214813605836229243e-01,-2.053488712070127703e-03,-1.322197672013028123e-03,3.943925785825492386e-03,2.661043728379416766e-03,6.003444803451605085e-05,1.202209489323209646e-03,8.691238973362436877e-04,2.509707826945921372e-03,4.531898203749265748e-04,1.201044601738657453e-03,-8.560102032944218089e-04,2.385144383602878261e-03,1.253568740626674399e-03,3.753590076451527625e-03,1.664006183887103074e-04,2.467141144443871312e-03,-1.273992367635711420e-03,-1.770243999441948376e-03,-1.666415056907925938e-03,-1.563109283489042380e-03,-1.728893486465372551e-03,2.708507367888875477e-04,-3.133065582793139034e-04,6.928504601962775242e-04,4.813656965194340717e-04,2.030215605813279894e-03,2.572283522348377087e-03,-1.935342260398105745e-04,-2.387530973732702663e-03,-3.479781686010309689e-03,1.853950312929153119e-03,2.634691932925532169e-03,2.414306642049727798e-03,1.294744572653385665e-03,3.901779997897980145e-03,7.234374343918357131e-04,2.457582609612052500e-03,1.988304700736572646e-04,-2.525148928316523975e-03,-2.557833146430661241e-03,2.598181885036630976e-03,1.633570684860283706e-03,3.864861584694108485e-03,2.181676111102767192e-03,5.149713469782919370e-03,5.583566983685618514e-06,8.962568669142485637e-05,1.758237776246418006e-03,3.313440957688128198e-04,-8.242987912387928027e-04,7.971233800783729135e-04,2.514077344019399318e-03,3.218982927474170821e-03,5.098209183589360108e-03,3.947956129207310511e-03,3.858773812567511778e-03,5.774991245473164517e-04,-5.072610944081948651e-04,-2.211659161730083253e-03,-4.003376063288472016e-03,4.711994688135963741e-03,1.989707103493755513e-03,2.417261635774681575e-03,3.777816060054554892e-03,5.712033058967146961e-04,4.818363280090243736e-04,7.234121901635876678e-04,-1.451088836024378966e-03,-2.223429592740150222e-03,-3.670564931045451097e-03,2.618919341039920197e-03,3.380740944422776662e-03,4.307452316779128779e-03,4.672068973359353762e-03,4.671904273332810539e-03,1.168666565316921375e-03,1.838768130849798618e-03,-1.052759467911528650e-03,-1.566210753018589495e-03,-3.166863336504216649e-03,7.810302844391854701e-05,2.697671669506642410e-03,4.942493602684640969e-03,5.497543550921701189e-03,4.837107881990381116e-03,2.549220822763459404e-03,1.061112447078178637e-03,5.346507269659401488e-05,3.456760115761988231e-04,-3.307320983522257004e-03,1.454143385824781167e-03,3.978015575908802094e-03,1.758324276951711475e-03,3.642166883139658692e-03,4.369303161280012511e-03,4.936270378763387388e-03,4.283028321962926294e-03,-4.460491401166643763e-04,1.965921682630409045e-03,-1.932714338060648575e-03,6.434911816629535451e-03,-3.036688815516432743e-02,-8.889088299960595796e-02,-6.711724805625536583e-02,-6.351387536427642588e-02,-3.502147547709359710e-02,-2.953108980344708919e-03,-2.041220504314270046e-02,-3.905958380942258640e-02,-3.603665032153473280e-02,-2.274541906537707811e-02,-7.274051965306002621e-02,-3.253188191255045741e-02,-1.270053464965617378e-02,-3.081554346103004133e-02,-1.400013471933723129e-02,1.898872899831965250e-02,5.567646018324461793e-02,7.267041854027944670e-02,7.038230220118371627e-02,-3.112805668604326156e-02,-5.994758394753051112e-02,-4.978053584651555979e-02,-5.428023919632909977e-02,-6.787020228495638241e-02,-4.525610176632580139e-02,-2.033467533352855544e-02,1.638760583894007666e-02,8.131913702700019342e-02,1.038264736896769014e-01,-3.762807591694524584e-02,-7.461005596436336151e-02,-5.734944039455861647e-02,-7.503904668483001028e-02,-7.025631656678109349e-02,-3.835395769936931348e-02,-1.024020643314100046e-02,2.525397413079399217e-02,1.019427511898176320e-01,1.502941139918247404e-01,-4.926163392625614035e-02,-6.734959689133994398e-02,-5.153627508185237155e-02,-7.483327638815341631e-02,-6.389281229007041929e-02,-2.253520926922006687e-02,1.347048970022521287e-03,3.437098062822646627e-02,1.114729107139634384e-01,1.749582914817047197e-01,-8.087786967159302232e-02,-5.617689151934762010e-02,-4.167408275027442710e-02,-6.992058962692006274e-02,-5.765906529941348252e-02,-2.134134997121369531e-02,-1.645616843272563459e-03,3.318043372649659428e-02,1.057652125238286861e-01,1.668636855996936119e-01,-1.042504462102315232e-01,-4.950886592190108237e-02,-3.177402783536362879e-02,-5.843670065128829527e-02,-5.029701734338103136e-02,-2.201757366113097497e-02,-2.239752220732514100e-03,3.516013937851335952e-02,1.003978171033524658e-01,1.515166762209302631e-01,-1.281853852373326663e-01,-4.761560446422550413e-02,-2.483883414589328764e-02,-4.853576656533754169e-02,-3.811520549303262784e-02,-1.262509341224805383e-02,1.061219864401420285e-02,4.119742757654856063e-02,9.600301426928782578e-02,1.403733009392179321e-01,-1.454632885321874569e-01,-8.000007443371066895e-02,-4.169260543045853751e-02,-5.622106669495428172e-02,-3.753583294407008414e-02,-5.333478894659030023e-03,1.949393349624643779e-02,4.522810469467020145e-02,9.374500560416375305e-02,1.297076236114227399e-01,-1.543857323025323858e-01,-1.244294615784002633e-01,-1.036195618853055639e-01,-1.266100744982193438e-01,-1.191373209862063576e-01,-8.752885775524846257e-02,-4.796610908541405066e-02,1.285323232396573881e-03,6.728875256676589145e-02,1.058538045243086062e-01,8.400798697969702120e-03,7.915805126378577458e-03,7.502570389816646049e-03,8.288619451719578951e-03,6.456086691354211496e-03,9.453569790605569068e-03,6.670397540926408485e-03,4.915446105454204795e-03,6.211332537439479169e-03,4.920617465697594596e-03,8.061708099950068082e-03,8.769731401321485820e-03,1.009510183287441569e-02,5.575487753425817025e-03,8.430184165080704603e-03,5.211528711911741357e-03,1.021967154338899314e-02,7.177246980263249018e-03,9.428267208879931305e-03,6.072028451125471328e-03,8.515038191963014008e-03,5.640098092083691873e-03,7.099307842437264926e-03,7.971832313605859907e-03,8.900796093429494057e-03,6.049950480735370902e-03,6.889770090266369822e-03,6.572554393272080249e-03,7.912507730105908937e-03,6.557981443103334460e-03,5.055640113987027416e-03,6.685545671217644169e-03,5.618722762726879524e-03,9.066049696101663793e-03,4.957479217920595510e-03,6.990937421457166928e-03,9.752960357243756900e-03,8.733034268766395186e-03,6.280020765287000310e-03,8.597682583554078911e-03,6.907868359923310941e-03,5.279114400565137165e-03,9.190894163097958550e-03,4.911160710915261039e-03,8.623239918456485770e-03,8.191987830592311476e-03,9.703308717086675528e-03,8.210459445139652382e-03,9.734861509422076606e-03,7.403055769909107353e-03,8.521767098942535992e-03,9.617018405679553933e-03,9.150363474173091316e-03,9.440141729700188278e-03,9.046588083472889563e-03,8.007206778806829142e-03,9.859530199772660250e-03,9.620963288425415233e-03,9.720672370303249515e-03,7.301463050562836260e-03,7.424236520650917201e-03,5.438645283367312885e-03,7.511208028073383149e-03,5.896375707106485051e-03,7.641151908989260270e-03,7.057445479811099570e-03,6.323835701709085676e-03,8.331430198620693589e-03,8.775381301576980903e-03,8.774636619247749153e-03,6.508935611380067647e-03,9.682149012637667959e-03,8.007904320857512151e-03,9.041321866671636967e-03,7.836737243697534244e-03,5.519792955942589771e-03,8.453827007993179599e-03,8.100982842059100894e-03,9.538586798217412246e-03,8.224070249046531653e-03,7.606836236800564033e-03,8.365491466662241041e-03,9.112161144711802135e-03,7.371162899938094211e-03,8.668842281196515245e-03,5.186247857307646481e-03,5.319913527024590534e-03,9.357352239770839672e-03,7.319082365938001447e-03,6.588160857246725018e-03,8.302733592395424023e-03,6.776923129759394870e-03,5.170899354628159805e-03,8.535066915446962166e-03,7.378840015407398673e-03,7.055744645753247828e-03,5.527349565439218862e-03,6.887326163899773132e-03,8.277991727392184848e-03,7.700243872851004860e-03,1.078809382329782218e-03,-1.667678055610766555e-03,-7.479182999747832714e-04,2.896755403957624610e-04,1.852964970007242194e-03,1.626831613862657995e-03,1.703761886348072662e-03,-1.155799759631071909e-04,1.199287258757541922e-03,-2.364393397188161382e-04,-4.247805028711185344e-04,-1.681068879818921682e-03,-3.029036105518196427e-04,1.248183692826871976e-03,1.146945913507945196e-03,1.586797979697847838e-03,-8.255721067939869595e-04,1.853671838836451783e-03,4.972385415546950755e-04,6.365554700706033391e-04,1.977363745668087817e-03,-1.025576782737852447e-03,1.853915135592408862e-03,-1.893342593494389383e-05,-1.585344625135138132e-05,2.270282197959172261e-03,6.286636034952646206e-04,1.844763005621157968e-03,-4.245776797518917484e-04,-2.086386274068060750e-03,-1.028793832933075228e-03,-1.042900690718804669e-03,-9.134224725140295282e-06,-2.075167395626278423e-03,-1.028475836618858658e-03,5.625460066915998879e-04,3.587904519735050078e-04,-7.835526561195593678e-04,-6.503621132114914289e-06,-4.250281488336208669e-04,-2.214380523112098945e-03,-1.741785567945162289e-03,-9.312797423005896198e-05,7.521826459313809762e-04,7.945678193378457634e-04,1.543835246626172738e-03,7.456681381483412944e-05,2.198699191908196830e-04,-1.556048556371504186e-03,-6.957513449720876663e-04,1.181911749960154858e-03,-2.087421276584873822e-03,1.320288055002862048e-03,-1.526420578386422861e-03,3.576447682628881007e-04,-9.114801128431580975e-05,-5.891206890865370149e-04,5.755244983697133370e-04,-7.150032163034296742e-04,9.133436946051100291e-04,2.055622842167222140e-04,-1.756919494404483514e-03,3.753221081246802524e-04,1.756034584627654297e-03,1.155187937934575070e-03,6.144522365071614350e-04,2.131539929763478450e-03,2.691714665257853036e-04,2.049233724029424978e-04,1.528817411184860272e-03,-1.783684490709994998e-03,2.062507462886432950e-04,-1.016032294826257421e-03,2.140916660062378105e-03,1.606635366784388589e-03,9.858096284288027367e-04,-8.154271408027395553e-04,1.046351977876085497e-03,1.159745764380624338e-03,-2.103225187866943589e-03,-2.164379379657591085e-03,1.318158450719242357e-03,-2.028593402748670761e-03,-1.531336998345101145e-03,-1.877941494223854708e-03,-1.815698668579071476e-04,2.004101070272077973e-03,2.031780624115778113e-03,-1.866905765160666898e-03,1.606283300336809909e-03,-1.653603149027044195e-03,-1.219389012477033489e-03,1.838056277533114567e-03,-1.847596241971344831e-03,1.701500421853560435e-03,-1.375146912774442886e-03,3.981266650305083127e-04,1.713063355014327526e-03,7.297332782951052640e-04,2.166360710401575660e-03,5.342273947184490810e-04,5.895345114596667845e-03,-1.004329503854689077e-04,-2.367678475574686199e-03,-7.767370694952534108e-04,-1.882863282373372759e-03,-6.562507416702201800e-04,-2.949716828745770156e-03,-3.619031605092318683e-03,-3.427500954082135769e-03,4.487124975010548314e-03,9.268286162619748109e-04,-7.497875437923113336e-05,-6.527188431072136494e-04,1.625187832249446818e-03,-1.391238779106265984e-03,-1.054898243246667460e-03,-3.972466586419628153e-03,-5.050471163824894576e-03,-3.732018388433538947e-03,8.810109821587461471e-04,-8.116458273860762632e-04,-3.062424185560844257e-03,2.762625673321742435e-03,1.318637510789685721e-05,-8.154881716550832233e-04,-2.969832067912068704e-03,-1.384293328548611042e-04,-3.988797736419969799e-03,-5.269581150626952495e-03,1.559705444728187425e-03,-5.268054676827370504e-03,-3.278051853261202287e-03,-3.156101866722956992e-03,-2.095593312570593302e-03,-3.281198418840245400e-03,-4.120162369467808040e-03,-3.498605761013208514e-04,-2.100139277363193176e-03,-2.788576115851111332e-03,-4.692806525851951280e-03,-2.241956124617087293e-03,-1.595321354903941110e-03,-5.381664590854269570e-03,-4.874837803537507286e-03,-3.022482789632530316e-03,-2.943430064619779931e-03,-4.995121841818389672e-04,-1.411099532471241872e-03,-3.272364501612914662e-03,-1.019221329190082154e-03,-1.468948885907654395e-03,-4.045450120258952884e-03,-1.560555787160105906e-03,-1.701620063032128170e-03,-2.752127041484633482e-03,-6.290545309927787244e-03,-4.313198833270307647e-03,-5.618882532934487729e-03,-2.443666152177052363e-03,3.728523216854026136e-04,-3.139441011893612590e-03,-1.020180893436994181e-03,-5.183923879684940346e-03,-4.090125266455717744e-03,-6.932895395360459331e-03,-4.652178047548125896e-03,-4.026162915005743713e-03,-1.876554196635688964e-03,-2.459495581761333028e-03,-3.250694075483670682e-03,-2.732331211978640106e-03,1.177791143892131798e-03,-2.257448117810776766e-03,-2.334495579722439991e-03,-1.884106541577051409e-03,-2.611100511522361674e-03,-3.239777694668100495e-03,4.329063537362103455e-04,-4.005942589290956059e-04,-1.222706872381940178e-03,5.803160770559822462e-04,1.969845698927645268e-04,4.897413827406463856e-04,1.537198871079453397e-03,2.446128956348185210e-03,6.515743249162105066e-04,1.357868456970664573e-04,2.364925653534023266e-03,-7.492296080327594688e-04,-3.104805951482647423e-03,-4.668954715257042729e-04,5.818315990727319746e-03,1.040811414678601693e-02,1.122913199182701965e-02,5.396681637679523295e-03,8.309735023736204360e-03,4.872494137150159936e-03,4.235388762566541683e-03,5.015952930242393269e-03,1.507175945633248493e-03,-1.511232224604091125e-03,-2.401109923689043126e-04,1.160825751773648853e-03,5.903985711484843095e-04,3.735250959104258542e-04,1.310134504617338925e-03,5.209628179892493915e-04,-2.535151035389291677e-04,8.512080245814033184e-04,1.893099130382818341e-03,2.609401613802861744e-03,2.126276286875508452e-03,9.602833285147154658e-04,4.267745767670708124e-03,1.506545033112992142e-03,4.905928830245115651e-04,-1.531089974384359674e-03,2.511674195391197018e-04,-5.014192698831209695e-04,-1.672740720573753911e-03,2.520342618488211235e-03,1.921402104058196961e-03,2.297972030325624079e-03,1.745334652224557210e-03,4.384839550363040916e-04,1.496731387717846332e-04,9.102190965398519393e-04,2.543302032280969887e-03,2.597450430939272827e-03,1.494263557673777398e-03,8.449838575769366526e-04,5.931251598381192917e-03,2.210076713441650863e-03,2.355601143281915548e-03,5.343962494473331916e-03,5.047744398614230008e-03,2.037323830147169928e-03,3.751360101136652463e-03,9.537743038143019561e-04,-2.660982680546351690e-04,4.720276569382372660e-03,1.598381633909667227e-03,4.615247777690098356e-03,4.384521234159839687e-03,1.251053741145256512e-03,9.355927498920565012e-04,1.495882447642826697e-03,3.056338071811211515e-03,-9.369675681599241943e-04,2.814113662777791014e-03,4.561478751330940058e-03,5.385749010977458964e-03,4.809606655926302980e-03,4.886728810261955526e-03,3.076943662006940972e-03,5.842374866469241847e-03,1.724205692941859847e-03,1.285760246287918169e-03,-9.059061051520350791e-05,2.922287691395992408e-04,1.223245612598456095e-03,2.849834658349566577e-03,2.546991767700076438e-03,5.146597486623826455e-03,4.667315831665195917e-03,6.094311464644564837e-03,1.604496081596492978e-03,2.470089731812777877e-03,1.963168241969467410e-03,1.303858908504657325e-03,7.060241462095316525e-04,6.224062830439144357e-03,2.981543150036443032e-03,5.661677755095549831e-03,5.868258917773931833e-03,5.402321268703522833e-03,3.192257456064700322e-03,1.539655556952232560e-04,2.381722548089124179e-03,2.454320878852172313e-03,1.253554094676376154e-03,3.227906554726607102e-03,5.947153664785919183e-03,3.061682491768107604e-03,2.662471545660404035e-03,4.947276278532825727e-03,6.790235548673496111e-04,4.661289743389582414e-03,3.152589488172096409e-03,3.624528871508379043e-03,9.846378863874742822e-04,4.271114738232306349e-03,5.662942902057941166e-03,6.379474732856785235e-03,3.079432013450615190e-03,3.228851443816310989e-03,4.511432883206418706e-03,1.597901400817617690e-03,1.521327374549399144e-03,5.051469353914002543e-03,-3.839571607717078006e-02,-6.647525723596012237e-02,3.689517414344653523e-02,9.847234420938263955e-02,1.264617479219692642e-01,1.380950495701012415e-01,9.574608690513529419e-02,8.026215618046783629e-02,8.396516653389628215e-02,-1.822419354873934527e-02,-5.360838919982887328e-03,8.424629668669859905e-02,9.528419881086859500e-02,6.612683017194258273e-02,5.637064429011365979e-02,7.038548652074938516e-02,7.018444768092670094e-02,8.035007740324899561e-02,9.504465728966969562e-02,-1.278953987330081398e-03,5.528423350488509413e-02,3.011289469569428806e-02,-1.570611426496159105e-02,-4.320627476544702805e-02,-4.871808973109174878e-02,-4.941639357295554702e-02,-4.071346985937072255e-02,-1.009526973946939764e-02,2.271394407424915177e-02,6.414707502315149246e-02,3.715411788060076631e-02,-3.491517414883425763e-02,-8.953645342386454264e-02,-9.351902443910663221e-02,-8.181827677558710377e-02,-7.142640738982394821e-02,-6.214816293662520780e-02,-2.918800935855716053e-02,1.853721042393834811e-02,1.059626596086934991e-01,5.147400317790374463e-02,-1.876263721313436300e-02,-8.231282602428520445e-02,-8.983857731426254933e-02,-6.799996463590647633e-02,-5.801476532194186492e-02,-5.519671082556611152e-02,-2.633261152600443675e-02,2.356435643714357292e-02,1.026257053453371593e-01,8.804866965568856896e-02,3.049623417236928258e-02,-3.690869465382025372e-02,-5.058826046050167446e-02,-4.427949062790077772e-02,-3.892192888896758157e-02,-3.744577561495734952e-02,-1.484577406328592419e-02,3.197922195247208249e-02,8.191209849070642257e-02,1.077845224038777028e-01,5.985018165696803782e-02,-9.917421301104515502e-03,-2.418545150186373824e-02,-2.624280463653052772e-02,-1.674461588250800506e-02,-2.210597552314838565e-02,4.866363972688400596e-03,3.274703929141554309e-02,5.160708182315793674e-02,1.090605460949537475e-01,7.223190495296044622e-02,4.967979879102496499e-03,-8.760925112596998701e-03,-9.229979867639619140e-03,-3.264877127978555501e-04,-2.982703576940217132e-03,1.903657957965655678e-02,3.209625217719822010e-02,2.136921150512249845e-02,7.538916866556567842e-02,4.006963374365692110e-02,-1.550456182908188825e-02,-1.575283309796803033e-02,-8.356077599653576743e-03,3.392088747086960572e-03,4.230053590175678405e-03,1.986505806935546375e-02,2.374217484874127301e-02,2.400804484532238856e-03,2.488958761666896363e-02,-3.352672997123436888e-02,-9.525180273786938712e-02,-1.031996116269607994e-01,-8.332518093545795979e-02,-4.813433959512029847e-02,-2.672671197739571666e-02,2.315821254512103258e-04,3.144439128968371314e-03,5.409071695403734267e-03,5.268405449009807076e-03,6.088854089929365485e-03,4.613186190883226782e-03,6.493662653577812402e-03,9.575287450593297084e-03,7.009058175769039382e-03,5.831434180729769615e-03,6.815270241581045108e-03,6.486233562691164599e-03,6.236876804620147124e-03,7.813181731041030434e-03,5.385004704887731176e-03,7.568966766892634354e-03,9.245111018178434753e-03,8.012605188564034947e-03,6.575063915874508093e-03,8.723589580162671719e-03,5.131659123311673593e-03,6.458566408744727955e-03,5.912893005417009518e-03,8.857354454257082912e-03,5.140810556271551389e-03,7.069596760999892482e-03,9.115326828194594486e-03,4.828825329028826017e-03,5.322579921926621008e-03,7.317959621407028013e-03,8.456462890051971021e-03,5.453257967424196724e-03,9.637690155114486332e-03,7.219415941987109703e-03,5.393031787030993715e-03,4.362354143759402531e-03,4.817393815310249544e-03,5.920176328687379481e-03,5.000668156569357953e-03,6.736951566204101537e-03,5.045820888795848891e-03,6.090337993702599727e-03,6.303778117410164389e-03,8.197741794609249635e-03,8.730138938953167088e-03,5.993228932642960007e-03,5.155473002721840808e-03,4.872405638159467769e-03,5.331071081406952954e-03,6.314720220963015475e-03,6.602337961003413788e-03,5.207172723380265773e-03,9.045556998035771817e-03,5.901028581821420906e-03,7.908500559186373152e-03,7.079608096252125449e-03,7.599405689543775426e-03,8.652465222820732160e-03,5.912785928263965089e-03,6.259086793056819510e-03,8.612206141148106078e-03,9.071005491638578846e-03,1.015291209419542061e-02,9.121215963845869662e-03,6.048560980339873216e-03,5.403295583287173569e-03,4.847007491860881416e-03,9.221645966951578371e-03,6.422008476277844304e-03,7.544595523547399304e-03,6.280598156489162857e-03,8.409195791494688751e-03,5.536011901025196698e-03,7.097981752386857413e-03,8.230551460903191494e-03,8.112841047058120397e-03,5.072773276438582134e-03,7.457705375585597582e-03,6.647007688738619871e-03,6.333185407754047397e-03,9.454268738156664312e-03,6.046317869330774739e-03,6.619636871401940979e-03,4.995951157714280215e-03,9.447130002268813373e-03,6.831891562079426931e-03,8.746964970053554278e-03,8.108681769644316556e-03,8.136039223442683918e-03,8.123125489638895538e-03,4.761089007871665592e-03,6.393526219609774013e-03,6.979102107703590886e-03,8.638294590454363708e-03,6.770311209892328555e-03,7.489662562257194157e-03,4.741403779345970508e-03,3.783036653678380559e-03,6.836112633230869741e-03,7.705467437225567949e-03,7.158541503139778141e-03,7.103466965477890464e-03,1.519946425024931149e-03,-1.324933170144247359e-03,6.553092197745149627e-04,-9.320078985300360701e-04,7.320756861642309030e-04,-1.387367762819427227e-03,-1.880656751537529772e-03,-1.038050057641695884e-03,-2.196457008877212083e-03,-1.397228724850497041e-03,-1.842124645434476370e-03,-1.825203846609345197e-03,1.764992862469197355e-03,4.506022413540021389e-04,1.759566196511384807e-03,-7.996998801867124303e-04,4.881707809149201955e-04,8.420238052692361787e-04,-2.217791683268958980e-03,-2.877272786415460801e-04,2.327710739648537926e-03,2.280960685402532318e-03,2.245830466128201450e-03,-1.631305485579243909e-03,-1.462165652081389290e-04,1.205275949424931695e-03,-2.019762594214953751e-03,-2.555986273501876203e-03,1.101703387025323349e-03,3.209317107894450369e-04,1.123091491066425694e-03,7.836580108516164912e-04,2.062213641117712003e-04,-1.878637832355198496e-03,2.050706030103691038e-03,-1.070730100895202338e-03,-6.629085129028424068e-05,1.269921214571629155e-03,5.262163637791180803e-04,-1.632074820625635005e-03,9.041996299201165641e-04,-6.212028644222373011e-04,-4.775847237061645761e-04,9.697708268214410730e-05,1.559457706508360483e-03,1.833588921845353019e-03,-1.092224003872791340e-03,1.428546648734456284e-03,-8.115195626177196860e-04,1.944272483066240799e-03,-1.997688842185292926e-03,-1.135248238949278276e-03,-8.483593557637139800e-04,-2.449346778652072322e-03,5.872974365255824707e-04,-1.045019636775896665e-04,-2.125330415303539641e-04,1.421729042046031852e-03,-4.293896116199800495e-04,-1.929491189010999752e-03,7.170586494397999163e-04,-2.392527870298295431e-03,8.827668555564790673e-04,1.602611415143631373e-03,-2.277568861557578532e-03,-9.325932729931727793e-04,-1.138512971166696268e-03,-2.310852957772824116e-03,7.352738789375692571e-04,2.346465853965042504e-04,8.546079880998023494e-04,7.828869590200356922e-04,-7.464305218228240672e-04,-1.214539895072715104e-03,-9.669056156942693308e-04,-8.745891058456664851e-04,1.763145847321162486e-03,-1.547001792656561804e-03,-1.632237845126710725e-03,2.183963376473431559e-03,1.422126697510942570e-03,-1.290268842147145436e-03,-5.435799149157904617e-04,-5.010860698984732735e-04,-1.099782966435237279e-03,2.187735856041866304e-04,-6.159270366898053281e-04,-1.993299947050768128e-03,-2.452716814307164851e-03,9.322162891922338877e-05,9.478305126028874206e-04,-6.983161560257286193e-04,-1.605764071880315261e-03,2.197115807952977010e-03,-6.258761280065168811e-04,2.247408939415838631e-04,3.170756756368519084e-05,1.119874432491690551e-03,-2.663029179439842242e-03,2.122403326457195181e-03,1.648163936278853291e-03,5.160140052532008817e-03,2.182534941345738635e-03,-2.553689624651672881e-03,-7.366302822687258080e-04,-2.848958542793514955e-03,6.791454372180181142e-04,1.044787665575238949e-03,1.495224027822036634e-03,2.506429975820366907e-03,5.135661802148386475e-03,-1.310880472951393271e-03,-1.352524995304846267e-03,2.121008218623654518e-03,5.705821464428969050e-03,1.168366172611203652e-03,-1.244375911971228065e-04,4.838771170494931932e-03,1.877093372423408986e-03,1.574953542670692050e-03,7.196036140749621866e-04,-1.908390119573725313e-03,-1.991576103212435670e-03,2.286247683303715625e-03,2.133239342593624792e-03,-9.251207327614685604e-04,7.114670722734251157e-04,5.402036638139853277e-03,1.773673428353510564e-03,6.729173159266134104e-04,-8.434367750440113169e-04,-8.747677032930389679e-04,1.914966216546001767e-03,-3.852170371440396699e-04,-1.019855235951463079e-03,-1.809907338671183684e-03,-1.212797691312428956e-05,2.764930519632269584e-03,4.292568054265839296e-03,1.229941744059965137e-03,-2.742890907262519017e-03,-2.405428434638505562e-03,-1.554505741333817113e-03,-5.544359048067871521e-04,-1.382980529647302378e-03,-2.376026992720972099e-03,-1.665275981023459214e-03,2.952408650495106247e-03,1.568054106784572219e-03,2.825795340517672088e-03,-6.906891400371354198e-03,-3.984563169055427637e-03,-1.773066750016675294e-03,5.150747815355771623e-06,-2.992085585155318962e-03,-7.432388833917274052e-04,-2.124294440806881110e-03,2.828468745226241608e-03,4.539589351859303103e-03,3.909668396596772608e-03,-3.148477085726012013e-03,-3.216345361402086003e-03,-6.365692784361903604e-04,-8.001270869480771883e-05,-2.247985487983456248e-03,4.391817505906000585e-04,1.504702155925219473e-03,1.200485331505401088e-03,3.872774023276886329e-03,2.598090217420871186e-03,-3.142359875714881203e-03,-1.959010321044962494e-03,1.160090826011265152e-03,2.997756609190607539e-03,2.660405201818792382e-03,1.841118848817641920e-03,2.538823041129637838e-03,4.378649646133261561e-03,2.058136773940196992e-03,4.892369866632923121e-03,-3.405172516127872792e-03,2.198337497498368317e-03,3.508772367757955011e-03,5.289712685107895995e-03,2.607823535064402072e-03,5.204351550968921818e-03,4.418000757788054580e-03,2.560200541895613774e-03,5.050944551535435298e-03,2.923985430894075668e-03,-5.591919792460217989e-03,2.286450063615412184e-03,5.289311819886844714e-03,6.919246753669875197e-03,7.856029438748936972e-03,6.163148210467619265e-03,4.149504027048203127e-03,8.043574512601001092e-03,7.323943177429028360e-03,6.155473236219004274e-03,3.140830276223222843e-04,-1.368752109040954641e-03,1.562271206074183872e-04,3.681901504136041517e-03,4.664918796688473542e-03,4.027799194262535187e-03,1.864710800752685839e-03,2.489977921073277967e-03,5.053404391296442352e-03,2.431257295689549271e-03,2.521899856754804877e-03,2.800639046974816131e-03,4.252441819254244339e-03,7.906277629403898107e-04,7.424345263128400308e-04,1.232795607627164584e-03,3.270248101801775248e-03,6.075256134036115772e-04,1.019372275677507864e-04,2.134582441372959768e-03,-7.860925632964413465e-05,3.115728310050767946e-03,2.417373882179353010e-03,5.123087551757816646e-03,2.103849852300400912e-03,2.972108363330669151e-03,1.108015223348678482e-04,-9.331094540946693102e-04,7.308471227394531134e-04,1.193309843942935537e-03,1.031653161659546207e-03,4.239214063047608630e-03,3.381808455224186508e-03,3.726868112348423034e-03,1.699352023373406836e-03,7.082735273178388490e-04,3.386991641635494089e-03,9.459583942396072127e-04,-1.303489665688808453e-03,2.025444711155848562e-03,2.909067609621056316e-03,2.735821286240178521e-03,4.003565663126315739e-03,3.599502904798264607e-03,3.025847508224517070e-03,3.398036327376481938e-03,1.673434494423169409e-03,3.465704525597216798e-03,3.193463483834591866e-03,1.272145565490737269e-03,1.101995000846945055e-03,6.067009456055627126e-05,3.412788946760332391e-03,3.978323030103344052e-03,5.085626702980233262e-03,2.362413625696493588e-03,4.116903839825344566e-03,3.779502259872584511e-03,9.264563053533704995e-04,-1.261304423410146121e-03,3.334660541593457181e-04,3.346882354109042244e-03,6.001642408957096227e-03,3.254905934087289066e-03,4.157031567054568499e-03,2.073790862817168242e-03,1.379003929871613042e-03,6.030648728581507190e-04,-5.117799416776625985e-05,-2.105976362439413840e-03,2.879748482730592161e-03,4.005223001107065424e-03,5.792364956599309680e-03,6.608621656770024069e-03,2.275732774037890135e-03,1.437453099527973965e-03,4.374085928064806207e-03,2.071910650175380272e-03,-1.951988934164407058e-04,2.165243233551565529e-03,3.339104933949801467e-03,2.486976371710588642e-03,2.648881512237972156e-03,2.040538129348293088e-03,4.626433293867239678e-03,5.016336685935735007e-03,1.410495566062723713e-03,2.883595625953761128e-03,3.012185967365043661e-03,6.769173404206797881e-04,-4.789885134615808862e-04,2.517214726197761036e-03,6.236637924207231315e-03,6.773975548356670623e-03,3.120761749906661615e-03,4.744404571366515541e-03,5.379070501057050570e-03,4.258255745120426150e-03,2.854696900863296170e-03,-3.059879645382420515e-04,6.257581496606451181e-03,-3.211482010150181615e-02,-1.387375616900805297e-01,-1.695349503058742047e-01,-1.448627000976157597e-01,-8.477376008865700197e-02,-5.001010439088327680e-02,-1.017649759216112393e-01,-1.345002060920550135e-01,-1.401133542258180265e-01,-9.681104369397846784e-03,-5.711302659630530798e-02,-1.940858878151745584e-02,1.328148227598514863e-02,4.256058285717333189e-02,1.049643320053564033e-01,1.640321555939750764e-01,1.633286426206729536e-01,1.241180748084991514e-01,1.106912840356777394e-01,2.072602729422785145e-02,-4.216280040870966535e-03,-3.926286596298685788e-02,-4.210701582650048375e-02,-1.421094502860394647e-02,3.225030791762692473e-02,7.950734826775705810e-02,7.656310671061136719e-02,7.327415096339114087e-02,8.230766670493126769e-02,4.755179357093506504e-02,-1.838986978594637015e-02,-7.840756197789076898e-02,-1.028487828434647561e-01,-7.864402132275379043e-02,-3.207399916204608376e-02,1.293768033518674990e-02,1.256222821183998473e-02,2.173580704100351590e-02,4.282930286563320366e-02,5.856177635272644122e-02,-5.920178591258941012e-03,-5.850141178242740381e-02,-9.651052769311552204e-02,-8.262610426287363141e-02,-5.401642564297142596e-02,-2.937035059436779796e-02,-3.358248624158899354e-02,-1.655039663986781345e-02,7.499102496020916726e-03,3.004658649742233262e-02,2.910721982171534869e-02,-7.153426628549808611e-04,-4.204743339468113017e-02,-4.601734708155849618e-02,-4.552689250742710664e-02,-4.280588059819608743e-02,-5.237195631500368015e-02,-3.874220411861463431e-02,-1.133217180129401577e-02,1.087314324562226736e-02,4.539644811103441674e-02,1.640422119922637506e-02,-2.546661265833680826e-02,-3.875519350626957515e-02,-4.867545886083193135e-02,-5.360355606372944198e-02,-6.251512663176127249e-02,-5.487262603808146927e-02,-2.988122221908609544e-02,-1.779285873180293590e-02,4.819406001145030982e-02,3.074987474399538262e-02,-1.370367851652752600e-02,-2.606314323291809149e-02,-4.354423464458879317e-02,-5.239948677915545056e-02,-5.890508844444476699e-02,-5.490717554825836483e-02,-3.463069020374763551e-02,-4.640929572296759176e-02,1.508452239285962282e-02,1.506568051966280901e-02,-2.238669594420661380e-02,-1.916060899673617535e-02,-2.701729205263095346e-02,-2.869086201818582885e-02,-3.156521292801706124e-02,-2.064531920177494276e-02,-7.655615574407561609e-03,-6.696924332787598799e-02,-4.597013438956310677e-02,-6.169113345536852977e-02,-8.658971589902088317e-02,-5.973897404701761227e-02,-3.691450610864050602e-02,-5.819340285139526676e-03,1.473906500241312957e-02,3.945610153434406936e-02,4.500624869144956991e-02,9.051843248761123201e-03,5.003927131276749915e-03,5.434828929175356503e-03,3.493669270855035043e-03,8.045842345223140971e-03,4.230972795463992797e-03,7.380958919028339504e-03,8.171473273131644316e-03,5.323433853428772775e-03,6.831982621547805744e-03,4.139029031066870229e-03,6.882647240531127551e-03,7.881434708263367755e-03,4.904104121878939508e-03,5.504513569506577254e-03,8.043142118695507936e-03,6.828674033326088272e-03,7.070718876817142472e-03,8.836332814585842049e-03,8.215974795566611741e-03,7.978122896701671934e-03,5.517629287467159041e-03,6.720065769198553703e-03,5.763480272228881443e-03,8.593823357804879909e-03,4.883631686749529896e-03,8.624911385159673982e-03,6.760852644461003147e-03,4.477429887606952132e-03,6.537273985646447835e-03,8.959976458369342187e-03,7.413712480513537199e-03,5.412434131325344518e-03,6.124546999072274372e-03,4.199169176343688775e-03,4.118486866674832790e-03,4.790258054735617443e-03,7.604889072826647584e-03,8.778809359150430147e-03,8.736796919074155121e-03,6.574733706509092689e-03,9.111281913989893039e-03,8.562456222173601972e-03,8.092200723949812338e-03,5.453470425087343990e-03,5.374397919933485666e-03,7.514732739885092959e-03,6.146465639986111243e-03,6.976613932874855054e-03,4.999013945053583201e-03,1.015969080643103380e-02,5.878430097311181275e-03,5.828488195493072843e-03,4.015723830245466683e-03,8.782281172008261222e-03,6.459348793173075136e-03,6.976949490839798144e-03,5.500462218172142911e-03,7.317937799719528499e-03,4.529083343050340459e-03,6.006798394066363567e-03,5.183075980958617816e-03,7.116880540068812495e-03,7.033943866065170067e-03,5.512773649904792635e-03,6.952265206532772662e-03,6.557268107776922580e-03,8.629208075456707913e-03,4.527462198944954587e-03,7.770367330572312825e-03,5.257814245739643455e-03,6.147007591409961273e-03,5.125190562400170659e-03,4.606565659216780954e-03,7.668249150492667185e-03,7.149782097356115716e-03,5.793184129163784536e-03,8.313201161374532758e-03,7.394464467952758906e-03,7.507926030619885803e-03,5.686133106269473589e-03,5.584102728476487108e-03,8.759977038873035388e-03,4.748935585013416318e-03,7.452847920523689683e-03,8.419015081286307725e-03,5.536852197655572558e-03,9.282395429608639170e-03,6.021129013226648140e-03,7.732667381419965416e-03,8.933791849723312500e-03,8.673901448952893445e-03,4.487184079403724879e-03,6.729012950392407495e-03,6.652980813567289237e-03,8.503124468626634819e-03,7.935915526618774612e-03,7.219422721963468688e-03,8.396718288653313989e-03,6.374784568302984192e-03,1.555600411150487436e-03,-2.095000196407029061e-04,-6.856927386724796358e-04,2.276533994887572788e-03,-1.224301366098937095e-03,4.464584014011884383e-04,1.471651667853067372e-03,1.680596555100679962e-03,-1.103484616492569946e-03,2.151038653495097961e-03,-1.328140078599331694e-04,-7.376879396729602110e-04,8.469529740178457534e-04,-1.763911882269899450e-03,-2.203104842720045656e-03,-1.051481905951405635e-03,3.557268833771742010e-04,-1.599314251378244076e-03,-8.115939183433310607e-04,1.737454171209879645e-03,1.641105100259371242e-03,-3.609863105693053424e-04,9.065567243686468643e-04,1.504290123869813636e-03,-1.238533640535667470e-04,-2.468760041865698807e-03,1.567651139085608899e-03,1.339118093428637367e-04,1.691731945353477711e-03,-1.919816794803576657e-03,7.786442291089130420e-04,-1.562874967380008901e-03,2.192460852144954234e-03,1.448412829445529454e-03,8.126268817871070858e-05,2.137697341575337060e-03,-2.630728198233443262e-03,5.882037716246682740e-04,3.109778175176772393e-04,-1.278556179253410212e-03,-9.596874323798750429e-04,-1.592168684758123393e-03,-9.950324380745610795e-04,1.898935186839633858e-03,2.258877487231189269e-03,-3.007813793280743960e-04,1.040623524918736801e-03,-1.815638307794274937e-03,-1.303584019565239612e-04,4.742377265305474949e-04,2.908808217784667068e-04,-2.003127210139845141e-03,1.661681858345830749e-03,3.643915796871025612e-04,-1.985744592617266248e-03,4.047393161479075378e-05,-6.542495924394516396e-04,3.680234821601125459e-04,-2.039426210958966874e-03,-1.057010040470960288e-03,-9.797348437717383601e-04,-2.406221188222231258e-03,-3.678494547812521617e-04,1.392519740077045919e-03,5.217013963101930617e-04,-7.728484749971815861e-04,-1.760126905932277858e-03,1.264408002284647366e-03,-2.132045224454221649e-03,4.639977099459306666e-04,-7.051149528190738154e-05,1.407926861311850500e-03,4.193634943609503589e-05,2.160330976058193273e-03,-1.207560760318015678e-03,1.449940519911215248e-03,-7.022952928418698098e-04,1.468095822624202471e-03,8.447412279651935786e-04,1.578540892673018425e-03,-9.291899897640113880e-04,6.788282944550402386e-04,-2.612353673059499178e-03,3.625699416262319883e-04,-2.628231805808648076e-03,1.887006941312509593e-03,2.029633633762758290e-03,1.489279640808516313e-03,1.240721441193657964e-03,-1.737074890954591264e-03,-2.603578363607851782e-03,1.353284839635644820e-03,7.488689357037494818e-04,9.506771799322466521e-04,-1.300085645378076154e-03,-1.240221600837385389e-03,1.246498552586370939e-03,1.181010274544821688e-03,1.299272091807466981e-03,6.851206590682910446e-04,-4.878690832024609671e-04,6.643773509577825635e-03,2.733106691198831581e-03,-1.451794335290460067e-03,-4.483830479908851438e-04,-2.359069239729594779e-03,-1.684786861620895257e-03,1.327581329164072830e-04,1.972216977645784800e-03,3.188613842449916549e-03,5.555899325591690321e-03,4.654916843230160113e-04,1.367866314481152191e-03,3.028477993366860462e-03,4.027216154183658157e-03,3.670458463902426596e-03,-3.135128890470302251e-04,1.078543288290347924e-03,2.140525868979180173e-03,-1.784729543217803674e-05,-2.644965905984873918e-03,9.429716370825234764e-04,2.908598101108793299e-03,4.130247571833918843e-03,1.692617528053575902e-03,2.079094801913629765e-03,2.366612346019987545e-03,3.845523521138614464e-03,3.261717752478014709e-03,3.238140650175857192e-03,-4.583565599364424685e-04,8.722753311084828010e-04,6.698279854808599030e-04,6.224852356574390793e-04,2.847505523270681300e-03,-1.458704646699046214e-03,1.678796669119901879e-04,1.532271287471138020e-03,3.011567683339870950e-03,2.225605222771238380e-03,-6.152852943688808841e-03,-3.193059467152889550e-03,-2.573253222393774684e-04,1.181341328577241835e-03,2.021457942604979255e-03,1.193125226519692501e-03,3.041902258744946883e-03,7.886825540389941214e-04,5.597282971942938107e-04,3.756163789767871623e-03,-4.252099422771607289e-03,9.033467004050961926e-04,1.114288835933095268e-03,2.284011098472689058e-03,-2.844022380696094960e-04,2.778068966844000551e-03,2.318564980076487370e-03,3.470790992283574825e-03,1.313562550748704127e-03,4.041064688844062873e-05,-3.220175834356441176e-03,-9.633608439725499333e-05,3.932715219095944334e-03,2.775534489803035444e-03,6.792829971350071785e-04,2.689251992983368849e-03,2.238508277243496120e-03,2.422165687975644330e-03,-2.450110561767771542e-04,1.302093471910530879e-03,-3.624889854377341507e-03,1.685397678325969767e-03,4.420993481542467157e-03,1.903534367324231707e-03,1.727493885200622739e-03,3.465640287991063589e-03,4.161849952754368906e-03,2.773459779693121952e-03,4.441529922137367817e-03,4.303223566792525358e-03,-1.891697794445429274e-03,6.678800399588322861e-04,5.148086179489832354e-03,6.521910844338996843e-03,5.919138517128703578e-03,3.034581105391710287e-03,5.308190784671531701e-03,3.085650009962984976e-03,3.470229516578792351e-04,5.056752333742082009e-03,-3.308304427880228403e-03,-7.445167654021421369e-05,1.683909211548822223e-03,6.937829953328917068e-03,4.563725544127833315e-03,3.944087418536324288e-03,1.467716417308241117e-03,1.674549804417193449e-03,2.312795389057941547e-03,5.440683417741736146e-03
-1.509036675196223642e-03,7.938497293094695303e-03,7.431956735547850038e-03,7.914484704465275453e-03,5.671852080743527980e-03,5.492661591182027188e-03,4.724022105186504068e-03,3.669256181844681754e-03,6.246178292162423394e-03,6.978685560144021541e-03,8.027676390021165620e-03,7.782605215618708383e-03,7.590484646921389494e-03,4.770366222747731560e-03,8.212402165629476003e-03,7.084812370076917255e-03,5.604784065960842498e-03,4.958083527890085225e-03,4.329361842331427151e-03,7.508135208471808375e-03,8.484869169444441903e-03,7.099206817124491600e-03,6.966457815573011587e-03,8.138476032787420739e-03,5.497448110406287676e-03,8.238124674767239794e-03,7.043740198256004219e-03,6.514385551132735944e-03,7.272731277749441663e-03,5.776030478161465857e-03,7.085769432456935288e-03,6.662759696045806798e-03,3.782323438461352924e-03,6.627633287783859205e-03,6.733285059760410474e-03,7.493803421238592888e-03,4.672799231656454486e-03,8.557310647550799704e-03,8.080738914433616138e-03,5.578736222113168941e-03,6.950962668606317646e-03,3.486695836292969496e-03,7.021861147305433377e-03,3.900460585385053056e-03,4.115561905643982769e-03,8.796596805805504196e-03,7.306445439278475527e-03,6.629015612864968231e-03,7.868265563148364033e-03,5.745915819966120053e-03,7.722647619354522548e-03,8.154389226596581511e-03,6.047385093454913686e-03,6.011312554400619589e-03,6.292092797885617816e-03,8.348160583309069752e-03,7.606720985505492291e-03,7.271050016693596414e-03,4.933425901830395914e-03,8.605549076435485209e-03,6.440402732085855932e-03,5.290214448761030620e-03,7.385663283925299714e-03,7.034803887490617517e-03,4.588688250596138947e-03,7.255597246556062807e-03,5.124816301926253884e-03,5.271217939150671210e-03,4.784065387311745715e-03,8.824947843396973440e-03,6.740788949422728098e-03,6.572675374633420685e-03,7.118353812021651315e-03,4.277215812196517516e-03,6.399841165887046150e-03,5.102022996356052678e-03,4.696599289625284779e-03,7.923995160691725201e-03,6.283498311868546821e-03,6.864409590617829952e-03,6.893164189552715773e-03,5.746712699510646630e-03,8.157228998173409254e-03,7.778911899794514404e-03,7.417198239897603365e-03,7.716856382803293640e-03,5.243613966203387530e-03,6.341505189372405663e-03,5.426683794219926658e-03,4.540639680247889227e-03,6.890899472635051565e-03,5.331192110655905668e-03,7.125695666949154357e-03,6.711991550122473234e-03,7.067537453332209049e-03,7.586481089431114377e-03,6.990008867375587832e-03,5.299153992698134655e-03,5.339661331550017362e-03,6.329020426829406326e-03,5.618943190704979961e-03,1.632589445166697864e-02,3.823977850784184007e-02,4.838068706104057398e-02,3.837919891320384219e-02,2.204180353556121907e-02,1.402304804697335726e-02,1.784559958254216053e-02,1.786027757627624626e-02,1.569685599820130201e-02,1.270508464986351907e-02,1.378818271022746490e-02,2.842181396593913140e-02,3.744707317155966664e-02,3.100765789400627276e-02,2.047960466488899303e-02,1.303152012032937450e-02,1.631861993127284999e-02,1.034161580138275721e-02,9.065121455697981723e-03,3.866956977762527579e-03,1.493297610704544080e-02,1.157008945698864873e-02,1.061329989673181345e-02,9.848019713925024524e-03,3.194501471194495946e-03,-1.711202503758249300e-03,-1.268879350034148252e-03,-6.234766955010574187e-03,-8.430889272093476661e-03,-1.347200206341002578e-02,2.558793995954150927e-03,-3.628626449378319525e-03,5.948025696653799765e-03,1.378177501045791840e-05,-3.377138473620338492e-04,-4.542101028682782489e-03,-3.297306783471016644e-03,-8.152061592869807444e-03,-1.275029600534948251e-02,-1.920128914080746971e-02,-3.298700779763915226e-03,-1.373988449913548290e-03,4.721700285851721315e-03,1.236125314349931746e-03,5.165069538270090389e-03,-8.045288379145967492e-04,-4.026872084817473274e-03,-1.024943318593343582e-02,-1.728621841930652603e-02,-1.870361247593433848e-02,-2.113989727961314291e-02,-1.469550469366342517e-02,-6.374234228866282152e-03,-7.301904629210921767e-03,-2.289368281171442424e-03,-2.375653720802599605e-03,-3.299018635693964398e-03,-1.179590561293199572e-02,-1.963529949754408421e-02,-2.285655118912597802e-02,-2.948590208082043848e-02,-2.632437402048573225e-02,-1.513139675510588068e-02,-1.631700413363806543e-02,-6.607769748273787866e-03,-4.860287246662710683e-03,-4.066530455499661051e-03,-1.162746499337637823e-02,-2.209756840546760887e-02,-2.786894543145107886e-02,-2.867593977455605569e-02,-2.641579057188827434e-02,-2.427900942942715773e-02,-2.556225261721679215e-02,-1.925767317083073790e-02,-1.255168438489229384e-02,-1.198487525436142676e-02,-2.201428056308909337e-02,-3.314792214596362641e-02,-3.557879638348479534e-02,-3.021931646281934489e-02,-2.922876838968142821e-02,-2.749694599787455215e-02,-3.022541758686051253e-02,-2.312386639533742932e-02,-2.208030136519296971e-02,-2.186486077021415619e-02,-2.837863883100292042e-02,-3.927939478408771362e-02,-4.355570556374127600e-02,-2.541329740182662195e-02,-2.998636254953618296e-02,-3.007964452593711244e-02,-3.275259537962253026e-02,-2.964884072558486225e-02,-3.177352717026163398e-02,-3.162747432528828506e-02,-3.785175333799173369e-02,-4.624746111026217105e-02,-4.391238955768223678e-02,7.671528953310600106e-03,9.808078851659799563e-03,1.042598443350866745e-02,6.212919312060732197e-03,9.475678542704547500e-03,9.706410858388882928e-03,7.183721142695967572e-03,9.375909113980175971e-03,6.826975055527183429e-03,5.597181673719045514e-03,6.518794759765898263e-03,8.617815727793664768e-03,9.112721825775728021e-03,1.009262637371454059e-02,9.992795542004877241e-03,7.811323625429538245e-03,6.547664310312743298e-03,5.872740890294722918e-03,5.062867068327177658e-03,7.596213185825663981e-03,6.923519072948018660e-03,5.029986389889282497e-03,8.250532605192855556e-03,7.796554672533883429e-03,7.615907738302039182e-03,7.081391925850345423e-03,6.101263435109760720e-03,5.067077630223975997e-03,8.160335514881135455e-03,6.511495003051541615e-03,6.521127638844353980e-03,7.379202372343503756e-03,5.921111309708749701e-03,6.942367941987372289e-03,6.570613750221884070e-03,4.832808447863466000e-03,9.250889216156929148e-03,6.593525352617996688e-03,8.596675859162560343e-03,9.421267618347639247e-03,9.619014816559894737e-03,5.719878899251347286e-03,7.309452882695180106e-03,6.650204846408360772e-03,6.448549815165183219e-03,7.321475657637361266e-03,8.902515054537388228e-03,9.464493517107113243e-03,5.193165906806859224e-03,9.468907106516497377e-03,5.268533886082732084e-03,9.641652985772160636e-03,4.966721417276809790e-03,7.922321133159396234e-03,9.818837230368753985e-03,7.396931827212130210e-03,6.586006372789768824e-03,5.713289964490042387e-03,6.594045168972112979e-03,8.608052499853925330e-03,6.787807565060337799e-03,7.200861967211912365e-03,7.253673108102097131e-03,4.828196190370478806e-03,4.912028333628925408e-03,9.376235585988625804e-03,8.259607140947679282e-03,6.611818103471267354e-03,9.072491973955760028e-03,7.404812078591877129e-03,7.187044113337322238e-03,6.923595793407528315e-03,7.944030416734674041e-03,7.570201327001617984e-03,6.749700926974265547e-03,6.233073180358363226e-03,6.575358338786755491e-03,7.547927554595360369e-03,7.385816769978013549e-03,7.592439458195239868e-03,9.334412349649516202e-03,7.042805709215270785e-03,5.194296607293056277e-03,8.888328334795254915e-03,8.622933394099632429e-03,7.848176481031100479e-03,6.013575342957993772e-03,9.035398469860745838e-03,9.433471908176220555e-03,6.867662225697104307e-03,6.008860291276621295e-03,9.131297375887269252e-03,4.737445647661676744e-03,4.937360748428540509e-03,8.538285160130386006e-03,5.910938414024478026e-03,5.304726672988924197e-03,4.841440930409894768e-03,4.993715469003951260e-03,9.092064577032505507e-03,4.287568307242855571e-03,8.329921644409064851e-03,5.518386124929366456e-03,5.470284480866284028e-03,3.583733485071744895e-03,5.998752150614259336e-03,7.977055005970346002e-03,5.968764905314322307e-03,6.033039892332035976e-03,7.342885094100102226e-03,8.027660458251789644e-03,7.951040812580967287e-03,3.718243885570879630e-03,4.864048456023987825e-03,4.724684901761605320e-03,5.050397061454756954e-03,4.433268544109597413e-03,6.907282502229429751e-03,6.095046622881967156e-03,4.733557088494210439e-03,5.848452038652287611e-03,4.971841787344231760e-03,7.178326408751105510e-03,7.108979151923718910e-03,3.948664862167313404e-03,4.399980876416764199e-03,6.370755429168332463e-03,5.735866900418781257e-03,5.187648263062346644e-03,4.890682500601278675e-03,5.257491055146309815e-03,6.761006585429495640e-03,7.827450201805200708e-03,4.976203505767696177e-03,3.735579256095584565e-03,3.887340797870039114e-03,7.923258361281614731e-03,4.557611996549275866e-03,5.520657684408201114e-03,6.842968364817121445e-03,7.574251574899155785e-03,6.218878566968772011e-03,8.289116651807978270e-03,4.280964383699515687e-03,6.844359169420922116e-03,6.502376890528185731e-03,6.569268958545384195e-03,3.885201431664617264e-03,3.455718967259749277e-03,7.541090189173746405e-03,7.436964412056601414e-03,4.907679927401463645e-03,7.876027412536238531e-03,4.611698297654206850e-03,3.704394300518186033e-03,6.241073748496879688e-03,8.139118159104726663e-03,6.410458549870648969e-03,4.518550005170513841e-03,5.224504160819852701e-03,4.244657404047054265e-03,4.907598915614941500e-03,7.455559929580312523e-03,6.862070160650869839e-03,3.757396705109514266e-03,6.734693016690073732e-03,6.294089226831059251e-03,3.516219222508998321e-03,8.331455530856190367e-03,6.011181171484907861e-03,6.506283387599642344e-03,8.011902662528009450e-03,3.480219411547639391e-03,5.660009904258591316e-03,5.122547494508407177e-03,4.013836067736662426e-03,4.040262719492944583e-03,3.397330037356317747e-03,4.564231738281417962e-03,4.374884587444818375e-03,6.944976712904628834e-03,3.603472986038057987e-03,7.312785539158365121e-03,4.361499541826811301e-03,7.145061961929364582e-03,6.846488455466895502e-03,4.132572639423295717e-03,7.446222705335278635e-03,4.153132107625590215e-03,7.631502167236832966e-03,7.414758372534456000e-03,5.717325967653823053e-03,5.444025231400344104e-03,5.269997585657558263e-03,7.762700965380966121e-03,5.681939508276097860e-03,3.457680823470230241e-03,4.218196165346342098e-03,3.725110158105830304e-03,5.524352975911428661e-03,4.347275174181291189e-03,5.778883590201137378e-03,4.817146331904856478e-03,4.260600150822138436e-03,6.201264315477876196e-03,6.533457944150934844e-03,3.142877241702569067e-03,3.736604429820172216e-03,4.149918888815401323e-03,5.860956953616563818e-03,7.133854286407999117e-03,2.992997422734808375e-03,3.276005650135189410e-03,6.951576266832788613e-03,4.681828213830262382e-03,6.885761123207861240e-03,4.046966589088351815e-03,3.378446670874322467e-03,5.793918977855683043e-03,3.338501270498390409e-03,8.411045108460385444e-03,9.411852047058645240e-03,5.096604662950640803e-03,6.160564400016944366e-03,6.773660814414392620e-03,8.048635663426314049e-03,6.397609242036778054e-03,7.056466711278392909e-03,7.118416193890200576e-03,7.595389788586995317e-03,4.778156997923953091e-03,3.891357321782491947e-03,3.555122087485580815e-03,5.474760140626364242e-03,7.498202396017750529e-03,3.779165029769635670e-03,4.520573009263854393e-03,8.071270305599627382e-03,8.730413166398864541e-03,4.397990781476515502e-03,4.390680684965941709e-03,5.591129385595763022e-03,7.961332948974230578e-03,6.758676600548851887e-03,4.034639209864181175e-03,3.434553677516028868e-03,7.015363727713179801e-03,3.960412508450045048e-03,6.450582994984577212e-03,6.894326903699177223e-03,8.091984054727874992e-03,5.775245123268884714e-03,3.449456719750593810e-03,8.159389712973389927e-03,6.637131275927994969e-03,4.264755727073531871e-03,3.818334898546185859e-03,5.480031189765275333e-03,9.029603022766471629e-03,9.135989906735303770e-03,4.969485706306979965e-03,5.714566033367065104e-03,5.272943496134181902e-03,4.911510549984221367e-03,5.653957932677824982e-03,5.253509458086616339e-03,4.072909867655126991e-03,6.477438988115409232e-03,9.362704944228495210e-03,7.827265873535200688e-03,5.660723933259937529e-03,7.905228710424037561e-03,5.742239782475440889e-03,4.788967409057102304e-03,4.529454012634144197e-03,8.120208655082762628e-03,6.347677998205841256e-03,7.939571233585688420e-03,7.564161714896139484e-03,5.490608091073633130e-03,4.566920407528380320e-03,7.931671011775864519e-03,3.976820615475374493e-03,7.168242488159144200e-03,7.142321911098337486e-03,3.960108291652387515e-03,4.940430858284409685e-03,7.127794572477507903e-03,7.599445207111582036e-03,7.957767075526233844e-03,5.843839170315437946e-03,6.708599777824206072e-03,7.303855097771423492e-03,8.635007346861340097e-03,8.939688747381307338e-03,7.533749047238753015e-03,6.945023266505286411e-03,7.749359391201023767e-03,6.214410814586643003e-03,8.900234630207727940e-03,6.639457891163693705e-03,6.470731517257872351e-03,4.968261239419474555e-03,5.443905683389852271e-03,6.527488645287135918e-03,4.988974049052821887e-03,8.343684460827113097e-03,4.524703368908622979e-03,4.094474263666960517e-03,4.528130078757677465e-03,5.261763230398510197e-03,6.732800086670154283e-03,5.556258629310889541e-03,3.460520406916748910e-03,4.735700382187026623e-03,4.124997582060346141e-03,8.541698406671315025e-03,6.660983537395754293e-03,5.210554648877635704e-03,5.616969368488987889e-03,7.624804163797011328e-03,7.772244600877456500e-03,5.715127990576415566e-03,8.246660262575448638e-03,7.597301148257899761e-03,4.964428680676242697e-03,8.721369468463420482e-03,7.857094743506739046e-03,8.246832826896895521e-03,4.779535590563960268e-03,7.609868191661706138e-03,4.989472956257023223e-03,7.561632968802573310e-03,5.207174024648966205e-03,8.672922662051054180e-03,5.574408484596542028e-03,6.068515428532866331e-03,5.912877741993513049e-03,6.293466574880645856e-03,7.896289622923564205e-03,7.635292744074739443e-03,7.870040947505357182e-03,6.827922305951789235e-03,5.520761197321396099e-03,6.634261324582294006e-03,5.923698306774334912e-03,5.629469269346897009e-03,7.260715072985237696e-03,6.902981201400414449e-03,6.146892681041369287e-03,7.682481638258815276e-03,8.563373519125038955e-03,6.183328902419201953e-03,7.316960913782409939e-03,8.883776480619474253e-03,8.762847773858701769e-03,8.147905637799992065e-03,4.831401004528369791e-03,9.733891395750121633e-03,6.863575193293592301e-03,8.316268705343429421e-03,7.259639947890287985e-03,6.637870900863145941e-03,6.667168001342551296e-03,8.588163333639131300e-03,9.148398295492271570e-03,8.192978441328805164e-03,5.996016256050657953e-03,8.296738297711847912e-03,5.704528974652590782e-03,6.608593419735264186e-03,5.385453776864113952e-03,6.063156204282040170e-03,6.002183805386565943e-03,9.098386007874392084e-03,4.995024007034391984e-03,5.277863054058513567e-03,5.117558315910861189e-03,7.769393817186333664e-03,8.054294350820157683e-03,6.309720395666552906e-03,6.025780215455004210e-03,4.185757968249470204e-03,4.844609838731718347e-03,7.897949928933209462e-03,8.173106710067254421e-03,8.768361552591317012e-03,9.164528949587025242e-03,5.036847337073865893e-03,4.605065020367526442e-03,4.051548626167866991e-03,4.859640849568429635e-03,8.048650555329918410e-03,4.360854867640281615e-03,6.105410267198075648e-03,6.007457182085054401e-03,9.001283158380123800e-03,4.622832592365897116e-03,5.943688731349151301e-03,4.767869104363816300e-03,1.669779124298098258e-02,4.124337202939505620e-02,5.611171590078195548e-02,3.741073449006524637e-02,1.715223468461397546e-02,1.631072656477233589e-03,5.510162203334029174e-03,7.056839083210304613e-03,3.048153860444771917e-03,1.140567861714646570e-03,1.423999475628996876e-02,3.150067930347763556e-02,3.642415740453110867e-02,2.252672112353773168e-02,1.096296754798375093e-02,-3.110928500667651218e-03,6.521011563422884905e-04,-2.925373613190550195e-03,-7.872655633559856592e-03,-1.224188198884862064e-02,1.290794674973581337e-02,6.731290776822839578e-03,1.826605393247182022e-03,-5.698359411242632892e-03,-1.800785539340407637e-02,-2.231646855057200368e-02,-2.074435124937939329e-02,-2.733912253157663730e-02,-3.225862841978092282e-02,-3.826627957079341974e-02,1.791536959680198413e-03,-1.218383109944088175e-02,-8.667966066905953906e-03,-1.823248974673076159e-02,-2.262356186596368654e-02,-3.067578698345661131e-02,-2.614510997635500350e-02,-2.979202436432272158e-02,-3.513070625598398167e-02,-3.729191610392185857e-02,-7.185324030793015584e-03,-1.124354925894820688e-02,-5.066426816203763173e-03,-1.504683136837891774e-02,-1.208543747132315334e-02,-1.575633331042147756e-02,-1.906228853687338270e-02,-2.157868589743795751e-02,-3.046176819894920798e-02,-3.362531458500766374e-02,-2.136416339075554796e-02,-2.466344646523425943e-02,-1.651972860305873925e-02,-1.971684018012878625e-02,-1.323844396411199414e-02,-8.570713485561130135e-03,-8.650426737182456693e-03,-1.471253317268748396e-02,-2.591377040261047537e-02,-3.440106205505912701e-02,-2.805808345702457546e-02,-3.578426477924950833e-02,-2.889120466902974152e-02,-2.673058257304913518e-02,-1.288446559421498397e-02,-1.011901934467197839e-02,-7.136205801939010489e-03,-1.167211921679892767e-02,-2.118459822655283098e-02,-3.451648876361913809e-02,-3.390434401484848648e-02,-4.259120544862379093e-02,-3.545332534173397526e-02,-2.979955163338375568e-02,-2.160189159581162033e-02,-1.125477600243598997e-02,-1.141097542129509632e-02,-1.844494080595650287e-02,-2.620411692636757939e-02,-3.921134778346352379e-02,-2.994645135791174431e-02,-4.228307000169623936e-02,-3.864191642045283065e-02,-3.703491994249409613e-02,-2.798683646188003873e-02,-1.984021895716028133e-02,-1.975189059646044812e-02,-2.672213710411748891e-02,-3.538025600352337485e-02,-4.479661212825257477e-02,-3.222282560216482850e-02,-4.296409805778441532e-02,-3.818787803658735269e-02,-4.178178739185840762e-02,-3.795032178734245032e-02,-3.324590634471316641e-02,-3.436339711563483196e-02,-3.929656775406787511e-02,-4.327069389638460439e-02,-5.142795077924047081e-02,7.447397689731419246e-03,1.026779366968598624e-02,7.704673580339159097e-03,9.082225654730283204e-03,4.978357437269792518e-03,7.628441429356260309e-03,7.761901437707473435e-03,9.270181955297203055e-03,5.869506052673991933e-03,9.643340900635923724e-03,9.099580488764120664e-03,6.981913313492824763e-03,1.005146252260072370e-02,5.322876499937116701e-03,6.305432239331856988e-03,8.969407678748360022e-03,7.572192863947643619e-03,8.090318597318813323e-03,7.833892056670947734e-03,6.443467446167130616e-03,5.696097443625945667e-03,5.106283141963514384e-03,8.757238634805047592e-03,6.787172363720355220e-03,5.243190593470140222e-03,7.216997635075859258e-03,5.937141275426976311e-03,8.748264884120808202e-03,5.080896556290744048e-03,8.852272419237685805e-03,5.901208491844127726e-03,6.747899340667258203e-03,8.059730697100140825e-03,6.156419798385324646e-03,8.944687328933050713e-03,5.930918261576298249e-03,5.194337189961541548e-03,8.199990517438806095e-03,8.035072855955721974e-03,5.709446796926884692e-03,5.731318536516232486e-03,7.192015807483825851e-03,4.922334367667043943e-03,6.170605519616871246e-03,6.091545924977641649e-03,8.686323343564337704e-03,7.406733693869127499e-03,6.117066197207066645e-03,4.777759083419044588e-03,8.994921428459800097e-03,9.242691251930059207e-03,7.842385265500623551e-03,7.305886257678750016e-03,5.263600842471176378e-03,8.744254681298690990e-03,6.874448873962198635e-03,9.204031943772365484e-03,8.688387220442387107e-03,5.783430405100102763e-03,5.503060911588654111e-03,7.965703503003693578e-03,4.928674686662672978e-03,9.421415193464897572e-03,5.615742626870622208e-03,4.913458288114225074e-03,7.784760377330738647e-03,8.746777375462599230e-03,8.960524381008923289e-03,6.470705130085314255e-03,7.999759464950535054e-03,7.408886373279476717e-03,8.263229466931674289e-03,5.721028924089379200e-03,8.396140900004574192e-03,7.374205701975977342e-03,7.537064164852093351e-03,8.601746460926805796e-03,6.933695316323349594e-03,6.786375713213895801e-03,9.040811258583180202e-03,6.066151620722950132e-03,6.071739739740520184e-03,7.027021438345496668e-03,5.302446567009075698e-03,8.146689616373648662e-03,8.866388046368568060e-03,5.897048927412819504e-03,9.071548312073376280e-03,6.098920760500333577e-03,7.337938394301312534e-03,6.037465110653346401e-03,6.192657322682326021e-03,6.521035352792064338e-03,7.550073062047760186e-03,5.885355921107804714e-03,8.142265362649394114e-03,6.520857314139435514e-03,6.982029258569368013e-03,7.127777359874866089e-03,8.303553696066705986e-03,4.841618639620139629e-03,5.247178075253271408e-03,3.653664109301072143e-03,7.974347410866375330e-03,3.892192005574165743e-03,6.414127850073951705e-03,7.791950157337026832e-03,6.586953258829699419e-03,7.616167459204905947e-03,7.984656044636776612e-03,4.557327202743430457e-03,6.471447560209943502e-03,4.695766610280275623e-03,5.332182275240747275e-03,6.804661311285002158e-03,3.959542729101908111e-03,4.478453191729643741e-03,5.916130980404562568e-03,4.006184667682496404e-03,4.236645106705089030e-03,5.127348774797775739e-03,6.313961674889813185e-03,4.104437893513603226e-03,4.768442294323154730e-03,5.277422481952305684e-03,6.834607788926382911e-03,7.916778197406829781e-03,6.013846667064733954e-03,3.938539006002832361e-03,7.354999680006433192e-03,5.707831035459981321e-03,4.186035608616208055e-03,6.828931562494990580e-03,6.846553987750779620e-03,7.118315852311212118e-03,5.613513317963641190e-03,5.427203332618969929e-03,8.224171451057710885e-03,8.118795817700478340e-03,6.475614816162729610e-03,6.327636778106367731e-03,4.483543701388956020e-03,8.076104458882321646e-03,6.515905542483450309e-03,5.688542332412412257e-03,7.795366625240710522e-03,6.823323541127769391e-03,4.265691487474152464e-03,3.462336329578620791e-03,5.124105560222095603e-03,5.986673529949744325e-03,5.085481627505169556e-03,7.467817139677861149e-03,7.242248062972743948e-03,6.350426289114600477e-03,4.806140593271932861e-03,6.295793955967320978e-03,7.192372022855144688e-03,6.378347174813787067e-03,7.765973744756858414e-03,7.019922589757916602e-03,4.540803668772581091e-03,7.384522437220539422e-03,3.444761478359071715e-03,5.637488364459324226e-03,4.397526992500019362e-03,5.826576473690606682e-03,7.268556415422890334e-03,7.782762518886122798e-03,8.114727462066210345e-03,5.504431498486793244e-03,7.829454597697984436e-03,3.409725928137010125e-03,4.879431009142555682e-03,7.135535144241121792e-03,6.234080236936080481e-03,6.209339664993491180e-03,3.878836488958258086e-03,6.259613042939594398e-03,7.533798846770689561e-03,3.900271792495850921e-03,4.290051415592382143e-03,5.937652547703836138e-03,3.985049763134219068e-03,7.421949582677699227e-03,5.064444237547336379e-03,5.561900858084432332e-03,8.266785781668443966e-03,6.993984786650061895e-03,5.061147792238819033e-03,3.706524003097730943e-03,5.043031299415855727e-03,8.195112872549596000e-03,3.769262907352361001e-03,6.854632475065620782e-03,5.116128850151782474e-03,3.462510708272541118e-03,7.524434907043690141e-03,8.041456804416126369e-03,4.629078406565790595e-03,4.355685727317985985e-03,5.027364728129418182e-03,3.205549054416835866e-03,8.195536579732674853e-03,3.160086394495082752e-03,5.434035104924990825e-03,2.855412576069350956e-03,4.227549694899965411e-03,5.036891165275544056e-03,6.822806478395626768e-03,7.602311877498210864e-03,6.367694495430153631e-03,6.558435894662471323e-03,4.964580818396476143e-03,8.619520708015684582e-03,4.136631097167653252e-03,4.415481359552600113e-03,8.195364643272992286e-03,6.126003040674129520e-03,7.265750030191892896e-03,4.603617194842125893e-03,6.087506489660242381e-03,4.647527932700257561e-03,6.964288250592034005e-03,7.286879439300744665e-03,9.014608304239038819e-03,5.139233157768940269e-03,5.366236399490326159e-03,6.878446787235623777e-03,6.162729806446852476e-03,5.110315909572928084e-03,6.156057553992838952e-03,7.235172514815663841e-03,7.858735550385900423e-03,8.042604406816379267e-03,8.015314174146892165e-03,8.754470613588258635e-03,4.563951428675197021e-03,5.049120796838363345e-03,9.190304943975487889e-03,7.623299561217735526e-03,4.370671159730200872e-03,6.820817785259097182e-03,4.631109639359340217e-03,6.749064536056547173e-03,7.218272268484374025e-03,5.778797089461030177e-03,6.607990518040753741e-03,6.960950196309474355e-03,7.103001404448304121e-03,7.086502566125607062e-03,5.422160109433051683e-03,4.271908243559338972e-03,4.108853156271217305e-03,4.939677475255737499e-03,5.580073896295139300e-03,5.407213396795318948e-03,4.924248639676288494e-03,6.468220465965217152e-03,5.018447930960279017e-03,7.384609894642199177e-03,4.548340873659844665e-03,7.426651938393325110e-03,5.671206254123170240e-03,5.905662942279364669e-03,5.365503629033921071e-03,4.196108370369627805e-03,7.380819826470730663e-03,5.501981078036830876e-03,8.097484055927941377e-03,7.122131713028875821e-03,5.786684997327105721e-03,7.880400413959570693e-03,5.126736859197237456e-03,4.262296309114834043e-03,7.804243375900974181e-03,4.958136156325731146e-03,8.944098995279540359e-03,4.978311003944941616e-03,7.314608967850906411e-03,8.422351671066937925e-03,6.981990090855916091e-03,7.901176167979672912e-03,8.729779552939260362e-03,8.362123381436790959e-03,8.864425885913651895e-03,9.254588251854043920e-03,6.599103238125622779e-03,4.971010511464759966e-03,7.013167471296113085e-03,4.832481107770078901e-03,5.368191089896032046e-03,3.868268200866204539e-03,4.682425845161057934e-03,7.609796459579170995e-03,9.077631665314866635e-03,6.831002500357352854e-03,9.645086638969511614e-03,6.627820819409252669e-03,8.935446934994007231e-03,4.173231130551016514e-03,4.224862962188952881e-03,6.392481593446139657e-03,4.310950155103631352e-03,8.527839721634712655e-03,4.435588768335623280e-03,8.408438399033282828e-03,5.874952218792619564e-03,8.694786021501650641e-03,7.600505608473742333e-03,3.796315163648730610e-03,7.786589462632178237e-03,5.899019297389889761e-03,6.930019299935037680e-03,8.784161189030654376e-03,5.288275344769387785e-03,8.654903196083403236e-03,7.321704003053218328e-03,7.074628507856877552e-03,5.697133681512955503e-03,6.035604586644885416e-03,6.061851876286845214e-03,6.797400852955081015e-03,7.780592218182814934e-03,9.143085090896214615e-03,5.087301070618514311e-03,9.166040159656186140e-03,9.892191568210926059e-03,5.023121307617671970e-03,7.491564227133301786e-03,3.482249697725125701e-03,7.758737248699200915e-03,6.660003138899296855e-03,9.424560157629621390e-03,5.606509248079643605e-03,8.223194304788034731e-03,5.569361684100907102e-03,8.770316999623354801e-03,6.637482776969529617e-03,6.922248488475264347e-03,4.790151661736374335e-03,6.855453230684959050e-03,4.191171666188985533e-03,6.805389213957640897e-03,9.572097717085236573e-03,8.876251812338319808e-03,1.005548354898597174e-02,6.832198534561419699e-03,5.517297266498261826e-03,6.693046762280487234e-03,6.688699919203736771e-03,5.861167113969509637e-03,5.344973963788118149e-03,5.133841934435353846e-03,5.436451068117748552e-03,8.596434425054385806e-03,6.243432280319036361e-03,1.004570760549574823e-02,5.183828029169417449e-03,7.680747542965798980e-03,4.289019216491389737e-03,7.679749581851435559e-03,4.328474537396141165e-03,9.194258510166228998e-03,9.356171134249385846e-03,6.534113398257855761e-03,6.742765892852106875e-03,7.441065057992412267e-03,6.378505389150115369e-03,5.528095928912550409e-03,7.718180748040356053e-03,8.252166407113330909e-03,7.351063278839452958e-03,6.214813293229741291e-03,6.253878476786753349e-03,7.102025167300338171e-03,6.033088739132214454e-03,9.689743042733147543e-03,5.613275233869801165e-03,5.269921598501264501e-03,6.579780190063020361e-03,7.808089225454252318e-03,4.911905341109220995e-03,7.099427241428884865e-03,5.662195176690047217e-03,5.228020406139694681e-03,9.793184106211603665e-03,5.125020569924222495e-03,8.638090933413496847e-03,5.624420147652030126e-03,8.018845805362629156e-03,4.202509341860827079e-03,6.270409742006122569e-03,9.241150360791485288e-03,8.980261018081877808e-03,9.348553063190101486e-03,7.483047574332084978e-03,6.604331012543889282e-03,9.129300854257985445e-03,9.617663942915032765e-03,2.320740416942338596e-02,4.520605514458845425e-02,6.386311470026218018e-02,2.337918242970285151e-02,-1.579380889257864934e-02,-4.097122386039084296e-02,-3.169916427568254813e-02,-2.836318366713314401e-02,-2.747793002886804795e-02,-2.583302179432259149e-02,2.258046241050243666e-02,4.116663201745684314e-02,1.604925109599520186e-02,-2.404828105356363044e-02,-3.455830263830250715e-02,-4.315149807915044655e-02,-2.956812281947987509e-02,-3.571544826821031887e-02,-4.528772953102193355e-02,-5.278721724567531082e-02,2.208167690059067295e-02,-6.443086379521910205e-03,-3.661705335443429105e-02,-5.079380394799511839e-02,-5.051046104182371765e-02,-5.062013892818048588e-02,-3.848729654674518802e-02,-3.505714341641490150e-02,-5.216604105249583734e-02,-6.494405871690432652e-02,5.536794834777513004e-03,-3.492367393776775464e-02,-4.242803724990052566e-02,-4.319916097967892860e-02,-3.170392768253937898e-02,-2.824926046162430648e-02,-6.145590942466909457e-03,-1.481401790358833313e-03,-8.617467238901388438e-03,-3.252707695618182321e-02,9.860949279209284962e-03,-1.689333536826394949e-02,-1.230130272032279107e-02,-3.230775287756740277e-04,1.368621239647310403e-02,2.428971047181152643e-02,3.871834370273945225e-02,4.497716771879210762e-02,3.384466121888145274e-02,1.096545180912099869e-02,-1.494267130919591869e-03,-1.836820583877262630e-02,-1.663090961032990915e-03,1.717943065087308013e-02,4.080604640308351655e-02,5.519725493221155910e-02,7.235805127113187352e-02,7.532105002038062824e-02,6.515218811419663802e-02,3.298655988323064697e-02,-6.698470913320393044e-03,-2.368446147478125291e-02,-5.102166275937295575e-03,2.183339287403507703e-02,5.002922828863739374e-02,6.847290349214309180e-02,8.524066670625263242e-02,9.110531042331448948e-02,7.868963116685200043e-02,3.953746191195447318e-02,-1.058742131263939318e-02,-2.295593732212362556e-02,-9.985062256150836063e-03,1.401854224373836125e-02,4.009982601496143301e-02,6.280160900918713152e-02,8.027463827486763792e-02,8.928056194308146842e-02,7.327148608830669207e-02,3.688835473700976392e-02,-1.231868276759724018e-02,-2.250846237231341959e-02,-1.085248775858795901e-02,5.152819427352297969e-03,2.677881956391299501e-02,4.505086851797964614e-02,6.548073271949680918e-02,6.618315960492969496e-02,5.296512444233010541e-02,2.173232006281972106e-02,-8.629994006906501619e-03,-2.387728872057603285e-02,-1.915798626525717918e-02,-8.959290637190364670e-03,7.447604576882025686e-03,2.356734129566170552e-02,3.524034779874354872e-02,3.456302856270733470e-02,2.218363090228545748e-02,5.351623811078506238e-04,7.793869542892323254e-03,8.564876478145988861e-03,6.173341365074543237e-03,6.331029636311230439e-03,5.727096187250053233e-03,6.820360278153239295e-03,7.927582448931116965e-03,7.509802019717802361e-03,7.245718223796330376e-03,6.959247449444538880e-03,8.770876401511170165e-03,8.601510808841847378e-03,9.468809045548974221e-03,5.841814060540062407e-03,7.062753444284187304e-03,5.316063733320264099e-03,7.200312571074686183e-03,7.790988444674123471e-03,8.286997121725066598e-03,5.387816339907180660e-03,9.462945019772623159e-03,4.577466285628199565e-03,6.378761278580296137e-03,7.359400041203456762e-03,6.071044263205390909e-03,7.707158388246652253e-03,6.580923432267519330e-03,8.685472345311426659e-03,7.355839579479703239e-03,7.372930740251026037e-03,5.083356133387448468e-03,5.182358436211484225e-03,8.198371709718226333e-03,8.187795393750585404e-03,9.170418051604475526e-03,6.162383988814101356e-03,7.117728822704715366e-03,6.271864238348081981e-03,8.975267926931670623e-03,6.278114607687504053e-03,5.081721047410178195e-03,7.942974178116360418e-03,4.772612431902576932e-03,6.098055612923019425e-03,9.585076718345186819e-03,9.727753160074834038e-03,7.692729718343344590e-03,5.802681939879037951e-03,8.052335815199481578e-03,6.422544516881694213e-03,8.185643210711865750e-03,7.258900984275807981e-03,9.220841738739689666e-03,9.216486673808971589e-03,7.170530193283709830e-03,5.341708250040112446e-03,5.514849328269657604e-03,5.316919658196208286e-03,8.785640384765314170e-03,5.167108946456736018e-03,7.065811657919662293e-03,7.328083222473275038e-03,5.988088891275181180e-03,6.873290978103398403e-03,8.006588716525025323e-03,6.814556644798836112e-03,7.589510780523855450e-03,9.411136202250324628e-03,8.270954594046496522e-03,8.063056748325912390e-03,9.675423243207843457e-03,7.151970941412707887e-03,9.123191093223275566e-03,8.285885615692057879e-03,6.132145759927732157e-03,9.346201778030985285e-03,6.555702894190826475e-03,8.518735636929945787e-03,5.555634617816314000e-03,5.940950307650486213e-03,7.685446743646212608e-03,7.727966638603460219e-03,5.709749623930384863e-03,7.798593935720000980e-03,9.485550798258140723e-03,8.654213963318741626e-03,9.694345154392835368e-03,6.495621973909811338e-03,8.156630283059152289e-03,6.791357498643489816e-03,6.052328567811345733e-03,6.259902428175683625e-03,6.516565418862434525e-03,8.787822078287405025e-03,7.736817456974702002e-03,5.704008163645715897e-03,9.806234582855019935e-03,8.732521350581071151e-03,5.395170038146411724e-03,6.300576243811067262e-03,5.102619334208771847e-03,4.461327986172718314e-03,6.387979934137001485e-03,3.803654061432411738e-03,4.875218339094085883e-03,6.866090061525370776e-03,6.503522956524960229e-03,6.992679250479401885e-03,5.676110794683633838e-03,7.948408736570686944e-03,8.048344978368579539e-03,7.411227035625044847e-03,8.264478187534705228e-03,8.089253870914751149e-03,5.565685775016571656e-03,5.162555846562348096e-03,7.075367108873342574e-03,5.924580919788295479e-03,6.346186282052032092e-03,3.413823310672048274e-03,6.025408243150461897e-03,4.194018817792647714e-03,7.680300491391330552e-03,4.559782521987558283e-03,7.899344522320737860e-03,8.027217689941607004e-03,5.176351336183613976e-03,4.725756726629081785e-03,8.213939371876283202e-03,7.790397905999740628e-03,5.429694480589208720e-03,7.005474224650057487e-03,4.516986671535115454e-03,3.644383493981666940e-03,4.819512238490314925e-03,5.890757469280712318e-03,7.221039325551465403e-03,5.795374932197305297e-03,4.399050099797179904e-03,5.446370895854177156e-03,4.637151947495049380e-03,4.087717847427872926e-03,3.851008756874653178e-03,6.245833572213590860e-03,7.308754327545487033e-03,3.682112677217043700e-03,5.249853465919023486e-03,7.924557484759814363e-03,6.827458141061697704e-03,7.666703155950356334e-03,6.881758188319111146e-03,7.766717227972538655e-03,4.951055967059675607e-03,6.419717988390975967e-03,4.140379618167316401e-03,8.279825010226716381e-03,6.987542045926403537e-03,6.804758826233987638e-03,4.946025786668543402e-03,7.691496545319600163e-03,5.898600504989822031e-03,6.406366887336540326e-03,7.891793238026682811e-03,6.898511506993586402e-03,3.737960421058906298e-03,6.873457374603008686e-03,4.793031012752563443e-03,3.927826072781969401e-03,5.253482259193516767e-03,5.482487642838130247e-03,7.526342441222504814e-03,6.291276957543864672e-03,6.927150861326821472e-03,7.146098922353409828e-03,5.379856400111631028e-03,6.663885053155483955e-03,6.823690956285680294e-03,5.891631951405758467e-03,7.128935902728296935e-03,3.954241935526739242e-03,7.777472900078185279e-03,6.674443851757355141e-03,7.266534541747343874e-03,6.409396064866581220e-03,5.578837342275238219e-03,4.497436513224483366e-03,3.346638406955270133e-03,7.126245846736200922e-03,4.292115830192683688e-03,5.006606074330617433e-03,8.280328959963299817e-03,6.602149225795188835e-03,5.120068104956095219e-03,3.827212372123377660e-03,7.687088389539467430e-03,7.235456141571407727e-03,5.418954857515200473e-03,6.084679082102821025e-03,6.557111201787791353e-03,3.382621428478022312e-03,6.531436557420520171e-03,5.025777936499466018e-03,7.440651688316908194e-03,7.885450343536522591e-03,6.954228241712060755e-03,4.816315178877129087e-03,7.844354778823038610e-03,4.563099742762297129e-03,5.007889596902525414e-03,6.887536037805870939e-03,4.726957240068421252e-03,4.048633810779782988e-03,6.292315799355148627e-03,5.715164711045841138e-03,8.087911959405794105e-03,4.687315706421463050e-03,5.095713336072937687e-03,6.959870227774105945e-03,8.508858067299951422e-03,7.274814501080752518e-03,4.019513331376433837e-03,9.053835914186812717e-03,7.821972728113284895e-03,8.583937046543772126e-03,7.335839296711466409e-03,7.195185467554588571e-03,6.414194482793231407e-03,8.770450618222295353e-03,8.533068246642521934e-03,7.644537952506178825e-03,5.147072628296016708e-03,5.724503791668697321e-03,8.005543805872157581e-03,9.015025282989825445e-03,9.439302710410426775e-03,8.166190119320650836e-03,8.321941260234942336e-03,4.860270921660220234e-03,9.291872586066221226e-03,8.078423611964731868e-03,7.271528544999262059e-03,8.044788663451821892e-03,5.814734538218253174e-03,7.893179115449162550e-03,6.551631569942632620e-03,6.989799394053359920e-03,4.922142883668093570e-03,6.607478649754775120e-03,8.949592442672186371e-03,5.240273094201603268e-03,5.843068431625604922e-03,6.989433051277038796e-03,5.574542381084076660e-03,6.869953791210029609e-03,9.260895382620057056e-03,7.190027335893645240e-03,6.403857781536844568e-03,9.414074795859501271e-03,6.125186374933604475e-03,8.185727473524733594e-03,6.092311697248706248e-03,7.645812463175812902e-03,7.411957019124558975e-03,6.627838250902268191e-03,5.138657011051630565e-03,5.227391014164638715e-03,9.473883011308763605e-03,5.077145001261202870e-03,8.135815794091739647e-03,9.206527644124258211e-03,8.598058569026220677e-03,5.208328046180459546e-03,6.549745725135001570e-03,8.003746933859943319e-03,8.976527656232182947e-03,5.768230818972813236e-03,9.696368772339866021e-03,6.461351017955906453e-03,7.740088220894986333e-03,6.067207986314096177e-03,6.007194735595988190e-03,4.888473676529556285e-03,7.735239084437248516e-03,7.689951442069338158e-03,9.509101152455725833e-03,5.702746553214053417e-03,6.345919861589141391e-03,6.052813969570205142e-03,9.733921413083154034e-03,5.377244254370886108e-03,4.523368195157514114e-03,4.806249488439250268e-03,6.282046814613350197e-03,5.395598297850002188e-03,7.600817226800887262e-03,7.464109734067247114e-03,8.473851099483096366e-03,6.907010521916777043e-03,7.267699396368100528e-03,9.890577554383741393e-03
-2.242226027280782436e-02,8.969772872720153944e-03,5.395574564857811770e-03,7.308587043627706552e-03,8.656660079801864818e-03,8.395597569805081026e-03,4.692400616344891140e-03,4.765644255440158912e-03,8.727878897465429775e-03,6.110757497792856929e-03,5.826817522560257846e-03,5.443838531686720147e-03,8.907635124971656840e-03,5.589972458989074522e-03,7.626379690057874527e-03,6.705246741087109857e-03,5.840914506434789072e-03,6.645713370715595515e-03,5.871205175365618728e-03,5.426746173311655479e-03,6.657751833676602525e-03,6.002177847008638607e-03,6.878330187212524337e-03,6.166919369168139507e-03,8.919798034418422589e-03,8.670728398058030056e-03,7.769837541028960272e-03,6.777209886038712203e-03,4.814145290373148846e-03,8.138970834650658195e-03,6.849028327765406890e-03,5.599758384493067412e-03,8.018488150815140589e-03,5.576135383552208516e-03,6.638285264555872714e-03,9.273452568432609747e-03,7.319130875822056452e-03,7.056418526921228070e-03,7.505316706732142150e-03,6.143218846182493635e-03,5.471925274286617603e-03,8.871311186738619139e-03,4.928986792907175465e-03,5.508585922516870056e-03,7.699101562994644689e-03,5.299457286447394923e-03,6.387670491528736789e-03,7.526904299724241146e-03,5.919690388126671449e-03,7.679932674260044924e-03,6.695194213523974341e-03,5.785942862671936138e-03,5.364443767667880641e-03,6.816986296674169311e-03,6.991773840840464702e-03,6.207442919249771436e-03,6.585112179437592125e-03,7.274009629212236684e-03,6.696538811749146343e-03,7.467938092376565085e-03,6.730717491260633512e-03,7.986203103819918686e-03,9.105587070201565103e-03,4.835451299562843440e-03,9.066143608882229823e-03,7.662252717412152726e-03,9.338305746614631100e-03,4.996778150518980423e-03,7.464174515244739738e-03,6.994752087052674878e-03,5.858276874850351819e-03,6.775284561587715908e-03,9.332383751077264269e-03,8.757361806779500810e-03,9.106562688113068599e-03,8.570675428537000845e-03,7.291355744958812751e-03,4.768003851060525697e-03,9.044582824080603031e-03,6.971683594863065277e-03,9.365966628258811169e-03,5.999233673650726864e-03,8.291927158607706114e-03,6.930208513649756610e-03,6.445383830857539728e-03,7.153916785119293111e-03,7.013216033434417629e-03,6.709085578998851516e-03,8.560993365310716821e-03,6.863869415790719436e-03,9.230767900665827475e-03,7.751524805036540990e-03,9.466272287767488192e-03,7.930138208573750055e-03,6.146175958690558612e-03,7.089424797948351911e-03,7.404015035714374936e-03,5.117643329606191144e-03,6.829209728648338862e-03,8.896013575271016077e-03,5.661998925865681549e-03,9.313291009293588052e-03,1.006472588819351532e-02,1.142377129699526268e-02,1.032514443864298095e-02,2.361057676520706815e-03,-1.546912487641076937e-03,-3.204140449018728302e-03,-5.258885580766248929e-03,-2.981810397723555581e-03,-2.302123448450141274e-03,9.456010234561230618e-03,1.141138609026686422e-02,1.111985871226873340e-02,2.446144874230254951e-03,1.245996721939663515e-03,-3.757038775765756625e-03,-2.515238677182059929e-03,-8.077795010164590117e-03,-5.143864074673137193e-03,-8.051786794387474216e-03,7.078139816151661663e-03,8.003773108139457942e-03,5.010421071466444887e-03,-4.915756529423687474e-04,-1.910659864229679455e-03,-4.522756730100481980e-03,-4.260485260096545483e-03,-9.744155658673297332e-03,-8.985261359444853685e-03,-8.723290394061312958e-03,7.506192676982197803e-03,5.231547155835635649e-03,-1.848022040435082529e-03,-6.562403197088121504e-03,-5.562905997847249207e-03,-7.293720630746630337e-03,-5.504395134501287312e-03,-1.153010691059891055e-02,-1.390199169426896419e-02,-1.625781623168352091e-02,2.499056035717942860e-03,-3.188420856274562509e-04,-4.674714538632314051e-03,-7.966827066735631888e-03,-8.532014458095364684e-03,-6.781868381784695796e-03,-1.017007383719375005e-02,-1.299987208604447622e-02,-1.764472394015148549e-02,-1.855529598303557598e-02,1.847108365220097737e-03,-1.822232247745371545e-03,-4.649789910294273645e-03,-9.157059103406578818e-03,-1.130087924234089193e-02,-9.733652835197626960e-03,-9.744312200066662655e-03,-1.683035370970934266e-02,-1.774885100204613014e-02,-1.871204553149864377e-02,3.950344765046818162e-03,-3.346711653089116684e-03,-4.752640800185045644e-03,-9.975433884012343058e-03,-8.327023204028879966e-03,-1.143147464429468754e-02,-1.279188593771903547e-02,-1.381189348990732868e-02,-1.712784728385989205e-02,-2.129994053286290642e-02,3.687922125425812259e-03,-1.977609424230319241e-03,-8.036601569818486654e-03,-7.387458936830300360e-03,-1.248588234157357868e-02,-1.049587993272970733e-02,-1.241635275187022089e-02,-1.666490997186597517e-02,-1.981379149846803495e-02,-2.250228988742002459e-02,1.092286177220290564e-03,-1.574329600335925682e-03,-7.432104857006447719e-03,-1.055599865756897543e-02,-8.635281056232055330e-03,-9.564450042440147265e-03,-1.399508236486307969e-02,-1.820277112932238220e-02,-2.024256306238400929e-02,-2.240677819374859575e-02,2.874127537905377984e-03,1.983531597291074856e-03,-3.120719635279548682e-03,-7.475867557203044744e-03,-1.249514079331710825e-02,-8.508072172714823550e-03,-1.230682591116681081e-02,-1.894279384616866235e-02,-2.292356592042220018e-02,-2.233737528330680122e-02,9.783838032390773654e-03,9.746440018726295132e-03,6.999825812309456996e-03,8.821752831633014602e-03,6.782832579790524542e-03,9.186357721528202666e-03,6.722484195710789513e-03,6.998505126856039045e-03,8.589336155025205713e-03,8.310677010632087913e-03,7.379942199424516409e-03,6.005648146463595308e-03,9.592860417534243220e-03,7.228758124539194987e-03,6.617861339473335783e-03,6.837742712500614883e-03,5.362552205435068726e-03,8.185165245633188591e-03,6.400684882165222182e-03,9.237021952942686340e-03,5.025914755926049436e-03,8.453398326181839340e-03,6.512860798384642776e-03,6.219543212620495982e-03,6.461418024197914528e-03,6.923417626177897147e-03,9.058739166989434113e-03,5.342928519772624507e-03,7.959045786404085610e-03,6.282274883053108085e-03,5.762258902706681243e-03,6.541979247424146993e-03,6.231289769891756349e-03,5.707926263149292606e-03,8.718013606035133686e-03,5.652535172935537616e-03,7.202955745695099020e-03,6.920691787613390822e-03,4.849890275215892541e-03,5.586782489890771385e-03,7.063261942302942638e-03,8.459422534127170740e-03,9.469492523074737531e-03,6.200768244860897782e-03,7.269320207674875682e-03,9.594689360909534892e-03,7.992001364496341409e-03,6.654356613391339617e-03,9.302511136018232554e-03,7.991203902372094256e-03,7.994942983272053730e-03,8.500303157612371791e-03,9.774138140962587012e-03,7.531780307878683557e-03,7.002411118081697250e-03,7.101304234914601783e-03,7.495882370514757483e-03,5.998103827899361334e-03,8.095924945391070118e-03,8.838479685091519752e-03,7.021972440822739012e-03,7.596177604901862071e-03,8.971361930565899256e-03,5.291276751211504599e-03,7.809529472551714722e-03,6.520036847409533057e-03,8.499760756988185978e-03,8.178434244975755010e-03,7.894762314337732539e-03,7.672760635393338462e-03,6.523030181261111130e-03,8.910802859551932020e-03,9.510718719830895881e-03,5.082477692932658477e-03,5.253352074904016344e-03,9.440187057068465462e-03,8.054823707101393948e-03,5.026255565193640459e-03,9.310047856151503973e-03,9.187624683014180074e-03,9.485867156184052060e-03,9.501693918888404894e-03,8.256362218427291608e-03,6.298402961009775050e-03,5.599776118335542639e-03,7.572387803336325281e-03,8.873355482459422544e-03,5.667751367131195622e-03,7.154442721764945126e-03,5.222827527182065561e-03,6.616238713246489628e-03,5.502786541939543551e-03,7.108470898056753508e-03,9.210343122002813410e-03,9.686403457640310743e-03,7.603237742261220906e-03,4.802209990813988139e-03,5.118225506828134701e-03,9.476814956529262118e-03,8.322080359570379476e-03,5.058924989231733220e-03,6.742217975594931231e-03,5.721291804709198459e-03,7.152446274329657752e-03,7.001482630095725440e-03,7.578157996174040255e-03,6.655201634684185762e-03,6.333298987218098294e-03,7.213499822608130871e-03,5.617372831470573633e-03,6.637276341725328703e-03,8.550856703522537877e-03,5.555909313048392265e-03,6.327521804132259058e-03,8.095581259517250702e-03,4.690850944091266850e-03,7.982848869500257238e-03,7.167916736461462865e-03,9.058083328576870333e-03,8.514153852681996190e-03,7.041431108670335656e-03,9.220609645744832009e-03,8.576618578269029278e-03,6.433455271642391123e-03,7.974890691824106786e-03,7.705027389606488274e-03,7.856324518607992954e-03,5.532848666307392006e-03,6.836675921821331464e-03,8.789008579094590920e-03,8.020481000281626596e-03,5.289493520361444184e-03,8.550538897217506776e-03,4.961452256192114274e-03,9.092669918103016627e-03,8.155728499419791222e-03,9.241201458780311587e-03,5.627954696987952712e-03,9.094057078669013153e-03,6.372483097968212502e-03,9.023629878307813657e-03,8.481593242491649101e-03,7.718340442466158947e-03,5.076517972389760734e-03,8.505260557847458061e-03,7.233789116939944724e-03,6.707118793681344365e-03,4.777785253853624424e-03,4.660721385269336881e-03,8.286213748347075886e-03,6.815950615378118561e-03,7.013227835786783014e-03,8.975401869294749937e-03,9.473675309052615942e-03,7.284856794087187642e-03,7.383376569410670179e-03,5.672850757319626396e-03,7.718204402642570537e-03,8.727971989610084150e-03,5.666124096253884017e-03,5.833195290570495836e-03,5.982579046037708390e-03,4.928161845575805902e-03,8.413445735116200849e-03,4.663975410431744038e-03,4.986483789905002406e-03,5.778738216923441293e-03,8.059008306900577318e-03,6.945910417455842048e-03,6.130376916196065944e-03,8.504909439185746531e-03,4.520533032160219122e-03,5.160156733934164255e-03,6.177282101726949866e-03,7.472313809174179443e-03,7.770444209683947771e-03,4.755924472291330959e-03,8.789407449587260598e-03,5.802393928467969482e-03,6.998860779415016879e-03,7.401929913904699981e-03,8.237503349381437162e-03,9.412817744495859465e-03,7.666161985624656873e-03,5.170486888888161173e-03,8.110964789585275656e-03,6.600243980727227289e-03,8.562963609894268593e-03,7.552405748696624545e-03,6.906564717013652030e-03,4.527279379473729722e-03,8.142258959052033410e-03,6.735340073796608831e-03,7.467424551040695128e-03,5.217736266015900008e-03,5.260593188509124149e-03,7.175520385353626948e-03,6.688927136112778928e-03,5.755089380036132463e-03,8.812971214128570083e-03,7.150293840050501656e-03,5.521815160748123376e-03,7.976470825374145160e-03,8.940511260750842737e-03,5.990531717454457283e-03,9.307572009536793298e-03,1.011856929313649338e-02,9.832597197901247685e-03,6.220750166111137583e-03,8.351141384711938814e-03,8.744391622054110275e-03,5.444214147193146731e-03,6.275338954341987477e-03,5.296698617091642400e-03,6.195943268433207717e-03,7.600403872929728001e-03,8.549161140703559481e-03,6.017096232684012239e-03,9.544527465150649467e-03,8.308574604728634350e-03,7.241744718646080624e-03,7.196531136313573211e-03,8.772263413039819990e-03,8.536545942018252883e-03,8.215998609235154043e-03,7.607136914181007389e-03,5.776594528845833791e-03,8.055553806938420616e-03,9.629527715960895309e-03,6.451037403964610638e-03,6.298021242048712671e-03,7.024221894549638988e-03,9.711553808712023936e-03,7.442542221912100582e-03,5.234780156399217871e-03,6.374063173483404850e-03,1.025251066085357265e-02,7.579632828351074575e-03,9.719373654036711843e-03,8.514227780380993413e-03,8.134721186766438392e-03,5.554131942552631776e-03,8.200114631869015111e-03,9.571253560019584578e-03,6.491930176480556654e-03,7.511394617417983290e-03,6.138989513457940306e-03,7.439143840590824869e-03,7.065633743112463040e-03,7.747223608900809244e-03,8.885229556191882178e-03,5.645763508392949090e-03,7.633891587359826862e-03,9.723329227552689538e-03,5.412542034997723690e-03,5.739676225238238630e-03,6.513921795842332781e-03,6.376184448846143431e-03,6.108984021860738509e-03,8.583728540411252744e-03,9.053017176506228045e-03,5.819304660253224459e-03,8.724729489624782203e-03,6.714811243061646548e-03,6.475983085633385192e-03,5.688708567996502048e-03,6.509932206116670131e-03,1.018687075857723640e-02,9.146026521996948946e-03,7.625143739390774326e-03,9.753329004767585450e-03,7.683105232446047622e-03,6.768314534356095064e-03,7.306744573779678717e-03,9.142444235358194310e-03,5.683963481703772566e-03,9.026480516152358621e-03,7.741436483471393973e-03,1.007116125237866172e-02,5.912870235067683826e-03,8.749853953334949322e-03,9.592991939472775981e-03,7.326045938439854251e-03,8.943405772486513750e-03,5.200909419376165826e-03,6.404328979990235593e-03,6.400742211441748722e-03,9.750642402767656369e-03,9.734402729400589913e-03,6.651538129072067512e-03,6.444053406534214212e-03,9.033550729209340047e-03,1.004976248444083495e-02,8.062149203778002510e-03,5.012774440746818605e-03,7.677143796798461400e-03,6.005477963219675412e-03,8.182784087707973067e-03,7.352770828994956674e-03,5.695658252919239516e-03,4.670732063355593697e-03,9.107090877460238126e-03,4.928306407248644883e-03,9.361607576343612680e-03,7.340498808453092654e-03,5.962152941703166044e-03,4.982237931419231276e-03,4.744258457256443108e-03,7.996763420085119950e-03,6.549624961792125527e-03,8.357822556179714257e-03,6.970760800040560166e-03,5.794302353938097019e-03,7.813510219262926465e-03,4.835867346854183166e-03,6.379517770612430985e-03,8.083640801244315263e-03,6.745610726806246238e-03,9.297393550003175966e-03,6.977833923269065493e-03,6.437252313119285786e-03,6.801349665876079906e-03,4.331621547497469145e-03,8.369911826719672598e-03,5.111451680774766783e-03,5.547214479291999283e-03,5.155178190385721788e-03,4.828862841062707932e-03,4.490202744953534185e-03,4.950526440115238756e-03,6.856573263801845307e-03,5.959401733504083448e-03,5.355309378449896358e-03,8.979845972060241516e-03,6.379724296296536597e-03,4.886983210056064682e-03,4.686356534099171169e-03,6.525324225958259797e-03,4.754948464587902164e-03,6.780295303801957101e-03,5.747948414931185017e-03,6.626755882174617009e-03,8.374193987103565814e-03,8.949123854462955052e-03,7.471940421097496114e-03,8.999547081296492210e-03,6.392544428530953782e-03,9.193740114747167222e-03,5.003569583698393684e-03,6.076412641319479079e-03,6.263953367136996207e-03,8.052748967553306769e-03,4.858080852286697678e-03,4.759505697851762300e-03,4.331012915136755841e-03,8.542310470385677465e-03,5.322893208484139223e-03,6.604081241387099038e-03,9.276610689694568188e-03,6.074949084367941080e-03,8.406429374775807595e-03,7.671366527674805535e-03,7.237074320768774847e-03,8.906130903737721760e-03,4.406535696862501350e-03,5.719669789041401803e-03,7.448792211013939048e-03,8.247876848402791936e-03,6.366618587663555942e-03,5.974684159524792752e-03,7.787213949913587320e-03,6.256827864472980574e-03,8.427771738870963245e-03,7.609569887414668714e-03,8.271165468006316454e-03,6.691312321249482352e-03,8.170766331018139428e-03,7.761739439555066962e-03,7.438225368402539076e-03,7.649063112999434678e-03,6.678707180594451592e-03,4.671199005994956278e-03,6.893008698591814552e-03,6.836935515356456008e-03,7.551293819525548706e-03,8.322185512305345020e-03,7.391524748313738243e-03,7.725932359711958596e-03,7.453251815977554769e-03,8.125125730713637570e-03,7.216037552179374939e-03,8.546704632645080874e-03,8.988048835698439487e-03,5.050440199880639608e-03,5.932714384226105316e-03,5.448708053929234366e-03,6.214475606085755055e-03,8.724573074772288411e-03,4.849551650715986859e-03,8.792105674256539202e-03,9.252714873536948062e-03,1.052454951508651967e-02,1.096915235590162699e-02,1.234583899680510681e-02,8.125235810156204025e-03,1.622831144520737318e-05,-5.409371109554915111e-03,-3.003501538541544259e-03,-2.440678262769397332e-03,-2.610333965241067034e-03,7.568840064373763554e-03,1.621115974418101471e-02,2.630944921564305414e-02,2.351312932782770662e-02,1.997954751217988906e-02,1.321626132503843538e-02,1.048334643821431308e-02,1.164845344903905552e-02,1.011641665874731498e-02,1.221764495737173370e-02,8.490215938070849039e-03,2.363923729037032892e-02,2.949674973074420739e-02,2.304923435230161674e-02,1.902845582954092521e-02,1.695373107762465636e-02,1.386415962708362898e-02,1.214763338617055530e-02,1.315977887956326468e-02,1.610319716262904183e-02,6.038494481591278294e-03,2.113599689343882704e-02,2.865058127687667225e-02,2.648889150456450875e-02,1.686002708209488957e-02,1.850332918357933468e-02,1.383299707809978150e-02,9.418713948299874822e-03,8.198329012328713430e-03,1.110827646620872813e-02,5.077136188744722431e-03,2.252363554278030700e-02,2.439541914499470873e-02,2.066558180395441924e-02,1.456040115714164231e-02,1.062746533053444617e-02,1.178175697031456394e-02,5.173043405385364599e-03,6.012501196271474724e-03,7.949564809246793817e-03,1.738572429200082453e-03,1.835815398051179187e-02,2.406778171650903950e-02,1.556879164819257796e-02,1.124149813530591312e-02,6.568365207398832104e-03,4.077142637173378908e-03,2.521066497677190016e-03,-1.973668824512076272e-03,3.014253404133842434e-03,4.056722918168147868e-04,1.759804086322780056e-02,1.750351900774540712e-02,1.030352735269542477e-02,7.538031338736839518e-03,6.440913572092111031e-03,3.862484413343324208e-03,1.570074666064798230e-04,-5.601633402303715474e-03,1.026334229256593150e-03,1.293450649298095133e-03,1.767157214388776626e-02,1.694320965258877543e-02,9.780606451240063393e-03,7.429547286202415821e-03,4.219074444807168270e-03,2.453171184986252529e-03,-5.058065285813404671e-03,-8.650188167818479226e-03,-2.203738108088385689e-03,-1.272723037491867160e-03,1.530634665267169986e-02,2.082828707951073569e-02,1.337315749065689542e-02,7.810814069431432083e-03,1.709949730229269951e-03,-1.319877934492751093e-03,-4.061681374710976802e-03,-6.286019165508834397e-03,-1.577034165143043065e-04,1.529287186696422478e-03,1.825634208505404199e-02,2.179175208930620930e-02,1.562593943301153823e-02,6.522254137480303082e-03,4.132225656133149336e-03,-1.169114199641262467e-03,-5.360482694178460988e-03,-6.422246391948023894e-03,-2.229018467572735883e-03,5.431988411669655403e-03,9.854637899535303308e-03,7.019768919295656974e-03,6.185514574166815251e-03,5.572197245511677048e-03,9.412602982945205213e-03,5.799318271403140768e-03,6.118905185948801499e-03,7.883962907703363429e-03,5.166992316488100076e-03,6.650620877841335529e-03,1.003660151462663214e-02,5.629936055023079290e-03,6.083447787137336721e-03,5.965804903257867706e-03,7.236168847567662175e-03,8.378449695784582346e-03,9.065101810500611826e-03,9.241462871003330859e-03,9.656207111981191665e-03,6.103434329809530844e-03,8.033546501831575343e-03,9.820373360559206052e-03,7.085801479706835965e-03,6.519067963624418025e-03,9.256290945146222054e-03,8.253296736253362340e-03,6.222495650616458908e-03,8.636644479940797786e-03,6.596616508820156606e-03,5.222268483418259812e-03,8.189188567276217343e-03,9.325037558337918864e-03,5.774643056482916745e-03,7.119446809441233419e-03,7.056885532420256041e-03,5.909253920693121297e-03,5.635175954745962924e-03,5.107227877171358760e-03,6.329863548896113266e-03,5.093373910220632371e-03,5.632062876914444016e-03,5.258681208327244637e-03,8.826332742241030024e-03,7.373292119496900263e-03,6.008968373665397184e-03,7.744807026058213133e-03,6.497331697908971353e-03,5.394938064927184453e-03,8.042841341729195515e-03,9.639172285690137884e-03,9.539131587723698874e-03,8.818020244056243295e-03,8.584312252225657219e-03,5.911283444926124404e-03,8.702110442414239672e-03,6.869936752713559983e-03,7.976268653674170248e-03,7.432434799857086730e-03,6.302943051491291353e-03,6.810703242773667905e-03,8.308898516001276754e-03,7.859706694995933357e-03,8.603758004156761285e-03,6.071932952058659710e-03,7.871047523096282375e-03,9.472330383560942715e-03,7.132949867381226279e-03,9.736838499539750974e-03,4.973467603309056004e-03,9.174785762356637425e-03,5.406339351725705442e-03,6.094412014496015939e-03,9.756934898759339614e-03,6.120134759644625146e-03,7.344087615417434906e-03,7.580444427832772232e-03,8.203115205305283597e-03,5.766602724706738209e-03,7.154021918692171807e-03,8.100693865232483706e-03,9.847951448212604805e-03,5.677180421675588964e-03,5.992753869236359943e-03,8.947566456766403026e-03,8.639069671687465285e-03,5.391651365029438009e-03,7.320733418121816091e-03,6.852559263966707254e-03,5.888252667201471224e-03,6.535290936120441603e-03,8.070098056217224827e-03,6.645213595829364654e-03,5.995183012920696046e-03,8.527545321208593668e-03,7.142243645899841800e-03,7.401895744268654868e-03,7.146133571881699807e-03,8.361065455546870182e-03,7.305928345792582664e-03,5.103973737518884869e-03,9.199182340227785373e-03,6.862779058297198073e-03,7.501021546336182101e-03,8.351014495118441391e-03,8.879271401724238288e-03,7.624069658604375709e-03,6.921062457468448066e-03,5.651473907774430018e-03,5.942172026376421785e-03,5.194270121557068194e-03,6.962672958080323021e-03,8.242416324703551178e-03,6.575464181148102209e-03,8.222964093816637760e-03,5.977991121014594386e-03,8.762949060627004197e-03,8.011275939539650934e-03,8.448761521957160597e-03,5.273065606274327140e-03,8.157847643922045214e-03,8.244959664552724971e-03,5.188477459736689189e-03,4.856677375172173058e-03,8.971383670471483329e-03,7.672607497163198322e-03,5.622369972125909610e-03,7.539278003410245128e-03,4.710173948597409614e-03,7.310404009265981592e-03,8.240207655570373421e-03,8.669113941995652481e-03,5.426953802283224215e-03,5.181371992578008220e-03,5.249998416160138112e-03,8.117278188645450296e-03,9.338782565972291935e-03,8.643514087844188232e-03,5.451739359722233488e-03,4.854498889054317638e-03,7.617683805133859849e-03,4.487046697970836252e-03,8.280925224735821710e-03,4.602721588002098990e-03,5.459674502460326248e-03,9.191147545247741260e-03,7.439886139593240334e-03,8.125917789095613367e-03,9.268468186286987764e-03,9.419290872176142373e-03,7.419298452548903251e-03,6.632645473062679688e-03,6.945848198556543729e-03,4.917359720822485521e-03,6.640096136764756483e-03,5.467706498292027560e-03,8.702537560044833198e-03,8.935150716310251776e-03,5.476600766104521706e-03,6.952321807252663174e-03,9.347571663467250588e-03,9.200928714877517137e-03,5.253516402446755350e-03,5.822206235808981625e-03,7.599385104249802535e-03,7.743622717263425222e-03,7.267672000704499154e-03,8.193909618481395526e-03,8.561612869666690787e-03,5.199228503954348921e-03,5.890430575391981775e-03,9.281228472693737325e-03,4.565057605609786247e-03,7.244495342241958832e-03,7.071917720493135252e-03,8.653434025277587094e-03,6.845936611657013615e-03,6.102906528247496049e-03,6.930236459100956245e-03,8.020508342856808026e-03,6.338781532953574431e-03,6.113076195337972633e-03,7.574208327542083542e-03,6.490502586081334929e-03,4.957487258692793754e-03,5.507412723689642658e-03,8.546553881274421630e-03,6.200855454465942218e-03,4.897495574148837821e-03,8.027635870428621520e-03,9.218364587955290082e-03,7.212746914367362122e-03,4.840997235529080275e-03,6.709911368862271283e-03,9.134814289857970740e-03,8.996870113997830834e-03,9.379037703199475870e-03,5.240467771602991959e-03,8.991476382063280301e-03,6.290217951287314403e-03,7.058118768680354121e-03,7.029870018947153437e-03,8.369750639055664743e-03,9.393276944219453375e-03,5.705233115374842151e-03,8.937388857388274196e-03,8.389867355539079585e-03,5.660302072730429186e-03,6.103671481259232735e-03,5.699981689640832953e-03,5.202541160237119343e-03,8.205121027997936550e-03,4.882422928094711304e-03,5.975343750812120956e-03,8.767925478236755082e-03,4.707256334153846894e-03,4.857722727593238345e-03,6.695022744604814564e-03,6.800639921093277855e-03,6.998287711552396602e-03,5.447876329134855589e-03,5.217739510925636752e-03,9.143685052996577967e-03,5.271326296191940555e-03,6.187284341998805504e-03,6.454352032656113930e-03,8.934638840047529756e-03,7.293770683832703772e-03,7.560117498161557890e-03,6.000730977944810328e-03,8.877155081222809149e-03,6.034496443205186397e-03,6.983003098932214631e-03,8.180046045042644806e-03,5.392851336825352920e-03,5.575181422040668272e-03,9.108919767738338225e-03,7.572777967455378983e-03,5.797605276975140685e-03,5.930864157400374086e-03,6.692908227445782711e-03,8.770062522571739697e-03,5.393391722238030650e-03,5.421316856032900623e-03,4.803236276268321378e-03,7.233196623250197875e-03,5.151466199669814047e-03,6.576586412637766554e-03,7.068661261457027424e-03,6.146550780384057479e-03,6.819812362293649691e-03,9.090616019495331712e-03,7.903441605293277938e-03,6.454921842620384674e-03,8.119768611983322823e-03,6.374622797579095577e-03,5.813170827588316769e-03,8.274591928232802665e-03,6.588816178408583857e-03,5.191898547178045407e-03,5.664426124445910357e-03,5.207837373505555360e-03,6.924353866841230151e-03,7.597595029724190513e-03,