5.753104070843068768e-02,5.951329690506802078e-02,5.758709286885598660e-02,5.862891293921156793e-02,5.780049926589488074e-02,5.909537413268303729e-02,6.114936915336013912e-02,2.213054082409120216e-02,8.293944911714637089e-03,2.109676005365101331e-02,-2.283353435255336406e-02,-6.873713068273558380e-02,-4.758742349926940035e-02,-1.001704556160072125e-02,-7.577152137141715538e-02,-4.011229986865950947e-02,8.050645238901962819e-05,-7.218898748202463855e-02,-2.303009287655349499e-02,1.490181762187732170e-02,-4.938797883379830722e-02,5.692253317037745432e-03,2.867178251160775598e-02,-2.565152658558900872e-02,3.587307222818630903e-02,3.899608297552883962e-02,-9.235115913495593742e-03,4.282142303090173685e-02,3.747197879999296377e-02,-4.048266089516002267e-03,4.048669803467620093e-02,5.245182277083499517e-02,5.775367372075776440e-02,5.638867077681405937e-02,2.191052971810184685e-02,-4.079504694547987989e-03,2.017389504890954033e-02,-4.693781599810362137e-03,-7.613354849774431332e-02,-4.804965854383284884e-02,4.037700009152917109e-03,-8.954682921689831321e-02,-6.621705727583516998e-02,3.593379545290697336e-02,-8.060227469333199057e-02,-4.922885876261830912e-02,4.879884961878769994e-02,-7.485767871592673151e-02,-4.396197290365994048e-02,4.599722150169639756e-02,-7.551203299720793405e-02,-3.835071286225238962e-02,4.674540402474586936e-02,-6.928268203129307745e-02,-2.389531195560539931e-02,5.257766640851146978e-02,-4.516821073289110922e-02,-8.427664324260758510e-03,5.455460097689621840e-02,-3.568898378236005919e-02,-6.425006821156920706e-03,7.504992359134972368e-02,7.996994686452758849e-02,1.045374282993557780e-01,-1.198504584359894216e-02,-6.518709184750014207e-02,-2.024776265521794835e-02,-5.160424953661452152e-04,-7.346784049054258525e-02,-3.995775072465684863e-02,6.014920735970386012e-02,-2.042886053314930256e-02,-3.572344225957630945e-03,1.105182502667653027e-01,1.243542256744772749e-02,2.528230330906603568e-02,1.276422236409827105e-01,2.132072502449500195e-02,3.602048329696997536e-02,1.279783597740137557e-01,1.461221743710958837e-02,2.854064852055891721e-02,1.136771948440215285e-01,3.349382377833399257e-03,2.329962386082407369e-02,1.014375628271929480e-01,3.867408675138191577e-03,2.107091050899249224e-02,9.918257138362908398e-02,1.356600759317835685e-02,2.679644640203910841e-02,4.999778692881595016e-02,5.774964106380509055e-02,1.263350141908486657e-01,-2.812616480648021805e-02,-8.385993381177085648e-02,-1.766242098140072964e-02,1.868567799266900031e-02,-4.489850659513736075e-02,-6.668341244078946663e-03,1.095391380791593816e-01,5.394766693832016985e-02,6.813117807685313554e-02,1.664479135610311689e-01,1.026819573380683692e-01,1.041190100800615664e-01,1.886705092658376992e-01,1.113534040488593224e-01,1.086278800237492209e-01,1.836663558961129095e-01,1.021292535225462178e-01,9.412665454655742836e-02,1.695580866311323098e-01,8.850877690185114666e-02,8.229568972015900707e-02,1.507757686195277114e-01,7.709419452827513675e-02,6.797156873862698900e-02,1.456103202127619345e-01,8.105857201198708728e-02,7.194687028013987962e-02,3.802324153422703690e-02,4.602863382369729028e-02,1.527303594411997256e-01,-3.318615611440983715e-02,-7.253471710387331128e-02,3.192580562047736895e-03,1.954277191845182546e-02,-2.435498852521836982e-02,1.558943371668370173e-02,1.059187857036713032e-01,6.840571858970330432e-02,7.806727326742576856e-02,1.559071776744535565e-01,1.159007109024152576e-01,1.113561887273644413e-01,1.796126021665343797e-01,1.311606784618787047e-01,1.192704659764015074e-01,1.756139612295143926e-01,1.208167806216557671e-01,1.056841858694714670e-01,1.647286838543202681e-01,1.141389838853712063e-01,8.761058652903019883e-02,1.467003699889458390e-01,9.317806479090469385e-02,6.851457478472844365e-02,1.422339252354300476e-01,9.727774857958902677e-02,7.170269703443700460e-02,2.279017643978181046e-02,3.867416562894882004e-02,1.666357675455504839e-01,-6.798982049474243394e-02,-8.787389691326194519e-02,-2.208298815910818974e-04,-2.361744148445606498e-02,-4.082582792489113793e-02,4.159940331227204510e-03,4.510880336130929091e-02,3.318951038850644075e-02,4.644036545527843035e-02,9.306127630956149976e-02,8.428885372552442912e-02,7.590366606199522304e-02,1.138673971668452828e-01,1.019658295915371188e-01,9.109147433442006669e-02,1.154787888481282887e-01,9.541979498927811998e-02,7.520812320705208553e-02,1.073082449072935013e-01,8.482911890108295327e-02,6.005599294830711588e-02,9.102224588054662335e-02,6.855864140223724701e-02,3.871322743710666620e-02,9.472416395145857870e-02,7.099761617446875839e-02,4.362457523057514802e-02,2.160647608091282451e-02,4.955773212580051601e-02,1.944754232432912844e-01,-1.193023967078019471e-01,-1.108462660437323777e-01,-9.544412520276501083e-03,-9.222942799510913670e-02,-7.547355382771682442e-02,-2.404925049693863032e-02,-3.555934415692341838e-02,-1.670690631912715232e-02,3.676719463947058890e-03,5.814660276497185531e-03,3.044886125197100377e-02,2.290466631706485762e-02,2.982553439938150780e-02,4.900132758424507323e-02,4.186687093090975947e-02,3.352662377415366324e-02,4.915205656933130385e-02,3.240515917710737326e-02,2.707757487193668267e-02,3.590380305329698984e-02,1.916635956662911602e-02,3.297808097064633404e-03,1.548046027176205527e-02,-9.265516202967819318e-03,1.383840282339563778e-02,2.873709093366241113e-02,-5.411233310551345592e-03,2.540131868745959531e-02,5.549312145790190332e-02,1.883607295743127408e-01,-1.646625839487345644e-01,-1.435212404466647274e-01,-3.591360026174765518e-02,-1.748159144257152298e-01,-1.395944585921916892e-01,-8.204840331971033351e-02,-1.366936880753775729e-01,-8.816647791954826396e-02,-6.400235953822069890e-02,-1.101853950042490926e-01,-5.167636803438055426e-02,-4.203099287350060831e-02,-8.909462346351376683e-02,-2.832373579119787030e-02,-2.654116513289059287e-02,-8.765341733813838965e-02,-2.813404044011821176e-02,-3.870408456857891977e-02,-9.436138242637497064e-02,-4.324259519352391390e-02,-5.717732775437348036e-02,-1.155525867391233447e-01,-6.334020664021068614e-02,-8.237910117999962256e-02,-9.829771833846072393e-02,-5.186567426595906777e-02,-7.306964301726458222e-02,3.170797291534978302e-02,5.407363038951021328e-02,1.783656254919559481e-01,-1.636210951782117728e-01,-1.352119872673948342e-01,-3.660386795855882086e-02,-2.214759150823739364e-01,-1.737582938959907897e-01,-1.127608610891251140e-01,-2.152101662099003276e-01,-1.460802942208871968e-01,-1.201815525971982324e-01,-2.017785609836767746e-01,-1.204946736810122709e-01,-1.105371006578324683e-01,-1.925086983407461871e-01,-1.034023298520598821e-01,-9.250336349546284254e-02,-1.957063810692550310e-01,-1.088415318535912585e-01,-1.041878405798136731e-01,-2.053329688134453435e-01,-1.177906895235449058e-01,-1.312537318309522083e-01,-2.127502360179095997e-01,-1.402913461773122594e-01,-1.499971666608483634e-01,-1.824813328786065447e-01,-1.145848992688753565e-01,-1.340950296061990954e-01,3.428539669647719113e-02,5.663882938096423403e-02,1.647214861376477546e-01,-1.384477111071666655e-01,-1.135275629871278780e-01,-2.901214829093872252e-02,-1.985845531456457702e-01,-1.499433767671436712e-01,-9.836527361644772927e-02,-2.092102853547867236e-01,-1.383305052302892801e-01,-1.112278162370411438e-01,-2.130497321431532309e-01,-1.273967659463654534e-01,-1.077592521129739495e-01,-2.104036967213441800e-01,-1.166829986280524672e-01,-9.981603067464692169e-02,-2.135270616058060900e-01,-1.145061559547542740e-01,-1.132395936112840507e-01,-2.149882962818620569e-01,-1.257016105879904810e-01,-1.317043446608626989e-01,-2.233588152387776526e-01,-1.394361974146062777e-01,-1.520634158693216220e-01,-1.961500072738002753e-01,-1.191436312604461228e-01,-1.348637679813470547e-01
-1.326241602549915188e-01,-1.485269989409452318e-01,-1.500557942044665749e-01,-1.540354706248772132e-01,-1.599164842918950891e-01,-1.600251582193686906e-01,-1.672679010924621179e-01,-1.532297294994342807e-01,-1.529781573794961047e-01,-1.617614855153220454e-01,-1.179965558781063129e-01,-1.108695423793903678e-01,-1.051657798793067949e-01,-8.530769709685423474e-02,-7.364700022338441232e-02,-5.894327388999383299e-02,-6.887148294102528323e-02,-5.316357075712128955e-02,-4.883380815755820198e-02,-6.629235421492568614e-02,-5.261788381074221366e-02,-4.346365464088530750e-02,-7.189978080258624393e-02,-5.738961957663488156e-02,-5.042988443693934009e-02,-7.848589228811186924e-02,-6.627525400378209142e-02,-5.783657084454683905e-02,-8.384046395925158490e-02,-7.441926409532521880e-02,-6.715545838032370429e-02,-1.432633099322264125e-01,-1.423847484275868047e-01,-1.415189428119473791e-01,-1.369494738584469129e-01,-1.348267245042857887e-01,-1.323174414951322486e-01,-1.156835650039650526e-01,-1.041148233195676454e-01,-8.501957757636238733e-02,-7.063524237203594458e-02,-4.959377579983267892e-02,-1.818229710916426101e-02,-4.277565795036061130e-02,-8.929042236647739481e-03,2.043303951175104438e-02,-2.100148133576573706e-02,1.018290722930358105e-02,2.034583185872043676e-02,-1.540338254698703745e-02,1.323913398200003005e-02,2.568747739252329187e-02,-2.571673500760342582e-02,3.897331964873284975e-03,1.364963254841640439e-02,-3.371425119805326193e-02,-1.011588131722935581e-02,1.009579384993563103e-03,-4.307902457806048191e-02,-2.222974029618229874e-02,-9.419898637901802027e-03,-1.411869960410470637e-01,-1.381239607924544255e-01,-1.351008622578539486e-01,-1.199230010087529025e-01,-1.117594685670059568e-01,-8.882921856976359887e-02,-9.385299506027303118e-02,-7.015291344648875993e-02,-3.212361817532927849e-02,-4.889728556870786419e-02,-1.395030103716819042e-02,3.379919024773588715e-02,-2.189878649236179364e-02,1.506142450539553826e-02,5.405441830725721264e-02,-1.207740771766525716e-02,3.121249120654997350e-02,4.675803092534343980e-02,3.604250866519407258e-03,4.021940358870343402e-02,5.056683304601543305e-02,-9.345368346587046987e-03,3.193191752160963459e-02,3.584082334606257525e-02,-1.636951832300916759e-02,1.850948978247902305e-02,2.540771664040977762e-02,-2.571513034632723349e-02,2.897227054573579645e-03,9.637950023809092881e-03,-1.317051129797184306e-01,-1.222943895346966930e-01,-1.112009894138761279e-01,-1.039853817138606945e-01,-8.405809890565893450e-02,-5.033164166396234679e-02,-7.166976226864031629e-02,-3.777484445538994984e-02,4.391495460898840394e-03,-2.814782510582487796e-02,1.870614434614770172e-02,7.398925117650967387e-02,-2.061516055779505363e-03,4.609888648847913772e-02,8.490581038098148070e-02,4.756416707300749509e-03,5.613782582329750193e-02,6.836621956511867992e-02,2.083521994321253790e-02,6.616681202817879803e-02,6.957057743098153668e-02,1.170097424057270352e-02,5.719645513329543740e-02,5.442648330142656893e-02,3.578523170350404042e-03,4.329514216254608944e-02,4.624386765961691070e-02,-5.780202543677699992e-03,2.929615337017252991e-02,2.831566296663849680e-02,-1.108702815495186400e-01,-9.309974894150785385e-02,-7.716885153486370552e-02,-8.093078207780535216e-02,-5.100777689430600198e-02,-1.328567962493696665e-02,-5.067677959649057040e-02,-1.053459429770040902e-02,3.891970080747008537e-02,-9.933527392068300724e-03,4.103249257725823801e-02,9.715492835916338110e-02,1.182226370073291566e-02,6.822257874128033472e-02,1.049418312387528363e-01,1.887816229510028143e-02,7.339704372968149093e-02,8.740923257659857781e-02,3.626430309446433686e-02,8.858833555032419316e-02,9.048597694979711170e-02,3.006426228963920977e-02,7.672906449368502302e-02,7.728060422546847996e-02,2.329611743317054617e-02,6.465393508501714182e-02,6.311120779023839111e-02,1.360948676391703777e-02,4.967529645383356174e-02,4.868138310679250014e-02,-9.338317069449521279e-02,-7.179818125487089087e-02,-5.048103963654666793e-02,-6.231124544778874480e-02,-3.034742282053442403e-02,1.364782009141640370e-02,-3.371727344620301797e-02,8.690871118250511132e-03,6.332039144091128335e-02,1.129506273593712702e-02,6.107869939030027839e-02,1.232290342759298774e-01,2.588697857909717098e-02,8.771416320004479794e-02,1.299300391702338520e-01,3.791682360746189556e-02,9.369258382192921508e-02,1.155812257909867163e-01,5.534820229631672028e-02,1.080328706939430589e-01,1.185995607784780803e-01,4.647758202893127050e-02,9.670125034043038081e-02,1.002931772184923048e-01,4.129665376706453950e-02,8.693454003802496277e-02,9.092676095861604302e-02,2.955189377740471274e-02,7.412275747926157232e-02,7.569455315772274928e-02,-8.834735753408963499e-02,-6.841640740062744641e-02,-4.628979163567108202e-02,-5.063203576471878714e-02,-1.726111323488820765e-02,2.174580241712373296e-02,-2.392493419883313238e-02,2.464025871583450794e-02,7.811759017173044994e-02,2.152761569119446272e-02,8.087859320036408506e-02,1.445337288518220853e-01,4.176377361258207938e-02,1.068003645830073178e-01,1.515654695427182397e-01,5.044043341053178892e-02,1.135844856405850284e-01,1.342852556523695395e-01,6.901263473241457669e-02,1.263016343826832422e-01,1.361776874318850750e-01,6.423217942711395567e-02,1.161277339614951998e-01,1.221898660703039652e-01,5.250527284116140309e-02,1.044049341174763390e-01,1.112072566988118183e-01,4.604142995495114077e-02,8.989154884156617953e-02,9.571766919554522413e-02,-9.220350012990648214e-02,-7.456540522360567691e-02,-5.931415086269651443e-02,-5.642555623388496172e-02,-2.026050286348701074e-02,2.097596066702178685e-02,-1.985986555544601989e-02,2.514663351956165915e-02,8.250753160381250895e-02,2.382846699285433995e-02,8.442564977727608222e-02,1.502185838298660814e-01,4.214042029915954224e-02,1.049818896895500786e-01,1.554272271809072903e-01,5.020331539920809549e-02,1.108253489154626542e-01,1.340161541641479714e-01,6.558401413522389756e-02,1.237059344365479679e-01,1.341221705789934493e-01,6.446166041436521277e-02,1.175710059438424826e-01,1.202393616464345061e-01,5.592205685549571370e-02,1.057449374890430255e-01,1.143710728687096362e-01,4.566350415288199932e-02,9.036480163310023350e-02,9.723181278999203092e-02,-1.015343824059918298e-01,-8.229710616246312116e-02,-6.992434886781745407e-02,-6.300407622354149695e-02,-3.179456658250458950e-02,7.487950814651889511e-03,-2.519155585330862257e-02,1.654651583042465041e-02,6.749614074904011773e-02,1.549369725652768176e-02,6.992292646531789169e-02,1.275429815471985084e-01,3.187112641449969808e-02,9.278636439576321004e-02,1.334558638845177725e-01,4.117343946310710046e-02,1.027918649512049865e-01,1.172874952770990853e-01,6.469508825263300955e-02,1.172096783561567268e-01,1.229929322601010233e-01,5.785052455454375159e-02,1.108131670913643230e-01,1.116529636583352830e-01,5.475895679736918209e-02,9.932444793248834669e-02,1.027657338351548322e-01,3.987685792157677489e-02,8.354964786374538543e-02,8.688224463361668426e-02,-1.001369101542619877e-01,-8.893351728012137414e-02,-7.279212398302256637e-02,-6.664988708477842527e-02,-4.254504178269123693e-02,-7.502293818677613704e-03,-3.899971994193551783e-02,-2.982319936243160025e-04,4.726073567921332264e-02,-1.018887530283623874e-03,5.107780864191575204e-02,1.040342410645431481e-01,1.742979790313750610e-02,7.126444237715812147e-02,1.079883655893681127e-01,2.845594189339951952e-02,8.002333008302991990e-02,9.435368204489905097e-02,4.870513212022918592e-02,9.716960034204162600e-02,9.591403183457629378e-02,4.536158000042307681e-02,9.032232746617716024e-02,8.815015803462165900e-02,4.089021568063591627e-02,8.286760566011251716e-02,8.276901680859492794e-02,3.001840941966377879e-02,6.637600585123891450e-02,6.824535872687102767e-02
-4.322658153665696890e-02,-3.739647064441160157e-02,-4.417149392100108707e-02,-4.045864307888777378e-02,-4.701025971889830762e-02,-4.643696786670321874e-02,-4.787608193562976899e-02,-4.407474491220626789e-02,-3.583519537438430158e-02,-2.447500022155138510e-02,-5.493300704730097461e-02,-5.295097567658005322e-02,-1.078574305218880230e-02,-4.487673347023497794e-02,-5.112505438886083553e-02,1.575613922334330452e-02,-3.533954873122693852e-02,-4.866652730486330930e-02,3.609736248347668319e-02,-3.306774143502023977e-02,-4.140494365550211053e-02,4.442675454108586941e-02,-2.557260887456098281e-02,-3.029260819489389828e-02,4.865399631435637223e-02,-2.648137366499797585e-02,-2.761866780758572698e-02,4.063492771007005955e-02,-2.858489379817256981e-02,-3.288675475196037312e-02,3.081908182014708036e-02,-4.432533829665406822e-02,-4.386027766090580537e-02,-4.333798781953566992e-02,-2.939473910766698256e-02,-9.207184168757978279e-03,6.025492365470149284e-03,-4.213440127356828102e-02,-3.752564455498219598e-02,1.235061716199696395e-02,-2.880008830199500686e-02,-6.469024335079667787e-02,1.844533553105717066e-02,-8.183589112080879094e-03,-7.208127601908408122e-02,4.056703976688878083e-02,1.083847584281535416e-02,-7.478173733850984606e-02,5.973945167969441083e-02,8.845244913011314492e-03,-7.695411339818455931e-02,5.970640485839942557e-02,3.367310763544280848e-03,-6.838423836745162465e-02,6.456082527201248422e-02,8.720608615213627790e-03,-5.254562595791253954e-02,6.657081759638365515e-02,5.541771336651248568e-03,-4.654479493703851667e-02,6.153985790863662070e-02,-3.433406111634977609e-02,-2.623756555266046342e-02,-1.894507216131351840e-02,-2.600861387117090612e-02,-9.157409560167098506e-03,3.710025246623797901e-02,-4.263857679526639188e-02,-7.533251700426010777e-02,5.295002697422476583e-03,-2.698886661755267938e-02,-1.166944633519008678e-01,-3.546942617866026548e-03,1.236636929802787006e-03,-1.236853750742843011e-01,1.000561891078101916e-02,2.250532668221816301e-02,-1.237028684578235505e-01,2.758157372875594954e-02,2.429790095351677670e-02,-1.365156397184747461e-01,2.584264325723415606e-02,1.446927784034127487e-02,-1.311434584220870225e-01,2.849442463919390003e-02,9.932235956671104510e-03,-1.154717122820121955e-01,3.746722454166009908e-02,1.208241923037001002e-02,-9.610467850136528156e-02,3.917112625524126618e-02,-8.983431764966838193e-03,1.335344876350057566e-02,3.997705162039413146e-02,-2.502873035018558442e-02,-1.420071367135992621e-02,5.345680221955445566e-02,-3.914063068304310389e-02,-8.880381350943178376e-02,1.538451994946217136e-02,-1.559137887094095426e-02,-1.236507471394741042e-01,7.660658388985228454e-03,2.217184699427212843e-02,-1.297843959568659722e-01,2.279257784226101230e-02,4.794406409279220599e-02,-1.302293111692393313e-01,3.235113559306304620e-02,5.346010198158870214e-02,-1.399845565714121498e-01,3.087655223283229319e-02,4.105464699808877849e-02,-1.493160825661855318e-01,2.061821641378597594e-02,3.156424551924782301e-02,-1.345941107908069090e-01,2.656031776494059693e-02,3.238387406023033460e-02,-1.151497039927198845e-01,3.119968103000887380e-02,2.193831355815839199e-02,6.958352157124050863e-02,1.034137373379792474e-01,-1.348330868166759851e-02,-3.709606288425587942e-03,8.712197367303933793e-02,-2.232653032464500600e-02,-8.078722644540621556e-02,4.171890459964669451e-02,8.922926731040694420e-03,-1.011682617472206558e-01,4.735402799916117039e-02,4.513275813646786677e-02,-9.758612816696347891e-02,6.743296099323209392e-02,7.078403153880255538e-02,-1.045786218081360130e-01,6.789180037306769000e-02,7.584685734461210638e-02,-1.240919345347576142e-01,5.419816373638079027e-02,6.584701328679942733e-02,-1.381529023446727011e-01,4.075880657520495470e-02,5.393929202786633403e-02,-1.337707950913732680e-01,4.068176423648931644e-02,5.052572055280532548e-02,-1.118955267345866922e-01,4.744770902609366653e-02,5.582343584503622613e-02,1.150152653623498084e-01,1.577001311858061139e-01,5.582309908798537001e-03,1.251430642724477363e-02,1.114533937673608394e-01,-1.224211542036283268e-02,-7.038336776845681431e-02,6.121721526300323568e-02,2.051329536101844861e-02,-8.578416488310763865e-02,6.952976798759837040e-02,5.870417586925928688e-02,-8.054598336808919956e-02,8.361945483999055906e-02,8.147819125428787390e-02,-1.003569330552778055e-01,8.204180827812916632e-02,8.923915656445660649e-02,-1.165872245696438908e-01,6.700461434388964299e-02,8.103811481426873020e-02,-1.304036957290956589e-01,5.062899916568391195e-02,5.982262752874424605e-02,-1.318413544246393176e-01,4.458121935085004178e-02,6.294011187827643072e-02,-1.033583141202946004e-01,5.109357277903304323e-02,6.907012620049053642e-02,1.357885580620948329e-01,1.772323022838845352e-01,9.606234309030445284e-03,2.349418181812635426e-02,1.198663885330759904e-01,-8.434500857754205494e-04,-6.532204860949430980e-02,7.008150415144204226e-02,2.877468201105910783e-02,-8.307212063007063385e-02,7.802632626616176625e-02,6.537709526729644505e-02,-7.969631265611180904e-02,8.614382246082945283e-02,8.729018701942788117e-02,-9.365643399213367803e-02,8.070706932259848199e-02,1.019849381256531518e-01,-1.111386912413269562e-01,7.010946782203193728e-02,8.819744693179856765e-02,-1.287583993895074219e-01,5.188931637920276424e-02,6.970922214358037106e-02,-1.283477665118129274e-01,4.449034754411360787e-02,6.730140715612772939e-02,-1.057256025794037491e-01,5.166922226586533745e-02,6.399717620966449694e-02,1.206894228961831878e-01,1.618998668621678683e-01,1.766914143231480133e-02,3.131519519616476205e-02,1.230196823274712914e-01,-3.185933593063420589e-03,-6.382733291295948630e-02,6.361303253909300626e-02,2.447809176194062214e-02,-9.026862298937025908e-02,5.935628534615078333e-02,5.796190076131523677e-02,-9.314818138387971624e-02,6.850606033173260723e-02,8.277221418023777977e-02,-1.088865070471481816e-01,6.739248236163278283e-02,9.240977796515750797e-02,-1.183730011814419780e-01,5.228967233192347019e-02,8.316417510362042465e-02,-1.327248518851463499e-01,3.884319084097059838e-02,5.888304083868828309e-02,-1.388694314328665913e-01,2.617861578494712349e-02,5.851135520785170907e-02,-1.181963143726107168e-01,3.682263154306003594e-02,4.805607204848179326e-02,1.010111193533348162e-01,1.376944872209874549e-01,1.576984793108613184e-02,2.676437192370498958e-02,1.142047371530198058e-01,-7.263177192648580249e-03,-6.169397730029753391e-02,5.315589208700873675e-02,1.384545656934047138e-02,-9.550858559809066728e-02,5.010492137410867131e-02,4.512366596269942742e-02,-1.023942710503573938e-01,4.778504622755352232e-02,6.576363755494472885e-02,-1.120361257416812722e-01,4.924736466537470853e-02,7.712568289153813594e-02,-1.263814581283982663e-01,4.007875398854106319e-02,6.357636958946202843e-02,-1.400892422762247402e-01,2.534364355358964538e-02,4.384599026453150916e-02,-1.414951545017893164e-01,1.571990282292833052e-02,4.278162373494494297e-02,-1.230717300793752744e-01,2.104887488077863272e-02,4.064983936239520423e-02,8.928733392601925778e-02,1.189535273230479251e-01,1.059395326392845518e-02,1.964847702451113023e-02,9.732315308824378286e-02,-7.359115245612638141e-03,-6.085089989719854459e-02,4.273576994556970571e-02,6.431068295767678432e-03,-9.420514118977232898e-02,3.645472318837512243e-02,3.328669192966163953e-02,-1.033753109038596102e-01,4.080716741830370253e-02,4.974182388688210693e-02,-1.123951003974743984e-01,3.824047050019677846e-02,5.728988345135804794e-02,-1.231167184315718616e-01,2.677867634285951981e-02,4.337694763789618629e-02,-1.384957844195285614e-01,1.402621010311847632e-02,2.565041512734232004e-02,-1.403262822838308166e-01,7.552262977136960445e-03,2.618923861436583261e-02,-1.232108251750514277e-01,1.039148039044635041e-02
-4.295794126433841176e-02,-4.449227985293600224e-02,-4.422113820118118988e-02,-4.236089204747969100e-02,-3.911352246954726691e-02,-4.085136855840593162e-02,-4.286010302841955499e-02,-3.685289078483942882e-02,-3.195279362782609683e-02,-3.153397031317561189e-02,-2.711271177202942417e-02,-2.202300448646841990e-02,-1.243898425268626443e-02,-2.695279481540104050e-02,-1.413810529220575415e-02,-1.895485571967118338e-03,-4.258991522932101259e-02,-2.921745038568401842e-02,-5.235978949685620581e-03,-5.836054104550107702e-02,-4.454755119666118507e-02,-2.234590312503236670e-02,-6.637807562212716395e-02,-5.233691069146205466e-02,-3.130738008377900727e-02,-6.283814590251694809e-02,-5.184531375847773599e-02,-3.470823545196691229e-02,-6.025825729296023503e-02,-4.963729894799341624e-02,-3.591786277357379709e-02,-4.140471416781152381e-02,-4.051099239892626269e-02,-3.967955354416461550e-02,-3.603572493980994329e-02,-2.921654542338079225e-02,-2.804767766591319267e-02,-1.762459866828266358e-02,-3.596673727648831698e-03,1.622797254818003979e-03,-7.624608888305855689e-03,8.520461230266470828e-03,2.394426387015135063e-02,-1.505036949574440654e-02,2.321473618970506039e-03,3.006261269164919175e-02,-2.743348460430052038e-02,-8.131065750938040737e-03,3.173140488234198892e-02,-4.325139289991728614e-02,-1.482512553185172735e-02,2.335991273036312071e-02,-4.606152980814764986e-02,-2.199980120405204548e-02,1.894494510932851622e-02,-4.806870251528921889e-02,-2.653117279580227347e-02,9.172624788893041919e-03,-4.742650752026473376e-02,-2.869265639664706977e-02,5.502345524836321604e-03,-3.421072357644611844e-02,-3.105876785809243146e-02,-3.191515495011267717e-02,-1.872273667237791400e-02,-1.024607383915712711e-02,-3.830857584148675624e-03,-1.058049822699087816e-04,2.160346843052708687e-02,4.062553912710197002e-02,-5.622764331081157863e-04,2.608881907572434961e-02,5.479835221417193869e-02,-8.857205942029228868e-03,2.067707435940169258e-02,5.907490883291572487e-02,-1.977093055069435029e-02,1.342013476162171905e-02,6.197460694181552293e-02,-3.431074002660201849e-02,5.393593429705906619e-03,5.877519319514140639e-02,-3.348270759318324602e-02,2.995850641945655042e-03,6.196063413994107316e-02,-3.076362326121720100e-02,1.420755751467751848e-03,5.158820275139743006e-02,-3.272379653814413980e-02,-5.236439511388414972e-03,4.346493536320353290e-02,-2.707109670128703821e-02,-1.731407380286396208e-02,-1.350785175806975755e-02,1.415494573480552756e-03,1.644196821301258798e-02,3.771810583226395397e-02,1.123689062821570106e-02,3.893167954905636663e-02,7.413655762171843244e-02,6.840461875748131068e-04,3.389635829389313348e-02,8.128167673714468966e-02,-1.086605444145560123e-02,2.097728662360436730e-02,8.298508655106674736e-02,-2.611029669457059707e-02,1.484555222542372974e-02,8.071709952492764351e-02,-3.861924362090315976e-02,3.819906243577083499e-03,7.493084080567213867e-02,-3.640628225877425017e-02,5.595357701988226684e-03,7.488001880638094077e-02,-3.007586145826356139e-02,9.920139607653154917e-03,7.583805672004333143e-02,-3.298276065297766485e-02,3.211246294721381914e-03,6.715524362976718620e-02,-1.749781961061076113e-02,-3.825343123623033831e-03,9.986971907650771252e-03,5.466514739098269141e-03,2.620734975016372759e-02,5.845796597189976962e-02,8.758410914004243278e-03,4.498419298980205205e-02,9.357042811470785149e-02,-8.387902422116254308e-03,3.219666996160626404e-02,9.028329092355841246e-02,-2.377274789516290940e-02,2.053705355208262917e-02,8.859801097485626997e-02,-3.292726718544449621e-02,9.153759358700337689e-03,8.361344268236080290e-02,-4.728610671039779750e-02,-3.371951744272769919e-03,7.918931301534092027e-02,-4.280233056500923339e-02,1.454448307914582832e-03,8.351170687827753902e-02,-3.916263176057570294e-02,2.956474781261713911e-03,8.174577924403754470e-02,-3.548238947951423694e-02,2.243615523160893098e-03,7.558363666616399468e-02,-1.298691455551526791e-02,-5.785896929264740252e-04,1.872968071480951915e-02,2.595925786835397847e-03,2.978609260757663496e-02,7.035669724791365764e-02,6.407949381302142228e-03,4.684928277932245977e-02,9.786417877404603172e-02,-2.067328606281258752e-02,2.473634462638980500e-02,9.516130321226826116e-02,-3.489876013804642241e-02,8.829794731186715526e-03,8.880812561912404535e-02,-4.821224356740157896e-02,-9.174779836528053518e-04,8.133976429262262942e-02,-5.794809938910495950e-02,-1.221719571946970270e-02,7.622629462326639682e-02,-5.285643819844524499e-02,-6.241486503546115477e-03,8.045249646698818258e-02,-4.473083257464210288e-02,-3.589436904884216704e-04,8.224833000591205701e-02,-4.001453955242073590e-02,1.602795645789142388e-03,7.540775841281605052e-02,-2.048826174673336331e-02,-4.279981698977423227e-03,1.366837357192376284e-02,-8.338222994295565321e-03,2.093206520905723650e-02,6.166110711145143808e-02,-4.839556630422157252e-03,3.374511992165216828e-02,9.419642158734177484e-02,-3.086980475972327456e-02,1.557586797680581350e-02,8.611927810161294772e-02,-4.581130533429377677e-02,-2.551009333315474963e-03,7.880735194842898583e-02,-5.598099530478485575e-02,-1.298314411119834075e-02,7.110010570161201526e-02,-6.704841114683117442e-02,-2.237285145625794724e-02,6.659681415109708347e-02,-6.562011879372024736e-02,-1.646188872451588570e-02,7.588286441904529278e-02,-5.655780187832110811e-02,-1.014189264619865492e-02,7.938259879944378761e-02,-5.104631689403048289e-02,-9.106009029944697741e-03,7.257237414733637426e-02,-2.555196631510126687e-02,-1.106417102462789112e-02,4.703039456120904072e-03,-1.508693045598985885e-02,1.433806959494294576e-02,5.120254661830340309e-02,-8.500515184650791339e-03,2.922444742624311434e-02,8.913025824449265222e-02,-3.319697911771476995e-02,1.458644290293755266e-02,8.408464852425125147e-02,-4.645392815367571648e-02,-3.654292072502582887e-03,7.287930987536013483e-02,-5.854800484102274521e-02,-1.319879598146812480e-02,7.130833190696185542e-02,-6.523334815324878522e-02,-2.287083378093731842e-02,6.829733257305999061e-02,-6.091930641964925924e-02,-1.013816109972619575e-02,7.647229719509064660e-02,-4.992477870699942033e-02,-4.757686759882656484e-03,8.101173371701622661e-02,-4.159807358091631435e-02,-3.317182444351085124e-03,7.516147553917516821e-02,-2.528068480558690045e-02,-1.335688114869289060e-02,2.402607641476157962e-04,-1.951493317158787752e-02,3.013378296275811760e-03,4.112132400970670842e-02,-1.608718503239316144e-02,1.891925452738500019e-02,7.281252916666994257e-02,-3.567154760990448592e-02,7.547458869047327969e-03,7.012509775880242102e-02,-5.066596190424140639e-02,-5.963039441435515585e-03,6.379845890498463123e-02,-5.852746129878450693e-02,-1.532466224222461815e-02,6.344962737874368375e-02,-6.880945593196628740e-02,-2.277177917042336186e-02,5.886260605839607057e-02,-6.077693749800620188e-02,-1.277898477392541352e-02,7.107971162392155706e-02,-4.923786817488297329e-02,-8.311647762789741226e-03,7.286100962544161952e-02,-4.355362578457538936e-02,-4.259741913703699555e-03,6.751412497103669030e-02,-2.688153085118281244e-02,-1.787452519301846454e-02,-2.096073724503462812e-03,-2.512364933879152051e-02,-1.783737754833173914e-03,3.038943563966452557e-02,-2.282661251910525144e-02,1.168863946293649189e-02,5.893191037754103023e-02,-3.870984207664390775e-02,-2.344828416790843348e-03,5.782204054425298112e-02,-4.973687674058735464e-02,-1.412061630993157596e-02,5.187017019605262569e-02,-6.228101427749465485e-02,-2.304331198828942981e-02,5.150510411400487792e-02,-7.510921690162705722e-02,-3.343052511498203344e-02,4.402402611484824285e-02,-6.440545801653170532e-02,-2.423301464393114515e-02,5.710029138706644580e-02,-5.411071741123738010e-02,-1.562521205693464393e-02,6.130692980693327326e-02,-5.006066911855438367e-02,-1.146393955359269884e-02,5.485031889077334605e-02
-9.318062010845030996e-02,-9.064020384744986281e-02,-9.061553054297966092e-02,-9.388740572352359537e-02,-9.173868861571113364e-02,-9.030360706356793665e-02,-9.206969743094089997e-02,-6.977326928763949443e-02,-6.636852863317548035e-02,-6.271105467799506505e-02,-4.649680452225748994e-02,-4.032332997492558274e-02,-2.534637758305628708e-02,-3.792945229495401499e-02,-2.798415026225250374e-02,-1.628325431013034896e-02,-3.372772858682430985e-02,-2.196227965381004205e-02,-7.158376878834407306e-03,-3.324005973488557142e-02,-2.514717832200111247e-02,-5.603328763931172962e-03,-3.900901938163656851e-02,-3.214288335473775016e-02,-1.268939742386409469e-02,-4.779217843469138471e-02,-4.169300847543780386e-02,-2.268131700405993240e-02,-5.114705932394950777e-02,-4.480190185735115349e-02,-2.693505164672592433e-02,-8.998370403125875716e-02,-8.969411873217775222e-02,-9.043489503471353885e-02,-6.528816265257668394e-02,-5.811117407693987963e-02,-5.460168905742791845e-02,-3.188966014794428205e-02,-1.604502615044497288e-02,4.878456845191730604e-03,-8.762546527657701784e-03,6.029354023756330894e-03,3.399003252249647999e-02,-1.240882962333110170e-02,1.012282180468152860e-02,3.866453274034115095e-02,-1.381057188145688730e-02,7.275559748743026800e-03,3.563506224694180935e-02,-2.062448510817776678e-02,-2.549113742144144303e-03,3.287781470284287244e-02,-2.737664079316818461e-02,-7.265053289345760508e-03,3.116798771228398296e-02,-3.248394675633530654e-02,-1.610210251866396602e-02,1.867193636897989534e-02,-3.682264333251691890e-02,-2.073152079781537954e-02,8.212300677960344616e-03,-8.491076656744166173e-02,-7.813638765274605325e-02,-8.188243606077201531e-02,-4.329657199624158126e-02,-2.694347751716640038e-02,-1.924576682207568279e-02,-1.537107555264402917e-02,3.917209585704538310e-03,3.127768758431835605e-02,-1.120464601336633101e-02,1.445074256253646786e-02,4.463993800895129510e-02,-1.659784870308775306e-02,6.425012044564184718e-03,4.120501825802287688e-02,-2.968649988279432189e-02,-6.108574835597801317e-03,3.437604943930128165e-02,-3.879640952043884872e-02,-1.136498277238641094e-02,2.690418962766159133e-02,-4.201769989165096697e-02,-1.368308697690057141e-02,2.862076247017046604e-02,-4.067668282609525343e-02,-1.517979784280936578e-02,2.533292199646707682e-02,-4.597386563847211810e-02,-2.213622847181370701e-02,1.224549467217741008e-02,-7.619253617904141185e-02,-7.048848913374533565e-02,-6.841956494389811461e-02,-2.551801341484120217e-02,-1.171492469886559196e-02,7.126252358119807701e-03,-3.188213067294940091e-03,1.865836684368069737e-02,4.932019882593941668e-02,-1.287248669920980013e-02,1.681109112802854633e-02,4.603500876345967274e-02,-2.857212056949647028e-02,3.555784614013603184e-04,3.496194503851995233e-02,-4.000714432138064575e-02,-1.272965501891869938e-02,2.463972935969845762e-02,-4.985476281970006168e-02,-2.188336434975172995e-02,2.132500122166969617e-02,-4.656208611945689135e-02,-2.260917967913156357e-02,2.556271252552009057e-02,-4.254018883812193952e-02,-1.626675671142375351e-02,3.148463541226792506e-02,-4.901362662579450413e-02,-2.472340621610115766e-02,1.548022855567900841e-02,-6.127461717206142411e-02,-6.083144912820304812e-02,-5.926422661029479705e-02,-1.682268852052737351e-02,3.466708907960986547e-04,2.318293192633773606e-02,3.566853559459752868e-03,2.451752370926520153e-02,6.202405633267989854e-02,-1.020526891287902235e-02,1.898255570854952973e-02,5.185590046134398029e-02,-2.758197980858233950e-02,1.117307313326760046e-03,3.786807262217626452e-02,-4.051948172383411373e-02,-9.397094577590001802e-03,2.544907516769242400e-02,-4.829993551751388114e-02,-2.005718577295030267e-02,1.872559311589505268e-02,-4.616709946896369043e-02,-2.322731087259966021e-02,2.392421411614758034e-02,-3.844717719805604284e-02,-1.392568998826739304e-02,3.494289267628716833e-02,-4.024977456602055192e-02,-1.994786183171121108e-02,2.147053105792857269e-02,-4.576453156435668357e-02,-4.443369941140128815e-02,-4.073778309562473693e-02,-1.201095804281865180e-03,1.281890033777386383e-02,4.074138310119557183e-02,1.123168284519379667e-02,3.967431974686055907e-02,7.287227515154373614e-02,-2.644580935645509528e-03,2.446423136301803525e-02,5.704783621665035498e-02,-2.299729328087112695e-02,9.851502450753436141e-03,3.905972802974183589e-02,-3.384753448150087940e-02,-7.073028412548811386e-03,2.677027135470026048e-02,-4.637729237149112310e-02,-1.918766785918993995e-02,2.512811010295119829e-02,-3.977008296947640714e-02,-1.259364250928599743e-02,2.776057455315488962e-02,-2.858282256784249603e-02,-4.878095847172605332e-03,4.407664148753832889e-02,-2.940437768038525052e-02,-3.544780989302206108e-03,3.580252560409674656e-02,-3.582926068561818889e-02,-3.300092353993373806e-02,-2.326150671960731942e-02,1.510375864529754641e-02,3.320530854932939036e-02,6.871972884920467262e-02,2.585736515077258560e-02,5.934166025342385575e-02,9.785490723465098406e-02,1.226181981169559981e-02,4.205443153538845902e-02,7.897805531517097799e-02,-9.393747508506293531e-03,2.337889008776191518e-02,5.823087884814288906e-02,-2.124422654286649975e-02,7.278335543759943682e-03,4.639396274694974204e-02,-3.049894635149850292e-02,-3.151155812711231748e-03,4.008685466382450047e-02,-2.968237138241035938e-02,2.335043155815611469e-03,4.532816484734114582e-02,-1.424447392565002246e-02,1.247834698904760377e-02,5.995434230189362890e-02,-1.548719244651656363e-02,1.575437884446386633e-02,5.538283443173426523e-02,-3.636192453056119600e-02,-3.607265166952187962e-02,-2.762039441080456348e-02,2.546130897066480395e-02,4.707111996152164857e-02,7.898476195406498035e-02,4.343233263873325090e-02,7.548188869246261201e-02,1.202565622616578594e-01,3.256070983416851916e-02,6.650144300634974748e-02,1.024590050288819998e-01,1.230338503256281184e-02,4.419245572270684430e-02,8.288788503223393223e-02,-3.704977279197407304e-03,2.899846094283773865e-02,6.581974995262511452e-02,-1.269537950138975232e-02,1.752904503479005283e-02,6.159093287314933857e-02,-6.330705291011432673e-03,2.575125098533438683e-02,6.917488128125183489e-02,8.283475975613340328e-03,3.863722583677426520e-02,8.257405952826120388e-02,7.752478534484697967e-03,3.378657211685735795e-02,7.125555883043901972e-02,-4.295306096283617314e-02,-4.098018387822477404e-02,-3.631036296147923531e-02,2.094745792293014469e-02,4.201166130083612560e-02,6.808800621926140717e-02,4.545130183360610032e-02,8.342419185683061511e-02,1.191644260249605791e-01,4.318206451847885624e-02,7.926988710539312200e-02,1.149839645297854873e-01,2.749016930258400479e-02,6.129183751519250156e-02,9.801275324395687660e-02,1.523778859367432015e-02,4.854933455324862007e-02,8.235207898769095203e-02,9.799981062504818305e-03,3.971055127010140323e-02,7.442585608475567327e-02,1.516056580070043736e-02,4.797657759781440157e-02,8.653774229738621371e-02,2.451291051712662511e-02,5.433280000962390638e-02,9.413220479662046114e-02,1.952363253049985148e-02,4.908618059130961248e-02,8.556954690891512005e-02,-4.933471047811224114e-02,-4.611034498239488522e-02,-3.753458024156763884e-02,7.091775392171166884e-03,2.653115411334521639e-02,5.381310920840209899e-02,3.576685688919417627e-02,6.538960164539589504e-02,1.052805324641447188e-01,3.476473410082806664e-02,6.694815823327034121e-02,1.032425801883749689e-01,2.632092655029539055e-02,5.936315687195389129e-02,8.752098964223584132e-02,1.677548979905928161e-02,5.035418422042960140e-02,8.045453816306205597e-02,1.353605006919170184e-02,4.074913078410125067e-02,7.606664132741064455e-02,1.332011195784035124e-02,4.675567296745342799e-02,8.420002396523665333e-02,2.583321686155426802e-02,5.574519066352336127e-02,8.896119515976125269e-02,2.036322790984991526e-02,4.732744535951186049e-02,8.020699238170869716e-02
-1.299967362652687357e-02,-1.072493075624313293e-02,-1.301423924287943741e-02,-1.313128802412138509e-02,-1.266959894556592657e-02,-1.121824082180386019e-02,-1.196107680543511721e-02,-1.009823107010994307e-02,-1.039433045252360389e-02,-1.270609510518462028e-02,-6.916602784674038412e-03,-9.539176084045258505e-03,-1.107656044414993650e-02,-8.897492959815903740e-03,-4.375569822714843460e-03,-9.088573656775785631e-03,-6.479505402790080790e-03,-4.996924958881147905e-03,-1.071409283574628266e-02,-2.983069868803832347e-03,-4.907188134919944836e-03,-1.149809814136727205e-02,-3.991696717295958180e-03,-3.314375369698986315e-03,-1.267465497146367387e-02,-4.417280172848481179e-03,-3.775052034531533110e-03,-1.271559877048580520e-02,-6.842619931018605398e-03,-5.703064299613230803e-03,-1.409984084077137850e-02,-1.452814425734593080e-02,-1.004694648316795634e-02,-1.186479275144951447e-02,-8.168916386203390473e-03,-1.115737597056756618e-02,-1.240201425319747454e-02,-7.996468230330750632e-03,-4.251656535943887719e-03,-9.693622650131749480e-03,-3.397818873870441653e-03,-1.417837228312379336e-03,-8.112528580748654822e-03,-9.706189283962048803e-04,8.383301972043934180e-04,-7.100566544545955198e-03,8.800256937852996009e-04,1.122458426497950461e-03,-8.744643060731579348e-03,-1.116641655433958658e-03,2.982565510968164871e-03,-6.498036279411459684e-03,1.930542956471072852e-04,4.937018157526789838e-04,-7.088799851260130756e-03,4.252300289304313669e-04,1.420201568220188192e-03,-8.000021562813489778e-03,-2.798148736807315115e-03,-8.155889883869286289e-04,-1.006276738612713745e-02,-1.095596838196160119e-02,-1.262934707878224892e-02,-1.268170720761275030e-02,-5.517803693773786627e-03,-8.703530618040324768e-03,-1.198441274599705217e-02,-6.341787872229626838e-03,-2.489253268269271679e-03,-7.522574129594968191e-03,9.050490751125704614e-04,1.763299041732879595e-03,-9.613804799439240600e-03,3.744349828200784977e-03,6.198070845085342818e-03,-6.530807787220291143e-03,6.258524518601408897e-03,7.843035980014836581e-03,-3.290035370124036636e-03,5.185736329401846763e-03,7.440022806842434139e-03,-3.193289223017989689e-03,4.510377994771526747e-03,7.353319966826175197e-03,-5.378845656452873117e-03,6.705364497340220338e-03,6.833380074939777483e-03,-4.993542252114324329e-03,5.360432435471140962e-03,6.764625038082729483e-03,-2.845647241900007597e-03,-1.155155754680932574e-02,-1.028035864121311892e-02,-8.930385926505083477e-03,-3.115165872641328590e-03,-2.223731462774783396e-03,-7.701401654923441080e-03,-1.345614895843864553e-03,-4.836527398991118110e-04,-8.246064977175344979e-03,-4.350089119774091379e-04,6.397074190036911544e-03,-6.903750564417873714e-03,2.641698739647824375e-03,7.423783415507223885e-03,-1.940672455562291940e-03,5.631029226556235646e-03,9.757176031030755439e-03,-4.256530506915740843e-03,8.833268116034522291e-03,8.726175575512341853e-03,-2.787632084877040249e-03,9.092227110791420777e-03,1.111279621200639278e-02,-4.462682717951065720e-03,9.361833341442634543e-03,8.589649867481135084e-03,1.820237894545602246e-04,8.442041478424575085e-03,1.019390938690271919e-02,-4.733921397983490223e-03,-6.120371273882244459e-03,-5.829431049348857835e-03,-8.764177395410270230e-03,-6.097517529953140614e-04,-7.943628493959145609e-04,-8.918901318991909188e-03,1.002014320241573567e-03,6.294534734657799072e-03,-4.816794036917696441e-03,2.172592363095074072e-03,5.855337557991121579e-03,-2.489075154929557346e-03,4.118475240875531240e-03,9.272794636006725585e-03,-1.057848370633755579e-03,5.972518327062121754e-03,1.160327804159849360e-02,-2.537485952237035665e-03,1.034398076765534122e-02,9.243209771091213944e-03,1.432572396696555391e-03,1.129635778773053698e-02,1.124402440663313865e-02,1.795858130135346079e-03,1.063383636470724425e-02,1.104383695918017758e-02,-1.744027343360104228e-03,8.823138220017141126e-03,1.204226504759317237e-02,8.600069764466166701e-04,-5.310373485740734270e-03,-1.219092109058132062e-03,-8.365472955184060852e-03,2.121137599250063135e-03,5.308870209445776082e-03,-5.742112422860811208e-03,2.624952873077676836e-03,6.413567392945870513e-03,-5.261117916202832402e-03,6.617411344513613077e-03,7.327979418235720452e-03,-2.632930092110150142e-03,6.453244825255082494e-03,8.183169144171222389e-03,-3.441146006374645998e-03,1.033370365202691474e-02,9.971869968730957823e-03,-1.723921297818389094e-03,9.953904546685531443e-03,9.676251821166357431e-03,2.068781241335613391e-03,9.099239797858389017e-03,1.192749515687459294e-02,-1.992575008020278354e-03,1.019254312408902560e-02,1.154148666934754625e-02,7.732702622933692628e-04,7.901853356553561331e-03,1.276326481562715769e-02,-2.534228535449305902e-04,-6.784789060412724573e-03,-2.563323085741571125e-03,-7.412763833734685621e-03,-2.465199665828702452e-03,3.817951304171147888e-03,-5.682566946731918561e-03,3.096375812654819475e-03,6.315605911123656734e-03,-6.261772115702841923e-03,5.404427884001371078e-03,8.370061040586913859e-03,-2.053517879150692713e-03,4.989841947753145997e-03,1.019680850420872503e-02,-1.597896137461580005e-03,8.124488981775201957e-03,1.291471573257863686e-02,1.748114952073859252e-03,1.012246961655374929e-02,9.902154743474360019e-03,1.344015684278768250e-03,8.531901573898711261e-03,1.064641263992759795e-02,-1.148683923696535228e-03,1.020848973299150891e-02,1.281254895968857860e-02,-3.596062729108121664e-04,1.012235430491089001e-02,1.182160838705107603e-02,6.856940210630958592e-04,-6.719690273941255482e-03,-4.554440814681690042e-03,-1.018300365893839814e-02,-2.027990047095076451e-03,3.965472112580272629e-03,-6.666436702728595343e-03,-4.815114929709336106e-04,5.307215100624541361e-03,-6.831654213144869314e-03,3.632787515792480944e-03,6.949608495677081325e-03,-2.889303143287632811e-03,4.446251939672320880e-03,1.078538766242344987e-02,-3.317039383827788922e-03,5.381748633091807711e-03,1.155008307309839284e-02,6.602113266393288236e-04,5.935034820304400417e-03,1.251415944453230719e-02,-1.441400174143263845e-03,1.059638982044141219e-02,1.250495842272033448e-02,-1.710345131220245007e-04,9.855301546749368341e-03,1.307316751565109139e-02,6.840915601163868182e-04,6.053674390054311974e-03,8.134654498422808078e-03,1.369328945664716191e-03,-7.643503445283054629e-03,-7.194224267082048249e-03,-1.056529676025464055e-02,-6.668175038190230636e-04,6.352718375604851295e-04,-5.706197423054957044e-03,2.763493908191465287e-04,3.654571204303460122e-03,-5.633582601094865548e-03,3.310266661539528962e-03,5.821054385560802888e-03,-4.824799829783380303e-03,2.900730163595353212e-03,6.466971912869127689e-03,-4.352921080890490534e-03,7.484609648411348626e-03,8.751775293892552487e-03,-1.462199094900950343e-03,6.900526347309693734e-03,8.648889004055408669e-03,5.471386553496299966e-04,9.315398432282930713e-03,7.490774399072851544e-03,5.682882583486321103e-04,9.464927939467081969e-03,7.984477161240517706e-03,-3.295590729638909772e-03,6.526059394639468526e-03,9.906872508995964027e-03,-1.673729693027801481e-03,-6.667518950270833258e-03,-6.151542791064765203e-03,-9.080058320216716217e-03,-4.458732051536438284e-03,-1.354046206183737860e-03,-7.130742232951258787e-03,-3.943619400181303664e-04,1.342899658158460720e-03,-5.095318388137166227e-03,6.599104362974197308e-04,1.860393441453349686e-03,-4.908520861040197025e-03,3.857150639831953207e-03,4.977769537721369111e-03,-4.098819009536854019e-03,3.077478139514143972e-03,7.219742282771879176e-03,-4.042147720980653058e-03,2.079029080370909180e-03,6.349973254088452611e-03,-1.000052135966576512e-03,3.926968272988281584e-03,6.570287405958982752e-03,-1.050043246620282426e-03,6.697267219148077960e-03,5.814592462046201150e-03,-3.080058981833175627e-03,2.911282828380782652e-03,6.672649258129566448e-03,-4.245893939159300391e-03
-1.141236628355469240e-01,-1.112535232037291794e-01,-1.143425453161342198e-01,-1.114211574175628522e-01,-1.098087616924213888e-01,-1.112111888169531465e-01,-1.099656189030550762e-01,-9.912034575567360561e-02,-8.540745629092456881e-02,-7.669299723795487689e-02,-8.686165268542890561e-02,-6.548613030074107444e-02,-4.761918637088352613e-02,-7.313012243096651821e-02,-4.742422530633352146e-02,-4.043979588778754547e-02,-6.160625519034888115e-02,-4.321467153611623091e-02,-3.186109571239950644e-02,-6.304405678238564348e-02,-4.417008324292889115e-02,-2.660487802446647593e-02,-6.394895754759973017e-02,-4.776973296121522078e-02,-2.575205240068750845e-02,-7.033834735531867277e-02,-5.623199033232528093e-02,-3.320623312398424121e-02,-7.378007745964726416e-02,-6.114106898543452545e-02,-4.115939758655186992e-02,-1.126279615953944685e-01,-1.104538027450347598e-01,-1.071533371016474140e-01,-8.759101892987221361e-02,-7.108479162188208189e-02,-5.709223637737848023e-02,-6.580255600708680153e-02,-3.511838037769790533e-02,-2.622441293359988046e-02,-4.460927785861375922e-02,-1.494802420609322655e-02,-2.813300513493028482e-02,-2.623036304382879436e-02,-5.733296720284851433e-03,-4.079241786225502875e-02,-1.280397943615303041e-02,-1.980873044828036431e-03,-4.182159316414186395e-02,-1.693383852105002224e-02,-6.028081778488080661e-03,-4.300578484589676759e-02,-2.442554241475069360e-02,-1.294085271752925745e-02,-3.681215799671425093e-02,-2.505781518402018515e-02,-1.731294918935370741e-02,-2.962525404936677820e-02,-3.213964854777337510e-02,-2.201576817334748720e-02,-3.796765484723131634e-02,-9.444616922973160522e-02,-8.411246642392757045e-02,-7.109057927617740136e-02,-5.946675216611349568e-02,-2.809853750144565218e-02,-2.210204985786092674e-02,-3.671545134623747930e-02,-2.025704241091866656e-03,-2.739432213848852146e-02,-1.660145399309660014e-02,1.178902667559312938e-02,-4.229990596911867989e-02,4.636724691353336612e-03,1.885855894497892940e-02,-6.199446298025253210e-02,2.182865676346109132e-02,2.653644346927908071e-02,-6.370008228121259997e-02,2.094449850656082690e-02,1.974945317933276753e-02,-5.581700393882931682e-02,9.425714201098200559e-03,9.079809096554128725e-03,-5.691136239318435319e-02,8.386988223848658094e-03,6.641108751949813781e-03,-4.823558676483510194e-02,-2.241928264352877065e-03,9.233487334833643742e-04,-4.928707455186598363e-02,-5.657213406165285952e-02,-2.916178741969305960e-02,-1.747408124749363911e-02,-2.485363771953193884e-02,1.085511934199601472e-02,-3.615736552480796825e-03,-1.770367722692550022e-03,2.632247671933599792e-02,-2.207235887018272821e-02,1.273983189172816360e-02,3.572408509987904518e-02,-3.912189138220915907e-02,3.603500889956241099e-02,4.753961606962315428e-02,-5.382959766211994207e-02,4.668468676421744928e-02,4.895655167874277125e-02,-5.829281944140041194e-02,4.724746094742815483e-02,4.645903703128750895e-02,-5.825524062290013405e-02,4.132414013603935565e-02,3.250682236006677273e-02,-5.507772480357985695e-02,3.249743776253439381e-02,2.588436092406749475e-02,-4.481284697339101702e-02,2.383757052701424711e-02,2.251800929346356450e-02,-4.532939603873173406e-02,-2.135236649350888416e-02,1.467018867429212108e-02,1.801694991124225265e-02,5.971946848348150955e-03,3.957402253015646076e-02,5.099757175930901693e-04,2.553540981059229664e-02,5.030968451767021260e-02,-2.274828404302749532e-02,3.906802860493785445e-02,5.850419174450074977e-02,-4.005599900588432960e-02,5.753689841318686271e-02,6.962630435783692673e-02,-5.103208938003608863e-02,6.537058810581115875e-02,6.738167726187913043e-02,-5.881492318262050711e-02,7.114815479475432303e-02,6.559185532474626212e-02,-5.412383206892315557e-02,6.233393454559550684e-02,5.071098357310167143e-02,-5.209153660954810722e-02,4.782775556812753071e-02,3.947754096294868453e-02,-4.670473192979912591e-02,4.683761806852258097e-02,3.817116911132602958e-02,-3.814237317866442378e-02,-1.034270664451878569e-02,2.579689775670473972e-02,1.153387365815086718e-02,1.868863529703466975e-02,4.909352314533166339e-02,-8.490202406135863300e-03,3.760839042935756882e-02,6.337413095145935649e-02,-2.630202301221289812e-02,5.577875489970857831e-02,7.589089160788746458e-02,-4.183460910516151321e-02,7.436489022997018472e-02,8.469515093214427526e-02,-5.380325581117725853e-02,8.030847929771958715e-02,8.208712094829419270e-02,-5.724981322947837736e-02,8.470630180648572316e-02,7.433902599951409951e-02,-5.094121076986583840e-02,7.260894133496655078e-02,6.295230105707835810e-02,-5.170062802787141198e-02,6.115656507057969093e-02,4.989599767401551450e-02,-4.115973556650512344e-02,5.633635451137338629e-02,5.202524783720301887e-02,-3.410371247324738009e-02,-1.620316006259332059e-02,1.789397024422575283e-02,-1.645512964586714338e-03,1.515878886787664151e-02,4.706802715761027045e-02,-2.483864100636520508e-02,4.120547986458509421e-02,6.423487085908655136e-02,-3.711656554985925949e-02,6.191476629898787221e-02,8.065544306308004840e-02,-4.669893805336967213e-02,8.337118594980769126e-02,8.792352743476844479e-02,-5.286470466024124903e-02,9.243570685826471567e-02,9.002769559113667219e-02,-5.350900087317059239e-02,9.079703410554293419e-02,8.306864001526131913e-02,-4.795281753857053020e-02,8.388182679522565577e-02,7.175442166714234016e-02,-4.773605017516743126e-02,7.027435486035175927e-02,5.819435864144226200e-02,-3.657436118647183765e-02,6.977449545168325218e-02,5.994333593591490844e-02,-2.469738725333495491e-02,-2.248761274169361335e-02,1.203072785959768444e-02,-3.832859704648212268e-03,1.506908675961093208e-02,4.260891249253571933e-02,-2.482122353416293253e-02,4.002096452257862536e-02,5.947932247149966684e-02,-3.906900979312591393e-02,6.443286306686712983e-02,7.504548261778698492e-02,-4.858233526664052643e-02,8.121493402125953831e-02,8.699099760540111859e-02,-5.407002887626683602e-02,9.200339608622444543e-02,8.988079615893017349e-02,-5.165707702487756098e-02,9.491888075526168367e-02,8.413140814204411733e-02,-4.586434283048702876e-02,8.600703707903882556e-02,7.023525632761780380e-02,-4.335162560533002002e-02,7.462899144641267635e-02,6.083766532769617486e-02,-3.332157609636247908e-02,6.890864716834059489e-02,6.284486248404977382e-02,-2.026226676469292456e-02,-3.241893990387260949e-02,-2.245110122653895535e-03,-1.724103332565927321e-02,2.811248404337565732e-03,2.613154969892526880e-02,-3.498063483157581866e-02,3.381932259190273404e-02,5.004917969447571918e-02,-4.827775215102639295e-02,5.605033992069113208e-02,6.731269120671048989e-02,-5.216225990255199396e-02,7.759592811867778439e-02,7.748296200410652312e-02,-5.659446935945552926e-02,8.733687293264547069e-02,7.913255804838625895e-02,-5.189482059660319863e-02,9.455107374026497369e-02,8.048664303750523163e-02,-4.157293126044230708e-02,8.185757575971229494e-02,6.792004125962923522e-02,-3.712600335401743112e-02,7.362806088570027219e-02,6.153321760826743064e-02,-2.824519830633402673e-02,6.922055862607637278e-02,6.369274981496389487e-02,-1.476923246104921983e-02,-3.997402961657740839e-02,-1.202941050663704041e-02,-2.727097075996759781e-02,-8.760254410925370425e-03,1.151140869338082053e-02,-4.279888418329907268e-02,1.480034361721289417e-02,3.298002891849274171e-02,-5.815164472672945672e-02,4.303077293189850466e-02,5.002810137462126994e-02,-6.467631916162519534e-02,5.950116291860479967e-02,5.869673637185429671e-02,-6.446582379495476023e-02,7.251737443746276990e-02,6.431951565393484449e-02,-5.659116668514155291e-02,7.495729173808839130e-02,6.575005957824878178e-02,-4.902423121485058322e-02,6.905567003738785625e-02,5.649334488087079387e-02,-3.890468047762504766e-02,6.258790866790765739e-02,4.964995801772645323e-02,-3.074665273874302440e-02,5.423986229640267998e-02,4.889647881355526499e-02,-2.098478239662560085e-02
2.902464543713033363e-02,2.592242723683137184e-02,2.963946760945490588e-02,2.712563620816443172e-02,2.505039382504926915e-02,2.773384279867553009e-02,2.697211318097289534e-02,1.036140597529111931e-02,1.825001225290465851e-02,1.072969166946392307e-02,-1.220053153634983144e-02,4.042566454926553934e-03,-1.301845679268182759e-02,-2.790447745296110657e-02,-9.641360437336581740e-04,-2.924170527185978793e-02,-3.841980577274702741e-02,-1.176434817625986173e-02,-4.097683572788644868e-02,-4.866201647546081893e-02,-1.719155396060288721e-02,-5.219481583748925707e-02,-4.808611549943658803e-02,-1.700890524716188595e-02,-4.909316566336396903e-02,-4.092528617249783368e-02,-1.038073675812054876e-02,-4.095319177591898868e-02,-3.060579901962943647e-02,-6.392249844711084955e-03,-3.434779736308909981e-02,2.935644674560029810e-02,2.704232136550913101e-02,2.550995754187778547e-02,5.380140287829857440e-03,2.102958512486447634e-02,1.221983932429832054e-02,-1.283552593417401459e-02,1.898372304132190519e-02,-3.436356163828658758e-03,-2.115715785234357355e-02,2.106803572184899609e-02,-1.914414916689879606e-02,-3.195788985490291556e-02,2.152997246393913502e-02,-3.188607625052215788e-02,-3.508520737477151263e-02,2.157278925091539457e-02,-3.753860552116801419e-02,-4.105919052541999459e-02,1.716583759813929827e-02,-4.206611360393378019e-02,-4.612571379270595517e-02,1.116551883810998000e-02,-4.685925203189515720e-02,-4.369054546577666454e-02,1.353241711048751988e-02,-3.889156751346141416e-02,-3.654707719721733000e-02,1.593961174300981970e-02,-3.223991360984042320e-02,1.053664355610241764e-02,2.144699837686641145e-02,1.737183844048572831e-02,-1.979662862589297301e-02,1.883306379310046783e-02,-9.483758752313654200e-03,-3.100574896336009620e-02,2.822836702357856692e-02,-1.891941534324212415e-02,-3.283846911143848551e-02,3.311927781019736311e-02,-2.650223775305644847e-02,-3.516269888280029732e-02,3.614080794138795072e-02,-3.053307269598164175e-02,-3.250768053250864542e-02,3.743148546492655604e-02,-3.030943718833645217e-02,-3.158972179788574475e-02,3.912225070711401048e-02,-3.212386768569404361e-02,-4.154819793953398732e-02,3.544245197610880471e-02,-3.717655541293647670e-02,-4.621580575032047111e-02,2.998409350043178961e-02,-3.387079703911713424e-02,-3.709254148571922149e-02,3.270576121887992099e-02,-2.663025588301551685e-02,-2.180774393552262908e-02,5.339727031625218778e-03,-9.735151605656616053e-03,-4.026894566116828722e-02,1.612074301041488064e-02,-2.124286283745460691e-02,-4.031626782870307429e-02,3.316573375900146864e-02,-2.036022410196938054e-02,-3.293752017755003508e-02,4.064522433813913538e-02,-2.241856560537484888e-02,-3.240817239114413689e-02,4.887540064446933147e-02,-1.959139971807250316e-02,-2.842461433547559257e-02,5.195541261959362583e-02,-1.978671148547824638e-02,-2.422274398329022846e-02,5.972931919831010045e-02,-1.620600692813502913e-02,-2.733105108836318686e-02,5.708614062640681580e-02,-1.959112350296537963e-02,-3.160554738178789069e-02,5.135619714203663866e-02,-2.293506864940517836e-02,-2.647573113783913829e-02,5.216276153000859450e-02,-1.017213678278178039e-02,-4.691498877585929123e-02,-1.358827563601135331e-03,-3.102502324295143901e-02,-5.143923198766532645e-02,2.236537532035400011e-02,-2.901168017350867073e-02,-4.461787872628634327e-02,4.317023788202910273e-02,-1.798655115513714958e-02,-3.360359358863242163e-02,5.266449294980166812e-02,-1.695913802730218342e-02,-2.682581914993605737e-02,6.042406268598474878e-02,-1.578653455601900304e-02,-1.918723765530129521e-02,6.666522331616618613e-02,-8.806908595333002090e-03,-1.428082575706609778e-02,7.429895051018975405e-02,-6.264747127481431858e-03,-1.554526279481475981e-02,7.432706132905482488e-02,-5.854031285740920500e-03,-2.378568482493862227e-02,6.562429944405569204e-02,-1.059850763721369334e-02,-1.575040978310712422e-02,6.333070900807642734e-02,6.425325195498028316e-04,-6.347558503177730405e-02,-2.978129489208497863e-03,-3.951044230547240410e-02,-5.954000487635273398e-02,2.435209028103122245e-02,-2.942349283799683760e-02,-4.829475663372456706e-02,4.800179512408141169e-02,-2.066877803527324489e-02,-3.492938288708628825e-02,6.527914072100941822e-02,-1.519172615354915344e-02,-2.551324159199639882e-02,7.320733449473716681e-02,-5.463510507125224173e-03,-1.643265570802076789e-02,8.005865012989805962e-02,-1.364344421430025399e-03,-7.327048518157341754e-03,8.899158527965839172e-02,4.160709395439479187e-03,-9.613194314483524544e-03,8.469480437341395107e-02,2.575964080090505440e-03,-1.370635499364911136e-02,7.705393134780974540e-02,2.322507696986850310e-03,-1.228844358123163533e-02,7.666887467576453952e-02,8.637016392822495850e-03,-7.204137531998075494e-02,-1.066314273256867284e-02,-4.387530215118361915e-02,-6.851926173898982564e-02,2.017789422036868688e-02,-3.824142754063025035e-02,-5.041533378701459206e-02,5.059097787745876762e-02,-2.479406010346524303e-02,-3.834382218024765671e-02,6.553717453245118396e-02,-1.342568010904461248e-02,-2.635068225868653427e-02,7.639164536093480395e-02,-6.290948347671186311e-03,-1.660403316267563753e-02,8.743672049857696693e-02,5.115617746087256466e-03,-3.337434952269835269e-03,9.593357585947048793e-02,8.291976103841428025e-03,-4.552139353775990459e-03,9.644834760923619299e-02,1.111458545381751456e-02,-9.247481204538814809e-03,8.311045196872084151e-02,8.876125727743051919e-03,-6.949038243593095611e-03,8.082500711267844029e-02,1.328769598708662639e-02,-6.143603437045074694e-02,-9.883776553986362359e-03,-4.137500462609743079e-02,-7.133409191447434572e-02,1.284983578090245424e-02,-4.206099162659193702e-02,-5.849234433079516376e-02,4.028891635154790984e-02,-2.732985544545462470e-02,-4.118213185645464014e-02,5.928457333958768449e-02,-1.818288082471381656e-02,-2.589991601589709119e-02,7.473910760121404984e-02,-9.198956045987440738e-03,-1.845465050370837315e-02,8.329823301220320997e-02,-2.476079215371114559e-03,-5.752487396486243715e-03,9.271775673019622133e-02,6.534525756780987064e-03,-8.885593720399001527e-03,9.254116803264281210e-02,4.114288767154973027e-03,-1.325131461370133643e-02,7.797738874626973515e-02,1.962026981154088925e-03,-1.283620773890186556e-02,7.674895662201217106e-02,5.331914988779693637e-03,-5.092118593595221232e-02,-3.711951671134970307e-03,-3.232738925523222229e-02,-6.159306387488003298e-02,1.411566185236023951e-02,-3.685139932526113743e-02,-5.492587156411859323e-02,3.742665101662694116e-02,-2.750532855969280502e-02,-3.835438697812153935e-02,5.369615264865038734e-02,-1.837725078542293972e-02,-3.104894407765381933e-02,6.842424029674401553e-02,-1.044921998332240184e-02,-2.083185730522961812e-02,7.613715568139839407e-02,-2.116280211729425122e-03,-1.006998141876092046e-02,8.374363461650463636e-02,1.471657038614771016e-03,-1.343819529603131405e-02,8.255521225002564190e-02,-2.600309092980181147e-03,-2.011257593431695079e-02,7.001593055062245441e-02,-5.637102018878174803e-03,-1.705439881517623393e-02,6.786739605595151770e-02,-3.106952101931207896e-03,-4.235346644309746778e-02,-7.239782997944775589e-04,-2.755041764462800094e-02,-5.198819312426047889e-02,1.517715860484010297e-02,-3.055237158331589042e-02,-4.850384758564774829e-02,3.659856166712149861e-02,-2.310350615524377899e-02,-3.544832422742900252e-02,5.058269630462696592e-02,-1.947592368438305632e-02,-2.910353875849631608e-02,6.053195554676883694e-02,-1.455603105751511125e-02,-2.344048701971539542e-02,6.371751442209283578e-02,-8.931261808174837183e-03,-1.577732108905110370e-02,7.355829195771318441e-02,-9.184170042720110616e-03,-1.745644011109761043e-02,6.422495118876125897e-02,-8.612180350301991069e-03,-2.283783145876234003e-02,5.919740765182981979e-02,-1.375501533805180941e-02,-2.161497737383089382e-02,5.418502533642205465e-02,-7.006433345108787313e-03
-8.868228098196494907e-04,-1.876182841584542182e-05,-4.002128414350342861e-03,-3.198778518515427854e-03,-1.828674039115556899e-03,-8.716111989395848580e-04,1.918670227593536823e-03,1.478056326549137371e-02,2.470363414469102514e-02,2.693277494047201237e-02,2.967705141106310313e-02,4.692005043575658146e-02,4.509865552189791515e-02,1.534000878220136491e-02,3.796596282248843046e-02,2.810682468658674826e-02,-7.593858402681432675e-03,1.107101680666474491e-02,4.120066358085280531e-03,-1.903995437522894643e-02,1.762588136701770392e-03,-3.883005565444105738e-03,-1.144687839559275708e-02,2.918117166483809831e-03,-1.591999671968181811e-03,-1.435553929309724662e-02,1.703300221180394786e-03,-1.588275080283456202e-03,-1.269441924322319871e-02,1.065116787551579139e-03,-6.907347002046383341e-04,1.603255927806176984e-03,-1.640729063872799903e-03,8.917338311065451523e-04,1.773774912878474386e-02,3.071581521540204390e-02,3.397930679029893819e-02,3.862326562083375631e-02,6.395202350048737050e-02,6.686395617905790956e-02,2.686649048845719812e-02,5.362881346089533319e-02,5.037886732759628422e-02,2.567103986639059782e-03,2.566471532201100927e-02,2.159413318561338030e-02,-2.282902236849883304e-02,-2.561277893707811573e-03,-4.379748529558535192e-03,-4.255170474621065846e-02,-2.133049944861889480e-02,-2.047921395815375384e-02,-4.763013370830028459e-02,-2.227607337663244438e-02,-1.896713836447293244e-02,-4.067189722709762395e-02,-1.730954498195941618e-02,-1.652667709894628523e-02,-3.544870017041518162e-02,-1.526278078054722417e-02,-1.261227434014040687e-02,1.429004863439608738e-02,2.091968971149910789e-02,2.175451550606027212e-02,2.958847288050596436e-02,5.987333263525042998e-02,5.830022115389066339e-02,2.914230039489065088e-02,5.592753774538440636e-02,6.141091316799908439e-02,6.416744861921161447e-03,2.447371859757435653e-02,2.476873407067043883e-02,-1.798026823240412089e-02,-6.957622761960470525e-03,-6.206556126295141237e-03,-4.016426023599839468e-02,-3.043061129616215013e-02,-3.011670931046292465e-02,-5.876069595608000157e-02,-4.727921634512691207e-02,-4.047346661110060723e-02,-7.070003553912275474e-02,-4.998449168424858036e-02,-4.477418977489359964e-02,-6.336829746745843706e-02,-4.274446069971236245e-02,-3.558884569191091141e-02,-5.368743598046585297e-02,-3.647182131194670607e-02,-2.882619047888549876e-02,2.017565981133249975e-02,3.864163483456191373e-02,4.080576896979494494e-02,2.626561549037045168e-02,5.756889955857682345e-02,6.192370928937977748e-02,1.806738471487630282e-02,3.778465868695408264e-02,3.593607386542652798e-02,-9.588862359917210698e-03,1.328841762187671360e-03,1.538615508935398286e-03,-2.924707363715020603e-02,-3.163287919736662568e-02,-2.710172289892884279e-02,-4.534083483187725111e-02,-5.257575808902383713e-02,-4.950061053198701044e-02,-6.626666954935367393e-02,-6.700706884279111764e-02,-5.969403632966439888e-02,-7.488915159111787789e-02,-7.019826615766726341e-02,-6.144490057868290389e-02,-7.149574074032429005e-02,-6.657515866860744258e-02,-5.149626839257478994e-02,-6.396784520373194338e-02,-5.436414072718887686e-02,-4.361250892191122219e-02,2.700866847201385118e-02,5.436030407080255644e-02,4.915060827190914639e-02,2.078156849695992486e-02,5.226860736941115609e-02,5.247691187186623307e-02,1.191611559066245787e-02,2.208833196742655824e-02,2.072858820372602481e-02,-9.339073861319274403e-03,-1.337790194406211081e-02,-1.285918230202911725e-02,-2.790312610639453239e-02,-4.060149647523259714e-02,-3.777906718339328618e-02,-4.473625805106282854e-02,-5.996861741150542185e-02,-5.731813204574778831e-02,-6.316247506419155056e-02,-7.545679436540317364e-02,-6.688736468872368002e-02,-7.404456187141530976e-02,-8.053804715347556709e-02,-6.977123452687088168e-02,-7.308601522109625659e-02,-7.635347824888821799e-02,-6.015157493384923337e-02,-6.385010675625375776e-02,-6.408163845406406045e-02,-4.912881016040486493e-02,3.564611501456341203e-02,6.420124341801203283e-02,6.313715403870373555e-02,2.366944179611735893e-02,4.857124020104288536e-02,4.092084604169091144e-02,1.242030303936231608e-02,1.397507177631356415e-02,1.522542177336741812e-02,-5.723182812566895983e-03,-2.135317313863484279e-02,-1.561075633552132767e-02,-1.725399305423363019e-02,-4.274021730801345897e-02,-4.109080214704180500e-02,-3.659477008987216395e-02,-6.400572363863832326e-02,-5.853856879525363294e-02,-5.194816854272145401e-02,-7.777422424455368577e-02,-6.828469345578606908e-02,-6.455288030321267023e-02,-8.519348160690654037e-02,-6.782640359736752389e-02,-7.148208002704979636e-02,-8.223285049978371064e-02,-6.538149388809487428e-02,-5.848843858657384875e-02,-6.659613521943204273e-02,-5.015561506011508019e-02,4.156348312173548804e-02,7.051504262170438242e-02,6.546739359252101709e-02,2.315884752651473089e-02,4.131089331739646459e-02,3.976737222623660806e-02,2.034454152365103297e-02,1.165182158527140049e-02,9.390849151722873572e-03,5.401257832362596836e-03,-1.764831828764053603e-02,-1.761819531913401057e-02,-9.194329417073657945e-03,-4.259108934736018787e-02,-3.683015051861533717e-02,-2.430559405432495060e-02,-5.778810058356297075e-02,-5.422738700962820985e-02,-3.770582411645784920e-02,-7.586272297054828806e-02,-6.422162804436273853e-02,-4.969671429066727791e-02,-7.954120568325387386e-02,-6.581511210382010035e-02,-5.835723883928530670e-02,-7.989096412447077578e-02,-6.085519076982227188e-02,-4.925108831707395579e-02,-6.492931110742079792e-02,-5.017611970851792308e-02,3.877304901817030941e-02,6.767377138240932011e-02,6.540788552619357377e-02,2.882593178854621005e-02,4.305447529521569394e-02,4.446835843580219244e-02,2.862904459507330593e-02,1.673174878661025031e-02,1.605911163808942943e-02,1.821948702527667260e-02,-1.324298265688850403e-02,-8.479627696849768859e-03,6.694076377005290027e-03,-3.393546486372463894e-02,-3.069793520030399472e-02,-5.854862474042715412e-03,-5.468097548363083649e-02,-4.206327505437946340e-02,-1.999064006681918262e-02,-6.814203541460246705e-02,-5.719722935300654981e-02,-3.297238753586505949e-02,-7.313193520748960397e-02,-5.617146094249080707e-02,-4.041852568779782245e-02,-6.837694776354001636e-02,-5.312234257848361813e-02,-3.485099105103398737e-02,-5.722105364364073882e-02,-4.314587633800518601e-02,3.603650743756001140e-02,6.386622755036525101e-02,5.733261401732055867e-02,3.138936026873614948e-02,4.456824747960599908e-02,4.279521435902952642e-02,3.389951633759524102e-02,1.988362039271528506e-02,1.979446158268767866e-02,3.147692421010880870e-02,-3.673483586699889582e-03,-2.113093055337340095e-03,2.140831954664108860e-02,-2.309879290783797834e-02,-1.921477651025873395e-02,1.003880331641345686e-02,-4.353715363523528309e-02,-3.565308608487607195e-02,-2.328950332155696815e-03,-5.441974288425670964e-02,-4.371008530353306248e-02,-1.499655179635535698e-02,-6.209546346325129501e-02,-4.627418766868086897e-02,-2.439128928401062407e-02,-5.781775423650199752e-02,-4.407554774900106914e-02,-1.787477094265172914e-02,-4.893731419925301251e-02,-3.300149757206386619e-02,3.443287878035837524e-02,5.530618183955853667e-02,5.295064710279271530e-02,3.010525231134962565e-02,3.844106074537167322e-02,3.916297023877354788e-02,3.350910216038863187e-02,1.884563725389582292e-02,1.908614985680306617e-02,2.947168874093409122e-02,5.615447117810908571e-04,3.374823309619094137e-03,2.765434571331992775e-02,-1.935217083652956277e-02,-1.214654753085577486e-02,1.849712112425515656e-02,-3.419417874173553279e-02,-2.683346163893067862e-02,7.746508059992182268e-03,-4.628553030586737838e-02,-3.681418574403486077e-02,-5.025943191625342060e-03,-4.921308605656100205e-02,-3.590171021760862197e-02,-1.147241459510384143e-02,-4.928044193454782923e-02,-3.462252228297328649e-02,-9.949346549587765459e-03,-4.066710469328213562e-02,-2.879739983309017454e-02
-4.618647583642039242e-03,-4.115917272416853151e-03,-2.345470707928117710e-03,-4.051078146876233022e-03,-3.787726204285579712e-03,-3.376674834029712996e-03,-1.940439022170179287e-03,-5.694248909062948893e-03,-6.794555344597153629e-03,-2.192459069275009761e-02,-4.716712369486984052e-04,-1.396825749598010549e-02,-5.082047945295148361e-02,7.815259116616931137e-03,-1.235373489033170409e-02,-6.953603953628133272e-02,1.349595041282607329e-02,-9.508230507671234372e-03,-7.644472701376116286e-02,1.763496430902633180e-02,-1.383424635421820134e-02,-8.104283539315851326e-02,1.193631569190709701e-02,-8.988713277656004697e-03,-7.143768393523874938e-02,1.307990241432186590e-02,-1.059404856746067047e-02,-6.319714894464040222e-02,1.126924328657112444e-02,-8.380659266826937653e-03,-5.731813786543595718e-02,-1.115647765567773231e-03,-1.371543081894282395e-03,-4.313970510420234161e-03,2.852400334749450109e-03,2.674193459107614829e-04,-1.747065363240864894e-02,1.148365934386486910e-02,1.491383642967378763e-03,-3.943154623451383678e-02,2.161308283148372089e-02,3.882848705923152774e-03,-5.479055847921358857e-02,3.066601285994252288e-02,9.238462646496643782e-03,-5.875149467824519051e-02,3.781653811814043170e-02,1.241974194115399999e-02,-6.743139796248952267e-02,3.827993978409367087e-02,1.332453845471538896e-02,-7.350745826786665715e-02,3.423903311156259455e-02,1.295247391535547625e-02,-7.131669326238573858e-02,3.646823157107388635e-02,1.069922204988343895e-02,-6.518147725516651447e-02,3.204727207764355990e-02,1.369333501102714193e-02,-5.558888820093496608e-02,-5.294664813601888259e-03,-6.242458847226278057e-03,-1.735771369488332827e-02,1.546889624469792793e-02,8.430626735159691895e-03,-3.776676310480199528e-02,2.376943505598741457e-02,1.145870599754383531e-02,-5.108464384778911571e-02,3.115480638227668617e-02,1.930805816284830029e-02,-5.648968716626147357e-02,4.053927341585380345e-02,2.581003365985424722e-02,-5.943252165039275559e-02,4.763636391013804233e-02,2.388420498613726128e-02,-5.936728951129825044e-02,5.130348132007004486e-02,2.260242241114842829e-02,-6.796962131825616538e-02,4.531008638801160837e-02,2.157533381284507806e-02,-6.496681171502090291e-02,4.617284910366273309e-02,2.445633213530687758e-02,-6.099104305900075046e-02,4.030529639702852551e-02,2.346727154181997566e-02,-5.347058645850707309e-02,-3.123424075331228747e-03,-9.457751475020405307e-03,-4.550735822749266829e-02,1.928160496564925233e-02,9.878528356241169511e-03,-5.344182924516933941e-02,2.596689470189050136e-02,1.548347600874202569e-02,-5.916011262809808824e-02,3.034478971537864223e-02,2.062121783344702391e-02,-6.611374221905247373e-02,4.399938039034942405e-02,2.585866662290603468e-02,-6.024775051097117778e-02,5.184220626009367755e-02,3.246287976489478644e-02,-6.399348361004568442e-02,5.222161344029685459e-02,2.932865997090250421e-02,-6.392252558091504611e-02,4.844801248048083431e-02,2.719045024747755029e-02,-6.349922029516426314e-02,4.648022951997930058e-02,2.850117491293317762e-02,-6.022577799369546736e-02,4.668299337637325797e-02,2.800281006470121611e-02,-5.291648486768073950e-02,-1.267495621451224241e-03,-1.331610390988553078e-02,-6.515491400583792170e-02,1.972441936242108618e-02,1.645822514343351153e-02,-6.388960006155194882e-02,2.617211414422580470e-02,2.460672296307964829e-02,-6.436990442507112276e-02,3.145909081395081852e-02,2.617902171384797402e-02,-6.757632211539965628e-02,4.107780290938664591e-02,3.017938807690419278e-02,-6.302144608887748356e-02,4.976343409245280458e-02,3.179583859201606799e-02,-6.196996421224754831e-02,4.802064309891651561e-02,3.325341803959333542e-02,-6.447099833289041126e-02,4.687094402737419785e-02,2.770056319035339026e-02,-6.395082329647819308e-02,4.521480843940165611e-02,2.744409348916824684e-02,-6.003697982775245412e-02,4.089575839461161155e-02,2.538135891537212502e-02,-5.213999751202155752e-02,-2.788530608177168350e-03,-1.906731696914703428e-02,-7.732976516798413524e-02,1.917179414785109837e-02,1.016781429707559574e-02,-7.101731786057637053e-02,2.558375477102271117e-02,2.075512521310859254e-02,-7.224503502784630771e-02,2.834065797103640233e-02,2.210205896950433180e-02,-6.883559471253047901e-02,3.450857278720938226e-02,2.586999207106757334e-02,-6.462295047450904162e-02,3.978739015666347967e-02,2.731586607630245855e-02,-6.281174688988301613e-02,4.351718674497822431e-02,2.956183119252269592e-02,-6.257878390544215075e-02,4.571543504610749153e-02,2.949192868674958834e-02,-6.397013781505142549e-02,4.216553660549299254e-02,2.730262224930815260e-02,-5.771005951300576392e-02,3.984988849012360834e-02,2.364436366393014161e-02,-5.367040348900813801e-02,-8.621045323871883229e-03,-2.458378213597071232e-02,-8.601408697290090222e-02,9.729970619215443789e-03,5.321833739975240576e-03,-7.486426947481569782e-02,1.681500132441834938e-02,1.609787572464019614e-02,-7.490488732587159693e-02,2.335326841483980828e-02,1.900924703524230902e-02,-7.004813549537268480e-02,2.964069990300190194e-02,2.122770416070629898e-02,-6.461505976774868654e-02,3.206312868161936142e-02,2.661538437577950361e-02,-6.429458342267414805e-02,3.574263288830416968e-02,2.263279838877442149e-02,-6.524971935450536720e-02,3.651459936701175607e-02,2.404718795772141371e-02,-6.286744919105050067e-02,3.527891137374315755e-02,2.247054289268961974e-02,-5.789867307857129303e-02,2.983581835509709762e-02,1.657390797110434161e-02,-5.555041435127831134e-02,-1.170579978523596069e-02,-2.898694602210022050e-02,-8.498135820150402864e-02,3.080169268173641069e-03,-3.385082134484472365e-03,-7.964091263012264277e-02,1.073752351902265353e-02,6.886730716133042385e-03,-7.716173097139912562e-02,1.435678785045956841e-02,9.003894774540346924e-03,-7.297021502144335203e-02,2.235802617761208089e-02,1.387065525211543873e-02,-6.595298604702855283e-02,2.465554452117618006e-02,1.851053958052176207e-02,-6.475188295418383977e-02,2.848879311480726276e-02,1.638476643029122132e-02,-6.580972082080339958e-02,2.604252060130365573e-02,1.188479732230557188e-02,-6.132192778129436084e-02,2.775354810815037349e-02,1.151808719542802770e-02,-5.790318211672005472e-02,2.271108438452875203e-02,1.140907177559186830e-02,-5.562310270573844750e-02,-9.145241757413071632e-03,-2.435892062903077804e-02,-7.589788313837292355e-02,3.712078128685757095e-03,-7.058765747323286419e-03,-7.921317873845176716e-02,4.859786230734322761e-03,-9.666835478005062106e-04,-7.650687749745493926e-02,9.200694436823683708e-03,3.925870187343644645e-03,-7.137895681287609317e-02,1.322490223400730677e-02,8.210454813741293809e-03,-6.981444499737542164e-02,1.643388123635785084e-02,1.012365994346127798e-02,-6.460850300117065848e-02,1.668372243712219066e-02,7.116951937163079611e-03,-6.524894977323927869e-02,1.884535353106031597e-02,6.496017190786941564e-03,-6.317762948602781425e-02,1.864649386536854775e-02,4.736538125937609506e-03,-5.921534716135149617e-02,1.570950768144673340e-02,3.101187718753529825e-03,-5.582224497137611152e-02,-1.218554948187608108e-02,-2.510245816796112875e-02,-6.593208273424290555e-02,-2.139855512010698999e-04,-9.187065499336209001e-03,-6.790874338384450537e-02,4.813272184817919165e-03,-3.745991887118484305e-03,-6.763573100298049534e-02,9.365716140598088352e-04,-3.124557848066060982e-03,-6.797338608830945372e-02,8.039924328916273066e-03,1.348102323626989250e-04,-6.472181585642083901e-02,1.016014840402584309e-02,-1.367920996671127040e-03,-6.512595499625134510e-02,1.201967856849514571e-02,-1.085425250872754099e-03,-6.543622699643725227e-02,9.788642869467170313e-03,-3.202951629888324547e-04,-6.233011373422917695e-02,9.873976839798060540e-03,-2.265243131118975604e-03,-6.206873687171050175e-02,1.197494256466527518e-02,-6.163188702615479686e-04,-5.516918763763634798e-02
-2.434397329431924051e-03,-2.340134034650772493e-03,-4.438874923376447124e-03,-1.609916432543921985e-03,-3.032845792016900660e-02,-2.600997586239447990e-02,-3.091030061924141675e-02,-6.990799307935686990e-02,-6.822941805136985283e-02,-7.019196419921533425e-02,-3.538960082916643018e-02,-1.965106939673192180e-02,-1.885547157423934569e-02,1.112047978914619366e-02,3.121031207393623955e-02,3.675728806737298127e-02,4.257665376819526337e-02,6.640415490169128410e-02,6.853234582611220094e-02,5.523784669364095734e-02,7.447314377198638313e-02,7.353955100820210034e-02,3.688736781066251358e-02,4.801444403775823738e-02,5.011736416976584479e-02,1.638215636781675810e-02,2.009240531082655962e-02,1.771740188823727261e-02,1.172069584573881898e-02,1.573183561898560540e-02,1.615303392256383155e-02,1.803021620585244789e-03,1.295323389721242391e-03,4.032685586904673561e-03,-2.510756602903349913e-03,1.192044283003888469e-02,1.153678546101712110e-02,-1.732876241274180704e-02,2.213695058975668345e-02,2.146720261921374398e-02,1.228669565688000724e-02,5.244124034601229528e-02,5.431492289693612419e-02,3.718596139328725347e-02,7.058663484770696939e-02,7.344846451617315086e-02,6.434947189136420997e-02,7.737479212504061454e-02,7.987990078948094264e-02,6.812808427369800024e-02,7.111743255438633671e-02,7.305845990577307381e-02,5.475455987374747147e-02,4.175268300136268651e-02,4.255270907582478501e-02,3.436070855569757498e-02,1.859115441046785625e-02,1.521734424345981551e-02,2.641851261716520599e-02,1.199376949693366223e-02,1.170529191850797762e-02,-4.672093747195345953e-03,8.401661314264168012e-03,2.045797389699927082e-03,7.447051208174277834e-03,4.224888933094726046e-02,4.564780254156233785e-02,-1.303990067461123677e-02,3.019103882401791283e-02,3.894901036813063627e-02,1.129105266035775046e-03,4.157466819328230201e-02,5.053088288235124681e-02,2.337812806334325227e-02,4.399742715772889112e-02,5.176610479936021719e-02,4.515174576761983583e-02,4.489710733351066213e-02,5.126581288184596519e-02,5.247682687382038136e-02,3.743841591547779346e-02,4.398571117295287797e-02,5.046007232775268775e-02,1.465800970074980156e-02,1.821892265896872878e-02,3.566151239741587042e-02,-4.782058031024586167e-03,-4.614974361419759558e-03,2.998185980726784591e-02,-8.928538162417645058e-03,-4.875616775102093771e-03,5.182663048976642733e-03,1.790182142600994092e-02,1.907020994281300938e-02,1.241640113376574206e-02,4.916548069287502570e-02,7.134461115520969454e-02,-9.956156395906247750e-03,3.224933666755134404e-02,5.310905144256525268e-02,-2.942471210551255573e-03,2.423271624670520971e-02,4.323119723817910737e-02,1.250363948433958622e-02,1.905522116396195578e-02,3.475928283449858380e-02,3.509623362417201714e-02,1.560940472099313012e-02,2.775039324504148530e-02,4.680603119905081544e-02,8.380056982997888260e-03,2.447379273152689924e-02,4.539842208415560687e-02,-5.355192021406596052e-03,4.234507072488931725e-03,3.317587981402214670e-02,-2.366302716407376466e-02,-1.546228717678773019e-02,3.013827405940326665e-02,-2.349214155724318326e-02,-1.234858313203611446e-02,-3.867868239591787383e-03,1.698907618317122697e-02,2.255204427416659246e-02,-9.081254017615225660e-04,4.849335232305352489e-02,7.545097415560295118e-02,-2.526128918724510411e-02,2.327857443114172281e-02,4.612457047272607719e-02,-2.878786991014700355e-02,5.535573960117588961e-03,2.947160149660467410e-02,-1.052735087076422764e-02,-6.268818683615902387e-03,1.540707836237285161e-02,4.740995432732576786e-03,-8.308465076975645597e-03,1.450735671803167134e-02,2.126891944740887455e-02,-1.426660586904367201e-02,4.950503416291292431e-03,2.915197933235772615e-02,-2.521774514531851391e-02,-8.401143926788272667e-03,1.925050083422676778e-02,-3.899941221581038064e-02,-2.639324087208539879e-02,1.470118758355741170e-02,-3.717918165970062611e-02,-2.563426339754073385e-02,-9.352186749234379579e-03,1.323505706538001710e-02,1.846896837647776096e-02,-7.882975093646896192e-03,4.372485471454991279e-02,7.785981083760627752e-02,-4.584686177234656435e-02,9.262034835220934667e-03,4.014735194641087801e-02,-5.577103848259282182e-02,-9.251549637089091088e-03,2.058970346060833359e-02,-4.732868908281163967e-02,-2.325183069435525149e-02,5.563415258669300763e-03,-2.741964055756476726e-02,-3.116479475444728156e-02,-5.150916482629322099e-03,-1.025736936407178196e-02,-3.888072455613498374e-02,-1.283457893257969329e-02,-3.215380571558042536e-03,-4.438302567183270014e-02,-2.490254534447041215e-02,-7.019617389350885431e-03,-5.549784453098231818e-02,-3.937277775987707562e-02,-8.008408013254902230e-03,-5.283089139977296261e-02,-3.563653151615291115e-02,-2.535579640621895420e-02,6.840327578316492130e-04,6.616637517887305822e-03,-2.169701982957472977e-02,4.089825177463968231e-02,7.291538783195518347e-02,-7.102999524430915479e-02,3.477663228508774164e-03,3.343333149573974455e-02,-8.358635436393775653e-02,-2.895897697194654147e-02,3.217908687138615331e-03,-8.164206834645255928e-02,-4.709831466190080029e-02,-1.694315591075845617e-02,-6.579106239840475101e-02,-5.341165552452106779e-02,-2.641911239951249407e-02,-4.987570615511403849e-02,-5.921223853833249007e-02,-3.218100837482344018e-02,-4.035991251793130674e-02,-6.447371585816032147e-02,-4.210127770278049297e-02,-4.587778721947557981e-02,-7.345964436392450614e-02,-5.009391488883931098e-02,-3.991407129516411773e-02,-7.019311631332718349e-02,-4.889695436798573158e-02,-3.206728004242270086e-02,-9.476538664485785468e-03,-6.096072114151063724e-03,-2.681020018868780427e-02,3.467159900526604194e-02,7.036365165506069941e-02,-7.387389626484928973e-02,6.730411619980226391e-03,3.755927181062945763e-02,-1.017229327330971961e-01,-2.426957378018699402e-02,3.772854991023085608e-03,-1.035339168586854319e-01,-4.754785893391279966e-02,-1.789413226705551321e-02,-9.826156766148835819e-02,-6.058860848654654824e-02,-3.086879140854358397e-02,-8.618618895513659173e-02,-6.419858373253192751e-02,-3.927125183499192984e-02,-7.440044293235367756e-02,-7.098043530400061085e-02,-4.594999536971571680e-02,-7.661563677908597714e-02,-7.836739240478562962e-02,-5.530298464961479199e-02,-7.174894057300151839e-02,-7.889993009434564941e-02,-5.989209694962834701e-02,-3.052793530511042561e-02,-1.324749551114463506e-02,-5.588308443525335546e-03,-2.368771810466559560e-02,3.327944833245398415e-02,6.274949576005081631e-02,-6.535997025665929439e-02,1.693407044343112067e-02,4.814431891004634922e-02,-9.431582882179510852e-02,-8.362620802333690234e-03,2.317723310419006477e-02,-1.037465693106662118e-01,-2.866894334032389982e-02,-1.780021042554948835e-05,-1.051097724419706586e-01,-4.410469250965359800e-02,-1.598045856206603554e-02,-9.603934365453034583e-02,-5.400757673937509745e-02,-2.495754353943764603e-02,-9.237591651420666572e-02,-6.362390833101932985e-02,-3.796636952962379602e-02,-9.242706447042793594e-02,-7.497886330518659104e-02,-4.894640056891799013e-02,-9.118258694955672095e-02,-7.553077206772614016e-02,-5.224258593597725514e-02,-2.392130345007051351e-02,-1.025623085470906554e-02,-1.734892625581844171e-03,-1.976533770446111879e-02,2.997310274301012711e-02,5.628215724086826910e-02,-5.942532490743194368e-02,1.983825282654307076e-02,4.792494864791121273e-02,-8.257056603355390767e-02,-1.741123102502177555e-03,2.321690517943664211e-02,-9.004075717429771419e-02,-1.591599667893844189e-02,1.108432749123076932e-02,-9.192042195233733615e-02,-2.382943616868347589e-02,2.706602243449669071e-03,-8.439718623537956210e-02,-3.299607413069381018e-02,-4.751167964382377491e-03,-8.283600010789261836e-02,-4.566612636461704622e-02,-1.844557862295343256e-02,-8.418699259594815409e-02,-5.665139803126928442e-02,-3.357212113769754425e-02,-8.349217599185401739e-02,-5.887223833768830128e-02,-3.858282873084337150e-02
-1.196736795665318855e-02,-1.409650694720204940e-02,-1.001918128248495583e-02,-1.111602580030456901e-02,-5.387067941405835822e-03,-8.112609877520519583e-03,-5.687850526852153421e-03,3.043053194005956863e-02,4.258656602547333803e-02,4.864810338325734063e-02,4.528404341847407782e-02,6.417155042840078094e-02,6.643530673066042058e-02,2.091067068415760483e-02,4.496308830288361230e-02,5.231514160429925203e-02,-1.463482986249931006e-03,1.232854482095107132e-02,2.649033267197266686e-02,-2.310404405046276310e-02,-1.250741576326431376e-02,-4.316091774822877931e-03,-3.687683238093025784e-02,-3.461957817462808090e-02,-2.267644990415255274e-02,-3.730583360007496546e-02,-3.519741606456466831e-02,-2.601971108617936318e-02,-3.670329385914199161e-02,-3.278595122489119662e-02,-2.485008614318911374e-02,-9.033556044424640927e-03,-4.843713738223077644e-03,-4.030057898185708185e-03,3.213659995704560429e-02,5.718973067529761756e-02,6.030720744385265064e-02,6.024213519680333279e-02,1.141713789020249031e-01,1.208904797255370978e-01,2.689571441892784839e-02,9.019680074100898393e-02,1.015085643563118228e-01,-1.870659128457569792e-02,5.071588786692059897e-02,6.210535875072621670e-02,-5.267826024393214984e-02,1.785050319920195028e-02,3.185607270208450775e-02,-7.895338150130275234e-02,-1.627392689988173269e-02,2.779444408084852207e-03,-8.848991585968263296e-02,-2.923126069022247142e-02,-9.805979015669420013e-03,-8.927304633778564147e-02,-4.136131404195770439e-02,-2.144560515590396982e-02,-8.392336156648096124e-02,-3.812957654905246158e-02,-2.630576159592722466e-02,1.970946816136084218e-02,3.523907687298993840e-02,3.520127161235218904e-02,4.141749999960823297e-02,8.634220928576044618e-02,9.267036686702234682e-02,4.279318237244055662e-02,1.133195613900946641e-01,1.165750976790262128e-01,-7.308217188043858795e-03,6.164707441045957220e-02,6.640899856230819687e-02,-5.703497531375169294e-02,1.707136560375769122e-02,2.517823797541310360e-02,-8.900502297644857785e-02,-1.669975162686255718e-02,-1.501917523643661601e-03,-1.124421174403139878e-01,-3.801478982353002217e-02,-2.446012228250066950e-02,-1.183712721568050963e-01,-5.544264720136225094e-02,-3.716507968544920798e-02,-1.143046408841976308e-01,-5.787725599676638022e-02,-3.772437089342800531e-02,-1.094577631539744994e-01,-6.024665096345607762e-02,-3.956486666070671565e-02,1.740039757078465366e-02,8.279771567209191080e-03,4.365652080652019165e-03,4.992413248229839867e-02,7.661426002967919313e-02,8.047284323032342923e-02,4.160155636272176716e-02,8.679924565058932950e-02,8.918825976603217409e-02,-1.880264022035411237e-02,3.237389616082608085e-02,3.186569740436395043e-02,-6.732725430225408592e-02,-7.942100351457717644e-03,-3.651519122448709798e-03,-9.674478994818581923e-02,-3.597960452709717677e-02,-2.838028084563002512e-02,-1.126053490765930171e-01,-4.933470321609893794e-02,-4.000042396792904964e-02,-1.208986585050916551e-01,-6.573813621358003123e-02,-4.531741646906147641e-02,-1.097650098492482795e-01,-5.982662052149197163e-02,-4.156409955322452193e-02,-1.080054014986251004e-01,-6.196832844856439704e-02,-4.285160024958454411e-02,1.805760460071609286e-02,-4.532208331702389931e-02,-4.758431084774050746e-02,6.515120789761470743e-02,5.450808155220709939e-02,5.446514472487611752e-02,4.707022676189021732e-02,5.406283896750133100e-02,5.137945821324839402e-02,-8.815129708752776627e-03,-8.634181547061874420e-04,-4.768649848375691551e-04,-5.771612152654958389e-02,-4.035274657263633602e-02,-3.960107558211065082e-02,-9.158539373541074724e-02,-5.838241823605407749e-02,-5.386744967431735670e-02,-1.038407706694740168e-01,-6.778778757006742595e-02,-6.012161384635496958e-02,-1.088534037958323319e-01,-7.417844942723808566e-02,-6.274949728780181146e-02,-9.788171274105758601e-02,-6.339398903489325277e-02,-5.092298445026999243e-02,-9.184897080559899230e-02,-6.592511103199710787e-02,-5.140758544557237630e-02,3.146182908522175692e-02,-7.321494028774837293e-02,-8.150755687546040740e-02,8.577719342346874776e-02,3.047258086441217984e-02,2.764997644671070287e-02,6.789979697999401487e-02,2.448168997872417554e-02,2.144343403590951228e-02,1.133909065986716570e-02,-3.135267492910275011e-02,-3.689057330722046724e-02,-3.801460314482017072e-02,-6.663983269693868339e-02,-6.719155077959652889e-02,-6.997096841991712335e-02,-8.143711200089254199e-02,-7.800099775735978846e-02,-8.773267637522332019e-02,-8.721011877757943453e-02,-7.929451438746755454e-02,-8.978676118644259019e-02,-8.547528707479599974e-02,-7.457170559730319503e-02,-7.273413750594230620e-02,-7.048346375938890906e-02,-6.003851723330531215e-02,-7.538595752046259313e-02,-7.267852951602749023e-02,-6.002087327029492769e-02,4.614998295679408752e-02,-6.070702695989074749e-02,-7.218098589339494442e-02,1.094729068095550983e-01,3.082202104539466525e-02,2.160303598532944958e-02,1.003104478674357453e-01,2.105320802312405856e-02,1.372092432211848012e-02,4.940107494285969625e-02,-3.452064818038150240e-02,-4.549452440611480991e-02,4.437610314093932973e-04,-6.888049798322562478e-02,-7.246690845948777771e-02,-3.400306103849361217e-02,-8.479805338866878983e-02,-7.730257000276946622e-02,-4.738868547257876068e-02,-8.529046573838230949e-02,-8.111213606285823385e-02,-5.196129426539170676e-02,-8.427978086533387259e-02,-7.071697651545059971e-02,-3.143290004590396786e-02,-6.667009168489537729e-02,-5.296832935370514306e-02,-3.565930186717577999e-02,-7.122974054169825542e-02,-5.799998534143729206e-02,4.578221543695841500e-02,-5.038707038210853834e-02,-6.073776217161300228e-02,1.287538672196719969e-01,3.959728138492774746e-02,3.308402180240656298e-02,1.235380074517992421e-01,2.473486467302799668e-02,7.320971036243756162e-03,8.878211495978120815e-02,-2.701885860955663757e-02,-3.560446744831715499e-02,4.600497146432876161e-02,-5.822052366133356055e-02,-6.163301896740232266e-02,9.758521601015181235e-03,-6.988154004078885040e-02,-7.614298618203954594e-02,1.705939856558061525e-03,-7.641354700064743877e-02,-7.135213698086076417e-02,1.014775878277370848e-03,-7.511310782088533033e-02,-6.428012707235378209e-02,1.747403853474911034e-02,-5.661855833892676798e-02,-4.806384977942780579e-02,4.344060858717820224e-03,-6.274362252312143395e-02,-5.072836178804866064e-02,4.231460629680484226e-02,-4.404037418739395471e-02,-5.246341630282463919e-02,1.231290517076975427e-01,5.031214407188082383e-02,3.750937416295027638e-02,1.356210662318227955e-01,3.700153566756687190e-02,1.632926255867286902e-02,1.093684341269355043e-01,-1.025143621295691518e-02,-2.473456089355284201e-02,7.816059006446987589e-02,-4.043948097755663273e-02,-5.225060318303879209e-02,5.533870095031578201e-02,-5.769050106493503471e-02,-6.309359838478617588e-02,4.751030780010390142e-02,-6.179906819580548855e-02,-5.882875832156056473e-02,4.881009832011433403e-02,-5.831774508934501472e-02,-5.662230750405859020e-02,5.634088007950299043e-02,-4.665384646656856038e-02,-3.967207261803134405e-02,4.604473606599016750e-02,-5.074715616933460349e-02,-4.570945372563386955e-02,3.360881369956381787e-02,-3.909343648772746482e-02,-5.055147470076775534e-02,1.125309843639372143e-01,4.307432063333613975e-02,3.225464083634080326e-02,1.263301769079439030e-01,3.368529447216103007e-02,1.749418090090371775e-02,1.090928374848204319e-01,-6.639201811832654010e-03,-2.174684814767388966e-02,8.694643492491938019e-02,-3.293155978467075806e-02,-4.936298136393445918e-02,7.415619189567959624e-02,-4.729396320296896244e-02,-5.470657551595847073e-02,6.856812156254910029e-02,-5.105432320555121362e-02,-5.384414013570863744e-02,6.401703479113939055e-02,-4.929495799389800592e-02,-5.117481031135730218e-02,7.038860697555569812e-02,-4.054979318486036377e-02,-3.636731048049025861e-02,5.718335412856807853e-02,-4.653326452961005499e-02,-4.034570330409770200e-02
-4.702215903970276278e-03,-7.774442045109866695e-04,-3.228845259862351408e-03,4.091319915261806828e-05,-4.019284545428445168e-03,-3.161200912229426840e-03,-6.098924448555727643e-03,-1.573335500817943031e-02,-9.396878128668307781e-03,-3.249811087708670207e-03,-1.999809977113064033e-02,5.030320603497187570e-05,1.076613988963771168e-02,-1.498139646778226704e-02,1.499904950090528814e-02,2.642481268763451074e-02,-4.722139215965991815e-03,3.337872396125526192e-02,4.219084352675468719e-02,-4.332867736287914981e-03,3.372199306734416369e-02,4.020122310979728358e-02,-6.672503096628710877e-03,2.523317439923439265e-02,3.368511148851133230e-02,-7.683816193694369134e-03,2.160499829620303805e-02,3.074181519493673215e-02,-7.082235157342280790e-03,2.229847437011269612e-02,2.678448701109422542e-02,-3.205882467160591637e-03,-2.466686131603414850e-03,-1.955811728462330396e-03,1.418090422582530229e-02,2.708774088596861696e-02,2.686416614163707195e-02,-8.874089429807109977e-03,2.360511970973689505e-02,2.929363597444016240e-02,-2.702231366716193947e-02,2.018343680331623202e-02,2.476734278374340473e-02,-3.364689828418786222e-02,2.367987588850287151e-02,2.388692293221733598e-02,-3.554078559684539784e-02,3.203357740022103051e-02,2.575431312211878127e-02,-3.523151326360331875e-02,2.826307074933197272e-02,2.142408961374328569e-02,-4.411691357929298229e-02,2.128479462973149883e-02,1.197909403464279994e-02,-4.265688716021651117e-02,1.129084193088663625e-02,6.611718074885855265e-03,-3.969883947567529048e-02,8.240970876119101118e-03,4.806642383978126931e-03,1.059118230889957192e-02,1.920658653075573569e-02,1.888938124531686080e-02,3.779665320137510012e-03,3.439797340494879507e-02,3.907693491056257046e-02,-3.412640617378050883e-02,2.120059771733499160e-02,2.163546801166637765e-02,-5.843895027578310808e-02,1.718641688847211482e-02,8.068999588505073109e-03,-7.164376484669401912e-02,1.184674714212561632e-02,-5.174364632516258861e-03,-7.216875585220303146e-02,1.658552756312571888e-02,-2.806282616695179519e-03,-7.036672726919528109e-02,1.779227641820214229e-02,-2.888017232964100803e-03,-7.154054754451298626e-02,6.744675310579133047e-03,-1.380475189969984119e-02,-7.153327361952972752e-02,6.817931159150978151e-04,-1.747827646137736432e-02,-6.909021175625928990e-02,-3.301382112781987149e-04,-1.960134407608284113e-02,1.906120277303243946e-02,3.118728944003964013e-02,3.932603354182195865e-02,-1.980276075455356111e-02,2.896349169228479292e-02,3.055537975392090544e-02,-5.511499015488938169e-02,2.063434637570756708e-02,1.285852597225033145e-02,-7.431024889967847991e-02,2.477019072020898716e-02,4.028834101236412717e-03,-8.266720563256785281e-02,2.081171837355061394e-02,-8.587000043380277683e-03,-8.776263438581866083e-02,2.384798800091173648e-02,-1.401270067904017945e-02,-8.502629360248897816e-02,1.856363491706363583e-02,-1.279535828897231803e-02,-8.776212444214613606e-02,1.481465683905753596e-02,-2.082063379876226972e-02,-8.743375415984676324e-02,7.455245657362333071e-03,-2.767609397231057464e-02,-8.038845705260601326e-02,3.219656480154142568e-03,-2.580222521704146621e-02,1.390650658890760401e-02,4.074101739836587938e-02,4.779139975650484318e-02,-3.362952235031137910e-02,2.813366004588540442e-02,2.476323839347399636e-02,-6.637733781557540735e-02,2.619505781702265168e-02,1.110626129359590375e-02,-8.096518724922567578e-02,2.869178891249777458e-02,2.769238628831847092e-03,-9.243110005227307691e-02,2.379824734275521464e-02,-7.318330166577252487e-03,-9.349034433093023067e-02,2.974425502697848611e-02,-1.177590689564709733e-02,-9.029349145645734764e-02,3.013503382606090228e-02,-9.882188842404816126e-03,-9.234485223586329228e-02,2.032648538812959621e-02,-1.941950487036342085e-02,-9.452927795889701224e-02,1.151070827834262990e-02,-2.648713120762573314e-02,-8.777415716530152789e-02,8.937732032383653366e-03,-2.550653003530006097e-02,2.052909122619819143e-03,3.310282187975547435e-02,4.086235155512824013e-02,-4.820265497478275207e-02,2.589012299601171907e-02,1.958747650098381990e-02,-7.979378500687289710e-02,2.808646505803815557e-02,9.811125112208978621e-03,-8.650861150056173010e-02,3.430261811687657786e-02,4.311388312560922656e-03,-9.601522917826471604e-02,3.215031311352894300e-02,-2.057757548076226232e-03,-9.505808874508972495e-02,3.701758701716104105e-02,-4.409793610073789623e-03,-9.501638044512364378e-02,3.798181952658261779e-02,-3.488817149926573286e-03,-9.313837376065786655e-02,3.427672475624041898e-02,-1.126612856621128644e-02,-9.520504881024309529e-02,2.166337440978060441e-02,-1.876225374003534507e-02,-9.055419925838789630e-02,1.665666419665215447e-02,-2.103452158623838816e-02,6.105650494287703442e-03,3.365768500496619381e-02,4.884593956164684503e-02,-4.812004592398346631e-02,3.147330805141917293e-02,2.996016626529773158e-02,-7.493560769015944478e-02,3.941547354239947898e-02,1.929645090214904962e-02,-8.439381741761092792e-02,4.894721033257808107e-02,1.911257554218901561e-02,-8.844412401837695170e-02,4.865411451834058404e-02,1.722278826482382535e-02,-8.766683895080891464e-02,5.426916814554365309e-02,1.346092306867244584e-02,-8.520105863540253233e-02,5.647439961831270117e-02,1.544348664400145392e-02,-8.409032254349060875e-02,5.151824184972484538e-02,5.229552054369278336e-03,-8.604776913794225102e-02,3.791076129527814337e-02,-6.494968937452990504e-03,-8.465165269141070037e-02,3.225200612518566712e-02,-5.365866640883881072e-03,9.145266861947045842e-03,3.370024780253397245e-02,4.524804081130139738e-02,-4.301694209996627383e-02,3.595055775335558035e-02,3.684069696324637072e-02,-7.058615048336544517e-02,4.580360772117528928e-02,2.697355302792672424e-02,-7.531944166193696444e-02,5.847366707094197452e-02,2.908604406101302636e-02,-8.272782569718148404e-02,6.116330272060056805e-02,2.634790737289975648e-02,-7.768966153968760724e-02,6.554480688602881688e-02,2.740795954048393795e-02,-7.591135425477028853e-02,6.724034480517232515e-02,2.455035883177041425e-02,-7.602561071885445554e-02,6.019552268167559922e-02,1.923104488331686679e-02,-8.131867435695548652e-02,4.438973446818753749e-02,1.673219166688366764e-03,-7.850232621380061337e-02,4.056162206871789105e-02,1.533981351288671996e-04,5.263494732266317533e-03,2.797338235228109468e-02,3.965840756964798819e-02,-3.354448558674085618e-02,4.254278059870197914e-02,4.007457262648030094e-02,-5.918406422516100246e-02,5.302115822305871612e-02,3.422373396627303305e-02,-6.551301137620994808e-02,6.183176908844628672e-02,3.863924389536030346e-02,-7.395348105078954071e-02,6.681984200023757814e-02,3.648442669305340669e-02,-6.738934933506876557e-02,7.808684841350702066e-02,3.565891610094407138e-02,-6.538015428059375245e-02,7.673170267037938974e-02,3.470429353474537015e-02,-7.392383521622797327e-02,6.607369166585409792e-02,2.436314441089463406e-02,-7.972524305652697874e-02,5.088155932114750424e-02,5.566777556580616848e-03,-7.679416609024804219e-02,4.264334176403092314e-02,1.825110857374294838e-03,5.845776647386932701e-03,2.531793337732137633e-02,3.600147025785063043e-02,-2.901425914668592093e-02,3.712964296159482896e-02,3.909432261624041366e-02,-5.126881309045486917e-02,4.631660240678651258e-02,3.725185232572864741e-02,-5.760204579327770497e-02,6.512407053371736809e-02,3.937021238831975301e-02,-5.748378056952595239e-02,7.216055984713552751e-02,4.259609575217370575e-02,-5.640402272257422772e-02,8.276313217865097216e-02,4.299125110713877124e-02,-5.872490106496203871e-02,7.984326320597957827e-02,3.651910262373869037e-02,-6.307729415366838954e-02,7.215606586153620883e-02,2.541444077858227152e-02,-6.746311070530075504e-02,5.596751039305048608e-02,1.195778670401849084e-02,-6.760986935037580081e-02,4.653062285578679624e-02,6.160439848600661288e-03
