-4.253055015556410356e-02,2.114827651435432360e-02,2.531624996240232073e-01,3.115373325310271113e-01,2.696361315869669206e-01,1.863782625993768427e-01,2.261708250046351731e-01,3.528222205516189369e-01,5.455841447315614712e-01,5.608630309725423091e-01,5.035327728018527127e-01,7.379454925592922321e-02,1.802829926917578207e-01,2.928225390144944401e-02,2.090733677730637063e-02,-7.242253976389925740e-02,-1.585705512372209969e-01,-2.594339208164038735e-01,-3.773630757196855257e-01,-2.705041891401286924e-01,-2.497680408822783027e-01,-7.493382487982808149e-02,-9.712431899417886538e-02,-8.691252969127358230e-04,1.119575051707117769e-01,1.286027694774085905e-01,2.673958746121760099e-02,-1.192200069461791800e-01,-3.747364356149813780e-01,-5.409340090337427798e-01,-4.816865659675422240e-01,-1.578861345604166133e-01,-1.059472813016308634e-01,1.193416988914702687e-01,3.534094938509268480e-01,4.178995689522805868e-01,2.881370900470098251e-01,6.790069464723472170e-02,-2.188080683845076146e-01,-5.573098454219671538e-01,-5.956953695159941109e-01,-1.326280479547385371e-01,-8.641067923782837223e-02,1.712666560332286037e-01,3.977935678955167864e-01,5.034876323033630197e-01,3.756658124581898628e-01,1.299697483757911720e-01,-2.048524765016803972e-01,-5.831657171875489487e-01,-7.034868686634329071e-01,-2.049699386776548601e-02,-9.926350082316355572e-03,2.284985648203942954e-01,4.226584781712510730e-01,4.964137545286318454e-01,3.551057386989455722e-01,1.163340954090697765e-01,-2.496571409593308921e-01,-6.699402472572522083e-01,-7.855540924093906696e-01,1.370539488177041076e-01,4.812378169888907598e-02,2.272695232848288005e-01,3.864663216697291626e-01,4.408117526681020748e-01,3.057956392970101467e-01,6.119712838831872781e-02,-3.228668145467941120e-01,-7.655358894949348958e-01,-8.239489485156707982e-01,2.719031850126807925e-01,1.102108422988292563e-01,2.099144650104733945e-01,3.309802177766056341e-01,3.321608198386620248e-01,1.797451777816992946e-01,-6.455690544484940507e-02,-4.610376137692306919e-01,-8.657844079303282925e-01,-9.045555121179578162e-01,2.981884142305328833e-01,2.372027390981836514e-01,2.603349437828393897e-01,2.943380918381211520e-01,2.702769114818258100e-01,9.373321633364552208e-02,-1.553541573529786946e-01,-5.481833407687239923e-01,-8.606824605587676258e-01,-8.827909116641174947e-01,2.657627651352023612e-01,2.181920836781075790e-01,2.809168562094531696e-01,3.565443832954613423e-01,3.459387550003616973e-01,2.007320722721402384e-01,-2.789882146133382257e-02,-3.543964593608048275e-01,-6.564793532429596956e-01,-6.811419260452323821e-01,-1.284799483666593523e-01,-2.873061553210612962e-01,-3.657584309541858092e-01,-9.195329248131375866e-02,1.098230935565542021e-01,2.434328218149140605e-02,2.946024205603015034e-02,-1.548747863222035004e-01,-2.194108255071241798e-01,-2.655759499898789344e-01,-1.369321959945095368e-01,-1.533689437633783135e-03,9.073356384543226905e-02,-5.056834534130477329e-03,1.016053942697011173e-02,-4.929160114966811557e-02,6.207209528471781257e-02,1.981686432269149645e-01,2.138241662011740041e-01,1.775035771642939630e-01,2.103711241641168517e-01,1.278155491200727023e-01,-1.297120521327473353e-01,-2.974421636595480645e-01,-3.116493703037122587e-01,-3.518178149964819035e-01,-2.276513346906011426e-01,-3.233740177598416060e-02,1.756102673811497372e-01,1.800470174973999304e-01,2.655586341689604168e-01,-5.385941843982128274e-02,-2.616615583470872641e-01,-3.984955727208714382e-01,-4.288553018743465062e-01,-3.976593159299148805e-01,-2.882202136244855772e-01,-7.835959379471836572e-02,2.198485626603693399e-01,2.640659312708367179e-01,2.070098134138399770e-01,-6.979871054138837849e-02,-2.840691667741583881e-01,-3.785605374052663508e-01,-4.170665094197234524e-01,-3.792576059948086775e-01,-2.763574073135127707e-01,-4.011926146737543331e-02,2.636995350718867037e-01,3.281926669719578138e-01,1.494489686899867498e-01,-7.558787584806932192e-02,-2.726078397340308546e-01,-3.351908695217786227e-01,-3.811774447169191671e-01,-3.528702878608558913e-01,-2.303970785349713501e-01,1.183964547108365233e-02,3.148571793800049590e-01,3.658520580688886525e-01,9.756922079897122069e-02,-6.394699863944000584e-02,-2.234160471909258094e-01,-2.758697639182865480e-01,-3.072676600817037529e-01,-2.698514444776116683e-01,-1.805806829224094467e-01,4.455704921873124974e-02,3.316954091223192069e-01,3.645929995891009634e-01,4.629257476100803737e-02,-3.100494076463827103e-02,-1.416694303423566559e-01,-1.857167565912969387e-01,-1.909137482125594920e-01,-1.410625191482765550e-01,-2.122196100572412009e-02,1.542140450344685332e-01,3.729262828747981207e-01,3.774945620620968056e-01,1.835426483120127308e-02,-1.523270465526792641e-02,-1.095726100954845100e-01,-1.184309587316006024e-01,-8.902813572159154476e-02,-1.060788078455032844e-03,9.950083288617601884e-02,2.262720505119178993e-01,3.927278432628171223e-01,4.238622825395196858e-01,-4.036660942883349597e-03,-5.048916121543764457e-02,-1.558051993572419081e-01,-2.259895218905428327e-01,-2.518722524767917914e-01,-1.902617558122397246e-01,-5.711272947749876372e-02,1.064816244127370082e-01,3.293239259852673295e-01,3.778104554205348187e-01,-1.294871113475010715e-01,-2.893879427149421701e-01,-3.646624530404186659e-01,-9.069807582406076707e-02,1.090519879792777591e-01,2.286435729819397134e-02,2.729983053206381377e-02,-1.526408283740509908e-01,-2.220396883342858063e-01,-2.638259913788136291e-01,-1.381676391296183248e-01,-2.130464390946758789e-03,9.238961245612442585e-02,-3.622225594702992765e-03,8.537484774714124147e-03,-4.635025059545019172e-02,6.019287830599220901e-02,1.980937881950994017e-01,2.143007730461921334e-01,1.795917904449392810e-01,2.127032071571595684e-01,1.261185942669869053e-01,-1.320110489089403316e-01,-2.956307937195917779e-01,-3.140680505438914749e-01,-3.524376978564350837e-01,-2.290847368838659359e-01,-3.515383279191802018e-02,1.777884706411551330e-01,1.828365979598625124e-01,2.654285236824610594e-01,-5.515439597827499763e-02,-2.609069521688158755e-01,-3.985539847232001387e-01,-4.304998055616255370e-01,-3.957698680993871898e-01,-2.901164316765356688e-01,-8.053614078636940621e-02,2.215168248750103430e-01,2.677362751422526221e-01,2.061109714754630895e-01,-6.841315000364998899e-02,-2.821771257599294258e-01,-3.796727551493144781e-01,-4.194973629096063750e-01,-3.806844653026922876e-01,-2.777138805317143078e-01,-3.947317493331869293e-02,2.624033200907793795e-01,3.276319429202171341e-01,1.483602708707116580e-01,-7.431894726238509608e-02,-2.739620030200118905e-01,-3.329845632350421636e-01,-3.800570654178118679e-01,-3.505147448810326805e-01,-2.290579308384196877e-01,9.468519122453762302e-03,3.189887206099677464e-01,3.684647631357423903e-01,9.865736637845180790e-02,-6.307580801150312888e-02,-2.238953482323469135e-01,-2.759528798612617684e-01,-3.063350861995556840e-01,-2.704241920734528071e-01,-1.809736383107729829e-01,4.823191788376744726e-02,3.327037367183121597e-01,3.617890398588344825e-01,4.515095042456404584e-02,-3.154067799799057520e-02,-1.441055261355015660e-01,-1.846457279226048076e-01,-1.921996338808506510e-01,-1.428124806510498723e-01,-2.392392807669330157e-02,1.503367200014729677e-01,3.720233582948533346e-01,3.753631284155062864e-01,1.589355204674210501e-02,-1.596633108660903966e-02,-1.122123631123041060e-01,-1.168502493321685737e-01,-8.746103031307639331e-02,2.453059616641361292e-03,9.958954952432559626e-02,2.245188931546343858e-01,3.908092444989008096e-01,4.195905956528555580e-01,-4.291725631119370013e-03,-5.069666644051704085e-02,-1.557543656068331173e-01,-2.296551427563819359e-01,-2.489725292881731500e-01,-1.916842135712852335e-01,-5.426374326268122716e-02,1.073576121397306904e-01,3.271606626240295412e-01,3.808625312582607503e-01,-4.076435856177708372e-02,-4.180837689265323037e-02,-4.303384225515536482e-02,-4.066726187818137106e-02,-4.281834677318743093e-02,-4.053346360651481628e-02,-4.134918785140364456e-02,-4.018013647202396676e-02,-4.140861652101796714e-02,-4.096507749187333625e-02,-4.488214607642482257e-02,-4.100331766558156649e-02,-4.293361470083042336e-02,-4.011912107988836046e-02,-4.068385235929471155e-02,-4.490527782508824117e-02,-4.409204842266849916e-02,-4.099462066230864093e-02,-4.063046261835074474e-02,-4.008564425860364905e-02,-4.144230364021070367e-02,-4.473594257828344967e-02,-4.112386916837998396e-02,-4.442948859353077623e-02,-4.241265121552506567e-02,-4.430956436996532494e-02,-4.452721639916500107e-02,-4.224565023460866153e-02,-4.184692495630785991e-02,-4.265396488614034420e-02,-4.241885433532903427e-02,-4.418675992871248792e-02,-4.237755701758892657e-02,-4.340725854579036841e-02,-4.077782286769390113e-02,-4.385771226424561159e-02,-4.092431740507567611e-02,-4.426724336415763933e-02,-4.489134355691727640e-02,-4.054030846422075618e-02,-4.265897876128525029e-02,-4.491584838275964470e-02,-4.288412604171603498e-02,-4.245373888020109732e-02,-4.278621901482891621e-02,-4.404973968329378708e-02,-4.184291160148848054e-02,-4.340292259110951900e-02,-4.377394213448772275e-02,-4.302784233336711534e-02,-4.313417415120682219e-02,-4.463841268549408048e-02,-4.456676319685161369e-02,-4.219778731233161245e-02,-4.319995556780639734e-02,-4.038078035461424575e-02,-4.345794552908265745e-02,-4.078684519059078140e-02,-4.326305095712072724e-02,-4.185701316308527986e-02,-4.490253405577626644e-02,-4.189488040869311647e-02,-4.138603834089297356e-02,-4.329575276541564738e-02,-4.451754599659837885e-02,-4.306417872302546745e-02,-4.093131555717249154e-02,-4.121372719853612365e-02,-4.367932594930950402e-02,-4.148228847339744535e-02,-4.164350480668412013e-02,-4.012359674915031565e-02,-4.446589617703975567e-02,-4.478166324440317064e-02,-4.048959422538251501e-02,-4.305666668981485146e-02,-4.183654249564791594e-02,-4.434730349197872623e-02,-4.374355173456098700e-02,-4.272372713899909996e-02,-4.475999886914757558e-02,-4.281351866052565680e-02,-4.396394710790149651e-02,-4.373506971209330935e-02,-4.294483481279019049e-02,-4.054295074294709395e-02,-4.067490898368755076e-02,-4.396153031237459013e-02,-4.381137317620653615e-02,-4.015105672419463922e-02,-4.300646452618044763e-02,-4.119164336938637566e-02,-4.135591098560267853e-02,-4.107170586292790276e-02,-4.486679150193680077e-02,-4.438183981493708935e-02,-4.377989940271323488e-02,-4.423661141150730947e-02,-4.354915230410219551e-02,-4.267297636518798537e-02,5.622110641752239291e-01,4.182346051988152236e-01,6.074823576303584050e-01,1.700684466825877206e-01,-1.349196142940128629e-01,-9.014713994992162860e-02,-5.849142488759123681e-01,1.863554168622149065e-01,3.603307703486796076e-01,3.595863038472540407e-01,3.081178971123424426e-01,6.541885720745733712e-01,9.061504567902159968e-01,9.464413885667110060e-01,9.922657428064827201e-01,7.767046080557010734e-01,3.038676389556057567e-01,-4.536237623703205379e-01,-1.043362733733879999e+00,-1.024541828251130049e+00,3.043563873516963447e-01,1.803213006020834008e-01,4.927125250071092144e-01,5.371964563986548757e-01,6.615855483312891305e-01,4.774639288323737629e-01,5.751096897033344257e-01,-1.182275059899870751e-01,-1.312729289429213964e+00,-1.070341660479912305e+00,5.811562185609563391e-01,3.250994677876409278e-01,4.325372575041356304e-01,1.101135316630548200e-01,2.536055241272434091e-01,-1.723648497988316819e-01,8.590482129875715023e-02,-3.133913456983944967e-01,-1.043024290209110916e+00,-8.844203128402177150e-01,7.989456217687820327e-01,-8.055917147535879286e-02,2.111991127754716535e-01,-4.413258115435326756e-01,-2.120346011146093668e-01,-3.533593256164281882e-01,-3.924517912917284690e-01,-5.609361578831900674e-01,-1.097479562529785513e+00,-8.922027225162737496e-01,8.593444598645315624e-01,4.003006031880319004e-01,4.827852737723900001e-01,-2.130457518890115087e-01,-9.072012565770155856e-02,-5.094527397130260704e-01,-7.042120464777777977e-01,-7.578323698958981947e-01,-1.510735565664250268e+00,-7.762849396882203212e-01,6.757413601720867469e-01,3.638966914980171219e-01,2.797480413738569482e-01,-2.623878235735165321e-01,-1.690595961039131623e-01,-4.828775178293295278e-01,-5.791265044986219079e-01,-9.322708418941312303e-01,-1.300324762008301160e+00,-6.263347211809968673e-01,4.266489777104807701e-01,-6.119813530763139331e-02,2.197967761540045029e-01,-1.816000966812096606e-01,-1.162817627359839373e-01,-1.763043060428829134e-01,-9.091131070291864624e-01,-7.428588073417231596e-01,-6.145605923452361896e-01,-5.673381946476808713e-01,4.889806433634446559e-01,-7.152657051824901080e-02,8.294311535682873382e-01,1.362544291576131827e-01,-1.803212758067147536e-01,-2.826004039286642566e-01,-2.333397834638487600e-01,7.491376022488901998e-02,-2.766882013316745437e-01,-4.642265794560206382e-01,4.832233476051165932e-01,-1.090857845626716227e-01,1.090895099433770943e+00,2.004681344121150399e+00,1.560759733977197472e+00,1.293941119707984866e+00,7.567210046625775233e-01,6.374144990741205108e-01,1.867885310256223175e-01,-1.564469624628283262e-01,3.387416013965766082e-02,2.558708365352094227e-01,2.020734413541351582e-01,8.385986063602786367e-02,-3.688052564047054199e-02,3.827093715721335832e-02,2.206945169072787594e-01,4.685895331395852348e-01,4.879741812174032134e-01,4.477163250028918240e-01,4.160516400585719671e-02,1.126736225945733534e-02,-2.742284806819322851e-01,-3.939125056269973113e-01,-4.938993503925557249e-01,-5.530819953246253196e-01,-6.049004553869592460e-01,-6.362270428410403689e-01,-4.612261553997589192e-01,-3.968301861779880424e-01,-8.172497924655698631e-02,-2.479716340111930151e-01,-2.527694370848453387e-01,-1.505700241679914508e-01,-1.349392046067020567e-01,-1.950329066566801051e-01,-3.135296602604535354e-01,-4.740136665001011829e-01,-5.821985042825249534e-01,-4.842518064364024211e-01,-1.273883561034556133e-01,-1.845238426395425513e-01,6.370946750342687537e-02,2.976623250461527537e-01,3.751216314855823630e-01,2.336351566630493759e-01,2.331998834814991151e-02,-1.797504048205927907e-01,-3.911264739367717458e-01,-4.313830753006520080e-01,-4.282543525237721832e-02,-7.873863463982050392e-02,2.109234349148255971e-01,4.744254945408249990e-01,6.187638178982316495e-01,4.662859439051457167e-01,2.468294156464541922e-01,1.828951721644225814e-02,-2.689401350512107824e-01,-3.530823996287782429e-01,1.699673072851497491e-01,6.458465175771742339e-02,3.228077368637705669e-01,5.249714081407135247e-01,6.635239587764659719e-01,5.416571230955901095e-01,3.414698052249961480e-01,7.425625741992708528e-02,-2.354918609292035447e-01,-3.325913802446273104e-01,3.745872116024523968e-01,1.713144015703458312e-01,3.588926156654026478e-01,5.221137160543142253e-01,6.229051156737892558e-01,5.084630184109609763e-01,3.377255569420800629e-01,7.081019660221744838e-02,-2.581142791622128563e-01,-3.308355096388607142e-01,4.656781560345316096e-01,2.417283471499461767e-01,3.170951783597854567e-01,4.420992497882606509e-01,5.263822365132692083e-01,4.304725441306178069e-01,2.600601838892198092e-01,-1.377408416376708824e-03,-3.151241468703560034e-01,-3.682594775591704339e-01,4.778706561682694032e-01,3.447372041635713980e-01,4.008721467637594293e-01,4.629013390870842515e-01,5.128398489242645963e-01,4.103124814563012257e-01,2.261347085971349702e-01,-1.871101107942135452e-02,-2.925024887102907201e-01,-3.102215059384085261e-01,4.293517641466889079e-01,3.216622055869155505e-01,4.147688825110553701e-01,5.199217912006647291e-01,5.930295596938843783e-01,5.298390998137769703e-01,3.790880514555045600e-01,1.417938805077618714e-01,-8.503534344909358111e-02,-1.196007119592554374e-01,-1.417090115744517598e-01,-1.940982058676074262e-01,-1.068929665770688014e-01,2.275982318025150664e-01,4.674635955186152159e-01,3.318580534918001979e-01,2.843964327309336237e-01,4.175344752259459169e-02,-4.577813119310435164e-02,-8.237259464928539665e-02,-6.666787908025352538e-02,2.989158854310623448e-01,5.636831852641253082e-01,4.698363147534480033e-01,4.195191665570306427e-01,2.950304524508403636e-01,3.801260983491149825e-01,4.407017334395422203e-01,4.351667062422344134e-01,4.037102807708115582e-01,1.775509578459245896e-01,3.911421422685818494e-01,1.914104970429998387e-01,-1.528129321004555868e-02,-7.436923269352843646e-02,-1.349144926971979908e-01,-3.117665738035813039e-02,8.760668240585642308e-02,2.476621579859540623e-01,2.646560504684108417e-01,3.438838694811688357e-01,1.550537092796928085e-01,-7.967028031543237077e-02,-2.829230585320920976e-01,-3.345618260793709053e-01,-2.955689151361708400e-01,-1.670827883435374028e-01,-4.696244567674950215e-02,1.368997692649403242e-01,2.456777485302673869e-01,2.834015069375064866e-01,1.358720872196848561e-01,-9.537616997483613912e-02,-2.688396735454762765e-01,-3.590580758645984805e-01,-3.147526756046257757e-01,-2.083399678378353159e-01,-6.951463948146432981e-02,1.240157490617896791e-01,2.548524062836534099e-01,2.527377333437853535e-01,1.667241086927798432e-01,-9.993270249628570523e-02,-2.075325344927073934e-01,-2.636704551626186110e-01,-2.483589237355317558e-01,-1.646499175968366702e-01,-3.678454926707098310e-02,1.694103156000160704e-01,2.956909843211790734e-01,2.310430811714161425e-01,1.863555467841765401e-01,-2.899967971105899683e-02,-1.261669921655372006e-01,-1.790791765145162417e-01,-1.775636498343634850e-01,-9.846804386439131362e-02,3.156941573365026898e-02,2.133439798751661509e-01,3.450179492961882310e-01,2.005108033113053856e-01,2.496327102940791576e-01,9.360583911862732642e-02,2.274865689495236126e-04,-5.561234431826135582e-02,-5.055223332686700072e-02,1.376432607247207555e-02,1.196230982621358241e-01,2.816349170602552854e-01,3.668691881231260776e-01,1.325061485483267631e-01,2.246636116039371911e-01,1.220486916686275985e-01,5.128688188610739523e-02,3.582081674981285602e-02,5.360674140302125468e-02,1.008937361523014331e-01,1.794969342985697214e-01,3.319442550618280641e-01,3.591077226302948344e-01,7.834953077556246204e-02,1.650318776822573275e-01,1.900292449439361722e-02,-4.430462206617494236e-02,-8.105891124780238710e-02,-4.820039406055050268e-02,2.833317791643295142e-02,1.323970069521030746e-01,2.786171790788457558e-01,3.215109902459502011e-01,-1.440918656630680028e-01,-1.960990220838996212e-01,-1.096743593149944046e-01,2.288063304139937582e-01,4.648622825344689846e-01,3.344587310583636564e-01,2.826880960227311501e-01,3.929708298350510776e-02,-4.641246160511426633e-02,-8.043035008906057604e-02,-6.735428251733413529e-02,3.025676536529426364e-01,5.626138975448099488e-01,4.669797227654619576e-01,4.205866124405603368e-01,2.964458554388745837e-01,3.807893236188056307e-01,4.373609761726836576e-01,4.326819380567631379e-01,4.030130756658428237e-01,1.761190889630712963e-01,3.873256314603704120e-01,1.914813030406316008e-01,-1.610360180175824524e-02,-7.359280099673587427e-02,-1.361622327823340250e-01,-3.159658519150343459e-02,8.968111344552051611e-02,2.495987090082230908e-01,2.646768028719254651e-01,3.406167966406959402e-01,1.574992625867936147e-01,-8.052741848324156126e-02,-2.825932255285029671e-01,-3.337780532993465110e-01,-2.966702061784997624e-01,-1.650339484838376780e-01,-4.547242451232950261e-02,1.359312414087355536e-01,2.457981026539770852e-01,2.859675386774441219e-01,1.392392172557626873e-01,-9.432116243907637254e-02,-2.697843290245056092e-01,-3.602268776259093253e-01,-3.108385351695550081e-01,-2.083212126183278667e-01,-7.066619814355015738e-02,1.242154595748175411e-01,2.530352069092391409e-01,2.519089675407581996e-01,1.658465080636411793e-01,-9.733103971440117130e-02,-2.056208032781185191e-01,-2.587846138051336231e-01,-2.463325868163003807e-01,-1.625159515119072584e-01,-3.714535347258091785e-02,1.677063570505162304e-01,2.925655137027564634e-01,2.305825228073653532e-01,1.852839596959943158e-01,-3.018464381698855031e-02,-1.233863554048239275e-01,-1.781791758570693551e-01,-1.759222326444428719e-01,-1.009536486199626160e-01,3.042236742753622741e-02,2.138550723648733332e-01,3.456067796662710689e-01,2.031021553815628433e-01,2.482920187213680518e-01,9.358092281104271604e-02,4.117016663267769952e-03,-5.439146627457609739e-02,-4.582844336900081944e-02,1.497594533574599963e-02,1.209517263928182318e-01,2.773034236648287965e-01,3.682825278219704623e-01,1.315492392484339801e-01,2.271552045771665085e-01,1.237752756525384440e-01,5.356661445246312797e-02,3.434971620655802999e-02,5.451440804604160140e-02,1.011481241611598969e-01,1.816045780318524538e-01,3.312396625941869677e-01,3.571258353850264577e-01,7.696339600076185228e-02,1.663632718657564735e-01,1.924450357500565381e-02,-4.617191498598349764e-02,-8.229573175276887198e-02,-4.762506640111860423e-02,2.563064043058976144e-02,1.331843218215737201e-01,2.779762810764078163e-01,3.222878750314760454e-01,-4.120758418690424058e-02,-4.193475570792303680e-02,-4.461053037479066619e-02,-4.257309574246046641e-02,-4.456645237168845725e-02,-4.414951384831496128e-02,-4.418597488181742056e-02,-4.369448942670513952e-02,-4.267200935228950692e-02,-4.244598546009802770e-02,-4.372716260846637448e-02,-4.456894773247287861e-02,-4.165848336722634965e-02,-4.395239204345649520e-02,-4.196006381166660776e-02,-4.311926328964612448e-02,-4.474577510089455118e-02,-4.140508345035574800e-02,-4.313712004501583930e-02,-4.136254882563775159e-02,-4.407374453349131860e-02,-4.411989031553734814e-02,-4.240471937798777347e-02,-4.472360073153325288e-02,-4.277265091919140588e-02,-4.156879274132472407e-02,-4.144456826620449008e-02,-4.083246123027108737e-02,-4.237783034892828038e-02,-4.062861144901072641e-02,-4.450236593312036776e-02,-4.164429574126761457e-02,-4.085825506383081868e-02,-4.365656906564354539e-02,-4.284609363239477720e-02,-4.273713684621791714e-02,-4.182869928672026949e-02,-4.318296316885790465e-02,-4.144273207381132113e-02,-4.231962347731871993e-02,-4.416093085410306707e-02,-4.093718020374863265e-02,-4.158780463013947437e-02,-4.468541927642966094e-02,-4.310707765412338799e-02,-4.227102800197041904e-02,-4.286679751717553666e-02,-4.110480430411967562e-02,-4.286948309256958384e-02,-4.237833058057574598e-02,-4.443084644633354952e-02,-4.190203124393269973e-02,-4.240943729522794747e-02,-4.346690655071085152e-02,-4.309371797873640803e-02,-4.467265408523063419e-02,-4.143751698246617848e-02,-4.431786532684493102e-02,-4.402310511436524632e-02,-4.430939800191966566e-02,-4.381380175203183208e-02,-4.246270810123093514e-02,-4.465218669429770609e-02,-4.069815509583768476e-02,-4.333166123112446727e-02,-4.152594398176080726e-02,-4.462335080350759292e-02,-4.076436663146391914e-02,-4.164279319531209028e-02,-4.291577219920458819e-02,-4.004252038940604719e-02,-4.295973233564581023e-02,-4.090453222892381085e-02,-4.412530760651522943e-02,-4.110455428555190999e-02,-4.109577611630423760e-02,-4.245250465332651990e-02,-4.379300944999881678e-02,-4.068019704777078860e-02,-4.399432518156860816e-02,-4.221327068349274569e-02,-4.301669947975784308e-02,-4.452271359696317182e-02,-4.054636008141145054e-02,-4.215554900676286854e-02,-4.280771275288903360e-02,-4.043722120322680580e-02,-4.193749913049444472e-02,-4.427422821057273167e-02,-4.133798700445828062e-02,-4.252425745696475357e-02,-4.172302687456978798e-02,-4.347116119706193049e-02,-4.187162463121851808e-02,-4.238901603122036815e-02,-4.140080487481288818e-02,-4.290893088687323942e-02,-4.304542098817276674e-02,-4.495932887075707041e-02,-4.377149205786861480e-02,5.744989403623057544e-01,-1.944150028883135095e-01,-1.106571472861135774e+00,-1.119715790249194987e+00,-1.417465973860244643e+00,-9.406858800264439324e-01,-8.649043072920676867e-01,-6.024439957377078492e-02,1.374016422533117787e-01,1.382088962667128162e-01,-1.872618194097824262e-01,-8.292983464297397633e-01,-8.700321437764336752e-01,-1.784629992230043205e-01,-1.976986350452344596e-02,8.544053487919932299e-02,-5.589131144296767550e-02,-8.345998943942306569e-04,-2.779232731947979262e-01,-2.779341469979323964e-01,-8.265494336818148824e-01,-4.682229473558666144e-01,-4.997703651950482495e-01,7.268507891390918463e-02,2.620051850772353585e-01,2.587547390210370168e-01,2.014048549510480679e-01,2.031746471909645912e-01,-3.500980160742466762e-01,-4.593176256446643291e-01,-6.524876971852544560e-01,-2.077075338219490364e-01,-3.665101819496601188e-01,-1.487965515885735224e-01,-4.904252618255078994e-02,-3.398277122952978457e-01,-3.101114857401849334e-01,3.174786488852000821e-02,-2.250831394040371525e-01,-4.292797491488199446e-01,-5.701131159303776119e-01,-1.147351434551879157e+00,-5.393584061924807660e-01,-9.013434360221490582e-01,-8.667767897843298153e-01,-6.893395514610605179e-01,-6.469113256144863877e-01,-9.549679337225706888e-02,-1.145428803136164381e-01,-3.703929463075468775e-01,-6.107688609413269853e-01,-6.291153783453586890e-01,-8.942906053737038896e-02,-4.903850890813385432e-01,-2.789197134365708486e-01,-4.443821381684348593e-01,-2.273727850085204005e-01,1.953169525701951570e-01,-1.265664244013202551e-02,-1.648944039068749867e-01,-7.714479663743427640e-01,-2.805476297635666194e-01,7.834000291713053010e-02,-3.461651284210811030e-01,-5.125205882564744936e-02,-1.258454962918890696e-01,6.292641553796028686e-02,3.448167329929591185e-01,4.549536818182277863e-03,-1.093078755143210568e-01,-9.773926479965590053e-01,-6.706598936483429974e-01,-1.730184049610578034e-01,-3.629677490797073025e-01,6.653716853508108431e-02,1.111102829696459376e-01,2.249214569929786633e-01,2.638951886426234572e-01,6.976604727552308816e-02,-9.067240374279007809e-02,-9.296234645107468442e-01,-5.467051260969878479e-01,5.891588298673610113e-01,3.844287406274128349e-01,6.214253015174301398e-01,6.514757959023507183e-01,5.356437137069579579e-01,4.130325684807513165e-01,1.544240630684819149e-01,-1.062271459359970076e-02,-9.433048157534480449e-01,-5.886618021698959424e-01,4.778199009369165640e-01,8.455407072393580359e-01,7.554098236398434363e-01,6.130247569464243318e-01,6.017406081472864710e-01,4.406209142580882476e-01,2.207679097019553394e-01,5.116495079595972245e-02,6.043908194140986539e-02,3.012109466611766484e-01,4.428139573584416455e-01,6.726892222870991533e-01,7.775047916771800072e-01,9.355915200467606052e-01,1.142342704695907374e+00,1.300691814541104385e+00,1.225989628767702788e+00,1.088443320571690354e+00,8.696236536907980819e-02,1.892538449444508830e-01,1.066352243542569023e-01,1.684899999784555125e-01,1.347729995287526295e-01,8.836928803970904578e-02,-5.744657909533128735e-03,-1.112806598018040022e-01,1.151231555041052831e-02,6.832967131529747717e-03,-6.573446343542356518e-02,-4.806950107553345508e-02,3.024432668669002969e-02,2.080352135996256513e-01,2.517649717701987977e-01,1.744614664650495084e-01,-4.611393603287416293e-02,-2.962547478752637353e-01,-4.169461493061646373e-01,-3.597967977013069030e-01,-8.818269008023456312e-02,-4.839681185603984803e-02,1.640697041484200647e-01,4.278693055493146824e-01,5.172267426985377448e-01,3.354511690439953009e-01,4.394602532543143841e-02,-2.616026557640058203e-01,-5.092017330809850417e-01,-5.362986868416039776e-01,8.838428688804447764e-02,6.870288711894304012e-02,2.240983857854796368e-01,4.687714888637199984e-01,5.714492134133657419e-01,3.885518159058681253e-01,1.000841534442180047e-01,-2.190059907890080093e-01,-5.495125420143108785e-01,-6.257364156825592216e-01,3.678187340352926937e-01,2.626909617770624705e-01,3.497485005053344032e-01,4.847263415410736354e-01,5.437266479196686264e-01,3.915754172164312430e-01,9.510736308795234017e-02,-2.177232405015364913e-01,-5.576628451994110058e-01,-6.383544440253491326e-01,6.016267825580925432e-01,3.920223192410363655e-01,4.153570843223448050e-01,4.977612006835864245e-01,5.234952928500414826e-01,3.540470457673313143e-01,8.890243649461999909e-02,-2.168537835274442216e-01,-5.721278279465897842e-01,-6.730330519646231524e-01,6.932627779677379420e-01,4.747206088720744011e-01,4.144006613632971181e-01,4.297850682781002019e-01,4.369772668686040529e-01,2.755920582944975106e-01,4.175275387804072702e-02,-3.044140518893601599e-01,-6.424130255108727594e-01,-6.923079767181796740e-01,6.635811716387651771e-01,5.542298508772829368e-01,4.814489263054988477e-01,4.407180543652320370e-01,3.942266086772524547e-01,2.429926091783716213e-01,-1.129565210722738994e-02,-3.363983883514090056e-01,-6.221773647764099469e-01,-6.536771122841560366e-01,5.872486318287517548e-01,5.244523519365017483e-01,4.460818685052706511e-01,4.901737174055645352e-01,4.598297086160305636e-01,3.403457567681408835e-01,1.190087651633392196e-01,-1.688504673869141437e-01,-4.241158005632220118e-01,-4.662729423646732596e-01,-1.800888078398779901e-01,-1.672148463148178388e-01,-6.396732494861244733e-01,-4.654212054495014406e-01,-1.453098147899969383e-01,-1.597929693182211508e-01,-1.414390501135879274e-01,-3.492142533817937933e-01,-4.982173238809717852e-01,-5.442121977117655440e-01,-5.692166537516721997e-02,4.691362333482742425e-02,2.472849091658470555e-01,2.012691069309406056e-01,2.391171233971797483e-01,2.163973397649575081e-01,3.735212003255354851e-01,4.729408468233607943e-01,3.918257019977315903e-01,3.235307131252318502e-01,1.309662417362629228e-01,1.949059216355065183e-01,-2.026502576299860428e-02,-1.946205856474130524e-01,-2.151448920998146053e-01,-2.258791564818312392e-01,-5.405949541601414929e-03,1.518633499784892982e-01,2.373854717688705929e-01,2.222417101276796259e-01,2.030070769742628733e-01,5.210173479916511974e-02,-1.868254682440206316e-01,-4.663948713525496448e-01,-5.230890548038474863e-01,-4.645361046558137974e-01,-2.622051707528698095e-01,-1.029446485157819724e-01,5.370162998602875937e-02,1.053076781874250495e-01,1.146861817950102225e-01,-1.648746811052730164e-03,-2.288580164171914455e-01,-5.205157034700584884e-01,-6.347205103306650109e-01,-5.970304007240914146e-01,-4.482448316874910188e-01,-2.527713219894742180e-01,-7.815807154726324424e-02,6.127613481798343045e-03,2.122441455213497363e-02,-2.807709132372172931e-03,-2.548798625755642200e-01,-4.866171269837892832e-01,-5.899452015972388441e-01,-6.338285411902252475e-01,-5.102371310790400072e-01,-3.145334523485904255e-01,-1.546414194235485040e-01,-7.687974825365376068e-03,2.098371613694635651e-02,-1.457621625136756340e-02,-2.744262446366729780e-01,-5.047705118168095417e-01,-6.224733718915576031e-01,-6.311126273496806549e-01,-5.431120731290449699e-01,-3.532142760696000972e-01,-1.970654114522103206e-01,-5.313246664710328387e-02,-1.922763606188158253e-02,2.903824637637475795e-02,-1.885161598886584688e-01,-3.954201926306297743e-01,-5.036126591896554761e-01,-5.474632732274080649e-01,-4.997337842348341108e-01,-3.329345818316418737e-01,-1.891980730016389889e-01,-6.973166107997746943e-02,-7.581802464042351752e-02,1.993815718594737704e-02,-1.323695730899916989e-01,-3.062094716117914062e-01,-4.040726259759614969e-01,-4.372772553767867443e-01,-3.965710532802409483e-01,-2.911859599958642186e-01,-1.344344053577951892e-01,-3.346232491775444351e-02,-1.299082524492644886e-01,-6.193317271671665986e-02,-1.996325429204211521e-01,-3.478461608488135903e-01,-4.076008959826424305e-01,-4.286090541903461171e-01,-3.646272757292985944e-01,-2.288910798975956062e-01,-9.292129857283232264e-02,2.857917783135696665e-02,-1.810622482188603277e-01,-1.697279698089121935e-01,-6.375483222396053362e-01,-4.638083876108724524e-01,-1.419326816089128140e-01,-1.580408988437308759e-01,-1.381902467339624629e-01,-3.511343129594529655e-01,-4.955493300279497082e-01,-5.451271005022599869e-01,-5.561591035936436916e-02,4.405979075594069344e-02,2.495249631014561653e-01,2.025593660944275121e-01,2.393979670573643526e-01,2.199345658595170949e-01,3.716086955982599305e-01,4.718478552746021570e-01,3.936660322604338402e-01,3.230502465292973691e-01,1.284210140470610773e-01,1.913981006499644033e-01,-1.939714272382488808e-02,-1.930216467158389071e-01,-2.166913871075119846e-01,-2.300519133246807235e-01,-6.518274370953581337e-03,1.506129538004148949e-01,2.334925687609375466e-01,2.235957263526586747e-01,2.041432365240031521e-01,5.585004110546816503e-02,-1.842034841497852682e-01,-4.696900593264565771e-01,-5.257334114733998032e-01,-4.637814923386714416e-01,-2.658229300390815841e-01,-1.035134151815527842e-01,5.447485882796689050e-02,1.039000548442638311e-01,1.141557033260371112e-01,-1.499733852477942459e-03,-2.329026720565195996e-01,-5.216052743158947624e-01,-6.338473888502100806e-01,-5.969021475059417270e-01,-4.463733719662736354e-01,-2.533240722997138761e-01,-7.637816938435480763e-02,5.976293654159792884e-03,2.030219713761707151e-02,-1.336257828416839884e-03,-2.540615302829342670e-01,-4.854513126844210436e-01,-5.899612461545419295e-01,-6.344512033448740373e-01,-5.099995779436440335e-01,-3.168097330858320460e-01,-1.561550113080950875e-01,-8.454589449393434125e-03,2.111677664953541533e-02,-1.583189322461193288e-02,-2.745027327309856879e-01,-5.024590607110208662e-01,-6.217248875710245093e-01,-6.307523512003904154e-01,-5.456032443057298176e-01,-3.517118366298347953e-01,-1.958241967870552880e-01,-5.282314881288763947e-02,-1.630648966261719068e-02,2.685155294963784828e-02,-1.873087532645203168e-01,-3.961966371157740197e-01,-5.004345137255477027e-01,-5.504959480361016899e-01,-4.967807222888695473e-01,-3.338074649191432042e-01,-1.874574203815618789e-01,-7.020330481942574363e-02,-7.664335059122788507e-02,1.772134054115502913e-02,-1.292777777773488346e-01,-3.074679437362846657e-01,-4.069508482969390606e-01,-4.346778154473964206e-01,-3.976071610617082919e-01,-2.905456247674826353e-01,-1.351336147983378255e-01,-3.401780352481298397e-02,-1.323049360825310494e-01,-5.839745351763151598e-02,-2.024276750123701896e-01,-3.465025947053671507e-01,-4.067694197201844886e-01,-4.251899494023042569e-01,-3.648296814250635012e-01,-2.288137079841762733e-01,-9.071818075339516119e-02,2.909764366655120948e-02,-4.040671722889697948e-02,-4.106013843407891467e-02,-4.007134476848810828e-02,-4.455054135948788990e-02,-4.202702790549373707e-02,-4.025729228201826299e-02,-4.392522675544933974e-02,-4.069545585499143719e-02,-4.390884101031530123e-02,-4.319088050367638626e-02,-4.395218856138429636e-02,-4.295159093248666904e-02,-4.482736469541092478e-02,-4.193359725772053542e-02,-4.468286461127461695e-02,-4.161611731847980611e-02,-4.119665492633815818e-02,-4.306933788021408138e-02,-4.352478200775407313e-02,-4.440761669466281036e-02,-4.067455535039738584e-02,-4.004608632232279503e-02,-4.374302975028208224e-02,-4.400090279118402253e-02,-4.288937302520276496e-02,-4.343641941778624699e-02,-4.453925586939674192e-02,-4.228294027943302336e-02,-4.027061967671697468e-02,-4.224286867435955717e-02,-4.157260127301075359e-02,-4.380723323515424428e-02,-4.149291911921009629e-02,-4.158098310748308685e-02,-4.041047801939662287e-02,-4.278851787096394493e-02,-4.469693034449662150e-02,-4.117859856846346062e-02,-4.154574606170154116e-02,-4.478925311069205384e-02,-4.114939694832714379e-02,-4.382252843392027419e-02,-4.364842937429876113e-02,-4.275116025080204218e-02,-4.446442469980221857e-02,-4.390123935245637821e-02,-4.468577828150151199e-02,-4.396812842855434694e-02,-4.401128669227028639e-02,-4.400359635305114286e-02,-4.130231977414240696e-02,-4.232226986140186914e-02,-4.335415502378931613e-02,-4.293139604484440958e-02,-4.412028325075585677e-02,-4.328358784825851735e-02,-4.033932637936722687e-02,-4.373784175927606516e-02,-4.136835867660795113e-02,-4.122945859252833550e-02,-4.153311829582242987e-02,-4.389692862633738646e-02,-4.126046341983425486e-02,-4.163075544483218343e-02,-4.092105687816374043e-02,-4.079687614508292759e-02,-4.014160978109395511e-02,-4.330666352334255204e-02,-4.222288785919659643e-02,-4.250154567596016453e-02,-4.256484677947466183e-02,-4.201817607362955814e-02,-4.240252035430095573e-02,-4.172674224095649503e-02,-4.428847253194839739e-02,-4.168154859871924661e-02,-4.073416886350188920e-02,-4.277650733572357228e-02,-4.386633289448728379e-02,-4.296600163180854665e-02,-4.470210138769112329e-02,-4.078454254259900047e-02,-4.493473979112763694e-02,-4.308734623562764099e-02,-4.210288418226998397e-02,-4.123583405700964599e-02,-4.105126132409003814e-02,-4.400451168784363931e-02,-4.451707766879870604e-02,-4.393630412881792402e-02,-4.002623812740438436e-02,-4.231544823708799363e-02,-4.018509571869072206e-02,-4.192553731495713559e-02,-4.445031553152028331e-02,-4.017576667221994802e-02,-4.136551250732096313e-02,-4.192202260171905975e-02,-4.228281649675813547e-02,-4.182062248519889669e-02,7.708322750531192424e-01,-9.833382431176920790e-02,4.810666584415079772e-01,-2.402306373085969782e-01,-1.243011734331885609e+00,-7.426988731468590066e-01,-7.507752646534844310e-01,-2.275468773285817536e-01,-3.963614966765349051e-02,-3.732712570780191003e-02,-2.470685950880258663e-01,-2.303589807432507297e-01,-2.251919703321229038e-01,5.039569714349436680e-01,1.929681947339730308e-01,2.259406578510951835e-01,-1.743051255159603630e-01,-1.777793402875226803e-01,-2.868189719684952066e-01,-2.900334059776638607e-01,-6.468121052275783711e-01,-2.438745599635512851e-01,-5.973373179215978046e-02,6.164652940089507815e-01,4.119315747361269042e-01,3.487088193529097047e-01,1.589614360391496672e-01,-3.198880466249658105e-02,-5.349704919663088587e-01,-6.077130914653336990e-01,-5.043854028668102174e-01,-1.924491512881960908e-01,-3.418844898064271054e-01,3.756996523292204238e-01,-8.461257567160708828e-03,-3.707046031308639522e-01,-2.253433500323810401e-01,-3.133857239173042375e-01,-6.194983014037886981e-01,-7.291956367271663630e-01,-5.893560164181403938e-01,-7.280249711409928493e-01,7.846872027099119351e-02,1.971638250886003363e-01,-3.202568136832993351e-01,-1.209580163105779815e-01,-2.941645117712227142e-01,-5.030581849015207663e-01,-7.501878377783627316e-01,-8.395015262642234743e-01,-3.905052606192789821e-01,3.226949925446923745e-02,7.112370601725515051e-01,7.563820783438632844e-01,3.026381840603706852e-01,-4.973140719236466417e-02,-2.517003080200181375e-01,-5.179584704896409431e-01,-7.547706167070755701e-01,-7.969992527106479763e-01,-5.154255163038207188e-01,2.589576039559970400e-01,9.731946671768006984e-01,8.125695928390628264e-01,4.026723238758554424e-01,1.032566127961156016e-01,-2.213843911909388340e-01,-5.196892400848942550e-01,-6.967445676382525432e-01,-7.322194915857684894e-01,-5.174983129371077961e-01,-1.096994065304856963e-01,6.541326851486032323e-01,6.564240883640291013e-01,2.984866443199255537e-01,1.115994672038000401e-01,-2.990846632935419969e-01,-5.337564059347288392e-01,-6.789436957743021361e-01,-7.012964969153840933e-01,-4.705781307937140778e-01,-1.606608396885281509e-01,6.271626039130775432e-01,5.543300102649332262e-01,2.223276264999854979e-01,-7.912361585259525265e-02,-4.135366841731484833e-01,-5.410747146916020656e-01,-6.509055902364759838e-01,-6.721514026359509675e-01,-4.751027591566036601e-01,-1.634265933242193269e-01,5.823071921540009521e-01,5.472210604133720402e-01,-6.475591788061196841e-02,-2.179361302392511524e-01,-4.680040264632799873e-01,-5.441606937537435407e-01,-6.364308986466166163e-01,-6.521870590646910992e-01
-5.260291863125426265e-02,-9.586535787636508987e-02,-9.844368086757679381e-02,-1.241940156292405811e-01,-1.037819641607077709e-01,-6.062625775318521842e-02,-2.362756431308711547e-03,1.022957709856827345e-02,-9.044196330322499394e-04,-1.910189767831951824e-02,-1.960117961692223187e-02,-1.120184775791148030e-01,-1.062383226139370501e-01,-1.100812764357348428e-01,-7.989083431982826888e-02,-3.562139840590192175e-02,2.377579020784031938e-02,6.025261004889993777e-02,6.192148553312529224e-02,5.080155046463266655e-02,3.781704041079575473e-02,-1.283233188464864005e-01,-9.024110591713702112e-02,-6.632268419288511740e-02,-2.510212447172961367e-02,1.760619653067769380e-02,6.626528709487514157e-02,1.067557907311668525e-01,1.241630304571066240e-01,1.158915064347918744e-01,9.934865025347547340e-02,-1.085399067421144170e-01,-5.316420824291993169e-02,-2.686125855688289640e-02,2.441289454251138052e-02,6.839738178862531104e-02,1.165231964623922450e-01,1.522013558779194142e-01,1.734005562010593471e-01,1.666450693834173047e-01,1.389535122351040208e-01,-8.835675472265139274e-02,-2.288744032715898241e-02,4.256003090734916498e-03,5.977518035891511011e-02,1.038085183070579787e-01,1.474315798577748859e-01,1.833566913446152968e-01,1.983982292113184998e-01,1.952598780559768321e-01,1.581821067539589398e-01,-4.896089094670069697e-02,1.642771656933555632e-02,4.581536500836103087e-02,1.013110722535693897e-01,1.422236383362577850e-01,1.828755113654927933e-01,2.115678872725653692e-01,2.255235734693850358e-01,2.210628538323961001e-01,1.897700392018010496e-01,-2.871306052399792350e-02,4.414198707545963218e-02,7.655583424839360052e-02,1.371678992613907244e-01,1.778212395327143924e-01,2.121409470962558608e-01,2.418278052825292290e-01,2.582093830614164975e-01,2.547038344008683008e-01,2.269519992102232431e-01,-2.997776665398332527e-02,4.749694100397333640e-02,7.534769204642526030e-02,1.389402842972533858e-01,1.820529549755960930e-01,2.178418455430876366e-01,2.469238041130242256e-01,2.625065363666953533e-01,2.624270706873886860e-01,2.326962126245076534e-01,-2.861449807875714874e-02,3.328263849245440692e-02,6.638335413249647765e-02,1.262975332814897100e-01,1.666269707891918639e-01,2.019703978396811817e-01,2.343577710111298951e-01,2.451644438003417747e-01,2.446753340729743154e-01,2.179948371688206765e-01,-3.137169892418756323e-02,3.033628304289188657e-02,5.672361343660849153e-02,1.075613308692386361e-01,1.465050465791954692e-01,1.838875184949755881e-01,2.098642487011904423e-01,2.234390031870126525e-01,2.188680693644679542e-01,1.949337535456596437e-01,3.684392504026375026e-02,7.985599960077806314e-02,1.034928524237833936e-01,5.923112264165346363e-02,3.444119540112282329e-02,-5.433433244517232516e-04,1.885735264509536381e-03,1.147212293109726652e-02,2.150809622196132170e-02,1.841565322736704591e-02,5.819355959091942337e-02,7.663668055257032152e-02,7.864569296342437121e-02,4.237300954367819589e-02,1.686862827133915610e-02,-1.213647978270043955e-02,-2.131792333655609800e-02,-2.930936235458347916e-02,-2.589379340464927765e-02,-2.958995066379893971e-02,7.014919538421802991e-02,2.885571583035160745e-02,1.691033980069994377e-02,-3.415641601169442515e-02,-6.591138098050243477e-02,-7.160899302633290386e-02,-7.361319116625129888e-02,-8.469075173312694271e-02,-8.466024421958077972e-02,-8.977719337008531475e-02,1.023205770459822278e-02,-2.031298590443437330e-02,1.304909994562298767e-03,-4.336167661418692532e-02,-5.597343805950960594e-02,-6.222814503841577610e-02,-6.631836185440291576e-02,-8.331787822966152390e-02,-8.430618493048966378e-02,-8.190063595265556495e-02,6.863943135008740253e-04,-2.250959473073802994e-02,-7.493218965060269819e-03,-4.119246654055309931e-02,-4.402623907223350563e-02,-4.797007854476486449e-02,-5.832853803478308535e-02,-7.594627082400354223e-02,-8.310894692947834450e-02,-7.974894371802566939e-02,-5.179976568425305461e-02,-5.038291519687146391e-02,-4.983160413728080634e-02,-7.035877360954354010e-02,-6.232421250105149579e-02,-5.301258078771149684e-02,-5.828756785529608242e-02,-7.822357741208683934e-02,-9.209435793336302745e-02,-9.711441949219647152e-02,-6.747250519410459557e-02,-8.379764445442572374e-02,-8.774762680348573152e-02,-1.011968378753551195e-01,-8.121664021115086729e-02,-6.562774107124860756e-02,-6.470339207911013357e-02,-8.445186819367296593e-02,-1.036629510148458222e-01,-1.100475096226486704e-01,-6.185050623463493602e-02,-9.514309356144370899e-02,-1.076069056728142098e-01,-1.183546117807920683e-01,-1.014288958854177858e-01,-7.983021680814654519e-02,-7.938399319772287965e-02,-9.874057239971045785e-02,-1.207873020029698180e-01,-1.255330844238717602e-01,-5.682041828128435446e-02,-9.598101081441780258e-02,-1.108530250342884271e-01,-1.350897355630011343e-01,-1.172847179224632552e-01,-1.056021959699195850e-01,-1.036997739199628232e-01,-1.190951048838575776e-01,-1.306039322737173047e-01,-1.372874918110027487e-01,-6.048226509491991254e-02,-9.454686704888089210e-02,-1.143610313579631332e-01,-1.395439382564789277e-01,-1.377691827863263552e-01,-1.290061283560771099e-01,-1.256580350720967743e-01,-1.351274911553063951e-01,-1.445193341544938892e-01,-1.463390988610256405e-01,3.677695969562286976e-02,7.660198159531758644e-02,1.057982929052348614e-01,6.217807917382951743e-02,3.376309018637865117e-02,2.831061604113013688e-03,3.601078048080642510e-03,1.307232791778810757e-02,2.032513196102002373e-02,1.638638210675973789e-02,5.887160604117261387e-02,7.643080556349023114e-02,7.894083858156297762e-02,4.419282071402023254e-02,2.036408111668697868e-02,-1.538640819798305949e-02,-1.889797746206189899e-02,-2.944399586550320441e-02,-2.463531281468230028e-02,-2.703550376302294236e-02,6.934814078210653487e-02,3.017916621069696367e-02,1.767944773036009623e-02,-3.803955472351379374e-02,-6.406061697652515319e-02,-7.068450839096150629e-02,-7.169749496671867783e-02,-8.313599742426026895e-02,-8.726545461433889150e-02,-8.797407245907544471e-02,8.797578941374388506e-03,-2.257083580658676703e-02,1.160609206564654217e-04,-4.414552055658295393e-02,-5.800032500022092585e-02,-6.362827901743917103e-02,-6.665139903549978373e-02,-8.112966171659222181e-02,-8.337673680633769790e-02,-8.195980257871235408e-02,-2.025288276788661957e-03,-2.330049374174315499e-02,-7.217656649915836671e-03,-4.342589431986396131e-02,-4.507188324819350056e-02,-4.662433678442989143e-02,-5.828933645636660138e-02,-7.565995089612254088e-02,-8.362624398145372673e-02,-8.064982615114467401e-02,-4.885409364207325689e-02,-4.920081174874101071e-02,-4.930150317410710720e-02,-7.225158345811846794e-02,-6.357813917946227023e-02,-5.299845335148517522e-02,-6.120891423996584202e-02,-7.918580045038177417e-02,-9.245473427186005899e-02,-9.778644193711244492e-02,-6.926811470349210353e-02,-8.419199021013790141e-02,-8.506601532845690927e-02,-9.911120274518640805e-02,-8.066988156925115894e-02,-6.673937423215421660e-02,-6.386479974138578597e-02,-8.391759574878386585e-02,-1.046075929077472377e-01,-1.112560769948983119e-01,-6.480095498139895605e-02,-9.463693767133624091e-02,-1.054535969051663274e-01,-1.175795319599876043e-01,-1.005950144231983201e-01,-8.182625381198381509e-02,-7.829293486434012184e-02,-1.023331991343562064e-01,-1.183775300905697964e-01,-1.271194668909240155e-01,-6.073395265500422524e-02,-9.664810710498147883e-02,-1.116386521262373865e-01,-1.341666159901263866e-01,-1.182331807043172645e-01,-1.053431417583063912e-01,-1.052924704758595315e-01,-1.179902107929270832e-01,-1.317836023330848094e-01,-1.348725096537684298e-01,-5.680746086979180515e-02,-9.493745579302979853e-02,-1.157129288493152774e-01,-1.393216438764559306e-01,-1.368550560771279456e-01,-1.269370487504057066e-01,-1.276982168736483236e-01,-1.361878413974361435e-01,-1.463136565330183936e-01,-1.458147935848962962e-01,-5.446076861102932404e-02,-5.126832294176657950e-02,-5.279067470901638998e-02,-5.417080542872654975e-02,-5.129688300893233549e-02,-5.039060612052317228e-02,-5.223750111838414839e-02,-5.148758458113800174e-02,-5.463742141083124254e-02,-5.094197380228987493e-02,-5.397311532605351264e-02,-5.130496454030067377e-02,-5.292628884500599068e-02,-5.108775474381384990e-02,-5.472748370347908092e-02,-5.055266831093826324e-02,-5.303099995176811104e-02,-5.066458096485079721e-02,-5.433402350178827972e-02,-5.203438125821124860e-02,-5.411207656528580628e-02,-5.106403578549625205e-02,-5.325170629264300987e-02,-5.330765647060425189e-02,-5.493624604014935714e-02,-5.498127120015933872e-02,-5.093679049655598645e-02,-5.018567401458010752e-02,-5.238025453747559290e-02,-5.473589439222433656e-02,-5.060537090997901943e-02,-5.160260890695786418e-02,-5.122650433600060838e-02,-5.143008527681419001e-02,-5.440993896314310491e-02,-5.422824792174543024e-02,-5.111420311814774547e-02,-5.111067321757525872e-02,-5.126327811080429869e-02,-5.307827836436577323e-02,-5.102935311877661306e-02,-5.009263298310466517e-02,-5.416602807835305816e-02,-5.192256916611451278e-02,-5.164127073101033166e-02,-5.412440805149901918e-02,-5.078707474839758845e-02,-5.452099075640622766e-02,-5.002237775720110718e-02,-5.067081878619024427e-02,-5.474124893552870935e-02,-5.331818896020191351e-02,-5.058156187173642321e-02,-5.043891034901318987e-02,-5.198466418168502801e-02,-5.160047945383812451e-02,-5.427388516901549692e-02,-5.021010207189494090e-02,-5.216687941529047495e-02,-5.210071793833557369e-02,-5.322972378684396461e-02,-5.190323866385797291e-02,-5.399500713084780940e-02,-5.056451585834296353e-02,-5.337751631109482336e-02,-5.437371358753052136e-02,-5.307839027363817769e-02,-5.364438614998632421e-02,-5.301236365390863542e-02,-5.033739614983294419e-02,-5.301635278115469224e-02,-5.121232268288457984e-02,-5.089305801948078994e-02,-5.241057191103942747e-02,-5.471276976193936020e-02,-5.138181780843377455e-02,-5.251595375583046482e-02,-5.075241027408774336e-02,-5.337381842233871604e-02,-5.386593874976238622e-02,-5.356956339864347300e-02,-5.282961594890604046e-02,-5.301402315043540064e-02,-5.293769275592759976e-02,-5.140868471158670239e-02,-5.412807546934386010e-02,-5.150295816341885630e-02,-5.309725624326486898e-02,-5.288962430708477741e-02,-5.335765499001494244e-02,-5.196693429883769699e-02,-5.087009804323489731e-02,-5.459320690949228533e-02,-5.104489647390788448e-02,-5.376086778730190113e-02,-5.088927687477700496e-02,-5.183368017351749207e-02,-5.189743381469155009e-02,-5.084742535958353127e-02,-5.242910303073114453e-02,-1.499783124065527939e-01,-2.852172751014506735e-01,-2.458555225437339398e-01,-7.407448089103524369e-02,-1.314774853639259500e-01,-1.449895154035140687e-01,-1.553359187304748645e-01,-2.047740457668485725e-01,-2.379509828022984830e-01,-2.458634333149534723e-01,-2.312526110813489799e-01,-2.679553040301304589e-01,-2.361780362396883604e-01,-9.449229251703580856e-02,-6.423236196081917593e-02,-1.563252626962381708e-01,-1.771925120360314521e-01,-2.288795714717227758e-01,-2.370476719835882262e-01,-2.226046712043668052e-01,-1.699319948127616109e-01,-8.875416117608157796e-02,2.327845769061052950e-02,2.070940084963445726e-01,2.238927239567015393e-01,5.881446324844714219e-02,2.405657897927970974e-03,-4.676328939265127910e-02,-4.810218458209275516e-02,-1.363022310986222035e-02,5.149497145284741978e-02,4.655792531734650845e-03,-9.930214470064511328e-03,-1.308677465164324871e-02,-4.668002112038918683e-02,-6.388536061161445567e-02,-6.552014982445608648e-02,-9.291654997205334165e-02,-7.643855196613646985e-02,-1.173592031788061318e-01,-5.418329604029924543e-03,-1.346837946593181790e-01,-7.488553640515716037e-02,-1.512411942638962337e-01,-1.812783279475909115e-01,-1.969246585362277591e-01,-1.892778734747397884e-01,-1.795313376660925830e-01,-1.316107185421527548e-01,-1.044212157882885433e-01,8.610820733581797670e-02,-1.749999270876742008e-01,-8.019554422829129614e-02,-1.293506586399853497e-01,-1.696999411420865023e-01,-2.039526806293148475e-01,-1.716635825696741779e-01,-1.216175083548715063e-01,-5.753118073071938898e-02,-3.943974404814597212e-02,1.008272326694856086e-01,-8.700716462526103534e-02,-9.994616446612572536e-02,-1.834279960822515765e-01,-2.212812086229300756e-01,-2.274344992356582273e-01,-1.776037268928883639e-01,-1.219158408085953549e-01,-6.031670966977499548e-02,-4.348814482847828539e-02,1.121215448304599821e-01,-4.892043154895601986e-02,-8.296443556388742591e-02,-1.776799521152399308e-01,-2.231778813207017098e-01,-2.160819795612575478e-01,-1.553773066945224601e-01,-8.637275219013264282e-02,-4.715946082698803388e-02,-4.037783610404430124e-02,1.118647639736799898e-01,-3.676717593883201129e-02,-8.243421602392782266e-02,-1.560487274769829236e-01,-2.095880003542530123e-01,-1.501274191775087974e-01,-8.047841805466407483e-02,-6.677019273554103684e-02,-4.069839739653268590e-02,-3.455393283059590009e-02,1.115311903746461913e-01,-5.757389998652479024e-02,-1.227476523843712281e-01,-1.565756413040734485e-01,-1.013952799574638353e-01,-4.397185490447365341e-02,-3.338628238525847419e-02,-5.061855727260743815e-02,-4.279766444462698022e-02,-3.751931436290357330e-02,-9.817687021263783731e-02,-1.047782808771325347e-01,-1.290285729808110793e-01,-1.003951490305123179e-01,-4.287326157689894113e-02,3.431472300763480088e-02,5.417759367847149038e-02,3.313727834625267155e-02,1.626520886135499749e-02,7.460250650429033417e-03,-1.134783079134914358e-01,-1.064116148012955454e-01,-9.905119630785075291e-02,-5.530665735244796877e-02,8.102520384041175805e-03,8.011431752206538137e-02,1.264413266784734924e-01,1.311033738571363849e-01,1.112978812420404723e-01,9.147617836042790107e-02,-1.314072183393305560e-01,-8.049816765956205322e-02,-4.176385265263353463e-02,1.369182033671401295e-02,7.687583773308094559e-02,1.395874083707555335e-01,1.873901823388486043e-01,2.044306402524423971e-01,1.921690835872888470e-01,1.683182242935450379e-01,-1.142789660259219270e-01,-3.260042944386071229e-02,1.446611072462265259e-02,8.320873117304239397e-02,1.354036608785203488e-01,1.928178480551716589e-01,2.409623921217570741e-01,2.574281124671095045e-01,2.445286404029737848e-01,2.135731247669517552e-01,-8.682304494494738623e-02,-7.747186738350847132e-04,4.766698689119530652e-02,1.189072368525762730e-01,1.721792412492287316e-01,2.245796522697685038e-01,2.688140637799580346e-01,2.850185022881031038e-01,2.688460273386941157e-01,2.299985643422412240e-01,-5.826128189030497367e-02,4.168628242890458357e-02,8.667519453648055150e-02,1.529017395981363270e-01,2.040580996749869203e-01,2.511200818419030978e-01,2.850334719438543107e-01,2.993004221965439582e-01,2.848831626950865670e-01,2.496799898635762294e-01,-3.477360249156450506e-02,6.912297418488941303e-02,1.144669612171339140e-01,1.787225661867083704e-01,2.276970522321153656e-01,2.703532830227101114e-01,3.007718619833389950e-01,3.160441273480507074e-01,3.103066153256426318e-01,2.738391233243036016e-01,-2.989338813019523644e-02,6.266324581159704588e-02,1.163785593819328112e-01,1.759848499965295243e-01,2.217355902766775799e-01,2.641498689595527249e-01,2.977035874137572424e-01,3.149192248252991044e-01,3.075765581831488849e-01,2.772275064662790278e-01,-3.134255361746893925e-02,5.628502025825878746e-02,9.697273855020105415e-02,1.558292336417818058e-01,1.982751634717149769e-01,2.444754605760453281e-01,2.808018636233922671e-01,2.928622698800918966e-01,2.849338180638306683e-01,2.565928484004437182e-01,-3.318807123526253816e-02,4.442936975512573605e-02,8.227419714364882231e-02,1.340619492430475401e-01,1.802243824904488090e-01,2.243562821020033959e-01,2.525554290749633113e-01,2.643848948406130606e-01,2.586915932880869406e-01,2.241036515155266917e-01,3.740755554086801909e-02,8.367633911621329135e-02,1.080486033540718899e-01,4.393323135911644112e-02,7.334911281104853319e-03,-3.709315518206015433e-02,-3.883510965938234694e-02,-2.410654291784238012e-02,-1.931145299593685360e-02,-2.150954604875041781e-02,6.233541796494417725e-02,7.960896215986354441e-02,5.890304688049925741e-02,1.482073458150902356e-02,-1.498413894001242828e-02,-4.900486466797261687e-02,-6.273637837837119091e-02,-6.908731897848666148e-02,-6.557325182961663834e-02,-7.254376812200555302e-02,7.341707166346098101e-02,8.246869138491616166e-03,-7.455284766376652633e-03,-6.680205905696447177e-02,-9.689958866322873066e-02,-1.048471462140749821e-01,-1.085300642856720649e-01,-1.159892966129237035e-01,-1.162694718347920264e-01,-1.255818362582674375e-01,9.564099525001770741e-03,-5.309826559957868397e-02,-3.354777783362041660e-02,-7.821677442063312835e-02,-8.433149431164975451e-02,-8.953465665657775463e-02,-8.780289934729029744e-02,-9.104721861847063502e-02,-9.082623203785047949e-02,-9.798056926376297326e-02,1.810207034144313987e-03,-4.941210644182724571e-02,-3.305417819360040310e-02,-7.053292434235597375e-02,-6.486918520510429054e-02,-6.438515534882023605e-02,-5.935456902006851915e-02,-7.058146766499244495e-02,-7.400258146392953151e-02,-7.471301143254042987e-02,-4.717434094387923382e-02,-6.572585232606795169e-02,-6.521037965899137423e-02,-8.108886881447764650e-02,-6.640541805479764637e-02,-4.701784142264835153e-02,-4.192084176420178554e-02,-4.727025014044162338e-02,-6.089271557035314669e-02,-7.340876002016469282e-02,-6.118878185567080269e-02,-9.774522248392981949e-02,-9.610010680185974985e-02,-9.533615730548801459e-02,-6.740838099770161962e-02,-3.750771416714591272e-02,-2.778190001017508473e-02,-3.527081806087667415e-02,-4.884025439769899141e-02,-7.021026528805637823e-02,-5.711724963440146380e-02,-1.073080287217633710e-01,-1.085486338539441153e-01,-1.084941045270003818e-01,-7.486090530149970557e-02,-4.554136365223770272e-02,-2.775651555206087862e-02,-4.059493604793761728e-02,-5.359767560535844827e-02,-7.432170198428456054e-02,-5.518183046215358739e-02,-1.049890585190113718e-01,-1.130796931502695418e-01,-1.197199545471797910e-01,-9.098592045097016190e-02,-5.998448943908404191e-02,-4.531422202263139104e-02,-5.277205889590039223e-02,-6.722032086413387564e-02,-8.299020674397873665e-02,-5.190181249216084536e-02,-1.061662144762765270e-01,-1.177023890487952501e-01,-1.263268969279401910e-01,-1.100763469055682370e-01,-8.906205749514457815e-02,-7.340621722910213587e-02,-7.793851596366128953e-02,-8.835346090445697631e-02,-1.009228382037385824e-01,3.938771305282211949e-02,8.417920850938988286e-02,1.064378849781827258e-01,4.299313611778005778e-02,9.916264363389196493e-03,-3.578671436131873607e-02,-3.865021500664177212e-02,-2.378262042120846825e-02,-1.715901319031061523e-02,-2.115647978879835189e-02,6.334665170126167755e-02,7.560130545447450723e-02,5.951500011898223919e-02,1.481917507173918791e-02,-1.265599951641780373e-02,-5.229989327445731806e-02,-6.010028557446649849e-02,-6.644401551732673217e-02,-6.458528700256112309e-02,-6.879841661504462746e-02,7.569835365647004100e-02,1.259972016901481258e-02,-8.941227015456430782e-03,-6.822195955975256243e-02,-9.591529104110915749e-02,-1.068021722417359376e-01,-1.062021212356339811e-01,-1.149169546642224010e-01,-1.137475331114725097e-01,-1.262637352953963898e-01,1.102762159543668047e-02,-4.981786752955955078e-02,-3.264576570703506264e-02,-7.590272753367757752e-02,-8.275112740428473834e-02,-8.917910020772865098e-02,-8.668815790503159313e-02,-9.511421123411252510e-02,-9.485586943685378469e-02,-1.002130664963686857e-01,-1.460898027675994280e-03,-4.934008560998417309e-02,-3.556701808870148251e-02,-7.054394327888285909e-02,-6.927912353575192694e-02,-6.044782569552524520e-02,-6.227449429995799562e-02,-6.918554960067807569e-02,-7.121568102613458351e-02,-7.695184984176582643e-02,-4.579292621890658499e-02,-7.028788685519962720e-02,-6.476261104936648083e-02,-8.420429773506016291e-02,-6.781682788289139507e-02,-4.692911925467890821e-02,-4.022847335246901301e-02,-4.790394558075768833e-02,-6.028314171443124175e-02,-7.278323065558181537e-02,-6.119480532492543173e-02,-9.763172675030630521e-02,-9.760928479010229364e-02,-9.564207884859370068e-02,-6.512274236942330874e-02,-4.011716672428935343e-02,-2.567794894944414388e-02,-3.852850955698898516e-02,-5.133797695015625967e-02,-7.163400495558200354e-02,-5.735999710362247456e-02,-1.055272988472301665e-01,-1.097658189423435515e-01,-1.088942849290206877e-01,-7.655802961120822259e-02,-4.594039520415692940e-02,-3.042207790012972646e-02,-3.695587314758708858e-02,-5.732543095826022478e-02,-7.825460884515408888e-02,-5.412987900611367781e-02,-1.070094302209356890e-01,-1.125311367720550765e-01,-1.215860506756642201e-01,-9.315607089519374606e-02,-6.257736467289407023e-02,-4.575936131516105537e-02,-5.421388361428183811e-02,-6.889007656146539649e-02,-8.441993266907031612e-02,-5.311200675349797562e-02,-1.060979172152054228e-01,-1.162866147341267281e-01,-1.281319579046309165e-01,-1.093357569697017279e-01,-8.795638141993862569e-02,-7.406981378859996135e-02,-7.785340701099650873e-02,-8.726380805570771448e-02,-1.013644968870187762e-01,-5.159018794155064563e-02,-5.303072931904378312e-02,-5.022838922206600276e-02,-5.394465335510415654e-02,-5.164203402136946508e-02,-5.128428160603700631e-02,-5.268647093733134362e-02,-5.346186770617315093e-02,-5.254400556038833076e-02,-5.270536096532350140e-02,-5.338465828972997068e-02,-5.132657382533193507e-02,-5.099603362071582213e-02,-5.292003192048495147e-02,-5.473790769899550962e-02,-5.314109718052256043e-02,-5.223538388608015004e-02,-5.391093314037167378e-02,-5.139243105503708831e-02,-5.308601779472276599e-02,-5.195263954164455050e-02,-5.323029958881280582e-02,-5.290693656449326626e-02,-5.278489929839520062e-02,-5.016080551718392344e-02,-5.205898205733979628e-02,-5.415855290905383784e-02,-5.375399413309651236e-02,-5.050773780543602043e-02,-5.101566306498053760e-02,-5.118686912009243889e-02,-5.023721331439006538e-02,-5.379904888080997566e-02,-5.059910437957053364e-02,-5.059076468946561989e-02,-5.350700326117589084e-02,-5.271810873713659445e-02,-5.140802105303228509e-02,-5.422467997665008504e-02,-5.186063561237693603e-02,-5.160792202668073453e-02,-5.343614731352581276e-02,-5.245008253556544126e-02,-5.480369871346828931e-02,-5.358236864823743423e-02,-5.053766432361937733e-02,-5.124702733331112231e-02,-5.279127056869981766e-02,-5.173067187810932721e-02,-5.250483546803989127e-02,-5.464212807886847240e-02,-5.487775355595089083e-02,-5.139051502471232019e-02,-5.258379613983679007e-02,-5.436598418079153366e-02,-5.376955813461507111e-02,-5.053106088648596367e-02,-5.262191114600522218e-02,-5.054637765559860663e-02,-5.013383906786469252e-02,-5.374459528847005257e-02,-5.466183335062790166e-02,-5.037273648075888538e-02,-5.092299759985659952e-02,-5.420767539201418878e-02,-5.485460599153293287e-02,-5.465646161746836457e-02,-5.053261960214416176e-02,-5.281261396070677933e-02,-5.480879016412295440e-02,-5.393869403974412696e-02,-5.207704520502000334e-02,-5.464510129623646045e-02,-5.043721516729955667e-02,-5.419877373213419919e-02,-5.123881540307424071e-02,-5.472511220329456111e-02,-5.091682964218936791e-02,-5.219971216981822426e-02,-5.346181138355917545e-02,-5.377556370350607823e-02,-5.173311308798751035e-02,-5.305222193263569447e-02,-5.488553205134038410e-02,-5.093051390284659974e-02,-5.404402295533784067e-02,-5.129692678849567811e-02,-5.355426600421967637e-02,-5.168013648370990004e-02,-5.437843210167903757e-02,-5.079416286700638716e-02,-5.352886644388984289e-02,-5.203399977958875211e-02,-5.260288099517183152e-02,-5.151648539818803191e-02,-5.313010623177969599e-02,-5.347007314828072094e-02,-5.216762344793062639e-02,-5.234694766636550922e-02,-5.320231319227426009e-02,-1.562715047415481895e-01,-2.931265658557693499e-01,-2.159895661001433043e-01,-1.483371965093953533e-02,-7.880105003390146245e-02,-4.357847653709288893e-02,-6.064137900509344176e-02,-1.162973155764132488e-01,-1.525551043548212526e-01,-1.616822486877759202e-01,-2.482150201089226571e-01,-2.433471317203651507e-01,-1.996675524880526242e-01,-7.338972041332746110e-02,-1.094109301407508554e-02,-1.162587592819178950e-01,-7.737745212125018979e-02,-1.115391052439878294e-01,-1.380229286483726781e-01,-1.217441758602894886e-01,-1.737753935622884105e-01,-3.716328057202428203e-02,6.204035299622327748e-02,2.349591842729154278e-01,2.578839068239798249e-01,8.769679438959858409e-02,7.160784670627781678e-02,4.113095202792035887e-02,1.458452436390397268e-02,4.871128346308614687e-02,2.918390741628917179e-02,2.103149771466684623e-02,7.601732096903526803e-03,-1.238416922542859636e-02,-5.239247120676012587e-02,-8.890789211873754982e-02,-6.636074056583771141e-02,-7.705210061523065646e-02,-8.031311891274431347e-02,-9.122828443524255704e-02,4.689740674278347968e-03,-7.158843898235806025e-02,7.915129664544219915e-03,-8.638133551484059036e-02,-1.067966566549696378e-01,-1.531589586274013925e-01,-1.120737223997175652e-01,-8.641180036161606737e-02,-7.013365016936269625e-02,-4.689302349066128139e-02,7.308613467972567557e-02,-1.764171750525290738e-01,-8.207005491961903709e-02,-1.309359998747617049e-01,-1.624567173678133636e-01,-1.878738872503468715e-01,-1.266815067260820549e-01,-6.288701460084601680e-02,-2.892546285682053367e-02,-2.388697621196871415e-02,9.300991761605942321e-02,-6.387860042948914630e-02,-4.629040727191423982e-02,-1.591450806501009674e-01,-1.778612062850431774e-01,-2.031883381259375621e-01,-1.354057440595308193e-01,-5.126837064091115809e-02,-3.327642396003166469e-02,-3.267053742542734562e-02,9.847204439558232547e-02,-3.464963048464218820e-02,-4.487106682863625795e-02,-1.448430895563845855e-01,-1.821982645860734107e-01,-1.915581047457482755e-01,-1.072110719981537036e-01,-4.397808413270107297e-02,-3.227810732857717274e-02,-2.734834510571913097e-02,1.010992021398271351e-01,-3.719636277152513909e-02,-4.976080719255577406e-02,-1.420099200427238084e-01,-1.713396613355215037e-01,-1.218481003189047368e-01,-5.234900706068081749e-02,-4.389827420826210996e-02,-2.974181963934253992e-02,-2.754646670062732561e-02,1.001689954763417129e-01,-3.806064923713247533e-02,-7.383981217853373413e-02,-9.101157567425817441e-02,-5.297053269355447153e-02,-2.342552513299963127e-02,-1.048735944242496117e-02,-1.522696902506314592e-02,-1.432386372792801912e-02,-1.503647290041444304e-02,-1.018390023413741213e-01,-1.045264020367103752e-01,-1.298019943836354051e-01,-8.042480583418663842e-02,-8.952335247984491082e-03,8.925645766759206234e-02,1.066288344262939225e-01,7.670354556457001372e-02,4.994449284578957038e-02,4.075253220949842659e-02,-1.264393480735693798e-01,-1.078877586454572157e-01,-6.603029954860697992e-02,8.559259375689593635e-03,7.154848870402925887e-02,1.576569099102662075e-01,2.065094837295952113e-01,2.083094766384898378e-01,1.767974558730192047e-01,1.562011468850091345e-01,-1.557802036800358114e-01,-6.773318967462223228e-02,2.148621232506361944e-02,1.045669356802004374e-01,1.589039716692576820e-01,2.313070142330292400e-01,2.868350961418028033e-01,3.090417294404377846e-01,2.886603430298119721e-01,2.559473392226617183e-01,-1.364993951631911506e-01,-1.411419977196737806e-02,7.503023237013754787e-02,1.528697688863741300e-01,2.043221671257016425e-01,2.620929096066465513e-01,3.186305390129837156e-01,3.457875033833730516e-01,3.223820249018017892e-01,2.809548296833486725e-01,-1.231751812707603533e-01,-2.168692574586705835e-02,4.275739891535533521e-02,1.157986085543167148e-01,1.727789404521289651e-01,2.355011365597692863e-01,2.894770473824234691e-01,3.095457630616854083e-01,2.931814461499596680e-01,2.482468760944614439e-01,-1.088771195738942044e-01,-2.011072015483806458e-02,2.423795563527503250e-02,7.841791414940380012e-02,1.310813926361743820e-01,1.934314121260362618e-01,2.396735465519151675e-01,2.626756560796334461e-01,2.535707626938156767e-01,2.208631390352403245e-01,-8.305276580912861195e-02,-3.677857955476957624e-03,3.043980403611342908e-02,7.872516366999603166e-02,1.328734116666253351e-01,1.905476433661235369e-01,2.343281613843347655e-01,2.594519178981070651e-01,2.564586761782537971e-01,2.304286409570538430e-01,-6.855066472896978458e-02,-2.450753172556395347e-03,2.937180445898212103e-02,7.322527809125305154e-02,1.273594512091403841e-01,1.887933242679636081e-01,2.342801425799488357e-01,2.550297794362118564e-01,2.622729739987769704e-01,2.284893619752494942e-01,-6.746819384787135221e-02,-3.638021734624424623e-03,1.771033507135710144e-02,6.268574225589119975e-02,1.141862919649041241e-01,1.739284500273143019e-01,2.212294210709110920e-01,2.402572595983690218e-01,2.414592725678534890e-01,2.121629358469747928e-01,-6.609865818190693854e-02,-1.090847204123389022e-02,9.495970638631478708e-03,4.536015585428132546e-02,9.863533107320264504e-02,1.549846163911133001e-01,1.958927342532638671e-01,2.125016402379253655e-01,2.114404880387078800e-01,1.875686114256530368e-01,4.405225993612817137e-02,8.323253707298686188e-02,9.600737549844633179e-02,-5.302287823236079278e-03,-3.610258770327345185e-02,-8.248282920928462492e-02,-7.914098954531692542e-02,-6.212845920878849737e-02,-5.290657741298154804e-02,-5.620032231496514125e-02,7.072497267747106242e-02,6.104914725135540676e-02,-1.220892948166410995e-02,-5.003116262387446306e-02,-4.989673806778844450e-02,-8.337230320795359362e-02,-8.849257855367437253e-02,-8.750186960160660776e-02,-9.080749848141285441e-02,-9.811003615589107552e-02,8.107026394518418444e-02,-4.779072190273538773e-02,-9.655977273826996110e-02,-1.254473725230889625e-01,-1.211018523629668192e-01,-1.144013541939988415e-01,-1.048183075943585202e-01,-9.337951174501155083e-02,-9.780370088422982167e-02,-1.192057718882738454e-01,1.068219692530546910e-02,-8.014661002105549770e-02,-4.583206248147396467e-02,-5.237400092647151451e-02,-2.402503020196725819e-02,-1.302360012089459791e-02,1.000437653388927192e-02,2.371560980594678708e-02,3.104924669645645063e-02,3.513833460017904472e-03,4.469174414246868815e-02,-8.419886867314744019e-03,5.245188946409023306e-02,6.731085692892020689e-02,8.971345500825311792e-02,1.106125266396346535e-01,1.274062050787004019e-01,1.417610804015244641e-01,1.352566668676004891e-01,1.039205956962716976e-01,2.884330361727153666e-02,1.856714640429473970e-02,8.806628212263199751e-02,1.196152924965413339e-01,1.590863849883422110e-01,1.871851787243420384e-01,2.069051697105331045e-01,2.160021888443585392e-01,2.032805961463865496e-01,1.582052588130027360e-01,1.633823784986524613e-02,5.577480808377828329e-03,8.341794155431700442e-02,1.263359548073375582e-01,1.785043079430422841e-01,2.129160688315726024e-01,2.350955030903999210e-01,2.437881456213824016e-01,2.275296592513824101e-01,1.743501070802947195e-01,1.719639054059297553e-02,2.977159919276908991e-03,7.485113523143110958e-02,1.187749060650229171e-01,1.686590315886402347e-01,2.087787388810550537e-01,2.390975633153490099e-01,2.448853011646953404e-01,2.265656049291973617e-01,1.718962819798399988e-01,1.493374233679939378e-02,4.692480358931559563e-03,6.462410961115869212e-02,1.006186099346101370e-01,1.451394187233573663e-01,1.869735106555251991e-01,2.138305817165851441e-01,2.239144178594517920e-01,2.018006194145297860e-01,1.519885100237679254e-01,1.831538183186495056e-02,1.375319358112139182e-03,5.542778159165451246e-02,7.965385477564126959e-02,1.137054042585016189e-01,1.473246926781726918e-01,1.688132966576758598e-01,1.712206086659654181e-01,1.548992205737541039e-01,1.172152623059993792e-01,4.155607918653996674e-02,8.190054259260595715e-02,9.734661132636475422e-02,-1.005429117397931699e-02,-3.791618848736407615e-02,-8.354284762385355556e-02,-7.863919226887669534e-02,-6.100500308407234840e-02,-5.346457836191845225e-02,-5.634729828347097985e-02,7.283543683033072424e-02,6.091943854571580524e-02,-1.406472348081940285e-02,-5.076941061448440179e-02,-4.811412954179323381e-02,-8.722284715961779733e-02,-8.843348247197838075e-02,-8.940864984719598674e-02,-8.941008060909830246e-02,-9.938099231829469749e-02,8.034250176729926252e-02,-4.574618442470942264e-02,-9.711796978179884632e-02,-1.269377693154384035e-01,-1.198667956640575433e-01,-1.117733231761719875e-01,-1.050299691926947360e-01,-9.520968229374784930e-02,-9.609574429048184374e-02,-1.232562157166700034e-01,1.341708419016327328e-02,-8.238151391062009665e-02,-4.484695768802454685e-02,-5.333760422891212216e-02,-2.492806833116978371e-02,-1.233826180833594473e-02,1.277599212981637630e-02,2.678547944905439876e-02,2.822067183821213437e-02,3.292390465435258116e-04,4.160159693591031910e-02,-9.679251003303577724e-03,5.435179081568938114e-02,6.745931890412051879e-02,8.985603144085380078e-02,1.067810892850718785e-01,1.257693136176239457e-01,1.410357391759045620e-01,1.337064802862820423e-01,1.068481495470862547e-01,2.546959376611632186e-02,1.974168369042065066e-02,9.083499060152060156e-02,1.203080839908462346e-01,1.568331239595650572e-01,1.877332437497393203e-01,2.041787718584830158e-01,2.143404842915080655e-01,2.019644571506469533e-01,1.599024054281966145e-01,1.872205782774005040e-02,9.055789552274710191e-03,8.396372925837916612e-02,1.276653561852431618e-01,1.752322185495263640e-01,2.095531995561191740e-01,2.366539895787280467e-01,2.457632756592100232e-01,2.272293896879870045e-01,1.725243956042247506e-01,1.708332488811292391e-02,3.390984270338970492e-03,7.245845531639852344e-02,1.163104580972978697e-01,1.673756510008590770e-01,2.093113095096537368e-01,2.369413429643168756e-01,2.428389878528500467e-01,2.261178235657134716e-01,1.732694996012677235e-01,1.821441753769394503e-02,9.498750470622570677e-04,6.560388854339604947e-02,1.016632371705016857e-01,1.465820516639991800e-01,1.863580174692830438e-01,2.128191212447553826e-01,2.239207949297693789e-01,2.008007529939026814e-01,1.494606205316742764e-01,1.631888794387125960e-02,-2.849447665505240937e-04,5.681627178903608799e-02,8.044444620630361586e-02,1.157782905232734305e-01,1.483666597479886551e-01,1.659608255168038560e-01,1.725896081677715521e-01,1.500351000745296925e-01,1.176056166980733453e-01,-5.038071636590749774e-02,-5.305947789067754633e-02,-5.043299070087678415e-02,-5.431036507335424562e-02,-5.294081732989217720e-02,-5.369547123309344888e-02,-5.495429206450922616e-02,-5.192966715890803830e-02,-5.339837616576855600e-02,-5.007569968680855577e-02,-5.062443565419138397e-02,-5.096374680357253217e-02,-5.069846182631772280e-02,-5.291855881733723704e-02,-5.134617342776202908e-02,-5.018818884072508840e-02,-5.306901742344351941e-02,-5.297937359145265396e-02,-5.362015578091264972e-02,-5.298475136366042476e-02,-5.015213413033784567e-02,-5.320266622468797918e-02,-5.373461043097393225e-02,-5.047983550507684214e-02,-5.074460559820492822e-02,-5.011704990452959391e-02,-5.006348725995145299e-02,-5.071569564931620311e-02,-5.007625645109612528e-02,-5.215875353733310377e-02,-5.106740880748102812e-02,-5.482189969327671414e-02,-5.181319285225333832e-02,-5.297292520914850117e-02,-5.131702280401582994e-02,-5.443523459030313177e-02,-5.292460983455871820e-02,-5.471302583724028251e-02,-5.374180110887543521e-02,-5.356207955758778699e-02,-5.154185537972386794e-02,-5.039201275348777903e-02,-5.192848781710083378e-02,-5.141777831733990167e-02,-5.350490885489459641e-02,-5.109957284831129209e-02,-5.150132071370501496e-02,-5.059680883087271097e-02,-5.410953658468720812e-02,-5.067845642662270611e-02,-5.242948465365483701e-02,-5.143014927464820835e-02,-5.195782763170147395e-02,-5.146174023097029732e-02,-5.148432473844405388e-02,-5.004500575481893310e-02,-5.274769107987086619e-02,-5.262026521181883271e-02,-5.454866348801713088e-02,-5.210366411553332688e-02,-5.257480460135078443e-02,-5.249687719565780675e-02,-5.162120862100759433e-02,-5.197460534858832498e-02,-5.037375392813922548e-02,-5.336829824105607939e-02,-5.493747255025076964e-02,-5.367210333442993392e-02,-5.321976068533584153e-02,-5.453707971036906438e-02,-5.045814053725029835e-02,-5.499664387248429792e-02,-5.170258164431918574e-02,-5.235241320923860603e-02,-5.215646593916806878e-02,-5.199826373260199586e-02,-5.485664186152040128e-02,-5.138090442655385282e-02,-5.433127724720957646e-02,-5.033741248950776570e-02,-5.346061555581716612e-02,-5.289100016446374869e-02,-5.009244054752425707e-02,-5.349630441150769050e-02,-5.118750493300772142e-02,-5.427781484576944121e-02,-5.246061565811572375e-02,-5.386090532538150705e-02,-5.359940742376628070e-02,-5.198762992507983266e-02,-5.388043810761065228e-02,-5.083231518365429608e-02,-5.485935823797324223e-02,-5.306557039458831976e-02,-5.278016092003095378e-02,-5.124059635519671169e-02,-5.111174119646811481e-02,-5.215827079839070041e-02,-5.283374089074487773e-02,-5.226515777506574034e-02,-1.652773630003281924e-01,-2.873866399006158034e-01,-9.334409500849349950e-02,1.921610600658184842e-01,2.594184895603265234e-02,1.128139814784750485e-02,-4.955848724908104574e-03,-6.222125624649211401e-02,-8.197143194198695804e-02,-7.929602341089497797e-02,-2.514019783256313811e-01,-1.028572364570624759e-01,1.392280617115672532e-02,-3.268119698282678093e-03,7.061782253466923620e-02,5.365283954145948220e-02,7.202750901012815177e-02,-8.366469454767978126e-03,-2.352770238661408553e-02,-7.425829396770149832e-03,-1.229713846746867539e-01,2.443709538045880647e-01,2.070964292531104756e-01,3.972065691310012747e-01,4.087827293778529270e-01,3.056810887319663106e-01,2.458568878784892497e-01,1.578090170540630277e-01,1.280221143656523619e-01,1.668739869415227228e-01,4.991069709544418420e-02,5.131095818281868753e-02,-6.418790438900165429e-02,-5.772955733359859398e-02,-4.936791103755196891e-02,-2.082681027330170881e-02,-2.355837856243662293e-02,-1.007588384360482286e-01,-1.030710136409061922e-01,-9.926563923733046357e-02,-1.426045337470698005e-01,-8.450381461275896511e-02,-9.318307835830473562e-02,-1.135895206459793805e-01,-6.448320594114528848e-02,-5.348733878993884583e-02,-5.957676891163997401e-02,-3.908826764168859408e-02,-3.280140245919755532e-02,-2.808946037670956297e-02,-8.992074830046077605e-02,-2.781416571236732804e-01,-1.844211283119489564e-01,-1.815381862460070661e-01,-1.331466837712425300e-01,-8.865345622471604292e-02,-6.279360820716890779e-02,-3.092582133042484638e-02,-2.490901409068822792e-02,-2.178227435486312924e-02,-8.739246665836969408e-02,-1.352162748934081504e-01,-1.552707985346767905e-01,-1.700263110228070751e-01,-1.140712667402003916e-01,-7.301813208061734561e-02,-5.256132482663003480e-02,-2.953671121700414057e-02,-1.955285664170174770e-02,-2.279160916980899759e-02,-8.730132058562087294e-02,-1.188629633045328177e-01,-1.453295572787333123e-01,-1.396001405277758622e-01,-8.667527575818967378e-02,-4.644441018253015613e-02,-2.519718458092961091e-02,-8.034574733274419539e-03,-4.408977086310247699e-03,-4.745533876578190806e-03,-8.526755842013789000e-02,-1.321003805136535536e-01,-1.413977541357915313e-01,-1.145516034027070085e-01,-6.915672962928885725e-02,-3.277873029032896818e-02,-1.950470767460216540e-02,-8.007011375692305033e-03,-2.578648573333819447e-03,-6.559983224250604331e-03,-8.802017529303129972e-02,-1.298520288788345134e-01,-1.404080979579997168e-01,-9.798287930230419052e-02,-3.978347365137793051e-02,-1.705232731191428167e-02,-1.029003129845264090e-02,-5.716587498462969222e-03,-3.771131857566442386e-03,7.043494259800391673e-04
-4.070376683301483653e-03,6.773809587601563320e-04,-3.467300655339447188e-03,-1.106807403240939874e-02,-1.442824005276838878e-02,-1.165550568672955173e-02,-4.426837173039481488e-03,2.119203210059554879e-03,4.794396845544300623e-03,1.763694668815695213e-03,3.178870990291277239e-03,-6.479198039959298272e-03,-1.537078843799256564e-02,-2.093441448015382830e-02,-2.517468595623022221e-02,-2.357238540392567194e-02,-1.860793935303890409e-02,-1.234734562038218401e-02,-7.653695936662813573e-03,-4.929518672469322335e-03,-6.563125280722463886e-03,-1.317377209334723472e-02,-2.141018807890036901e-02,-2.971862799797964083e-02,-2.699009179151383095e-02,-2.491716156824721681e-02,-2.081775312820428880e-02,-1.705803337910371739e-02,-1.707651569714548068e-02,-1.018864765361180910e-02,-6.719720903466130241e-03,-1.146091720380383594e-02,-2.014287730448235600e-02,-2.621607485218363509e-02,-2.410189813571293055e-02,-1.863951776512195319e-02,-1.703938730619635258e-02,-1.113348607425113101e-02,-1.447386939298693324e-02,-8.799251398832834067e-03,-8.712541896909016537e-03,-8.762012219385566583e-03,-1.437201094465645479e-02,-1.540420150964548138e-02,-1.292742626829260222e-02,-1.018482921542527252e-02,-8.647496733340882119e-03,-6.751917278374089913e-03,-3.872495872609869015e-03,-6.012597813027580756e-03,-2.083986666094220057e-03,-8.957622721512844416e-03,-1.110995681206914179e-02,-1.030252810660199983e-02,-6.351606034591495559e-03,-3.934548733065652837e-03,1.502602902382118265e-03,1.641235585221359657e-03,3.246891076962588225e-03,3.430324531726041890e-03,5.409869608708304557e-03,-9.927270080297539642e-03,-1.216257391410689379e-02,-4.747178490761710251e-03,-3.311520204897265909e-03,4.087562063743272259e-03,6.649998345779915832e-03,6.839479179062866836e-03,7.479736745042577829e-03,9.219340194089816615e-03,4.667037044303896237e-03,-7.857291298703709959e-03,-1.402281519693915693e-02,-5.205458478770630393e-03,-5.587211931272950162e-03,-2.226302757578901836e-04,6.525757757473200568e-03,5.741961300267488244e-03,8.622902642799148976e-03,5.039626965522491127e-03,6.849590829829822064e-03,-8.877508475749600406e-03,-1.335409135972041861e-02,-7.813808321803871956e-03,-6.933144543207168942e-03,-2.575350803349428334e-03,-1.897546310576730955e-03,2.575453369385973315e-03,1.948117113497818860e-03,-9.732106150167861569e-04,7.321842552817509064e-05,-8.333400602443249289e-03,-1.127655799670987391e-02,-1.212605858584810126e-02,-1.013349512620760270e-02,-3.310483085694105806e-03,-3.242169346779321878e-03,-4.611924666632787051e-03,-8.165343695608010682e-04,-1.342782748732902764e-03,-2.725555101780353408e-03,7.833844786051969572e-03,1.693137540165098529e-02,1.212918603202128680e-02,3.459180786323535865e-03,-1.971972062321451606e-04,-5.188491174601917930e-03,-1.143927457685331613e-02,-7.920301444889837894e-03,-1.011435977937314226e-02,-1.009482464916288541e-02,1.859898821117356160e-02,1.653277953896777064e-02,1.454237868750634863e-02,1.086785406627684657e-02,8.734089461958896919e-03,3.996456515781969011e-03,4.832897460241474333e-03,-3.288042556392799590e-04,-3.989855497761060285e-03,-2.643305455676646463e-03,1.359327577609970202e-02,1.739178885448441556e-02,6.484299467776417220e-03,1.575230451395792652e-03,-1.704232628589963470e-03,-1.678726373488038416e-05,-6.651276812312211656e-03,-7.434127172495650152e-03,-1.040049705241437826e-02,-1.051301185378306947e-02,1.080122593058885708e-02,5.187208009034042187e-03,-5.292251946090270782e-03,-7.161816293145027885e-03,-1.011897072589394188e-02,-1.203757818314041793e-02,-1.535740331626737551e-02,-2.082819608043611284e-02,-2.464963356493659816e-02,-2.299634807054501753e-02,1.978210769231573182e-03,-5.588232365410423542e-03,-1.589735686697792486e-02,-1.920953270823694964e-02,-1.865032137156734382e-02,-1.718479826826787085e-02,-2.565302675238200283e-02,-2.803594033301645000e-02,-3.547170238398409531e-02,-3.291246439196202078e-02,-4.965606538168503697e-03,-1.421461511091675137e-02,-2.586264742072349326e-02,-2.476548925839236123e-02,-2.826667456147630153e-02,-2.610539033813473811e-02,-3.436833639852059780e-02,-4.060501912549045744e-02,-4.357886402314830460e-02,-3.828193887130908885e-02,-1.248249661387674982e-03,-1.851856745903373777e-02,-2.864908554479940472e-02,-3.152755427930028359e-02,-3.014949985811156072e-02,-3.338384654765541582e-02,-3.974985112107323054e-02,-4.361344548056654558e-02,-4.916594382374716438e-02,-4.632666319829503027e-02,-2.278338305282240437e-03,-1.643596339789585650e-02,-2.627072967336972764e-02,-3.053894825917530600e-02,-2.983263559011206656e-02,-3.276054403345352722e-02,-4.023675195098744273e-02,-4.468243488368823374e-02,-5.260463386678846526e-02,-4.657361390561829545e-02,9.079050436500998942e-04,-1.239837925344732146e-02,-2.143513472770332620e-02,-2.471467421678459273e-02,-2.525236718099590008e-02,-2.947066784149034516e-02,-3.059920033710547202e-02,-3.931223179037883486e-02,-4.376765452715020155e-02,-3.808721829968879369e-02,4.675516058324924104e-03,-1.172271959043692281e-02,-1.972407734152846481e-02,-2.017597651353385951e-02,-2.332129118119212127e-02,-1.931909710192819887e-02,-2.412439114119009284e-02,-3.287901425101314584e-02,-3.476813443282636418e-02,-3.209095510048497885e-02,6.841583482480359524e-03,1.485501766606673636e-02,1.080119659776672229e-02,4.756787276892409993e-04,-3.290607927754730759e-03,-5.313617494397517363e-03,-1.209024634336195760e-02,-9.609452360346586869e-03,-7.641185731081677826e-03,-7.747304583075265150e-03,1.815137811526860989e-02,1.616000130729979001e-02,1.431370650657475332e-02,1.255615808990011469e-02,9.833542895192068714e-03,7.180293204350889427e-03,3.311195725063726791e-03,1.714647952614867547e-03,-6.702334247557586739e-04,1.186678823059948143e-03,1.402727501207855394e-02,1.694333904513886310e-02,8.276853939636921037e-03,3.488939843857608719e-03,-7.322892129888202740e-04,-1.245854966344356763e-03,-6.166950296622944125e-03,-8.178518350637610165e-03,-1.310022432029135826e-02,-9.143541524020132663e-03,1.056991814403751909e-02,2.907602090796489701e-03,-5.813479540058054569e-03,-6.920209890380169850e-03,-8.770821796860934702e-03,-1.121472493120905141e-02,-1.396151219533805533e-02,-1.988355281069542277e-02,-2.659907730386249988e-02,-2.206011269211962181e-02,-1.667473717377931843e-04,-6.763701072356850981e-03,-1.701775367255888710e-02,-1.831625334825470394e-02,-1.849274967871850431e-02,-1.739736370580701255e-02,-2.464576399379033930e-02,-3.244083655676625877e-02,-3.525042883794811399e-02,-3.385276476757487912e-02,-1.919778088776051637e-03,-1.439419035941566158e-02,-2.613044458689675609e-02,-2.547518514250397825e-02,-2.625529730534828521e-02,-2.833897437895011376e-02,-3.422566232061229757e-02,-3.869383351867101278e-02,-4.478921080587950493e-02,-3.882992881919143657e-02,-5.127899672089752774e-04,-1.948527539933877020e-02,-2.830476286776856948e-02,-2.989781001852347825e-02,-3.008459495455736640e-02,-3.503598573586565179e-02,-3.961164060407728477e-02,-4.783050251097824279e-02,-5.189119327817315330e-02,-4.273409548362932381e-02,-1.986165730855725137e-03,-1.653437073158822365e-02,-2.661599477201501140e-02,-3.164525383331871083e-02,-3.285791648141219573e-02,-3.278481081838932609e-02,-3.834372526429449812e-02,-4.357417387321290553e-02,-5.070552136473691074e-02,-4.596083371022654379e-02,1.021503009399420906e-03,-1.138395059105664318e-02,-2.217504921554087211e-02,-2.451344941271714137e-02,-2.805276602107556819e-02,-2.602440718311762810e-02,-3.041054432074565342e-02,-4.110998902428442819e-02,-4.369445899609765427e-02,-3.847272896777662737e-02,3.302284214292221503e-03,-1.083450577893944715e-02,-1.934871197030522960e-02,-2.109784574084291875e-02,-2.262267655930941604e-02,-1.947108701832237290e-02,-2.740522915866558731e-02,-3.202579461049698956e-02,-3.430258608726826502e-02,-2.992376244639273486e-02,-6.810740658732064579e-04,-1.120972420106487386e-03,-2.390420704412051997e-03,-2.544929350443869698e-03,-2.126283485599695516e-03,-1.488277125078884405e-03,-1.642469710381250919e-03,-9.075555199305630066e-04,-3.780900728083128742e-03,-4.784616622212451917e-03,-1.494993919013280423e-03,-1.763634847891987559e-03,-2.362770589129079002e-03,-1.606746975373832959e-04,-4.292738622633756121e-03,-1.157450044554021035e-03,-3.482435676715125647e-03,-1.410670408508079079e-03,-4.143780853521541324e-04,-1.647559485772449872e-03,-5.510510218443807895e-04,-2.215186938628269792e-04,-1.905732944139006818e-03,-4.578657613648890248e-03,-5.537088231355406093e-04,-4.773660374399224179e-03,-5.852282092893550808e-04,-3.683069039146688248e-03,-2.698900195384471359e-03,-5.474558740351190972e-04,-4.494653939649753335e-03,-2.842936811984983492e-03,-3.964289573478508785e-03,-9.259806228260111099e-04,-8.028816043259071056e-04,-4.662835387825232589e-03,-1.027319509950240517e-04,-2.971229898593942889e-03,-4.880245542297290476e-03,-3.924428800084393473e-03,-1.182013253138089470e-05,-3.215223045951081174e-03,-2.289758555039387092e-03,-4.165222518111402414e-03,-1.651469263244128780e-03,-4.254545712951767270e-03,-1.599941610957519508e-03,-3.187996820709188342e-03,-4.200857967155116959e-03,-2.302168732425459094e-03,-5.904048558877487973e-04,-4.643188189228394588e-03,-2.984903856425642765e-03,-3.188511188395215870e-03,-2.848492355856937011e-03,-4.581200574833627429e-03,-2.600851568790453483e-03,-1.435466915094180812e-03,-4.338577902434290201e-03,-4.619343996277064032e-03,-4.179887533623647192e-03,-3.984551701852313485e-03,-2.904268496063728069e-03,-3.651444006650827676e-03,-1.808449775838322574e-03,-1.949866231230149363e-03,-2.944640947488287586e-03,-3.180977688142088214e-03,-3.986407285874281684e-03,-4.558406480137441180e-03,-3.809240851690178647e-03,-1.314051001293106355e-03,-4.909164817635603903e-03,-3.702920528438758199e-03,-2.302532801954746897e-03,-9.469024410653417018e-04,-3.563024795675575479e-03,-2.349878892835631505e-03,-3.415653257295144657e-03,-1.614561716199428357e-03,-3.957100052705610563e-03,-1.757308030471634724e-03,-2.770369303702812855e-03,-1.671922754345279982e-03,-1.076773233968991370e-03,-4.267295557225448885e-03,-4.112527656356923175e-03,-9.046166717444469735e-04,-2.704217656981124096e-03,-1.203339768737888768e-03,-2.582006426138145141e-03,-2.020645314551074156e-05,-1.869573107862679967e-03,-1.893402848732310753e-03,-4.699990255214800058e-03,-3.777869298892915298e-03,-3.382217414651193452e-03,-3.194501217333037615e-03,-4.931123598342591549e-03,-4.077225878668438649e-03,3.709904206697298146e-04,-2.258378734585916869e-02,3.662536723488959284e-02,6.958485508853183565e-02,6.382645451455763730e-02,7.551764796908463917e-02,8.211501983331434551e-02,7.708186201248579117e-02,8.045067947483433568e-02,8.426849142400788528e-02,-2.622742124059380259e-02,-1.561834085134450149e-02,3.968617206677665932e-02,7.165555810882770493e-02,7.936880096667779660e-02,8.305784665287313517e-02,9.013738363998191616e-02,8.122087488158998003e-02,1.016845892189107842e-01,1.005422628621740894e-01,-9.426846449193370878e-03,4.952341865650640440e-02,7.200946054372754646e-02,9.823549407678509870e-02,9.888906942040309733e-02,1.072917539095451789e-01,1.143680416195733129e-01,9.731386209935793952e-02,9.975192387698852969e-02,9.761891363579229541e-02,3.019527322406267630e-03,8.262989046945955207e-02,1.005754052408922294e-01,1.186433352974780031e-01,1.234178131406225981e-01,1.329274875718662596e-01,1.424570291869555749e-01,1.300343304733095062e-01,1.170872474282965148e-01,9.395500454189421868e-02,2.357670954818799972e-02,1.022179911592955986e-01,1.236462373949001325e-01,1.401522458227269230e-01,1.381485288835078151e-01,1.521177185042683067e-01,1.637998447786851441e-01,1.402509349588738630e-01,1.212569803846784700e-01,1.002030987222853192e-01,3.058088642834889612e-02,1.044955218009142178e-01,1.328026614289465890e-01,1.494642265120391666e-01,1.533168077773323368e-01,1.651227822749256058e-01,1.757333158092299896e-01,1.627008813284385458e-01,1.353888113111146596e-01,8.033726125601467483e-02,4.169690293463410719e-02,1.190610816836690233e-01,1.369525258289142899e-01,1.504761531383339568e-01,1.507635125432833789e-01,1.723582641811214622e-01,1.786668374561079242e-01,1.687235925110643353e-01,1.258493307264588468e-01,7.626140257571797920e-02,4.487136716546210463e-02,1.086633459622900338e-01,1.042725534161242779e-01,1.103114812730159600e-01,1.071527906477718894e-01,1.116105268009740387e-01,1.222987659476780231e-01,1.294067964929217773e-01,9.435246711960335042e-02,7.392978065202224225e-02,4.405769853014935428e-02,1.036791141388806181e-01,7.862372010180182502e-02,4.038713337826207311e-02,2.424092977614852179e-02,3.243513676451405259e-02,6.212798503058002825e-02,7.454571819453964521e-02,5.365790727717253267e-02,5.441609120415220185e-02,4.398582002036840327e-02,1.078927923415934076e-01,7.944534069789829789e-02,-3.516242935359691762e-02,-2.101453966669757090e-02,-5.187290807224283727e-03,9.622267911679640087e-03,1.566471236527491179e-02,2.615217299217112087e-02,3.400930858541671015e-02,-1.949367824781099781e-03,-8.386473639981614769e-03,-1.645140920998242745e-02,-1.936687177229690082e-02,-1.275912286578483740e-02,5.668071741988245371e-04,6.461612108731438174e-03,5.560669722521778373e-03,7.619624499946527942e-03,3.181561716152205531e-03,-8.781495380045682697e-03,-1.516776728932885815e-02,-3.704167204162546467e-02,-4.825737834978816032e-02,-5.239855105656150702e-02,-4.022564159429874858e-02,-3.841910774040513399e-02,-3.044361669780695778e-02,-2.551604195350456669e-02,-2.299911054600844995e-02,-7.987705553456283733e-03,-3.365218021517758090e-02,-6.361343503554986456e-02,-7.745278509433256575e-02,-7.104219919761867175e-02,-6.194362110402268362e-02,-6.138811609377302358e-02,-5.979750724798103129e-02,-5.588091862018561284e-02,-5.083164267634470573e-02,-1.310235940437681074e-02,-4.401323035229908615e-02,-7.642099836294624637e-02,-8.700083627463714442e-02,-8.295545904732409825e-02,-7.518743112866650702e-02,-7.125779041489949117e-02,-7.455117809084191305e-02,-7.142612324151707826e-02,-6.170391479028190795e-02,-6.042497868465393322e-03,-4.513315227074835706e-02,-7.978700871222040025e-02,-8.951204450117070111e-02,-8.248741079801359677e-02,-7.184941580295749197e-02,-7.257379917617177989e-02,-7.637283671562046516e-02,-7.407548155139112578e-02,-6.666322194635745935e-02,-2.407479501830307039e-03,-4.220820832302368819e-02,-7.696143218756165694e-02,-8.799946259472486709e-02,-8.425527188373820031e-02,-7.658022339992920369e-02,-7.383538124994348806e-02,-7.798583579639351004e-02,-7.623155399963101042e-02,-6.888435632111986062e-02,-8.228049510944678360e-04,-4.212274548671173652e-02,-7.759963168124925370e-02,-8.916308566680861136e-02,-8.384646207289947473e-02,-7.875422482684085734e-02,-7.707014434805328773e-02,-8.077955914674847526e-02,-7.714295219701872153e-02,-7.111348468565048542e-02,-1.971319336067998106e-03,-4.151990938358938316e-02,-7.058582127082328739e-02,-8.419245562910518399e-02,-8.686000464567561474e-02,-7.925654313981206345e-02,-8.061012647050086466e-02,-8.065723118616688336e-02,-8.453348885143857627e-02,-7.764164213227287004e-02,-2.227620384118386004e-03,-3.668534845475002887e-02,-6.707374040059481402e-02,-8.306222950014791051e-02,-8.591340406644930316e-02,-8.062479223404911410e-02,-8.337981246101064392e-02,-8.215960815368482384e-02,-8.084704621968570593e-02,-7.657758839798260719e-02,-1.884240971215759425e-04,-3.649438201378978758e-02,-6.385487477299234271e-02,-7.788992416098079741e-02,-7.938744119901353091e-02,-7.806418464268775892e-02,-7.679909011172575406e-02,-8.041793167131951192e-02,-7.611702870209255400e-02,-7.085393432302443395e-02,4.680980568890237385e-03,1.640226045466487703e-02,1.469126792807707096e-02,8.909375143907121222e-03,2.612126697483320437e-03,-1.077188668239864675e-03,-6.333576996046636279e-03,-1.729065409188645323e-03,-5.517046851708413274e-03,-2.212152592801398462e-03,1.807525146300482249e-02,2.040322730680311711e-02,3.695131894956434071e-02,4.012224513653795538e-02,3.837890988995890096e-02,3.610827758530311959e-02,3.474176493994157039e-02,3.770550178667598368e-02,3.713677460926669699e-02,3.376337489533478425e-02,7.671174314427401872e-03,3.475292492417660084e-02,4.875042610729345832e-02,4.775017508361601576e-02,4.455429497640793490e-02,4.274179223103593411e-02,4.323396992525614657e-02,4.157817394061669170e-02,4.075105410960475072e-02,3.762484750780348969e-02,6.718464073050993586e-03,3.913118921102955172e-02,4.624362384491831346e-02,4.332737433789103643e-02,3.790722686627263915e-02,3.819296669799485816e-02,3.775835594332568879e-02,3.727010564349821781e-02,3.016724830162905574e-02,3.237062188389937256e-02,-3.998431559414388284e-03,2.715168729397385641e-02,3.848942000132184876e-02,4.047136029351539738e-02,3.276087295985945919e-02,3.450391667757644887e-02,3.064890281835105923e-02,3.105363220404486549e-02,2.656881931521876128e-02,2.513626594445498783e-02,-1.037201711277146304e-02,2.125860149911281555e-02,2.669857721810876827e-02,2.572242753043265176e-02,2.623705340059666671e-02,2.463325650700681768e-02,2.570195910456170643e-02,2.148693001761977153e-02,1.615526803914255766e-02,2.120656423544105967e-02,-7.476883893902422709e-03,1.705111704381113633e-02,2.298885466417694562e-02,2.158565718314759546e-02,2.152492384779890189e-02,1.900749324839428461e-02,1.989519906793868823e-02,1.404161484425361234e-02,7.893663788390414132e-03,1.655684094280845259e-02,-4.948181880964134388e-03,1.602295324752753616e-02,2.050099023315139074e-02,2.161427123925950891e-02,1.910662664928022489e-02,1.589587838330765862e-02,1.529679504580207586e-02,7.432111282164558137e-03,-6.262852949012339375e-04,9.312387802822161276e-03,-3.277485325444140507e-04,1.766393193034836856e-02,2.371697066208632715e-02,2.346048636994265552e-02,1.589759779073093848e-02,1.582803403698478106e-02,1.043718611419797680e-02,1.796887568052737277e-03,-3.266809034560881359e-03,1.226870890513761386e-02,-1.371084279932830666e-03,1.854462132820832235e-02,2.730323619667908777e-02,2.431631358377569357e-02,2.284191310409252121e-02,2.029176365614377558e-02,1.379083841631490066e-02,9.136329716673510792e-03,6.835298519666270153e-03,1.378326998675298912e-02,7.613525120342839320e-03,1.829366341818202193e-02,1.620154212308217920e-02,8.455729834604368625e-03,3.945690734077893919e-04,-3.570422094967707922e-03,-2.309344497144048217e-03,-2.634451494729931394e-03,-2.207950803706740673e-03,-5.181042952366475898e-03,1.782506627256983181e-02,2.033376209172022345e-02,4.166659928183959888e-02,4.043672572687554562e-02,3.810332644820556974e-02,3.856903629138320327e-02,3.616258149481887257e-02,3.654708959247834898e-02,3.290225654599496230e-02,3.225277157706378517e-02,6.897581372285301396e-03,3.815844942743925466e-02,4.859523008351162437e-02,4.993433439366654764e-02,4.207688188638013943e-02,4.158927454354264391e-02,4.402169183320048251e-02,4.185077611016414789e-02,4.160227520800270640e-02,3.716450825483175874e-02,4.421733738448672610e-03,3.784923531920877937e-02,4.802553108886346844e-02,4.766978799355253704e-02,3.961306311393546220e-02,3.607252156601706977e-02,3.487067274630060998e-02,3.372160897544086017e-02,3.295101468921630972e-02,3.364785300113312672e-02,-3.296458624240895460e-03,2.687158351144787807e-02,3.979591112327320740e-02,4.083217880768281322e-02,3.318035104316550271e-02,3.495271217795492547e-02,3.360565915825273337e-02,2.884549700319094870e-02,2.501025736670442479e-02,2.666122723510176359e-02,-1.038504001540010643e-02,1.969115432469101257e-02,2.798021044345754688e-02,2.596856205364425282e-02,2.487554111742773175e-02,2.717102088980796054e-02,2.693579661295348107e-02,2.184138664080221073e-02,1.714196028658216547e-02,2.028553983325563637e-02,-3.557488257256358286e-03,1.575856125431013971e-02,2.393775584345596286e-02,2.238166141521810704e-02,2.072673320143286757e-02,1.783837448461277411e-02,1.649889613907726260e-02,1.523644956195181061e-02,7.831159485188112640e-03,1.455840231016162362e-02,-5.463168322577155109e-03,1.305577612999390610e-02,2.358624558016476219e-02,2.226956780535182048e-02,1.887831846141697564e-02,1.796431246488814498e-02,1.232561085423139469e-02,7.528622360650796992e-03,-6.698767926830800044e-04,9.199740234813597040e-03,-2.798095602045075694e-03,1.635004442795828100e-02,2.031888946424579429e-02,2.428182297903812292e-02,1.844483499549411099e-02,1.545913818326026187e-02,1.247057093309885886e-02,3.829127068738060261e-03,1.119226307204025314e-03,1.121419439609683960e-02,-1.901793144679720608e-03,1.753994219498662341e-02,2.850316110788448168e-02,2.588073312741823173e-02,2.406725283651853578e-02,1.992960430383432235e-02,1.402645862552937515e-02,1.061886789137466910e-02,7.442654558814002820e-03,1.629012046925079268e-02,-2.222799904381182051e-03,-4.001437539593605958e-03,-1.965772866206107888e-04,-1.366757662490489245e-03,-4.195526620543689120e-03,-4.443910366378473267e-03,-5.413198281859470801e-04,-3.596449707324528636e-03,-1.595921815472103183e-03,-3.841307771753820974e-03,-4.629209507418423700e-03,-1.704403056859392362e-03,-3.616572199662071788e-03,-8.416441494160133152e-05,-3.003123738411921789e-03,-4.095461041778596101e-03,-3.960834456819923785e-03,-4.232764265646934976e-03,-1.963669179584291366e-03,-2.130995929644594056e-03,-1.557447620165946373e-03,-3.115380908053771991e-03,-2.666828311628026763e-03,-4.894048410664141383e-03,-5.615788071015211103e-04,-3.281243431554035223e-03,-4.339165230574796098e-03,-2.659171755081519983e-03,-1.671558691140875505e-03,-4.244522338360607466e-03,-3.267102146202184934e-03,-1.152505296008320135e-03,-1.972068946933981312e-03,-3.518518291649626317e-05,-3.577923989855272616e-03,-2.003919050831021523e-03,-8.021405343918673603e-04,-2.185120316703389673e-03,-1.382710244771658339e-03,-4.442565327870873562e-03,-4.085022927186919908e-03,-2.747020906884443600e-03,-3.604650082502486655e-03,-2.539386835717083457e-04,-6.535578705771042524e-04,-2.332356632528972615e-03,-4.445980747623982238e-03,-2.582393470082317358e-03,-8.092879106012772217e-04,-5.384045416062677863e-04,-3.391717590831209300e-03,-3.008757372572083352e-03,-9.690001043500765660e-04,-2.644453177888875239e-03,-8.953220851089290638e-04,-3.668411672269855997e-03,-4.673261248411995569e-03,-6.262432610511306508e-04,-3.674602158556160292e-03,-4.394336376320633064e-03,-5.030713710212960516e-04,-1.860814118706002190e-03,-2.957267195715412161e-03,-2.566552386987204157e-03,-1.757639604317112053e-03,-1.068632197415002663e-03,-4.214295502158044160e-03,-3.107633495927610012e-03,-5.960640599309043053e-04,-3.028158002847650479e-03,-4.638883358597451975e-03,-4.710410162742742837e-03,-4.708855492721644373e-03,-2.940553812198784187e-03,-3.499422509294943320e-03,-6.028985011807801858e-04,-2.079473006175515046e-03,-2.219708998825469307e-03,-1.888721381654650047e-03,-4.200517775765228931e-03,-4.917054701923913654e-03,-3.032616112171209952e-03,-1.708737058194820593e-03,-2.118809621639803145e-03,-1.260901850337389080e-04,-3.420643651173716632e-04,-1.263693905153800631e-03,-4.518336330799042205e-03,-2.432130617223429714e-03,-2.350255895731815856e-03,-4.489582195517991328e-03,-1.578065282923949916e-03,-4.335065263315878575e-03,-1.440491971213136296e-03,-4.002525198856018290e-04,