-3.700814497044527807e-01,-1.325117137626417342e-02,-1.468583234476418878e-02,-8.396235252994946330e-03,-9.305363922145705805e-03,-1.168470208529540436e-02,-1.135583118342203997e-02,-1.114447822727051597e-02,-1.208010816364467853e-02,-1.065284655566977462e-02,-1.366577528940997321e-02,-1.481007468402554053e-02,-9.779180604585300390e-03,-9.402053360212495742e-03,-1.136161048859112878e-02,-1.239585092547574457e-02,-1.447516042065496653e-02,-1.464870055560943581e-02,-1.736814615806089521e-02,-1.452840989717613454e-02,-1.790401421717704306e-02,-1.426417109066989083e-02,-1.138225600628319650e-02,-1.173775077539997332e-02,-1.070557727735569307e-02,-1.183646523750592552e-02,-1.356510131086827858e-02,-1.202122009508584978e-02,-1.555573872228653565e-02,-2.007115754414750403e-02,-1.940600317618393703e-02,-1.471689983062832857e-02,-1.092494027232974139e-02,-1.135566103163577860e-02,-8.286408927786302961e-03,-1.041739415097708669e-02,-1.292041149371539813e-02,-1.448406673243341283e-02,-1.629094209998210516e-02,-1.998202022696770816e-02,-2.079806096028318646e-02,-1.356161824932038996e-02,-1.031073436020376460e-02,-1.207049414268858770e-02,-8.510405298863359808e-03,-1.018099253602648344e-02,-1.179552927903238131e-02,-1.549507039798406031e-02,-1.724048820777164884e-02,-1.904993412576986081e-02,-1.951482714389154299e-02,-9.036799276773782585e-03,-7.520813577042905970e-03,-8.614051850674306343e-03,-8.919940120153310378e-03,-1.123024495390632406e-02,-1.423802164229618673e-02,-1.344495245093939480e-02,-1.634763534852445160e-02,-2.055572203178212751e-02,-2.021251667465737492e-02,-1.107638074366057435e-02,-1.030253188763234108e-02,-1.132945764949224408e-02,-8.749685040111232145e-03,-1.208604968861803387e-02,-1.007435608332027735e-02,-1.195601400942817791e-02,-1.787812947657973703e-02,-2.211549082082834086e-02,-2.035564244061973532e-02,-1.044226106313653375e-02,-9.290822954695044170e-03,-7.685787278170738528e-03,-7.683117285559702345e-03,-1.004923516780669400e-02,-1.159422009705706434e-02,-1.600382818936902860e-02,-1.419709373187307520e-02,-2.043292363878204676e-02,-2.037133139160852632e-02,-1.086880614747940711e-02,-5.913088799302159554e-03,-5.397919960252293634e-03,-7.309509728780414113e-03,-8.823231804405232484e-03,-1.125910402801179669e-02,-1.130270597130038010e-02,-1.688393108868121648e-02,-1.586967957864309289e-02,-2.034485674030203986e-02,-9.205729052478354296e-03,-1.023684510089605156e-02,-6.556134437866203285e-03,-6.644461654580433203e-03,-6.634404811196517940e-03,-7.600395070625721658e-03,-9.077853110322884819e-03,-1.119168440260614322e-02,-1.267611255958827829e-02,-1.549153368409616691e-02,8.759902267852694852e-03,-8.395232386830092652e-02,-1.032830160642379674e-01,8.010995272525266164e-03,-8.789378492446234259e-02,-8.583316067828292151e-02,3.016031820691987900e-02,2.741833291830253917e-03,-3.383457354467911404e-02,-2.925707791697660168e-02,-7.324226836773010951e-02,-1.248105623436088357e-01,8.070533568591814477e-02,1.112560771950250049e-01,-4.118679275581934446e-02,-1.014396153139030948e-01,-6.528597349824412366e-02,3.712735480845266722e-02,1.206367686314499671e-01,1.519403256218747056e-01,-1.344541972184111478e-02,-4.256878969075479635e-02,2.081146248184415418e-02,-3.300648154759353026e-02,-1.259472963543076529e-01,-1.544494534776001959e-01,-1.353027737695540189e-01,-7.746409539972282099e-02,1.231795080580218027e-01,2.241132788556586264e-01,1.422252186214869110e-02,-5.609875211294401698e-02,4.740723703104361697e-03,-6.034088406435723917e-02,-9.344261565367698030e-02,-6.599176102943686562e-02,-3.945419140622349885e-02,-1.054379665904681823e-02,1.747352810679680402e-01,3.584027284669552560e-01,-6.010290821837253883e-02,-7.481090697064667061e-02,-2.653469177372188778e-02,-7.367183874964418344e-02,-5.985561536721022147e-02,1.281554423627679837e-02,4.491122208023144713e-02,5.230943246286376414e-02,2.062866421866673405e-01,4.223495130688005861e-01,-1.278121673672810987e-01,-5.974962072724924328e-02,-3.787150385333893504e-02,-1.001433269185159486e-01,-7.058479310018334063e-02,1.095767583007727954e-02,4.287116094465289601e-02,5.256908406031355480e-02,1.923981669384964288e-01,3.847299368792411189e-01,-1.927835345114419230e-01,-5.046739016895689101e-02,-2.431149510320764623e-02,-1.037904303536537065e-01,-8.273893934529950867e-02,-1.895221152271967316e-02,2.165214875490863167e-02,3.618267873548808994e-02,1.724655170077764588e-01,3.268372213217543565e-01,-2.511846586050568431e-01,-5.912189246123278341e-02,2.999228847517961677e-03,-8.326385705573623175e-02,-6.515773330102155037e-02,4.039991029699981778e-03,5.067732022738625358e-02,6.849412996110322560e-02,1.634251362062975887e-01,2.891405478861615030e-01,-2.849819845602238333e-01,-1.387660211519410047e-01,-4.983558326600619204e-02,-1.137401121548002464e-01,-7.645718876196030966e-02,8.449148399117535971e-03,6.769446602198551932e-02,6.569284572755675067e-02,1.531426262804395366e-01,2.683746716231835694e-01,-3.016841208547461073e-01,-2.319677249008230135e-01,-1.880104384561680775e-01,-2.759581540386447651e-01,-2.975820850191399081e-01,-2.300735983523833350e-01,-1.201232573817377358e-01,-4.045261644601821915e-02,1.080538385779045291e-01,2.322448463369939098e-01,7.959346850936516518e-03,2.125699021141622732e-03,6.791890180722771897e-03,6.163695180488805610e-03,7.839751235499443568e-03,4.661347121140925129e-03,7.183812638761463351e-03,4.258667032957635587e-03,6.974476356236670657e-03,3.832329096304409963e-03,5.642880882407176266e-03,6.192598506260775168e-03,1.065570725445559933e-02,1.091617394388738616e-02,5.762425015095243470e-03,9.754165541852348117e-03,8.219492169086769010e-03,9.700745430010909026e-03,5.752795658185575270e-03,8.940245124187170406e-03,4.853611654881229837e-03,7.352281926200758891e-03,7.996460014139264785e-03,1.067749924880368600e-02,5.433732181616016642e-03,8.707188059600455901e-03,6.444380991073066049e-03,9.103286534790096252e-03,8.287852415525960928e-03,1.062405314766190836e-02,6.485144144663663839e-03,1.025040991946777821e-02,7.770433713400898453e-03,9.282224929518145123e-03,9.388759174197817622e-03,9.239117162177077139e-03,8.875152704168850701e-03,7.373619793391574320e-03,8.504412605740354833e-03,7.598549142404230350e-03,1.093807328995602055e-02,1.115880502838172313e-02,9.228446001857265601e-03,1.038758057381013351e-02,6.760149055369929147e-03,1.059150648183641678e-02,1.070984832555367527e-02,1.038713527928845914e-02,7.514163390038533508e-03,1.239270346959384789e-02,6.147030156686706520e-03,8.471955850312698488e-03,9.724094832116282963e-03,8.196769623025299337e-03,6.943489667134559139e-03,1.105206354166485445e-02,8.645564836024131547e-03,1.088170035543946194e-02,8.474793905651666071e-03,1.284514642897153537e-02,9.569969736947315023e-03,1.118219857541115532e-02,6.485594005242622216e-03,1.013272571315698353e-02,7.815291634631836917e-03,9.776715751434201379e-03,7.353991543700581779e-03,7.652848682683435245e-03,8.980362570039059772e-03,9.021989370457565022e-03,5.879993355372115441e-03,9.053471185920779207e-03,7.547896365633808939e-03,9.823086198224211321e-03,1.011761656624199888e-02,7.091010176417758895e-03,1.052233068965112081e-02,8.901629380518819024e-03,7.651429528698231418e-03,8.120891307055027111e-03,6.596934232624740262e-03,7.641164652054614065e-03,9.061836834565618198e-03,6.975668673454667006e-03,5.186733797517147602e-03,1.029584535529097337e-02,8.719852377742431243e-03,9.480556770892054411e-03,8.616745939501523760e-03,6.439448062150393733e-03,6.185922176666061069e-03,7.243663842290090984e-03,7.729440157955104473e-03,5.123583996037053313e-03,4.247538164335068478e-03,6.586061755873472146e-03,5.217299896190704875e-03,5.408277711123536322e-03,8.813718656508531465e-03,8.587874299131041667e-03,-1.502455508619535314e-02,-1.391623605776321458e-02,-1.428953778606758575e-02,-1.587569505013105772e-02,-1.538442810744862499e-02,-1.368251435894651639e-02,-1.468930295257659009e-02,-1.537841849902902777e-02,-1.462387318306576124e-02,-1.374080515532732395e-02,-1.565367433243267103e-02,-1.427826415225090691e-02,-1.215477733579411156e-02,-1.640567623833819391e-02,-1.658163938956986119e-02,-1.168276586990780845e-02,-1.564883532004109068e-02,-1.553143203335734593e-02,-1.162492369682752331e-02,-1.583945690619713645e-02,-1.598206294900006777e-02,-1.200328229871668213e-02,-1.404905264108325356e-02,-1.356982437514975444e-02,-1.435841803664871137e-02,-1.277824457191437980e-02,-1.511303400256759459e-02,-1.433229231206248518e-02,-1.503941949826482528e-02,-1.514696333606794891e-02,-1.586334299096215858e-02,-1.316642535243195584e-02,-1.424308252745983515e-02,-1.412800258490924492e-02,-1.648984157512055695e-02,-1.333059252853942452e-02,-1.328214156263766467e-02,-1.535637731182899930e-02,-1.562966464147322668e-02,-1.605187139098443808e-02,-1.256186604034241656e-02,-1.196458517113904892e-02,-1.213922137566156821e-02,-1.622332668862929914e-02,-1.555017619786584412e-02,-1.519280618424772612e-02,-1.293010141229961225e-02,-1.484956782726779868e-02,-1.214237470279940813e-02,-1.629057141249925025e-02,-1.327240068946459843e-02,-1.261518367189660463e-02,-1.599971023765180481e-02,-1.511565838834863680e-02,-1.307774057245465228e-02,-1.527894366393890528e-02,-1.314274326373512415e-02,-1.569990107737831431e-02,-1.547103693611434280e-02,-1.226467641280701813e-02,-1.538424544946826247e-02,-1.309924676394335318e-02,-1.367653659823282915e-02,-1.247893750534046810e-02,-1.607243161473697127e-02,-1.467413808321420786e-02,-1.612998516234528598e-02,-1.409455901234413396e-02,-1.424950996656486162e-02,-1.213901072409728950e-02,-1.178196188048662336e-02,-1.262098327857406367e-02,-1.630553372628622613e-02,-1.374279213912463736e-02,-1.569226737041261657e-02,-1.276826095451845215e-02,-1.247045029154712596e-02,-1.219899369306345731e-02,-1.637990917470532812e-02,-1.330277027384510653e-02,-1.369696693736216324e-02,-1.657287521833452140e-02,-1.275415512133524533e-02,-1.409422183435123273e-02,-1.380698758576404984e-02,-1.371243751020838515e-02,-1.190531911245811154e-02,-1.436299156731153832e-02,-1.562874314429580844e-02,-1.593102651891559543e-02,-1.398599073511592149e-02,-1.536459648067006051e-02,-1.433290530056156344e-02,-1.358694468060246859e-02,-1.287456831671721612e-02,-1.327775813117328639e-02,-1.631488355262683890e-02,-1.285619936284292976e-02,-1.370772094409616372e-02,-1.491292090258483118e-02,-1.479078483015036465e-02,-2.073718871402315325e-03,-2.363715170688925060e-02,-1.448921734479911676e-02,-7.821657866527522568e-03,-1.367939224493083111e-02,-1.978372746050209921e-02,-1.646130609644430587e-02,-1.450156965803207909e-02,-1.665378610028775408e-02,-3.436255955648333618e-05,-1.937314783288487594e-02,-2.153932951764468348e-02,-1.119263586374677315e-02,-5.126629723802097853e-03,-1.208199704694390593e-02,-1.713788884300008336e-02,-1.995384770475739158e-02,-2.729137669141943126e-02,-2.669902398553940584e-02,-2.240898969709502128e-02,-2.544358737825846983e-02,-2.205282693566816207e-02,-1.375638145174302648e-02,-8.839612623757771293e-03,-1.848323619629134093e-02,-1.980692788123905243e-02,-1.881549558464547245e-02,-2.543171031526605952e-02,-2.831144431756417446e-02,-2.014070198470277115e-02,-2.207548575570012633e-02,-2.082725885015281053e-02,-2.316111102518499110e-02,-2.269129896610571143e-02,-2.934935990620490820e-02,-2.575747775265816927e-02,-2.354530706671727550e-02,-2.525013259408922031e-02,-2.732331349365557313e-02,-2.290573397074900305e-02,-2.975841852574018578e-02,-2.596070440645038488e-02,-3.074168529384833232e-02,-3.120607106724155450e-02,-3.429357431281995078e-02,-3.563885343526732724e-02,-2.947966034431628857e-02,-2.471614821623140806e-02,-2.809482489362324226e-02,-2.081504172106995315e-02,-2.807683523893526878e-02,-2.544894934299916922e-02,-3.235011790448250740e-02,-3.117839004608335962e-02,-3.889213609872087946e-02,-4.103779899518324170e-02,-3.545289613452475008e-02,-3.139947748657995891e-02,-2.451781440580325794e-02,-2.152086376506483212e-02,-2.516932368530267611e-02,-2.385459758378067480e-02,-3.151584770438561195e-02,-3.159514765473122461e-02,-3.836695692916960998e-02,-3.770902190046272057e-02,-3.407848811550173718e-02,-2.811993256148527520e-02,-2.002850909352313011e-02,-2.079608512400117626e-02,-2.692704872386572981e-02,-1.834189105116602533e-02,-2.442896845155771018e-02,-2.778390001812252805e-02,-2.946706407571974412e-02,-3.417138241415843686e-02,-2.305508830258621439e-02,-2.033812927200959186e-02,-1.935649435026472534e-02,-1.972328901684451685e-02,-1.797745490446020153e-02,-4.991026269706560874e-03,-1.264750177933322492e-02,-1.807188652555419967e-02,-1.701024378828512248e-02,-1.397349883951932124e-02,-1.327539865816356433e-02,-1.342747952179499348e-02,-1.325346263629257303e-02,-2.143077499580445244e-02,-1.547412526374589148e-02,-9.732822042484290522e-04,1.618523215662109188e-02,1.614649220980711453e-02,9.049322775352950515e-03,1.797961007659883408e-03,-1.024897802441522337e-04,-2.927604589717418011e-03,-8.119381292886987400e-03,-1.211703415772323253e-02,-1.469417476449810626e-02,-8.344936762554260035e-03,-8.983287352376268312e-03,-9.569280013650699815e-03,-8.711252042479614502e-03,-1.045934159340124008e-02,-1.119639923715221030e-02,-1.211005127505585324e-02,-9.805822967174531932e-03,-1.142162345934374761e-02,-1.114873307195429590e-02,-9.061253846145705601e-03,-7.622718615316661887e-03,-9.927422328910728497e-03,-9.412029872566684413e-03,-7.856595651460360555e-03,-1.159453737877410087e-02,-1.301097735446863322e-02,-1.120050274389807615e-02,-1.221350189375972062e-02,-8.324803204242321383e-03,-4.526225996750992547e-03,-4.652969436581639619e-03,-4.334744806918399904e-03,-5.700644252776890936e-03,-6.421453042816102803e-03,-7.488877736783124649e-03,-1.264153695840486945e-02,-1.421900892068947084e-02,-1.139866977384978303e-02,-5.867468236120917773e-03,-5.337651093468113138e-03,2.516218283468634278e-04,-3.541532029278630749e-03,-4.217034992782215524e-03,-5.290439317648214235e-03,-1.007628381596926102e-02,-1.214170569020506588e-02,-1.048821848386394771e-02,-1.109584679913178280e-02,-5.976943403038234050e-03,-1.628513902809461140e-03,4.211625144705464499e-04,-1.485912454000153050e-03,-2.129476184633178042e-03,-3.198749206604234452e-03,-6.595088286357068952e-03,-1.095861766475954811e-02,-8.203838095357509838e-03,-1.108538298901724610e-02,-5.714094361920844280e-03,-2.451431728096576095e-03,2.998071648520167845e-03,9.579345111330280675e-04,-2.414346003971219127e-03,-4.946966319259526491e-03,-6.846788943796595049e-03,-9.418066271510113982e-03,-1.202998547842663857e-02,-6.014786070922233628e-03,-7.339899191490630199e-03,-3.346501179733429084e-03,2.585778347413907920e-03,9.810765130040014718e-04,-1.816975403379916896e-03,-6.266136570351784740e-04,-3.457670074137833387e-03,-5.212467444892589924e-03,-7.001747587724323207e-03,-6.783416587586736657e-03,-3.375355806112145807e-03,-1.272325381235798396e-04,9.054232501212285599e-04,5.845664232869647375e-04,-4.047629240357644882e-03,-9.474591163135459224e-04,-5.397026085513141787e-03,-9.422009904783907805e-03,-1.147595483894807422e-02,-1.102102811279609407e-02,-6.983685455186538528e-03,-4.068396232403201015e-03,2.159767457390506917e-04,9.001671336888508181e-05,-2.296958408201101812e-03,8.911514510684630100e-05,-4.343441868306305298e-03,-6.563903844703799367e-03,-9.937266340892349226e-03,-1.113624125814968377e-02,-6.386995483716555871e-03,-3.871654086736470851e-03,-1.424208424893369344e-03,4.455188505239882058e-04,-9.590350715601827830e-05,-2.081957948456994098e-03,-2.685332119532722606e-03,-2.660244661316446026e-03,-7.072211268903826412e-03,5.955192902298438000e-03,-1.027054607281774889e-01,-1.936026442549490245e-01,1.005462232400898825e-01,1.839564206483083886e-01,1.715738458956262147e-01,2.159087349186107618e-01,1.098453408539160625e-01,8.373212977754751485e-02,9.397194195321603716e-02,-6.546066866955871366e-02,-1.435891530660015070e-01,1.469366396659200491e-01,2.606633332982296603e-01,1.564578615264513028e-01,5.216090039742385387e-02,3.314427918973842507e-02,4.090834500400852836e-02,9.346728039846417813e-02,1.295446767967523838e-01,-3.555469711445126413e-02,-2.050244396931373558e-02,2.178074181783099320e-02,-2.717451123282725589e-02,-7.289343100804233921e-02,-1.147435080806316343e-01,-1.624904882259316230e-01,-1.955351153358322325e-01,-9.522985299815141247e-02,-5.446634118228601065e-03,1.040765853846732092e-01,7.228406289671619744e-04,-6.443358293106465906e-02,-1.761996634843508991e-01,-1.704072076366186794e-01,-1.707028422014080504e-01,-1.799235542394208298e-01,-2.306104623946584609e-01,-1.485295794080208065e-01,-1.757706574412285297e-02,1.637866413347748018e-01,9.242192863853324059e-02,-1.305624435310909562e-02,-1.380094735384218008e-01,-1.134752873650482358e-01,-7.956517221503760229e-02,-7.717422966506787274e-02,-1.449330774604321026e-01,-1.074848983557260690e-01,1.035347213674560167e-02,1.895194216666536424e-01,2.635367452369989372e-01,1.429211345322962678e-01,-1.568123172923472849e-02,-2.568189815385761576e-02,-1.107208128121794921e-02,-4.010278183150100054e-03,-8.527768127130781750e-02,-6.358327291476909005e-02,2.345041842759041859e-02,1.348461518492974909e-01,3.316989543879132474e-01,2.285979694923885031e-01,5.052956357588804515e-02,2.561075512100944099e-02,2.631286564720854149e-02,3.916877151376185751e-02,-3.349425556534191273e-02,-1.078326644022327419e-02,2.693011907172832356e-02,6.546046316144715771e-02,3.237368124009108450e-01,2.694210625595818143e-01,7.992666182021908317e-02,4.613258977458423171e-02,5.792667218919828748e-02,8.929492364450233866e-02,2.686625370799580401e-02,3.297148859282506700e-02,1.341967248964635179e-02,7.112114616962233148e-03,1.967031136638333066e-01,1.705501995101434132e-01,1.597690866030399698e-02,7.661226502082062705e-03,5.208161061839880479e-02,1.001504917658189442e-01,4.514426064175017239e-02,3.570190578678643367e-02,9.149117002471059829e-04,-3.273781303729317305e-02,4.234753098479489969e-02,-6.044348819692789421e-02,-2.001746469096497283e-01,-2.196765371447718385e-01,-1.474827295963902218e-01,-3.164813458013916725e-02,-1.947377783968284176e-02,7.435696475668556078e-03,-1.991890317230780513e-02,9.245786404611393630e-03,5.479052458671130471e-03,1.490288438460741875e-03,8.208951366631106472e-03,3.414652223701818146e-03,3.373499874709694722e-03,5.846403007289431228e-03,3.821946660804350585e-03,4.108698847921460513e-03,5.844473854844049916e-03,6.216660354316339010e-03,3.231810161146802390e-03,1.010196296703533975e-02,9.849096159748564963e-03,5.407724537512315945e-03,4.755025296257549272e-03,5.373391744699922319e-03,2.362081775637642905e-03,3.933379354239143096e-03,6.258199579917928662e-03,7.627368747454819214e-03,8.205510790690321438e-03,6.663891524785361779e-03,6.338894879784490351e-03,4.698473432470136844e-03,2.842878324738650538e-03,4.842352361137919337e-03,6.147974088477287623e-03,4.111255394308560920e-03,6.288291394887787072e-03,9.052501640687894355e-03,8.437104655094222749e-03,7.120727923108613293e-03,6.498446515520775110e-03,7.613587642863065517e-03,3.600058057520446036e-03,6.417346296887291648e-03,5.911850188950630927e-03,6.243947356227597459e-03,6.814436468500259525e-03,7.984524772396963885e-03,6.933842468735936307e-03,6.204840065430753358e-03,7.841716860402003428e-03,4.303845719154712063e-03,5.778759927353023865e-03,6.329252086863011197e-03,3.381189115356802392e-03,3.833786433942549914e-03,4.452159042221849085e-03,9.755060086104399078e-03,6.329640018529104559e-03,8.758727662461088595e-03,3.803222877010058092e-03,8.715205714444155052e-03,6.317622134571663009e-03,8.113454094690842819e-03,5.477147303159290992e-03,6.703109798058580655e-03,6.843662477783572611e-03,9.671155054629322623e-03,7.100445675502380961e-03,5.510456473525054619e-03,7.129364703139124196e-03,7.486096325584012251e-03,5.627242905911053819e-03,8.200940592631485865e-03,8.431021882836889011e-03,8.830258301468415019e-03,6.009544854794816003e-03,8.575231652409531780e-03,8.463726834340082675e-03,7.219946341963511850e-03,8.281956421104845478e-03,4.999809660992779632e-03,5.387879056558967511e-03,5.701797887824665984e-03,8.928242626142373489e-03,4.740422793639840690e-03,4.226829815947469836e-03,8.122759360329068895e-03,9.031447126765132852e-03,6.611281084150719481e-03,7.351673835468270496e-03,4.729245811347004315e-03,8.048538245098098981e-03,9.869991691437995235e-03,8.739539244539304766e-03,6.909220139305468841e-03,6.636780933435888589e-03,7.446537299694806766e-03,6.413022305290915805e-03,5.847204334940020107e-03,3.655973685914074098e-03,1.181559013699213850e-03,4.933154752380163738e-03,5.208600407845361512e-03,4.030287827934938942e-03,6.552713315886800165e-03,5.822621295032989405e-03,-1.293430272215470751e-02,-1.239163983416662236e-02,-1.307278103839422563e-02,-1.285268293462214599e-02,-1.269668959061839679e-02,-1.334395951461344633e-02,-1.449344160529184890e-02,-1.444463663555068007e-02,-1.498019310816177917e-02,-1.622323490048234104e-02,-1.599386021525732796e-02,-1.452146712189498860e-02,-1.311643087602115502e-02,-1.331201109600892336e-02,-1.608322885124479837e-02,-1.274776622803088476e-02,-1.230680634367067351e-02,-1.331338837877189298e-02,-1.332104342532274173e-02,-1.301904163881126113e-02,-1.394364660985417982e-02,-1.266865303482714485e-02,-1.353084951218251446e-02,-1.489492971137237019e-02,-1.341911260545451852e-02,-1.341735049106080983e-02,-1.596844414928206071e-02,-1.486886906531922382e-02,-1.522274231194278675e-02,-1.283298608702551809e-02,-1.426982487423215408e-02,-1.338869325885272583e-02,-1.384738767258928728e-02,-1.301424457475861170e-02,-1.383492680920020250e-02,-1.569002643150713833e-02,-1.174195425710473743e-02,-1.204662841560448679e-02,-1.386816599918587987e-02,-1.406244382527408084e-02,-1.268089881590107361e-02,-1.239893132169691582e-02,-1.307441402387847333e-02,-1.184830021463317666e-02,-1.595005103485544820e-02,-1.432310853478156211e-02,-1.221324398139067742e-02,-1.291887232375753779e-02,-1.412919470880945848e-02,-1.618628001972148220e-02,-1.362540495683147064e-02,-1.214741998949017861e-02,-1.241503762157752759e-02,-1.614204632974998097e-02,-1.393921941570187319e-02,-1.222822915609114887e-02,-1.499732174451741222e-02,-1.267425550711248454e-02,-1.196593601055371929e-02,-1.177248580017517358e-02,-1.488521890282160261e-02,-1.494460065089165714e-02,-1.240164529806134751e-02,-1.189272647919463639e-02,-1.198952394877385134e-02,-1.493095197864282957e-02,-1.181993859148995803e-02,-1.362486109378933767e-02,-1.170749418418648956e-02,-1.202923503363097398e-02,-1.258785012182486208e-02,-1.642223104710633166e-02,-1.244931557941451016e-02,-1.571596863648047973e-02,-1.358080788411044314e-02,-1.302810348420762980e-02,-1.634350380583666010e-02,-1.390661265037281859e-02,-1.242926422489199108e-02,-1.614591833998224243e-02,-1.248409916734058260e-02,-1.336012110796065862e-02,-1.207646314106001172e-02,-1.423128254230482566e-02,-1.505449451626968659e-02,-1.303126308163795981e-02,-1.477427776080109979e-02,-1.347327967366366598e-02,-1.516468545492073543e-02,-1.652131899942224993e-02,-1.617685365807005130e-02,-1.236632957273304211e-02,-1.555940589793066223e-02,-1.260670198618765205e-02,-1.214825959463417850e-02,-1.259457829171743183e-02,-1.580505581074436935e-02,-1.397040383168895832e-02,-1.217409811224156278e-02,-1.180803373581649530e-02,-1.236353296384799100e-02,4.106592503322919856e-03,-2.043706185035690931e-02,-1.358770150390076377e-02,-2.730822379398257973e-03,-1.016433155979938781e-02,-1.160862278226199203e-02,-8.850798225374727560e-03,-7.275466733815818404e-03,-4.943070092791983228e-03,3.031382497399838982e-04,-1.574725347923972701e-02,-1.710322914093151403e-02,-6.552947163198548364e-03,-1.009140450486864342e-03,-3.873958048260729443e-03,-5.671085372375315667e-03,-4.205701229416949037e-03,-1.033037313524244431e-02,-1.102102299606220852e-02,-2.099423190663159133e-02,-1.572911732628494083e-02,-1.487393289128605828e-02,-4.367124112811087734e-03,-2.479133180798651342e-03,-7.112139348462030893e-03,-1.021834296109821148e-02,-4.884708379251942109e-03,-9.284474153350361081e-03,-9.892214059399358564e-03,-1.758614722946793760e-02,-1.233867192462549320e-02,-1.286096749099185747e-02,-9.572453571454990831e-03,-1.204306939585304999e-02,-1.797972451615070105e-02,-1.550190132862093971e-02,-1.186127337845049347e-02,-1.060101664341459547e-02,-1.106715547180809125e-02,-2.442850807456510911e-02,-2.283331844150518139e-02,-1.733863796477640162e-02,-1.744513776086347237e-02,-1.827441894469124944e-02,-2.003739998050930310e-02,-2.190641323003966745e-02,-1.377279119431621540e-02,-1.128366174438785556e-02,-1.013461158303185193e-02,-2.292169835208017134e-02,-1.855339689212816626e-02,-1.463226187557724496e-02,-1.663141614066423329e-02,-1.972641116927314683e-02,-2.195944480343846317e-02,-2.145119195382993657e-02,-1.075134129332807470e-02,-8.948095105295560125e-03,-9.648804470376822970e-03,-2.486197091154048258e-02,-1.960885748397492995e-02,-9.434711619586635609e-03,-1.506781449320294085e-02,-1.620481022424261064e-02,-1.602675910840167112e-02,-1.763892067229424002e-02,-1.059008883921064292e-02,-7.810348088804429899e-03,-7.799589431959436103e-03,-2.372985741278539271e-02,-1.980436504540628723e-02,-1.350443053833570370e-02,-1.493994197979977429e-02,-1.407836013597985568e-02,-1.724004601771270129e-02,-1.472574291370591648e-02,-9.167127140028572679e-03,-9.058458735394502373e-03,-6.992507508086438610e-03,-2.117191169719996255e-02,-1.187081829334087762e-02,-2.484844241527152820e-03,-3.342679479985068060e-03,-5.427030623326036841e-03,-6.192239894947069133e-03,-3.997000790300799314e-03,-1.765622046144090830e-03,-4.501453746106920915e-03,-4.521486505271202390e-03,-1.987087845182930815e-02,-1.151215078544236790e-02,-5.882631755957035613e-04,5.699568461107742609e-03,8.093157036639623755e-03,8.693036280394573351e-03,2.051734227429584650e-03,1.695221503000175810e-03,-2.557307190569307713e-03,-1.897450135856316392e-03,-1.339568296454452141e-02,-1.261513786468534438e-02,-7.287014016987379030e-03,-9.196070016865481866e-03,-7.181984826728621957e-03,-3.628691493641723279e-03,-6.423725815569366303e-03,-7.689315732706678702e-03,-8.075501339041349369e-03,-7.791254884854588968e-03,-1.346152509510323281e-02,-7.950577965900327074e-03,-1.048277799195814104e-02,-7.700321172406823615e-03,-8.182297805929642301e-03,-8.412287445915642148e-03,-8.903851639704703225e-03,-1.030404915854455511e-02,-9.191532276210716279e-03,-1.102131131552916594e-02,-1.546871930269047742e-02,-1.176158209460023522e-02,-8.680612922044630628e-03,-5.596566069670025692e-03,-4.924719380792116734e-03,-5.039723016810825594e-03,-7.539075770611805387e-03,-1.143221062743511769e-02,-1.336895340544141768e-02,-1.203833991793573470e-02,-1.612782274276285469e-02,-1.062982469047826783e-02,-5.421900253770713975e-03,-4.635043797004942227e-03,-5.793756051112981635e-03,-5.589901277663096059e-03,-6.822297838730693141e-03,-1.157888811325038896e-02,-1.150940267230186713e-02,-1.258256107395364608e-02,-1.606429678065335667e-02,-9.967055429791578033e-03,-6.109192449930857596e-03,-3.087899629449313704e-03,-4.106680723403616229e-03,-4.409779009805093325e-03,-7.294151668864302072e-03,-9.499056105369366523e-03,-1.198151410385144347e-02,-1.434675367520199703e-02,-1.295651462398158572e-02,-5.707848750371924060e-03,-4.440664764793860603e-03,-4.607897481211436705e-03,-3.041361183880807520e-03,-8.020882568133510734e-03,-6.255521186802125849e-03,-8.746837607556345873e-03,-1.062238657837295125e-02,-1.588192883812213768e-02,-1.366645796948802970e-02,-9.372567417154869726e-03,-3.075027015960503027e-03,-2.648083489030743278e-03,-2.315288508320142904e-03,-6.186511797914208237e-03,-4.701789446224565600e-03,-6.552135750429315640e-03,-1.186324016298524742e-02,-1.507305964716424904e-02,-1.071831249587680730e-02,-8.211517726059543859e-03,-3.076664978488178725e-03,-1.430422987134533390e-03,-1.090504692229029909e-03,-4.977776069686979006e-03,-5.686680465938958803e-03,-5.835934041951735575e-03,-1.200906480593485863e-02,-1.064346166194575852e-02,-9.490765014633301480e-03,-5.458914237221894512e-03,-1.987348055676481547e-03,-3.412657553763845473e-03,-2.730726389575178809e-04,-1.790519915561054887e-03,-5.777310316799839744e-03,-5.095257874952826942e-03,-1.236648095801015819e-02,-1.415080728097691150e-02,-1.068807361458990780e-02,-4.061899278226400144e-03,-3.175380202838118046e-03,-2.309248483440805581e-04,3.923868572515452967e-04,-6.045536848881754395e-04,-2.367079859040236746e-03,-7.476467288514972859e-03,-5.728016730477473485e-03,-8.157357334417672870e-03,8.695733961499862996e-03,-7.917692048097337010e-02,-2.825981798122872424e-01,-2.412296867602732320e-01,-1.987364336198394754e-01,-1.431371658776914579e-01,-4.493444127592972903e-02,-1.789624501613973628e-01,-2.669747453190869924e-01,-2.759369668296967060e-01,-3.827107362094852444e-02,-1.484982242757690585e-01,1.830486140904021009e-02,1.339908105171234709e-01,1.510261760249413110e-01,2.208695329535670937e-01,3.354478927579331304e-01,3.478760763523326416e-01,2.799074952633942015e-01,2.540681798219366905e-01,1.423455632794679293e-01,-5.289691233279063265e-02,-1.031073598500582694e-01,-1.007466955451391671e-01,-1.927509332778898007e-02,9.061666727976995517e-02,1.709965661905271939e-01,1.373316845835189093e-01,1.456270358351700045e-01,1.906612585103027446e-01,2.283633608397895864e-01,-1.185562995017244020e-01,-2.002907507479965155e-01,-2.454495788534675760e-01,-1.494975014067376207e-01,-4.901554566841517802e-02,1.851753319458367825e-02,-3.235617119037149936e-02,-5.887489890636556783e-05,6.988709123670963641e-02,1.493819944990395499e-01,-1.015638360429945430e-01,-1.501816612971036691e-01,-2.072443670592852838e-01,-1.278342297792861570e-01,-5.932399129179682928e-02,-3.781187814475246711e-02,-1.115123032916996576e-01,-8.809079352841803212e-02,-2.732890295190238544e-02,5.760856245094911343e-02,1.745427796612062515e-02,-1.305586218629738518e-03,-7.802551924261171001e-02,-3.938887412937425864e-02,-2.808913484949911860e-02,-4.761256306771139563e-02,-1.329756923203034291e-01,-1.260166277322327943e-01,-7.150797761472985070e-02,-4.709678714796738420e-03,7.229839910372744261e-02,4.955074595654017366e-02,-5.582834672271598520e-02,-4.949596688492090280e-02,-6.377336945333496321e-02,-9.087379142051633940e-02,-1.733134818173036606e-01,-1.673724211971745202e-01,-1.231605532035389694e-01,-5.889864859153499249e-02,7.431506121374006901e-02,8.545293930540612259e-02,-2.892402345300348898e-02,-3.290060661091617766e-02,-5.255389485725987103e-02,-7.737748988809826922e-02,-1.479852141874624660e-01,-1.588787177659995165e-01,-1.285185778500674003e-01,-1.160290638928303947e-01,-1.029134769567943003e-02,5.354550909316944246e-02,-2.779945021646505060e-02,-1.403848505655103801e-02,-9.543134466979921737e-03,-1.215865621313789655e-02,-5.684220116911495313e-02,-3.526718694238457213e-02,-2.485784470046444733e-02,-1.492952518251983163e-01,-1.692691805664049698e-01,-1.473587345736602772e-01,-1.630323072036719834e-01,-1.000845821907473121e-01,6.003569810697915315e-03,1.164428919702090309e-01,1.523172691037114612e-01,1.935300924148569968e-01,1.728058217311546629e-01,9.836213304022786014e-03,4.169725965668029041e-03,1.834002989212385124e-03,2.016970307168108097e-03,2.970653722686976417e-03,5.975228218415419394e-03,7.588878868060623673e-03,5.444480390262754210e-03,5.189028960381354347e-03,3.384231251571822967e-03,6.656825950981841780e-03,6.901047247936251822e-03,8.295418467269560434e-03,4.715430919242806496e-03,7.528917771798729515e-03,6.069283882765843900e-03,5.046406047241354734e-03,6.384381961675238311e-03,6.803481437161834622e-03,7.603922766518046890e-03,1.086028679319820528e-02,8.313133335922161943e-03,5.057737328209644008e-03,6.218930524757718299e-03,7.234375683214159213e-03,6.659322633697942716e-03,6.671721148939316857e-03,7.463022859282365459e-03,4.246732450084236832e-03,6.112526813052033756e-03,1.155852431572214518e-02,8.394377552524345462e-03,3.987919594755483070e-03,4.920493435186153348e-03,3.574716997911637790e-03,3.513244222474520145e-03,5.062695961260740146e-03,2.550598737738496002e-03,4.360868922504405713e-03,2.411489139066304646e-03,1.083193359148146295e-02,8.207412934374999983e-03,7.003284760248852832e-03,5.428537182061832396e-03,4.503899042547479005e-03,4.375083414837097930e-03,2.769912685938152874e-03,1.929827761547071776e-03,2.591728407182576892e-03,4.877360174505593858e-03,7.167194476421683350e-03,5.475048470512278165e-03,3.699626605016938154e-03,5.186124999273559154e-03,5.597789081405184393e-03,5.276837864898941896e-03,5.630097116246452274e-03,4.843600342180919872e-03,4.086799027773154770e-03,1.905347608429737742e-03,8.927986355346953853e-03,5.854207795130536227e-03,3.702745367553164028e-03,6.557069614596717708e-03,4.427510300789572022e-03,5.918907148824099906e-03,3.013638314878765330e-03,5.915173560464015608e-03,5.493685105038226268e-03,6.202160999758759251e-03,9.010839811249693812e-03,5.036966335948788245e-03,5.821272205433930882e-03,5.629671705173132715e-03,6.151607155780566306e-03,6.441217857816071597e-03,5.824639709764334490e-03,7.415906585780031139e-03,4.847892010631532460e-03,1.906173847479755148e-03,8.030444724432650450e-03,8.595227849157491273e-03,5.305425631430756538e-03,6.863563369375127315e-03,7.170172873931334248e-03,4.866885173180164267e-03,3.521519341059607504e-03,3.992764423305070025e-03,6.668641004465001611e-03,6.452942365622714102e-03,9.205530859102892954e-03,6.593771192434835435e-03,6.283681214918489417e-03,3.202333713766250447e-03,4.679362496571635652e-03,7.059976333913568596e-03,6.300803711247630889e-03,6.722754440217589000e-03,6.858419950053485682e-03,2.979133462958362746e-03,-1.280537218848713972e-02,-1.430668930945666086e-02,-1.577273596068569372e-02,-1.268383654744136176e-02,-1.253920641166377838e-02,-1.313953855618847470e-02,-1.257973553093877893e-02,-1.218109211769524518e-02,-1.510497586911331395e-02,-1.389799823445800504e-02,-1.629677579405605994e-02,-1.236804098251043267e-02,-1.327824377523557052e-02,-1.450396581341941750e-02,-1.190269431135781812e-02,-1.648997171884831678e-02,-1.402388785659416416e-02,-1.308714087414753098e-02,-1.566130967343763378e-02,-1.634080457084048990e-02,-1.506108829439897247e-02,-1.315375599407588199e-02,-1.578748382913575110e-02,-1.537115034737907698e-02,-1.456764996433122621e-02,-1.217427335501307557e-02,-1.646525019077737725e-02,-1.583856644485482149e-02,-1.658057582397591892e-02,-1.522016445076962952e-02,-1.278582058411791185e-02,-1.546603192907369806e-02,-1.617733694762186689e-02,-1.628322400191050193e-02,-1.434478234469293949e-02,-1.480921237108556200e-02,-1.338921926221975194e-02,-1.416875170577966588e-02,-1.587228172037787391e-02,-1.355867599324651375e-02,-1.300149960667164491e-02,-1.485560613547875185e-02,-1.345703271055407983e-02,-1.252364734140886705e-02,-1.415515711346953219e-02,-1.364175397778790745e-02,-1.358801515123533345e-02,-1.362437964257164243e-02,-1.385212799325161344e-02,-1.419744366660671657e-02,-1.235452874955832690e-02,-1.634342869889516062e-02,-1.476694505526624131e-02,-1.252672622487368929e-02,-1.384297714686580187e-02,-1.600944255562475674e-02,-1.288056098902266682e-02,-1.649949034654187366e-02,-1.191720919267737037e-02,-1.518581937543424416e-02,-1.655218550168372285e-02,-1.604291676385442497e-02,-1.525555909729655636e-02,-1.194582593428886695e-02,-1.380524660441333380e-02,-1.553655683913396368e-02,-1.309078308533145364e-02,-1.490653512596358012e-02,-1.624351154473392331e-02,-1.570982776861170119e-02,-1.600148541518399067e-02,-1.255186633344100057e-02,-1.540473529304955264e-02,-1.372208907806510107e-02,-1.458828117026229367e-02,-1.384793007695815474e-02,-1.206827520223931714e-02,-1.624802990784192727e-02,-1.280236475950207765e-02,-1.590948290650388494e-02,-1.596213579437552252e-02,-1.400668809108912040e-02,-1.334854973774077073e-02,-1.607464832198600771e-02,-1.448117281679592479e-02,-1.295780599406602500e-02,-1.294329221045763083e-02,-1.629008636027282422e-02,-1.596658063204644748e-02,-1.614213289359191575e-02,-1.611296664148305705e-02,-1.437412205705119843e-02,-1.644624568400450751e-02,-1.270010022818172761e-02,-1.603586484800091985e-02,-1.191820685211576573e-02,-1.243283482206502914e-02,-1.419196418581702805e-02,-1.170190728218982630e-02,-1.264573463640277472e-02,-1.576202166435593591e-02,2.669276038317534849e-03,-1.644259209193908722e-02,-1.089742058236484873e-02,-9.809527363076228981e-03,-1.001667585730632408e-02,-1.641554716101672681e-02,-7.143763127316543615e-03,-8.786318035200421997e-03,-6.383476862452769698e-03,-5.449443246863351804e-03,-1.534337067240568349e-02,-1.409277878778217655e-02,-4.452795881365742385e-03,-3.224629360517947000e-04,-5.438324585843387279e-03,-1.055690581380059126e-02,-6.563716140597983598e-03,-1.188114958830364942e-02,-1.029546491870021556e-02,-2.534538172256974725e-02,-1.290824335549306187e-02,-9.876046491741756125e-03,-3.937162090126069061e-03,-5.551387080521383473e-03,-9.822173556485690876e-03,-7.885159980512116903e-03,-7.852239931185873642e-03,-1.164295354977542933e-02,-1.155491846763304423e-02,-2.297094714403179194e-02,-1.490844857679251949e-02,-8.822201419778507095e-03,-9.750677599195189255e-03,-1.366101801832522548e-02,-1.503853535479414590e-02,-1.060092597990348537e-02,-8.635849882143492931e-03,-1.084842407542909240e-02,-1.377058904499289631e-02,-2.885912837122200925e-02,-1.972763000083173346e-02,-9.337880864286104282e-03,-9.398016292644632841e-03,-1.606375757255922715e-02,-1.336743247014931212e-02,-1.371314854460256236e-02,-1.013560832447103245e-02,-1.261568278480845566e-02,-1.473643745756228127e-02,-2.785870019475436207e-02,-1.628389533992888327e-02,-7.671922181117902216e-03,-7.034709018344759840e-03,-9.690509290343523457e-03,-1.433257646774667611e-02,-1.287377697976798373e-02,-1.331523114789906134e-02,-9.483509426583377339e-03,-1.341025686127354441e-02,-2.546136910275595411e-02,-1.385016755337882370e-02,-3.797824982206220862e-03,-8.414470276289224421e-03,-7.134339116632190843e-03,-9.462301498697334515e-03,-9.736350150258036434e-03,-1.033219139178072343e-02,-8.669584207073649171e-03,-1.257115945686423410e-02,-2.510056173890800463e-02,-1.729855330507648961e-02,-8.530965666296580138e-03,-4.494469444942607132e-03,-9.845541387368483832e-03,-7.948604246530786843e-03,-9.879112308145752627e-03,-7.312594203042897985e-03,-1.206051575024434663e-02,-1.075606740803705663e-02,-2.325859651722779475e-02,-1.866642010719271258e-02,-6.891227481315625146e-03,-4.103208472375189861e-03,-5.141606913099382517e-03,-6.692159437551102596e-03,-6.326342981902331568e-03,-7.943741641917481666e-03,-6.958106132299118202e-03,-1.001297369017531240e-02,-2.456320548748153892e-02,-1.928709310867120219e-02,-6.134912940353638884e-03,3.034677555044540143e-05,-2.416291918207719158e-03,-6.234365958276485466e-03,-7.933894789069657200e-03,-5.663741309599891645e-03,-7.740824680698719928e-03,-8.521596125996698523e-03
6.234751263524592954e-03,8.681032450680352397e-03,8.454767285914816313e-03,4.388819262716691684e-03,3.976903030783847208e-03,4.400682949196524710e-03,4.923530597294465370e-03,6.622806081496106050e-03,8.630572871838465554e-03,8.727922413201883237e-03,4.686143301317469492e-03,4.470575356308684883e-03,5.647218472935861336e-03,4.273097096123947350e-03,7.248865257794016338e-03,7.939388167347124353e-03,6.788039425837796501e-03,4.403280034666860396e-03,7.989548170359694196e-03,7.496542336947549859e-03,5.453671749502072598e-03,5.169049078529787053e-03,7.413328411832518020e-03,7.861721034909528727e-03,9.023733636531573038e-03,7.481755566150532361e-03,8.500354460860127734e-03,5.541498828691424246e-03,4.992934110848780763e-03,7.272754855669363687e-03,7.533293841086450421e-03,5.181077392384218078e-03,7.936178896264738103e-03,6.156281934477222592e-03,6.711583735872050926e-03,6.536057665853884681e-03,6.899435690155950388e-03,6.632783068720763189e-03,6.161487743201934236e-03,7.831236944214748155e-03,7.998980172758709400e-03,7.941276857396021086e-03,6.946747542122617275e-03,8.055381303925317552e-03,5.567941364103532777e-03,5.535344169449828503e-03,9.352091663647938563e-03,4.746268612385114508e-03,7.675968394184966813e-03,8.736291214536328134e-03,8.615616136682317794e-03,6.862475297143336671e-03,4.390447314460829351e-03,7.754698593815256488e-03,5.728347927868395785e-03,6.245070782443381055e-03,5.628786807080323785e-03,5.891267579122058846e-03,8.230923572987930772e-03,8.128113995615268358e-03,8.362686933141173090e-03,7.910758167816129421e-03,4.936615679968219851e-03,6.355498824309190574e-03,6.576509878820376194e-03,6.148237608560449402e-03,4.802481424630725484e-03,6.867649147973291582e-03,9.460248033509479140e-03,8.737281394664642500e-03,7.354300905278499979e-03,8.465989556687560785e-03,5.126642821293435869e-03,5.260045839022550740e-03,5.987023418986999780e-03,6.353858514675637600e-03,8.707626064125071133e-03,9.599048969076559232e-03,5.286420999262016023e-03,6.490790356125476952e-03,8.209367908213747664e-03,5.738024801221841033e-03,7.649902212783857465e-03,8.767930623549679073e-03,6.987336246246019476e-03,6.455493553706020786e-03,9.235427913450075174e-03,6.965171401487766679e-03,7.944919607629998340e-03,8.499798300255035494e-03,6.928975725940918033e-03,5.265055552894572395e-03,6.294348112567979200e-03,7.482045628782602910e-03,7.609834171922906683e-03,5.044222338115263334e-03,7.913972799025812549e-03,6.782696286657720515e-03,7.809335565282235665e-03,7.136284991959744063e-03,6.165120191523295982e-03,1.108043590555264635e-02,2.377371704637768965e-02,3.688150464324518180e-02,3.288209032886799110e-02,2.158933766349903360e-02,6.459809914615236362e-03,8.979719502234913969e-03,9.497322819246206346e-03,1.199075661703627969e-02,8.937336185142565059e-03,1.227222758890308442e-02,2.686301768626861777e-02,3.714488145818777703e-02,3.361279753256008612e-02,2.239205826685147782e-02,8.821766869689712590e-03,7.545553005998181101e-03,4.906563241197162140e-03,7.398886714857883309e-03,4.676131633326311571e-03,1.289982295993022388e-02,1.611957545692946359e-02,1.709243117496898542e-02,2.034296720484195242e-02,5.659057536375671632e-03,-5.560366473841020854e-03,-2.271829212727348706e-03,-6.585019802231440247e-03,-6.810949493847183803e-03,-5.628806848132593757e-03,6.795260947040131227e-03,6.752351288615229125e-03,1.581761819370722244e-02,1.247580273540342330e-02,9.746293721637818569e-04,-2.037427657886204790e-03,-3.225489245135891407e-03,-5.802213385820476771e-03,-8.844759221366869928e-03,-9.766582868541439505e-03,-1.322134734954847615e-03,2.391110951391434061e-03,1.144464626218024556e-02,9.783970390854223459e-03,4.742062602692499219e-03,1.669678456193081535e-04,-2.435881905833845633e-04,-8.709312203476881481e-03,-1.294156068340411928e-02,-1.733243501549086921e-02,-1.187376614911944163e-02,-4.618907571219438291e-03,-2.088082530628675333e-03,-1.113092723367744164e-03,2.232093320640077955e-03,-1.173898544982453739e-03,-4.120589865750185106e-03,-1.038356602917313992e-02,-2.045661504933733027e-02,-1.955491905987915419e-02,-1.336601234753082013e-02,-1.382050474382035335e-02,-1.433614081633135910e-02,-8.447017988517836404e-03,-6.505635271548312545e-03,-4.381013433222946674e-03,-6.008083689455573362e-03,-9.926402483715459149e-03,-2.048799814978524703e-02,-2.388667729263276723e-02,-1.101816084735146063e-02,-2.022754034519183217e-02,-2.000422339390297080e-02,-1.834548076505790326e-02,-1.111466135456615038e-02,-6.036917017612788983e-03,-8.202660779420363826e-03,-1.193131151837295394e-02,-2.423602736188303075e-02,-2.698683836198028513e-02,-1.351037578492680219e-02,-1.892914297203754370e-02,-2.529064323920783217e-02,-2.857268362568858577e-02,-1.967032318176177227e-02,-1.523091754111570439e-02,-1.510311019726348104e-02,-2.396688509390178592e-02,-3.216628734390709204e-02,-3.385286430231474603e-02,-9.479246417743491041e-03,-2.003292154111853754e-02,-2.623994325112963613e-02,-2.935157221397155514e-02,-2.755244906696708088e-02,-2.677815502983731805e-02,-2.223654970501354883e-02,-2.774420567418118752e-02,-3.951876662530166145e-02,-3.969390651415041077e-02,5.357196327520383043e-03,8.502595383772052276e-03,5.851116208026911625e-03,8.540368556654517190e-03,6.300433737679102079e-03,6.523534202808444621e-03,9.638019732098884393e-03,8.236486008819739538e-03,7.344870457470091193e-03,8.177082798675724962e-03,6.338821791826754898e-03,6.161136532303582505e-03,5.512524620389851887e-03,6.048204504803080146e-03,7.112804165712733814e-03,5.249384707717620786e-03,5.925759750158445839e-03,8.358952038476251054e-03,6.817925652757478132e-03,9.753999684871259707e-03,6.348931245471226177e-03,7.812193125154682886e-03,8.628961647660251047e-03,7.338512124470956272e-03,5.667355339588168138e-03,5.393413229253849091e-03,6.673976263265759754e-03,9.233323288984027558e-03,8.851912021844736064e-03,4.963525757951009997e-03,5.096819250494809619e-03,5.618194356049535307e-03,7.208000283456972301e-03,6.886721151613351376e-03,7.328189396102842944e-03,8.789591479237428631e-03,6.349919784051883190e-03,6.760972441501357684e-03,8.101192315319428669e-03,7.074581982266343709e-03,8.218208791639423569e-03,6.140141010315929536e-03,9.450745479469044308e-03,8.860801906703347566e-03,9.223379299745997420e-03,8.359480159685921466e-03,9.097071663758553306e-03,5.220746987620547910e-03,9.193748370433737355e-03,7.265421873681106833e-03,5.605944206586828231e-03,7.625904122516327134e-03,6.589605052175273765e-03,9.512187334603013772e-03,7.340966597246692191e-03,6.004451909566946126e-03,8.581489901008701113e-03,8.783901112515707030e-03,8.164585340811250994e-03,9.641148927439380928e-03,6.748199182865858604e-03,8.683180224627853189e-03,6.064200412434683253e-03,6.613265365070725502e-03,7.216894771481794854e-03,8.263981691078899072e-03,5.670672469214732038e-03,6.977415782103162448e-03,5.571869105739050455e-03,8.683398074115219328e-03,7.060111055303621916e-03,9.646477310316467491e-03,9.393248396798019664e-03,5.413350694268958228e-03,6.241026870816094793e-03,8.921062497440060066e-03,6.280659156963852574e-03,8.323112791035765234e-03,5.487753267634302469e-03,8.564894492139148857e-03,8.750773894909066875e-03,7.328666809377762034e-03,5.585370858259194708e-03,7.313947002314422421e-03,5.786238237105366562e-03,9.490351623849724652e-03,6.115536179614727147e-03,8.679534691998749135e-03,8.673420008858845343e-03,9.426715837184018731e-03,4.893648929886517188e-03,8.933783274400329544e-03,6.991022970745900712e-03,5.289948717869511277e-03,6.223579075942110156e-03,6.988931053660384606e-03,7.929791148590773636e-03,8.010769103435360153e-03,6.785610266101125589e-03,4.682872005790791707e-03,4.951191367875399166e-03,4.162112974125296849e-03,6.006583576998368590e-03,7.182087254885456684e-03,7.373936657205457795e-03,7.219851677190261552e-03,7.250777014701165549e-03,5.512511126784684634e-03,5.121671207354227054e-03,4.146719521028697716e-03,5.812218581766389475e-03,8.971111251296251532e-03,4.471457213149997514e-03,4.791219834369532873e-03,6.401633352546769878e-03,6.139517451004722001e-03,5.461203829276384952e-03,8.483823280388236646e-03,7.658238745640357989e-03,8.865374018857756153e-03,4.192049852367573867e-03,5.292607972697895707e-03,6.951746847828253750e-03,6.506735360963866038e-03,5.260036760915619627e-03,6.172978882070401935e-03,6.238377886225434862e-03,7.752485372132873059e-03,4.235078380295310627e-03,4.996200273711986356e-03,5.688660779661288552e-03,4.665532910003137093e-03,4.161391804991511345e-03,8.363620540879464910e-03,8.385561497359150102e-03,8.966992811530920607e-03,4.958935713537393486e-03,8.764823078989970526e-03,7.230435842571965657e-03,5.464615430481859285e-03,5.171305574233758806e-03,7.670613476963326210e-03,5.389636223186576591e-03,8.537041284629084612e-03,4.500261523007620043e-03,8.668962148976602430e-03,4.130141517518660238e-03,7.971973881530194581e-03,6.360169976238665146e-03,6.630747009971809172e-03,8.393296808099073511e-03,4.772924701362389610e-03,6.926937295953930832e-03,4.205164167056131899e-03,7.481086978963446404e-03,5.849918550514511539e-03,8.996736164873316358e-03,4.332157331246682536e-03,8.810736393500160843e-03,5.968041187243309717e-03,5.478555361809576627e-03,7.013715914695494921e-03,6.768388930330337255e-03,5.858303908178074879e-03,7.951395707554842832e-03,8.188585996439599196e-03,6.526592226773948041e-03,4.489979597440497960e-03,7.615175182403803936e-03,5.374320364996519259e-03,7.527500430770439621e-03,5.258656240690953720e-03,5.233951862003765818e-03,4.084686434119246326e-03,8.724249923357739120e-03,5.091337241163394409e-03,8.653936545176569781e-03,4.717697518761308079e-03,8.603185772208598453e-03,4.087375482556113854e-03,5.208364489364568015e-03,7.710539305350741848e-03,8.215819768827516481e-03,8.473172276140212428e-03,8.744844284990956063e-03,8.325350918188943738e-03,7.874790802957099684e-03,6.089542041872281555e-03,8.743112586770025729e-03,5.732563416860306238e-03,4.802186310070611502e-03,6.398314194379851189e-03,6.760623666963500381e-03,6.166905006812458886e-03,7.501369006305356330e-03,4.345286272736760547e-03,6.390014146321286101e-03,4.084936210837986775e-03,5.705336086219234965e-03,6.626102808124315763e-03,8.263869121317274011e-03,3.424565272008808781e-03,6.391323147380907795e-03,8.474872181555825543e-03,7.811030417314981239e-03,6.292770226174498015e-03,7.482974738937819663e-03,7.222667315239525779e-03,8.243084778830516920e-03,3.736068237042507092e-03,4.314376627089705658e-03,5.317197494528355835e-03,7.729714476674072118e-03,6.515400503801293403e-03,8.729740298450082078e-03,5.987193144993128643e-03,8.299108298345602916e-03,5.190751810288768767e-03,7.682065674217255016e-03,6.997467048975837545e-03,7.076949051733257348e-03,8.643977652790795982e-03,5.374451504497759248e-03,5.403067007908744085e-03,6.516122197996645181e-03,8.437431960597010366e-03,8.842031491632901252e-03,8.175190214976020206e-03,5.301280572018943725e-03,8.938203488747731990e-03,7.063936701208933626e-03,8.367556917535576982e-03,5.791243409199503880e-03,5.860145671212637318e-03,7.959861333278231768e-03,4.374152275088540563e-03,7.386091259226773738e-03,5.582665575752496570e-03,4.785043163281862098e-03,7.379856834684499212e-03,7.700145259369399475e-03,6.557789049349028836e-03,5.015530592116563928e-03,4.600536313145554314e-03,6.696715783027779555e-03,6.590457140100261339e-03,7.395887454651173774e-03,8.948879383598342188e-03,6.304219916132076246e-03,7.379503690103781342e-03,5.167785203796716742e-03,4.061793305037338445e-03,5.768073354587086553e-03,5.662426940033847556e-03,7.330258155134673423e-03,5.040173885859582960e-03,8.202039869632922475e-03,4.514810051752402020e-03,9.018329015228776849e-03,5.414194731947857137e-03,5.905799249207139071e-03,8.631308404355974781e-03,7.118615069849940948e-03,8.361803245226687165e-03,4.469494105803411242e-03,6.217442707649934418e-03,4.636780861044364349e-03,5.812751560615906678e-03,5.058579631724945472e-03,4.863966620881374908e-03,5.867537879218466187e-03,6.758450922797731505e-03,6.260179336522215740e-03,5.268329109879666544e-03,8.454974533711709025e-03,6.678297302429791853e-03,8.652547397000213969e-03,8.085940296879465250e-03,8.139588976208310053e-03,5.295358956011639653e-03,6.194821635966175216e-03,9.104500854615320965e-03,8.596150271089782885e-03,6.748864102925874672e-03,4.735211008574094146e-03,7.841994034964126781e-03,6.841506791045088610e-03,5.008501994282808269e-03,9.471609290210833421e-03,5.064734521955726460e-03,5.794462475348442256e-03,7.509007140286814118e-03,4.631409436875465885e-03,4.592231785652577288e-03,5.548716152265896484e-03,7.912742066176920233e-03,6.211072790198331021e-03,4.813917857556518874e-03,8.366289199632261087e-03,7.513747239555989936e-03,4.033581293531133052e-03,6.053082181294107758e-03,5.031573404118526958e-03,7.718640393800853608e-03,4.239707984225876691e-03,5.763265856904897788e-03,9.216346691554681836e-03,8.508509604862903725e-03,6.423828221376899801e-03,4.421028360755242977e-03,7.501054175785956159e-03,4.757496026359182145e-03,8.011554966043379564e-03,4.125187027476467927e-03,8.919123708046405516e-03,6.142083444762865864e-03,4.749479339354070045e-03,5.060948330142048257e-03,6.427216109044976526e-03,4.891733491901592047e-03,7.183186074807291696e-03,7.493015004049730608e-03,4.381204319570715898e-03,4.576674537233993596e-03,7.125042940357874735e-03,7.888377089731789943e-03,7.797452375011325668e-03,6.783485055743522334e-03,6.830614098552558952e-03,6.072622751716587157e-03,4.938895758653338505e-03,5.988209317109327058e-03,8.247724428577220268e-03,6.243762970952308929e-03,4.979681072764244841e-03,6.660609223537406094e-03,8.784834453421657904e-03,7.813902520533370921e-03,5.588852208850166384e-03,6.449015704393501643e-03,7.226475134191951387e-03,8.492821458905746093e-03,5.810409133487011261e-03,6.795179113607312076e-03,6.234674808392503924e-03,7.926786744820866343e-03,7.157362080208292711e-03,5.932570736923727626e-03,5.759431741144441577e-03,9.885431578059107605e-03,7.207264022470398490e-03,5.179892897386774442e-03,6.430376081279087427e-03,5.892810053660299356e-03,7.355864096567037505e-03,9.057200082675853636e-03,7.278946620097282230e-03,8.548228462075186870e-03,6.101342676844772120e-03,9.311955185742544841e-03,5.340816148848143846e-03,5.664996898840696585e-03,9.273115148094656507e-03,7.049158678596222430e-03,7.018240449203305004e-03,5.421360220175763973e-03,6.521686537152297965e-03,6.043662536293696076e-03,8.604959427073970504e-03,8.546297970447017459e-03,8.263326281795208353e-03,8.517979640440657280e-03,7.998667475664255483e-03,7.354904368710088285e-03,7.808912744026401571e-03,9.242753057479199605e-03,6.485725550130569048e-03,1.024505976037355659e-02,6.011140371122581337e-03,8.277436135243454451e-03,5.134384103192485456e-03,6.066995891426407023e-03,6.726919685521554060e-03,5.162285181720207422e-03,6.325306273643059758e-03,7.076833166087426186e-03,9.939989144070911220e-03,8.545550147967489671e-03,5.882611628384866106e-03,6.506747275496827833e-03,5.607643324435898115e-03,8.248857294910833665e-03,4.686796492329191322e-03,9.392209711204767275e-03,6.054084871080530998e-03,8.589703815464254030e-03,6.608523561112045544e-03,7.024575135592458185e-03,9.786348915216003946e-03,8.379081863728115101e-03,1.195669704460244204e-02,2.626264468962275639e-02,3.961595554920162299e-02,3.377583277803680728e-02,1.250469415592783684e-02,-1.110719536317857255e-02,-9.088541699231679830e-03,-4.718338254932581861e-03,-2.829475917063538088e-03,-5.289021030917029007e-03,1.079217142296214245e-02,2.608727869091183316e-02,3.470605548564546089e-02,2.869947176239925554e-02,7.222524105584238532e-03,-1.288420873287081728e-02,-1.797542089193238449e-02,-1.893012871582207268e-02,-1.505978110972844633e-02,-1.726469281088999566e-02,1.087475180947338783e-02,1.333986576759542929e-02,1.362791969423296848e-02,4.182099127149674356e-03,-1.733106410984839793e-02,-3.361014914518723612e-02,-3.079306448171149901e-02,-3.157454268403420139e-02,-3.602157376834880936e-02,-3.666431813400143624e-02,5.180633060266168384e-04,-7.250716491917680133e-03,1.177383174710910181e-03,-5.531435770725083058e-03,-2.415721228859986705e-02,-3.345137591515520703e-02,-2.828173162941081953e-02,-3.013984986842424552e-02,-3.123105491477167275e-02,-3.932611431179830475e-02,-6.956163124225880033e-03,-5.679770711931514393e-03,8.940063644484695909e-04,-1.057916734907303480e-02,-1.823288097858354398e-02,-2.179091104278199978e-02,-2.455727487915817728e-02,-2.737518611477611497e-02,-2.867800355078307245e-02,-3.422681033210980828e-02,-1.728834000806769508e-02,-1.565084519416468437e-02,-1.173518665630867742e-02,-1.696964812784460680e-02,-1.754276549330359425e-02,-1.742004283748521676e-02,-1.643837390341530702e-02,-2.064938997474063606e-02,-2.920068974579979881e-02,-3.522795740845195006e-02,-2.110418759401157945e-02,-2.381715175155454597e-02,-2.386934506190988708e-02,-2.368600689672111653e-02,-1.782670587953707336e-02,-1.470257763047211168e-02,-1.112964978655066849e-02,-1.443009298430041575e-02,-2.549659883080936107e-02,-3.401658201356758116e-02,-1.808897560996146001e-02,-2.673875762902209671e-02,-3.449205906499923369e-02,-3.398765555154342061e-02,-2.268922432231781916e-02,-1.603307872507717113e-02,-8.555222494289558416e-03,-1.305731848195751214e-02,-2.376510636824976513e-02,-3.278952778730188228e-02,-1.660900753061665680e-02,-2.946266612310958349e-02,-3.948438641999123255e-02,-3.747573153489520970e-02,-3.320752258230456888e-02,-2.418172902269676017e-02,-1.416726678262058246e-02,-1.855640748114710178e-02,-3.053664305226751544e-02,-4.057225705113622072e-02,-1.771272311343718292e-02,-2.680443253161907471e-02,-3.881551566808078696e-02,-4.517317757525559502e-02,-4.336744652831105162e-02,-3.579950548204591937e-02,-2.874417033222812640e-02,-2.877155996277041758e-02,-3.867620256919815369e-02,-4.750675033431833727e-02,6.438732470678858698e-03,5.569797066277980963e-03,8.334592746535637170e-03,6.803193312286420595e-03,9.284758176152124731e-03,8.041810924996730184e-03,8.670875227708856742e-03,5.249730300380900903e-03,8.229979960145053855e-03,7.336717710914458790e-03,6.974278844092542812e-03,9.820611243223427433e-03,5.182070966575807666e-03,8.404294421728967374e-03,6.630290124667601384e-03,8.186729148595023667e-03,7.513828168925000030e-03,6.760579477707797866e-03,7.624934278698114812e-03,6.109687138641369149e-03,6.883812634794635697e-03,6.828272954150341884e-03,9.089880320126600410e-03,5.140108933473296927e-03,5.968958601937977664e-03,6.474804193407736677e-03,9.397182949780435307e-03,4.615043332992174729e-03,9.508206679971860018e-03,8.862463940990989233e-03,5.219066413535508424e-03,8.616620566295732711e-03,9.528981564458350456e-03,6.786071083220124658e-03,9.212682782830401013e-03,5.331436163253551463e-03,7.379901278182453978e-03,6.948734213405196973e-03,8.760282371565191253e-03,9.571293993746328096e-03,5.712063005386870500e-03,9.822125363890108277e-03,7.389006092451046864e-03,7.903766268477510626e-03,9.263717604124060978e-03,8.917852915516713205e-03,5.197593587721417024e-03,6.101350914998740146e-03,5.657473156487399964e-03,4.628752625899970607e-03,5.001221689967673412e-03,9.135988615704686289e-03,8.182716740540043818e-03,8.063759543006627714e-03,6.345262401513896734e-03,6.822924654172031825e-03,6.241548834402560475e-03,8.060279898548464855e-03,8.950544290180943025e-03,6.749684163667133384e-03,7.078131685831312407e-03,7.911092381299861254e-03,8.174903855287532495e-03,7.594660764611914187e-03,7.966591457664474324e-03,7.035820579485017184e-03,9.051967035549869645e-03,8.739424976240389720e-03,6.966335991523963343e-03,4.901410653567190093e-03,5.981074929748551004e-03,6.788785596609849503e-03,6.850584675035510836e-03,6.556943336788011514e-03,9.538160068228621058e-03,5.076076906302682754e-03,8.886718793561112703e-03,5.708693717620364969e-03,5.913143365743619463e-03,9.021041109178031675e-03,9.168146225890062145e-03,7.311628939406580006e-03,5.629109292390243290e-03,8.722659950150684488e-03,5.981119129096761945e-03,5.881419383156368322e-03,6.108296535587544838e-03,7.556013599889091839e-03,4.761117878305094926e-03,9.554575159928462014e-03,8.738199760751194992e-03,8.336843916091395482e-03,6.770572898749792345e-03,5.051339161849126291e-03,7.265508211811252948e-03,9.497119976601766517e-03,8.640537314605891903e-03,6.595291688123456307e-03,7.330291349030370641e-03,7.336559403081126945e-03,6.681288495788507975e-03,7.563602897613930232e-03,6.379104569199899044e-03,5.719915316368848549e-03,6.861568124552484826e-03,4.957347874687349429e-03,8.576456750420730427e-03,7.490930548943208409e-03,6.067899490324067668e-03,5.686868346902195642e-03,6.172319144143107936e-03,5.017227412962999705e-03,6.359476831184847703e-03,4.134010646263104258e-03,5.054890693499980783e-03,8.159382694148715684e-03,4.121036896564579319e-03,6.341668833229776800e-03,8.340510794857843371e-03,7.367928189814160200e-03,7.640425204724451969e-03,8.524175363849972875e-03,7.381762294031434662e-03,8.893828917467731451e-03,6.912242895687830194e-03,6.743174327890981076e-03,8.523519171265271296e-03,6.395841901068535090e-03,5.279363207857773119e-03,8.698485143814450524e-03,5.057287504651532956e-03,4.940251348093709777e-03,8.587808922148450208e-03,5.213103329209316239e-03,7.033515317716013820e-03,5.867842927406330400e-03,5.715010703694128544e-03,5.204428369274176000e-03,9.014455801359106887e-03,5.852667362179106783e-03,7.455814036083046117e-03,6.349148940814008935e-03,4.767681960175866943e-03,8.981197512498465332e-03,5.610757503046241018e-03,6.678312563183592260e-03,6.479944183780757608e-03,6.582599131822448532e-03,7.045527818576566986e-03,8.287957355649328006e-03,4.149959103006825231e-03,4.834453833386102156e-03,7.883356016249764772e-03,4.950259582842144596e-03,7.679947275450864710e-03,6.569041665446664208e-03,4.646144125627341484e-03,7.970890645751549028e-03,6.417085920193167647e-03,7.312581474489236386e-03,5.155962264770641221e-03,4.217998217217055687e-03,4.215625254683783366e-03,4.893061281977088145e-03,6.336339648773971905e-03,5.452110114235983115e-03,8.238351333942545152e-03,7.392519956451954269e-03,5.608106237696570615e-03,5.860768530071220131e-03,5.623354067641885695e-03,4.778951010033618066e-03,5.297376507682111102e-03,8.866862615598767802e-03,6.465877742838911993e-03,9.011340600653642771e-03,6.626622902958716893e-03,4.373448576544945732e-03,5.081657274440666214e-03,7.497681068347479549e-03,4.265017016672451033e-03,7.939033602068771428e-03,4.667020244716345301e-03,4.376848184877091957e-03,4.829687317588451240e-03,7.605209980972013617e-03,7.816581649587879543e-03,7.339911863759349814e-03,6.133451926965974299e-03,5.797877626514815613e-03,4.041078930406252073e-03,8.216730500998527600e-03,6.004734129077466884e-03,4.371543853804867388e-03,8.238409191502782739e-03,4.268117197378584055e-03,7.920837413012860040e-03,8.421022787192375750e-03,4.494094203166820733e-03,5.673839592500989210e-03,6.557317465625354252e-03,8.040175160665229484e-03,4.423089313033282295e-03,5.794184794809793468e-03,7.310727966658041310e-03,5.713420726215891546e-03,9.133248871178846137e-03,5.952429428658478905e-03,7.311745456617680869e-03,6.919165077345535049e-03,3.853611382646697156e-03,8.938018466615170812e-03,8.873634599139914800e-03,8.962070534566797878e-03,6.532184482964705462e-03,6.560225283667632176e-03,5.981644758260287395e-03,8.317330182466003627e-03,9.081499084303310682e-03,8.075128329846491260e-03,5.719491078766951453e-03,8.552927041774092964e-03,5.980529233940126872e-03,6.661712271071483157e-03,8.919437178507561709e-03,7.678998754038358042e-03,8.185349286095324264e-03,8.126491816550290501e-03,4.454676335706706652e-03,6.856986696658845006e-03,7.292062944647372674e-03,8.876684881203064648e-03,7.100614382507350331e-03,6.618776981258961932e-03,4.562419009571567347e-03,7.755866732373781561e-03,4.775194092570734031e-03,8.692870782863654222e-03,5.438184310833831317e-03,5.810513023203803251e-03,6.098178800006215892e-03,4.627266533380500028e-03,6.355129909626904341e-03,7.680660651441087450e-03,6.107586452441898101e-03,4.370618727267260896e-03,6.965828624348901869e-03,7.552311654579953529e-03,6.787442290076618409e-03,6.838627590769329190e-03,9.342433778309884237e-03,6.520859022973786445e-03,7.974594624788056141e-03,7.270976874657978165e-03,4.504405254306165923e-03,6.799676913956193870e-03,6.742588873615578196e-03,7.540575469777951664e-03,7.114211565815627483e-03,8.832184726925370460e-03,5.545411269395464360e-03,8.024329974306326774e-03,9.286558173111233994e-03,6.496875967763233312e-03,6.418371759474995018e-03,8.644466713725602880e-03,5.717515940728779868e-03,7.831810291280745864e-03,9.568364931048463362e-03,8.875448912327089934e-03,8.245020708572315879e-03,6.776343195352066764e-03,4.630147747264173538e-03,4.340783720864930216e-03,8.917437210787457214e-03,4.938216081213635256e-03,4.685379389539341688e-03,9.301184204601719782e-03,8.787889325882539820e-03,8.058592327534464667e-03,8.350539507038403156e-03,9.704758437837853607e-03,6.844265528520881992e-03,8.860161603654458096e-03,8.350974091910646352e-03,7.581070871563583106e-03,6.733437919828236251e-03,6.116481177271418032e-03,5.714921105437971265e-03,4.870774942283597093e-03,4.952044986992652602e-03,9.722595822126324158e-03,7.958489211739456712e-03,6.576386268769946440e-03,6.671163184468971268e-03,6.311855660757882333e-03,5.479723339334664246e-03,6.044461542418972690e-03,8.284672418579382830e-03,5.869883620236088402e-03,8.609759537677201188e-03,5.472162586740818291e-03,4.967745885776250064e-03,6.270978302612483651e-03,8.443837165473831730e-03,4.780909456156621877e-03,7.391680307603957362e-03,8.354325329211487183e-03,5.617807065043700296e-03,6.681278466586532995e-03,7.737300185197462307e-03,6.386280051973496942e-03,4.306065604264111384e-03,5.221146489869575753e-03,5.047862386692371015e-03,6.640178185251895474e-03,8.395264459104869945e-03,6.598937576695240205e-03,8.656774896550520348e-03,5.301867968054541080e-03,5.998450552927333916e-03,5.816259950997903529e-03,6.021675720685241290e-03,5.590737471111876210e-03,7.998498554047212342e-03,5.617660932058860662e-03,8.439931772658351705e-03,6.670983764882480391e-03,1.005054721937704947e-02,7.358800196717387582e-03,5.319183368104731489e-03,6.190334030021623669e-03,7.754591913611334070e-03,9.017390664812802159e-03,9.958226099491833752e-03,7.186818242741560558e-03,5.945730445357246506e-03,9.618045406215056797e-03,7.481069792999347524e-03,7.282429628584236730e-03,4.895082011365716780e-03,8.665963626634513861e-03,7.180359867155199950e-03,9.501129567983469804e-03,1.010895637598512552e-02,7.180958967644922829e-03,6.345253954874759475e-03,8.376589443560386594e-03,5.623378049556091926e-03,6.491525648237389708e-03,4.528726117221021363e-03,8.632979848527112116e-03,8.411917699932916839e-03,5.358677059568472609e-03,8.930949558116076450e-03,8.183036097202951720e-03,8.947624448995003879e-03,7.132844733308262367e-03,1.013556723914276966e-02,7.336145934566834156e-03,5.409856912044911162e-03,7.979667161414691692e-03,8.922395354566904982e-03,6.123079451293400241e-03,9.925159883745392209e-03,6.024570610684772641e-03,9.020512304848087373e-03,8.816748724358206349e-03,8.614624600583906805e-03,9.166589113812528139e-03,7.472401686523964456e-03,8.869138488813732915e-03,6.205349934681027649e-03,9.959606096356101237e-03,5.685040318035431035e-03,7.580257024308203855e-03,6.464858529410443845e-03,8.002907789163800356e-03,8.265365703316969112e-03,8.003645838953467664e-03,4.520299735434344691e-03,8.988782464642018286e-03,9.377484359476429693e-03,7.692930754066717655e-03,9.872040347386876538e-03,6.719324115260872504e-03,6.786112756987519937e-03,9.443696014019495322e-03,1.034637594781958291e-02,5.967245417538965570e-03,8.826513264446092868e-03,6.810034334407988679e-03,7.740897446693467861e-03,8.034838730746401633e-03,8.584188100903679050e-03,8.127917704404540034e-03,7.428586112392566651e-03,5.739025957086005096e-03,6.716717518391754523e-03,5.850616946311795741e-03,1.673484966065675456e-02,3.271988841629586142e-02,4.502067515553628135e-02,2.504976175816576653e-02,-1.327257976729648639e-02,-4.979191374750244897e-02,-4.745916622430974841e-02,-4.102932458953245654e-02,-3.381522995793675990e-02,-3.326687112246503458e-02,1.370647917957865981e-02,2.771276661281780671e-02,1.553809512062374193e-02,-4.855487005243051130e-03,-3.091835619414093350e-02,-4.924462994467363602e-02,-3.659683988760758372e-02,-3.960907051520992650e-02,-3.953859824477904544e-02,-4.273039247371766824e-02,1.326134749219707622e-02,-6.143722839389801488e-03,-2.818262253720831001e-02,-3.512272925528481943e-02,-4.357796882963393958e-02,-5.137487878374053657e-02,-3.570614488033210798e-02,-3.168116149323562530e-02,-3.889981743992829144e-02,-4.929284225718649770e-02,-4.564281448336847576e-03,-3.827983676964046011e-02,-3.556680049679027816e-02,-4.084859917350461972e-02,-3.354629246134728515e-02,-2.886764354397781951e-02,-7.707619224593485058e-03,2.263995681291667596e-03,-2.625296464880155257e-03,-1.599863873847419057e-02,-7.481852405982570252e-03,-2.846707318191792763e-02,-1.479029348204432756e-02,-1.161396934139095893e-02,-1.606072729239759779e-03,6.292745664397161182e-03,2.908248311519067916e-02,3.606434910034189700e-02,3.101179646602475123e-02,1.036134325603702347e-02,-5.621260323962829972e-03,-1.776529210006294601e-02,-4.653342190811051403e-03,4.346225640526954828e-03,2.006862648751746650e-02,4.055087842199907311e-02,5.752290305657749292e-02,6.326728619791559260e-02,5.680666540368625728e-02,2.855633294897338623e-02,-9.294949261014665010e-03,-1.540372660648225284e-02,-4.118124571020573624e-03,9.852839840670830213e-03,3.548117785797272328e-02,5.528278553405765322e-02,7.650525224545327851e-02,8.327503610433695247e-02,7.343463730924446042e-02,4.280409149479083575e-02,-7.607184573342968929e-03,-1.746540265360407851e-02,-1.139161295930177925e-02,7.013394514716564561e-03,2.952195509082234520e-02,6.112745140087606083e-02,8.069997910856492596e-02,8.937843147616547634e-02,7.307525366011591306e-02,4.365291433782172992e-02,-4.998949672174884257e-03,-1.893856258914542595e-02,-1.850046406651470118e-02,-4.851906305028693724e-03,1.589043202483008538e-02,4.895930270219950309e-02,7.095574161607441643e-02,7.801037447912693990e-02,6.116294544709652281e-02,3.343676179487764522e-02,-7.800461964110458855e-03,-1.949471953465880397e-02,-2.109108448119891704e-02,-1.738445875678977515e-02,-1.019943608802822976e-03,2.526758851358222938e-02,4.936668840820170739e-02,5.359402264384345582e-02,3.760826194471865447e-02,1.499795196941427003e-02,8.526443872191809964e-03,5.889053052853430829e-03,8.295866145841200925e-03,5.874524517167618518e-03,5.345809928166010173e-03,6.903835136703890055e-03,8.765293076844529394e-03,9.540439179490470614e-03,5.574726830359489835e-03,5.163769285523624186e-03,7.903445075965395694e-03,5.953111956357062633e-03,8.017176099835290198e-03,7.036899506259489297e-03,6.614003421762874868e-03,5.095141674350923272e-03,9.031878788316407072e-03,7.532570373060734799e-03,7.208520647224008274e-03,4.649832141619551600e-03,8.744295144074282905e-03,7.152018963962325331e-03,7.347611142755031306e-03,9.246625104980824017e-03,6.008740278027909984e-03,7.210100119907888842e-03,8.963140285410195127e-03,6.484959017274136324e-03,8.796046079188725095e-03,8.824184707130670532e-03,6.198690025252780525e-03,8.364099695992669586e-03,4.731563147399553762e-03,8.373705692348959798e-03,5.865191346800780435e-03,6.366800814186996185e-03,5.387508223017459588e-03,8.291001227852043756e-03,6.463865137251371788e-03,8.110466772806856905e-03,6.820338430219633798e-03,7.681578602666149294e-03,7.645252947774504662e-03,4.846277388856826476e-03,9.563281229863348706e-03,8.935208541188293871e-03,5.474145024344132318e-03,7.858068609840488175e-03,6.243928652466437801e-03,7.597930312309187327e-03,8.441716865010445367e-03,7.672932938412606665e-03,8.407023186240503501e-03,9.756250753865563022e-03,6.456872165963337476e-03,8.363673271064096804e-03,9.421089745095799842e-03,8.403777054651824160e-03,6.807878600044491371e-03,6.443670617331879492e-03,8.925592481721250984e-03,9.251072617699942352e-03,8.869859358592460316e-03,7.015573834411935154e-03,6.065060886416459053e-03,6.833483547544190115e-03,8.651302245871943936e-03,6.537948608441336400e-03,7.066600207551767578e-03,9.718552179472142102e-03,6.558068787848518426e-03,4.988545069769148403e-03,9.111235093581315087e-03,8.765769687581565980e-03,7.423090466793957898e-03,8.126514023645257240e-03,8.953955447874962364e-03,5.416321152960311934e-03,6.788172751118505370e-03,9.950773298421897867e-03,8.953793661164844916e-03,7.433405208013869718e-03,9.297570579978502517e-03,5.529959903281529525e-03,5.662142397401599692e-03,5.771660356685273836e-03,8.657336475413949378e-03,9.206412870074839189e-03,6.370751357518238123e-03,6.302547439749913057e-03,5.878700974066052368e-03,4.942772135612181865e-03,5.758031042733083825e-03,6.432797458508040210e-03,6.948377680957623127e-03,8.760391079278319337e-03,7.678509328020902136e-03,8.002169482950472965e-03,8.624169796290563975e-03,7.077503158002079048e-03,6.081419606548493090e-03,8.571889728108215284e-03,8.038252000953986093e-03,4.557221208967726991e-03,4.930380677853505797e-03,7.899201444085044571e-03,7.117329660095601807e-03,4.647839017711163229e-03,8.001975774072920058e-03,5.849369900254535945e-03,5.884135130940690989e-03,8.315105076551707400e-03,6.955230781822856201e-03,5.541838288497233367e-03,7.919139645025502147e-03,6.715912996919546143e-03,6.964680336853797463e-03,7.981867236194260459e-03,4.875640266644540310e-03,6.004054656989088121e-03,4.562582816951654685e-03,4.074322700555473020e-03,4.578615710810529649e-03,6.466661846018139509e-03,6.300891558666437200e-03,5.614781818304125094e-03,8.196369921093711944e-03,6.619723187094054759e-03,6.935747179218500202e-03,8.553002213612116364e-03,7.871157471524859242e-03,7.543352436347983483e-03,6.142698288180651472e-03,5.279851962492471476e-03,4.752018661888460921e-03,6.817718289208799659e-03,5.011629083753944836e-03,8.985594180107310536e-03,7.107348583668430739e-03,8.343523064898562477e-03,5.693020021920623328e-03,7.430644561197593742e-03,4.790202875969635718e-03,8.513095524107960194e-03,6.705894048626702061e-03,6.013352382037458546e-03,7.530129157305181023e-03,5.372286110369757159e-03,7.382935032191329655e-03,5.487013203336591274e-03,6.518439891460447999e-03,4.367338124179097683e-03,8.302479058490562849e-03,6.027689751741586652e-03,4.152921481861830341e-03,4.031187007332657363e-03,4.560518383926095293e-03,5.418600196519523723e-03,7.007180158880972620e-03,8.142072612145920957e-03,5.299912606249334093e-03,7.139519994134257974e-03,4.295631775789659351e-03,7.633148224931792999e-03,7.089968175511385251e-03,4.092275683363425995e-03,4.604871480520635399e-03,8.693049585521384418e-03,4.944988717170938075e-03,6.276368971823594739e-03,4.158019241788662654e-03,4.743594878680208737e-03,6.122234532550572053e-03,5.790561784927638136e-03,5.537228172000563040e-03,4.884650476767577604e-03,5.291378357394899493e-03,6.780892741950345082e-03,7.356593894681932519e-03,5.195374820307931824e-03,4.047784929600738851e-03,7.299139930310036967e-03,7.947594737333365036e-03,8.380230938017058789e-03,5.346643429314850912e-03,7.701781771028575613e-03,7.846849344664353840e-03,4.260566198065427260e-03,6.042045463026023133e-03,5.982312940564204692e-03,7.292668093318839181e-03,8.690466513751401653e-03,7.448499310429599479e-03,5.061212265371943866e-03,6.991545111018637043e-03,8.801704970386426199e-03,8.087376608609466930e-03,7.682404639452767095e-03,5.725678466564151567e-03,9.017017658598434904e-03,5.495722554717757599e-03,6.815996149272229507e-03,7.249846108798941105e-03,8.270503465187728845e-03,9.663121719892833056e-03,6.485139057707390957e-03,6.720724528745570733e-03,5.116113218042603328e-03,9.236185690119535358e-03,7.973846389548934488e-03,8.072193963919177193e-03,7.059047313913578009e-03,5.341775157142522081e-03,8.901966188396384302e-03,8.895870214027211051e-03,8.966935696024441738e-03,6.214459650451551430e-03,9.290773894464251365e-03,7.731219503400215722e-03,7.063374618813210611e-03,5.195052677910860610e-03,1.041171997053572107e-02,8.855523232740665843e-03,9.007985478739790469e-03,8.121794804840789389e-03,7.752051012191377502e-03,5.775298542217413220e-03,5.065513139928350811e-03,6.073709891244847940e-03,9.797373614738849948e-03,4.977234987035771344e-03,8.354025835628742583e-03,7.339389653673077454e-03,7.686079250598861282e-03,7.546145812210600622e-03,8.984566392569597743e-03,6.032892389417257757e-03,6.536786225536326753e-03,8.144599221827893490e-03,6.403826209715069578e-03,4.948083883504006755e-03,5.564413951813323295e-03,7.735462246334179857e-03,7.595777120502765489e-03,5.393645823335186350e-03,8.464918487751368903e-03,5.220499751665228297e-03,6.255832293183779570e-03,7.570029902459075172e-03,8.749873750652956486e-03,6.081286540568767683e-03,6.549391770426583534e-03,6.925486178865722375e-03,7.059483172037471152e-03,4.652299972955464824e-03,8.602068166894221574e-03,5.350509037109825450e-03,4.925306951064883053e-03,7.648305687370338807e-03,8.809168346608959449e-03,5.839781235967551540e-03,7.910140540548048563e-03,5.023162755397088050e-03,8.174945081727799309e-03,6.818030145073664984e-03,8.975100911774967771e-03,8.119023552330063148e-03,5.090814606036080624e-03,6.371321985469312159e-03,5.270866118455260277e-03,4.569851319005322800e-03,7.696819669899240823e-03,7.268722096735333316e-03,5.753851232296850957e-03,5.238331598297666335e-03,5.377036652777955790e-03,4.883333757110861102e-03,8.707200297768741964e-03,7.452586760008766617e-03,5.841631888289087159e-03,5.085075859054877245e-03,8.858906866061078481e-03,5.924337496304301481e-03,9.344967352882153216e-03,7.418600483362565272e-03,5.341650434934516224e-03,8.666736651498198676e-03,8.362373746812767211e-03,8.019102431743422438e-03,8.306443325876202918e-03,6.642335773284996879e-03,5.313998308170206700e-03,9.279575307390637226e-03,7.970020137959483650e-03,8.199229085548780452e-03,8.491159506304822580e-03,9.709649006004012275e-03,9.311439715977679402e-03,7.224615348263202334e-03,7.387096349388804460e-03
-1.245615575736703541e-02,1.135371926550926384e-02,1.009806113299323467e-02,9.207945614721759972e-03,1.153615048037340100e-02,9.857091583480354427e-03,9.303452979315417204e-03,9.626848672140144239e-03,9.987781146831294782e-03,9.886668125259840192e-03,1.133740677268844400e-02,8.048891257317071155e-03,1.108881218463422802e-02,6.969197183028848046e-03,7.728383594523280560e-03,1.180036621945676663e-02,7.442248967045642614e-03,1.053322730325599241e-02,9.098696490948625371e-03,7.742714911042649674e-03,8.338050911795187592e-03,1.150603267025795615e-02,8.156777006497582458e-03,9.351334621423628909e-03,9.041203851768637653e-03,8.847205249532230295e-03,1.050758666061513309e-02,1.133400512977032239e-02,9.420223099011811041e-03,7.365720173368417792e-03,8.497356872555157647e-03,8.224276222328260819e-03,7.576011337749022877e-03,6.747711400329375539e-03,1.031608033006127349e-02,1.024585378369190919e-02,1.154311644722781117e-02,1.150402917557548713e-02,1.132180505373487495e-02,1.014809241473606585e-02,1.117086467153933019e-02,7.098380797250866507e-03,8.538598217621040654e-03,1.070990012744136438e-02,1.145238199708014000e-02,9.388037421605481547e-03,1.187384269412383730e-02,8.616470972156212507e-03,1.162243840847503214e-02,7.725721653717923174e-03,9.374631520043882546e-03,9.756928242222843994e-03,8.042096017809174588e-03,1.100833477441269699e-02,8.897038460574822547e-03,1.124974071882853775e-02,7.263720768647837639e-03,1.012033345158254091e-02,1.172000162879466637e-02,1.210731726019714100e-02,9.005306486663542179e-03,8.348597143295277689e-03,9.616802289425413139e-03,7.584747677988929078e-03,7.133218741248856763e-03,8.116038813501667837e-03,1.047446599469998088e-02,1.166819675894201214e-02,1.136144069890094969e-02,9.272502003305309326e-03,7.749782788794616628e-03,8.287334160136449607e-03,1.025321641133509175e-02,8.301273912125388746e-03,7.149963551413108381e-03,8.377496666579440851e-03,8.609675847206978844e-03,1.008544785394623923e-02,8.125280801990849081e-03,9.797685766889099521e-03,8.186087874957597571e-03,1.155065404919943493e-02,8.814663784933849180e-03,7.792912042708919663e-03,9.053076269874560378e-03,1.118265105727130754e-02,1.179780118096745468e-02,9.807276090293302537e-03,1.010884311233802187e-02,9.395964542647466597e-03,8.173617208656914004e-03,9.635862065411532340e-03,9.264490588579910729e-03,9.512242391374213166e-03,7.372682327883419394e-03,1.188715928213967578e-02,8.689718989391210374e-03,8.595030098827307480e-03,7.517323382970500165e-03,1.141666191075454279e-02,9.533973462793608397e-03,6.517825267385718262e-03,1.975431534829999447e-02,2.566711740284758139e-02,1.132396584848427423e-02,-1.459212042428500999e-02,-2.078021112012936114e-02,-2.612451367333295735e-02,-2.261513103965464427e-02,-1.819603164983863222e-02,-1.488212579710576806e-02,1.413608169562983324e-02,2.098149990592027350e-02,1.030382012637826722e-02,-1.113818467194344596e-02,-2.008628583676247067e-02,-2.737610086889436314e-02,-3.030611297267386817e-02,-3.206145337115081512e-02,-3.612444649883427006e-02,-2.898071996819496371e-02,2.356959208095672428e-02,1.202412236861263514e-02,-1.051132900452023816e-02,-2.276803097218310645e-02,-3.172226662249754553e-02,-3.206879374053639431e-02,-3.501394603784289267e-02,-3.966471982907005672e-02,-4.517709593056009471e-02,-4.436234412964863705e-02,2.085629105564815872e-02,-4.658231836117554189e-03,-2.922072345721336145e-02,-3.707035490980981063e-02,-3.821062220769728263e-02,-3.841211015266635803e-02,-4.053708947131467316e-02,-4.747801170894880296e-02,-5.431157641005486536e-02,-5.930879003053986243e-02,2.573683669699833136e-03,-2.448140083536946496e-02,-4.108690905860248183e-02,-4.666623022963214962e-02,-4.479665796978582470e-02,-4.219044536272744533e-02,-4.286639738367292729e-02,-5.415471705001955599e-02,-6.293995610811942143e-02,-6.771467168325577546e-02,-1.189134739796099058e-02,-3.437157758911391081e-02,-4.783839249145602213e-02,-4.992974493585765339e-02,-4.440623528347005522e-02,-3.997939935046030541e-02,-4.397332654265012630e-02,-5.182428931703310371e-02,-6.271744854346517073e-02,-7.065691348668873273e-02,-1.205444856674934770e-02,-3.988580453164931872e-02,-5.047216149343235203e-02,-4.685961070754810637e-02,-4.263755747279065339e-02,-4.022129266111324625e-02,-4.340298706890263064e-02,-5.035644879212862468e-02,-6.319858209533062154e-02,-6.836659684933323045e-02,-5.549268084080757543e-03,-3.379404172551850327e-02,-4.713385150225898879e-02,-4.268554292146226753e-02,-4.207080670473178213e-02,-3.721408827398859503e-02,-3.790019412290598910e-02,-4.880286711908647657e-02,-6.115353033409388211e-02,-6.495296801944387688e-02,-1.136839850950808681e-04,-3.117207901023545322e-02,-4.040078307933540197e-02,-3.841332333153164857e-02,-3.449977666221346745e-02,-2.989999478609016090e-02,-3.463985533603757688e-02,-4.414349322294740946e-02,-5.266301169807417748e-02,-5.461066032979523116e-02,-1.277143313715884115e-03,-2.573488648249474750e-02,-3.512305879066118103e-02,-3.484752167698102615e-02,-2.863713904704615412e-02,-2.229459537743052125e-02,-2.691848515312422752e-02,-3.808932687383095872e-02,-5.111972600092246077e-02,-4.933167285037508981e-02,9.450807824582858896e-03,7.645533792472917513e-03,7.120519619683672932e-03,7.232338227761881018e-03,8.965869161499466153e-03,7.850040351864760388e-03,9.358186080122192843e-03,9.685424355283739697e-03,7.924242690283234830e-03,6.502273824491903824e-03,6.993474695701220115e-03,6.269202330132324016e-03,5.518936043306120302e-03,9.257840026147602999e-03,7.934681752167944968e-03,6.957306477709530694e-03,7.236867025904681304e-03,5.786910869251789616e-03,6.918144255743986955e-03,8.375996040093930048e-03,8.569788917693039673e-03,6.737071619399293866e-03,7.037976145813047875e-03,9.825753585056093420e-03,8.409619284903824613e-03,5.482001269654129122e-03,5.264166682074842597e-03,5.112657228481344573e-03,7.917740133997491422e-03,8.408038511754331243e-03,8.575153456475680461e-03,7.700077957592772922e-03,7.907147791897984473e-03,9.178118593060686364e-03,7.450708766189122027e-03,6.085470371029392048e-03,9.504153633587445957e-03,8.881976955418787248e-03,6.494934284337971521e-03,8.608904450908980849e-03,8.911660304639320782e-03,8.846386837729086974e-03,6.501517456358851810e-03,9.062045480019653709e-03,8.168193528587672572e-03,6.746933924629306377e-03,6.536928938208702577e-03,7.107177360209721538e-03,4.707338850336282438e-03,9.307764012819096100e-03,9.031842100512169763e-03,5.667301892667269553e-03,4.974516004229406763e-03,7.453701895102664808e-03,8.753973714069190892e-03,4.997440720437029173e-03,6.572725812962698644e-03,6.122555842807818338e-03,6.515056457166164272e-03,8.774297430366582995e-03,9.626878028608874122e-03,8.152864330833115361e-03,7.323274558311223918e-03,9.278971828994444712e-03,6.757023751072822881e-03,6.800259432924339077e-03,5.461664808486197016e-03,9.254902772699278440e-03,7.089522004450852025e-03,8.432860463057150271e-03,6.763340547686449641e-03,7.187743268107867414e-03,6.121067149937364608e-03,9.215240290179083429e-03,5.248648519627257744e-03,8.208909172560110643e-03,7.448689698678759470e-03,4.979768502304127847e-03,9.302273106791020263e-03,8.631925002558086049e-03,6.860149131022640068e-03,6.656447011392198181e-03,8.141463494330069758e-03,8.368947577627161225e-03,7.285700129753331332e-03,9.708392445241338306e-03,8.402438373386797096e-03,5.066755779437309010e-03,5.541254031775136139e-03,5.221649804708838709e-03,5.660459637365414416e-03,9.806730776475602179e-03,6.398991053697291112e-03,9.519303913526200658e-03,7.608734803674853907e-03,9.347540664428721779e-03,7.021461041954232297e-03,5.846654941592003760e-03,6.874664357495244293e-03,8.755745247345731244e-03,7.847303236591138959e-03,1.025324031285253061e-02,1.138024680148170230e-02,8.367015019204612075e-03,1.237521411384130861e-02,1.152007359596678333e-02,8.437223006580238729e-03,7.684991597814672289e-03,1.098844500155600305e-02,9.609397638702882674e-03,9.139855426482540804e-03,8.998312468769828140e-03,9.224415145459857399e-03,8.922431326270525986e-03,9.951642903484181693e-03,9.249987384397148973e-03,8.299169967532361858e-03,1.088926733017439412e-02,1.168792641999368519e-02,1.194616790564104712e-02,1.008411154945915676e-02,1.113602119719639925e-02,1.128239855060510395e-02,9.374237395952401616e-03,9.027439295983390524e-03,1.204542650456519141e-02,1.058360545871912632e-02,1.146375565548404980e-02,1.235465806445838928e-02,1.137414986052214493e-02,9.851001706413961903e-03,1.237736934536077908e-02,1.014901320966145500e-02,7.640654718575847458e-03,1.104262050428119098e-02,8.641625870182132949e-03,8.465766144695493003e-03,1.044957526359306839e-02,9.301605736642829317e-03,8.296898337814913663e-03,1.206999324904900299e-02,9.125796809863312084e-03,1.205815614832230799e-02,1.230176640174807969e-02,1.017321151679273332e-02,1.227816408399525459e-02,9.020237260110830838e-03,9.462185330491057825e-03,7.853729179104941213e-03,7.668374418592219417e-03,1.041568123205257636e-02,1.050206084621018061e-02,7.868706353225903005e-03,8.096607205240755403e-03,7.913033290210591542e-03,1.068770387763616318e-02,9.327352376518270247e-03,8.117601962673104757e-03,9.016243973004487919e-03,1.151108903210130464e-02,1.116874757988962734e-02,1.136932617108803688e-02,8.672525520899840995e-03,1.019893282477901501e-02,7.971654223920182636e-03,1.179226289161327580e-02,8.519152796249400070e-03,8.362009774735716661e-03,1.011413808606170285e-02,1.231077537565816900e-02,7.837575286095365551e-03,8.569215252762177326e-03,1.056146401565326125e-02,1.181340304296322509e-02,1.176480142030437472e-02,8.370909145809268467e-03,1.238532005360670936e-02,1.168027866566779573e-02,1.194302521081882194e-02,1.064848830163954256e-02,1.110557633461253975e-02,1.162088191689503690e-02,1.170989931299313939e-02,1.151743725649273346e-02,1.053278148617055147e-02,9.477534854769173109e-03,1.181073514945812745e-02,1.038522401333596100e-02,9.739666280184305566e-03,7.890637853170590424e-03,9.153457688672561945e-03,7.972528499410051067e-03,1.192821252532541045e-02,1.106344242885678834e-02,1.215518070385253856e-02,8.186422819098556833e-03,9.261534031864958674e-03,1.031262915965091599e-02,1.143481377718252000e-02,1.131767623658492920e-02,1.200085178878386449e-02,6.746884413155812381e-03,1.056115902806959578e-02,1.124523694147137529e-02,1.108043948144632820e-02,1.054219367947173240e-02,9.136678838706436406e-03,9.937933611729151198e-03,1.299918999673137926e-02,1.255947514925556674e-02,1.069839017435558759e-02,9.153879561274134991e-03,1.128221210201921058e-02,9.125362380794211845e-03,1.116828041060702499e-02,1.095261748098121622e-02,1.110860574445479525e-02,8.667630947943439843e-03,1.337206026994220039e-02,1.259275971510032122e-02,6.505820489505404793e-03,9.145067041775103989e-03,8.440685434069781709e-03,1.242401734981816823e-02,1.244808416160762647e-02,1.315996635444119378e-02,1.316048785159354244e-02,1.123995246270621806e-02,1.151846190005728285e-02,8.892059269493272217e-03,1.196723195669996062e-02,1.163387943854537511e-02,1.087278740380329296e-02,1.120649397263643633e-02,1.171971438854092773e-02,9.725861631919479125e-03,9.363266965050156404e-03,1.220647903692213994e-02,1.290896239179495017e-02,1.027139377024986408e-02,8.137854442815483855e-03,1.047256750719810156e-02,9.216305761818387177e-03,1.271577206696970774e-02,1.014861960610599287e-02,9.463537401302896460e-03,1.356081284489916300e-02,1.287767462057819688e-02,1.280229478358123688e-02,1.214264157055243605e-02,7.775467603870396711e-03,1.315659577540849272e-02,1.026231336272389119e-02,1.308936931648099419e-02,1.013108379090773940e-02,1.409792051817844623e-02,1.222869574951846415e-02,9.964236416096330581e-03,9.494315513086952832e-03,1.194993420059516781e-02,9.993514301997180951e-03,8.858107259011578291e-03,1.204976802547175381e-02,1.272215511349282513e-02,9.843710942470247985e-03,9.160849145366528265e-03,1.308533329900473698e-02,1.002395127532586250e-02,1.320315944445899468e-02,1.152782229335192095e-02,1.070963187694280727e-02,1.043098132427891511e-02,9.955630662725015526e-03,8.832206494546758144e-03,9.240853459354929356e-03,1.243304876503987903e-02,9.589592725213492638e-03,1.107687756593072996e-02,1.231893321334909426e-02,8.002172997314656311e-03,1.249774450712130489e-02,1.154939541652808856e-02,1.094490015316348236e-02,9.261142838605527020e-03,8.423530401094314266e-03,8.588880869681608105e-03,8.039359399131322872e-03,9.875627355136086874e-03,1.093759086672161165e-02,8.658846727273765073e-03,9.908852173744066988e-03,8.602606051264487935e-03,7.856693431132842631e-03,7.815998017298469297e-03,7.864127444209473294e-03,8.374214471980633012e-03,6.248442038917141964e-03,8.762866419310486737e-03,6.599358910218878181e-03,6.465442380291978527e-03,8.785397511753421235e-03,1.051287842902008142e-02,7.189225987730547135e-03,1.108185364437671259e-02,6.902393430010585890e-03,9.736498945454368989e-03,7.560944355955212352e-03,8.857537338090186452e-03,8.080075591343589478e-03,1.148046975172328614e-02,1.028387024657472643e-02,1.154944561071646371e-02,7.239964213735856045e-03,9.319517535637728001e-03,8.291591422748004203e-03,6.999842874315380555e-03,9.181580103214853281e-03,7.017280398611420653e-03,1.110946393993679851e-02,8.868542371165541102e-03,1.212978283351321719e-02,1.095269275527826179e-02,7.834888187716210553e-03,5.540030274880477362e-03,6.007919895890036222e-03,8.472752695322924299e-03,6.769425458529891061e-03,8.559549824456683109e-03,7.278886843154891428e-03,8.079395074515920844e-03,8.916310756701730997e-03,7.788642394406713153e-03,7.033608015317301468e-03,7.300613269821376247e-03,8.473323752004142603e-03,5.976108250965244187e-03,8.723272016739879245e-03,9.383118687725173004e-03,9.358055974313108163e-03,7.210649056840794623e-03,9.582926618098492819e-03,1.019387755279658678e-02,8.163911151363244245e-03,7.501302206701959858e-03,8.236869086458487033e-03,7.399086016611404124e-03,9.511970522373314543e-03,1.021245200002823296e-02,9.823007284133924641e-03,8.994678965016832811e-03,7.050782095566836792e-03,6.354515632541105248e-03,9.653111987216557444e-03,6.697214862066378296e-03,6.041037402684919233e-03,8.637659438584893018e-03,6.816329184496964025e-03,7.970840225848032853e-03,6.803782114599549874e-03,5.746562186959135003e-03,6.866131499585873682e-03,7.920480578383539555e-03,5.914328230378447168e-03,8.069534643550145200e-03,5.796680574086668196e-03,6.989971534979251208e-03,9.090229288016261899e-03,5.488345658851931722e-03,6.023367553335843248e-03,5.596995384376767836e-03,1.101607605749869642e-02,6.770519202135514940e-03,6.667802603049667078e-03,9.129815086011856817e-03,8.809172435140226465e-03,5.334256220614944609e-03,9.453236321594071095e-03,8.899349015755883552e-03,8.939087959153563939e-03,8.876844138183506358e-03,7.466880868440549900e-03,7.861086190198936230e-03,5.894638010267720489e-03,9.473816660184399691e-03,6.932083690845816659e-03,8.756596333170805352e-03,6.036636245575428654e-03,6.642940607843936598e-03,1.001392449778985665e-02,8.717303748386672976e-03,7.957813668729567594e-03,1.121059581100712285e-02,6.158736713918856048e-03,1.022498406180683689e-02,8.476793145862070514e-03,8.481156637097532827e-03,9.311163265310175643e-03,5.795554390756722622e-03,5.580121961041601721e-03,1.006563488375457165e-02,7.538592254692865965e-03,2.247818147897260102e-02,5.818990771339568185e-02,3.296015849328549907e-02,4.924484886190977177e-03,-1.058320552392830877e-02,-9.199801022402767647e-03,-4.502259014903743813e-03,2.609855879168624521e-03,5.401663947514468052e-03,1.558947196924508234e-02,3.643688938118078841e-02,7.572083241307620005e-02,6.270398924977231558e-02,4.860367390544402533e-02,4.352866625040476001e-02,4.271521126425060350e-02,4.408252139608020981e-02,4.760116592490396675e-02,5.615153239451819295e-02,1.553690661429762108e-02,6.574000560854345587e-02,1.025713476701554661e-01,7.555842356122036141e-02,5.490566863560237404e-02,4.694959359397141152e-02,4.540954266217613750e-02,4.652557571646730866e-02,5.410311599370127428e-02,6.777492080875568981e-02,1.926292247168661861e-02,7.458606630642844459e-02,9.005133471249153476e-02,6.723019303370272870e-02,4.303573721964523008e-02,4.119861578837125810e-02,3.663473444423333975e-02,3.719550791337299100e-02,3.647967259619266933e-02,5.172780087595182930e-02,5.452470900895185768e-03,6.275550896531408018e-02,7.306481402322453911e-02,4.749433466901606393e-02,3.469100087442041763e-02,3.020641923160032050e-02,2.799652328461463627e-02,2.249666500137075670e-02,2.108784630417228842e-02,3.886679591551710222e-02,-6.911154883248324388e-03,4.355878754937970998e-02,5.081092606123669558e-02,2.909762438569308066e-02,2.382824511785149035e-02,2.359149558386190379e-02,1.965551014407446520e-02,1.427810036305060017e-02,7.781413399159603853e-03,2.805223301572099676e-02,-5.797991483059997120e-03,3.270829856178411599e-02,3.698171369680393339e-02,1.788641555445531078e-02,1.162968810227887374e-02,1.703476659836641871e-02,1.463992008323806993e-02,6.657659006778534998e-03,-4.639322382772965644e-04,2.123696666007397760e-02,-1.380236800490402659e-03,3.048307348958566310e-02,3.071043728389984476e-02,1.935490825930878678e-02,1.628718288235132122e-02,1.405612489036630469e-02,1.109253248296573555e-02,4.878630934538896041e-03,-9.162627471149218175e-03,2.191479615923211041e-02,2.789634791519777710e-04,3.443188398402118738e-02,4.423437197824402201e-02,3.358598143035942257e-02,2.274001893906144045e-02,1.708444691009128324e-02,1.133035954888990393e-02,4.411207732315828960e-03,-1.378407074531384433e-03,2.463417989700578820e-02,1.966827396859623274e-04,4.356115873209587958e-02,6.531137225373558064e-02,5.486957695264653434e-02,4.289030661848624443e-02,4.013088362336337395e-02,2.893289150028145046e-02,2.050588820320791220e-02,2.163546390109601439e-02,4.315692030887398334e-02,8.198904791761387270e-03,6.230072127510003117e-03,1.054368155871426849e-02,7.850446304582564538e-03,7.897334591574985824e-03,7.626817698602504116e-03,6.214353043706948368e-03,7.258011778370635284e-03,9.133342726521746432e-03,6.465793435914494666e-03,9.877683436273812165e-03,1.007337988652982907e-02,1.022119036151231293e-02,6.374994031555651468e-03,9.578688660402238236e-03,7.089232192421702702e-03,9.606603873728133264e-03,7.687132938262699472e-03,6.140251766549425713e-03,6.077367115201256706e-03,5.521381127812659446e-03,9.224926527381599808e-03,9.270770719815822625e-03,6.589671452019670896e-03,1.054697440164367554e-02,6.864633073918591059e-03,6.750838487756372942e-03,7.382319222654972618e-03,6.417975218691201675e-03,8.512094907437706137e-03,5.674897921423509468e-03,8.846540602407063428e-03,6.477183511030238164e-03,1.012850082731919441e-02,5.992983879373930782e-03,9.519117132655996114e-03,7.457688911993676402e-03,9.311308289676531805e-03,9.146349678247504833e-03,8.154812323722650247e-03,5.995137945022491893e-03,9.815940353169875718e-03,6.603917492941406391e-03,6.739515814106445193e-03,6.577754184528744608e-03,1.049405915034612273e-02,1.056984792272944867e-02,6.751535663389485187e-03,6.895460862075388463e-03,6.211524920979935062e-03,9.852862667839792574e-03,5.866875963151983210e-03,7.400472715144911125e-03,7.254155391022157340e-03,8.564984601725998334e-03,9.804484732325948609e-03,6.378688125130884366e-03,5.859330982460957474e-03,5.591889609404939766e-03,9.281915354654423841e-03,7.981861726969099319e-03,7.982245232570614468e-03,7.886348097888306458e-03,7.659207756084670908e-03,9.132061971540136880e-03,7.544523730115656329e-03,8.267157955600148295e-03,7.874008227693804832e-03,7.419080435042404650e-03,8.360816514371522887e-03,6.934448802348580979e-03,6.340149875771508917e-03,8.880550382132500198e-03,8.160364925991167237e-03,5.798918937709252389e-03,5.834251661480932029e-03,6.446879301058087292e-03,7.023867673624280966e-03,5.674860672078043712e-03,1.040647127372102722e-02,7.996710262315923079e-03,9.429579402792261783e-03,1.051853876855484565e-02,7.568839968028585191e-03,7.959532673529065919e-03,7.501664466622422027e-03,5.588653286383026518e-03,7.211107152114097814e-03,8.574112308408324973e-03,7.854215296383830133e-03,1.016317414599231077e-02,6.796912588262630887e-03,6.937972949726655542e-03,9.089764989414604243e-03,9.020142009660878091e-03,6.621732422434886516e-03,6.679368422008482610e-03,5.851305704824574794e-03,5.738724548359664702e-03,9.710365983562051564e-03,9.241798264007833677e-03,8.721210483589387358e-03,1.217176668357769671e-02,1.075493190012656412e-02,1.043163361969174675e-02,1.184938970294030329e-02,8.067661837008766393e-03,7.707637065969687000e-03,9.169727857014269359e-03,1.029092173306076462e-02,1.209323358661434054e-02,8.312255618637286528e-03,1.170868311674363484e-02,1.088151086301155333e-02,1.169691991437804036e-02,1.003432022207278139e-02,1.199444788284078321e-02,1.134197114846095637e-02,8.782959647759745053e-03,1.016650935488318079e-02,1.067344701521054547e-02,8.794471176385817296e-03,1.116133843652193820e-02,1.187714406779485747e-02,1.108023657621729462e-02,8.601723100711470768e-03,1.020803445509593614e-02,9.199330700901788352e-03,1.076169239819213010e-02,9.708125546606551429e-03,9.645145105492409013e-03,9.370324199352448799e-03,1.187855861578289256e-02,1.091178500245509018e-02,8.851320937161075500e-03,9.463861826226790605e-03,7.478703193503578352e-03,1.062618565926543891e-02,1.177970159542252905e-02,8.885421358198570749e-03,1.157650368345710355e-02,1.158780170743426048e-02,8.032249040183505814e-03,1.163404701896452766e-02,8.049244169807000596e-03,1.049458133345249587e-02,1.025788941337859618e-02,9.346337106206739284e-03,1.051202536100105840e-02,8.543263670944734392e-03,1.042383785643480852e-02,1.089175019017520930e-02,9.059262976689677269e-03,1.114065798281820875e-02,7.480691615025756268e-03,1.164678811087520131e-02,1.054309875147568624e-02,9.139098843111139944e-03,1.215218711624406304e-02,9.578395700139434241e-03,1.219665881460071412e-02,1.215218782516463807e-02,1.036689907555306094e-02,1.242765199341108219e-02,1.088198516404012377e-02,8.490921148629622731e-03,9.692914235362845923e-03,1.229190991942094406e-02,1.006291746220144660e-02,1.146714931847942799e-02,1.010530739923116809e-02,1.226872219172595209e-02,1.217160569711860964e-02,8.617189437782618242e-03,8.137462428407727516e-03,1.159278395923476514e-02,1.123195788931335808e-02,1.198143699828197774e-02,1.070784493515990372e-02,1.191292412278703756e-02,1.225192794000740971e-02,8.250762713184346675e-03,8.158958382676330737e-03,1.180238714327838147e-02,1.049569197826052090e-02,9.994403342928699988e-03,1.211818908010531444e-02,8.060391210526126129e-03,9.397977552599584214e-03,7.809581447532254646e-03,9.913309763815993450e-03,1.146268892912453811e-02,7.880200433210944946e-03,8.707164400764258461e-03,1.236210546853735819e-02,8.942034801546034153e-03,8.892350844913294097e-03,1.054631025801564155e-02,1.051007528383358751e-02,1.193853021427759668e-02,1.027044314420006745e-02,9.906818847972604855e-03,7.794646491755629833e-03,9.006582467480215085e-03,7.998356191181159314e-03,8.483760630567115796e-03,1.024964501512119763e-02,1.065318831935186533e-02,9.942786012082878433e-03,9.399922025897192168e-03,7.137244538288963804e-03,8.929936940574430271e-03,8.085625658827302539e-03,9.746940425674440953e-03,8.294398540516214821e-03,7.302243402528571167e-03,7.377865008937547694e-03,5.972546099450213274e-03,9.623041012660151286e-03,6.400045838756584192e-03,7.992643028512430928e-03,9.083240013761711626e-03,4.955303265506332509e-03,8.359406085425916122e-03,7.299454693123086195e-03,8.950751711188878468e-03,8.834765121011656924e-03,7.982670378565516478e-03,1.052517646479728466e-02,8.239681949224971630e-03,9.298015317387744311e-03,7.880814060762247539e-03,9.582383796622653133e-03,6.322326126138694616e-03,6.222674931219003905e-03,5.989842579931036783e-03,8.975275859406895915e-03,5.924093563331274057e-03,1.084768132836247054e-02,6.600151933929376824e-03,7.420133248938133759e-03,7.126465538605136416e-03,9.381416135708638832e-03,