1.573512306331663890e-01,1.566655619367068597e-01,1.591688058276654605e-01,1.615721754968879320e-01,1.854082897700745636e-01,1.737214705236219126e-01,1.718982646585439922e-01,1.115563184406055813e-01,8.149163770666617568e-02,9.295132237732033065e-02,-6.662779240252557356e-02,-1.919538251565709175e-01,-1.545745498763861081e-01,-6.591310036053106558e-02,-2.398001716140450434e-01,-1.793743812808664961e-01,-4.231011439277083258e-02,-2.482764161868133146e-01,-1.373167403804174680e-01,1.471443709955852323e-02,-1.646147397438607884e-01,-2.149065372896797471e-02,5.661686552696043595e-02,-1.230694471276867485e-01,2.193207477169541869e-02,9.965216603294817233e-02,-6.042555849969404036e-02,7.860374094358360542e-02,1.023878700808830006e-01,-4.482362617793490822e-02,7.090838435950308494e-02,1.636582135867268584e-01,1.582478198842235118e-01,1.622224981421535872e-01,1.212214914195831050e-01,6.784110378653455953e-02,1.396652386627018350e-01,-5.368587190381754470e-02,-1.831521924102967325e-01,-9.556615072060725691e-02,-8.108859520690321621e-02,-2.868041346608720676e-01,-1.922326810604098324e-01,-3.055923220808113433e-02,-2.620049586770004657e-01,-1.687970953724677592e-01,-6.925641035620544450e-04,-2.545998271420497616e-01,-1.274648991944073717e-01,2.040902183241858833e-02,-2.209072261045757768e-01,-4.565558766993983025e-02,1.663164201367397718e-02,-2.257777433616009466e-01,-4.537381248368078934e-02,5.292926060417418171e-02,-1.754557901096568673e-01,2.412039038446135535e-03,6.826618987045150744e-02,-1.408520676279584327e-01,1.190947602601704833e-02,2.015369995802060443e-01,1.692193391527365420e-01,2.533421953743557054e-01,-4.377434098975165055e-02,-1.733989993345791958e-01,5.169987252652346980e-03,-9.748376795649335569e-02,-2.343835203209724827e-01,-9.291201846963448308e-02,-1.255642313012902446e-02,-1.395262505371126505e-01,-4.745138634339573364e-02,8.610631599929106927e-02,-4.589888794932106553e-02,1.755508498770801812e-02,1.426177767781469929e-01,-7.308821545250026620e-03,6.502849434279424357e-02,1.523932832263082127e-01,7.174036057288068341e-03,1.169167863691483594e-01,1.297878405743750907e-01,-3.889233456548265438e-02,1.038307577726650804e-01,1.245947414303775341e-01,-3.374079257711629781e-02,1.045191955703335951e-01,1.335818152262860381e-01,-9.443922783876679272e-03,1.098248477837608511e-01,1.548302176747199388e-01,6.033587237700997058e-02,3.182172616331808146e-01,-9.212821609218949104e-02,-2.617449193374252747e-01,-2.505059273459598820e-02,-2.615264332783813137e-02,-1.500240892870073339e-01,1.814337728061362481e-02,1.566768566640109051e-01,1.066964209814335734e-01,1.908454354572333977e-01,2.613411598498255328e-01,2.359508821986975868e-01,2.395829713695273866e-01,2.983346681822499069e-01,2.653556863751775352e-01,2.569764403556151211e-01,2.982913108846352301e-01,2.505553442916860774e-01,2.766270131655459430e-01,2.647169951815687705e-01,1.975022581239705977e-01,2.460828207316993477e-01,2.352844763482998813e-01,1.572684446842972927e-01,2.175911719812508027e-01,2.493397326853176166e-01,1.818990224385077514e-01,2.264466826839448832e-01,1.221692260607803032e-01,-7.547888075318689646e-03,3.578096004802098773e-01,-1.031958036617767471e-01,-2.750429489864266719e-01,-1.001712943493002217e-02,9.114326175001640634e-03,-7.856758879593009337e-02,6.899623653547018454e-02,1.871269566605730517e-01,1.832379773597528627e-01,2.279329571604945259e-01,2.830710401884024008e-01,3.254487207414463179e-01,2.851311166648382023e-01,3.064863261876777378e-01,3.412865143911950616e-01,2.688757689691205210e-01,2.969399265275750044e-01,3.166100741024857057e-01,2.787708695547587157e-01,2.728542841804064700e-01,2.599537503676518369e-01,2.413109550367374956e-01,2.294666932081290411e-01,2.234880005129492586e-01,2.184568525724588373e-01,2.463264762172306388e-01,2.364467570681326736e-01,2.268576489428670573e-01,1.452751072916882435e-01,1.598499088604291365e-02,4.769179030962210630e-01,-1.211732441926156867e-01,-2.763780529198189839e-01,7.988786730780452969e-03,-2.886531196038638614e-02,-6.809473214755215609e-02,6.723318139631556667e-02,1.190748259670581094e-01,1.389095552401012901e-01,1.510842421012868197e-01,1.901447127061907383e-01,2.660571784438972021e-01,1.900602309028788517e-01,2.125219933791878124e-01,2.876107234453348926e-01,1.842380007990097879e-01,1.964969803877344712e-01,2.699961335825427633e-01,1.872814664227844816e-01,1.700737403824898186e-01,2.241752392935456306e-01,1.600879409013446220e-01,1.406176941605724318e-01,1.793993648269126273e-01,1.355135248746608678e-01,1.653923216714429656e-01,2.029819457505628588e-01,1.568899899744181092e-01,1.772057263982101949e-01,4.981607861981338092e-02,5.554013989205428548e-01,-1.682000441630698284e-01,-3.098431867881706325e-01,6.639953876448211403e-03,-1.118263997148997574e-01,-1.221998553580038033e-01,2.031983037846758940e-03,-4.420914147117828083e-03,4.660945376412737456e-02,5.023997979620919985e-02,5.122935178264653722e-02,1.635349507134765679e-01,6.875262403850773696e-02,6.193086920713843785e-02,1.891831095330916424e-01,6.455576721706443588e-02,4.533531826700176043e-02,1.773644796071447149e-01,8.086216490620348751e-02,2.729425518951826904e-02,1.352517318284233439e-01,5.633380821605316058e-02,-6.850150204695014573e-03,8.561850527903078212e-02,2.621752194855074547e-02,3.828613711980836248e-02,1.301419334495011459e-01,4.467854244230031607e-02,2.122350873086069900e-01,1.096074233001221865e-01,5.741600663703627649e-01,-2.875645004376134461e-01,-4.118854471537171658e-01,-9.031679072859551127e-02,-3.012491065078435337e-01,-2.929462706053590493e-01,-1.444822681835250255e-01,-2.291325353058215886e-01,-1.529770262345517273e-01,-1.133163006655056454e-01,-1.915130665651723629e-01,-5.753080246695588262e-02,-1.055305186455402361e-01,-2.079922113306573728e-01,-1.764815018643333538e-02,-1.087101135186385875e-01,-2.197114545492976634e-01,-2.706261334194207460e-02,-1.017864319829340503e-01,-2.403464976549070098e-01,-6.871156207763373658e-02,-1.375446757986334145e-01,-2.752276799279756436e-01,-1.045026044937831661e-01,-1.625580092557980527e-01,-2.071559160916155440e-01,-6.122070927725085238e-02,-1.259880135359632836e-01,2.014988782881715346e-01,1.064325097279062160e-01,5.280782828372018178e-01,-3.059356340312311962e-01,-3.890916338180124279e-01,-9.776622911975335617e-02,-4.431436149572435812e-01,-4.036642451020346911e-01,-2.414180249752090335e-01,-4.461982787808780326e-01,-3.061521008302885982e-01,-2.587775969447532187e-01,-4.559542352209591254e-01,-2.401111859463284093e-01,-2.695439735521822366e-01,-4.850527358467255357e-01,-2.285642434195233608e-01,-2.702349196378602825e-01,-5.024307663950838831e-01,-2.345951157891680572e-01,-2.766178761421518306e-01,-5.134638003041147591e-01,-2.540367323381365061e-01,-3.068893104589885401e-01,-5.049223131391933350e-01,-2.682225770997878622e-01,-3.133828989273689247e-01,-4.108214660975480492e-01,-2.100860020505045667e-01,-2.539428452023670957e-01,2.064372563246834325e-01,1.153076787163442030e-01,4.907048630327863203e-01,-2.527350039208268728e-01,-3.278330782045367209e-01,-6.567537454889453563e-02,-4.048373788957563280e-01,-3.489167411074247660e-01,-2.043915822419022643e-01,-4.362603849344640627e-01,-2.898817155372030441e-01,-2.399925778151842937e-01,-4.702761790849772638e-01,-2.364034454374840111e-01,-2.490962229296324604e-01,-4.901637955818512471e-01,-2.025198652750796746e-01,-2.373348918030742938e-01,-4.994433981386074417e-01,-1.943282019374367453e-01,-2.398555314727813248e-01,-4.901060183415485438e-01,-2.128033528358175830e-01,-2.469927379934639122e-01,-4.765450982513109168e-01,-2.306110770807381083e-01,-2.615335051255271992e-01,-3.906533682011146258e-01,-1.602438839665718540e-01,-2.044224423524118872e-01
-2.716339757892706763e-01,-2.707606005900837221e-01,-2.752176060188578632e-01,-2.736781566190359394e-01,-2.661756484103562914e-01,-2.659685357898709523e-01,-2.644895199696584709e-01,-2.519832162462966041e-01,-2.479645531340538001e-01,-2.332613919027687610e-01,-1.761653636634629982e-01,-1.564548461367862020e-01,-8.236107881275803178e-02,-1.478657449104353316e-01,-1.074964574812755647e-01,2.007180677263346175e-02,-7.163589154712769747e-02,-2.348138420775644844e-02,8.541742729357928998e-02,-6.073989705006872797e-02,-1.009928429754890916e-02,1.010170122323967162e-01,-8.687187886056421671e-02,-3.264077108799712246e-02,6.967672195643491440e-02,-1.040942238160837280e-01,-6.086032937658285291e-02,3.330071737952383648e-02,-1.235209501468859244e-01,-8.345975953380149748e-02,3.892217227364358142e-03,-2.835563085012847151e-01,-2.858908751561540229e-01,-2.839643671089530086e-01,-2.759662145614465989e-01,-2.682666372228245666e-01,-2.421239362482724422e-01,-2.009994768883464067e-01,-1.699349385760099418e-01,-8.668776624423824018e-02,-1.118965280314917071e-01,-5.050423231615840808e-02,9.430078976769161458e-02,-6.578550991997429709e-02,1.781324383353252716e-02,1.221861246362484499e-01,1.632578534190882481e-03,9.016518061982572996e-02,1.141347058061479985e-01,1.568417187432599724e-02,9.650109092375601383e-02,9.819220241582825304e-02,-2.168597970234376754e-02,4.968189840354485937e-02,5.272739738746444471e-02,-4.701455513125357699e-02,1.588064070730435540e-02,1.880891686473742941e-02,-6.863787506316128273e-02,-1.298957357739369614e-02,-3.697236710816149442e-03,-3.874386288262965938e-01,-3.962056160387838477e-01,-3.865511794302578519e-01,-3.431171097884006538e-01,-3.260335459778926359e-01,-2.547449178148346594e-01,-2.525956181691464963e-01,-2.101718083321416908e-01,-8.227687734901767413e-02,-1.473136141649046271e-01,-7.459829768920235582e-02,7.513566069322974439e-02,-1.134305975784900972e-01,-1.919533132940474257e-02,3.331220741329748297e-02,-4.300540124498981182e-02,4.940851547822629197e-02,-1.668809749537017093e-02,-9.207688796108863191e-03,5.914778785489128998e-02,-4.913897432789392228e-02,-4.449452332781000941e-02,2.634992002796054597e-02,-8.828396976653886397e-02,-6.690005998983680757e-02,-1.469172130106690191e-02,-1.160026994611891710e-01,-8.875180333399491917e-02,-4.415963847108959894e-02,-1.394377058603355757e-01,-3.618305878021061961e-01,-3.585040633137996369e-01,-3.069869408863153404e-01,-2.891738255215310915e-01,-2.474116142771302096e-01,-1.262812534625813166e-01,-1.804391094676702223e-01,-1.050729252090719240e-01,6.256876680116987832e-02,-7.200430628662497778e-02,2.324308387300591527e-02,1.722505320303642506e-01,-3.681016640699050907e-02,5.614923068840896314e-02,7.712597844998110574e-02,2.921938512872676585e-02,1.098041475042298570e-01,-3.343023753688795924e-03,7.624679076678408940e-02,1.407462353299722135e-01,-3.336596915704601041e-02,5.066299354999621862e-02,1.082715170540745758e-01,-8.120623233864844581e-02,2.150591880586322918e-02,5.965008744454991518e-02,-1.136696819743024112e-01,-1.253770917768537094e-02,2.214072858695172868e-02,-1.339418863983340147e-01,-2.685772928867781184e-01,-2.363780938448760416e-01,-1.705918184302460394e-01,-1.867406719305608198e-01,-1.150168921278494349e-01,4.938350011748077542e-03,-7.873200722730608336e-02,2.086304144970417551e-02,1.803847202959243390e-01,1.063476243312924154e-02,1.224711379643209086e-01,2.564788165070231996e-01,3.349557785465541448e-02,1.411474532859819109e-01,1.503482473728927626e-01,8.795891968088408175e-02,1.797049571798990664e-01,4.692820447982927468e-02,1.368111650885594777e-01,2.025210162438132733e-01,1.313796672793703102e-02,1.169538417398013203e-01,1.595076007725537703e-01,-2.505157840738469338e-02,8.167408082953007964e-02,1.134331575829198163e-01,-6.054963312118562951e-02,4.628389572809938485e-02,7.511021125028365109e-02,-8.976461594761254992e-02,-1.551091749361371008e-01,-1.009078870742880080e-01,-1.934473613733308714e-02,-8.812857942310231563e-02,1.966909027699942358e-03,1.265266943149384038e-01,-9.681225047091819927e-03,1.072814861224136856e-01,2.607983308598249006e-01,7.468947017506150088e-02,1.991422294530259818e-01,3.117254067212080759e-01,1.003649106925773721e-01,2.210547555270535869e-01,2.171376365812822673e-01,1.467117586485671699e-01,2.494055218384471639e-01,1.295781636119667790e-01,1.980138034916469059e-01,2.613670467560085253e-01,8.898462053332124866e-02,1.790236583060463849e-01,2.200528430632556209e-01,4.701161681084579241e-02,1.347936582476864653e-01,1.630858966808910182e-01,1.041313190323228666e-02,9.082594680938417542e-02,1.252016705394096707e-01,-3.220303611601527116e-02,-1.293220703373169078e-01,-6.980639481878471442e-02,6.731601032311776769e-03,-3.198152484202526624e-02,6.816831535634017281e-02,1.956639291347260501e-01,4.811820264570695199e-02,1.719042427211066593e-01,3.313577397530235169e-01,1.263906046761535118e-01,2.550364890336761503e-01,3.779261326484317229e-01,1.702599890934487215e-01,2.864176193366100853e-01,2.841768463781616516e-01,2.050714950379238233e-01,2.977783763034049236e-01,1.828336160490566242e-01,2.450236997805583516e-01,3.100103300207961432e-01,1.479656099079482423e-01,2.206289696925536059e-01,2.667048369984270639e-01,1.033177753723580339e-01,1.687283906190550076e-01,2.037320924794761567e-01,5.854204712354802581e-02,1.205862186850987505e-01,1.533571907093423115e-01,1.205325017877502923e-02,-1.713880899981639616e-01,-1.244441355373532843e-01,-6.222880510844844282e-02,-6.207129367486071553e-02,2.656505328637986246e-02,1.426175055488546894e-01,9.637507279413657160e-03,1.280238967735883582e-01,2.804553231378663081e-01,9.202357257357896003e-02,2.081078209336163498e-01,3.200104150290735694e-01,1.229899030138151134e-01,2.355296155632555233e-01,2.423542038423579514e-01,1.575556932942025479e-01,2.465433685651129136e-01,1.371945939049507568e-01,1.945660215284239769e-01,2.451350840098968642e-01,9.854099200809708636e-02,1.556799761780024716e-01,1.941239625610933772e-01,5.206304263563627660e-02,1.125557157218703003e-01,1.381839160332416216e-01,1.267728377939723178e-02,6.929635096409235417e-02,8.911629185136624165e-02,-3.056839126127848874e-02,-2.177100602376257910e-01,-1.749020350706077531e-01,-1.177243796477907833e-01,-1.125814549601102665e-01,-3.021346700766769366e-02,6.760101562048285995e-02,-3.419456507909361676e-02,7.306479077460922844e-02,1.978301005675424662e-01,4.017989593867413861e-02,1.489166032395627948e-01,2.508076284116212973e-01,8.164038990872689305e-02,1.811957279487745043e-01,1.817782891499793163e-01,1.150674413005337987e-01,1.881255809751284092e-01,9.306850821811768482e-02,1.485740677149090527e-01,1.892603949857398216e-01,6.575777917493892677e-02,1.185509172680648399e-01,1.456023615392455506e-01,2.491532649675868433e-02,7.679592420086953086e-02,1.004378149073092696e-01,-1.169951386891527126e-02,4.101259151781455614e-02,6.185713927341892487e-02,-6.015434107583380458e-02,-2.187270077293558268e-01,-1.828602035027007688e-01,-1.322610014317956717e-01,-1.307353018085262719e-01,-5.990435307443924690e-02,3.395899210985899724e-02,-5.816389925504344971e-02,3.485587026384928677e-02,1.533579689181356065e-01,-1.589957251542261328e-03,9.499778590894020214e-02,1.935366414822831671e-01,4.446553290363843003e-02,1.332951833682578802e-01,1.329387087949737700e-01,8.548676902264702726e-02,1.476164268999380635e-01,6.645454661665436968e-02,1.197509907885674629e-01,1.561417894241369508e-01,4.444296026253341525e-02,8.553414671041699446e-02,1.240956015682846275e-01,4.652453278644817260e-03,5.278632265955846697e-02,7.884296402683990679e-02,-3.193836225596637796e-02,1.875998236274667441e-02,3.395252040318602615e-02,-6.077687896602194939e-02
-5.263277115663862055e-02,-4.818612109042443026e-02,-5.292699616361481313e-02,-4.934991775534296188e-02,-5.922025462107047278e-02,-5.576807773881904684e-02,-5.657432842346743485e-02,-6.775856501373099527e-02,-5.739609957745483992e-02,-4.599965117747661925e-02,-6.586382382315128514e-02,-5.777976601278909247e-02,-2.102140683946962518e-02,-4.279899415780463734e-02,-3.066422485328151870e-02,2.480286129090647496e-02,-2.673559664850841400e-02,-1.208811281193900022e-02,5.404077919811704073e-02,-2.438726160424145584e-02,-4.775835192175939201e-03,6.659541132713522882e-02,-2.039868486053448768e-02,-1.953384400449271682e-03,5.885976542330369210e-02,-2.656804048944127333e-02,-5.213095559440921595e-03,4.876214503077158646e-02,-2.688564350310092277e-02,-9.790107139558721500e-03,3.970950848699572600e-02,-6.226674536396864523e-02,-6.356702323664142895e-02,-5.923245401268190102e-02,-6.223071603111917510e-02,-4.705366520611567460e-02,-3.115396257832967961e-02,-6.325248039757225271e-02,-6.288633132075743815e-02,-1.308765293994865360e-02,-4.152688999563749345e-02,-6.923436025684148731e-02,1.562355866776931126e-02,-5.533985322695994871e-03,-5.379070131651003672e-02,4.945781259373968619e-02,1.617918900270821914e-02,-4.381156267566224671e-02,7.908133124715054085e-02,2.194077229181697758e-02,-3.884915022305579502e-02,8.632756633297429538e-02,1.386567689878603904e-02,-3.970923523197548294e-02,8.261436898528191908e-02,6.515626515827835363e-03,-3.785617619479819673e-02,7.895431195069962937e-02,5.805564269328709545e-03,-3.632555726415086922e-02,6.865226820658928975e-02,-5.364248167999929873e-02,-4.753902352929991609e-02,-3.339913484532921334e-02,-5.268018159395551625e-02,-4.223644631032911351e-02,7.333018962493484394e-03,-4.927730575780700506e-02,-9.005760480552853220e-02,-1.051076337598796755e-03,-1.991557870024495205e-02,-1.066377820186434622e-01,9.826189706900304716e-03,1.990312111241408777e-02,-9.989224519351909415e-02,3.489368283022081796e-02,4.580338170564499795e-02,-8.958250188692355731e-02,5.999216496491088096e-02,5.483753172714176533e-02,-8.699322461889254232e-02,7.011742653870128850e-02,4.599232971922205537e-02,-8.829245897108581320e-02,6.877206768373364532e-02,3.835741098153806761e-02,-8.364033334460507785e-02,6.423407451084812980e-02,3.049278113630640372e-02,-7.490465420589476064e-02,5.860708976081403093e-02,-3.409463986153799669e-02,1.365217555669253832e-03,3.620171733660734747e-02,-5.120446918752426246e-02,-4.769430158146182458e-02,2.666583650424790564e-02,-3.724521070462985528e-02,-1.092435580378460641e-01,3.720784587300429193e-03,-1.597907953678487716e-03,-1.322617888105093176e-01,5.362433596415892151e-03,3.579582404607942886e-02,-1.276649431671954826e-01,2.399277434179075685e-02,7.069316892013666198e-02,-1.213739148613908053e-01,4.224772665295641744e-02,7.946083087575234183e-02,-1.156742295024264233e-01,4.961249227556436409e-02,7.136548001398014540e-02,-1.222268028893673253e-01,4.761916064689493411e-02,5.904156774174705580e-02,-1.178337207167495237e-01,4.368442544011764267e-02,5.157412113701028561e-02,-1.081380637421785196e-01,3.983944747161263095e-02,-1.216563481970334842e-02,4.757869340009090314e-02,9.703601343494533404e-02,-3.672768526897374208e-02,-3.873511452248058762e-02,5.921624250835311881e-02,-2.028878279059753709e-02,-9.607788620234802845e-02,3.236616200184077446e-02,1.797891868223235046e-02,-1.111231228990033348e-01,3.768960262498070868e-02,5.592259184553335233e-02,-1.139695208638911300e-01,5.582821196520228874e-02,8.731181050880337802e-02,-1.086879921717104486e-01,6.508734244464886576e-02,9.872096009230554858e-02,-1.098821466985459849e-01,6.905928679711971496e-02,9.350906073813863850e-02,-1.184379711989876488e-01,6.144109557153763779e-02,7.589238297806517874e-02,-1.248359116007062147e-01,5.213465636556371963e-02,6.410996564787982410e-02,-1.132359460069740781e-01,4.473407069087537158e-02,4.100974448960818461e-03,7.159987323299640827e-02,1.329360302827580498e-01,-2.469648032276302446e-02,-2.423130638156061403e-02,8.330945483250602746e-02,-8.475558399973253526e-03,-7.267251069716233747e-02,6.487013575191570569e-02,3.476654315611728968e-02,-7.731805495340153545e-02,8.143713539489502717e-02,7.102901775673434170e-02,-7.581082825450415064e-02,9.421679978852136317e-02,1.003961566938720990e-01,-7.942861384903227018e-02,9.792773734509840899e-02,1.121618386230570086e-01,-8.761713061087669785e-02,9.338702739019404120e-02,1.114223885097626182e-01,-1.027602516139042022e-01,7.997945846879207787e-02,8.764948677983941394e-02,-1.100932590494189955e-01,6.662550233430199198e-02,7.749863466566953019e-02,-1.040996480202121960e-01,6.154414560723560357e-02,6.281411254442619517e-03,6.757155165561362642e-02,1.366578249964749414e-01,-2.555000087673892778e-02,-2.859708358013996615e-02,7.792268771540146466e-02,-9.186716684600885682e-03,-7.481742026189421024e-02,6.363773961879937158e-02,3.388681707841636331e-02,-7.833239839860392517e-02,8.268016310863650353e-02,7.152357740188826363e-02,-7.866044225348731156e-02,8.849257353902270640e-02,9.865247067747340282e-02,-8.106361834631110874e-02,9.382394303103798461e-02,1.175986525788974835e-01,-8.919834251806361969e-02,9.011375371552131364e-02,1.119897192830792421e-01,-9.869133488555288658e-02,7.572236081350970649e-02,8.952022442199056296e-02,-1.104885345998557478e-01,6.376389957325757918e-02,7.483123487377317529e-02,-1.060107013820446309e-01,5.330533579843348135e-02,-2.647233335943169688e-03,4.780515116821140026e-02,1.086179837046440388e-01,-3.286598081426736484e-02,-4.503741245307062852e-02,6.193594540075801624e-02,-1.723031964575061359e-02,-9.180906671499669547e-02,4.286858652883406701e-02,1.810627925966387317e-02,-1.004837641547093735e-01,5.768687687326269631e-02,5.966673534864126716e-02,-9.781682878638722767e-02,6.287153825639942017e-02,8.416296610544465873e-02,-9.915764168272245271e-02,7.327242300277844733e-02,1.040485795978498967e-01,-1.041637649416639888e-01,6.756088099335888497e-02,9.668957632860926410e-02,-1.162595096075313139e-01,6.049090073909815096e-02,7.843784428741779058e-02,-1.262493995109589817e-01,4.332836303646520060e-02,6.363309242180510694e-02,-1.176736851992406796e-01,3.776128407866092412e-02,-1.212143939130260958e-02,3.568332296463343212e-02,8.982402225260638362e-02,-3.957953653403257360e-02,-5.737086369384421930e-02,4.193674369443968486e-02,-2.959448145061965157e-02,-1.069672968063856422e-01,2.265669714525819084e-02,8.650528821665445095e-03,-1.190879645643004442e-01,3.117280507200293274e-02,4.169851262138676851e-02,-1.122138359355648457e-01,3.773357873877160318e-02,6.306967944198135778e-02,-1.116017381609417103e-01,4.797243421530277691e-02,8.407724465376199829e-02,-1.174829820425659782e-01,4.687597028022203599e-02,7.573803818311725111e-02,-1.281866353445464957e-01,3.851912291700786140e-02,5.546757447848763012e-02,-1.322758948966763215e-01,2.576005205530941533e-02,4.490838539296926335e-02,-1.247395713454916566e-01,2.176896985393367984e-02,-1.234354628716976751e-02,2.533960306788828054e-02,7.692351334277990060e-02,-4.004042703335206066e-02,-5.627605815876534495e-02,3.088708001633155495e-02,-3.135208822637356590e-02,-1.053064075577539171e-01,9.985041042889846244e-03,-3.685207069062757489e-03,-1.160783473002709593e-01,1.459814249338722836e-02,3.439708512569892435e-02,-1.145198014309616596e-01,2.992105814455545479e-02,5.859308605973461564e-02,-1.104433493567332919e-01,4.207829913877545597e-02,6.934447378363135794e-02,-1.090340939219354988e-01,4.277574473942125088e-02,6.394111488996052917e-02,-1.157367601843574401e-01,3.249116301860253964e-02,4.609549497379437921e-02,-1.195034640985343510e-01,2.165022401857222278e-02,3.775777933155821664e-02,-1.191006835113193052e-01,1.777620872473939864e-02
-4.992286396083829222e-03,-1.840555416781696624e-03,-3.685347958115363365e-03,5.722091278839314815e-04,-2.194801619352928015e-03,-3.894074351869966297e-03,4.105958246454783495e-04,-3.742309381991890463e-03,-4.311156406848315470e-03,-1.445287595742464001e-03,-4.756782679355069793e-03,-2.132122902863043193e-03,2.292532913175172535e-03,-3.920818495175764501e-03,-3.704152045829224582e-04,1.764936443697105034e-03,-5.454784608622818658e-03,5.642737604828525905e-04,1.298575529795032227e-03,-6.409477900795259794e-03,4.264140135956401984e-04,1.603795141617650639e-03,-3.550353023682267968e-03,-2.694033393384121476e-03,9.396351976397078476e-04,-2.333905930187864068e-03,-1.403864445818314016e-03,1.923209552081445173e-06,-5.054876752985789853e-03,-1.953452468439476064e-03,2.926423764509082821e-03,-8.254116423730469693e-04,-5.272086190451930748e-04,2.240984602632542511e-03,-9.244278063484916846e-04,6.526102007790753057e-04,3.830772779177850362e-03,-2.456768327672094118e-03,1.722840404988598001e-03,2.659335496175306221e-03,-1.373856048732324288e-03,6.875811452292535791e-04,3.241855139169171930e-03,-2.300918104081122080e-03,-1.057052510113473329e-04,6.113816400413091788e-03,-6.071716837527753319e-03,-2.010359113463842246e-03,5.225119286060514109e-03,-2.796627050333360190e-03,-1.112130442326654707e-03,5.070994778555952889e-03,-3.871663601335306217e-03,-1.898036312279658376e-04,8.249858198365541545e-03,-6.390979897838403208e-03,3.931760909611455891e-04,6.411479063145750223e-03,-3.820515592841988196e-03,-5.269520242189192072e-06,4.497949594030217595e-03,6.567189427182842237e-04,2.748149882931030449e-03,4.114793609415016984e-04,2.528308511402642400e-03,1.188193805916098328e-03,7.840439111297371755e-03,5.025009622754064015e-04,1.560717612699099449e-03,8.192931241491663991e-03,-3.552706875885195195e-03,1.886028456944398649e-03,7.212978666414428947e-03,-6.112635278736761914e-03,5.898989639267597507e-05,8.562932589938829220e-03,-4.866862447512418192e-03,2.094247827602593263e-03,8.796413473559788060e-03,-7.358896149762239255e-03,-2.263929087242139322e-03,6.834704646912510145e-03,-3.813866747099127312e-03,-1.379097950953678351e-03,9.887314779351090085e-03,-2.796359611358877582e-03,-6.039994917049883866e-04,5.923626942488829580e-03,-2.505783782939726215e-03,-2.307434167831910396e-03,7.408549600621939721e-03,1.318528018236959920e-04,-8.910340731596837899e-04,3.723110575872965594e-03,-1.182150072143199268e-04,4.849138628404609831e-03,8.539282365805703906e-03,-9.040995390287706254e-04,3.002869665656639209e-03,9.630438512657872596e-03,-4.214647303906311759e-03,-9.622872945534355002e-04,8.682637626359391431e-03,-7.295301119994348354e-03,8.060234765806476714e-04,7.570673044797800871e-03,-5.560440060844279962e-03,-8.413829081772203865e-04,8.115174481040411669e-03,-6.184658660266558437e-03,-1.168648695457429488e-03,8.410606914622382330e-03,-7.569511463788538078e-03,-2.894287758511178074e-03,9.874433684484928975e-03,-7.895987904945330621e-03,-7.502934994433252056e-04,9.131933425460566148e-03,-5.708625640969503326e-03,-1.368759183666307631e-03,7.330989844275060882e-03,-2.300332673281405005e-03,3.328458410155877428e-03,6.308594133461760574e-03,-9.876658834419025160e-04,5.910585950583016265e-03,1.158133770954613596e-02,-4.594953119375333114e-03,2.513190199982313910e-03,1.016844370108047589e-02,-9.283778482109070890e-03,-3.611836766769507042e-03,1.125341886301507548e-02,-5.620801749299890286e-03,-1.355503278119268590e-03,8.583685074837744261e-03,-6.892234262797227243e-03,-4.042995788890045919e-03,8.161508494338595709e-03,-8.542046801161193997e-03,-5.639288123453454170e-03,6.351976943220408525e-03,-9.757851886393095753e-03,-4.027846727528771459e-03,7.904579365546572298e-03,-9.941984677183268726e-03,-1.437266162177908233e-03,6.197004848111444669e-03,-9.937426689152170298e-03,-1.935754638901393196e-03,6.290604701725856229e-03,-1.926508139118121923e-03,2.229908902753536051e-03,5.246630081861649794e-03,-4.756177641760731684e-03,3.621510556622276576e-03,1.066199796136682587e-02,-6.623835887319372284e-03,2.386731932805166018e-03,1.221027725042201154e-02,-8.445271406848479240e-03,-4.266629493028285813e-03,7.483434771642404233e-03,-8.995125029002772055e-03,-1.097976326796207356e-03,8.478852476060595722e-03,-1.184129178222843165e-02,-5.009590975607598577e-03,6.086729544576433351e-03,-1.261838455527908992e-02,-4.916091713428290440e-03,9.332707138606254060e-03,-1.220110692356606366e-02,-6.950903409798683298e-03,7.523653206254510804e-03,-1.077374790468599297e-02,-2.222862630276508863e-03,6.528190790501132990e-03,-8.665664639975086819e-03,-3.746741916465006362e-03,6.982363441817682377e-03,-4.560205914662635029e-03,-2.111209465075700349e-03,6.176182296970782713e-03,-1.200495393050543709e-03,3.093561758958667494e-03,1.084135190964983023e-02,-8.859664747175928501e-03,-2.250760771636428018e-03,1.314149232936566783e-02,-8.258110460636264305e-03,-4.515380364875327263e-03,1.134321932060348287e-02,-1.206486661632189331e-02,-5.991361288697866563e-03,6.963451134491175851e-03,-1.098219578782925164e-02,-2.362247074604412970e-03,8.118037551065299118e-03,-1.020652124731023444e-02,-3.325817513090940404e-03,9.004421068847752452e-03,-1.079471435706793984e-02,-5.526424415415516489e-03,7.560852445365086674e-03,-1.113911080609034272e-02,-1.185601310413526583e-03,6.479894954288158843e-03,-8.811990929390511179e-03,-2.925588759246171809e-03,6.287514796675345609e-03,-7.015641951041585306e-03,2.342151708137523228e-04,4.399276497420562780e-03,-5.742956392688351903e-03,3.963382254718536730e-03,8.567675131779721107e-03,-7.666001327565580975e-03,-4.639948855564238889e-04,1.077249932265367423e-02,-8.836550001441314389e-03,-1.387254764233276580e-03,9.765026563051030714e-03,-9.543502222893993775e-03,-2.970266356921923059e-03,1.038565736543026370e-02,-1.097903285166046752e-02,-1.815793109000168925e-03,1.050432050788780575e-02,-1.097685352424646391e-02,-3.452983132697287801e-03,1.110456422537050604e-02,-9.597783699411697317e-03,-1.478481804690100600e-03,6.684929224577172008e-03,-1.082771387747375608e-02,-1.636054807635710763e-03,7.748607560829262608e-03,-9.621324990096789820e-03,-1.275317234997449221e-03,8.675695578389368279e-03,-3.865412071599531353e-03,-2.519558104425244360e-03,2.510710329620257503e-03,-3.724030014845325191e-03,2.328443391993445001e-03,7.284361386890741280e-03,-7.555315362820644136e-03,3.355382415380428474e-04,1.142192635755091834e-02,-7.276373068445059558e-03,-1.987978187533755506e-04,9.490717979803539595e-03,-9.725209236077975161e-03,2.747863290195962441e-05,1.100289648691147627e-02,-8.014984824322918255e-03,-3.591781210560468420e-03,7.797057625691371577e-03,-1.170546369305856642e-02,-5.444147319955381509e-03,8.070215926659435324e-03,-8.103757395737744285e-03,-4.430250992448250477e-03,7.270285201069633628e-03,-8.800282760950565997e-03,-8.745533705265045796e-04,9.355840751870127606e-03,-6.904161243530530616e-03,-9.592388026835702800e-04,1.000403704411837423e-02,-3.615621768660655377e-03,-2.440965236616514378e-04,2.679471491291204009e-03,-3.948400139500999641e-03,8.567747830964655281e-04,7.793820947814372041e-03,-5.133940220774312058e-03,6.892463388921531847e-04,6.860170509630678440e-03,-6.718167962401977271e-03,-2.021457251108848500e-03,8.565722948314175023e-03,-8.075311600034069254e-03,-3.905773436841594986e-03,1.011329378509938891e-02,-7.672594358303748245e-03,-1.328787753491183186e-03,9.774862364682973537e-03,-1.058930594767298547e-02,-2.428412378066959702e-03,1.066581627353068232e-02,-1.009720799568077781e-02,-3.979210670586505114e-03,1.035140739186573774e-02,-8.150072435543262439e-03,4.456363063279821998e-05,1.177726171372259385e-02,-9.403159468167190255e-03,-3.341831701594855097e-04,7.561143906685892369e-03
-1.617867974414517462e-01,-1.631002792593952144e-01,-1.601795032716985534e-01,-1.614152961114715956e-01,-1.630226521863754885e-01,-1.596263368242600844e-01,-1.598354085331720187e-01,-1.240887428018478816e-01,-1.260134547154506957e-01,-1.139458788708053588e-01,-7.058346315424514350e-02,-7.638273246783304493e-02,-4.607041927545420940e-02,-3.588934865308592709e-02,-6.445983012684206037e-02,-6.616614631863079743e-02,-5.512044907189345144e-03,-3.289680387190038052e-02,-4.947246938348632411e-02,1.832598462671758410e-02,-3.708443126213120319e-03,-2.066072921664012518e-02,-1.139522920921904985e-02,-3.944639025703796514e-02,-3.797948220840940969e-02,-3.047211797248196297e-02,-5.194368110370938679e-02,-5.863321663443222392e-02,-4.414660457146293848e-02,-5.801819086352102278e-02,-6.969990329041853006e-02,-1.648734642882552781e-01,-1.622902604468603460e-01,-1.639279932766776748e-01,-1.370681276721822384e-01,-1.324720319710210592e-01,-1.287726973154348364e-01,-6.539670616767800926e-02,-7.692811970967215751e-02,-3.038777172490995243e-02,5.087545679023481454e-02,3.405365037482523810e-02,6.647916276010087944e-02,5.941290031163691532e-02,2.397152955373701294e-02,2.728162247911648103e-02,5.618642932015724401e-02,8.241902093154299114e-03,5.252573262810161618e-03,7.743672112008413710e-02,3.303953050175869460e-02,2.886180993759012575e-02,4.086365197672436889e-02,5.634301716764194418e-03,1.503480098657442206e-02,7.089809569830371992e-03,-2.313139516209455210e-02,-1.329182272973979465e-02,-1.182528249489234531e-02,-3.883110981862727962e-02,-3.290262376718361415e-02,-1.758463181078998572e-01,-1.812330987340609600e-01,-1.868453877106223127e-01,-1.096339559610848557e-01,-1.280442602355665316e-01,-1.062601617524329967e-01,-1.686666813264645071e-02,-4.996518899915544654e-02,3.575424722980202405e-03,7.808597389616712958e-02,3.729637810245521601e-02,6.922468127789756231e-02,7.055028839399223040e-02,1.778521974246914314e-02,2.215389259257383170e-02,4.748920028267281102e-02,-1.584347080313779771e-02,-1.476438046782688543e-02,5.430124784759756545e-02,-7.298482368225781697e-03,-3.920897911502987249e-03,2.558052661966312563e-02,-2.283979101236442363e-02,-1.280219076671037029e-02,8.779145864287483947e-03,-4.271643488896186003e-02,-1.756297124738490784e-02,-1.182965874420774909e-02,-5.633619282941262213e-02,-3.721519949914089964e-02,-1.851327528217712737e-01,-1.907874389677344240e-01,-2.072814243804563250e-01,-9.308750843961481614e-02,-1.230896557000385888e-01,-9.125378372821693618e-02,6.351096457695516555e-03,-3.605298982287775261e-02,2.548386699186729054e-02,7.979006629087279090e-02,2.858454049913744521e-02,6.470210751810163974e-02,7.088371341407478932e-02,8.590489753569127002e-03,7.075402263206821522e-03,4.840617698529121882e-02,-2.086690758573891274e-02,-3.965727215161699015e-02,5.089322838536857602e-02,-2.722480488090554124e-02,-2.371960505671069641e-02,2.814356232146494885e-02,-3.353557794293553218e-02,-2.271707785068451113e-02,2.471906342675042265e-02,-3.624543627409248375e-02,-1.280021234850806447e-02,-3.068343340368467204e-03,-6.033929593735060798e-02,-3.030906572520460085e-02,-1.657594176257175256e-01,-1.806199288189568597e-01,-1.950001968354127535e-01,-6.776435477380568506e-02,-1.047431309490315376e-01,-6.069941797019472174e-02,1.270120978370128766e-02,-3.414448127630108354e-02,4.209982928607707703e-02,8.853894547844823326e-02,3.897983403386843376e-02,6.803467413714109346e-02,8.217098938422989773e-02,8.326965209995731282e-03,5.791600467792212131e-03,5.250609492766068753e-02,-2.253827466448520694e-02,-3.571057021675050347e-02,5.063364007056535970e-02,-3.025427174090409427e-02,-3.295731433488473944e-02,3.070071319686398098e-02,-4.126232906964594216e-02,-2.497414513527808008e-02,2.892989689817290766e-02,-3.341976386738963745e-02,-5.951023155103126253e-03,9.824231605444155857e-03,-4.538700611694514858e-02,-1.605012395380642914e-02,-1.163309086129082071e-01,-1.317780032658215639e-01,-1.368469090443692748e-01,-2.840835306361397944e-02,-6.641030432861580457e-02,-1.168090981415403212e-02,3.740602918874767757e-02,-6.733173540795294246e-03,7.401318801052912677e-02,1.093028562026687051e-01,6.277829217330752054e-02,9.070345845587143851e-02,9.934285989651184257e-02,3.151788966785570162e-02,2.175991378954951136e-02,6.843927451817471974e-02,-7.002547159825630620e-03,-2.577740248333056441e-02,5.460348960825063547e-02,-1.913133211625485386e-02,-2.520952256857114659e-02,4.940759760624416352e-02,-3.057439443261088588e-02,-1.158426674222412869e-02,4.585876168523125157e-02,-1.580708930014192506e-02,1.264404607218835852e-02,3.824889857462644704e-02,-2.144409533843869356e-02,1.188550304861386506e-02,-8.852114218390857991e-02,-1.018759375299913145e-01,-9.094649423234160701e-02,8.243651175435314990e-03,-2.160995364216056203e-02,5.531091176954821415e-02,7.661714259427196416e-02,3.836670406541574374e-02,1.433335514151529155e-01,1.421605654721994905e-01,9.539498202680719852e-02,1.324915759371822765e-01,1.297711715991545223e-01,6.078524316491985824e-02,6.535796989627783160e-02,8.922914860282177285e-02,1.980655219811901929e-02,7.244392783411022357e-03,8.678027957290132544e-02,1.109129761595295353e-02,1.559275750486791012e-02,8.286928327893043622e-02,1.161751651318466624e-02,3.330496182544477601e-02,9.063798630383811117e-02,2.677408458469997601e-02,5.953743555925206099e-02,8.332513298472951635e-02,2.620150008736572833e-02,5.376662116063345154e-02,-8.360268464070673422e-02,-9.824692087945519070e-02,-8.940477611156766313e-02,3.626962540091563381e-02,8.299833426033537825e-03,9.027671289793468001e-02,1.063786549712202045e-01,7.572776197288313971e-02,1.792625798088185451e-01,1.672732669088379809e-01,1.252088869060868359e-01,1.780206533249889533e-01,1.683443084736634399e-01,9.556115639112555682e-02,1.102013160820561749e-01,1.332551731277613338e-01,5.946774006125937068e-02,5.606555667688532113e-02,1.296881482040002920e-01,5.784280848756267329e-02,5.915767650319607440e-02,1.302899167701701000e-01,6.416437040175550222e-02,8.361318337680295754e-02,1.398061872806581896e-01,7.886702195955205830e-02,1.082677068985161833e-01,1.251049423692170148e-01,7.136073926839832382e-02,1.051321388516295724e-01,-9.251585137997800357e-02,-1.074477304913643294e-01,-9.488563420572468377e-02,2.309991851346830660e-02,3.120254330838951110e-03,7.210922011819116684e-02,1.085124547909776804e-01,8.799289970874876743e-02,1.883018669477635743e-01,1.810047335679951519e-01,1.347735170197223720e-01,1.918020083800669462e-01,1.849393091432124381e-01,1.246494713465771398e-01,1.342786651752600202e-01,1.608425596575908112e-01,1.002084132464770710e-01,9.200283014709173535e-02,1.765399835519881333e-01,1.066643535666905035e-01,1.025683682760981930e-01,1.748781525060277287e-01,1.152263309333603492e-01,1.250466381688985773e-01,1.766175142661537412e-01,1.222956437616276038e-01,1.433640334305087138e-01,1.535440657484826998e-01,1.118776309460158130e-01,1.316382842651467322e-01,-1.016596526293556818e-01,-1.106288563183684265e-01,-1.031918674976835953e-01,7.682714011161244014e-03,-1.107838861491257029e-02,4.950508664400270903e-02,8.992262953037163942e-02,6.874820122615679652e-02,1.583651805234860821e-01,1.544062251896939908e-01,1.239084795160222963e-01,1.699555558777244568e-01,1.687904861403141665e-01,1.214693077473119054e-01,1.242408031298132265e-01,1.619450792030951158e-01,1.114669632694486601e-01,9.478820867938032857e-02,1.750951676464997664e-01,1.156504417997648304e-01,1.094718289907933018e-01,1.673223274660087523e-01,1.154465081655784153e-01,1.282455250210696451e-01,1.713056473084793030e-01,1.238119519331420393e-01,1.399078255351695610e-01,1.550534422576143045e-01,1.053112123333387468e-01,1.265638281175842372e-01
-3.417557850830597876e-02,-3.130669524726974878e-02,-3.294740467771625075e-02,-3.042669641306824241e-02,-3.095941262655928922e-02,-3.364237087763646827e-02,-3.464309064479947908e-02,-2.885110350199994803e-02,-3.030966933703611518e-02,-3.236572123481444574e-02,-2.277503858955997468e-02,-2.422140044564931663e-02,-3.189956644323665991e-02,-1.547540121308399463e-02,-1.492748849952828770e-02,-3.661769813872184365e-02,-5.158285557428652149e-03,-8.819998314923298277e-03,-3.603950999173942404e-02,-4.044968116905571509e-03,-8.626693319898584567e-03,-3.657206202610898543e-02,-9.314699794470063590e-03,-1.105007253495303605e-02,-3.523988556709749254e-02,-8.981073459014882535e-03,-1.253551923308976988e-02,-3.610110070252553482e-02,-1.197893190682314604e-02,-1.445448741613059550e-02,-3.536069014215820205e-02,-3.175453233710503337e-02,-3.298745848187972091e-02,-3.059344747030533218e-02,-2.682618656810289298e-02,-2.419134800471063954e-02,-2.798456044755507494e-02,-1.713519867318927595e-02,-1.646354577038429759e-02,-3.087253078479263585e-02,-7.163093453928777096e-03,-8.706415358427106038e-03,-2.654062965779021427e-02,3.007647337995786319e-04,4.130157613036230038e-03,-2.535226323591544678e-02,9.641093679680417736e-03,1.124600194188511183e-02,-2.336648532434494607e-02,1.481511531888928673e-02,9.882027186296538784e-03,-2.461874032902894652e-02,1.091256276060064562e-02,9.519826289134629763e-03,-2.566176683359702032e-02,9.697839295502266518e-03,6.302217348155924811e-03,-2.705914134492453521e-02,5.426496848118715285e-03,3.159173252241821543e-03,-2.452241985278290348e-02,-2.654002074957582252e-02,-2.830527199495783824e-02,-2.820603238748024127e-02,-1.750363382477830576e-02,-1.680849519380980817e-02,-2.899141758441757880e-02,-8.988898313872586282e-03,-5.351628062462678026e-03,-3.113533652394066473e-02,2.421064271852307707e-03,7.348381184183647684e-03,-2.076088008852536651e-02,9.483137804397266668e-03,1.653477341988631236e-02,-1.697745844845616192e-02,1.646915036313855232e-02,2.315564136399702461e-02,-1.622899908042181247e-02,2.361236310112919956e-02,2.288781466579805149e-02,-1.374955016725276820e-02,2.392144547984638089e-02,2.293382636335172808e-02,-1.758300137948278982e-02,2.107101231539417960e-02,2.088823591500912902e-02,-1.870516640217085441e-02,1.651448268386837906e-02,1.781571010766425794e-02,-1.903704646087210628e-02,-2.454556054924450503e-02,-1.941061705316999425e-02,-3.335394246065309654e-02,-1.023352479070501961e-02,-9.038302292441048602e-03,-3.119977913803701625e-02,-1.196231690465799843e-03,3.580057319262853338e-03,-2.624737263810501819e-02,8.481307823095269455e-03,1.550059388979066130e-02,-2.130870997166045555e-02,1.841337761755369382e-02,2.010329843711328862e-02,-1.168961533148614451e-02,2.541850098963521418e-02,2.611199307635661548e-02,-1.026016094473218218e-02,2.513759747994899485e-02,3.267520215718641013e-02,-1.029740517930494495e-02,2.522026941204397882e-02,2.939456275230159163e-02,-1.137014231177744389e-02,2.702399659204405419e-02,2.657496055549097430e-02,-1.491526590112204897e-02,2.179425141639949881e-02,2.225486063221502470e-02,-1.548814693246517576e-02,-1.434408878365813975e-02,-1.526786818897195308e-02,-3.260794477217046627e-02,-4.918931206472034433e-03,-1.522691750756532958e-03,-2.933938555223451414e-02,5.811545154625741456e-03,1.100204575552275396e-02,-2.537962238566647891e-02,1.242217993182564810e-02,1.782822752432862770e-02,-2.126393438841241851e-02,2.212644495215508253e-02,2.328543164069783733e-02,-1.633761962918827554e-02,2.577225183944751447e-02,2.764247357039719202e-02,-1.218799026019840200e-02,2.734680687355896256e-02,3.090215858596216322e-02,-8.627234454660586208e-03,2.928791069656627027e-02,3.337875367780548247e-02,-1.344057572666981087e-02,2.967185369418280649e-02,3.194561832705371945e-02,-1.408639097247051976e-02,2.318131290545424189e-02,2.536649990176263053e-02,-1.448006673717825918e-02,-1.196469035956650856e-02,-1.318843790209428893e-02,-3.543079672516962625e-02,-2.646274186992893067e-03,3.718157212135885827e-03,-3.121099237467063817e-02,6.176970748609529778e-03,1.205627937543132799e-02,-2.478216470525683446e-02,1.759441626989632218e-02,2.233949477111563109e-02,-1.921312282752459313e-02,2.354018746835006420e-02,2.902507982514538135e-02,-1.328373368567785200e-02,2.825200048920631368e-02,2.792506730676376503e-02,-1.435018422070103057e-02,2.894500356677211575e-02,3.174486734225481083e-02,-1.268532784949246046e-02,3.203457115526296695e-02,3.384139218497046742e-02,-1.366965915988389152e-02,2.946520302242521330e-02,3.159247918590763621e-02,-1.160869603462454450e-02,2.721796812772172419e-02,2.907149051934433681e-02,-1.466532938273780277e-02,-1.692436348364128457e-02,-1.130255677409253319e-02,-3.357549546009484798e-02,-3.254062675206695517e-03,4.616057230193640858e-03,-3.314743133525802077e-02,6.822747192302539010e-03,1.070303260967388551e-02,-2.829694542919687639e-02,1.314001885924751326e-02,2.245797696260466020e-02,-2.374185316328347728e-02,2.113969281199256853e-02,2.472881532799032014e-02,-1.520695357918765145e-02,2.421322236207421388e-02,2.866585307496101118e-02,-1.319311797961856582e-02,2.685501435621331229e-02,3.527486370777282998e-02,-1.305431889260967593e-02,2.999477087663599689e-02,3.437088366010998541e-02,-1.256364978548678117e-02,2.774434293925057138e-02,3.257768795730794920e-02,-1.547734775760742539e-02,2.543875829563026214e-02,2.683314375975177218e-02,-1.501172093854799897e-02,-1.871512099740480634e-02,-1.584464327572286668e-02,-3.469052817326034877e-02,-1.228944760891561606e-03,-5.478403411589690894e-04,-3.345675582595032671e-02,7.237924596025835204e-03,1.060498731189550917e-02,-2.990511049298736138e-02,1.046166729299182613e-02,1.711398968679954044e-02,-2.341371535772179130e-02,1.906166529166710560e-02,2.394743296251246670e-02,-1.714043355527895482e-02,2.293991995258978442e-02,3.041477454558163401e-02,-1.462622947528878677e-02,2.802227651037098727e-02,3.121027837802239219e-02,-1.509166447674715160e-02,2.923690870826527177e-02,2.941109686626162956e-02,-1.525789617850507006e-02,2.638374857662962800e-02,2.758007592903987878e-02,-1.453218091805425979e-02,2.216331461836407515e-02,2.439335128247792361e-02,-1.403763096553413241e-02,-1.851222741759094362e-02,-1.764072381398296141e-02,-3.396430425715390999e-02,-4.571110250565544632e-03,-5.040214903740305140e-03,-3.338348832537219035e-02,6.692377231420501907e-04,5.159170976304873132e-03,-2.867655455010873974e-02,1.109571114602409328e-02,1.604406058527907408e-02,-2.342570528034594243e-02,1.376815360467875150e-02,2.158811587794709150e-02,-2.237959843422648171e-02,1.838708608115294241e-02,2.561215565122298282e-02,-1.975078121722077112e-02,2.232470578716607562e-02,2.824920450599088806e-02,-1.458528621414915787e-02,2.599648786226893202e-02,2.596604297211025855e-02,-1.402746608707390596e-02,2.293876971313729696e-02,2.186027847559593451e-02,-1.605938735517516147e-02,1.991324549368853752e-02,2.077997848740637671e-02,-1.955603415627542654e-02,-2.072851895451614107e-02,-2.019475284120848813e-02,-3.498899123120813998e-02,-1.035065113300789874e-02,-4.521300064391399129e-03,-3.446349845796982392e-02,-1.247779221674316999e-03,7.928381258661661504e-04,-3.053373378154655357e-02,2.988568068436089735e-03,8.704942255542691409e-03,-2.580163219144378239e-02,1.049368903263277544e-02,1.264919099023551624e-02,-2.339411794085937898e-02,1.201168602995162510e-02,1.976134335211275975e-02,-1.987817201678308485e-02,1.413158668262061782e-02,2.218422633187971948e-02,-1.909896819365557857e-02,1.555310706448028053e-02,1.959414752154057734e-02,-1.685704773067020143e-02,1.767274361497429835e-02,1.671016188622383158e-02,-2.155476365832786900e-02,1.505018755135261593e-02,1.380384620162419113e-02,-1.819979152530525751e-02
-2.002311953441418824e-01,-2.013990017880978034e-01,-2.025135096880094354e-01,-1.975161011120786514e-01,-2.023848050145453936e-01,-2.020881188913026816e-01,-1.946738790663787300e-01,-1.591644159579434503e-01,-1.356321802823157729e-01,-8.380326957914562003e-02,-1.342960402649431562e-01,-7.946086232172477892e-02,2.969327303900287651e-02,-1.176173248367972379e-01,-4.980698607379359377e-02,1.070151350527311362e-01,-1.071973015201057589e-01,-3.168381933242041260e-02,1.709573533459509131e-01,-1.214087627788121848e-01,-4.730583799312283039e-02,1.927093318742598427e-01,-1.216063074476761152e-01,-5.425252998589603914e-02,1.774791962529241041e-01,-1.305580066145891616e-01,-7.061627610453556636e-02,1.417700764179347650e-01,-1.409246708032098894e-01,-7.981875010303107754e-02,1.057282979803947226e-01,-2.009775630629246079e-01,-2.018631568090540895e-01,-1.980446841814302306e-01,-1.455598699882050540e-01,-1.013829207076196726e-01,-4.166063071100887388e-02,-1.131672091485719372e-01,-5.818838372798327413e-02,4.600473647458711707e-02,-8.921304211949232510e-02,-4.310560335463071296e-02,5.501211263064202661e-02,-7.527214572345089505e-02,-3.243982728914149294e-02,4.868097124869976561e-02,-6.495119400425372613e-02,-3.019361615817160380e-02,7.774323586370371353e-02,-8.219532687640276891e-02,-4.713332467645359874e-02,1.032123994849603599e-01,-9.571126220775914850e-02,-4.526004643783242132e-02,1.307873923754054590e-01,-9.307652753491939268e-02,-4.433231531490550159e-02,1.401131476964695144e-01,-9.983156997572195657e-02,-6.610028818152587082e-02,1.071136130458635316e-01,-1.563081663170653723e-01,-1.284544185127096949e-01,-8.156151125062224838e-02,-9.522669151014417910e-02,-3.519918128340140256e-02,3.556820623202247567e-02,-7.081423148243813637e-02,-1.810637988994603237e-02,1.528446508128571482e-02,-5.049410792103015133e-02,-2.043527337688402085e-02,-3.813801342593010901e-02,-3.721426810592978751e-02,-2.295601336510331644e-02,-8.557839797216178213e-02,-2.959921434982183339e-02,-2.330767321816617360e-02,-7.347584743364862780e-02,-4.243151200955572189e-02,-4.446638892972733931e-02,-4.842835734699674211e-02,-6.207333116676107265e-02,-5.345388262920043598e-02,-1.898365465264344881e-02,-5.548624547132872953e-02,-4.741375102489345933e-02,1.964960986915586030e-02,-6.578771085622053816e-02,-5.342042657901034663e-02,7.670151549757349072e-03,-1.121347732602154673e-01,-6.930582746166386032e-02,-1.008982506080672789e-02,-4.057680336727573223e-02,1.064504480472053434e-02,2.933050222776097463e-02,-1.443318772162970054e-02,2.992829240370563013e-02,5.189175499658651991e-04,-1.242489165170970050e-04,3.881098488388330658e-02,-4.479413104314694527e-02,8.516930033736257524e-03,3.081546246196211272e-02,-9.781257129542045292e-02,2.270235549519102752e-02,2.452073463342068632e-02,-9.849690383236012203e-02,3.554677008279322550e-03,-1.699159127873791850e-03,-8.193423461097409932e-02,-5.819458739388062504e-03,-1.686578534370283822e-02,-5.368652288022391500e-02,-5.311339289476016065e-03,-9.513036805927818293e-03,-1.859361919697363058e-02,-3.651448240984381602e-03,-1.455512964261610788e-02,-3.943023200665213973e-03,-7.422638836795091011e-02,-2.913963853799261122e-02,-2.837945784044291868e-03,-8.150644977508612540e-03,3.851711955880771088e-02,1.341423283286690554e-02,2.723550571052547886e-02,7.297367046391571577e-02,-2.164036315558751436e-02,3.872091187703755738e-02,6.847944151443766114e-02,-6.328815237150225981e-02,6.118619035911199155e-02,6.868932070187182271e-02,-1.002407624857808155e-01,6.406585760039509858e-02,6.001187039582037142e-02,-1.036905321892158532e-01,4.361766611473474886e-02,3.822848013348455198e-02,-9.430500098961805411e-02,4.048196453061012751e-02,2.135635605660353431e-02,-6.544003379825766298e-02,3.812931385282922886e-02,1.832948098067081061e-02,-2.295244517268688750e-02,3.884115715300207744e-02,3.306207408412640408e-02,3.933909190835978287e-03,-6.114515909187354797e-02,-3.160817182167131867e-03,1.435567864309172416e-02,1.603366773003120360e-02,5.328066233810759000e-02,-1.961264233644705035e-03,4.279863265421272878e-02,8.131204668181378492e-02,-3.228489907834679318e-02,5.571722137022704080e-02,8.121032442361184045e-02,-8.403571458972593222e-02,7.446826038663750813e-02,8.673066025405980206e-02,-1.181666878088686867e-01,8.453267694515306796e-02,6.994469899714883532e-02,-1.211659163850643123e-01,8.470756306801136004e-02,5.064752983729632618e-02,-1.023388366492777590e-01,6.764230839434082210e-02,4.087560434109560603e-02,-6.925607474562885113e-02,6.849356468201378556e-02,4.164448959779528531e-02,-2.685047943608443594e-02,7.951891494637799984e-02,6.225179621441306876e-02,7.353001957386622739e-03,-4.416875012223288322e-02,1.187202562361380428e-02,5.373150094942025917e-02,1.695579853394223874e-02,5.987071007130785605e-02,1.523384992776438338e-02,5.383620372953689531e-02,9.170329296940196717e-02,-2.506197604733157586e-02,6.559246683502566178e-02,9.474625112474351074e-02,-7.632607057481867463e-02,8.795966010726830042e-02,9.108985798971139247e-02,-1.116252160774411362e-01,1.051388513897598409e-01,9.041489283320199022e-02,-1.062191436951387541e-01,1.023018515817439855e-01,7.252581717700185004e-02,-9.561882933354379221e-02,9.386094051242417635e-02,6.242047304355360232e-02,-6.374460371953834248e-02,8.901275294310237451e-02,5.963730607665566202e-02,-1.879012687029055564e-02,9.250305634366404184e-02,8.204030333845030443e-02,1.567766099148109118e-02,-3.656102107060150985e-02,2.055920043922118690e-02,6.365987055122872273e-02,3.629433632526746223e-02,8.242192642698922822e-02,5.586619202589788308e-02,5.995523264831800064e-02,9.430558141711015141e-02,-4.221586879365096627e-03,7.000280901157393543e-02,8.631007908479974844e-02,-5.669107785211549566e-02,9.078055867356607522e-02,9.188309283462579857e-02,-9.368996308714711008e-02,1.125373444077246293e-01,9.677430569949134476e-02,-9.548210594994935296e-02,1.024072701359880488e-01,7.487307696764405884e-02,-8.258573160641489996e-02,9.586334895582285243e-02,6.954081604077268219e-02,-5.132572904637735384e-02,8.437240712160729017e-02,6.385973560991207998e-02,-8.004545394550817428e-03,9.311840943296804951e-02,7.592956965445299411e-02,1.828183302942513327e-02,-5.230127118292904331e-02,-5.820605476324377039e-03,3.338556719806774764e-02,3.733321361779229353e-02,7.533689387734518461e-02,5.239273637639633996e-02,7.850680367980665542e-02,1.105572674034522168e-01,2.878688866286473191e-02,9.377985949661141185e-02,1.163229759782507533e-01,-1.492304382957684514e-02,1.078593488468535255e-01,1.216970277973169895e-01,-4.870710957438428856e-02,1.218071699793380480e-01,1.070184887194232937e-01,-5.549014286899900394e-02,1.149362167629494474e-01,9.198879798386903894e-02,-4.039004137165186359e-02,1.080651245261213672e-01,8.869527649056134500e-02,-5.927385183141382560e-03,1.102292043953906620e-01,9.767075047599504956e-02,4.050873441216568810e-02,1.077619914076289459e-01,1.039205543525156678e-01,5.087121480067887530e-02,-6.699471902887957353e-02,-2.814522839513164398e-02,1.120346567796256902e-02,5.926060404962128422e-03,4.495370703416842750e-02,2.928336331872353690e-02,4.424108117854992639e-02,8.032497927409323890e-02,1.758035848191709383e-03,7.788962752161276981e-02,9.985368516301519615e-02,-1.550866112845544764e-02,1.130890887778632781e-01,1.222482982739759860e-01,-3.172300069317224303e-02,1.348721868477863739e-01,1.320449518514421883e-01,-1.943431517669291092e-02,1.283154202515212616e-01,1.215618235568147742e-01,-2.912677951303586053e-03,1.229699078587486033e-01,1.090243501669658083e-01,2.368191718786714223e-02,1.133528142204392741e-01,1.056326650606240480e-01,5.139505407750512983e-02,1.086503038064634552e-01,1.097624741877054333e-01,7.300409322114714827e-02
5.535213608716740841e-03,7.593946105501072144e-03,7.256464320475866994e-03,7.777092089629332808e-03,8.497758613024515920e-03,7.563176706103695926e-03,9.630582502875040599e-03,-1.901625908772996629e-03,7.875137336088584850e-03,5.582424280007462422e-03,-1.731143984860374768e-02,-3.896350490448629439e-04,-1.226091437199169562e-03,-2.011003722212535705e-02,-5.034570552153207201e-04,-5.657593577763629297e-03,-3.099261895912136869e-02,-3.255238275157957759e-03,-1.297359576916180118e-02,-3.102902176002822823e-02,-6.269346146671549332e-03,-1.545372142658296352e-02,-3.468420006143381473e-02,-7.140561600399391792e-03,-1.604808025917994763e-02,-3.086904080870089828e-02,-3.070589273221905474e-03,-1.519572961047653201e-02,-2.399407307006785200e-02,-1.458192399734430100e-03,-1.304385227687331755e-02,8.740490358177652533e-03,1.021532484754544313e-02,1.050119445856145285e-02,-2.071233561121261016e-03,7.539661569019693796e-03,4.570975904979027171e-03,-1.837912807946551902e-02,6.260802484729787766e-03,-5.389600581915583027e-03,-2.757361823515776938e-02,7.806161305551957696e-03,-1.538477013950791117e-02,-2.524067457121664110e-02,1.558167248955589015e-02,-1.812143887177645324e-02,-3.203345341214450942e-02,1.523654356418514995e-02,-1.932012095559463086e-02,-3.170489438512297253e-02,1.437882860501083979e-02,-2.493910731075397319e-02,-3.684074528573503399e-02,1.036830457642462858e-02,-2.801093337637763914e-02,-3.698381139192595535e-02,6.835160132819434117e-03,-2.680103117754867662e-02,-3.353018967079239576e-02,6.781846910679250121e-03,-2.157140138656544678e-02,-1.367691293520215817e-03,5.220861639976299637e-03,7.593301639912675149e-03,-1.667925490089451623e-02,6.832009948250802531e-03,-6.389122889645538345e-03,-3.027861314094342643e-02,1.152245317222914435e-02,-1.412609073585533587e-02,-2.812366795882069795e-02,1.775301167016418713e-02,-1.857174532688798951e-02,-2.499125921887238727e-02,2.868630497683690925e-02,-1.555474206608945843e-02,-2.519041376655579631e-02,3.113657809618324349e-02,-1.625441678446807800e-02,-2.602756802837224645e-02,3.447333292120655784e-02,-1.647205829844687261e-02,-3.088888732205867169e-02,3.156010604072551767e-02,-1.814921850792329538e-02,-3.220303065872084924e-02,2.388603210409622618e-02,-2.080525087878016058e-02,-2.942755457203632269e-02,2.133745291767845387e-02,-1.864402750642699114e-02,-1.731117763987757158e-02,9.462090162559635281e-04,-7.844925188258940543e-03,-2.884773235813621606e-02,9.595497034892151375e-03,-9.488398089233934796e-03,-2.902213071927661411e-02,2.461648051086233122e-02,-1.072730409739594201e-02,-2.565168690830277667e-02,3.486040646051141723e-02,-8.542949621546128136e-03,-1.840248175462372640e-02,4.806162217696981209e-02,-4.409448191413863766e-03,-1.142545230526464256e-02,5.119553952363024851e-02,-2.616829984154898404e-03,-1.371664372809198486e-02,5.817682216895445069e-02,3.329475503222981657e-03,-1.567182683306475241e-02,5.067787643129143677e-02,-1.155550910543550261e-03,-2.187780859770523112e-02,4.501092019444399156e-02,-7.913959015742096786e-03,-1.938388341241751439e-02,4.025832197266789730e-02,-2.920281879667164897e-03,-3.447316475899154381e-02,6.085259506273359154e-05,-1.965618560407981011e-02,-3.651533531546958394e-02,1.647476936331722028e-02,-1.468493958959329708e-02,-3.244835177109219732e-02,3.703298321824855660e-02,-5.150507824500874174e-03,-2.364157507022578847e-02,4.984805829361023399e-02,-1.315013431875742926e-03,-1.229023798521379496e-02,5.985061655104844530e-02,6.377392762697354014e-03,-1.125303560013251117e-02,6.457423662564637512e-02,1.100956974052686235e-02,-7.897850807635742668e-03,7.012561840103490041e-02,1.252815289157790425e-02,-9.107210013101874752e-03,6.634069233906488006e-02,1.060004986440327319e-02,-1.591013192183527575e-02,5.809384725790499304e-02,7.356095808946494854e-03,-1.563935048372647185e-02,5.545734275814170194e-02,9.852624542298803884e-03,-4.950654762532889774e-02,-8.023591535920259615e-03,-2.609473209164789656e-02,-4.304173945165234993e-02,2.144291108927311174e-02,-1.519466355046675612e-02,-3.531424307868927942e-02,3.820571848264341791e-02,-6.409273906028586411e-03,-2.558955805799488503e-02,5.602262168193115205e-02,3.261006646961726700e-03,-1.739597882547466376e-02,6.440446438123048623e-02,1.075496356334060613e-02,-1.195572236254315891e-02,7.190335227469761559e-02,1.369261563945867524e-02,-6.790342306258820813e-03,7.446602872295697562e-02,1.813144329913285793e-02,-8.566884542596714391e-03,7.367337406046758908e-02,1.539150971012410996e-02,-1.630555345160965980e-02,6.632174182665992457e-02,1.409039391023386711e-02,-1.368999466055846256e-02,6.154804769253836155e-02,1.287985996466012306e-02,-5.650960441360121378e-02,-1.315296900679062235e-02,-2.939833800123899110e-02,-5.193495969866645384e-02,1.758547331470497813e-02,-2.270719199884009554e-02,-4.187358425446727900e-02,3.951015270821160719e-02,-7.524724335588254230e-03,-3.008013709939227898e-02,5.571331623755394064e-02,-1.290978688197598652e-03,-2.176918665724819624e-02,6.690946116150364720e-02,6.587228439269264720e-03,-1.606504924031373210e-02,7.132703547101887365e-02,1.537406254433108278e-02,-1.205779002483868892e-02,8.016051691039045857e-02,1.846500939443944042e-02,-1.476964976732096646e-02,7.647112193311542128e-02,1.558298385332688996e-02,-2.028891838261058858e-02,6.462695328311135468e-02,1.322995095079512740e-02,-1.898082269792629451e-02,6.091806450227896935e-02,1.377071402775285544e-02,-4.887519639114138587e-02,-8.472157041658516172e-03,-2.826753387450976068e-02,-5.669717312555175304e-02,9.705578698762200307e-03,-2.362713254733140103e-02,-4.813453363907890109e-02,3.044254954016242104e-02,-1.487760688986068669e-02,-3.891810674350243415e-02,4.708584006651739262e-02,-9.112743035619770560e-03,-2.934924475474073521e-02,5.637159823654257912e-02,4.280240187747913830e-03,-2.497379883928539657e-02,6.687720309339528768e-02,6.967400196003678894e-03,-2.087030397599958301e-02,7.038330309282243846e-02,1.133814758363944734e-02,-2.067545599985275151e-02,7.097598909291531755e-02,8.963449663701640591e-03,-2.694138505986435825e-02,5.748982704810400718e-02,5.975462115708454064e-03,-2.642042744062036291e-02,5.607870260791517070e-02,1.127422715602277581e-02,-4.534165183885771611e-02,-8.525643314402548550e-03,-2.669999213947935393e-02,-5.056408240236186236e-02,1.025371220223504978e-02,-2.411798177725776177e-02,-4.962481200838075174e-02,2.318721275453154707e-02,-1.752624035944396266e-02,-4.219437681802407081e-02,4.014433204510552133e-02,-9.169360520426862726e-03,-3.742446162217391570e-02,4.898940237306453893e-02,-1.371062294738691935e-03,-2.880441673029105615e-02,5.926605355324728042e-02,8.776002837186068495e-04,-2.773623818292192400e-02,6.103336241406300683e-02,3.869098572765058107e-03,-2.716558200963658729e-02,5.528139572709731692e-02,4.323139023994309292e-03,-3.344297067713690452e-02,5.103305892031170798e-02,1.252127666591269610e-03,-2.996377859058716592e-02,4.430878643326998517e-02,8.501799417739448056e-04,-3.963402375046536086e-02,-8.822913887926818813e-03,-2.006265546784684328e-02,-4.475616653117157895e-02,5.857852420316339223e-03,-1.949200480148974637e-02,-4.729270854034527821e-02,2.373743264438927733e-02,-1.747668617604840671e-02,-4.179245926568223718e-02,3.572023792776378437e-02,-9.782841938162999129e-03,-3.535076222268251217e-02,4.602447905193485234e-02,-3.374957988551287313e-03,-3.121049168118474049e-02,4.875807809299473328e-02,-9.675252702559394846e-04,-2.880353621474441433e-02,5.466505224055047407e-02,-1.380984107126600156e-03,-3.210335179964257657e-02,4.594989434229564823e-02,-4.283486543371069905e-03,-3.692701159766804270e-02,4.073393261412894956e-02,-6.970710603599842604e-03,-3.421172431307100553e-02,3.816222959546037435e-02,-1.050264415178777180e-03
2.997447656075424155e-02,2.933177764820001782e-02,2.959490374655887601e-02,2.849138712190349421e-02,2.743864223082169429e-02,2.771004829309372391e-02,2.732284092421670418e-02,3.187362167219509601e-02,3.265837236732551524e-02,2.449918638841519503e-02,8.288673568577477335e-02,9.939121354842318790e-02,6.659163239413046220e-02,9.059348219174140349e-02,1.346454003024733226e-01,4.930216635952981707e-02,3.731012125483633424e-02,1.034956271077819706e-01,-8.077191939788038247e-03,5.350689894769392746e-02,1.381557056106988979e-01,3.466086349447713294e-02,1.054800585305124411e-01,2.040926543933551940e-01,1.119144122359977955e-01,1.117974184753159211e-01,1.986878086000189725e-01,1.229362365240377758e-01,1.054757937272236407e-01,1.863469106903147821e-01,1.115569770153532064e-01,2.499324704857638912e-02,2.613235356109940705e-02,2.751469987695565750e-02,3.202855909081695623e-02,4.289349552475000410e-02,4.086502770561097064e-02,5.509561287791820555e-02,7.536946471699558503e-02,4.304389554463766698e-02,6.332238507643651870e-02,8.978224311175996009e-02,8.973259261337671044e-03,3.525651383983113840e-02,6.911969403043882743e-02,-5.133751422879653109e-02,-1.246795904780068076e-02,2.986400345798126410e-02,-1.033645533077416218e-01,-4.708970291034401956e-02,2.516118217365374138e-02,-1.081077638233803040e-01,-1.097605873870386578e-02,7.929673881883128606e-02,-4.244962727793882146e-02,4.225110188144910739e-02,1.321960828534994026e-01,1.733333815468072678e-02,4.040332207589492769e-02,1.228016128673991847e-01,3.100346907808761154e-02,3.943669405140505513e-02,6.490081376939850488e-02,6.176541355648568904e-02,3.228930838932044661e-02,9.380886273413530096e-02,7.880209487448208705e-02,2.199257585007648869e-02,5.797519532426805705e-02,1.219906753701897537e-03,2.016944697921750629e-02,3.769275483390688297e-02,-5.813364803473314996e-02,1.266509221831177943e-02,4.209455175546765460e-03,-1.246150567942608117e-01,-2.122534480777671026e-02,-2.942539727412157510e-02,-1.687996435534604156e-01,-6.741840294520184962e-02,-3.688902272149207490e-02,-1.721867292874562638e-01,-6.682631948454735571e-02,-1.366114966790109471e-02,-1.361110929219067622e-01,-2.091959097765291875e-02,3.801458101544401280e-02,-7.755302780935904861e-02,-6.255200916707015675e-03,5.849413754094989759e-02,-4.521737882146163040e-02,1.442301052024806685e-02,1.017023732317593049e-01,8.843387578028880092e-02,-2.233400776413325267e-02,8.134272455662676371e-02,3.760505192967877192e-02,-1.889138186183285384e-02,3.786966128842501889e-02,-4.186917037441932610e-02,2.250681529985376801e-03,2.242601063999242333e-02,-9.611886209827402716e-02,2.722078789395185675e-03,-9.750926805803635661e-03,-1.446329684044627695e-01,-1.315754135422763683e-02,-3.702136194649589818e-02,-1.806913493249171221e-01,-5.289526799874692126e-02,-5.647174163254777696e-02,-1.967126693215514865e-01,-6.687339361663291459e-02,-4.596124463071282751e-02,-1.752945229194252663e-01,-5.041432595312306947e-02,-1.159893603940697834e-02,-1.288058974413353874e-01,-3.613262847452528015e-02,1.377393074623161490e-02,-8.990496215164953120e-02,2.987083506339161323e-03,1.787508963741122059e-01,1.348391375757803934e-01,-7.864804386694930483e-02,8.028506762715630074e-02,1.444946634810360953e-02,-6.861798179175811196e-02,3.752358025695746307e-02,-6.737019617262463012e-02,-3.085314067268706342e-02,2.556218738996948736e-02,-1.054266861494066870e-01,-3.762309295580737109e-04,2.465762083571992891e-03,-1.415422525155699829e-01,-2.545287597164969454e-02,-3.177871283429335725e-02,-1.837093012308557149e-01,-5.898140399762429736e-02,-5.681669113046557140e-02,-2.019954248226308036e-01,-7.561302528397699507e-02,-5.679845930226926076e-02,-1.849913319610834161e-01,-8.456132282825010171e-02,-4.163966023885773415e-02,-1.566784417119319317e-01,-5.709929962241239165e-02,-8.957078668677339456e-03,-1.154066856416089137e-01,1.729561127454749131e-02,2.456314873779794350e-01,2.007008689525902612e-01,-1.019415482133648881e-01,1.065783679622672869e-01,2.004284889905684486e-02,-9.223714136620593529e-02,6.125731522061493572e-02,-5.933562861013989831e-02,-5.388810071203121999e-02,4.343922587853948913e-02,-9.208271238197018871e-02,-2.804657354503402658e-02,2.508041685986953789e-02,-1.265730452840770348e-01,-3.088206473325818407e-02,-1.373613971417292010e-02,-1.679884011300851743e-01,-7.713118443175449868e-02,-4.347083967888072664e-02,-1.942481332443166120e-01,-9.918535717781190586e-02,-5.424771251031719477e-02,-1.875869750763764221e-01,-1.119898422378377140e-01,-5.119943956658100370e-02,-1.741111851238871799e-01,-8.796953096170202768e-02,-2.241443734122215009e-02,-1.318401526639572940e-01,1.389204536085204833e-02,2.558410429216987358e-01,2.163984799015201410e-01,-1.141159971339997109e-01,1.224659885811127946e-01,3.708399113731606495e-02,-1.126312908164736754e-01,7.323199857940594637e-02,-5.008589402347204955e-02,-7.001300055019299418e-02,5.957925219947032142e-02,-6.990083454627013526e-02,-3.233309091141249592e-02,3.878175171572005586e-02,-1.098790385849719026e-01,-5.257273094261967483e-02,6.378829023081570432e-03,-1.546145748531287112e-01,-8.576702097599687991e-02,-3.088601655056406187e-02,-1.800441506281181547e-01,-1.148288109318323091e-01,-4.674432401679357030e-02,-1.828091442579306558e-01,-1.354773769600921274e-01,-5.720052200120789854e-02,-1.735256825884025911e-01,-1.161378065269253052e-01,-2.756567417871130105e-02,-1.371726344941033016e-01,1.926806681070408755e-02,2.286552554873765020e-01,1.949255401791363806e-01,-1.045939955705485203e-01,1.147715401509801364e-01,4.685785515965851245e-02,-1.146109892134111186e-01,7.263077788439661897e-02,-3.602998504914471656e-02,-8.049212881373360440e-02,6.012670803985388501e-02,-6.806074959291472104e-02,-5.410382356345294630e-02,4.162849210820815382e-02,-9.412514685972724060e-02,-6.840283798368139434e-02,6.562561030246815211e-03,-1.383971516042048766e-01,-1.057923768161885131e-01,-3.027086209977657150e-02,-1.776579611351525867e-01,-1.283948632377045762e-01,-4.883899884400721286e-02,-1.691214844167757136e-01,-1.563021786056809082e-01,-5.908256896977372163e-02,-1.716933561595054558e-01,-1.317195529872323134e-01,-4.247119418994846352e-02,-1.378944871119547333e-01,1.853782831799419620e-02,2.114988209545952957e-01,1.783023233332622637e-01,-1.010399808708089403e-01,9.380561942146281584e-02,2.893402545767458436e-02,-1.038898383591476682e-01,6.446051720977005739e-02,-2.888985182349594963e-02,-7.430314019723589791e-02,5.546284468269110923e-02,-5.460123985903752447e-02,-5.867556854719525178e-02,3.285973761597706100e-02,-9.470093200459597793e-02,-8.424933164723158452e-02,4.139744940953177244e-03,-1.324568039204321868e-01,-1.182551215354897545e-01,-3.482064427736029921e-02,-1.683166620234019528e-01,-1.525994747947436447e-01,-5.972644601280587690e-02,-1.717708877706499160e-01,-1.730748594978359090e-01,-6.454594067316975214e-02,-1.631531430113047354e-01,-1.500437878531309666e-01,-4.411367645008578559e-02,-1.271828936562759138e-01,2.351465101044119058e-02,1.883442260003463098e-01,1.630034764965423433e-01,-8.356874735485103622e-02,9.126533555365576311e-02,3.190596171136486636e-02,-9.474261957244296817e-02,6.310354329926862182e-02,-2.555382304742656596e-02,-7.130966061616862695e-02,5.463952502129279520e-02,-4.452725339118171477e-02,-5.071293675712824217e-02,4.144388849588746815e-02,-7.500288619093262166e-02,-7.711227445272422765e-02,1.526543449695079435e-02,-1.035913824294717456e-01,-1.167095178277855194e-01,-2.048907206464921707e-02,-1.360634180315409836e-01,-1.494902312077485140e-01,-3.672907819013582209e-02,-1.420496845758083826e-01,-1.658588943487949441e-01,-4.659943299194643784e-02,-1.361513519640477343e-01,-1.444902952136569718e-01,-3.486705913074879259e-02,-1.054898239967966000e-01
2.545478159678036395e-02,2.730455265201486154e-02,2.584040207191552752e-02,2.732513718508319811e-02,2.531059962875233105e-02,2.484110770955406944e-02,2.378732916699221114e-02,1.862599839146613853e-02,1.575568678306080508e-02,2.298194450719607401e-03,1.129428300874869319e-02,-5.308778254961513815e-04,-2.161680451506868550e-02,1.119346448723976956e-02,-8.582278325687635323e-03,-4.411584266990917214e-02,9.212148794925928766e-03,-1.237963373233569135e-02,-5.253191992558984419e-02,9.661114579537841487e-03,-1.239276345761084613e-02,-5.015969849614528714e-02,9.778629682483276978e-03,-1.163150886420351131e-02,-4.109839622730183939e-02,9.819255304341171012e-03,-7.106678772345713380e-03,-3.357850137799280738e-02,1.345915778400702013e-02,-2.666507178085085125e-03,-2.775794981154122015e-02,2.834793492088832911e-02,2.700690315364012023e-02,2.548702280251695373e-02,2.215954546939519904e-02,1.818463764378012298e-02,-6.974535120721127995e-04,1.761843957581545050e-02,6.873284203578175489e-03,-2.284753087976496011e-02,1.693084691853704096e-02,9.345350282430010466e-04,-3.977940009180643000e-02,1.918281700746213986e-02,3.070159528637846427e-03,-5.165671921684610729e-02,2.301602940526111668e-02,-3.389572747955868666e-03,-5.466645374589011036e-02,2.066509237227630996e-02,-2.282417751488876462e-03,-5.647211747648478442e-02,2.260479761072747840e-02,-2.225449242826916564e-03,-5.226019138162156519e-02,2.038684252556122178e-02,2.915887008810735814e-03,-4.195078642202351715e-02,2.381094185217530121e-02,6.267724796458825666e-03,-3.450379412037364590e-02,1.728471795701319244e-02,1.616305636069506960e-02,7.503197996908019321e-03,2.121177057325911858e-02,1.593217112120073539e-02,-2.040253194192920283e-02,2.085887854852262746e-02,9.980053377272889159e-03,-3.613518711207099748e-02,2.097675445490448584e-02,8.742764782445813093e-03,-4.519697525760995455e-02,2.813792111133222446e-02,7.970367647423249463e-03,-4.866002130138008530e-02,3.229207606351470333e-02,7.660558793163402616e-03,-5.176977818641886886e-02,2.821526246516948763e-02,8.898792479193978755e-03,-5.662286314483748473e-02,2.675430613881819852e-02,2.867438734226969953e-03,-5.534768510714446060e-02,3.163467078240322916e-02,7.242019931926304069e-03,-4.642104518990550210e-02,3.028217683245319064e-02,8.710651638153488197e-03,-3.675271051049099069e-02,1.404458441768069790e-02,4.648020146350886374e-03,-2.206575878479054634e-02,1.813721198176519028e-02,1.209132201961031147e-02,-3.705454802840629780e-02,2.103768378622493732e-02,1.233137239419096823e-02,-4.904123816400543512e-02,2.571488188754143117e-02,9.198888535604136246e-03,-5.424875394353630836e-02,2.760188923254419668e-02,1.465415360549214736e-02,-5.063526155363989867e-02,3.063576042828569310e-02,1.297828755907248083e-02,-5.422731000097993220e-02,3.356639238936010017e-02,1.311167539874580693e-02,-5.342762583118638997e-02,3.056309547898020465e-02,9.726166514359197227e-03,-5.055236071052120195e-02,2.765008254641434376e-02,1.104590681730712592e-02,-4.509428857366571536e-02,3.012492042938944362e-02,1.244853167872196284e-02,-3.803307182854669122e-02,1.094142120682571606e-02,6.663293150046527974e-04,-4.124519343575337033e-02,1.702873688331005969e-02,6.093209262041269364e-03,-4.826950282367321182e-02,2.147028309857059933e-02,8.580826370898464450e-03,-5.570224900681047114e-02,2.181786865216448282e-02,1.176410832382250408e-02,-5.227665576899848815e-02,2.941558192859625165e-02,1.162606464131075643e-02,-5.097062693456173160e-02,2.919880992169859857e-02,1.157873831707613085e-02,-5.218687255105043665e-02,3.025934035226760313e-02,1.165043402109015337e-02,-5.538228482992058055e-02,3.088057656358461980e-02,1.198106643000779528e-02,-5.495853992572577451e-02,2.702644713776329935e-02,7.735611469655754267e-03,-4.758859512821934229e-02,2.913248047752731162e-02,1.020299567167747001e-02,-4.041782636854777261e-02,5.908888685362903744e-03,-8.540674654794171844e-03,-5.356389559879450035e-02,1.346897680455633531e-02,3.509861534624443211e-03,-5.650178812111580212e-02,1.563610416604322220e-02,1.050367117516991938e-02,-5.924728276340647526e-02,2.111612158178255427e-02,7.846915602253800096e-03,-5.504826406333507283e-02,2.356410544096415247e-02,1.075617028724201556e-02,-5.242078826295210048e-02,2.540582055166242317e-02,1.189514733652516192e-02,-5.491524690786932228e-02,2.460604729627515266e-02,9.782771506059443484e-03,-5.549702338456984768e-02,2.325361778979844612e-02,8.888533580874841827e-03,-5.248418979141838969e-02,2.094894106429505409e-02,4.518438180335747692e-03,-5.179897516957781417e-02,2.092669164530217008e-02,8.083026287754611905e-03,-4.242735452195869894e-02,-2.195073937502527509e-03,-1.814508262161467628e-02,-6.423899033115706980e-02,7.592976613985869504e-03,-3.764542327535252454e-03,-6.135985451679772801e-02,7.890286623522814805e-03,-2.500396717453248069e-04,-6.489279465536021418e-02,1.581240095614781099e-02,5.510822128677213272e-03,-5.983853863929416983e-02,1.890321881971256113e-02,9.989528953816162460e-03,-5.548236630466697739e-02,1.987574572283340446e-02,9.984383922349278004e-03,-5.416031436169407159e-02,2.212063992479670199e-02,5.942015167179130926e-03,-5.416565958263572234e-02,1.974344808329543330e-02,6.150002750788062696e-03,-5.185286277501247737e-02,1.848494199184079825e-02,5.047304293563365310e-03,-4.591511325657900155e-02,1.741529266957607402e-02,2.203119952353834593e-03,-4.176844575122416053e-02,-6.611973137239627804e-03,-2.464723342861724342e-02,-6.547510970307643396e-02,1.983421668159598798e-03,-1.319794805412305774e-02,-6.684661745532814725e-02,4.078043409444181630e-03,-4.734276312823575139e-03,-6.322289237737484247e-02,4.145545971212691479e-03,-4.217871585075172111e-03,-5.959755434438732125e-02,1.157160315215350829e-02,4.367781793074313954e-04,-5.300370361207369652e-02,1.077485760863631375e-02,3.757827620150415437e-03,-5.395243791906467745e-02,1.472410027566368323e-02,1.770983743738111307e-03,-5.441923455712265739e-02,1.356357421934011737e-02,-1.717947218062178608e-03,-5.198556035915093132e-02,9.821284144277766387e-03,-4.233241152767369501e-03,-4.694513162354956026e-02,1.324961705711285957e-02,-2.912882989279320239e-03,-4.143479386346132776e-02,-2.560800490427585924e-03,-1.770599905100821159e-02,-5.371682908314943244e-02,-1.040334772762892268e-03,-1.315113540554750660e-02,-6.267862923420310095e-02,3.450973989475520157e-04,-9.218919386108654496e-03,-6.339632525201016611e-02,4.107670417311597502e-03,-8.721785049226701836e-03,-5.988040981510581867e-02,4.875229722805706802e-03,-2.822331399730177749e-03,-5.323570503502372819e-02,6.162151999273787241e-03,-3.601390881232392933e-03,-5.280792666955221731e-02,7.872054387115426377e-03,-3.673669582128611874e-03,-5.171539511998380495e-02,7.105264047568479562e-03,-8.402563048662594833e-03,-5.184927872324889692e-02,2.680984433025985700e-03,-7.093569573262686542e-03,-4.914824656223095584e-02,6.967675867364834033e-03,-6.243180826979088591e-03,-4.138740000552515452e-02,2.116241205383390458e-03,-1.113845044509373210e-02,-4.523414896147438108e-02,4.643076447044869326e-03,-1.073014169636869394e-02,-5.345480452881461869e-02,3.120733113435848922e-03,-7.366597018717865701e-03,-5.640904401191076944e-02,-1.002856476871642755e-03,-7.172546402904638602e-03,-5.716039571421357990e-02,1.241108523822755452e-03,-6.046768914673395293e-03,-5.084661033589311929e-02,1.669515244552436349e-03,-1.005889533459700981e-02,-5.134725560000000938e-02,-4.036310817128489423e-04,-1.045160925968182525e-02,-5.046600658135535350e-02,1.677868319750174149e-03,-9.553415856036310411e-03,-5.190549115826872950e-02,-2.552775529155395032e-03,-1.235031275701940420e-02,-4.571885507611508220e-02,4.163503462856358098e-04,-5.081801405575573499e-03,-3.790942273689839465e-02
-1.147142453294389304e-02,-1.089696044456372852e-02,-1.463545734676125788e-02,-1.118275246579182071e-02,-1.383380858167659357e-02,-9.129825637636927033e-03,-1.316559307304758161e-02,-8.008522261990631830e-02,-7.827376317577189324e-02,-8.007616082943998237e-02,-1.363620685405120825e-01,-1.209769339292765117e-01,-1.216952067773407059e-01,-1.116443302516602343e-01,-8.695634536538694725e-02,-9.145069250518272908e-02,-3.475997001516886731e-02,-8.060104503944801047e-03,-9.532039684606599672e-03,1.250072117046653608e-02,4.025073109278821948e-02,3.521700939244518797e-02,1.834262672939747894e-03,1.995809220655476654e-02,1.692368079464405886e-02,-2.030662393150788753e-02,-2.874006590343011584e-03,-1.051181511905574864e-02,-1.930275116184127296e-02,-6.417067916896631793e-03,-5.673563447609320659e-03,-9.597295421662415532e-03,-7.329527188162637125e-03,-3.796205354396366832e-03,6.869889852663162849e-03,3.047148875609601709e-02,2.457950799711709766e-02,-5.443511126296912694e-02,-1.337455545358599840e-02,-1.211596448453337166e-02,-5.330213955207709770e-02,-5.541120857658279539e-03,-1.392928876350424915e-02,-1.521721204692980806e-02,2.719065137675232002e-02,1.810102226841510398e-02,4.855525260898280876e-02,6.919636604700951654e-02,6.131143267750031184e-02,8.932498132628061138e-02,9.901248329860715125e-02,8.783239890467024746e-02,9.530382779025839413e-02,9.364290173057876476e-02,8.240018449111977117e-02,7.150646544666217075e-02,6.304013635400261550e-02,5.040656490735726664e-02,5.982559581466545540e-02,5.828532011018872083e-02,4.342860477012879666e-02,-7.863786015540552565e-03,2.788059431008269723e-03,3.078630780359815564e-03,-2.637272571415862077e-03,4.207738682260764307e-02,4.325846188487462302e-02,-4.225257946815481197e-02,-2.570913077470250892e-03,-1.570431806993809187e-03,-2.624629866762871050e-02,1.096683298877847504e-02,1.247887333935220056e-02,1.786076461390206233e-02,2.723969865304252599e-02,2.430820992626295252e-02,7.363249928284225365e-02,4.740388410660927726e-02,4.590513037453790995e-02,1.129006705953268519e-01,6.381216460152276670e-02,5.744927824713058628e-02,1.240944023908150812e-01,5.864228211728409607e-02,5.177184830486356720e-02,1.143143691140135199e-01,4.860541909558777074e-02,3.634365975655030195e-02,1.000196162968822744e-01,3.887819895536927944e-02,3.147450339373069478e-02,-9.484371499309694406e-03,2.145010606988253382e-02,2.507040113271055692e-02,3.809911997331494327e-03,5.274083862022135166e-02,6.759828418188749966e-02,-3.378297745477174679e-02,-2.347043179108318500e-04,1.622376168591958823e-02,-2.148636821887570797e-02,-1.145264177804506539e-02,4.467361201945067861e-03,1.958933675055982843e-02,-4.285122358479941627e-03,3.431935797592462235e-03,6.786300085438605467e-02,2.842779237971699777e-03,9.430084489200424996e-03,1.056059347014450950e-01,7.866895696285217468e-03,1.675306813219073349e-02,1.212257908708231913e-01,9.401565721832877073e-03,1.456490222730206022e-02,1.199959801396958958e-01,9.688264826840781857e-03,1.005496347156619591e-02,1.054225487795773242e-01,7.718467846897559582e-03,8.494200656825948159e-03,-3.620554527896419073e-02,1.163746184307541329e-02,2.776188204615095967e-02,-2.221372517947129560e-02,5.559799436047399568e-02,8.710923720429826489e-02,-5.482426568790629839e-02,-8.794696585827202137e-03,2.779472633235074291e-02,-4.142791813085989344e-02,-3.081702119235857698e-02,1.800386985427935606e-03,-1.414526643066739420e-02,-4.303750811567768481e-02,-2.110947943604283769e-02,2.534157069707451346e-02,-4.848044832828209139e-02,-2.640233978884095473e-02,6.341158392505084895e-02,-4.260871778865252951e-02,-1.956345108218470255e-02,8.271720278900293599e-02,-3.773069678182087300e-02,-2.456970677344259141e-02,9.063286427865988037e-02,-2.280160336577610400e-02,-1.480178304467625987e-02,8.108680840385427968e-02,-2.084287387699238631e-02,-1.713957974398285997e-02,-3.170288135467617952e-02,1.985532944007895734e-02,4.342432170028420746e-02,-1.836830790267258984e-02,7.300437185241370752e-02,1.196410463577230188e-01,-7.463052136121092750e-02,2.182032273454495575e-03,4.694903228971384485e-02,-8.160974637868446957e-02,-3.739001813225321935e-02,-3.350095759960128664e-04,-6.655344140946536924e-02,-6.250426086286473004e-02,-2.417278757010150186e-02,-3.162606090263445080e-02,-7.536738466249674750e-02,-4.234747108898997969e-02,2.787695626380352724e-03,-7.786746096844350540e-02,-4.942840367008125707e-02,2.759094545817219329e-02,-7.200928733115914693e-02,-5.060971653859581976e-02,4.049257839463689390e-02,-5.180735355661612862e-02,-3.866896509533340048e-02,3.378737805835400898e-02,-5.074842458175214677e-02,-3.739232536621327901e-02,-4.658865277119142445e-02,1.083463132108054838e-02,3.258516085581469185e-02,-2.838175974876076119e-02,1.007558600176355762e-01,1.518261042046047671e-01,-9.037061258829368060e-02,3.159595255546428227e-02,8.326705428111200180e-02,-1.136793656995743335e-01,-3.145269619888008128e-02,1.446330547551687856e-02,-1.085945804407190407e-01,-6.950226989454770521e-02,-2.672921425434651721e-02,-8.253124742951323256e-02,-8.629471988813658401e-02,-4.568315469758985059e-02,-5.222123307900505135e-02,-9.369699847773765855e-02,-5.014905524273840370e-02,-2.986166616273072671e-02,-8.446504174437136081e-02,-5.738571192267868243e-02,-9.819313678436036169e-03,-6.507433573487693412e-02,-4.347819700560411060e-02,-1.228198873451610655e-02,-6.732960213861655108e-02,-5.009639051037359514e-02,-5.157804233076069417e-02,-5.051837053376946954e-03,1.748788049267657740e-02,-2.846613727210556624e-02,1.018919223871031093e-01,1.507938523003539977e-01,-8.097312274156438783e-02,6.172812434198959863e-02,1.104435713851333323e-01,-1.161205900814177294e-01,8.111393456591141360e-03,5.572436939598539307e-02,-1.231349183914093315e-01,-3.640952747439182152e-02,7.986181679886395629e-03,-1.187276752245415429e-01,-6.159507477080126275e-02,-2.171709613577151726e-02,-8.934400033319264689e-02,-7.413895314015694904e-02,-4.055592961207064862e-02,-6.740175481398215374e-02,-7.991560146685898480e-02,-4.820078688849539772e-02,-5.241582688478025470e-02,-6.631771077160188155e-02,-4.830745011237264769e-02,-5.650625223087114846e-02,-7.432786931745417880e-02,-5.438539281232419170e-02,-4.780495176722904249e-02,-2.755470820139395947e-03,1.211572583852258377e-02,-1.996966073202983277e-02,9.853513523978649213e-02,1.419661934703085326e-01,-6.011215690616979190e-02,8.869065192097612405e-02,1.308089594872941519e-01,-8.407206306472639334e-02,5.346138378249813000e-02,9.846899518091183079e-02,-9.838689182462498350e-02,1.998459799827859151e-02,6.396201391500518085e-02,-9.440315659577813712e-02,-5.651892958197946709e-03,3.383749905013614528e-02,-8.178512212762754918e-02,-2.880546615226039706e-02,7.840504087899824448e-03,-7.191900892640895604e-02,-4.550688233129222826e-02,-1.675730843089370120e-02,-7.060615947598426756e-02,-5.359011283151768334e-02,-2.438240194173691908e-02,-7.798626146105665236e-02,-6.270448821637795989e-02,-4.070399345624486215e-02,-4.166369847258226400e-02,-2.207993310129894096e-03,1.367456196617000512e-02,-1.743516685528186116e-02,8.678030492285070119e-02,1.214681124923796540e-01,-5.053778527922384023e-02,8.306089286859248688e-02,1.232802047832194381e-01,-7.043241749571280130e-02,6.172024747953149676e-02,9.470639963470152412e-02,-7.644240996570818292e-02,4.377570244821512441e-02,7.992614367837717892e-02,-7.340662360336540349e-02,1.899500347260724142e-02,5.732098048741447738e-02,-6.651687257842264778e-02,-3.039513670520490891e-03,3.448542275333026097e-02,-6.485425153077338523e-02,-2.629598282275544263e-02,7.918387258993016091e-04,-6.576473808021700285e-02,-4.178864001714596710e-02,-2.007859804890899449e-02,-7.177467137025353439e-02,-5.778395461095713059e-02,-3.629406963578666462e-02
-1.503825308557827090e-01,-1.529867200045962050e-01,-1.536510544761426345e-01,-1.510227743505160036e-01,-1.465714520253890707e-01,-1.455278345368606896e-01,-1.436963745366618694e-01,-1.000262808080529114e-01,-9.916425633435725639e-02,-9.325381738099682016e-02,-5.906078063023906949e-02,-5.374871703477734908e-02,-2.968559608306474765e-02,-2.651722022070130552e-02,-2.106381510672743901e-02,3.750763997191135235e-02,5.425455178337566103e-03,6.641235560725457926e-03,9.145504103652865591e-02,9.311468613895351049e-03,5.321233088881788947e-03,9.248137390145441672e-02,-2.037874810151515947e-02,-2.498097429038479561e-02,5.813672773314347564e-02,-4.088188275480279799e-02,-4.332708515653811016e-02,2.994637825858954133e-02,-5.420424083387367920e-02,-4.921892876914875370e-02,8.785563368022736991e-03,-1.468674840414460059e-01,-1.437353108835804361e-01,-1.440977958864366748e-01,-8.393977847391527469e-02,-5.021015917588247252e-02,-3.699080915760929317e-02,-8.596150039473412705e-03,5.080364109068508799e-02,7.660444164185850613e-02,-1.806458259778668390e-02,5.501138188472111390e-02,9.805788373034193817e-02,-3.843588159998276299e-02,5.258116976547437538e-02,1.248598254333021795e-01,-4.016991687573925884e-02,6.185943522756118945e-02,1.489058151788252848e-01,-4.109466556549590949e-02,5.181846184022435159e-02,1.532285023749957731e-01,-5.144586943559623093e-02,4.023558135320499940e-02,1.306224367840808365e-01,-5.341084555673080575e-02,2.669783530099140503e-02,1.157677361390445636e-01,-6.956153356213513883e-02,4.172983041646234105e-03,8.364947859044759293e-02,-7.756315753105384736e-02,-4.253927569811896681e-02,-3.776404625013050909e-02,-2.576188103181131089e-02,5.550664840472326750e-02,7.882592570677371402e-02,1.573283130120332884e-02,1.167053694271434350e-01,1.373835308473682071e-01,-4.604680860904191569e-02,4.653868345869607848e-02,8.447632416348765938e-02,-1.029990410372822601e-01,5.744897593294725525e-03,7.381423538010976892e-02,-1.380694935534722001e-01,6.821824988502440262e-04,8.381840127775691540e-02,-1.432266921843781682e-01,-1.418942594847960245e-02,7.906139232163396369e-02,-1.463343478160608058e-01,-3.080154070492933591e-02,6.310969846073341549e-02,-1.379589724121320082e-01,-3.241321350006811514e-02,6.158819531295836591e-02,-1.449512879103022622e-01,-4.627531045930232539e-02,4.408928566698204488e-02,-2.744497978965960289e-02,-3.082830977264118186e-02,-1.286100194935587727e-02,1.276410405437505315e-02,5.946893138201407580e-02,9.938563630844148011e-02,3.095158467639900005e-02,9.319137718740602705e-02,1.345888166497549165e-01,-5.060694706682856980e-02,1.815554107678239194e-03,4.716162615650619505e-02,-1.289050014392254528e-01,-5.301414533091199782e-02,1.640849229991733771e-02,-1.698615386638601954e-01,-6.664709300403193204e-02,1.925523362998055044e-02,-1.873166740178221212e-01,-6.672343950431716686e-02,2.260955161177331807e-02,-1.960069238434922756e-01,-8.621612429106823017e-02,7.924872403358308032e-03,-1.681552425705165610e-01,-7.907594205672402454e-02,1.372750747918773453e-02,-1.653597949405636036e-01,-8.435082010733686853e-02,3.362829411168353176e-03,5.361944082659577532e-04,-1.123609436445308085e-01,-8.871375380245072328e-02,8.117005536128406307e-02,3.848273373569099931e-02,8.217298514054276193e-02,7.340133633161001481e-02,3.361727345723389965e-02,8.084394765745499256e-02,-7.710123050780943836e-03,-7.769917958571088967e-02,-2.294787011826723497e-02,-1.000885116697189381e-01,-1.362289709953959926e-01,-6.748401967107629795e-02,-1.496490462163978796e-01,-1.355990469891856509e-01,-5.446988656208637258e-02,-1.682310402678588723e-01,-1.339155990338372348e-01,-4.741868052956923346e-02,-1.657657561928824463e-01,-1.392160678205663360e-01,-4.626537952580687257e-02,-1.435725618271907478e-01,-1.168679280166732143e-01,-2.115770967060309413e-02,-1.387903699698175841e-01,-1.260180770597043309e-01,-3.499665240890291462e-02,2.529619552904108226e-02,-2.010300225075974390e-01,-1.808871556154506566e-01,1.631749564490545812e-01,2.183703646968277595e-02,7.282417852675382441e-02,1.586167391276146199e-01,-9.217330865160997672e-03,2.940310473079407044e-02,8.069517500039341540e-02,-1.245485497229280314e-01,-8.264534910689172453e-02,-1.228939397972665312e-02,-1.838624153846410703e-01,-1.243860305350716761e-01,-7.354738791309523016e-02,-1.780987767355001750e-01,-1.177443621886127972e-01,-8.473323736352363078e-02,-1.720880419866287481e-01,-9.565264623394689747e-02,-9.582974189862848713e-02,-1.742598674684467386e-01,-8.522703160702771452e-02,-6.219881117280440935e-02,-1.353117327347793664e-01,-5.985742933570948471e-02,-7.277268032682289445e-02,-1.471555952916015209e-01,-7.007407596097502134e-02,5.746666578376949386e-02,-1.976609809100054460e-01,-1.934707672070890283e-01,2.374798137391470332e-01,4.177932226366563168e-02,7.177475033092807488e-02,2.491902573710005064e-01,-2.141506996159176900e-03,1.124891629700564000e-02,1.874604121952302693e-01,-1.086956882438113309e-01,-9.916098256158692448e-02,1.103014927055547822e-01,-1.685259834827639025e-01,-1.406072892868769353e-01,4.506048588049512554e-02,-1.819878164152118893e-01,-1.325686081832380958e-01,2.934492535485377571e-02,-1.659424827214224518e-01,-1.117843165137051703e-01,2.391054031879983471e-02,-1.658636167596232169e-01,-1.022501080198020690e-01,6.353450410786487534e-02,-1.240564115765630943e-01,-5.677932690714714015e-02,3.798759698364134740e-02,-1.335767437444750350e-01,-8.148928857537703074e-02,5.186904217565087294e-02,-1.679056700025187976e-01,-1.701959466789815800e-01,2.686559293056429709e-01,8.486050796657657047e-02,9.869159598849790160e-02,3.114992311435443306e-01,3.058826158585885996e-02,1.203371780408887814e-02,2.950071102825707059e-01,-5.658143781714177617e-02,-7.265362270852493420e-02,2.200813542250026067e-01,-1.241575283482979630e-01,-1.250277603403321669e-01,1.693065170211006665e-01,-1.465021628145453392e-01,-1.242276573053360811e-01,1.607280646422335202e-01,-1.362635894768141620e-01,-1.095507230781819774e-01,1.650999008345464536e-01,-1.323919271150484911e-01,-9.703223153404287593e-02,2.032808049133454642e-01,-8.835072268552672525e-02,-5.300015946666588457e-02,1.623488341370435961e-01,-1.071638381253740002e-01,-6.750610201518295050e-02,3.401089510739357946e-02,-1.664959936774327298e-01,-1.694660801802964079e-01,2.529150155150166612e-01,9.796099427453366926e-02,1.102770708491327273e-01,3.417493487229215088e-01,7.837836361533920271e-02,4.541888577067038080e-02,3.535101906082503409e-01,9.631614747898080420e-03,-1.997975719269382694e-02,3.237574375390612769e-01,-4.948521144745577499e-02,-6.879292708039129456e-02,2.951796423146986204e-01,-6.950995136549653619e-02,-7.096378187520513414e-02,2.954778470288127457e-01,-6.050771228285122677e-02,-5.727946775012082714e-02,3.009173573211486041e-01,-5.293983955574130262e-02,-4.247216802135293789e-02,3.188685093197575204e-01,-2.666997944819767680e-02,-5.201153948866990215e-03,2.718166768583907267e-01,-5.086893110168845544e-02,-2.820169762260412924e-02,1.600154664173937535e-02,-1.633694357459914148e-01,-1.690415947702723909e-01,2.123683817258542050e-01,7.197300238556028629e-02,7.598825784299481634e-02,3.016066675423028087e-01,5.879547570623026853e-02,3.135819210135647878e-02,3.390059632106917631e-01,1.399754878322792204e-02,-2.347189355871596300e-02,3.277329317926607199e-01,-4.368645372862093451e-02,-6.650132104074310546e-02,3.288395871226298950e-01,-5.491534125496053131e-02,-6.222395666760233840e-02,3.251843000108328163e-01,-4.559703656443028774e-02,-4.311890439452154000e-02,3.209307024241555562e-01,-4.666276095641967714e-02,-3.801032608289737352e-02,3.333570675052165977e-01,-2.765130111182283537e-02,-9.863321123858249592e-03,2.811609364168581315e-01,-4.062164514517237202e-02,-2.640363799546386475e-02
2.826755402263261135e-02,2.575068518783783789e-02,2.783413307932285086e-02,2.806916758975882414e-02,2.581842859151203817e-02,2.778953429304123479e-02,2.481059275917789353e-02,1.062307598336426767e-02,1.777675440594201489e-02,1.986452685552250741e-02,7.508583728211653402e-03,2.065711633471480069e-02,2.489712280290530544e-02,1.102424170507390611e-02,2.719867695680491457e-02,2.653660266732048995e-02,1.328051170086628346e-02,3.236079334018676645e-02,3.354564874959775622e-02,7.501420907241790337e-03,2.352622748957291371e-02,2.651371272091373674e-02,8.094574477330775814e-03,2.131419799272250143e-02,2.390517396892667679e-02,7.240591389928136869e-03,2.162100606735356534e-02,2.771018631217173067e-02,1.095046019823472765e-02,2.168122938310830181e-02,2.863301284330236132e-02,2.352365366533253760e-02,2.389246391732391395e-02,2.516099006384505538e-02,3.819201346302929234e-02,4.687044051700287040e-02,5.511018071703303878e-02,7.523038744599279057e-03,3.874821624615391868e-02,4.370750262385231233e-02,-2.314353705800221983e-03,3.950970294296680257e-02,3.838894168558894954e-02,-1.148501471278694577e-02,3.597194174671083239e-02,2.013237119107563061e-02,-5.784386005771627835e-03,3.324182810021010515e-02,1.943353639151798595e-02,-1.185643826716519661e-02,2.688712543704512709e-02,1.317824141873657345e-02,-2.972282468963034774e-02,8.716860061865575049e-03,-2.538497781937533622e-03,-1.989443132000833295e-02,1.142268748978990736e-02,6.796766826342974174e-03,-1.505879405115520715e-02,1.531246032792906581e-02,9.520027251740663388e-03,4.178270925181979539e-02,5.331370378202560795e-02,6.090917514063536736e-02,1.084295135909049690e-02,4.831978944629328893e-02,5.806872949042376358e-02,-3.462365849331597301e-02,2.949263497224603736e-02,2.817404834009267292e-02,-4.689366459937278908e-02,2.954221227517864895e-02,1.003913099373455325e-02,-5.058398153295205757e-02,2.301599245073590941e-02,-1.610806730677038362e-02,-4.523909096161995297e-02,3.017926654697180439e-02,-2.023745499345680487e-02,-3.981739960428925390e-02,2.277382745293571320e-02,-1.889995330343881633e-02,-5.423270172414917933e-02,2.354388466043084126e-03,-3.836748849530752931e-02,-5.048680315260876267e-02,3.750381365573516451e-04,-3.628046943762351650e-02,-4.127279014338264967e-02,2.040516303521457131e-03,-2.242174106038130263e-02,3.423863736424247878e-02,6.793177652308833581e-02,7.475697345913015490e-02,-3.455954970341774957e-02,2.925010915004702325e-02,3.677617027262866656e-02,-7.437677626894571847e-02,2.202132038424330779e-02,4.719621775482467536e-03,-7.661030940758978280e-02,2.571758193313913865e-02,-1.607448894881825102e-02,-8.021975673339354351e-02,2.888409349537635756e-02,-2.882869847536886215e-02,-7.464925539371548846e-02,3.069542877096789746e-02,-3.426454551663068310e-02,-6.991513572188498560e-02,2.832206941949682102e-02,-3.947284752156875187e-02,-7.880747445826725983e-02,8.315219300055010782e-03,-5.377840025374742983e-02,-8.458008296955048244e-02,-5.996498287911702571e-03,-5.761001752206712512e-02,-6.565354427963204786e-02,8.572342585684830651e-03,-3.991234196794166827e-02,9.332783408841038159e-03,6.297200999288761480e-02,6.852626972489592183e-02,-7.200862217420976596e-02,1.885865200774153316e-02,1.054531014673087443e-02,-1.031610754480873637e-01,2.204621641115736205e-02,-1.258449833788398073e-02,-1.073029313916528116e-01,2.857711390421499228e-02,-2.545573537711530443e-02,-9.966682159209874770e-02,3.777529302986377263e-02,-3.599476090897213432e-02,-9.182248900649457590e-02,3.974695581689913909e-02,-3.351287450687986946e-02,-8.530054794284253061e-02,3.880496909951572371e-02,-3.758745151827067726e-02,-8.976475897844622687e-02,2.588368988374697283e-02,-4.716447962024581525e-02,-1.025433273207288082e-01,1.171479885030191070e-03,-6.191749347406556164e-02,-8.089664213602390519e-02,1.506432916886200554e-02,-4.014971533900725531e-02,-3.072247491974540098e-02,3.704803968354104110e-02,4.189485153538721751e-02,-1.090222815475979101e-01,4.176814586645043355e-03,-1.285555962692418522e-02,-1.284054897598813361e-01,2.312431438647181287e-02,-1.745526108798416479e-02,-1.217447302662405390e-01,4.302174490027921294e-02,-1.297088403029999538e-02,-1.097975428405812831e-01,5.622459873101775391e-02,-1.565527616862938051e-02,-9.841218927474383593e-02,6.243044127979015256e-02,-1.176988758501929314e-02,-8.874137575953000567e-02,6.455665149530145919e-02,-1.810339091419321811e-02,-9.198603263363920590e-02,4.658423708844827704e-02,-2.463893851831202436e-02,-1.096755956776207241e-01,2.327432713575275022e-02,-4.415515138113147720e-02,-8.887475342122741484e-02,3.408211325813224196e-02,-2.339812574267684936e-02,-4.324785262617905635e-02,2.496138354114944141e-02,2.412467230394148288e-02,-1.305203509629101200e-01,-2.252064743328667518e-04,-1.736682367106625116e-02,-1.399283770801906523e-01,2.872771605157379768e-02,-7.551855685973398423e-03,-1.243182780253481723e-01,5.758396666424120403e-02,6.918147532773379592e-03,-1.052239819891680750e-01,7.707368539555727038e-02,1.437497968556662731e-02,-9.194683864769261084e-02,8.754331002121464034e-02,1.494017238212237003e-02,-8.617543086426224241e-02,8.915028198698000950e-02,1.512750144873542882e-02,-8.851372188038532374e-02,7.484460390002012353e-02,-1.497827086841096566e-03,-1.043690803592851601e-01,4.505371448689250713e-02,-1.783571826367253560e-02,-8.372606486202364973e-02,5.809217718671654679e-02,1.077958210526897085e-03,-4.492543345455972392e-02,1.919946685888607868e-02,1.838263381996603496e-02,-1.209800769674551357e-01,8.968891806183688920e-04,-1.503875830490665304e-02,-1.334694156204212501e-01,3.209785812847169156e-02,-2.173928403513005446e-03,-1.153045812668206938e-01,6.838068586019949158e-02,2.230584261724895268e-02,-9.923095258357250703e-02,9.273098813607374979e-02,3.160879867074101873e-02,-8.768652086205445950e-02,1.081529510285407364e-01,3.439634757920478902e-02,-8.169388050402294488e-02,1.041454328817581210e-01,2.990758161620031205e-02,-8.016881408802195574e-02,9.525245562110593034e-02,1.917975521771343728e-02,-1.007441960873847187e-01,6.782610207202678654e-02,-6.440907804370200711e-04,-7.730748113410040867e-02,7.458427463783029454e-02,2.088647006360966341e-02,-3.553576700060101512e-02,2.055695030101047094e-02,2.457539914139584766e-02,-1.080870128489132137e-01,5.268186686664009730e-03,-7.109304280559304405e-03,-1.169130662777561058e-01,4.461115553250349919e-02,7.915871441744338696e-03,-1.045133094971157084e-01,8.131631973484801379e-02,3.194604034938271220e-02,-8.749455166534124417e-02,1.054409421124089807e-01,4.356565252151423789e-02,-7.067473856003243793e-02,1.252494162562736990e-01,5.082530992138346859e-02,-6.538638642036596893e-02,1.239994577077159349e-01,4.754333321285434538e-02,-6.593702342988924658e-02,1.166977899093815524e-01,3.450681569645646513e-02,-8.142477164518382993e-02,8.796873478852665351e-02,2.141548161260237171e-02,-5.917954156386712183e-02,9.357684707213957676e-02,3.122468229045671784e-02,-2.823661909061428790e-02,2.001778986756766465e-02,1.992763564665638726e-02,-9.467891023978747267e-02,9.688347988411831480e-03,-5.414706226147967573e-03,-1.083371000910290649e-01,3.787406386324094348e-02,6.974786541375259906e-03,-9.124991525651107716e-02,7.480688324098680453e-02,3.281502892598178733e-02,-7.016872663598114346e-02,1.059336918038362441e-01,5.179616750082779303e-02,-5.460683037012624419e-02,1.315996670146667435e-01,6.199122593741665521e-02,-4.355540142557282057e-02,1.327787151071294358e-01,5.994339679260320131e-02,-4.920255232223955111e-02,1.256826002346625448e-01,4.640936303863602702e-02,-6.391805866600609731e-02,9.624798440920787068e-02,2.845028673092611649e-02,-4.378369815603138510e-02,1.017449368380885927e-01,4.024151143447855100e-02
