-1.437199251396487631e-01,-3.711082658578562874e-03,-2.487290068274373642e-03,-1.885821864913909138e-03,-1.839671107803971884e-03,2.203164269028150962e-03,5.827541253464011166e-04,8.547894724758285396e-04,-1.712764452328593501e-03,-2.177267612610609250e-06,-1.670819577690110629e-03,6.472726682858851322e-04,2.317920255161030983e-03,1.161934456630563106e-03,-1.023132090628452173e-03,1.427320901615872391e-03,-1.683480429520367843e-03,-7.660564312783292237e-04,-2.489480282813089865e-03,7.559964337336247441e-04,1.294380322093255690e-04,9.324680909596102770e-04,-6.902772078602232740e-04,8.974577579351961012e-04,-4.029001587878565426e-04,1.921392448645830404e-03,-1.668925087444106782e-03,8.139231385671058484e-04,-3.697580086169533972e-03,-4.064263363235582488e-03,3.843636843773502883e-05,-1.890189929499788571e-03,-2.293702725062573406e-04,1.910962804244298536e-03,8.028627117630748010e-04,3.276055032451049166e-03,-1.132930706517357514e-03,1.262730222755234499e-03,1.318784035217084386e-04,-1.198003010749607803e-03,-5.037361048857496790e-03,-5.627255068598764750e-04,-1.189155527072319500e-03,1.555467926560424787e-05,7.308941243116927203e-04,2.371266856358539548e-03,-1.234738209808101646e-03,-1.044287704215867557e-03,-2.481913387917513304e-03,-1.991154671381144877e-03,-1.073203780695242181e-03,1.811892425541525471e-03,1.001135689156104364e-03,-4.180379637822391925e-04,1.309647184397253969e-04,1.451496412846329208e-03,-1.288185165906811577e-03,-1.671370681812761345e-03,-2.521809321188735187e-03,-3.395361897350364540e-03,-3.708705532529828035e-03,2.399912092767372915e-03,6.068502364054245116e-05,3.749638287360158688e-03,3.729949791858255381e-03,-6.194288670444080512e-04,-2.061265708521501077e-03,-5.976727019086078892e-04,-8.017006342719872796e-04,-2.674387764263048105e-03,-3.964619000174799367e-03,3.423993770391106552e-03,3.654328906782467346e-03,2.327398563323412710e-03,2.291966804159556535e-03,-4.973449169016804904e-04,2.319827595808773412e-03,9.394376225909872261e-04,-3.609961011010313827e-03,-3.248415604438511985e-03,-2.286890985617153621e-03,-6.874602757653367618e-04,1.397331767583065442e-04,-6.577726975227672374e-04,1.900099584555796708e-03,-8.462748186480603067e-04,-9.361965691195552270e-04,1.090289064888013131e-04,-2.067603226181746832e-03,-7.107053834737260328e-05,-4.250981035328156230e-03,-8.900145212426669285e-04,-3.114492866808418726e-04,-5.084235360683146644e-04,-2.224103552177125374e-05,3.047058048091533418e-03,-2.489590741346974444e-04,2.509769527901688311e-03,-9.115136744007162331e-04,-1.319809871944895106e-03,1.483927458799817051e-04,7.746207597759492691e-03,-2.648165027147102515e-02,-8.299557508391763871e-02,-3.424189125237276504e-02,-1.109136985834386149e-02,-3.174282252334054318e-03,2.444011761437621735e-02,4.220874690647673060e-03,-1.736438020227652410e-02,-2.239475428928105333e-02,-2.035830538865988221e-02,-6.584707355026335474e-02,-3.394578637867803894e-02,-1.157509084218632731e-02,-1.998546054450872980e-02,-1.597512125196117946e-02,2.761716138935932721e-02,7.589150908109382199e-02,8.954047095820862057e-02,8.011898403676732949e-02,-3.117365943621845312e-02,-5.487366205564866983e-02,-4.717448508794263445e-02,-6.369383733414714366e-02,-6.899889314221109571e-02,-5.107665997716970968e-02,-1.786409003293955300e-02,3.288917142818086059e-02,9.754644938954482036e-02,1.155234545841547222e-01,-3.830628137098450459e-02,-7.224611692853273592e-02,-5.633653620733553025e-02,-8.219097312019081614e-02,-6.936618417269643788e-02,-3.432882002299211116e-02,-1.813799314304479198e-04,4.172978518541699267e-02,1.178529972121760971e-01,1.635986021110533706e-01,-5.498572718112115787e-02,-6.634873429332174832e-02,-5.967496593207591987e-02,-8.156551460987263025e-02,-6.598498573437680537e-02,-2.382357666600295326e-02,1.132633149892611941e-02,5.167000271986473686e-02,1.232501810383411639e-01,1.803859839905116447e-01,-8.287876131695208481e-02,-6.273458166065035146e-02,-5.650259714098723740e-02,-7.949855637895508753e-02,-6.655181728581727185e-02,-2.602231718097360036e-02,8.450836284979938717e-03,4.593585035232297664e-02,1.187280091755770761e-01,1.710196506394666138e-01,-9.649215560076453146e-02,-5.126575657179129053e-02,-4.440043546930182161e-02,-7.101880263013111982e-02,-6.160849058638661474e-02,-2.622555727535937076e-02,2.859199213414619078e-03,3.870680610543127814e-02,1.030586732197073946e-01,1.515900644523878460e-01,-1.133744099721706727e-01,-4.464103026412390152e-02,-2.994683547245612087e-02,-5.706712603423712976e-02,-4.485387374988283882e-02,-1.373055688386709723e-02,1.010529469356646892e-02,4.694576992151132389e-02,9.194530819563637158e-02,1.296043331779554719e-01,-1.282648791158025325e-01,-6.807317423046618798e-02,-3.771990251516346010e-02,-6.131420064041137596e-02,-4.540532034910866460e-02,-1.141751395263614251e-02,1.823044891044608290e-02,4.240451954814117991e-02,8.674341246951441931e-02,1.172592759541153523e-01,-1.362362877517981630e-01,-1.108495520772862369e-01,-9.579655040925029452e-02,-1.237842296640356138e-01,-1.175548138052204122e-01,-8.836716222564316991e-02,-4.416518806238988598e-02,3.856929408012634789e-03,6.684394797548576239e-02,9.977759053810850154e-02,7.405435624460329075e-03,6.912939278033348837e-03,8.333575610663749786e-03,6.807412442633003699e-03,8.063074687900777943e-03,5.079182122924713605e-03,6.924765523572139030e-03,4.894923231479108260e-03,8.962397276459308990e-03,9.214720957779570093e-03,8.467726494138922561e-03,8.834969583660231066e-03,6.052124667728818290e-03,9.533375594344901602e-03,7.573109574950769897e-03,5.188951654535219234e-03,6.030438831453836281e-03,9.827937417237296927e-03,8.528919462144938027e-03,8.953764140148451345e-03,6.967033039928551864e-03,7.688517955350055756e-03,9.226994655229713016e-03,6.969219994153894211e-03,8.865129248440661511e-03,6.271545941965284317e-03,9.283562027420163773e-03,6.305241484517526418e-03,7.619685184938302693e-03,9.271783625622599320e-03,8.036800534510508964e-03,8.956586573498594855e-03,9.365063108565127234e-03,5.171316737083953355e-03,8.923283343503354836e-03,7.757789539160682424e-03,5.970296588504580074e-03,8.484431855852273344e-03,1.050306504478996754e-02,9.758568301570458292e-03,5.554831961458199172e-03,5.360510697864111739e-03,5.715886428655382774e-03,8.594866272485847739e-03,9.153473616455120102e-03,7.840070175381755324e-03,8.204312135410812834e-03,1.051686351345515295e-02,8.697498222343330934e-03,8.138900494001819613e-03,5.363984589694158547e-03,9.030395556823467632e-03,8.941890591947779937e-03,9.368392046552747460e-03,9.192096941764619708e-03,6.474201707362877214e-03,1.025637821319007326e-02,6.594729600055000175e-03,9.916000302560302668e-03,6.911748827767742048e-03,7.011143522306638974e-03,6.662044902718196847e-03,6.226501555856069244e-03,5.564846753974009123e-03,5.404582110267680192e-03,6.767883492582613299e-03,6.385687490042102517e-03,5.851280366223766960e-03,7.323329145248212713e-03,8.496264691680759443e-03,4.318510682181930967e-03,8.168736490127975758e-03,7.649287857905022470e-03,9.356408509075559571e-03,7.678960422756146362e-03,6.984895825778082712e-03,1.029534000847324819e-02,9.781957488467989126e-03,6.574966682267985828e-03,9.677244030533148703e-03,4.847379418630701903e-03,9.562856286091376071e-03,6.581318392815319399e-03,5.195501714871265421e-03,6.935385745055822233e-03,6.897775854486436556e-03,6.489987199631690531e-03,8.146234294724583741e-03,6.788312022921506178e-03,7.108689005418431829e-03,8.030114712766385499e-03,7.248123202544036643e-03,6.969780502650060536e-03,7.771592046664743160e-03,6.951001822884817632e-03,7.945649204352063857e-03,6.604848106571459092e-03,7.952481567375505045e-03,8.019083316516373641e-03,5.792110943219533348e-03,-3.650498092607472756e-03,-3.843508775811173370e-03,-1.430322254152463870e-05,-1.235556653421058214e-03,-3.522484107781041675e-03,-2.042319445059035971e-03,-2.260136930632961581e-03,-1.447504110588226141e-03,-3.559105779130144424e-03,9.065268107299847200e-04,-6.339691924399836137e-04,-2.849207161024885134e-03,-1.936836689981960612e-03,-3.133933784197548682e-03,-2.532904207509318207e-03,-3.646905475666793479e-03,-2.542417786272330605e-03,-2.967805951048223690e-03,-3.127251267654052296e-03,-1.535225900731896492e-03,-1.039795444634729685e-03,-2.799741370956380102e-04,5.054485674856736086e-04,-2.820021132807018233e-03,-2.022976313785132974e-03,-2.719782416228126633e-03,-1.865745388935170996e-03,-3.754807119425517415e-03,-1.104878722228529696e-03,-2.280391642369467183e-03,-1.537677306982534325e-03,-1.739029551938113928e-03,-7.772930297225626541e-05,-7.023235477799598782e-04,-6.828076793823849950e-04,-1.201567108808335779e-03,-3.548554152048425704e-04,-1.403097907865947635e-03,-3.845629670459901287e-03,-2.567119044000862934e-03,-3.976948537053713248e-03,-3.506030441187894201e-03,-1.294278880016417211e-03,7.425626236217478795e-04,7.644530188096997905e-04,-3.476650785702355573e-03,-1.794006903831736133e-03,-2.860212290519934062e-03,5.800603448335070445e-05,-3.143715540115241212e-03,-7.738507760294961691e-04,-2.846801649517147464e-03,-2.000981016909365601e-03,-2.585152003112021015e-05,-2.810311921655697740e-03,-1.215830959115395387e-03,2.323874672832872558e-04,6.104274405539446453e-04,-3.359616066638215510e-03,1.375375501721341363e-04,-2.285053212506063254e-04,-3.836374857416981633e-03,6.934791287088000120e-04,-9.184082685533332237e-04,-1.271483030040352919e-03,-1.634503875089942174e-03,-3.610414865697793557e-03,-7.505177559691235878e-04,6.575313062753976659e-04,-8.336170833074353160e-04,-1.015608876492605367e-03,2.014350926719623062e-05,-3.022605290592115298e-03,-3.992924831989334324e-04,-5.780856772892281658e-04,-2.714140025736633830e-04,-3.103631038124257582e-03,-1.421278350177003925e-03,-1.843792358277424786e-03,-3.846785991229892138e-03,-1.881469244117204296e-03,-3.226482286465277415e-03,-3.695976669161880977e-03,-1.828222092005093384e-04,-2.442015808034035586e-03,-4.700881656870370775e-05,-2.107498273797144429e-03,3.339786304290910581e-04,-2.506106729841936585e-03,-2.669795493418186932e-03,-1.096793792570559083e-03,3.703230270136022772e-06,-8.691374093410076198e-05,-3.725856831778829020e-03,-1.193572911499405417e-03,8.958166274230832315e-04,-3.386582037141613096e-03,-8.685821912890260817e-04,-2.378917616348293507e-03,-2.032996869821583705e-03,-3.001604858792327780e-03,2.338410900900299641e-03,-3.957534375300011953e-03,-2.651303368035084866e-03,-1.752182296835824498e-03,-2.264308903641606453e-03,-7.032891443529667302e-03,-3.690029571973666399e-03,-2.090360859149431594e-03,-1.510561293288133038e-03,3.072993399588569256e-03,-3.587720701623190291e-04,-7.607372634690010016e-04,-2.307955949023770149e-03,-8.936088441594751235e-04,-2.878944870502667813e-03,-3.427257970448759506e-03,-2.116476608112426681e-03,-6.842598970655969746e-03,-7.329165595509470194e-03,1.920572172017181913e-03,-4.191838453699736448e-03,-1.890417876178480385e-03,1.782733731217415172e-04,-1.754646650275145259e-03,-1.716811171925422845e-03,-2.954140216154205276e-03,-3.624847701638684704e-03,-3.992569187364768298e-03,-7.240977285658864622e-03,-1.674372394269071094e-03,-6.228791689971204318e-03,-9.539279901856419523e-04,-4.645449168296473391e-03,-3.504485018473416265e-03,-4.708325785824284300e-03,-3.462394921002050815e-03,-2.159103870175181367e-03,-5.524874854730625617e-03,-5.092144794087526474e-03,-4.736951319306847985e-03,-8.330496420464870988e-03,-2.857246540046667893e-03,-7.024835156393028843e-03,-3.879234478195094701e-03,-8.364660240132120242e-03,-8.240562414595550486e-03,-4.890814005891410028e-03,-3.803959709849242306e-03,-3.359070207459263768e-03,-3.969616203344669692e-03,-4.360013491740979789e-03,-2.433407090162726522e-03,-4.633242782006508249e-03,-4.547192342235969846e-03,-5.832924713188797697e-03,-9.139449463882072522e-03,-8.974245993010948261e-03,-7.404692916171330686e-03,-1.764358273028043909e-03,-1.647017334691197469e-03,-4.611260128251357289e-03,-4.581727633378964576e-03,-3.540031815235570364e-03,-4.507850354496791175e-03,-5.086423032524622391e-03,-9.863151416093939375e-03,-4.121402052891266592e-03,-6.262246631989164085e-03,-3.152321823347408077e-03,-7.843864588375237562e-05,-2.718313175280961166e-03,2.320174176677750110e-04,-3.822668428935712456e-03,-3.426809090491181233e-03,-6.222173056223551969e-03,-5.032471834801858883e-03,-2.407292262219343140e-03,8.313511420019348720e-05,-2.377134742895125772e-04,-3.302946413062846261e-03,-1.628426204986158999e-03,4.931919857593517517e-05,3.068322714366232898e-03,-1.491802650759277817e-03,3.907255033946918134e-06,2.484716599906092345e-03,3.418291443943255372e-03,9.101374370044655908e-04,1.612737459053541862e-03,-2.203192294142945762e-03,-2.780561038399293698e-03,5.606805929465906446e-03,8.067349392292505472e-03,6.454400424304694572e-03,9.505382331010808761e-03,4.424078839181317876e-03,6.380744753669964804e-03,5.777727936342509467e-03,3.343929913883074076e-03,3.495711252333071409e-04,-2.119228574870566425e-04,1.165207067226005063e-03,2.031206741412168448e-03,2.898550729115201979e-03,2.068632305952740075e-03,1.868291343361854796e-03,-6.887484902485394500e-04,2.326742240414362162e-04,2.072541386042380147e-03,-3.220823410949100098e-03,-1.635483688600601095e-03,-1.149629496410774785e-03,2.074183962046457531e-03,6.051994893685692717e-04,1.852248597667835710e-03,5.950074054203455601e-04,-5.850958546141475647e-04,1.008544966712124954e-03,-1.811467718050977004e-04,1.833169480892626012e-03,-9.733105656734099319e-04,2.995414686781642903e-03,2.369263445489477697e-03,-4.813338474403656237e-04,1.957705836932439707e-03,-5.192512592626519078e-04,3.780176628198552314e-04,1.949386420486262346e-03,-1.074903438390991143e-03,-1.388363907162729581e-03,-2.457251875682447051e-04,-2.110972526834935562e-04,8.136342911157717168e-04,4.352428408972188779e-03,4.423226706597782609e-03,4.894867915911536513e-04,3.687551085256785856e-03,2.543989108250012225e-03,2.075236201598168115e-03,2.018406475350429091e-03,2.165021292706307155e-03,1.730300079033869230e-03,3.457541383815979606e-03,4.507394603233445471e-03,2.423934434455033999e-03,4.717000753120085231e-03,2.447103938519610503e-03,3.434446389919543121e-03,2.433559235669921581e-03,-2.693197845322226752e-04,-4.006843371279088695e-04,7.440112100833072388e-04,5.416001700284234395e-03,3.789696011913916852e-03,2.654101446288962239e-03,4.616824830912188288e-03,2.641482531584970171e-03,1.364624215486584568e-04,1.124074808297667594e-03,1.082105491487990370e-03,2.102260644707758860e-03,1.737733257405327941e-03,4.084670610998358993e-03,1.127875603895583684e-03,4.140586969958654114e-03,4.285123290816660740e-03,2.635042175693101327e-03,3.535878526653659162e-03,-9.396929341376509138e-04,2.183166099289880410e-03,2.864484954360771007e-03,2.301497131370115311e-03,3.250791440757138089e-03,2.416351779209106702e-03,2.081362487447703958e-03,5.106726953614583800e-03,1.472314505243080187e-03,3.633789144796933674e-03,-1.351765492729421498e-03,-1.768984941890739153e-03,1.333117674291957972e-03,3.628238266702970248e-03,2.614469387528055994e-03,5.077398828224399981e-03,1.719849609650780670e-03,2.081844086673076064e-03,4.620522521028081961e-03,3.042492309339988026e-03,-8.875255986865265801e-04,-1.271011558648113072e-04,1.984178280090380213e-03,1.516066996661253902e-03,3.852564156965158047e-03,2.192948577941163362e-03,2.411949502079721152e-03,1.520050298024484868e-03,2.572012069553896753e-03,3.596045001953743128e-03,3.506788346245005589e-03,9.729845856787551484e-03,-3.959512541854576240e-02,-7.783228671237701901e-02,5.427383019067049535e-02,1.319032097238888035e-01,1.162906520952802641e-01,1.032058402036741956e-01,5.753077581484031255e-02,3.634758635494753781e-02,3.379848328829587745e-02,-2.190894324766164483e-02,3.114983159920761517e-03,1.086508038843319035e-01,1.295391799330080917e-01,1.044778614703866376e-01,7.127673903317935378e-02,7.154928484829670143e-02,8.188546940710596245e-02,8.524939239809831149e-02,8.013385168660099034e-02,6.000745864955793658e-03,6.878793329782419141e-02,4.913881957812922530e-02,-7.342691711777739327e-03,-2.398351431561295682e-02,-3.786535219739144836e-02,-3.839359874494337882e-02,-2.688615898562490836e-02,1.082144095022164604e-02,2.918550042192824892e-02,6.855308138440728560e-02,4.923582591138504772e-02,-1.802197810474290979e-02,-8.893918614620438534e-02,-8.752281751283753908e-02,-7.467395932547223059e-02,-6.144316877018674017e-02,-5.110860554500790132e-02,-1.688429113000557147e-02,1.650196468004038949e-02,1.047409992025565562e-01,6.657924318091597293e-02,-1.626111560618834218e-02,-8.838861785652935010e-02,-8.881687718984580815e-02,-6.340940207334856693e-02,-5.190203732023720984e-02,-4.397189638231366327e-02,-1.467670365712182672e-02,1.385407955549621678e-02,1.030230665560810388e-01,1.004534110097711624e-01,2.737996090817667455e-02,-4.908229317203266495e-02,-6.441406495790721887e-02,-5.253861368916585423e-02,-3.963253763800270862e-02,-3.376453737545762751e-02,-1.287077442853308204e-02,9.363637353420025192e-03,8.888357172970459685e-02,1.199281433565340671e-01,5.231385119204887135e-02,-2.449009964447918658e-02,-4.783820658119782715e-02,-4.162571015454586548e-02,-3.407864291252245270e-02,-2.749756976086079746e-02,-4.125742629277762662e-03,2.724560975442253882e-03,6.721864910301136864e-02,1.284541671026408205e-01,7.064252469127384193e-02,-8.486490802263071259e-03,-2.732152096549172668e-02,-3.066047134381226849e-02,-1.509223773889543235e-02,-9.460339141904748270e-03,2.286563128297759272e-03,-2.270882023193017060e-03,4.436213806127223963e-02,9.780760466020717303e-02,5.366700290439747889e-02,-2.019333196874964834e-02,-3.020044126389578171e-02,-2.508206993726129139e-02,-1.003929335286368046e-02,-8.726463633264607694e-03,1.206077579511599576e-03,-9.900971814050604433e-03,2.572874158332195960e-02,5.322982415602286327e-02,-1.281298406845076190e-02,-8.458995406585163856e-02,-9.756537233874676418e-02,-7.910323925591909722e-02,-4.618762562598514865e-02,-2.279400786593343414e-02,-5.681691836538784422e-03,-1.776585946890392453e-02,7.144416959070044523e-03,7.471854864017732356e-03,5.941882681944541528e-03,9.073948641297914161e-03,7.752351733037739223e-03,9.408921618972155426e-03,8.170949576623282376e-03,7.304864947178147869e-03,3.682341741438573731e-03,6.364055634467061760e-03,6.955315777155893567e-03,7.607382177802594035e-03,6.392507761044720696e-03,8.356325058135504608e-03,6.041248027933697820e-03,6.656542528611262069e-03,6.739170810573961307e-03,5.838465614238449314e-03,5.458919127957529566e-03,4.289777874501206519e-03,7.917429887843297279e-03,6.232810039846117811e-03,6.037480984378774257e-03,7.319380374497564366e-03,5.638348429452008301e-03,7.990352115868253405e-03,6.125565824199917866e-03,6.674754295260910963e-03,4.664664530486888581e-03,7.923874841203104591e-03,5.593902934939745837e-03,9.475512463995281603e-03,9.051483483933748034e-03,4.579777247174260379e-03,8.198863109583405528e-03,6.482969475536225733e-03,9.066698831692246094e-03,7.444205734373863549e-03,6.273597058248435270e-03,6.487628014492940326e-03,9.392562130306756837e-03,8.768330860302405230e-03,8.660798606301272143e-03,7.524608394176960507e-03,5.364375258662272376e-03,6.434284798531975103e-03,7.370982075239492469e-03,4.202072607575438150e-03,4.375792009976673877e-03,8.913992451076283019e-03,5.945841602987702625e-03,9.479466368748683258e-03,8.515581938883406282e-03,8.201945399406256748e-03,8.556949051830757894e-03,6.430634799183985659e-03,7.858733912934824650e-03,9.193821404646763604e-03,9.152238112627114272e-03,4.276703094762150138e-03,7.954210247719212951e-03,6.149458203850324649e-03,6.354210593776821875e-03,4.586212168910470781e-03,5.108946021674632201e-03,8.565566125983383600e-03,6.656874139762801283e-03,6.707342241184017888e-03,9.093916992373910976e-03,6.813098221921264422e-03,7.055410108535344581e-03,8.971368566833379243e-03,5.794304012110475070e-03,7.395702359664010038e-03,4.882631486891018079e-03,5.587348457553632797e-03,8.507213231179869967e-03,8.044043267984453058e-03,5.742822475657313741e-03,8.669706484137795072e-03,9.107703123820096516e-03,6.440756258387495166e-03,7.665480283003149251e-03,6.326418394873216909e-03,8.243486707549757889e-03,4.924747554440995004e-03,9.225303215369394863e-03,5.187520799191608009e-03,9.278984163541729308e-03,6.005203185303923871e-03,6.163446636149911770e-03,8.435194013064065480e-03,8.496110970722269354e-03,5.737257702182336529e-03,5.939983656820481926e-03,6.259525609909794702e-03,4.041702983164806827e-03,4.400283153895449828e-03,6.522945407379532497e-03,5.822630341732315702e-03,-4.578298305934439417e-04,-1.267651654503423962e-03,8.516265807454219882e-04,-9.823625857353582985e-04,-9.286274840920248326e-04,-2.243051128574053560e-03,-1.850864113938743014e-03,-2.834194678307231079e-03,-9.296160416910442511e-04,-3.693506009636714649e-03,-3.630134322295730607e-03,-3.028484193376549272e-03,-3.157331297991720475e-03,-3.671061656494889035e-03,-3.401881373884036840e-03,8.777778481845261360e-04,-1.546714385889382329e-03,-3.267088415617146625e-03,5.823683372880761495e-04,-1.249042487755458539e-03,3.370126976297690893e-04,-1.767520987654362880e-03,-1.242488539970849697e-04,-3.510784012779124847e-03,-2.343420880905766439e-03,-3.682295151616571654e-03,8.671127282149224602e-04,-3.318973274976061796e-05,-3.086284104519926037e-03,8.680292854793412094e-04,6.281055949674137738e-04,-2.473694920466815530e-05,-3.544024270768660317e-03,7.186272418695160633e-04,-1.799090121146065336e-03,-2.668321102533350708e-03,7.266840694877600660e-04,-2.865385076432587930e-03,-3.551070859833514639e-03,-3.830762832255785264e-03,-3.285583818548786384e-03,-2.104207549172298648e-03,-1.462234270510866501e-03,-3.718251261984606860e-03,4.500276128662861284e-04,-5.646392509215273975e-04,4.829322114300370426e-04,9.525049089018051236e-04,-1.060752836072213073e-03,3.911501741997870218e-04,3.620177698877926915e-04,-2.263738861102209017e-03,-3.416932757618360104e-03,-3.716449835628690950e-03,-1.863813162530913179e-03,-1.034856071561195134e-03,-3.357475532553939272e-03,-3.894779422961903471e-04,-2.394536136231709567e-03,-1.919354735233739790e-04,-2.398661835591790487e-03,-9.770194590110658963e-04,-3.574624014273171824e-03,-2.805548518552279397e-03,-1.621199335169215550e-03,-2.586988342341722162e-04,-1.315147526916273706e-04,-7.447242859708189588e-04,-1.786835272489439234e-04,-5.496386319497819175e-05,-3.196911871405963643e-03,-1.412242507128218510e-03,-3.011680996251904410e-03,6.617698624492305073e-04,-2.194679049907468076e-03,-1.717329473605032873e-03,-8.143649567746424076e-04,2.569397532979997983e-04,-8.264498480454225563e-04,-3.022459121185839268e-04,-2.715562562093277879e-04,-1.197199041812755434e-03,1.033396320507536483e-04,2.373555977064241158e-04,-7.979997299030488914e-04,-8.242097755546733346e-06,-1.359181055470403549e-03,-2.134732826008089047e-03,-2.461366773679624694e-03,-1.912492333457304532e-03,-2.729010629246028576e-03,-3.127483624880824081e-03,-1.335004712022122564e-03,3.030260837026935074e-04,-2.017445014766609899e-03,-1.955666313117125545e-03,-1.458692718733651302e-03,-3.135303976380804641e-03,-3.034104101781839608e-03,8.993777004890037485e-04,-2.388979457153150247e-03,4.719055214196670595e-03,-6.968376886097435094e-04,-5.223704474998129392e-03,1.011704075773788708e-03,-2.472241096182012897e-03,-4.068502495976382242e-03,-1.924690952919290952e-04,-4.271872366766231118e-04,1.387167665130101517e-03,2.503814882349495157e-03,-4.159356676724893474e-03,-1.644968351845847504e-03,1.827676156762403706e-03,1.983022370324548020e-03,-9.358645314575238325e-04,7.174661434099286177e-04,3.945278011130049119e-03,-9.304764871342946671e-04,-5.563697925987656442e-05,-3.296644937866969900e-03,-3.386034593699282016e-03,7.562732366070499396e-04,1.719205473106823158e-03,4.216607444373796261e-03,-8.564110066757887570e-05,-5.618567631923156690e-04,6.143108501212239236e-04,1.669782347734478445e-03,7.957287535494753095e-04,-2.315408481008507467e-03,6.862240110801090878e-05,1.563082767896498701e-03,3.040111920664433868e-03,3.774487740381326432e-04,-1.878927379757610629e-03,-6.840225562911754010e-04,-5.854266041129936810e-04,2.532856693615784163e-03,-3.876307858840647206e-04,-6.416640466809368434e-03,-5.337554346531749039e-03,-1.185096402345830330e-03,-1.619076934212460104e-03,-3.764444915426832898e-03,-1.392643692448738589e-03,-1.714975653137206738e-03,-2.849789018986494268e-04,1.765320437572426987e-03,2.954928501422509745e-03,-6.708408557865489820e-03,-6.645681452563646785e-03,-1.646190372245302140e-03,2.443118552218667802e-04,-4.463340082179324646e-03,2.824179303881283864e-04,-3.465596498056082203e-04,1.267034328243660767e-03,3.346664816264144880e-03,3.277447994295071363e-03,-3.730746792303164978e-03,-1.039765492550944912e-03,-2.024897877833579593e-03,-1.245372620085392120e-03,-1.912914821602657587e-03,-8.845858887517663157e-04,5.116432999318507252e-04,-5.419061450807369056e-04,4.078688349155805415e-03,1.868926727048235556e-03,-3.057000808241962762e-03,-1.563337333109731135e-03,-6.723181361172682639e-04,1.882428051577115635e-03,1.967770370799107760e-03,1.094299170484498880e-03,2.131939940905700805e-03,4.160241909402751306e-03,1.448934025297601499e-03,4.894473060563444763e-03,-2.276028255465010076e-03,-8.336424916037037884e-05,2.798449460371595175e-03,3.675786451071170330e-03,7.833150975550973866e-04,2.436254190779472625e-03,6.182199333617828876e-03,5.958445358348172897e-03,5.223805399655302543e-03,1.670544864310655750e-03,-2.724495637469189369e-03,-3.322366043065968534e-03,5.292828009243560200e-03,7.549367214375136102e-03,8.575581299870649668e-03,5.912028107204187963e-03,5.136552145444678828e-03,3.184355177475571390e-03,2.324201836876029544e-03,1.663098113860740071e-03,-3.171584294231712640e-03,-2.534337265983176678e-03,6.271068017751499574e-04,-5.647245546991407419e-04,1.540318789875991376e-03,6.744138317131469305e-04,2.898334797592870028e-03,3.433963934965736289e-03,8.102650891812243714e-04,2.037730205981872801e-03,2.343797985604878639e-04,-1.039970671087758151e-03,2.884453542958580804e-03,1.877558269461241389e-03,3.073818547662848961e-03,2.027658735203583668e-03,-7.317707538524251135e-04,2.223091455045386744e-03,-1.493106240004512478e-03,1.494695257733082584e-03,-1.180482101348664980e-03,8.398389998894612452e-04,1.109020382060391628e-03,3.498475779993669935e-03,3.382172531739515830e-03,1.800236937968575620e-03,3.397828845331500851e-03,2.249743772718852675e-03,6.066450067159257246e-04,1.276400220893500774e-03,-1.559990247924555699e-03,-1.088589686683603909e-03,9.880207295384433718e-04,4.407023046249589592e-03,4.037043082923427381e-03,8.566662665568805859e-04,1.504033453086333965e-03,-8.946109329366006956e-04,-1.064742389429335924e-04,1.476625523818017030e-03,4.352695484451240692e-04,3.043429298076996085e-03,2.727055235291617934e-04,2.226165116471387657e-03,2.641423573353576370e-03,4.370235556047857156e-03,2.843824348849664004e-03,3.362959919326355927e-03,-6.114479518574984090e-04,9.223465899413537923e-04,1.510034221490293496e-03,-5.365221032783868164e-04,3.330634427184035826e-04,1.524975302276746630e-03,2.764412434230757200e-03,2.166259765163261984e-03,3.428856904566725435e-03,3.514868525396175336e-03,-1.981766142919143682e-04,1.166364785381161610e-03,-1.558166364805324555e-03,1.781243629942050192e-03,4.742978984754145540e-03,3.655677181045428187e-03,9.183967617453639778e-04,3.970686084946627170e-03,2.398016495890153369e-03,-6.691514619383988728e-04,7.908333723824699209e-04,-2.426345768638460930e-03,2.856942383754201495e-03,3.614645561819976056e-03,5.784016304498773966e-04,2.722284582675870389e-03,4.154972848061390910e-03,3.823563965141352130e-03,1.363570975964932715e-03,-6.049732373309587826e-04,-9.799330509703953283e-04,1.364062155187846818e-03,-1.030872427476982583e-03,2.249084914283967264e-03,1.477980197418384423e-03,5.430844228108318468e-03,2.052411799742840173e-03,3.353730770674404581e-03,3.195552011463743958e-03,4.287482428798708792e-03,1.820175687373214819e-03,1.410183989331672541e-03,3.693838905662729993e-04,3.571869309060303910e-03,8.609770466404319342e-04,5.645946133305474943e-03,4.045326886610813542e-03,4.785262389130462424e-03,4.113535792984763552e-03,3.643208765296234580e-03,1.267538385494551719e-04,-9.740873420419442468e-04,5.896870828100569256e-03,-3.003082985381255385e-02,-1.611865533003118411e-01,-1.658711361524492223e-01,-1.017779998090501264e-01,-7.156003185353154716e-02,-5.287191689689971913e-02,-1.111470401575371386e-01,-1.506285296589322809e-01,-1.600743800474161704e-01,-1.416438176879789013e-02,-5.732350098705833730e-02,-1.965824454451643027e-02,2.600929128820553271e-02,6.926192563104868749e-02,1.078657094687124618e-01,1.568096694595392804e-01,1.604024244888737072e-01,1.205857688471528855e-01,8.740298406783723884e-02,1.672669988356617274e-02,-1.823413603445376077e-02,-4.510303536408412362e-02,-4.746964296558363328e-02,-1.289402977877992552e-02,3.337292163951870172e-02,7.518280056321842431e-02,8.615913198067959300e-02,8.355664469951945561e-02,7.184979845507594165e-02,3.673934959058795108e-02,-3.129523106862031057e-02,-7.901466113902368138e-02,-1.097953462485477677e-01,-7.516753396425726597e-02,-2.561534114739165424e-02,1.670374345567217020e-02,2.214339890881215564e-02,3.227320864916652376e-02,3.362848552590674139e-02,2.879279117407861424e-02,-1.195598180503359281e-02,-5.768525832168031747e-02,-9.785094033873178998e-02,-7.696716436920494897e-02,-4.466020575345849841e-02,-2.217449921866932946e-02,-1.951574271422068171e-02,-8.822849959049354485e-03,2.289699162395363724e-03,-7.963012402705350185e-03,1.710859291177905042e-02,-3.737553488481263481e-03,-4.878641216769417921e-02,-4.748328968369266989e-02,-4.050799829609832287e-02,-3.557051222422866893e-02,-4.087267264488415180e-02,-3.060780085111202559e-02,-2.115064526135101985e-02,-2.240154217629799355e-02,4.370963095985960778e-02,1.687258263950855083e-02,-3.125726983044815194e-02,-4.584699428947625055e-02,-5.399711925426830400e-02,-5.292196004769470635e-02,-6.320259110106023204e-02,-5.557700587693059635e-02,-4.144470872306642989e-02,-3.895414769922898868e-02,5.407122592403469652e-02,4.029273456240829721e-02,-1.668259848905972315e-02,-3.008609923650661794e-02,-4.104612419031669623e-02,-4.853352159750568690e-02,-5.606309984339784280e-02,-5.597951308388310343e-02,-4.589844173443459463e-02,-6.480546407891800420e-02,2.576518650114779235e-02,2.896930166539509258e-02,-1.210961013634190286e-02,-1.740364182475391888e-02,-2.805274017653379068e-02,-3.161498407604065863e-02,-3.091896315190977018e-02,-2.232377587240332029e-02,-2.046317382099942239e-02,-8.422730974121429848e-02,-3.768235753687036727e-02,-4.855819682399488413e-02,-7.080419883649129165e-02,-5.390159870971068107e-02,-3.082134914741072734e-02,-4.009865027606820086e-03,1.896079126201288129e-02,3.149039048510497013e-02,2.950044592600805163e-02,6.759294979613173458e-03,7.037531086510975982e-03,5.676687344449696769e-03,4.455882730550186736e-03,3.742528270698735737e-03,8.353951029468658501e-03,8.244200362613413394e-03,6.903319969370314696e-03,5.671906696971557721e-03,6.450003924497541181e-03,8.709366431670636371e-03,7.772801669206090038e-03,8.372759283718802376e-03,7.930969388759638583e-03,8.451586630533924199e-03,7.425075390098598120e-03,9.160788294737615828e-03,6.036436967603868615e-03,4.770720240366816724e-03,6.545282703465630722e-03,9.004267268036821731e-03,7.654029894898224662e-03,8.346158592778816707e-03,6.389606328042259954e-03,4.331184173752180254e-03,6.642687240654022302e-03,7.599883100283849786e-03,8.759582996455832909e-03,7.655126704465447726e-03,4.503087935898463130e-03,7.783600338291058254e-03,8.576634317022326440e-03,4.784804136637601547e-03,7.583457363123122762e-03,6.532521057507085366e-03,4.803851933350554437e-03,6.215346134733866490e-03,6.605796310673213434e-03,8.414135021926529706e-03,8.536613371823507934e-03,8.496582930387505672e-03,4.939197076015111945e-03,8.528500416901379361e-03,8.089211074651716030e-03,4.119957311567046948e-03,4.536553970426657027e-03,6.421992465136140173e-03,4.609588509067999093e-03,5.655630601695936163e-03,5.565286555125159400e-03,9.685095733060988116e-03,5.212843107155001009e-03,5.676383938761735137e-03,7.564514597999489817e-03,3.830695708780471661e-03,5.877390510769668446e-03,4.687752656409111852e-03,8.275167365896058183e-03,6.692889396412662721e-03,7.602283074893159860e-03,9.892655665178553062e-03,8.411186541951729337e-03,4.031478316663682920e-03,4.598914505864631387e-03,6.021675670937720083e-03,4.229265280611315715e-03,6.720536625382526191e-03,6.216063663215402706e-03,4.126261215778936377e-03,4.405985295860774531e-03,4.828141301013120015e-03,6.069079048246149924e-03,8.197925889508426989e-03,4.640404147242646778e-03,7.231707591648394752e-03,8.595030720908796232e-03,6.538196536842442487e-03,8.973079314269457804e-03,8.500847322754641333e-03,6.151779550120336018e-03,9.112871991132417276e-03,6.265063424611430620e-03,7.588497013477990029e-03,6.634855917446017860e-03,7.996362528444727127e-03,5.971357473791787107e-03,4.680705048262393496e-03,6.114651044761456287e-03,7.916741998496491795e-03,6.653785419593740563e-03,6.429571549748834373e-03,5.123190085300357612e-03,7.829531449542379701e-03,3.735500467345131449e-03,3.651206058449529227e-03,8.468602065481251051e-03,8.090495689355612155e-03,6.996508885992780251e-03,5.552516673420903638e-03,5.020310165299416566e-03,2.661683430069099882e-04,-1.651701167714553448e-04,-2.640209391308036019e-03,-3.012884516010994312e-03,-6.194974743293635419e-04,-2.451198063542440325e-04,-1.634306427638123130e-03,5.247703927883098311e-04,-5.053361693871974121e-04,-1.461312751392084604e-03,-3.856026935588600327e-03,-2.764981886521118573e-04,-3.571709620362753957e-03,-1.509857526158588786e-03,-3.551165016663779522e-03,-5.914798734363576433e-04,-1.525681536729108292e-03,-4.883785533751352440e-04,-2.270999836533675771e-03,-2.564093150440482482e-03,7.191051448579726161e-05,5.014746927440359801e-04,-1.198469902763966196e-03,-1.007722472781441179e-04,-7.018386386298398590e-04,-3.137274840715720357e-03,4.948756424174775934e-04,-8.841328398412217791e-04,3.868758552215175849e-04,-2.467371423859073595e-03,-3.152388482080424516e-03,-3.628977923217624555e-03,-3.937973835040017162e-03,-1.819051324337653654e-03,-3.524046200288222502e-03,3.570623866188925039e-04,-2.416299298122418036e-03,-3.472445507638965371e-04,-2.782737471356010617e-03,-3.002796784537282212e-03,4.202433247506140359e-04,-5.372383780734693364e-04,3.714526929732575328e-04,1.931426538307766719e-05,-2.478756205385856254e-04,-1.403160384211188990e-03,-1.048497441616037427e-04,-2.919832928673502708e-04,-1.984873003525268898e-03,-3.951645399859373201e-03,9.243809544050716120e-04,-8.105208812731456167e-04,-2.973980710480747785e-03,-3.553953149795566462e-03,-1.497852259029814129e-03,2.090157897378158095e-04,8.667872013935175790e-04,-1.282310881052137978e-03,-1.376711465354943029e-03,-1.780221502883412446e-03,-3.684183671046296817e-03,-1.606047081932399437e-03,-3.739749000463442764e-03,-2.357504153543690199e-03,-8.761516054179575548e-04,-3.791638654480487987e-04,-1.427704233590813485e-03,-3.297490032196161245e-03,-1.642571456906613894e-03,-3.541804421875536634e-03,-3.520786909969686549e-04,-3.865383555011656005e-03,-4.146050412940807499e-04,-1.823740796649848646e-03,-6.300012723701589124e-04,-4.052100601516007462e-04,7.854822764579207908e-04,-2.454231661719403958e-03,-9.670056298251048323e-05,-1.560778396641615952e-04,-3.405225818867999455e-03,-2.505623596145515556e-03,-3.483892391434604500e-03,-1.755124062138440711e-03,8.122288871566401051e-05,-3.177255815929630207e-03,-2.888595172449268719e-03,7.963626658964070284e-04,-2.798585917466938169e-05,-2.838339566340896975e-03,-1.471397025755344628e-03,9.563296138207264636e-04,9.173338196792911242e-04,-3.877212012321833764e-03,3.374946408286284751e-04,-1.585692263271137187e-03,-3.979156890695485435e-03,-1.695861348446304692e-03,-1.026421358963990060e-03,-1.070425526890015841e-03,-4.654608366562908031e-04,5.760321890565011163e-03,5.666278467499909731e-06,-2.737703550268223967e-04,2.230035055427358737e-05,-1.597862424434720466e-03,-2.014570399902825080e-03,6.341316623081310992e-04,-1.517882324497569352e-03,-1.366046833428165557e-03,5.541788644515267294e-03,-7.306248915343616654e-04,-1.730490984076507783e-04,5.780057077658155851e-03,5.154695894453878088e-03,1.920436289676141989e-03,2.472807811879219279e-03,1.776655256357932743e-03,3.861771622984698938e-03,8.280028514211022327e-04,-2.146276716231826365e-03,-1.760701705387869142e-03,1.605366107680350311e-03,5.298679113777934706e-03,5.684353200224037065e-04,1.277545840427515280e-03,2.344482888422563110e-03,4.509238699472263578e-03,5.895578390193877052e-04,1.850558698502871840e-03,-3.389824129050427078e-03,1.740152795920429842e-03,3.306794165398988395e-03,3.991111797031221715e-03,-7.939021087108080721e-05,2.665097296625857509e-03,2.854182506238441604e-03,1.611831357282987251e-03,-7.917456305668627524e-05,1.645323173179887499e-03,-7.047788574975948940e-03,-4.658184868973823563e-03,7.135385409619730227e-04,-5.198707459627758924e-04,1.548084297776930853e-03,-7.329896097340848893e-05,1.122885231871924554e-03,1.132278672042982262e-03,-6.346906354099962492e-04,6.708449518347425105e-04,-4.940753525384654170e-03,-4.906204079530615113e-04,4.069901891754654395e-03,1.159395948152238493e-03,-3.353164736795484382e-05,3.785054515122518036e-04,-3.870856168237547367e-04,-5.363634387546763091e-05,3.846796500995424816e-03,3.806492218970735177e-04,-2.701509275232631332e-03,-2.672885031850177721e-03,4.091615093928102978e-03,5.947201165818815976e-04,2.464304712588111842e-03,5.418566956491520630e-04,4.135495197792203939e-03,3.361701298149860195e-03,4.121892837606831381e-03,3.008708549787177285e-03,-2.731469652735536019e-03,-3.738535400044521242e-03,4.874121626172913356e-03,2.487113231284180607e-03,4.081890333464914013e-03,5.692844331404601100e-04,4.864626504052202254e-03,3.580801670588454333e-03,2.398157954352618353e-03,3.290478994241626421e-03,-2.057802706956866380e-03,4.820570054384489900e-04,4.990506732301025830e-03,1.770526041527195659e-03,4.293704157987063286e-03,4.433109219700574755e-03,1.089657577237709840e-03,4.388917486182946325e-03,4.525259550465249130e-03,1.251747418326402701e-03,-1.739578326097295739e-03,-9.175208915657500578e-04,4.213439954593517327e-03,6.282349185344040902e-03,5.635674682736980905e-03,3.555639315944254895e-03,2.347534576823167869e-03,5.219083206750220472e-03,4.101372119608205982e-03,1.051783440266499401e-03
6.539840160289965218e-03,3.818594698459395597e-03,8.455891803223442721e-03,3.942943953069238949e-03,4.789035256934071755e-03,3.908051282767889892e-03,4.866683637167956537e-03,8.856348704840290298e-03,4.889955044094125569e-03,7.197558296125264668e-03,5.946725366797505491e-03,4.991056237710424920e-03,7.900861048555975555e-03,4.229590280246667972e-03,8.764435045765578067e-03,7.507367931343801593e-03,6.528674421482226660e-03,9.146712531676733440e-03,8.337982804139438056e-03,5.123562274716127359e-03,7.310980051524470363e-03,4.196163062109403707e-03,8.500815943524107909e-03,8.394182051103812187e-03,6.280393023335668901e-03,5.732058135649870621e-03,5.798932063379603347e-03,6.589951170437005797e-03,5.387366980436670422e-03,5.882395808363216107e-03,9.187298649853755869e-03,7.229829547010687731e-03,7.035003770618716151e-03,6.932240433094028625e-03,7.269788206553616343e-03,8.088824927150625038e-03,5.091602312043724821e-03,5.577465396347082958e-03,8.790199070917374680e-03,6.950017968532376869e-03,7.327854542420891154e-03,7.746217512530463936e-03,5.778449690387151699e-03,6.165880762949074029e-03,7.504133250434457530e-03,8.120524939991694349e-03,6.122403994221180430e-03,5.136582434486769259e-03,4.859509846676714553e-03,8.540845659437966073e-03,7.784955738563899795e-03,5.057369707047854220e-03,8.190873809375649392e-03,7.801433815962846748e-03,5.090920598968086581e-03,8.931071249280549823e-03,7.899231140254300843e-03,7.949179719998348062e-03,9.316477619918498571e-03,8.783426533517775525e-03,7.389819618993246145e-03,6.185736946816261517e-03,6.623326489780070360e-03,5.666025663832875703e-03,7.530892956766462899e-03,4.860381692797704177e-03,6.695028625175775301e-03,6.203539690071538208e-03,5.012958113069710363e-03,6.363568224972822492e-03,7.731210932653466254e-03,6.280200726137418962e-03,9.212521713837306531e-03,6.426900099527359592e-03,9.216060530145975607e-03,6.132130648271526263e-03,4.900271066097422988e-03,8.972602578036469045e-03,8.592059729581505434e-03,6.543521400188032945e-03,5.295281671866661904e-03,6.132515762340122294e-03,8.263162242790814474e-03,4.530483072470688384e-03,4.626029665276749740e-03,8.647831946410564422e-03,8.608362357124723502e-03,5.429698978658963927e-03,9.382503098376741152e-03,7.185280832727077016e-03,5.817588105004294595e-03,8.474774710857304466e-03,8.005580859347579195e-03,6.814661820079575064e-03,5.743437104042115743e-03,6.474188645006330109e-03,8.360365622667174576e-03,7.511351873515837232e-03,8.280952210352677395e-03,8.359123584624367567e-03,8.079060322510421902e-03,1.060460171060101549e-02,2.142864406054794182e-02,2.313026628968441190e-02,1.902847444551906617e-02,9.992775606507702316e-03,-2.002465963403561068e-03,-4.366889586127153423e-03,-1.416062709780039480e-03,3.362233058304284965e-04,5.928556157410814825e-04,6.310727984009479284e-03,1.749358040466377287e-02,1.481615887194827515e-02,1.032467829848209701e-02,2.436648012141271955e-03,-6.425748726870636821e-03,-6.678809536367750523e-03,-5.773812560047674597e-03,-6.221037054066392430e-03,-5.573370357081657879e-03,3.665804244225502172e-03,7.168302039877607820e-03,8.231812962698314973e-03,4.994242843764834343e-03,-1.345178004728364877e-03,-5.824043013842121128e-03,-4.651641259955824857e-03,-5.491257774711986658e-03,-1.135875123412366863e-02,-1.277485748750551223e-02,-8.225013342638214878e-04,-9.157660306290651888e-04,1.879658661357444483e-03,-1.930895531141204116e-03,-4.000262501438691873e-03,-3.923548397354877960e-03,-1.877519453158778967e-03,-7.037653761322138629e-03,-8.478198380875772919e-03,-1.109483644455716046e-02,-1.856836294635982659e-03,1.404166454529774807e-03,6.152888572047715207e-03,-1.656925876937615470e-04,1.751213272360957300e-05,-2.062696686882112967e-03,-5.991076693298468458e-04,-4.920817648892114593e-03,-6.789284677833453026e-03,-1.392409592915565958e-02,-7.746137628457928220e-03,-6.250905000069646722e-03,1.872910624818417257e-03,-3.125346102039992108e-03,-1.719001811787453831e-03,-1.956479289718453338e-03,-4.269855433225914695e-03,-1.326127783142054106e-03,-5.766418914379900507e-03,-1.454907959643273602e-02,-1.014576831035101344e-02,-7.524348135589217952e-03,-8.113130650340695874e-03,-8.609813023287830880e-03,-7.835788948717285068e-03,-3.014350993668815475e-03,-5.040267113042775846e-03,-6.209932663040169248e-03,-9.542666469646703467e-03,-1.486632252244376312e-02,-1.107762174099790470e-02,-1.285614238159122485e-02,-1.261012305195859974e-02,-1.453931830965522927e-02,-1.242758447206003709e-02,-1.021167226314038598e-02,-6.235870427545772351e-03,-1.065878782099232737e-02,-1.283601919480067792e-02,-1.825764839323420000e-02,-8.118147530585300559e-03,-1.368563808826447036e-02,-1.561986859539389767e-02,-2.203859982294997452e-02,-2.204882290064985942e-02,-1.511700385102803315e-02,-1.758843413110991113e-02,-1.557565446103208531e-02,-2.024391499538445022e-02,-2.655555984722517138e-02,-8.366175948486532371e-03,-1.391424329496073961e-02,-1.946527729930453560e-02,-2.288726551694917830e-02,-2.601686410191630938e-02,-2.264030008445944153e-02,-2.396337435308927913e-02,-2.522409246744068689e-02,-2.632309346323506022e-02,-3.334595028347007301e-02,6.441763569215187661e-03,8.142253192820914087e-03,9.167310359307918183e-03,7.875915641794491509e-03,6.667032893384264823e-03,6.959566406432672603e-03,5.783695308826425525e-03,7.628437959295097416e-03,7.383042251586176621e-03,6.410692330452351199e-03,6.511180604848014648e-03,7.611735101101889563e-03,7.977906142260227790e-03,6.883621903593099139e-03,7.633823443515568540e-03,8.863357191091920592e-03,4.773693073304790049e-03,6.953442274198354776e-03,6.167037408808963457e-03,8.772094489770716416e-03,9.033796860312522797e-03,5.476791338916646434e-03,5.119138782245884894e-03,8.454063244101275160e-03,5.139298479990673553e-03,5.560230057892796666e-03,9.309208935182300762e-03,6.364062357074872466e-03,7.830216814790649099e-03,7.694178229701538474e-03,9.416017659645819354e-03,6.895357381299589521e-03,5.370773402934166628e-03,7.931272593943656038e-03,9.280077233348917737e-03,6.610170900564362947e-03,6.360611502985867756e-03,7.723946903002075655e-03,8.508302199850156095e-03,8.147356559893790748e-03,8.676703047123568088e-03,6.848011682949589445e-03,8.420015912522286344e-03,5.737158352539470721e-03,6.775814973997106722e-03,7.496221422699208929e-03,9.024035785783481381e-03,8.309359255890467338e-03,7.298825626394640255e-03,9.380797220827670133e-03,8.439588551873957595e-03,8.310193602227504417e-03,7.720128202620413216e-03,9.506709856723069563e-03,9.677827870069826907e-03,8.397802861658160839e-03,8.622388771851317163e-03,9.423926251408455690e-03,7.534455954215930895e-03,7.514224029259923381e-03,9.311959798463527796e-03,7.940869249079928263e-03,5.555565842578932996e-03,9.334757581633289225e-03,7.382691022779604845e-03,9.313327831987830777e-03,7.155904304645015201e-03,6.176662115173944465e-03,8.557465145964176720e-03,6.124265475250903999e-03,9.312867370612872703e-03,8.207110824642410013e-03,6.227415544882867159e-03,6.328543712108550788e-03,5.288913280319923645e-03,9.280310677408386277e-03,7.062714571033028473e-03,5.451682621180531721e-03,5.679491383982177705e-03,8.659226370244892806e-03,8.831829115288947901e-03,6.046444936804122768e-03,9.020757362470191790e-03,7.251463594821038437e-03,5.589013820251109536e-03,9.155200049674230497e-03,6.357661903372484151e-03,6.289459207611384529e-03,8.401515325275882642e-03,6.350613115086467877e-03,8.890424108425450112e-03,4.787316462810277742e-03,5.042077725477607519e-03,8.002255671839202111e-03,9.174254660582635210e-03,5.783350802350992539e-03,9.462085420103237207e-03,5.608734185374602589e-03,6.386380537969789904e-03,6.426580821988886125e-03,7.569483267773266348e-03,6.707286259956351387e-03,5.779676172863554284e-03,4.977437050562341994e-03,6.006225102178897740e-03,6.881398205437037549e-03,6.148642778146347007e-03,6.352273806879487131e-03,8.398947579751875336e-03,8.419926177692677732e-03,6.218897208793486980e-03,6.195243607419537862e-03,6.450394780333242387e-03,7.696310020746625381e-03,5.578190937638758534e-03,6.429699553070621076e-03,8.357894116810087037e-03,6.183619634467452109e-03,4.796180519708103523e-03,7.017074641234242668e-03,3.969188333479548025e-03,7.498427905858960109e-03,7.743728633740212287e-03,5.034209112886271070e-03,3.918427835362779318e-03,8.302242409356491021e-03,5.815619369397671476e-03,7.726178699668192519e-03,7.401179710266211215e-03,4.222108101567794564e-03,5.401184630204461379e-03,7.446316881515483571e-03,6.043910560886813985e-03,5.700350703098024108e-03,6.025244468271566400e-03,4.484331295664570338e-03,7.813265551730855241e-03,4.529999183327510989e-03,7.321415290286688304e-03,8.460012458200664304e-03,4.256775422822631910e-03,7.872770661224456554e-03,6.131058907708243633e-03,6.890608961105154986e-03,5.334341313344505980e-03,5.811307906462254147e-03,5.475266434677893840e-03,5.927160404129853608e-03,6.256170545997219792e-03,4.481517895943198937e-03,5.853388271724846784e-03,7.827552868085344701e-03,6.541273190808716276e-03,4.420886398181805843e-03,5.194249760159062174e-03,4.764026838425397883e-03,5.665964650458260934e-03,5.939318143479761780e-03,8.161538746048111609e-03,8.769068643829276005e-03,8.285025502398200847e-03,7.456836466757287007e-03,4.235754315465873471e-03,5.576753090290261644e-03,4.626993444737400804e-03,6.612938128245371416e-03,4.394160220375907880e-03,8.023687414764616582e-03,8.241706477695967537e-03,5.842160516814886781e-03,8.359176122819351323e-03,6.252191867450707444e-03,4.061277978169757288e-03,4.783458142195284174e-03,5.384974660386539561e-03,5.138248507854844757e-03,6.099111461924445685e-03,5.745145517342353098e-03,7.121373365205076536e-03,4.062456707803255990e-03,4.992967463340972425e-03,4.077137863624036643e-03,7.441360581733912072e-03,5.716660335723036321e-03,6.671816252520508528e-03,8.031285525261343955e-03,5.422670338350522173e-03,7.006052984519901827e-03,6.392073680483036091e-03,8.163638378049089400e-03,6.743968539212543897e-03,5.264765810131273940e-03,5.838535964635854433e-03,5.954973540202456242e-03,8.748835248830792721e-03,7.442667415746222204e-03,6.315531419250987322e-03,5.882372174873676599e-03,7.516303800904762002e-03,4.923763927611750704e-03,6.205335764702966939e-03,5.768024837392853044e-03,5.905002226845201818e-03,7.293955102751166486e-03,7.614520050024080854e-03,5.407721156313884461e-03,5.118703883420956668e-03,8.970515680208962159e-03,8.982613978201140284e-03,7.903863806267471745e-03,5.468619318870354684e-03,7.840171480031772958e-03,5.733215427118361351e-03,4.712486891317336883e-03,8.961208414899354477e-03,7.705493829765584259e-03,6.350794257663916129e-03,5.129676223450685586e-03,6.052448685947697284e-03,7.929310124912719235e-03,7.280610631892494786e-03,6.406017255555469976e-03,6.302537033096625683e-03,7.401662308243652649e-03,5.151599341906685885e-03,5.848086423471048761e-03,8.170354237464785147e-03,5.179872030216957704e-03,8.426832460400065714e-03,9.571087305938459286e-03,7.268133930113589852e-03,6.836702172413848880e-03,7.100706992416810220e-03,6.075573768808200173e-03,8.849231412861374366e-03,8.506059294645380853e-03,6.764870179444814995e-03,7.625023216884212716e-03,8.341337449719370134e-03,4.835520925322128218e-03,6.081576058814724788e-03,8.542555376248787621e-03,7.129971364331756309e-03,4.706369658326384903e-03,5.427131780550526960e-03,8.604317999661111049e-03,9.142123186084098047e-03,6.619564319274345333e-03,8.825729519382079918e-03,5.010801538554078560e-03,6.358521931653618627e-03,4.481589395011604388e-03,5.098516475599736662e-03,6.843712472498237644e-03,6.105028767156302216e-03,8.456683390923232582e-03,6.442838244556885370e-03,5.333846084675347189e-03,6.853218530580801847e-03,8.406329753260607246e-03,5.668718129445141779e-03,8.052138574631294288e-03,8.212740568129423338e-03,5.318590687429376219e-03,6.724301229267179263e-03,7.727453069125228557e-03,8.499215650098057920e-03,8.398094610784917480e-03,7.426329260797870889e-03,7.956604193058828406e-03,9.072197988233669103e-03,5.599188748352383269e-03,8.426656354900748797e-03,4.763001337262605210e-03,8.758121412910987308e-03,8.756786124702762783e-03,9.337397352124429326e-03,5.422493105115776778e-03,6.548806020815763941e-03,5.368192297494831650e-03,7.106353850031756070e-03,8.262822277543446087e-03,6.165457167269289621e-03,5.087865514712006966e-03,8.592736526517520679e-03,6.728059213362324112e-03,6.645398421062008454e-03,5.561313386867188478e-03,8.360884990163864813e-03,5.058413512278464759e-03,7.696161652476962191e-03,6.139688935416871482e-03,6.401660928824241467e-03,7.786945286272667008e-03,7.608014469857139056e-03,8.271028181145686706e-03,4.837639535555535164e-03,9.677225852434271844e-03,6.759272595451564121e-03,8.026661993005437465e-03,7.008425603317266356e-03,4.102999752454884394e-03,8.485848077337156473e-03,7.356745581674531062e-03,8.537643765011532562e-03,4.534804204110515734e-03,4.110174117309788044e-03,6.056891019729673635e-03,4.926606278276060222e-03,4.424765500300655713e-03,6.430111894223581107e-03,8.348370082539130835e-03,6.095200610055650364e-03,6.140886572205458277e-03,4.231249651946604635e-03,9.122190761423306857e-03,5.540280498563259978e-03,7.049539049116404152e-03,7.819845034633914407e-03,8.654548990332034883e-03,5.264332459393237032e-03,8.915108637071827297e-03,6.530539670118746219e-03,9.196849426336419289e-03,6.620465687388794179e-03,9.186979302048292259e-03,4.739479314269544850e-03,8.018614808079095255e-03,4.697501470099172023e-03,5.116468747491972717e-03,5.195300571523860274e-03,4.860474253241852012e-03,7.289627244862277936e-03,6.490361714097469571e-03,4.648896155123365126e-03,5.527633134598099705e-03,7.800481335732796333e-03,7.310741440287509517e-03,8.911119337908855742e-03,5.178303939649104605e-03,7.968223639356826135e-03,8.456615327442941477e-03,6.815764417668785172e-03,4.823232089152674172e-03,6.437541756780489587e-03,5.567249536363275651e-03,9.536234218642173147e-03,5.608212208271813430e-03,9.290010189574553559e-03,4.787542901451775738e-03,9.159401814073382664e-03,5.724197923691955701e-03,5.761752896152481408e-03,5.388449925276831733e-03,5.199933634498205177e-03,8.106462155908364386e-03,5.621148913701611190e-03,6.405515005619919107e-03,6.466977694691194815e-03,6.697484351658704836e-03,8.032693451085282446e-03,8.782084601035466953e-03,8.203928637604942023e-03,7.636113509654924962e-03,7.216655388603409639e-03,5.762320729278114922e-03,5.060219583096968628e-03,8.489270818534672483e-03,7.648059899930287862e-03,5.227081559521344796e-03,4.580843365201434439e-03,8.085842350782664403e-03,6.212897055488203653e-03,6.237278695509045068e-03,8.593317216567801509e-03,9.490920530141775877e-03,8.222311432878387158e-03,6.468749657717211624e-03,8.928579887655921712e-03,6.452489915441689955e-03,7.247376929050751947e-03,8.343639289220376731e-03,6.524619900924615024e-03,9.343926208915723924e-03,6.638440769704068503e-03,6.274187875552704637e-03,6.385166545327137892e-03,6.548708817402751695e-03,6.987212029656447027e-03,7.934390193473037436e-03,4.928073181342944829e-03,5.948572036149270270e-03,7.101129057707654922e-03,6.377947636561587426e-03,5.265554736720768139e-03,8.357997000522310316e-03,5.794642120841571147e-03,7.747418415249781448e-03,6.812200054385623635e-03,5.569712390772808309e-03,1.070502660138342513e-02,2.787317679582348995e-02,2.951136217463565942e-02,2.083440066029132107e-02,1.102655510465979510e-02,8.727588580926716336e-04,8.363079224027135643e-04,1.384915933811187031e-03,6.659559126506324304e-03,7.009813514901782824e-03,9.450872871422450611e-03,1.857901405206369150e-02,1.575763872532660523e-02,6.245014287495776438e-03,-6.817457933456432667e-03,-1.104515196492682552e-02,-1.213778567613517725e-02,-1.296974159114000838e-02,-1.344852289938390337e-02,-1.378582148537000306e-02,5.045607264996533961e-03,7.550124503245121861e-03,2.342831373119304630e-03,-1.007622528645101684e-02,-1.595516029872304925e-02,-2.133388862538298722e-02,-2.197948435837622505e-02,-2.184420810334950641e-02,-2.089078594981051001e-02,-2.504546114280145966e-02,-6.168983363447984661e-03,-8.969887528787533898e-03,-5.529190353956962498e-03,-1.559658222975077169e-02,-1.449582589849029816e-02,-1.581617712512479665e-02,-1.588803336198256477e-02,-1.751786882874394047e-02,-1.705343816548761382e-02,-2.407290632740131595e-02,-3.460679259041771899e-03,-6.878809471410160525e-03,-1.715759430595833156e-03,-8.205423278723424432e-03,-1.232523179437253029e-02,-1.271694497096564555e-02,-7.482239936511401318e-03,-8.852496561413809167e-03,-1.130549161053025393e-02,-2.048076190011367120e-02,-1.563342668938268176e-02,-1.185171936343326453e-02,-6.136461708636863771e-03,-1.302848121311023406e-02,-8.524979718377104568e-03,-7.534537160827808541e-03,-7.480606511877784838e-03,-4.242406795276982938e-03,-7.756445778137699074e-03,-1.672268766791500452e-02,-1.567377293369973112e-02,-1.467029460141562776e-02,-1.147295274742047080e-02,-1.544450908343893147e-02,-7.423513814781609009e-03,-5.401624686833423304e-03,-4.222575294369411772e-03,-1.459144626723479863e-03,-7.961646352603737181e-03,-1.345061160647598869e-02,-1.510940217627362685e-02,-1.777805370977667346e-02,-1.533293697064125327e-02,-1.806945483539220548e-02,-1.308544655428421806e-02,-9.228345517219000912e-03,-6.376570855804048962e-03,-1.570950330513489184e-03,-1.006395294341882497e-02,-1.627982764638683660e-02,-1.337294979972771317e-02,-2.080670000324170640e-02,-2.431795253130114229e-02,-2.554719698909749606e-02,-2.174216173995698054e-02,-1.789430421409359678e-02,-1.364491788556774013e-02,-8.825959776545135027e-03,-1.549118385032040301e-02,-2.324576471820398449e-02,-1.251840821162241747e-02,-1.904115022399597082e-02,-2.527329669546459975e-02,-2.889415208479316835e-02,-2.970098750190139011e-02,-2.487471030291248109e-02,-2.414081474950123887e-02,-2.145498336933472985e-02,-2.870716879695605836e-02,-3.059619347695543071e-02,6.257702711734112154e-03,7.941793007722500533e-03,9.756335141316961265e-03,5.304273043040206789e-03,7.043866759877704352e-03,4.825903598093716357e-03,7.604630504132081810e-03,5.440574927273233996e-03,8.543280610399703323e-03,7.970521801866373157e-03,9.694258451527276374e-03,9.883895926399832027e-03,9.087600328313754153e-03,9.707509520909717721e-03,8.161647834900186485e-03,8.286466839304429052e-03,6.366558789388020688e-03,4.915068230329373497e-03,8.813608866766893188e-03,9.585237816730800969e-03,5.968253292547475580e-03,8.697094987579848460e-03,9.331328130756350037e-03,7.516440426889624445e-03,5.264143909142412169e-03,6.370261724344885614e-03,5.450672772958071836e-03,6.988058001814687406e-03,5.232179484658562411e-03,8.203926217032508558e-03,8.427127541011363715e-03,4.951850557192559281e-03,8.750517808759031291e-03,4.688404282583650239e-03,8.882124846069688190e-03,4.754759989738064838e-03,5.822658720788826715e-03,5.487079033940907118e-03,9.491977558701665194e-03,8.268902449332128646e-03,5.770752091450607156e-03,6.868600426706565794e-03,8.036553770889102652e-03,4.995397336718348895e-03,8.542303235854146332e-03,5.620372739965087683e-03,8.231973980165334381e-03,5.801893233785090920e-03,7.074551842297332679e-03,7.054778173996871862e-03,5.974429817911906457e-03,5.505443850978432307e-03,6.493380249493568152e-03,5.832835910593308845e-03,8.521069191684351590e-03,6.029686230314104840e-03,5.249747395423632126e-03,8.984743435897089153e-03,9.125299204541345577e-03,7.168157282864137149e-03,8.999888881819953154e-03,5.302206802094981859e-03,6.645600018784351450e-03,5.201589799429138725e-03,6.555387021890144404e-03,6.764651103466854005e-03,8.587089784412986829e-03,5.986551527593058329e-03,7.214903294861850155e-03,6.598270304355965607e-03,5.813379484738796441e-03,8.438865286388978759e-03,9.565598233310360424e-03,7.886379012194280960e-03,8.020294442441341237e-03,8.395379174524528199e-03,6.560066307356255712e-03,9.350172558722547739e-03,6.508836885915893211e-03,7.462706764001780617e-03,6.807277573079935536e-03,7.400631705145582079e-03,6.672193123402890211e-03,7.368032909848854298e-03,9.367069283340826932e-03,5.747321022783841334e-03,7.032521084428771177e-03,9.616944811144631164e-03,6.708492358175791904e-03,8.430990198815647291e-03,7.106817953706405164e-03,8.967573663653234314e-03,5.611554039308865559e-03,8.049574277276068737e-03,7.657538783418768417e-03,5.985774305425755129e-03,7.192768567841094016e-03,8.883730686749599301e-03,8.111589839786667935e-03,6.344420924080351222e-03,4.763929659350652282e-03,4.343403341304766588e-03,5.005116462711728734e-03,7.251699418803969274e-03,3.937371887622484468e-03,4.586421245516553516e-03,6.583627477151724264e-03,4.058450722402053013e-03,8.163891654687217142e-03,5.799008112671252130e-03,5.928462303451906626e-03,8.390329995259758478e-03,5.915511450566738466e-03,6.070799969045749880e-03,7.717530337940169995e-03,6.675333967168366536e-03,6.509339001524170817e-03,5.320197482588584145e-03,4.089454444268047009e-03,7.305447947187404534e-03,8.601984366196819415e-03,7.170585262473576013e-03,8.600643790836158542e-03,8.139610347629975401e-03,5.642285682949704090e-03,4.325970368214608272e-03,7.443876705536436877e-03,4.207981565169948562e-03,8.654484663583060511e-03,5.012499364177285671e-03,4.254868441968321507e-03,8.052613419020214491e-03,8.691190849555528036e-03,7.084812230130856439e-03,8.053786405453795816e-03,5.514048668311174323e-03,5.468876321722642569e-03,5.274560424488561675e-03,4.160343332023528837e-03,7.108315391895351706e-03,5.434067160443685138e-03,5.337449409573679845e-03,6.504961915308025630e-03,6.389285378194591719e-03,3.943552876295067233e-03,7.817007987275567671e-03,6.460032928861084503e-03,8.571505718229670279e-03,3.912922896703564801e-03,6.638804693976416149e-03,5.660356409651984277e-03,4.887239656289220704e-03,8.655363803237600684e-03,8.021263753714875933e-03,6.678097195068873407e-03,7.045645204151971056e-03,6.473856576391209122e-03,8.563697760055753033e-03,7.129664835300295045e-03,4.165778443849165943e-03,7.985696817427147265e-03,5.489209497450967673e-03,5.857125526569507967e-03,8.151951364056088389e-03,4.040940346542818556e-03,5.942219952180758172e-03,5.386014508600480907e-03,7.820173773413447577e-03,7.852919486371604321e-03,6.750456816889108605e-03,7.811928260118142404e-03,5.608527476044638041e-03,8.387253805088545205e-03,8.799978422689785917e-03,6.308380077331464733e-03,4.636774213902844846e-03,8.122342881268829889e-03,5.090841547984894036e-03,4.349916924655377118e-03,5.561667612252215245e-03,4.275461317607615053e-03,4.776619887852408958e-03,5.346832002714524065e-03,7.614386036411679125e-03,3.955833612775653749e-03,4.605961961788225881e-03,7.710879611025013049e-03,7.167086830786721999e-03,8.383867357932683201e-03,4.152361042704751440e-03,8.565827562539068962e-03,7.010774191450772769e-03,5.154930225487642723e-03,5.711823157826638464e-03,7.535760868753627918e-03,7.849371090481062699e-03,4.910603631671202687e-03,4.456458415205748202e-03,7.368607609641777273e-03,7.374736416317164561e-03,3.916610381999070453e-03,8.200482612759766796e-03,7.596655741391506247e-03,5.389823695916659552e-03,8.515588347425939730e-03,6.038655584983941040e-03,6.821713089361319642e-03,9.325656376497118080e-03,8.121509426548318214e-03,8.905063279586863598e-03,3.802836329539073090e-03,7.443618025884449901e-03,9.167083209050528106e-03,5.752732160862914987e-03,9.276949161115877196e-03,7.224252778364819230e-03,6.732369778550082243e-03,6.724004354016018328e-03,8.069741859631570854e-03,8.634124459608623695e-03,6.536763047044125662e-03,7.409341045385115648e-03,4.697531992688639205e-03,6.714122397594538341e-03,7.228021708972232756e-03,5.259369803020601253e-03,9.332853651597809025e-03,9.328198344611286774e-03,6.598669811015960701e-03,8.222996326037826723e-03,8.610909819798491169e-03,5.512170835506305898e-03,6.460860772696761303e-03,7.490389820634713036e-03,5.175855972357370875e-03,6.426587247525889640e-03,8.220325823779767171e-03,7.423282459217187511e-03,8.378892388610555825e-03,9.546971549613463698e-03,8.040533395811413908e-03,8.049668795031097654e-03,6.544397321763068855e-03,9.001535683122726533e-03,7.725977682421472821e-03,8.387802917436749592e-03,7.468242586178745236e-03,7.357858004470686081e-03,6.186573578181760180e-03,7.844990865673589706e-03,5.157088169320965011e-03,6.821222277745394441e-03,7.390277832926590330e-03,8.387671843435627952e-03,7.932350677875666528e-03,9.259725781160143415e-03,9.078386418922503379e-03,7.990000815734131859e-03,8.845250626269528238e-03,6.793639102003149605e-03,7.920491962113808751e-03,5.304063218562522601e-03,7.283814067869504721e-03,7.673536651080520993e-03,8.618860047900755300e-03,8.965847300664984976e-03,6.763506137629791103e-03,7.714337469333872911e-03,8.244631695328418636e-03,6.192450652946501072e-03,5.722495025353770484e-03,7.035826757818798398e-03,8.135902771864060926e-03,4.881060336382586282e-03,8.983001951941359947e-03,6.689498221779339136e-03,6.662303227652139823e-03,5.190538566718857355e-03,7.451918216154594307e-03,5.524052173204949297e-03,4.696164393492047173e-03,5.870020403308594086e-03,8.629794284116551126e-03,5.218959441505507946e-03,5.998996364279352705e-03,7.052700916706224239e-03,5.524933010883104414e-03,8.032090540504103690e-03,5.012487042542247868e-03,7.630798871431529636e-03,9.572619635695439957e-03,5.321492154418083070e-03,6.440729787437523245e-03,6.501425188530230402e-03,7.255552270285259633e-03,7.946821913963021330e-03,8.235306452383224160e-03,6.949706974916401887e-03,6.975684901001722241e-03,8.909114806778133111e-03,8.491332550148292246e-03,8.077177016740407292e-03,5.934665296355111017e-03,6.487671722361408946e-03,8.906793706465424010e-03,8.872265898409018026e-03,9.046612812154540550e-03,6.730289356599069260e-03,5.610335853390368069e-03,8.594323823251932837e-03,3.949349729279579002e-03,8.132846141387742658e-03,7.169263348244871679e-03,7.624427917270623634e-03,5.852691201860146797e-03,4.598506654433853931e-03,6.005874028328601205e-03,9.239975046592434002e-03,9.085912061571808224e-03,7.201574194271416311e-03,7.976354876867146337e-03,6.720989751103090444e-03,6.066483598448056853e-03,6.477827727251078173e-03,7.924065299309685645e-03,8.270516366997391136e-03,4.912636458499339796e-03,7.193764532008295118e-03,8.916263059562015703e-03,7.688488797873758648e-03,4.232473408863434913e-03,4.785959198599003782e-03,7.251378754028149111e-03,5.788817120915517971e-03,8.146369576234683760e-03,9.236376294996255856e-03,5.756542587228528733e-03,5.343584386601822785e-03,6.422258309926085797e-03,9.154193467675320051e-03,5.053810259317449184e-03,8.129864352580179129e-03,6.385665511462204624e-03,9.587711876252411405e-03,5.734786472024224792e-03,5.335005643040376458e-03,8.777578633567336905e-03,5.186824533491504047e-03,8.393814481290720261e-03,6.537040616810131655e-03,8.019129759775188784e-03,8.386971182220441870e-03,8.730454858297822043e-03,9.705800263031454794e-03,7.299377686686512462e-03,8.315333009720529342e-03,9.213236764281705279e-03,5.375911470444491233e-03,6.657966373690495619e-03,8.128659907763067724e-03,9.284554336157596968e-03,9.079201601729581378e-03,7.270224225634083944e-03,4.997410140042125339e-03,7.106322725742944026e-03,1.004976913610529550e-02,9.407149218653040185e-03,5.835873495936517649e-03,9.399800768876523036e-03,8.102885439314195040e-03,5.180780564765332871e-03,7.486998309225467198e-03,6.306080808926078397e-03,6.202199119539653603e-03,5.793961967533857102e-03,8.572162444988894181e-03,6.179798896748000744e-03,7.129154666022650619e-03,6.550187285696913893e-03,1.004185676509608723e-02,6.639823540551185836e-03,7.554344458915484770e-03,5.745023376497943209e-03,5.222185394424283880e-03,7.045349156929558987e-03,8.459784284180532979e-03,6.391326601757504194e-03,5.822893570465993880e-03,5.239434652184745723e-03,9.982046849977350284e-03,6.384329335212549777e-03,6.211638193302579034e-03,7.205129994662525308e-03,8.064781998140247571e-03,5.274628571066011275e-03,5.519915512140690338e-03,8.025552446909159018e-03,5.762365662632583548e-03,7.404216646567819173e-03,7.519574280078893461e-03,7.372254692153589611e-03,2.716709099834404076e-02,3.204519533091682720e-02,9.874262823962011437e-03,-6.631267737004380852e-03,-1.896208165414806773e-02,-2.197030214105143153e-02,-1.086039544499366877e-02,-1.097232365077982670e-02,-1.118013207255700615e-02,1.013091528369121364e-02,1.288689268020285633e-02,-1.043200006413841450e-03,-1.810410399604939213e-02,-2.819469503372508401e-02,-3.391409640384619728e-02,-3.259333986212274020e-02,-3.050197939316323659e-02,-3.004583659162904027e-02,-3.298935032891973235e-02,2.435626639276090161e-03,-1.860881796903349553e-02,-2.989408456507215359e-02,-3.624687065222702287e-02,-3.705035969554016512e-02,-3.597297365492435617e-02,-3.245818500765268455e-02,-2.640962298928851981e-02,-3.335310587351085487e-02,-3.898601847098048800e-02,-1.780232156479875927e-02,-4.223470527138880465e-02,-3.912840969222964455e-02,-3.308002796692394165e-02,-2.924725422892042459e-02,-2.189109698558283634e-02,-1.284237275549414414e-02,-7.519227507736362358e-03,-1.133966167512821810e-02,-1.918988798127025525e-02,-2.153611022629604854e-02,-2.410804346947518356e-02,-9.080519857989828927e-03,-4.960009840433432515e-04,9.821142444766253060e-03,1.858053236895575860e-02,2.591365059712758684e-02,3.447416300226496810e-02,2.649647922269875860e-02,1.418874713370578064e-02,-2.282336932109266942e-02,-1.611311152951202391e-02,2.117277895461804407e-03,1.546427271211645894e-02,2.687651217743556448e-02,3.625868211636330829e-02,4.815915596742005589e-02,5.265425586678364189e-02,4.665494933567867347e-02,3.179167635457786495e-02,-2.489567723961251880e-02,-1.834251071200243555e-02,2.551029826403957215e-03,1.286763923974153755e-02,2.894458018576013050e-02,4.048465533881950851e-02,5.086407226492624389e-02,6.036631901243127984e-02,5.367836926524273411e-02,3.650818124227357686e-02,-3.002883464175281486e-02,-1.850169975569705694e-02,-2.766035833492025420e-03,1.196224467125762796e-02,2.514130690697689158e-02,3.895671482560285337e-02,5.072995528425339185e-02,6.025540422257033568e-02,5.299333384623310106e-02,3.336836130921368160e-02,-2.960855787826445484e-02,-2.618989754896771521e-02,-1.224935752487272406e-02,2.990241040830513702e-04,1.194323553869691343e-02,2.796386950526882215e-02,4.139387670063292973e-02,5.128269105922188958e-02,4.689504459303291128e-02,2.316913711135538956e-02,-2.515055129292172870e-02,-3.058487548288275210e-02,-2.115841159212570807e-02,-1.321768782631877436e-02,-4.318266771094708342e-03,8.776410508470361416e-03,2.035361132956521948e-02,2.771952399378757939e-02,2.278000197698431747e-02,3.680727925594502042e-03,7.613916732844287945e-03,9.917187098863803479e-03,7.584124347481405008e-03,7.550950399388245415e-03,8.857197021236832418e-03,5.432719805318737827e-03,8.274668247813810051e-03,4.828815115752193611e-03,9.515812475887943864e-03,6.553570548440940113e-03,8.288074933441675826e-03,7.518137645528157227e-03,8.205214163119617377e-03,9.152325078493136687e-03,7.528482930834776848e-03,6.903108998553571241e-03,6.630958792728277283e-03,4.831837055181959981e-03,5.488670698379972956e-03,8.262993011906489410e-03,5.245765216012935293e-03,6.785207101292688343e-03,7.582287859173727877e-03,8.029024617649637222e-03,4.856418422718341600e-03,6.111257637158040885e-03,6.712691984034769264e-03,8.935760628360142621e-03,8.781256973361108165e-03,5.862761517579736202e-03,9.120211671029476372e-03,6.557154515832420982e-03,8.854246444095822260e-03,8.275252295650972756e-03,5.547912545302920335e-03,6.295713307689585272e-03,9.487969873854220498e-03,6.692039979802561454e-03,5.417615187546361878e-03,8.653408242246248688e-03,7.146692342510865652e-03,5.792816530147363620e-03,6.832050913054315416e-03,8.752514230106962431e-03,8.319908393246221168e-03,8.702921110608295707e-03,6.087107355537036898e-03,7.529067535756648645e-03,4.951375873351168341e-03,7.457927474580744974e-03,8.064670223189402201e-03,9.276723368070326561e-03,9.782701815185522801e-03,5.864709155792542997e-03,6.245970370894254539e-03,5.365368790606991033e-03,5.813301372560847509e-03,5.964864054306628915e-03,7.043813761550514821e-03,5.230848326581233158e-03,8.136381000956710227e-03,6.627413453447947994e-03,8.908618465413568888e-03,5.144860491201721023e-03,8.209086006001738156e-03,5.346975258047834308e-03,5.432616361458837174e-03,5.340403850638109073e-03,5.756550328741336271e-03,9.831045758618123243e-03,7.581669317485050484e-03,9.394405302969989144e-03,8.495637326443815016e-03,8.168180385856248574e-03,5.811373704846006100e-03,7.609321385470483277e-03,5.761392243097917393e-03,5.531822855709399647e-03,5.117559642367985884e-03,8.918663177257108582e-03,7.116387264770443477e-03,4.645822371836064515e-03,9.427302598317250162e-03,6.639383580442297095e-03,4.894141560717519580e-03,5.638410600967868301e-03,6.372515945917445537e-03,9.082413694865756199e-03,8.689855142177203839e-03,9.798090261029677658e-03,9.257916146749603503e-03,5.694381369077165626e-03,5.434343911743205573e-03,7.831170972316531254e-03,8.077759218807174096e-03,6.872201385538088091e-03,7.913095862223320717e-03,9.778813891779000386e-03,5.877065796999906069e-03,9.600183422157968285e-03,7.968958288418218072e-03,5.890685522546314917e-03,7.424402648517715309e-03,6.431690724921550195e-03,6.271458599739633544e-03,6.602086737739484151e-03,7.576561475502427249e-03,7.489565862244022820e-03,5.157600198631970279e-03,4.377038925613259412e-03,4.147480116907116196e-03,7.519161081947185916e-03,5.054248690277617084e-03,4.588232397341150681e-03,5.263171262534838135e-03,4.756262207744462941e-03,6.448605556384091192e-03,8.540113457327278695e-03,7.133809481378265011e-03,4.829124697835250266e-03,6.540550561402014296e-03,7.927157883065567498e-03,5.285868515508806639e-03,4.040456533540431883e-03,3.980683443890265308e-03,3.974233467831262204e-03,6.891878337068519517e-03,8.182532016773498562e-03,4.382996720447890696e-03,8.405987321143473107e-03,5.081425291737561717e-03,3.969788317194907629e-03,6.478093239288811728e-03,7.902079797055048052e-03,8.508398681687172338e-03,6.078277856045423769e-03,7.122176660925292821e-03,5.433889764496392313e-03,3.816232085075416027e-03,8.682638228905439209e-03,8.445643703284214793e-03,8.253383596128382321e-03,6.557123674053913151e-03,8.120431410924180970e-03,4.632882778645472377e-03,7.139385005989538555e-03,4.694302113858895426e-03,5.913027283311339186e-03,7.473556130482388038e-03,6.641608205104024276e-03,8.130547215421533164e-03,7.835756619461946293e-03,5.779717537873714506e-03,6.045750784292812027e-03,4.621344383609017267e-03,4.636922787771958696e-03,4.202508487340585186e-03,6.833418879496700252e-03,7.884730309476091839e-03,6.726312520011353338e-03,7.078744092170128829e-03,4.508025641366575006e-03,6.789334878382518798e-03,7.912202799413002932e-03,8.156703254833950339e-03,6.528680758226127964e-03,7.219568701794168777e-03,6.669778873886230211e-03,8.681820938079169714e-03,8.427447290849692657e-03,8.600272955922728946e-03,4.596139809622820996e-03,6.569962280439978902e-03,8.726861473653851203e-03,6.509665459680862368e-03,8.254614792031218784e-03,6.911205466461971605e-03,6.263800403559959679e-03,8.560314207958975852e-03,5.025685478613770366e-03,7.612848806232692771e-03,5.734304688977948442e-03,4.533927094338441668e-03,5.982408436693727877e-03,8.444327625239309715e-03,7.391278799346315959e-03,8.130058043083501079e-03,7.217640457443441626e-03,8.672382515015904236e-03,8.009107482591207999e-03,5.635081565496562889e-03,5.301216381723665785e-03,7.180527804831032465e-03,4.868522599168180476e-03,8.646511815401495410e-03,8.749176772028185306e-03,8.770867236686439444e-03,6.157997799076931483e-03,8.068910554108753991e-03,8.711661991476916944e-03,4.679609793611096483e-03,4.094456691671515859e-03,8.071643544614473184e-03,8.181315423648393911e-03,9.100321851759914094e-03,6.231002827807647325e-03,5.083769890427463668e-03,8.849277157107328026e-03,6.112819253177141816e-03,5.560621297625109420e-03,7.082887569088128568e-03,6.436780741462754495e-03,7.123614660725171091e-03,7.296020567104910190e-03,1.033181532802443688e-02,1.019588646058527601e-02,7.495596667083494549e-03,7.265865025331796380e-03,8.083049604903644672e-03,8.327993306438755128e-03,8.357297833284378641e-03,9.162402929905911000e-03,8.350096758868566504e-03,9.212759263120129036e-03,9.005927413213481170e-03,7.944420898390196217e-03,6.446992366093823139e-03,7.724520054494673008e-03,9.304255013611067993e-03,6.966205606287557105e-03,5.997233143750014747e-03,6.785764186100914745e-03,6.107407877461097298e-03,8.359619627036537701e-03,7.825293278681887121e-03,8.927732724721660143e-03,6.040317764230127874e-03,7.018554375438349445e-03,6.280119910655633172e-03,5.705356186091294253e-03,7.130293639259478906e-03,7.302086781019707408e-03,9.540772177788300890e-03,6.743971392147543251e-03,6.676781523336803269e-03,9.608285578745207403e-03,7.010332318154103952e-03,6.368232771790043045e-03,9.728018230628509080e-03,5.323088595128137868e-03,5.540013288673035878e-03,4.764579719930643435e-03,7.911033495148728917e-03,6.602977050680015197e-03,5.757728866956812915e-03,5.843317668699664000e-03,5.947969569508873219e-03,7.939405254978226106e-03,7.172189838634773426e-03,9.782786530123372196e-03,9.328433975837734093e-03,4.547977804873106454e-03,4.495780420716442155e-03,8.928867031763300377e-03,4.547663353728093223e-03,8.722483810553660274e-03,6.761446877424741320e-03,4.812510898046299529e-03,8.482021123522651487e-03,7.238073052601971639e-03,6.949723688306373368e-03,8.746119003338884840e-03,5.568057689784372370e-03,7.604959417633690329e-03,7.331292139612637093e-03,6.699028341918366984e-03,8.949709035141634531e-03,7.111917774531204516e-03,8.122323480113465347e-03,9.749371159534973505e-03,5.626957726687181922e-03,7.170711832899615348e-03,5.723583490650104716e-03,9.432052412122986576e-03,9.567365134372054700e-03,7.664744051963451148e-03,8.577757538125351661e-03,6.160418025959814997e-03,5.809982296918050036e-03,5.367801779584069344e-03,5.197314301877591254e-03,6.635150021257958317e-03,9.283137414912772875e-03,6.178406096276058308e-03,8.326424191787095558e-03,7.059222407975212187e-03,5.227048969362640268e-03,9.042126889333266040e-03,6.351753902441783541e-03,8.980150691616202788e-03
-2.083344981741390434e-02,7.029729298111637992e-03,7.302145826241674374e-03,8.167117921232765199e-03,7.176029026298141184e-03,7.088913134604319516e-03,7.647786799561030399e-03,7.906098322877905260e-03,9.749372023601592108e-03,7.183830205124815994e-03,8.434001317767806857e-03,8.132529617215809165e-03,1.043373748553910393e-02,1.015974285979904732e-02,6.214910851618747449e-03,9.211875908685529177e-03,8.218589669880715237e-03,7.409096532374537247e-03,1.009286852411509124e-02,6.478209662508740974e-03,5.971670557412803518e-03,7.401834023642039212e-03,9.106146890942926064e-03,9.618547227937888910e-03,6.774454520801624115e-03,9.648193932866868175e-03,8.919626626074452641e-03,9.941699292651944367e-03,7.881678524472593428e-03,1.040189160103833013e-02,6.392331123215129300e-03,9.018232861947302753e-03,5.919722079829025860e-03,8.265676372626923687e-03,6.984924894651659173e-03,8.607738300503455647e-03,8.067166010487049344e-03,6.801549482117213823e-03,8.910234837241034697e-03,6.382874733711067783e-03,6.690046756791175574e-03,5.851734565094035730e-03,7.626516846146201567e-03,5.531230255871420233e-03,8.737625335845176922e-03,5.861920429456062356e-03,8.235052729750584263e-03,9.190117628537778499e-03,8.562154558217169309e-03,8.663913114961891218e-03,6.420481802821068756e-03,8.819876262223712293e-03,7.223452238957918554e-03,8.963212579769326213e-03,9.334895773781682130e-03,8.940095667537489160e-03,1.079061036620154561e-02,9.234953195066104500e-03,6.413228510436758817e-03,8.710614778251463478e-03,6.564042250717797185e-03,8.927103658962366045e-03,5.826589261765761918e-03,6.022401533661553459e-03,8.559431453615672092e-03,7.748620932707687460e-03,7.736093241419942507e-03,8.688385195875208272e-03,7.613394270596540725e-03,1.038745095636707007e-02,7.123978097819162053e-03,6.462081108366743258e-03,6.389175608466266497e-03,6.282841215042831579e-03,8.795734305440464085e-03,9.296764824949659695e-03,9.690436234860707460e-03,1.025797701849572030e-02,9.109151839124496677e-03,1.009024804870242362e-02,7.722094517990414977e-03,9.406522093689129865e-03,8.455049108179910414e-03,9.697437250033608125e-03,8.589506956114835098e-03,5.993344812676289386e-03,7.855347269545447098e-03,8.725991201970501737e-03,8.997468474159473623e-03,8.052904486706162837e-03,9.612832114258928681e-03,1.000237014028703374e-02,7.178796937956550411e-03,1.036010536924045905e-02,5.958735915341050078e-03,8.981088039130320430e-03,6.947074550746445976e-03,9.617314821681191908e-03,9.472888469275964063e-03,1.035802383887127892e-02,8.180004860560688082e-03,7.523191359138719017e-03,1.071720385777595597e-02,1.352694089720226853e-02,7.985489730071248377e-03,-5.763260886437930955e-03,-1.178015065465176994e-02,-1.378669463498221129e-02,-1.075501265046812857e-02,-8.955246688257601992e-03,-1.126897570646271524e-02,8.177854379153838560e-03,1.145612109498991837e-02,9.635137533721386746e-03,-2.255103684033455368e-03,-8.816504390631273169e-03,-1.123977285211374272e-02,-1.664530283731406254e-02,-1.597791485566561406e-02,-1.321881424719319360e-02,-1.357012702369961819e-02,4.592743909728830287e-03,3.239861927358503920e-03,-2.996943742218479128e-03,-1.427500643759373883e-02,-2.015070976774869030e-02,-2.286032089814183516e-02,-2.099004986977009296e-02,-2.446655268811083819e-02,-2.571827488422642402e-02,-2.653726643130091545e-02,4.715076402372420442e-04,-4.178016822993695437e-03,-1.393037436854790631e-02,-2.344832291865635299e-02,-2.571934576573446651e-02,-2.545828578804918557e-02,-2.875171382225403041e-02,-3.298776114904503065e-02,-3.565763282528829764e-02,-3.442533358583664549e-02,-3.843132766874113662e-03,-1.224336424086261768e-02,-1.901411800652629339e-02,-2.605826750715760365e-02,-2.676840151845980009e-02,-2.919735423926433579e-02,-3.155756992080357287e-02,-3.421987270428524658e-02,-3.939838276961499242e-02,-3.808954712778348656e-02,-5.333853932804187570e-03,-1.516260977213162303e-02,-2.358725785170195932e-02,-3.247513898508348762e-02,-3.428188462987328405e-02,-3.169767721967084451e-02,-3.323883562273580866e-02,-3.901619831229886926e-02,-4.280180004072115657e-02,-4.646641889445075890e-02,-3.775448706606204796e-03,-1.772449056692969316e-02,-2.529054774990270593e-02,-3.322419064393936777e-02,-3.361043272598814025e-02,-3.470710354168576178e-02,-3.449053272083636712e-02,-3.737371618022221342e-02,-4.535003092908940908e-02,-4.743689548236162956e-02,-2.012888426113782284e-03,-1.438672730569448381e-02,-2.436433433012291649e-02,-3.258186057534742663e-02,-2.965040915406626579e-02,-3.218624361838701153e-02,-3.563299118933908188e-02,-3.772007832730416704e-02,-4.315230421161702495e-02,-4.665008578901369551e-02,1.180165344426289953e-03,-1.321615779832994997e-02,-2.394963663171497184e-02,-2.916508315606917978e-02,-3.281362731912061681e-02,-2.828543517987359285e-02,-3.125361926682745928e-02,-3.716214182766189311e-02,-4.233105400556967657e-02,-4.302478912924921628e-02,2.067835244357319174e-03,-9.186469056356852403e-03,-2.185398402869241988e-02,-2.864694618809466090e-02,-2.824133520417893353e-02,-2.669569180700948410e-02,-2.985583502987326776e-02,-3.375493203118851149e-02,-3.686639668601690567e-02,-3.671098285307551612e-02,6.950387839389306904e-03,6.234150695096643373e-03,6.098193667317164217e-03,9.452738123705202791e-03,9.412816399671954451e-03,7.087832648554846619e-03,6.329610968216471678e-03,5.450601333216368791e-03,7.961531565967757892e-03,8.435501259166236845e-03,6.532177373733196422e-03,8.951312057976069589e-03,9.256064490134326833e-03,8.772238464677058895e-03,8.623205794679851544e-03,7.175708765171279896e-03,9.309646523647675115e-03,8.964546332844016557e-03,6.923737772367888517e-03,7.071740411681902948e-03,5.432238165555022640e-03,6.566680585505560788e-03,8.896844965469642708e-03,6.783337426656055498e-03,6.580004797356672416e-03,6.731703334845583891e-03,6.119515585401615054e-03,8.086352607733096262e-03,6.979124248531301186e-03,7.831385083889337920e-03,9.223731387185702540e-03,9.813184884626723406e-03,7.992887802252929622e-03,8.615307849094542073e-03,8.054056262798637428e-03,8.896368251883928630e-03,6.485217182046886832e-03,6.530282698840861148e-03,5.820450371014849501e-03,8.055220110045191798e-03,9.914439585390436363e-03,5.285143494601363297e-03,9.220323306655387602e-03,4.792912672848203236e-03,5.996528418473124310e-03,9.531910899641610549e-03,5.608568283134960329e-03,6.025233753278737628e-03,6.785953215033998370e-03,5.857539868086855152e-03,9.749745053814120460e-03,7.292554428002317318e-03,7.782126992029739926e-03,7.898468067876494858e-03,6.242951989872087132e-03,6.446106136320346562e-03,9.014279087604435900e-03,7.289361845816402438e-03,7.522193646260487768e-03,6.783666870293966929e-03,7.399555353488578187e-03,6.067121689911609585e-03,7.841835530105915886e-03,9.063866640309560865e-03,6.854265314333929555e-03,8.389583367395854127e-03,8.229624533779770004e-03,6.317614138633180498e-03,5.588448592084853568e-03,8.446895670731908654e-03,8.501544450873718337e-03,5.025634012949757763e-03,8.276501096836762911e-03,6.260724895566912793e-03,6.948814769790305490e-03,8.123216160272879113e-03,8.704857322374966871e-03,5.868981640460083082e-03,7.473857948226110028e-03,7.690136853893792673e-03,5.101935310368604232e-03,6.162417759054848385e-03,6.625033758384830419e-03,8.269828110038119143e-03,7.435504859747953284e-03,7.597008670674427165e-03,7.536163023928760252e-03,8.264097088636403535e-03,7.479515982515009404e-03,6.086706788903412969e-03,9.263753643494014589e-03,6.230169313698010955e-03,5.390833272426549458e-03,7.028918827447247324e-03,7.320651175514011379e-03,5.718035608033807983e-03,6.076214227972475020e-03,6.737268625983778951e-03,8.413195402823014576e-03,6.206555956115156550e-03,1.077965781855732760e-02,1.054655450666014752e-02,8.368468413416959087e-03,9.620496052788442970e-03,6.897814707315571940e-03,1.045117902706544852e-02,6.616146757305621691e-03,6.465173491753986763e-03,1.079556219705000986e-02,8.989158789647625630e-03,1.013358644550438337e-02,1.032689456206225750e-02,6.411806850541092347e-03,9.378606698148397869e-03,7.998725172996878907e-03,9.305554419460772275e-03,6.398732669127390506e-03,1.041430353253619198e-02,5.857422350154979813e-03,6.501845530044156156e-03,6.900520937434634523e-03,1.073021086663826160e-02,8.905132880918948529e-03,6.194152002400866476e-03,9.588600779323403628e-03,9.652239549378806294e-03,7.495419223112815242e-03,9.951895856037725613e-03,6.771438818615835124e-03,8.694064377822456960e-03,8.011069896094095630e-03,6.647237113307265764e-03,8.957587450758294767e-03,6.076446319482929799e-03,8.430020016102995548e-03,9.368373594082657352e-03,7.755343038249308714e-03,6.812031973804010161e-03,9.877059532615521664e-03,6.386834354665637224e-03,1.024567278287497052e-02,9.275418798241646945e-03,9.898233621435478802e-03,8.238163544905297703e-03,9.915216976792200210e-03,8.302034639847197597e-03,9.879478564437566696e-03,7.949946553619247069e-03,6.393670099579549203e-03,6.761425597164249200e-03,9.214129410298373124e-03,7.393558840079477064e-03,6.770953192799112307e-03,6.699525362855175172e-03,9.011000734796940220e-03,7.975140738643280575e-03,8.535149352067764386e-03,7.664643427168092195e-03,8.333913978037637074e-03,8.437900273054734987e-03,9.113914690890127096e-03,7.955364151914556814e-03,7.375704763436093277e-03,1.046975095662768668e-02,9.413139708799540817e-03,7.117220054263334768e-03,7.794734898461805166e-03,7.792337760346609334e-03,7.707282013149797419e-03,9.367682172244793520e-03,1.079430054157204388e-02,8.309625301547220524e-03,1.001008982116786961e-02,9.418121911109605948e-03,9.274624241996012181e-03,8.468185395121200984e-03,7.722074636587201134e-03,1.075935745150086165e-02,7.786802456442399288e-03,8.586349548898761577e-03,1.082244006086035756e-02,7.684557560629333602e-03,9.113535413837824117e-03,1.036268341785143501e-02,7.971315555170537664e-03,1.022883757581752665e-02,6.655509976305945367e-03,1.034234757801384685e-02,7.917625666139668783e-03,6.928407082810014196e-03,1.061625845293200782e-02,1.043778041302432028e-02,9.013142919512089762e-03,9.572239040674584976e-03,7.799484382590969080e-03,8.055796292464428160e-03,9.068303897533103175e-03,7.710144395564311713e-03,7.031528309303075770e-03,9.567736467195667865e-03,1.026771366894907098e-02,6.509709616193316666e-03,9.787687111193762307e-03,9.912209039442863856e-03,7.106556252629241295e-03,1.138770544828051658e-02,1.152833061922302858e-02,1.158387661387559088e-02,1.120649460286827354e-02,9.647627528671601921e-03,6.792613349290474445e-03,9.685147167440996685e-03,1.047987988259903303e-02,1.033328519617448225e-02,7.725321664290018230e-03,7.726691403356058564e-03,8.503984009044064998e-03,7.579537354417640108e-03,7.269037540697780714e-03,6.530971023424758659e-03,9.906400942516085245e-03,8.954756682996509523e-03,8.991647954930835976e-03,1.143704063652447797e-02,8.985507604281033414e-03,1.145199986129734337e-02,7.060193747692412522e-03,7.623463120676157029e-03,9.192264348621893844e-03,6.761833863308352836e-03,7.751738108897056508e-03,8.603312574739455793e-03,1.156241151300939178e-02,7.267108370960805898e-03,7.315514229790198546e-03,1.048234236324725559e-02,8.237307960363204895e-03,9.377347319907251150e-03,7.068083140771908197e-03,9.390400519755403783e-03,9.409897025320057215e-03,7.597023388305789923e-03,8.911771215712443323e-03,8.104234984635772313e-03,1.029300877066196586e-02,1.001642978126310833e-02,7.948700846857821231e-03,1.061264660269003145e-02,9.144070921576805122e-03,8.376652424346108655e-03,7.696507097246141696e-03,7.983880114017427934e-03,9.914699539249652652e-03,1.094737769245262247e-02,1.145920986818777139e-02,7.321480226629483411e-03,1.038051966880087530e-02,7.823735077395236118e-03,7.316745447037228782e-03,6.493747378894448169e-03,1.110825614048844591e-02,1.091270150978165994e-02,7.073539491108305280e-03,8.603998981228749149e-03,1.061474250931526524e-02,9.542784548868896849e-03,1.096025486443942716e-02,7.632961925987427100e-03,6.738348986436382138e-03,9.152190580969216463e-03,7.725376415917130542e-03,8.358506677389285211e-03,9.145500782214566540e-03,1.127404490176902967e-02,1.158001914767502367e-02,7.836635561812296119e-03,1.136771693107237191e-02,9.746354467270791980e-03,7.450405382182830744e-03,1.010762396725859748e-02,6.432771701918762151e-03,7.946549725086862748e-03,9.569465456188381430e-03,1.043851726973618090e-02,6.575048537817938625e-03,7.409480684480348675e-03,6.159871367027221038e-03,1.015698831158537603e-02,7.615144676391485262e-03,9.883565533416745208e-03,1.125844141702480108e-02,7.046060394640181468e-03,1.023499088040300334e-02,9.859885011644413388e-03,5.766141487270257798e-03,6.310245118298397037e-03,9.451220152315812500e-03,6.386830115338108446e-03,9.108241492883856552e-03,6.425093198378729019e-03,6.194909168707322597e-03,6.659161759786573313e-03,8.286583462302363201e-03,7.949708103343203561e-03,6.802927189542575491e-03,6.263457441051891242e-03,1.070452237368113568e-02,1.037332009365663117e-02,8.139801633145439183e-03,7.791321598602429267e-03,6.880171650019511337e-03,8.679886961545700205e-03,9.731653526432036683e-03,5.958056565787429697e-03,6.166548032756398283e-03,7.135754432890616811e-03,8.313583112871551772e-03,6.958996889411664388e-03,6.382720693863388334e-03,5.558823649776847842e-03,1.033581006372351514e-02,8.219900744194709799e-03,8.731234681124454625e-03,9.787299198314870774e-03,8.496823354405359796e-03,6.845724833197426931e-03,5.901599920516516738e-03,7.628361372838641206e-03,8.145266488979978001e-03,1.003524152331812178e-02,8.944118885731459564e-03,7.233066021350527050e-03,5.048917667933726545e-03,6.730086414695196292e-03,9.345621137872694301e-03,6.844592706640634933e-03,5.111048701019943463e-03,9.598620519925386146e-03,7.245303567489493578e-03,5.736588503324984052e-03,1.036381680898384311e-02,8.451017161799821709e-03,8.521667201322569857e-03,6.545973552921237511e-03,7.766638246973035960e-03,8.707426955879636610e-03,7.938217193345411746e-03,9.084886962541042013e-03,8.830197789590543689e-03,6.549836315215933936e-03,1.034775606371726372e-02,6.535505052967810306e-03,5.492606679261388160e-03,7.333807836400680832e-03,5.296793448094334368e-03,6.887539276678462073e-03,8.484935381487241843e-03,8.411772082317943780e-03,6.035828463330501596e-03,6.149184048260395927e-03,1.014872309031962516e-02,6.697723367686689300e-03,5.552483257301003838e-03,5.476533027795949145e-03,6.256342469758290233e-03,7.098744660522894774e-03,8.366343104549180121e-03,5.668658304018946333e-03,9.361890472025052173e-03,8.434365381261195449e-03,7.595879364792167653e-03,8.127339644522928869e-03,7.426672532282426083e-03,5.702706106529594268e-03,7.481749653861824272e-03,6.718065277045021967e-03,8.652247208352592187e-03,5.437590657477138663e-03,7.051012553077439481e-03,9.625545298008830394e-03,9.327751755397789904e-03,9.154496858184689792e-03,8.354116382122864573e-03,9.326880723360944994e-03,9.435876961498494697e-03,8.314937736287598274e-03,5.766606795284675430e-03,8.030096660661602270e-03,8.946263090477917998e-03,9.484288481104238486e-03,8.367355609407227737e-03,7.257178411602602242e-03,6.846414826024004724e-03,8.091990760646606759e-03,6.172955782639454048e-03,9.537810411063742805e-03,8.188668171705291987e-03,6.019806071850872416e-03,5.243910687076981311e-03,5.472790923177464975e-03,5.297831563888350317e-03,1.164828883675042732e-02,2.555053675798655763e-02,1.503435239686952939e-02,2.001017276098866760e-04,-4.499114825304590531e-03,-4.075504732918062804e-03,1.942500494064786261e-03,2.141307951252195349e-03,1.957487487243412226e-03,7.820231192841125417e-03,2.696389970688646553e-02,5.517073128743222449e-02,4.937309128372609907e-02,3.661150311755229092e-02,3.215766998653821901e-02,3.360383287550706283e-02,3.607038907726090732e-02,3.886193816840505938e-02,3.808076966230253962e-02,4.192702436894996283e-03,4.165167810468626414e-02,5.989426866143157668e-02,4.732731010615572748e-02,3.170503687234148271e-02,2.711085707024492655e-02,2.534601302343646514e-02,3.040106752629597592e-02,3.228726084667179336e-02,3.820744295871213864e-02,4.842118713252999487e-03,4.564799247551624278e-02,5.898571944312076820e-02,4.213852868129060875e-02,2.650035178043786549e-02,2.304105668592117823e-02,1.938416562525848569e-02,1.928468443433235119e-02,2.276453254123158090e-02,3.196845528561325506e-02,5.575319363600210291e-03,4.172176009988115553e-02,4.763023261872387226e-02,3.349973249106932144e-02,2.055570699273078297e-02,2.059798765366500223e-02,1.708521431944650532e-02,1.000024839505881703e-02,1.259489649849533828e-02,2.078750220367071508e-02,2.582990910089540473e-03,2.892764035007820700e-02,3.617255391924150548e-02,1.972548565507332291e-02,1.141570417218324557e-02,1.317271997131387248e-02,9.054078981360420136e-03,3.285231414834495316e-03,1.065281900031192323e-03,1.460626677619235141e-02,3.101395648345089268e-03,2.646494469854107981e-02,2.838493734342685884e-02,1.495904693229489074e-02,8.914937257501726053e-03,7.522859622425819015e-03,2.809425525271450411e-03,2.618427585858928638e-05,-3.376671182283943508e-03,6.842535946700167328e-03,5.743692887821568761e-03,2.546199553918491662e-02,2.731481241666516499e-02,1.365471603792175505e-02,1.143276869336543392e-02,9.139868900060025420e-03,4.455479527279619309e-03,-1.733328075407964287e-03,-8.505079057264160886e-03,8.482900448797526735e-03,5.415367952750453975e-03,3.080077881012011076e-02,3.150668407270945659e-02,1.725899318185317166e-02,1.045880164889201845e-02,6.219326380125885477e-03,6.964676320787279926e-05,-5.248862103750352032e-03,-6.649208589457545476e-03,1.144247857767245920e-02,5.638604070655118226e-03,3.600838064947261413e-02,4.366399017607006799e-02,3.274843085996267944e-02,2.333029162025779604e-02,1.744284841969213559e-02,1.281187937260507698e-02,6.631818761856456655e-03,4.439103546166962150e-03,1.851954274708290590e-02,9.920900828864494259e-03,8.977432055860469495e-03,6.830863348468933782e-03,7.655916555367220551e-03,9.760448804697256439e-03,8.334290740658461052e-03,7.360798255410227683e-03,5.986054251567870035e-03,6.002965687423483451e-03,8.469415518091154282e-03,1.006259095622904533e-02,6.080697859644843516e-03,9.810992061924025953e-03,8.066803281885935595e-03,5.554197579309547682e-03,1.031555226598844521e-02,6.582734208612994742e-03,6.495893763628357576e-03,9.844992725713222481e-03,1.019473771603138755e-02,5.929349321892496590e-03,5.938599776151164307e-03,8.431637477025475183e-03,8.428059581722381968e-03,9.585738526643279231e-03,6.903646078777953173e-03,6.038523172543847767e-03,9.016261930157554519e-03,6.404093214936805792e-03,6.426183928354907079e-03,8.296028070670268678e-03,9.618494934356743020e-03,5.647990834985898434e-03,8.587409009016413325e-03,1.000362338616539622e-02,6.707404355258204075e-03,6.054272394013470587e-03,5.729841392891415856e-03,9.289402669250365618e-03,6.933204464553453968e-03,7.067125411618805503e-03,8.741677236656064318e-03,7.131784382575674652e-03,7.670651525163882552e-03,6.560149398477693912e-03,6.946692262801718726e-03,6.724032088185108100e-03,5.588542181310607315e-03,5.349388471704627675e-03,7.083146687988879642e-03,6.360240610852464609e-03,5.459847971557125861e-03,7.385337954928231606e-03,8.280518672983103873e-03,6.072084077496954328e-03,9.594095824049806223e-03,8.942399279228862435e-03,9.210771349293350729e-03,5.196183672585541133e-03,5.947272777377184301e-03,9.062119871284066153e-03,8.604867436625630167e-03,6.842850895797058207e-03,8.180420920903080234e-03,5.262639680035903836e-03,7.830417218948695218e-03,8.244206592476285497e-03,6.842692861564574937e-03,9.968680273951062085e-03,6.623932992479326064e-03,7.485907156645526389e-03,7.563677296346034938e-03,7.985804338795201088e-03,6.012299815141106119e-03,6.634653397472331862e-03,6.730191442519265106e-03,7.930571672258999311e-03,9.460875825139221373e-03,8.057522149163573108e-03,7.090632215847704652e-03,8.580012952317367034e-03,6.470564036618804173e-03,6.362846745415776974e-03,9.539173712721032983e-03,5.859924663031950386e-03,5.201855633925720965e-03,5.626242471683934147e-03,8.615971805221988092e-03,8.999567207026038657e-03,7.097718237436777093e-03,7.294672756065352995e-03,8.425981981079510089e-03,7.423524438510557648e-03,7.218662700608053165e-03,8.268495418839751782e-03,7.943123187378829317e-03,9.615531702308914228e-03,9.622297363899398603e-03,7.321622597545242306e-03,9.923816416392765988e-03,6.005300296143476803e-03,6.464285483858372809e-03,6.708156062412362446e-03,8.741420369296263454e-03,7.695412938827170084e-03,7.699392693934281780e-03,7.546874270019896490e-03,8.685887009513481791e-03,9.588960483379170563e-03,9.634514356120938566e-03,6.047709407160793867e-03,6.389099177703336067e-03,9.612271905196961147e-03,1.082250107165822622e-02,1.013018831918476720e-02,1.057393698527290746e-02,6.970530394948549514e-03,7.159758892322776007e-03,6.354944225163880987e-03,7.229097084672076075e-03,1.069748186232714199e-02,7.637761536927145829e-03,6.537689787205951640e-03,9.368691543550300427e-03,9.674822065509545294e-03,7.502035709471085827e-03,9.860511442228540868e-03,8.441659437960149712e-03,1.013700640367445546e-02,6.456957350453272453e-03,8.659490318245742849e-03,6.060798268234988094e-03,9.907542554008212654e-03,1.017852319726563273e-02,9.357898929320131176e-03,7.798359658003952040e-03,7.910198411231361693e-03,7.110648251754686337e-03,9.815613427349764025e-03,9.122442975187119996e-03,5.894068934201578645e-03,6.863372434843916479e-03,7.016031399170373668e-03,6.429386385942244785e-03,9.034223152755732622e-03,9.112876543767006038e-03,6.426522403464650195e-03,9.362213297343876389e-03,6.205917987306211643e-03,1.029599127819811125e-02,9.649414816189860744e-03,8.076249630306590530e-03,6.636111011365161509e-03,9.254911512046111455e-03,7.382519729435317417e-03,1.053881706853872224e-02,9.983576279719727498e-03,7.991404114075376444e-03,8.857633030851179423e-03,9.529636213340252765e-03,6.504050280040544509e-03,6.458940141896745042e-03,8.197311572709475858e-03,6.158389372554073753e-03,8.586294999669985203e-03,9.073492101002240268e-03,9.781189565261617924e-03,6.950488093144964290e-03,9.823051599602738299e-03,8.623437232359908514e-03,8.668763951357294495e-03,1.028389815130334797e-02,9.270459791642704506e-03,6.181591341943816313e-03,6.687071343006389078e-03,1.066402286536683591e-02,1.037754785673943719e-02,6.686225339925438126e-03,8.205753972919777386e-03,8.904211545969150515e-03,6.623669626480726234e-03,6.555420098896285429e-03,9.413885857994880313e-03,6.132785547952585188e-03,9.939065416246638252e-03,1.072334462111662265e-02,7.873834172630088737e-03,8.380896534702171954e-03,9.344457531358617286e-03,6.670744689353185798e-03,5.955459207083253943e-03,7.150665652678093488e-03,7.985105528895143981e-03,6.166896032049065494e-03,1.020134109518939375e-02,7.683938987868785438e-03,9.036123595983255874e-03,8.702778585157888713e-03,7.462344046840238380e-03,9.297215423278902546e-03,7.351322722734645113e-03,4.857301540374672592e-03,5.490032404333534261e-03,9.845350374403693053e-03,1.025464861778992327e-02,6.427299959038259430e-03,7.767873989558689123e-03,8.126317129175072637e-03,1.061529821576654049e-02,1.027311015219191902e-02,5.559293931456559326e-03,5.821769813114524572e-03,8.581506790542222859e-03,9.451612089211304871e-03,6.984220405803435311e-03,8.407710743352125177e-03,7.098783792974391882e-03,8.538308533923819749e-03,9.774462907007463314e-03,9.432631602181225372e-03,7.050246565369081009e-03,5.046343344535189450e-03,5.788673299982120130e-03,6.014349022205362112e-03,6.656388094109203131e-03,9.379938799988003784e-03,8.080288115605781599e-03,7.709744023064648427e-03,7.208656791762198257e-03,8.979983777874451026e-03,1.012150052576933287e-02,8.768949819293844414e-03,9.569130703597550358e-03,8.447120814603789607e-03,5.494136210447341136e-03,5.988760690220647220e-03,7.652510270070760415e-03,5.497847886020010982e-03,6.072144405894077702e-03,9.980981562473435764e-03,9.970621925801328653e-03,6.832227821344123535e-03,5.833424543857246812e-03,9.284120252623760325e-03,7.798024824819015793e-03,8.005238399189632328e-03,9.591697431351246111e-03,5.305195641681336935e-03,1.006043112950762326e-02,9.235800476731118730e-03,9.850501182088820806e-03,6.805570571354351353e-03,9.367266905691054232e-03,9.483245193733409045e-03,9.694594881381680268e-03,5.952020595698481568e-03,