-8.241989533184719552e-02,2.245860814177929254e-04,-1.133781967630760829e-03,3.280195922547990330e-03,4.470311042122941669e-03,2.935184864510944572e-03,1.111094168869815020e-03,3.282197454638236932e-03,2.150957903751787598e-03,3.957706718738852360e-03,2.331955293738426516e-03,2.107581974719556668e-03,1.596433013121828460e-03,-2.612864724519373865e-05,2.500771272909492905e-04,4.284076472858156111e-04,1.103555523241407004e-03,-4.103349279453870260e-04,1.460337114184938985e-03,-1.650071117392383924e-03,2.946563996947532908e-03,-5.881125392726701488e-04,2.141349920717010302e-03,4.269169397248500329e-03,4.920820470955363478e-03,1.446616635364828853e-03,1.202203238816514303e-03,3.247990383147453079e-03,-9.311168599619275765e-04,-1.430279375045062889e-04,-1.176578023077546340e-03,2.115408399082086867e-03,3.616854407301341601e-03,1.806152679112900785e-03,1.665212731819068351e-03,9.101689660292953390e-04,1.925930605756850673e-03,3.288225768585605405e-03,2.772906370025538100e-04,2.579825980688253912e-04,3.218044641932252237e-04,8.550028944264476171e-04,3.437119197492993078e-03,5.540264565858213190e-03,4.938537830708774126e-03,1.864200319022477157e-03,3.347176231973353604e-03,8.709873108954942862e-04,2.024581266972430398e-03,-2.301149497475454657e-03,-8.037563450082852671e-04,2.476255224525622176e-03,5.347771601722318101e-03,2.797418519179077634e-03,5.271661327586689948e-03,4.304505269802832122e-03,1.502862862265729946e-03,4.077641265373113146e-03,1.893204861269878444e-03,6.281493202915221924e-04,3.055102500584882326e-04,3.434841465365637194e-03,1.643907692655326982e-03,3.334258610579240480e-03,2.945729333005355291e-03,8.986580149128256274e-04,7.824491481864583866e-04,-6.724242378193990731e-04,1.204133887387923369e-03,-9.622498456575618621e-04,1.648975881480897179e-03,9.183267549549183669e-04,3.169019557883832796e-03,1.307812316842037192e-03,5.882936579913354384e-03,4.865485651350284595e-03,5.473826975075491265e-04,6.484795112882433881e-04,-2.928433174459654439e-04,-1.686535062949221647e-04,8.421032643711691325e-04,2.126102194454687535e-03,2.876118851625602928e-03,1.695017239680540223e-03,2.174558900014833106e-03,2.651609196670541915e-03,4.468176561177440373e-03,1.635240693519689203e-03,1.128009758326699091e-03,-6.264948042355314244e-05,1.021172219695164933e-03,3.512491996909012336e-03,5.022412605327264412e-03,3.098685113604143782e-03,1.861801416365761698e-03,2.388872864490736159e-03,2.691772367587083430e-03,9.055666255622907800e-04,2.365915867012479291e-03,6.598257578368883552e-04,2.650762586391037373e-03,5.812666575248685678e-03,-3.068247659515635148e-02,-7.909823475042615515e-02,-5.733445517441669581e-02,-5.369538462793283645e-02,-2.773852055711544320e-02,-1.667639050326564371e-03,5.070760655138998284e-04,-7.727822487325145158e-03,-1.081627538866543510e-02,-2.890493886908621773e-02,-5.281335744047524483e-02,-1.200351092541701928e-02,2.851610565701134456e-03,-1.265709429421387963e-02,-6.079556100210530695e-03,2.636990123053074841e-02,8.331546990105706540e-02,1.019077178697001956e-01,8.992839197660257300e-02,-3.700205836818790811e-02,-4.352006841183846814e-02,-1.909550356552943209e-02,-3.387528715734668128e-02,-5.118880459967918573e-02,-4.445404108832733125e-02,-1.637701611015810604e-02,3.689175663129058008e-02,1.063770613407501731e-01,1.175742009932281146e-01,-3.365219294288988860e-02,-6.410447700406887717e-02,-4.116573743208751940e-02,-5.863934586108558722e-02,-6.337914456167226263e-02,-4.070355044104842501e-02,-1.763601185588884596e-02,2.861467606336518324e-02,1.017478644390923670e-01,1.455644611289070023e-01,-4.795019647771642940e-02,-5.688879552546256130e-02,-3.583736914789871497e-02,-6.362088358013176514e-02,-6.046125973041125562e-02,-3.645264686643925889e-02,-8.476996615609119767e-03,3.183291912974242632e-02,1.015036898829121542e-01,1.633123254893782961e-01,-7.383672063038869415e-02,-5.058150472633909933e-02,-3.176742353803301000e-02,-6.478479737331765964e-02,-5.802912871256250826e-02,-3.630735100556850559e-02,-7.597043269152904330e-03,3.001827760131231190e-02,1.018265014620463038e-01,1.594056510956010919e-01,-9.564583664568999943e-02,-4.429326490659858673e-02,-2.724608012031417073e-02,-6.302586100245166634e-02,-5.563495174386965531e-02,-4.188145652011066034e-02,-1.445361189933102100e-02,2.928816620839030244e-02,9.549985262781417183e-02,1.466034462251738502e-01,-1.141014351762291573e-01,-4.731584663670840990e-02,-2.890443071278236964e-02,-5.821555119547188600e-02,-5.231450378430962944e-02,-3.429105998873720196e-02,-5.808688258021468126e-03,3.597972166705180885e-02,8.816991335546910113e-02,1.324580911804205952e-01,-1.285100809926217336e-01,-7.425392819937325084e-02,-4.917777023198974251e-02,-7.204393277818439689e-02,-5.699181746307246249e-02,-3.657631030922810916e-02,-5.106046131081953821e-03,2.403242008403939228e-02,7.432514805617676523e-02,1.114891379841925767e-01,-1.336722942055336150e-01,-1.049886973900332060e-01,-9.187823437257180981e-02,-1.160038926121750302e-01,-1.136966955171587745e-01,-9.248345889055482882e-02,-5.221654002720368254e-02,-5.408707591386925986e-03,5.839830695996915677e-02,9.814367149099142984e-02,6.943889714227514769e-03,7.767983960403589995e-03,5.269924521596274468e-03,4.363336963027823930e-03,5.894477792463713103e-03,5.016213557296137458e-03,6.396777820334126341e-03,5.799798292973393915e-03,8.192684171387014380e-03,7.444282490242083022e-03,4.470312177369475601e-03,8.972422676896497917e-03,6.327581676630033777e-03,6.180641778206583982e-03,9.335997741106147330e-03,9.449065244190443455e-03,9.381941462986228761e-03,7.732899173940808481e-03,6.892613502748238564e-03,9.644279442706252259e-03,7.638032433910624773e-03,6.991382356207179183e-03,1.021565757617491112e-02,7.097580447601934718e-03,5.638358949895008569e-03,6.618793326104144108e-03,8.828360731599505309e-03,7.884786366294610493e-03,9.806721910438135487e-03,6.000547380386705813e-03,4.930422601011359013e-03,9.437088613695373759e-03,9.753279235745091966e-03,9.394889331329227961e-03,8.851257111418864981e-03,5.225110096674245690e-03,5.682473889573540216e-03,8.510187885813737252e-03,1.067487008173314232e-02,7.697854518506369419e-03,6.719011817335788020e-03,5.757263110832325399e-03,5.114296250359258444e-03,7.042048117279550191e-03,9.017604148306395187e-03,7.684543049565108370e-03,9.730533918860371015e-03,9.043249219929650612e-03,7.415440449995483289e-03,9.587423753005417867e-03,5.557543025655699645e-03,8.883918697914449519e-03,7.702676256532245413e-03,5.842210222262799769e-03,8.366014066678053446e-03,9.207755771254225174e-03,5.977511803157010105e-03,9.846650104564423286e-03,9.316744766708804151e-03,9.174078525484125404e-03,7.942387631217939434e-03,5.684440732326963633e-03,6.153213286189814293e-03,8.710526861700606388e-03,7.317411476351972852e-03,5.540599829310749631e-03,5.988541707824586273e-03,7.687072551381478325e-03,9.456706532186042249e-03,8.258103049478006039e-03,6.692032323148443436e-03,8.837203246963153125e-03,7.335102226360096060e-03,8.788109439388481006e-03,9.179875274897756135e-03,5.809332145419930822e-03,7.209343187482904203e-03,6.723545631306880078e-03,6.082681727672583152e-03,7.399550633711926215e-03,4.451050420959664494e-03,7.482152313842692012e-03,7.674181584485021551e-03,7.587868725097648807e-03,9.048257037748835829e-03,4.697637510572089115e-03,6.024475230534452261e-03,6.012822254232328030e-03,8.130070728939382471e-03,9.647071631260911717e-03,5.459457088253128788e-03,5.574712089369020761e-03,6.594747576618481023e-03,8.299323273948144494e-03,4.497394460215902758e-03,4.097388033297768607e-03,4.217180382791588418e-03,7.113359608430842689e-03,6.564165242895905056e-03,9.829426094063105010e-03,7.122045915431928203e-04,1.557948987666535117e-03,5.825715242316149758e-04,-4.490751785334658490e-04,-9.608754363896420108e-04,-1.374927900247518856e-03,6.620848230603200522e-04,-5.598716744662871623e-04,5.485430052936061257e-04,1.881047547084694445e-03,-7.846455188205419141e-04,-1.052965687244252066e-03,-4.932631246778450577e-04,-4.897579279342089168e-04,1.084825311494163290e-04,1.668035340913241813e-04,-6.618508869445312347e-04,-1.404635662554085433e-04,-1.633837565366352005e-03,-8.307189796948235682e-04,-1.597472556668998395e-03,1.385305905878355922e-03,-1.423229213972169874e-03,1.904621142719595912e-03,2.716417493574650385e-03,1.340749127762741163e-03,2.767900271547496516e-03,2.830983615299409971e-03,7.633799659588801686e-04,1.919602410767194635e-03,2.350980070036757553e-03,-1.482965992345129669e-04,-4.213144376331439149e-04,-2.365913752880593080e-04,1.159976337043298932e-03,3.091041726940421154e-03,-1.439849318966067307e-03,1.932676864444073756e-03,2.769627817576465062e-03,2.993191998219388739e-04,1.779076078695631053e-03,-1.286303379550837516e-03,1.688085245884991597e-06,2.385793219560748690e-03,5.758984512762817861e-04,2.592842721196432585e-04,1.500545713677534218e-03,1.514970230912586610e-03,-1.393300599028946549e-03,2.975280983887734591e-03,1.125777468709159490e-03,2.864059129004695343e-03,1.833217148459039762e-04,1.964777775636677732e-03,-1.005979612064925163e-03,1.365689021601485366e-03,1.306513988399945906e-03,-1.418137459930708189e-03,1.751574649653699208e-03,3.808496244378011073e-04,-7.299748354211999793e-04,-7.217893056922162478e-04,1.898842284610022322e-04,-3.191400758014179689e-04,5.614689522050813025e-05,-1.043170230761440340e-04,-1.395351079100191427e-03,-1.381431891025977252e-04,1.615716232530709428e-03,2.397556697642452828e-03,-1.064086880676464375e-03,2.378319087721893980e-04,6.631719141964242340e-04,1.395870669018467155e-03,5.362969093465654036e-04,1.038125777960876911e-03,2.604229044866198869e-03,-1.045539469437514529e-03,8.967426460505473294e-04,1.668243254936727571e-03,3.031022416965930069e-03,4.396389207772576167e-04,-8.231451655924414048e-04,3.054379115073059883e-03,-1.092774090765011091e-03,1.548531021292789056e-03,-1.687159605369880017e-03,-3.075759418182649058e-04,2.479420359581006005e-03,7.472897693346157010e-04,1.380752430612512726e-03,-8.584885908463942960e-04,-2.329388314638325159e-04,2.471876693292795590e-04,-3.584879156931478788e-05,8.966655499920083653e-04,7.264625033955916344e-05,3.096051293769522435e-03,2.555130072168709451e-03,6.949824134903574268e-04,4.705938176782223847e-04,5.134050300756774765e-03,-6.238986644197138092e-04,2.004550497942992303e-03,-1.510153641300482309e-03,5.208259428555333821e-04,-2.784127057366009902e-03,-4.490359517877892670e-03,-4.081645171655062625e-03,-2.824299048508738643e-04,6.121549848298570712e-03,-2.980213806196700763e-03,-3.617381323828246144e-03,3.164464764727395636e-03,4.340750317099319883e-03,-2.558799692975918891e-03,-1.665316476841853782e-03,-3.981261955289871340e-03,-6.458440007932543699e-03,-6.326320502052814980e-03,2.249302891102977330e-03,1.655503407437881620e-03,6.407374571012025392e-04,1.801074992745713057e-03,1.929410603590908484e-03,-1.287965324721443384e-03,-3.378581211492840027e-03,-3.924074212926341974e-03,-5.376989748014624620e-03,-5.433098954843303303e-03,-2.493185908573428708e-04,1.416752506212009665e-03,-1.322088583325570698e-03,-4.512083980537496099e-04,-1.915310954783532764e-03,-1.724265916557486157e-03,-1.588059418367395587e-03,-3.481361047075704537e-03,-2.078875917945974001e-03,-2.382248880640808544e-03,-2.402861500539667933e-04,-3.456092317696661531e-04,6.604685714489587833e-04,-9.896413226025467611e-04,-3.952461234698730064e-03,-4.837522627961665656e-03,-3.541044163557298050e-03,-4.217114915495250027e-03,-4.438396468099548541e-03,-2.847488386576462263e-03,2.306794358561666501e-03,-1.248628479089425140e-03,-2.319382056942398320e-03,-3.229538283278199189e-03,-5.126580240944152156e-03,-5.905348079727350090e-03,-4.423834103661483663e-03,-6.272787176292709752e-03,-2.632663093926735677e-03,-1.960125157116510836e-03,2.843964961614308621e-03,-6.301877004820458919e-05,4.508626753823720521e-04,-1.948167869150206665e-03,-4.254950576217509869e-03,-3.314487943699172268e-03,-6.664592270511113942e-03,-4.443208355773106862e-03,-2.019993904360578487e-03,-7.980681369947659849e-04,-1.099654676231123221e-03,-2.302360071807065325e-03,9.108056340703841883e-04,-8.063953014526786898e-04,-1.953317824093518239e-03,-1.663556819945898133e-03,-2.208669873809594036e-03,5.497162690345868243e-05,1.533862104589830489e-03,2.078923673231213715e-03,2.429658095089641361e-03,2.862070294400537781e-03,2.645846383035837732e-03,3.148460674252662444e-03,1.193871561794119032e-03,-8.746144138207949175e-04,4.243574857535975346e-03,3.685126842307360085e-03,5.646199712878068391e-04,2.096319932445263063e-03,-1.698345657248752794e-03,-1.720112327709465237e-03,4.068538750244521038e-03,1.118038573826096206e-02,6.549100864153554677e-03,7.862222620262478839e-03,4.028439270455527743e-03,6.621521324630500437e-03,5.208026902944985423e-03,9.917017138875482488e-04,1.409170850076518029e-03,-7.551752766369018276e-04,2.605913488981692443e-03,1.660882173025211806e-03,1.676855086131132273e-03,3.167668259290428757e-03,1.781929158647174629e-03,1.776192314862301167e-03,2.945080481067809813e-03,2.244726600653827731e-03,9.866005217593920053e-04,8.334000946579373957e-04,7.467573240321136608e-04,3.510939668782040845e-03,2.319966881399719398e-03,5.196253564781488574e-03,1.274768309978647042e-03,3.270949687703895558e-03,3.436966616571463223e-03,6.417185950706754587e-04,-1.434670651066739452e-05,6.382427973568487525e-04,4.714412666505921057e-03,5.361456763525980843e-03,5.349649295066281028e-03,1.662839337842740052e-03,3.525658134324327793e-03,2.043019516891697498e-03,2.429775512283647698e-03,2.503295002887562584e-03,3.659280107739042946e-04,3.749687632760851340e-03,6.250107734699935844e-03,3.766515049030084040e-03,6.392822871548453460e-03,4.526034516433972803e-03,2.564697065030816566e-03,4.377460182324548373e-03,1.819862288437710997e-03,4.505005463119804627e-04,1.543368187718114314e-03,3.518799479474089744e-03,5.691903361539796258e-03,5.325315692507651653e-03,3.427107741320097305e-03,4.917156561143987831e-03,4.202420275171288647e-03,4.033318240565712462e-03,4.759647301991094988e-03,3.658369252072977366e-03,4.277524229850821966e-03,1.931804648580210662e-03,5.571965744873859545e-03,4.140375458707295196e-03,4.137430335596558456e-03,2.922894521854656376e-03,3.560090634044190110e-03,3.790491191202815732e-03,4.774025663964471394e-03,2.762651861900591345e-03,-1.034355624480337056e-05,3.344762074874154875e-03,6.656189776216452081e-03,6.692213176213530554e-03,4.418704395036280458e-03,5.519605597774625283e-03,4.878396535120039547e-03,4.006528640872823212e-03,1.603044537685340779e-03,4.409231298050149232e-03,1.464854272429291174e-03,2.249386811818043699e-03,4.313348002983694723e-03,5.518921532695057752e-03,3.420462792539064739e-03,2.483247313348996115e-03,5.003389272761863023e-03,3.855804456948719750e-03,3.835762715564254056e-03,2.062977886178628869e-03,3.249947018758308267e-03,2.241428029655385522e-03,6.310535306284732748e-03,3.793884315094847321e-03,6.423930533716469896e-03,4.513032534898020996e-03,2.471175535346941191e-03,3.711609902989859797e-03,2.349435410573855274e-03,1.768602764767272925e-03,1.869524200453860771e-03,2.829290965516871679e-03,3.417328012242201469e-03,3.651547135907803887e-03,6.448170981001660577e-03,2.942139287123432534e-03,6.868792588455301280e-03,2.589022528057096165e-03,5.805943310236909120e-03,4.488803496029336072e-03,8.743084624607913927e-03,-4.095961851531210868e-02,-1.022077487371773202e-01,-4.778304284285970344e-03,8.009934807496708886e-02,1.326984019810154847e-01,1.501987035787052394e-01,1.381109571290144167e-01,1.320443305380123167e-01,1.298027160033533300e-01,-3.335148720351483603e-02,-1.453963256318193190e-02,6.296125964813346909e-02,9.791397559992175148e-02,9.582448170452190217e-02,7.438167348579780014e-02,7.501830329311302836e-02,1.004490780640904662e-01,1.132158230881300381e-01,1.168774723517177483e-01,4.037159016477217394e-03,7.095118150475367147e-02,4.948724200954146557e-02,2.344842739380476049e-02,1.164339048362748180e-03,-2.607545562540941608e-02,-4.328557558134294575e-02,-2.820644150940031236e-02,7.551677038620703553e-03,2.916727938632383832e-02,9.744381306372006113e-02,6.336535235361123730e-02,6.142766637535641491e-03,-4.293127464926618786e-02,-5.633357473519385455e-02,-7.179591285539500822e-02,-8.345791371169257455e-02,-7.261626379935331999e-02,-3.885835212984259379e-02,-3.292156512038916551e-03,1.364543440673492147e-01,8.154087676022064857e-02,2.091000261060025484e-02,-4.187435807306311153e-02,-5.718800204412700233e-02,-7.088124648734288324e-02,-7.267655994094020244e-02,-6.478025132361950322e-02,-3.995222818007568982e-02,-9.376513696513721213e-03,1.246634934292615987e-01,1.005999448044759270e-01,4.752449436653444909e-02,-1.784364688950766664e-02,-3.590497994579847085e-02,-5.139254268940700310e-02,-5.656947527513419421e-02,-4.764697976560246934e-02,-2.560067900374556060e-02,-4.402232104579227936e-04,1.024197218454842156e-01,1.079941403632411895e-01,5.047982453754187165e-02,-1.511295183433550814e-02,-3.045106217443445396e-02,-4.089598112159356647e-02,-3.805015600407946758e-02,-2.995010717408828904e-02,-1.056491273270658733e-02,1.003014078102301698e-02,7.931978311296705719e-02,1.005275666522603556e-01,4.702461919669007756e-02,-1.958426465898978688e-02,-2.789130154021680907e-02,-3.385099319108440113e-02,-2.387486401380427628e-02,-1.397528755105577683e-02,-3.654610469316030459e-03,7.033541920999810196e-03,6.104948881242143466e-02,7.502888144110098079e-02,2.204705403338133238e-02,-3.986899228945005313e-02,-4.678248436075534145e-02,-4.330589402862610598e-02,-2.961889017368087712e-02,-1.748520592950159394e-02,-7.019188451854794890e-03,-1.945614397746289054e-03,4.509741714550971614e-02,3.492813548794645312e-02,-3.184124728643838304e-02,-9.465388834534964324e-02,-1.017780847977410308e-01,-9.186747915462238623e-02,-5.850226782247992807e-02,-3.346178143740732858e-02,-1.264960587739901929e-02,-1.236537267998691694e-02,6.598637528442431385e-03,6.471201327762821434e-03,3.166137701556621682e-03,6.669858148393474455e-03,8.264916761834337558e-03,7.418803632620808025e-03,8.899987493363922461e-03,4.948219127425752470e-03,5.247241051306615785e-03,5.854885324392006089e-03,6.776699558362629314e-03,6.744211026279577428e-03,1.002294692321665202e-02,9.295927017523838987e-03,7.483329400792095194e-03,9.032525037415230218e-03,8.878843366573362789e-03,7.794629429817567789e-03,5.973249339386720036e-03,4.836394002576410375e-03,6.632537842285926750e-03,8.245302208806046598e-03,1.014110468499862874e-02,8.727123792228293209e-03,7.541531176258970716e-03,7.356387567826301425e-03,7.448716562665123019e-03,9.060982612674788050e-03,8.959227335585908183e-03,5.819195567797532179e-03,6.707957215458922040e-03,9.424181890258009897e-03,9.015116015472323177e-03,7.806644613572374936e-03,5.006316630478943597e-03,4.289105522276076207e-03,7.171682415410668941e-03,7.748190292564779112e-03,8.000104246356618334e-03,5.621244151247531927e-03,1.026001726492808790e-02,7.418595998928374964e-03,6.298334184595729378e-03,5.340683288680224405e-03,4.485751596844432879e-03,5.943934793474929534e-03,8.123410004510007998e-03,5.554349665939666350e-03,7.870608167540966635e-03,7.932747419741559627e-03,6.077516106491931414e-03,7.630389404525888056e-03,5.272685452247694200e-03,6.413819696125450109e-03,6.233830487958365654e-03,7.956884427444792240e-03,7.511426535227671078e-03,7.387650036356245217e-03,5.824790150063271534e-03,8.367322036533822796e-03,9.331132771049494012e-03,1.009103898913916997e-02,9.792782580449519922e-03,9.298128654191691392e-03,6.776237446293322669e-03,6.362052759177600977e-03,6.464998778127859468e-03,9.379003638008517885e-03,7.104003077939684448e-03,5.358318932365631684e-03,7.194461120775604880e-03,9.099964740774471594e-03,8.125538490772485009e-03,5.310531588119914159e-03,7.504878271402594392e-03,7.800734326183294924e-03,5.824507930237640858e-03,6.261585785414606684e-03,8.362713859173909886e-03,7.186875634820294977e-03,6.762944329791753702e-03,5.967521699400718700e-03,5.127102927886118336e-03,9.021449796316480599e-03,4.544142025221846459e-03,7.439933936731870159e-03,7.316773197464354270e-03,5.198806629645434142e-03,5.708151547420920076e-03,8.540730125987697555e-03,5.156757700797689505e-03,5.604012412738323783e-03,4.488101086746389135e-03,6.087599073869411417e-03,8.043309969824934125e-03,6.229949205818649700e-03,4.410382285783919117e-03,4.241760689809821912e-03,5.694843494095653061e-03,6.888799094271439750e-03,1.020673567421893262e-03,2.324452271632275989e-03,-7.241718487882691782e-04,-4.449660071770086432e-04,-1.755142014842402218e-04,-1.602924044904138279e-03,-8.356092970429873906e-04,1.724105304294924193e-03,-1.300063471240505341e-03,6.825645830410987779e-04,-2.126543311463325507e-04,1.031875056285628091e-03,3.584434386530264017e-04,2.893121737410236406e-03,2.430274132236093232e-03,-4.645878734072626131e-05,-4.801460323774069420e-04,1.083007871625558385e-03,8.181363316606732241e-04,1.301087600871900446e-03,-1.471020058050484742e-03,3.034456761304376790e-03,-1.770375561792610292e-03,2.371009493704692023e-03,-8.036245697715398064e-04,2.565482007577137274e-04,-1.005114488530380523e-03,-1.483376789947831982e-03,-5.895851041729114001e-04,2.329675642621156610e-03,1.486515467063801365e-03,-1.163359784794040829e-03,2.575698508281485874e-03,-5.224228608085803747e-04,1.125416784103241063e-03,5.975494024141739854e-04,1.968391812087938886e-03,2.797088111607482028e-04,-1.316350292510544201e-03,-1.976591688029261855e-04,-4.062235910930691750e-04,1.598289148268306403e-03,-1.359787608846290763e-03,1.228248469818012762e-03,1.304454573045484575e-03,-1.368570916650874722e-03,2.506355227835042540e-03,2.562292438685684001e-03,1.412952758494496032e-03,2.541454571407765137e-03,-9.703730282154940292e-04,1.348432600790390847e-03,2.396600908143309283e-03,3.039157998894757504e-03,1.116269696748538450e-03,-8.624074967920724710e-04,1.630524439603329978e-04,2.027264413133374708e-03,1.313151288308474782e-03,6.228943490955687803e-04,1.897497750196980380e-04,1.991676109095063228e-03,2.197632593196116070e-03,1.597894105641532020e-04,6.908987074856979670e-04,-1.123405459782301488e-03,2.983007636097725034e-03,1.251417877768905415e-03,-4.608523325756503806e-04,1.324395682134487913e-03,-9.623298066683660511e-04,-1.087202597478055153e-04,-4.862622631607165262e-04,-7.443215535402452612e-04,4.982922377485641142e-04,6.630433513052024722e-04,-1.691080515753026628e-03,2.642157909306793936e-03,-1.114504516061881048e-03,1.893730274873219120e-04,-8.057389124332538601e-05,-3.222683346850857555e-04,2.342941269285287072e-03,9.783309112528679966e-04,2.648933245017739621e-03,-6.668286144613052484e-04,-1.085352500765258401e-03,3.272403826721185117e-04,1.867467201881659001e-03,3.187559417917133590e-03,1.644809385025812780e-03,-8.829831125303363396e-04,1.348015758425567508e-03,1.088264027804899036e-03,2.523788677956955231e-03,4.942255546203672568e-04,-4.501314464008097536e-04,2.997535953869317690e-03,2.008725295467783049e-04,2.982847165121121046e-03,-5.970953137418169923e-04,8.020345536555681734e-03,4.168691924154508646e-04,4.290759507935062176e-04,3.882383073341221652e-03,-2.535629385251714826e-03,-1.588459778266331987e-03,7.892915113885146669e-04,2.441098583070507619e-04,8.922737026453266473e-04,5.592261821360178936e-03,1.723278299659547572e-03,-2.660250516045247187e-03,3.132918784792755248e-03,5.252771005327756294e-03,2.647780355581485015e-03,-5.873338864856263294e-04,1.880013186831421467e-03,-1.152189102681909928e-03,-1.777130963964744319e-04,1.567320294316413122e-03,5.284910237472334200e-04,-1.951708056744842247e-03,1.652913306485831284e-03,3.206261697155017489e-03,-2.214594427725295462e-04,5.382509135478683125e-04,1.415775160109468845e-03,1.287038142846331069e-04,2.593397615087725868e-03,-2.655782297980491171e-03,6.713260762530629758e-04,-1.028244554582918640e-03,4.724803330597720391e-04,-5.480754989519936267e-04,-2.065295699336600760e-03,-1.211880328091278353e-03,1.813666733235215836e-03,2.730496044683069102e-03,-7.400610342247278435e-04,-4.211858623673040911e-03,8.461221038425311867e-04,2.490198341514766444e-03,-1.583629644991709374e-03,-1.296182606013834490e-03,-3.050588159194353791e-03,2.685884887234318927e-03,2.303474756842383323e-04,5.958696164561197222e-04,3.179099124576294060e-03,-1.125611693939608353e-03,6.077270007082210022e-05,3.027701190822099705e-04,9.805761577860881619e-04,-6.227112621255762037e-04,-1.716688951790631620e-03,1.834937602813235770e-03,1.777717993882953424e-03,1.019680543235571349e-03,1.873060250897857571e-03,-4.754872199365718644e-03,-2.563483502094912603e-03,1.991839343808847300e-03,-1.410777168666745062e-03,2.783186361221017934e-03,-1.742325421096983752e-03,3.301804378237032603e-03,4.034262985969400139e-03,1.843170446665802530e-03,2.392003484020495743e-03,-4.329838270999504003e-03,-2.893329773949222024e-03,1.708018789389544566e-03,7.135009236032287781e-04,3.580222702627034338e-03,2.249311358884504512e-03,2.104369810831563815e-04,3.776857804398816437e-03,3.933503963282364985e-03,2.835140290214372381e-03,-1.451394675150092031e-03,9.353990769134977673e-04,5.692761943767005693e-03,3.934328842624889959e-03,5.735137402364082551e-03,5.606661439979775466e-03,2.585590794444064811e-03,2.738630523977779712e-03,4.974594459750389386e-03,1.206688841512089860e-03,-4.158014523656782674e-03,1.886130355048886960e-03,4.579959584222212041e-03,7.083384099614163133e-03,9.353020898553334253e-03,7.207292309455724626e-03,5.257375985326251042e-03,4.072850722859805254e-03,5.354912231455368626e-03,2.793246908066687045e-03,1.957476537492016592e-05,2.379309323568455040e-03,2.103116070774491662e-03,4.176105381710332881e-03,7.014367677294252451e-03,3.494838588807500698e-03,3.378167186837381566e-03,1.562984183780257406e-03,4.617968508532331769e-03,1.578467696014046592e-03,9.331151049678771498e-04,1.011851428693105346e-03,3.152236206483791103e-03,2.282450139469217095e-03,2.334838426954016950e-03,5.490436440857709294e-03,1.592886173987937077e-03,5.209989681594279004e-04,2.260191825711519006e-04,1.593509206869327555e-03,3.488439409653607774e-03,1.723880143062448723e-03,1.861686283615115100e-03,5.343977795105984280e-03,6.517013953149196175e-03,2.797818362640808968e-03,1.557157724925121219e-03,4.426227365960336280e-03,1.358510800214947096e-03,6.631444823405134017e-04,2.123211901569038891e-03,2.332057688447826752e-03,3.068948947783902738e-03,6.771727569279315483e-03,3.750279813902018724e-03,5.143757477981470046e-03,4.892054383150694179e-03,5.135591114886949027e-03,4.006228281356924437e-03,3.773388185376430268e-03,3.745902746722939297e-03,4.310913699604478067e-03,6.552499678759451246e-03,2.838846318751077086e-03,6.142837538444442629e-03,6.520088560976961337e-03,2.128955728328310072e-03,7.542092886669501950e-04,3.751388257684392519e-03,1.043610227521817512e-03,1.124009451000792734e-03,2.582310916016248084e-03,4.445096218903104787e-03,5.429391962948208576e-03,3.588380783098171767e-03,5.139217167642985175e-03,2.157311770915141050e-03,2.176878612252099859e-03,3.705679336293744072e-03,-8.008426487492100202e-04,3.864216433547163626e-03,5.934986294818739468e-03,6.080768936432740662e-03,5.988583893161995332e-03,4.866964956512807861e-03,6.721318622949063425e-03,4.891453169895286675e-03,1.792401934167318911e-03,3.671081996728393481e-03,-3.770717993985883221e-04,1.823549504684518615e-03,4.752100119336656429e-03,6.257274060014344358e-03,5.123849015072487294e-03,6.737548007299347212e-03,6.142903794973790695e-03,4.058592649739065257e-03,2.456058588883462072e-03,7.047046593602689741e-04,2.184503049503873622e-03,8.196111268025531413e-05,3.660522649122814349e-03,5.627776146099894468e-03,7.360117361421345331e-03,2.725102643755310857e-03,6.709886517408017448e-03,3.936838891577885101e-03,3.178806930038484326e-03,3.924124534711837496e-03,3.321983941312659904e-03,3.461966853066020082e-03,5.150650223848353589e-03,2.085455105440406354e-03,2.891085217864707013e-03,3.059695679325205326e-03,2.729688423644782962e-03,4.681617712267620648e-03,5.734648589281442395e-03,1.621593561599027431e-03,4.782398143039951616e-03,6.801660555269970800e-03,-3.256682198856898636e-02,-1.603310358649019940e-01,-2.095220165207872243e-01,-1.727205244468200951e-01,-8.602930831372838927e-02,-5.181182800872339428e-02,-6.731997486509834483e-02,-8.690226688707525238e-02,-9.949563363353988721e-02,-2.149205079284172495e-02,-6.381915403366705819e-02,-5.530361966466496026e-02,-1.410300506894114451e-02,2.630497009653502000e-02,7.018861758834550602e-02,1.166741891353917371e-01,1.460628402584043251e-01,1.184762973313087386e-01,9.443317760958078178e-02,3.730020405697542958e-03,-8.198591778268636901e-03,-4.409702819346215941e-02,-4.211422918298993179e-02,-1.998791449210580301e-02,4.032704369695743439e-03,3.204552341985306835e-02,6.078323249813254170e-02,6.334189642456257430e-02,5.947252802345612960e-02,4.822000264129162189e-02,-2.574689643849337878e-02,-7.147670725264752833e-02,-9.208132943791552671e-02,-7.268634292555785359e-02,-5.476341356072087635e-02,-2.815829875490322501e-02,-1.208145428923185910e-03,9.962010633385722652e-03,1.838072541097474435e-02,5.435073299523892482e-02,8.918271712519167116e-04,-3.758659701092813277e-02,-7.442402937814038277e-02,-7.499862470751327004e-02,-6.661360285700093642e-02,-4.776640913632528018e-02,-2.897814015079510502e-02,-2.319037674186207737e-02,-1.045848495238762589e-03,1.890041883532016243e-02,2.182802194875055335e-02,4.931055501792521757e-03,-3.901800343854243402e-02,-4.993999030572571912e-02,-5.784323309327110696e-02,-4.291249719620859882e-02,-3.023707998248166551e-02,-3.033438722543576466e-02,-6.781324043052864257e-03,-6.954888962763071739e-03,3.447913053346270129e-02,1.792436040299294833e-02,-3.028604805927242322e-02,-4.460416664331075948e-02,-5.404977035456437484e-02,-4.591444020648627333e-02,-3.364679603537066438e-02,-3.557798221489453377e-02,-9.762749448289613149e-03,-3.298478687417845390e-02,3.067539326227397903e-02,1.870765727258040870e-02,-2.874489383514268470e-02,-4.129419262529455958e-02,-4.562906265278261764e-02,-3.759858036551341071e-02,-3.116945551691575542e-02,-3.328761928435625128e-02,-1.023732631290399236e-02,-5.503043858560462825e-02,1.490274407068606886e-03,-6.511552304930003435e-03,-4.232327247405737181e-02,-4.473086687205617140e-02,-4.199231521704274717e-02,-3.188562244829695053e-02,-2.341816009504297039e-02,-1.384286754192449315e-02,1.823232802321908715e-03,-6.749517775071654790e-02,-4.726625526654960885e-02,-7.242246737894333930e-02,-9.190413306160417906e-02,-8.086257015555413374e-02,-5.301874593549361914e-02,-1.378930763844823937e-02,1.386271092405833016e-02,2.507209330854481139e-02,3.796922335542202848e-02,8.776274397780848766e-03,4.040557834837449347e-03,3.819046067999252048e-03,6.819161761478174585e-03,7.199021642992271298e-03,3.939423827864372597e-03,4.399034387644502886e-03,4.798183301481634931e-03,4.283375858787067357e-03,4.791769318511619399e-03,6.016230533547852616e-03,7.873911333457531483e-03,6.115328629080148820e-03,8.372090243828133466e-03,4.503401838520475035e-03,5.023017610550922600e-03,5.382836327899415303e-03,9.170648793711318886e-03,9.097207230429059030e-03,7.030999421524663714e-03,5.229490333147568393e-03,5.184717578544341052e-03,7.782823849918393821e-03,8.722691180372693642e-03,4.789831710878042666e-03,7.906940357557601037e-03,6.736722456112065327e-03,6.727992552618137362e-03,6.816979696694454652e-03,8.690404229255184812e-03,7.476902815492473577e-03,6.690612696374472271e-03,8.577608865505305033e-03,6.782328147373278306e-03,7.141658745940934402e-03,8.752277098664591401e-03,4.216100458450179264e-03,7.412431156653432121e-03,4.634642465647904365e-03,4.148636004567598720e-03,1.052337608471299278e-02,6.195650264578757803e-03,8.937365193624178389e-03,8.713697011949107785e-03,6.371270477026944046e-03,6.022083942267768275e-03,5.549366152416058094e-03,4.998012078673141380e-03,6.775235877281693582e-03,6.280947113013890179e-03,7.998912766741122365e-03,7.702302664239549061e-03,5.197094975826636702e-03,7.914861863041699336e-03,7.023983620039497312e-03,5.364851091899646221e-03,6.273588863680929807e-03,7.231156428408206348e-03,7.391309874171764910e-03,5.124800358347016659e-03,1.009547531632753493e-02,5.044231097832686112e-03,5.217739800192795589e-03,8.140191814857087801e-03,6.345921555819568349e-03,5.277754547650879459e-03,5.672540614383045528e-03,6.989974969531605534e-03,8.391064788539872449e-03,4.831923921745101373e-03,5.952509563583667507e-03,5.702827070438172379e-03,8.486204790918308941e-03,4.588304175890615955e-03,7.552897325306095686e-03,4.411727257048851658e-03,6.708382670062893773e-03,6.973678501746618727e-03,9.356965397489470232e-03,8.657099376767644558e-03,8.638598749994319190e-03,8.306501758015028339e-03,8.312836151358419384e-03,5.059600286051835032e-03,3.968399436418267034e-03,5.124378316329367827e-03,5.019740442094315983e-03,4.849168980586966715e-03,8.459763979645811005e-03,6.142309828314112055e-03,9.607989554533779078e-03,5.743790939548968494e-03,8.583199736928301057e-03,7.856947416736703715e-03,6.675160448965438906e-03,5.779748913674358744e-03,4.765625089871309943e-03,6.595941614307987422e-03,5.813263254320112650e-03,6.059175348160351221e-03,-4.747851377197418897e-04,-1.579537488805760623e-03,1.211169063114312825e-03,2.289668873051558910e-03,-1.440623057753149952e-03,2.714484672638821025e-03,-1.096758734640200647e-03,1.946994883111009085e-03,-1.734885357679470273e-03,-1.722183241773289934e-03,-1.231815695124356116e-03,9.558265310042545707e-04,-9.494118121834971540e-04,3.006381801987393840e-03,1.099941775378634838e-04,-1.712218758144929158e-03,2.085583017971434465e-03,-1.153192037788141689e-03,1.637365914926995928e-03,2.437299339123785019e-03,-1.158674541122444379e-04,-9.962974418492167119e-05,1.671022633844745009e-03,-1.051543724753802164e-03,7.116337182314122056e-04,1.158660462804875961e-03,8.947953329437304069e-04,1.212452104507317661e-03,-1.735049741010606618e-03,1.084760440484147789e-03,2.410721321826214333e-03,9.584117825144711309e-04,-6.206573876491257346e-04,2.139268975680396444e-03,2.982057550780590170e-03,2.275469363740691663e-03,8.208012491086513675e-04,-6.577699317506696718e-04,-1.832545414434962841e-04,1.349927513444785067e-03,8.939245309156353906e-04,2.649492424786461034e-03,7.586966691537405574e-04,2.745287102408599730e-03,-1.167079276233682532e-03,-1.523035988967244580e-04,1.032988202428377538e-03,5.207376432530526691e-04,-1.595075628452052874e-04,2.105557528047114803e-03,1.901627338694152720e-03,2.484428802454730599e-03,1.981373869135281789e-03,1.425420437576328846e-03,2.329486007532871432e-03,-1.370222145986479132e-03,-1.504351859227234410e-03,1.494226952579955211e-03,2.850915872021791454e-03,2.844510894849181480e-03,2.379346289431814518e-03,1.290318384972183189e-03,2.491609879132484356e-03,1.519201235635473995e-03,1.621862974856973531e-03,1.644254928613516102e-03,-1.296016301955837382e-03,4.488314567516657450e-05,-3.335875177263702279e-04,1.363212351525975143e-03,-2.988433307529012755e-05,2.791142274042739818e-03,1.904596838828210388e-03,-5.990302476488038779e-04,4.329801409860732034e-04,1.038451648270066882e-03,2.643239949469246633e-03,1.577510675691836317e-03,1.851365841319213513e-03,2.653221609934799594e-03,-7.656852733379787687e-04,6.255448794652061859e-04,3.107313116177473460e-03,1.298787571553663099e-04,-1.159201919286437449e-03,1.590800211126640112e-03,1.423914386296544531e-03,-5.064924490485004120e-04,-1.780519923769702815e-03,1.971069950757708012e-03,-1.557252603484957391e-03,3.024632806706341673e-03,-1.279141978261847312e-03,1.611817968949532515e-04,1.423205853283551108e-03,-1.080081662676970469e-03,-1.700577609962035950e-03,-1.556294314710671102e-03,9.342524732839816663e-04,3.108756766187762387e-03,1.918286766527862617e-03,6.860916307352381283e-03,5.623788192356830341e-03,1.022561580120401109e-03,2.697497858521596351e-03,2.280456198526463647e-03,2.269699101747844980e-03,2.227910210666173517e-04,2.060927952970013823e-03,-3.124871189697441226e-04,3.827436052387576081e-03,2.939500075187682308e-03,-7.098859731027043702e-04,5.066483955471909155e-03,2.965502719724802828e-03,5.580202370181203651e-03,2.146616720410049386e-03,1.697606345143510501e-03,1.498177544836695784e-03,2.713441820086735529e-03,-1.063154372552371080e-03,2.492337936121706804e-04,5.403398881229430585e-04,5.321544088658871144e-03,4.322944309581590837e-03,3.484186907855987662e-03,1.974739621659226795e-03,4.314350517951700409e-03,3.008042756576219043e-03,1.571254022089469803e-03,-1.726384025224011760e-04,3.539718743447162197e-03,1.296866070003482646e-03,5.527849452216536397e-03,1.626566591969424947e-03,5.127838989765991402e-03,3.509984494495353366e-03,2.560102465110541091e-03,4.382656431834719424e-03,4.101315228633879532e-03,-5.540472653019538028e-03,-1.123734020224111813e-03,3.352945693471062229e-03,3.907603032512183862e-03,2.122513876291522335e-03,2.292951836554299027e-03,2.356316393153038563e-04,1.504791999319580000e-04,3.536960125704943867e-03,1.296274134517832674e-03,-4.772375275295254182e-03,3.313711215745653547e-03,9.262048213494292496e-04,1.504606639168675365e-03,4.248401333877630144e-03,3.528215701114200895e-03,2.669831138101514279e-03,2.416726195239863456e-03,4.372987771387763616e-03,2.762810973799190249e-03,-3.937920784924585534e-03,7.075711227563679967e-05,4.559162139199116927e-03,9.703950210592940471e-04,4.441443710911206419e-03,1.995099668969908726e-03,3.244922650313481361e-03,2.047503275176555367e-04,3.696881886075282977e-03,4.673272973232353231e-03,-4.438932548214922710e-03,-5.476080720566467745e-04,3.337340834189846377e-03,4.017641834810403711e-03,4.307674681038522503e-03,1.075869949909213268e-03,1.975001344671111631e-03,1.689626073248188826e-03,1.317750173501687320e-03,2.024704329645691386e-03,-4.203912541779666022e-03,1.621645635423794700e-04,3.684768940368125974e-03,6.255067065321020733e-03,4.564621811192043702e-03,2.679839078254563252e-03,5.188791703974601592e-03,1.871089201568110769e-03,2.359418549481403365e-03,6.581401811842978004e-04,-2.250188609237221624e-03,3.108189765272375497e-05,2.533369960586237882e-03,2.411023312207544525e-03,6.035690451813601094e-03,3.933427848003741636e-03,5.937160384699833107e-03,5.721778603331183037e-03,4.594028576223020688e-03,1.557738705848335861e-03
8.319833545359948609e-03,5.119179937392743032e-03,7.822525836193009244e-03,8.174747924740712393e-03,7.667302596314593162e-03,3.803380182570075246e-03,8.022935331668768974e-03,4.377579333448919016e-03,8.091811148908140128e-03,6.014436845033103128e-03,7.157334746536833658e-03,3.991563271599606576e-03,6.046131417930961267e-03,7.233175305440374923e-03,5.781502176881204123e-03,8.295628493312895077e-03,6.979518299613772687e-03,6.925385728800188649e-03,8.835385837060122025e-03,3.904073646403161992e-03,7.699448686543017978e-03,3.595178500748973192e-03,8.443043903741297845e-03,5.368316632804384994e-03,4.571529778851670181e-03,6.415932229151766197e-03,4.712835383150376298e-03,6.066416444075904343e-03,4.889075644767304323e-03,4.362795047635674092e-03,7.897885714038700017e-03,6.224951374811824208e-03,4.342789988845376786e-03,3.853414671012199248e-03,4.296078191084771319e-03,4.714529218633040780e-03,5.333076464823416699e-03,4.870720136267982399e-03,7.353735955324385704e-03,4.905479919067591045e-03,6.392633702912561486e-03,6.769368635527986573e-03,6.887971119770460587e-03,4.483899505604631471e-03,5.852956701074373339e-03,6.751973981112316912e-03,8.084741966973141639e-03,7.901207153090259588e-03,5.099521621914013432e-03,6.905948873609469782e-03,4.977881993567350762e-03,4.565270510053056827e-03,3.903081914190600042e-03,5.629770307628922422e-03,8.208956268549592178e-03,5.961192847771717117e-03,8.757668434758482390e-03,7.070144228485578976e-03,8.797836014343689282e-03,7.125196076735438623e-03,6.114197414407521354e-03,7.306647353291574262e-03,5.223025691311638206e-03,8.737865358851902228e-03,6.528000846153301888e-03,8.994589891063411308e-03,4.241657019525042413e-03,6.502540343066598796e-03,6.102709142265883534e-03,8.450378133903983097e-03,8.433646093608280353e-03,4.938914765875766430e-03,5.561305140885769091e-03,5.840945467449891459e-03,8.455992966576224290e-03,6.490495427295947528e-03,7.643514681616926654e-03,5.072095877083697760e-03,5.154678254111023233e-03,8.167646480765969330e-03,4.867602110141693895e-03,5.110356084455327207e-03,6.758705089655340711e-03,6.369883003979484072e-03,4.314544226791565580e-03,8.768837260472985007e-03,9.149057401201707643e-03,6.424690675977837336e-03,8.352430988236911671e-03,6.814193087850346428e-03,8.692812946075607894e-03,4.896577219879474051e-03,7.555562217477576788e-03,6.843115397581214787e-03,8.142929825847371531e-03,6.563720256791141620e-03,7.553202836757238331e-03,6.689205027687498278e-03,5.285897331243595391e-03,9.158995920657556772e-03,8.260274181023694040e-03,1.113918339775869619e-02,1.548567436306976311e-02,3.548144961713657619e-02,3.417575582292937952e-02,1.900603512488494365e-02,7.329661797762828356e-03,4.748413412318782355e-03,1.196770291774952415e-02,2.326599575124153191e-02,2.038423756672458689e-02,6.506718351327374188e-03,1.230165264114598672e-02,2.510742356979419124e-02,2.408957384845912195e-02,1.397152971186588731e-02,4.689486974682214801e-03,-6.836127200299184467e-05,1.607427598794633700e-03,7.586450279442002315e-03,8.564097792959352376e-03,5.489029819410981862e-04,7.838982687369214913e-03,1.347896317356254287e-02,1.073610949494475074e-02,3.022618939371133316e-03,-7.082241395500664741e-03,-1.157909340534973332e-02,-1.236149736475433344e-02,-1.063114823679780011e-02,-9.595235227505308565e-03,-9.148388285625660629e-04,-1.125534204490717845e-03,5.109181100651902577e-03,-1.552220220502809143e-03,-4.903231858049461427e-03,-7.187622590264535448e-03,-1.358889019231806529e-02,-1.784365703294654715e-02,-2.006942259311233004e-02,-2.155750886474390102e-02,-1.194575801831327701e-02,-5.836811583186459970e-03,2.166051489537173819e-03,-1.020925478617056362e-03,-1.882164103151481686e-03,-1.913447204521721368e-03,-8.919368292655729946e-03,-1.935641600288640421e-02,-2.253783311903643366e-02,-2.342566699506438282e-02,-2.636925889301326015e-02,-1.948097899996578328e-02,-7.216464347279031612e-03,-1.169503127657885166e-02,-6.316243290167022385e-03,-7.795839829511239799e-03,-9.377031117518745684e-03,-1.837372035147668767e-02,-2.475784649017779074e-02,-2.874606216235933362e-02,-2.865377181190717840e-02,-2.762872020765528083e-02,-2.143477394931983179e-02,-1.892709106836095237e-02,-1.781858975653539956e-02,-1.083968717006907924e-02,-1.267085118955809699e-02,-2.088953106508676869e-02,-2.829246469475407005e-02,-3.300156742268942067e-02,-2.463694832693473502e-02,-2.826663389448054453e-02,-2.354399307772035363e-02,-3.118941688490669065e-02,-2.519311384959278463e-02,-1.547978489121020103e-02,-1.667440943623195448e-02,-2.718020031687261306e-02,-3.448932585998591704e-02,-3.630247090556724954e-02,-2.297066337721811319e-02,-2.534990660594968470e-02,-2.917378640781568069e-02,-3.377515321206452786e-02,-2.718716964566489369e-02,-2.166164647727401513e-02,-2.351219642141958582e-02,-3.281963048203106331e-02,-3.974079163175472246e-02,-4.249433014689937144e-02,-2.194235248066005520e-02,-2.596656276812896180e-02,-2.374865368106243019e-02,-3.377025903583769778e-02,-3.383213506604727111e-02,-2.916705718979861403e-02,-3.201025641094453617e-02,-3.671026835201671862e-02,-4.489317591371739385e-02,-4.419476879430874611e-02,6.909751071051903511e-03,6.118446237036355428e-03,7.492292208644043237e-03,7.085251613839966579e-03,5.388555439576912798e-03,9.291564127418258656e-03,6.587773896221977600e-03,7.962564127136403935e-03,9.417556007163039797e-03,6.542275866050496248e-03,5.357168165363945453e-03,9.180812552437408319e-03,8.738342852847308037e-03,8.766251338150267414e-03,9.108483975041157740e-03,6.378161346579093796e-03,5.087890157701909985e-03,8.621005749809094315e-03,7.948646583813476912e-03,8.772772748520792085e-03,8.788780012691335339e-03,6.654954995483552613e-03,6.221041061847689367e-03,6.884539774550292243e-03,8.491757259757658910e-03,5.431289639772009410e-03,4.925512997593721118e-03,8.133519994897945790e-03,7.122665651460788339e-03,4.862541883341344254e-03,6.172548061329715535e-03,5.696107647409274360e-03,5.595857951634759797e-03,5.669529095170708528e-03,6.908703764780824153e-03,8.839650182257716843e-03,6.275237669546815042e-03,6.011199656203707747e-03,6.504492936379815439e-03,5.357441526064163698e-03,7.390413297403614079e-03,7.730546206577111785e-03,8.745423434246859390e-03,9.274241804752288154e-03,8.470714856387796463e-03,7.160039251933571214e-03,5.188543986927284142e-03,7.456915647670345898e-03,7.216185593828114246e-03,9.065108022305763680e-03,6.804387541722796244e-03,9.652740653770041507e-03,6.844461831592394373e-03,7.961055289068902363e-03,5.896699136253028863e-03,6.887114793419112264e-03,5.979047530189489021e-03,7.255645972388037081e-03,9.251547223369929046e-03,7.627974230955732009e-03,9.526733174065065216e-03,5.631526331223459664e-03,5.872928388206289513e-03,9.017568871657478946e-03,5.485664993373023934e-03,6.374819077914066143e-03,9.529420084388935328e-03,7.699711938386939042e-03,6.256320932238521731e-03,8.089251028133069218e-03,5.076472802320463815e-03,9.167936668984412799e-03,6.764549278074467008e-03,9.209589194459731967e-03,5.378804210176490845e-03,9.283005698166025416e-03,8.390809689344297731e-03,5.221113704070772486e-03,5.916288286147796012e-03,7.037362763981772074e-03,7.856456092837312000e-03,7.278810117189758039e-03,6.874317911149029937e-03,4.676937269707825452e-03,9.191458122885100973e-03,9.524425473656722776e-03,8.985811886948174426e-03,8.184566252994428248e-03,5.363454974318066469e-03,8.703467084086813355e-03,4.846374123029108250e-03,5.533781834222574469e-03,7.377941999136260545e-03,8.133887668576915420e-03,7.977724058044366462e-03,7.369385460226703967e-03,7.656587827651217815e-03,8.685769362392818313e-03,6.397375133792734987e-03,7.370221880972149114e-03,6.056826167264018138e-03,4.339170768525175623e-03,5.819366202509054092e-03,4.085796260079697408e-03,4.371461377320052903e-03,4.143481123857447809e-03,7.502932676602101954e-03,3.623149923685656595e-03,7.195094906880348563e-03,7.548924464355746822e-03,7.318787471760115557e-03,7.640882930455022808e-03,6.431893576136110333e-03,7.175282340554521056e-03,4.709809670703425655e-03,6.131755892967584443e-03,6.593458867035040076e-03,3.898497918036379455e-03,8.014540957948504060e-03,7.881930437045032642e-03,5.178955497046557402e-03,6.070115580684021760e-03,5.448834478689839993e-03,7.047770151939828850e-03,3.679803226641300499e-03,5.176020922832012990e-03,3.812046528780445569e-03,7.638722846554739203e-03,6.649924835375767458e-03,4.985595124007077827e-03,3.778058555537240713e-03,7.124332830886097485e-03,8.312613507653165978e-03,7.884949145781763868e-03,6.073532761435492325e-03,8.045606386956196537e-03,5.007298573813379061e-03,5.765297191537285988e-03,3.685228541221269218e-03,7.931805594763845918e-03,8.345549902457562522e-03,7.076346987719014936e-03,5.532818471633508400e-03,7.521252142146218379e-03,3.693653731773659330e-03,6.213031205338449305e-03,7.434608106825461339e-03,8.512908797358014271e-03,4.940357110461893360e-03,8.487918662482130464e-03,6.425426484462691892e-03,7.263172895630093558e-03,4.744104515917159544e-03,8.158409014921909341e-03,5.945999170449207255e-03,7.653770759020221519e-03,5.852776399201425894e-03,7.044515254309094074e-03,5.641091874311200682e-03,3.938370999644448013e-03,4.828204892653584733e-03,3.646533490123136500e-03,3.711800898048360411e-03,3.580823367543162477e-03,6.546557742506968827e-03,7.754762353489322996e-03,6.816134910285250557e-03,4.035260497694321234e-03,7.454419024915178750e-03,7.875464084007839302e-03,7.492220464259450284e-03,7.277963702192249799e-03,5.795593795157878703e-03,8.130285144583047907e-03,6.313518996510222164e-03,6.438083542263002557e-03,5.472636887194966271e-03,4.278478655950409063e-03,5.150877730314583000e-03,4.475949054815006600e-03,6.367250804923832094e-03,7.428702781096307127e-03,4.945028404929655529e-03,5.311074049095373430e-03,3.917619566008333741e-03,4.663059082492830056e-03,5.248216219140927619e-03,7.809731271831113486e-03,5.926128309659206388e-03,8.023047835709808812e-03,7.999695287604940974e-03,4.206056803299782279e-03,6.966616021398188037e-03,4.824293950607252100e-03,4.733950258893165376e-03,4.589320120364377351e-03,7.896910059321308323e-03,4.522716747712620527e-03,6.608805640567976848e-03,4.526634328371462700e-03,8.270648021008641243e-03,4.230027086264098214e-03,7.332024688140102546e-03,5.940344384470342028e-03,5.218230490340716732e-03,5.241895368582926221e-03,6.833866624808200910e-03,4.545258305250184441e-03,7.232326211017632914e-03,7.061027342640637319e-03,4.398039535237351257e-03,4.220462360554826792e-03,4.921733384630240168e-03,3.170369976935121480e-03,4.400729110495276049e-03,8.492943072723867920e-03,6.074519953447056128e-03,7.291636244587264282e-03,6.631229126106811395e-03,7.545937825946944476e-03,6.627095958075113549e-03,4.478797088842769586e-03,7.231078806109006961e-03,4.831554670235608390e-03,7.702326514292478186e-03,5.645141244960094964e-03,7.107038827421990716e-03,5.207975945874390201e-03,8.152053647581961396e-03,6.190996692940174684e-03,5.012487522630198165e-03,3.728697540161956831e-03,7.116591511030413535e-03,6.418994361798603145e-03,7.583550526856998666e-03,7.075871270036628545e-03,8.360128480748777249e-03,5.400430170848982865e-03,6.278933410523028329e-03,6.518419487048233464e-03,6.978329909957926847e-03,8.391441829989574816e-03,4.692341696968044956e-03,5.541926862037549820e-03,7.395112019701077267e-03,7.268140921622898848e-03,8.091159085488384278e-03,6.924863592897007383e-03,5.325573056022327514e-03,6.374736606271679332e-03,4.500917351342197635e-03,7.420496679649739649e-03,4.740325656036215897e-03,6.142925987964327136e-03,5.567974825848405994e-03,7.631430014131011276e-03,6.706298065261043391e-03,5.967581476457922175e-03,5.559047199594740161e-03,5.949451605013269216e-03,5.101858974117010059e-03,5.225276843978347331e-03,7.719044538959963890e-03,5.769146507513959847e-03,3.897624920380146369e-03,7.362766289955097014e-03,7.382392907624021720e-03,6.319380749789800002e-03,6.643687110932079178e-03,7.334594086004459466e-03,7.112636440845694456e-03,7.061292251423813456e-03,4.365978603906374954e-03,6.416379796156119163e-03,4.369768640847804080e-03,5.923898692493971378e-03,7.623278713923616230e-03,6.042878674353263126e-03,8.433471850224446079e-03,8.175644498556452339e-03,7.785497766168960471e-03,4.434860845439494124e-03,6.886005592465738526e-03,6.851737432628457469e-03,3.912760756555584175e-03,5.366794329278188301e-03,5.097137963515381044e-03,6.646296584465897876e-03,7.080231897627954803e-03,4.862387783189603581e-03,9.127429408425969531e-03,5.616571271200270464e-03,6.093709219389295897e-03,4.956745964525720825e-03,4.597966082568619682e-03,7.666457590790392955e-03,5.744401848987067821e-03,9.506665895643697309e-03,6.807642231095896793e-03,8.800984007872591011e-03,6.933539703183807038e-03,4.561366333873554529e-03,5.626459681787887752e-03,5.217112709007935140e-03,7.491550646980659617e-03,4.193474247836569829e-03,4.229680178598060371e-03,7.148081590546891476e-03,6.874904355196664006e-03,3.849619146431954107e-03,7.823208087031557206e-03,8.216730228301417915e-03,8.300984482012831525e-03,6.136486423916488742e-03,8.096866756980571414e-03,5.553787097798807380e-03,8.915529625472628714e-03,5.274881644404743469e-03,6.309304148609265472e-03,5.270716832366368482e-03,6.367765306609719442e-03,6.947783393531643814e-03,6.732046948278612095e-03,5.278471918104869764e-03,4.783437310830882493e-03,7.487230632062611552e-03,8.582119771701880381e-03,6.281953853870741317e-03,9.054956310072522635e-03,4.971849634723589199e-03,6.877365548682772695e-03,4.565527492910165588e-03,4.560299155724517779e-03,6.422751137769404373e-03,6.384673301587656322e-03,5.993114410286483514e-03,5.001953634076680873e-03,5.326078245226696303e-03,6.526807526425176809e-03,8.737301590643151844e-03,5.574385452792257958e-03,4.197571046107281822e-03,5.723648453013166493e-03,4.300656427273116984e-03,6.510715807238335456e-03,9.303620420327030419e-03,5.406261907620151658e-03,9.323621673990188999e-03,8.387855002328628226e-03,5.996169495635115393e-03,7.375122789322258177e-03,7.080611701862131457e-03,8.505836978667174336e-03,6.913957206457839628e-03,8.319978189705831348e-03,6.933746544051544447e-03,4.857527765089987397e-03,5.260490910699821589e-03,8.013426067726340737e-03,8.588580569987940699e-03,7.310783300704590953e-03,9.008085742977456345e-03,7.712010387642406935e-03,7.289461216259470952e-03,5.966863276008331843e-03,6.509794469787190223e-03,5.958319974427191829e-03,7.159894262429908514e-03,9.799380470030621959e-03,4.886356425068498315e-03,6.618828942712868917e-03,7.032302471304976640e-03,4.617022949593902782e-03,7.595109616328247180e-03,4.798991500026071610e-03,7.847234991825676950e-03,6.401505962910615868e-03,5.463762682599861663e-03,9.281569031718882659e-03,5.858046991504796235e-03,7.429013721127330529e-03,6.035833723905162373e-03,6.692297259528895599e-03,5.183382760138542655e-03,7.993950544853826654e-03,7.819333426782204555e-03,6.617414724324623999e-03,6.506567520948102791e-03,6.522336804921761294e-03,6.847317212002252892e-03,4.249963690779749205e-03,7.673505818201769961e-03,3.977486012215853892e-03,7.274854794485698453e-03,8.312548112297821548e-03,6.745288627348719306e-03,6.109723133935998640e-03,8.068615912501684792e-03,4.971104910734954092e-03,6.409166523163053672e-03,6.701132933159166527e-03,1.845054363343787834e-02,4.551561448026032741e-02,4.195579489920474997e-02,1.798451123676028662e-02,1.032127982099604636e-03,-6.215446186185283675e-03,3.409899261156427736e-03,1.054051396853520131e-02,1.154568418193353645e-02,8.459181264488056101e-03,1.422355927191782700e-02,3.054120389213147574e-02,2.214485195504841894e-02,8.683973165266836020e-03,-7.561073972436577195e-03,-1.639826151103305693e-02,-1.689389469927737863e-02,-7.137929694954741645e-03,-8.213834828774156660e-03,-4.973679227734451903e-05,3.320933666790806902e-03,1.306590047310860966e-02,7.654067693803851685e-03,-8.003554497903018691e-03,-1.824213579820476230e-02,-2.260060626930092756e-02,-2.640672146996363504e-02,-2.438801611914722181e-02,-2.788462356296113678e-02,-4.764846196444992750e-03,-7.186214542512672603e-03,-3.649073405489113280e-03,-1.139757071873742991e-02,-1.903216216353074974e-02,-2.361222458660304155e-02,-2.928254331652165726e-02,-3.547952019186131900e-02,-3.605557040897246213e-02,-3.608047674091920815e-02,-1.587601385301001811e-02,-1.910671383276427160e-02,-1.002609895931488859e-02,-1.444136150849083255e-02,-1.655631899107133306e-02,-1.552566763519388528e-02,-2.424663895231073812e-02,-2.720292972430445391e-02,-3.178289123911827441e-02,-3.723746077425636042e-02,-3.065963358344743830e-02,-2.970431854623604290e-02,-1.803156260287958057e-02,-2.400223652551607134e-02,-1.604232105728686797e-02,-1.101491015761564204e-02,-1.333289127224001128e-02,-1.886741833184188769e-02,-2.400220619214518680e-02,-3.059923651118998111e-02,-3.236286328183844013e-02,-3.818093294915005098e-02,-2.985293448958677848e-02,-2.986102826950683825e-02,-2.007191299734974177e-02,-8.422035087943355314e-03,-8.381215535510275899e-03,-1.504624858236874169e-02,-2.324067557677928289e-02,-2.846499269700096882e-02,-3.340185750555849098e-02,-4.068723895893874842e-02,-3.636645783326847292e-02,-3.786361746055130068e-02,-2.358729782811447989e-02,-1.053478991383780851e-02,-2.993080858512544434e-03,-1.243203901416004356e-02,-2.106910973505077972e-02,-2.870502326088868530e-02,-3.251896941032727389e-02,-3.978882134101228985e-02,-4.059742282770360117e-02,-3.922064182015033013e-02,-2.843077697088652531e-02,-1.280541620955593339e-02,-7.264759393465289837e-03,-1.517988330854293938e-02,-2.441950518595936356e-02,-3.411321316074455295e-02,-2.835504532196169922e-02,-3.844234148283725422e-02,-3.776259629074760205e-02,-3.832470424628151018e-02,-3.108147227457555908e-02,-2.163131455941631406e-02,-1.654029615652176724e-02,-2.436547116110325539e-02,-3.390650644734565650e-02,-4.217949685440968571e-02,9.988190876753400005e-03,9.534015598623888157e-03,5.886012502498739161e-03,8.509951162401198366e-03,6.819467317716329871e-03,9.637332834923862876e-03,7.583895753804807856e-03,5.333713978099192260e-03,7.488882681189837701e-03,7.643215360521714123e-03,5.025451687091397890e-03,8.505696349225405628e-03,9.122403952899349119e-03,8.260451064045744654e-03,4.917554775502647538e-03,8.812290851381491749e-03,5.026903769160964187e-03,7.231062873714002963e-03,9.069722131498401257e-03,7.448654044478028764e-03,6.416963452492712924e-03,6.638295697639750442e-03,5.309202307565594366e-03,6.648638153944837897e-03,5.620831059035833258e-03,7.618597773910913175e-03,7.105043114600048323e-03,6.623047530786274270e-03,7.725132604459601302e-03,5.044326075826810994e-03,9.412913802929566767e-03,5.041837728924775976e-03,7.101296419882615653e-03,7.069297020595975006e-03,9.243547007887070732e-03,9.324577594178198522e-03,4.773537004761262137e-03,8.121104401115153762e-03,8.801641347699415072e-03,8.662733648778519341e-03,4.745557820835951367e-03,7.820313210352151240e-03,6.959819048243219217e-03,7.754129312303736921e-03,7.491100614625398856e-03,4.775347643875646475e-03,9.576644571542565487e-03,9.126574323261424718e-03,8.921500199526253769e-03,5.987351335218446015e-03,4.984174829767803148e-03,6.451130347495242015e-03,6.908988081271834336e-03,7.119876478313197019e-03,8.949368217055265334e-03,8.248222911401073901e-03,9.620563155926003390e-03,6.401612938955242652e-03,7.850581083922069520e-03,9.513666131085599456e-03,6.209017404501013249e-03,8.351923858958842234e-03,6.708639267108920667e-03,5.728722537007131799e-03,6.949010412162087702e-03,7.225490809519192342e-03,7.512992338784063757e-03,4.715967703512933401e-03,8.803409607842720488e-03,8.068104388699837495e-03,6.926589939442014988e-03,7.149695960882747683e-03,5.617778056285697812e-03,4.767561015166803598e-03,4.726678711323001152e-03,7.622964578172221339e-03,9.259474387393676342e-03,8.095660666868799080e-03,8.712343643866915510e-03,9.114214944479278463e-03,5.632073956686130083e-03,5.133226061008755621e-03,6.888365329871948793e-03,6.440029239967308070e-03,5.348352562058989422e-03,5.368524091820261850e-03,8.748633596202598159e-03,8.965890406223801790e-03,9.169963147570228332e-03,4.849817275924819641e-03,6.998263466939395362e-03,5.767300674575831336e-03,4.952433606817053212e-03,4.600020788306435557e-03,6.063051402908852840e-03,8.920831427725850124e-03,5.566669137377975966e-03,6.710253545425095070e-03,5.525478067713180882e-03,6.555916891309821262e-03,3.603219419255165694e-03,5.173961210520510237e-03,8.526335257944092638e-03,5.872680922215760269e-03,4.296687356963621411e-03,7.077075073445661391e-03,4.817063252275271754e-03,3.669792923120816178e-03,4.948122571016483340e-03,6.207161744483581656e-03,5.997589600527234062e-03,5.860959449577835684e-03,4.428619468062826303e-03,7.252257591119527259e-03,6.762510512431390945e-03,8.094507537813329379e-03,8.030066424318933055e-03,6.715247365640802067e-03,3.814194332756351471e-03,8.393881511315242488e-03,5.979253357359061959e-03,8.422792645422087429e-03,6.866440167750093027e-03,7.772832878217649996e-03,7.301216724173610097e-03,6.133267939499801279e-03,6.367227461669401969e-03,6.477231275630781181e-03,6.971322330835670773e-03,8.136372123073443152e-03,5.663973964174737544e-03,3.892475805057566025e-03,4.111397988893163678e-03,8.006620665129962275e-03,4.030101458201058168e-03,5.891405528027689881e-03,3.946589516642556340e-03,7.849565987554634611e-03,8.058325250766034537e-03,6.920823807606408390e-03,4.693621392110281995e-03,6.178394655235225699e-03,7.643656461829083197e-03,4.258642953857338584e-03,4.777696507820771224e-03,6.815700121433637508e-03,5.192509879025820549e-03,5.242913826693429077e-03,3.683761350605464172e-03,6.605949759681901436e-03,4.038145489394824941e-03,6.642469161613509705e-03,6.669078048471724189e-03,7.929206537410657049e-03,5.882288278595044009e-03,7.558924885603255511e-03,5.099734952618758047e-03,4.198521848577823658e-03,5.930650985575340942e-03,5.316978127718842428e-03,8.497030028377493965e-03,4.206943610096291510e-03,5.168807215915784473e-03,4.680520926383224985e-03,5.704161634962378810e-03,5.049467548433547032e-03,5.548671224990199893e-03,3.843041378093533644e-03,3.630426995453078440e-03,6.913180677623200279e-03,5.631556409766874313e-03,7.722888912071246455e-03,4.321401351914510441e-03,4.035674084814857773e-03,4.058999067276217350e-03,7.668640422365982472e-03,3.954560340831086637e-03,8.464815144680601366e-03,7.940602120564112243e-03,7.922254394444334935e-03,6.620586003672729140e-03,7.824547861987931827e-03,7.317340212475896555e-03,5.256275271360247997e-03,8.455899066067536218e-03,4.675401611813392519e-03,6.546225363949272763e-03,7.379707467386815989e-03,4.206646342078209158e-03,7.090523223896325576e-03,7.646869555234552494e-03,7.398127148102770501e-03,7.699281137941142543e-03,8.460814942661527491e-03,6.800699997704113230e-03,3.613543201664484034e-03,5.785718668088106129e-03,4.899186051928261856e-03,7.724949393056112883e-03,4.922688052771429304e-03,5.673046531994757440e-03,4.683236910006660647e-03,4.249849503958791352e-03,4.478010122145340000e-03,8.009457323306216209e-03,5.278140017342930652e-03,8.398601782716364275e-03,5.633614604153223439e-03,3.751585050644694157e-03,4.713509348706897834e-03,8.709080934169511831e-03,3.570614735819852698e-03,3.910115797370628324e-03,6.419582746956658051e-03,6.398920890516432945e-03,4.410875879936606951e-03,5.136119459815938551e-03,7.107325310817725131e-03,4.990917470418441276e-03,6.980059243661951990e-03,5.863648804943973405e-03,5.021327312513469872e-03,5.093166339847714739e-03,9.063527846980954164e-03,9.492568307608530501e-03,9.377035353050221581e-03,7.224493080721771515e-03,4.685957718814920056e-03,7.673937967486089105e-03,5.647622610076523733e-03,8.634331180906892195e-03,4.938725070498642226e-03,5.000319711967723957e-03,5.081311182098187905e-03,6.409282944586138994e-03,4.181737756901863709e-03,8.743470372276592947e-03,8.930859032194427005e-03,7.413844680227020707e-03,6.794082674089562714e-03,5.837378081657905102e-03,7.987525641896107975e-03,5.578944849757678896e-03,8.111037338047981729e-03,5.057280122421796593e-03,7.053546539089090156e-03,6.236063931208573816e-03,8.100101488175038764e-03,4.879861314003835181e-03,6.320645052091357873e-03,6.934694617028095212e-03,5.480025702769979710e-03,7.724271784808852889e-03,7.313084339665211833e-03,7.509133835545106495e-03,7.030743853479256775e-03,6.312428549717878125e-03,4.930364632352575265e-03,9.129065064314099628e-03,5.267049767200295690e-03,5.991594585151030321e-03,4.367091048776246091e-03,7.887500951903310062e-03,7.323343497498751783e-03,8.374998772818574577e-03,7.288195639222191588e-03,8.296949172801658043e-03,7.341330365967345048e-03,6.246717781418290906e-03,6.868196702995529868e-03,5.262449730616815952e-03,7.960968137824578697e-03,4.662333250735073605e-03,6.574750975870381764e-03,3.964564984299243956e-03,6.034861185081821268e-03,7.479154515963988559e-03,6.923993901948631915e-03,4.899248792968655293e-03,8.028412428959847205e-03,6.128389562167034857e-03,7.560459668600190246e-03,7.637323627603244229e-03,7.048422437211470520e-03,6.289894673138706968e-03,6.568567244065714669e-03,4.902823755412808425e-03,9.583589716937934364e-03,9.537678669893712505e-03,6.386295927040289318e-03,5.840239019800527211e-03,7.289889935307725284e-03,5.585080855771334084e-03,5.410405957126223839e-03,4.700945354491121130e-03,8.542845187467118517e-03,5.860660188623343682e-03,9.446378598532522222e-03,8.294567655367377640e-03,7.395017931558663798e-03,7.708512028693956762e-03,6.091790864207195962e-03,5.569459713646993625e-03,5.729028547676900084e-03,6.581845718479134924e-03,4.182522632747961815e-03,5.722077281879742530e-03,7.008458196033125892e-03,4.910499972665564872e-03,4.823809515249952162e-03,5.895243805170194938e-03,5.467783190392754011e-03,7.254867023700161538e-03,6.236427950287703678e-03,7.283562447771290901e-03,6.241919645627507472e-03,5.462523736096477553e-03,9.158031990472296699e-03,7.981977083952193630e-03,8.981049017310057531e-03,3.746239367329950911e-03,8.109109723302174860e-03,5.267608041914353945e-03,6.145952606191315559e-03,5.126699276569237317e-03,5.037370663264907622e-03,6.697650587520902893e-03,5.910556047249178498e-03,6.118985094594489756e-03,9.099871873429674768e-03,8.026188657215365535e-03,5.668097308158764544e-03,4.728640571533126481e-03,8.742985719651857196e-03,7.552695546178797396e-03,7.335806662093164419e-03,7.078573126801951214e-03,9.421568478452158057e-03,1.008771556822629818e-02,9.782898735813144730e-03,3.885140388072937101e-03,5.033192783782542909e-03,8.251198264600349830e-03,5.696640962309631497e-03,7.778978030584870335e-03,8.595181858247862017e-03,8.973987951378166461e-03,6.576174903171448823e-03,7.532094815312271284e-03,6.341881830977171355e-03,4.482670890767156448e-03,8.516183507654611143e-03,5.292398534615258554e-03,6.877984634807883524e-03,7.420826267536669192e-03,9.070331449783808342e-03,7.167387583351816395e-03,7.219616934781345960e-03,7.138735412696836993e-03,7.369051186534063963e-03,5.996686244264253993e-03,6.940161792107676572e-03,4.689717579316018264e-03,8.075392966411347462e-03,9.343653100093307282e-03,9.957986807113749367e-03,8.676260215765261435e-03,9.328943614600820888e-03,8.849505140190189884e-03,5.995996158818937133e-03,5.440843828824006717e-03,8.963068649183763420e-03,8.550451389139231834e-03,8.093177239935647749e-03,8.502049924297122585e-03,6.963451857826145029e-03,6.182575600265779840e-03,9.997542188403370916e-03,8.400725762689612366e-03,5.659228528795260706e-03,3.988260149571838838e-03,5.710512455025236293e-03,6.252798432852731472e-03,8.448443167231249606e-03,5.339394352873724076e-03,5.112617617324915001e-03,7.884994216717247650e-03,5.698884958516365652e-03,5.840188952612097341e-03,5.323012340995032787e-03,5.746681420382823181e-03,8.763961606861499221e-03,7.485594806348750720e-03,5.271290774714123238e-03,6.141419755267188592e-03,7.173233806007711308e-03,9.602419926597990235e-03,6.128926175069606200e-03,6.523142722715744024e-03,7.397387715858086410e-03,9.160976993322130640e-03,2.008083731137019420e-02,5.152282964767742474e-02,3.077445988508683422e-02,-1.661747767962374472e-02,-4.865200785694528268e-02,-5.259449167295165983e-02,-3.727032985747555371e-02,-2.483195439913888844e-02,-2.361572525725082194e-02,1.305776231147796722e-02,1.191689239037023625e-02,6.594740248765038060e-03,-1.952541945326469880e-02,-3.562258880503996195e-02,-4.843416524212184465e-02,-5.791282315221814997e-02,-5.560472130216530251e-02,-4.991254397304175500e-02,-5.415185718533389175e-02,1.601098895902488281e-03,-1.009665100108316817e-02,-2.284826637445977124e-02,-3.254651925233540549e-02,-3.505588448614570946e-02,-4.018304653986764369e-02,-5.034609947843317335e-02,-4.760836267584152293e-02,-4.925585158673696784e-02,-5.850730484069206067e-02,-8.399447188187881067e-03,-3.033468359672806050e-02,-3.308939082305715346e-02,-3.479795374935195501e-02,-2.447446024725636465e-02,-2.765103515177242191e-02,-2.795043537891275798e-02,-1.868473572971041802e-02,-2.126081377908321107e-02,-3.587408370706758609e-02,-1.277563756654070092e-02,-2.821354679082204581e-02,-1.773157213399027821e-02,-2.587967194826297501e-03,1.414067554775436109e-02,1.834799186097623228e-02,2.194315072852640047e-02,2.616954276655177741e-02,2.358914061993921257e-02,3.427922917325623361e-03,-4.420565689897096480e-03,-2.681799880132502284e-02,-5.061615647310275037e-03,1.670877132164080153e-02,4.183027680955569982e-02,5.532417238588514807e-02,6.231594963351546473e-02,6.795859853457350552e-02,6.316710575495397550e-02,3.299796499000337557e-02,-4.664866603920978481e-03,-2.620111196978467533e-02,-8.017288976358743005e-03,2.025132355516842328e-02,4.675401624336333190e-02,7.303682431687294474e-02,8.472918769081699830e-02,9.313685434041510391e-02,8.035629299400569303e-02,5.054549290547671880e-02,-1.043961445963263734e-02,-2.259210663038966477e-02,-1.230608657685986103e-02,1.868167286622369333e-02,4.526052487465851565e-02,7.264398936327841338e-02,9.210897994641370490e-02,9.721126906017840685e-02,8.213339318647409903e-02,4.847574088074189241e-02,-9.825823613094041703e-03,-2.350510740144855920e-02,-1.153813268497997160e-02,1.036554045645472939e-02,3.665697071970795001e-02,6.375837796284621051e-02,8.043420624766628446e-02,8.452665483255145107e-02,6.667721377774886438e-02,4.031527584007561782e-02,-1.102408792102379381e-02,-2.160669274385618871e-02,-1.282108155790762961e-02,2.187513410101678615e-03,1.857306564914655567e-02,4.314745340595194101e-02,5.757546130318554056e-02,5.380854418429549535e-02,4.112314456498362969e-02,1.464319755055591699e-02,6.608022453120762987e-03,8.120018171618077069e-03,8.856822271400050309e-03,7.869908598959396082e-03,9.087733127570458286e-03,4.691865366904861452e-03,5.221102117672316370e-03,8.973748383074176688e-03,4.838493551659528956e-03,6.839297495251904849e-03,6.631394805879322132e-03,5.285103750177952940e-03,9.643460617492658968e-03,8.451727507597182193e-03,7.831007273690954520e-03,8.715141842118957066e-03,4.888148831778711158e-03,8.672411850132998382e-03,4.684662926620242369e-03,5.511019039641595375e-03,9.636845346315746699e-03,9.242636009194501318e-03,5.918868364704827842e-03,6.575873684940960161e-03,7.934335604812124687e-03,8.337191045151416333e-03,4.314384147899024725e-03,9.093876173509202535e-03,7.367164342624639428e-03,4.614351408568687606e-03,8.774579765013329827e-03,5.309342796819681298e-03,6.914752263507261722e-03,6.298630380812706396e-03,5.851162577349321159e-03,7.611781964115961301e-03,5.234945278414639830e-03,6.125674703424535857e-03,6.917520292353293403e-03,5.325307150443658009e-03,8.795687217154506132e-03,7.605642329551845146e-03,6.427212736747141449e-03,8.104404897054153997e-03,7.098041219279848865e-03,8.234182798773729065e-03,9.108179286540844105e-03,8.087866340419467767e-03,9.585927468950899977e-03,6.185794793405545791e-03,5.742941601521418284e-03,5.249142465476810786e-03,7.580818488397747176e-03,8.061669982114194263e-03,8.141800549514887839e-03,7.750837339896047076e-03,6.480851108397587060e-03,8.609097619764589926e-03,7.429406842689437705e-03,6.136003811284526654e-03,8.507089094215167582e-03,4.845578740073056348e-03,6.272544114167772147e-03,7.732706726814963898e-03,8.392598598525093448e-03,9.501707756540387489e-03,9.586419401173842947e-03,9.175162234281426452e-03,8.656661550512234279e-03,5.283113943367321631e-03,7.879203179098419677e-03,9.065814809179754616e-03,4.727317464888404659e-03,5.291075767207724552e-03,8.290654083726523710e-03,1.000716254768682992e-02,7.716801682803603284e-03,5.443171876926159412e-03,5.418824466070038502e-03,8.018014570262233659e-03,7.586896861791495895e-03,7.915059204818830629e-03,8.615708700514736196e-03,5.322791921140247740e-03,6.506960442372743472e-03,6.239425395220696280e-03,8.404243570102087543e-03,7.511202813638046503e-03,7.144481427439258736e-03,7.393500302827945778e-03,5.892448603881966784e-03,6.325344283882051652e-03,5.313496250975627451e-03,6.903247038628775034e-03,7.540016590204717643e-03,7.382947829309777915e-03,7.022913420294455041e-03,6.333803460892354492e-03,6.691575488547542652e-03,5.673889568627097334e-03,5.564959904505686894e-03,6.889474608221998406e-03,5.404234256312267365e-03,4.467628816247746007e-03,6.739674100516057469e-03,3.786620902475041402e-03,7.422936502259267801e-03,5.717388595951427427e-03,5.619670139759820257e-03,3.612373132346913263e-03,6.502297868850257997e-03,7.338348378800874094e-03,6.135995031414351146e-03,8.265248781422877139e-03,6.115206650398272333e-03,4.261234647374823048e-03,6.211905787534987081e-03,4.581219770806757054e-03,4.016806788706190137e-03,5.504773203581939632e-03,6.020143255756373046e-03,4.360151758697463839e-03,3.874636328745175058e-03,6.425063736549422103e-03,7.532637428313449825e-03,4.257830666803423883e-03,7.730738943462486974e-03,5.966269514713397511e-03,4.241933793308054479e-03,5.560790446120950428e-03,5.163905579718366078e-03,6.568164894098989758e-03,4.044656941524232482e-03,8.095349544589762122e-03,8.493923337630365084e-03,8.225609062779951422e-03,5.203481193171481667e-03,7.416704603179468704e-03,6.925599014367225456e-03,5.288243822635368442e-03,3.779337158340199693e-03,5.764745140714359374e-03,6.658421947983037860e-03,6.026110684344648111e-03,6.850442940139998826e-03,8.194491225872877621e-03,5.342343352628506521e-03,4.149098291030947107e-03,4.931580710878248272e-03,6.360496928638737293e-03,4.227694180235128628e-03,6.324425414315133255e-03,3.709931258792417263e-03,7.272166500013415268e-03,5.150398212887067825e-03,4.599166442655547651e-03,7.736322972009496667e-03,6.146787788337777780e-03,7.848913663668223573e-03,8.394811660898345018e-03,4.769618351059219663e-03,6.173573030762734282e-03,7.045687089775615891e-03,6.584572683961499757e-03,7.523516300570218078e-03,4.904344217200720668e-03,5.994232556175153187e-03,8.390853413330224414e-03,7.666340723345712975e-03,4.929106483774307879e-03,6.778564891327648785e-03,6.392126398349426072e-03,7.718193895351356353e-03,6.566565996165224864e-03,6.800871282798590968e-03,5.566500322807537045e-03,4.329088362431122473e-03,4.970333505351953382e-03,4.662929113557287390e-03,4.549374072197277796e-03,5.573989096043750757e-03,5.324286411303081994e-03,6.254470261781806123e-03,7.447571202194810426e-03,4.943600049362889028e-03,7.541466752626996457e-03,5.572022529297955551e-03,6.379811033659595065e-03,5.974782055713216689e-03,7.845142844319485248e-03,6.816893601057675937e-03,7.636638557266419054e-03,4.165331391350259038e-03,5.805329527537330357e-03,4.579369207637470386e-03,5.391698206774010564e-03,3.934416824875406303e-03,5.099184726395132941e-03,4.726049879363272699e-03,6.144750132055433467e-03,6.663130929825391777e-03,4.470888601092663610e-03,3.264384057814350912e-03,8.672545584215230266e-03,8.110265059803287505e-03,4.355256817373799778e-03,6.023772800324076263e-03,4.790633163543851943e-03,7.988414014714031314e-03,6.081657629126110444e-03,4.860544302067653505e-03,7.839821501714987553e-03,6.426324997789134921e-03,8.050477001762073453e-03,5.982106589384915060e-03,6.095312124669753986e-03,5.340671965476346400e-03,4.980083959389943957e-03,8.505596039253689525e-03,6.867671042165754067e-03,6.301238458907778769e-03,6.466908395623901205e-03,9.568669522936310706e-03,1.031598058021062324e-02,9.358249952530204793e-03,1.047406752729779060e-02,5.756590576558264470e-03,8.565274099331936231e-03,9.758179431860695280e-03,7.318638491453410659e-03,6.253862400096982244e-03,6.988903580337629817e-03,6.117727383124733215e-03,9.628135957828057659e-03,5.008103028845174373e-03,6.482806635192552014e-03,9.671116010682996589e-03,9.512984111894934661e-03,7.550165778250550984e-03,6.463943150916028578e-03,8.539705339235181478e-03,7.088527397779658887e-03,8.421955909484801772e-03,7.290920623356126479e-03,8.449112745042982112e-03,5.401697350583444662e-03,4.916686415001468927e-03,5.762499034414477264e-03,5.104662785711561179e-03,7.015117197278258367e-03,7.080108554617172388e-03,4.428712408748461740e-03,7.660473240697973814e-03,6.829730595534776010e-03,7.369445438804965963e-03,6.745872189565703392e-03,8.743064486670261426e-03,7.945826504923285058e-03,6.529908258073602485e-03,6.975361721878099198e-03,4.756710436108589277e-03,6.241859574663044356e-03,4.744589854318013479e-03,6.251580343902380169e-03,8.401567819678299603e-03,8.024882884927161605e-03,4.926622477250505033e-03,8.433900995928826638e-03,6.256278453718108756e-03,8.553495797119085517e-03,8.097251681522681793e-03,5.238040646222926096e-03,4.993984868405812461e-03,8.276366601674460532e-03,4.829184556512479583e-03,5.687513037269988254e-03,6.557094042716127801e-03,5.580476542260096214e-03,9.014726905245752306e-03,6.028306147714854006e-03,6.484891197976515829e-03,6.432024353663669258e-03,9.507011241014350078e-03,7.027740255369484441e-03,5.602920963580284956e-03,9.814145797593043508e-03,9.782009458067271110e-03,6.905046691190785783e-03,6.147913871378155037e-03,8.143520326015361854e-03,6.622736308296216408e-03,5.928029183971779241e-03,7.750976200932098784e-03,7.363893035598460639e-03,6.862348662078529039e-03,6.448243098444466324e-03,8.853885789716665899e-03,6.248889238989511867e-03,7.639730939718712525e-03,7.721194953085754216e-03
-1.187038148040449846e-02,7.862102843540556135e-03,7.490303997866322797e-03,8.461034317753766965e-03,7.224782056791481145e-03,9.553077500719108633e-03,6.962169607743482098e-03,1.161942294704350169e-02,7.801247341373091990e-03,1.168732148465391647e-02,8.909224866759379857e-03,9.021369902406846733e-03,8.610368055262631465e-03,8.687612551942379760e-03,1.002675673306487221e-02,8.880968885051996470e-03,6.862043651118091697e-03,1.067579586979496703e-02,9.247950665558645963e-03,8.762088267304665723e-03,6.997006603406621603e-03,7.344887024933860128e-03,7.724448687975305275e-03,7.616839290142190036e-03,7.172663353144014160e-03,7.667960528285837525e-03,8.222727019433341208e-03,9.084420806326419864e-03,1.028925176160904939e-02,1.069459361705418256e-02,9.354965597370817551e-03,9.152066340460089308e-03,9.708290226044951482e-03,7.566835380732445625e-03,9.859264758181397401e-03,9.959344693930819239e-03,9.145930677943373346e-03,8.704160642465839925e-03,1.067307096224190226e-02,8.416410719547323671e-03,9.670673182302934323e-03,9.528893236909637826e-03,9.629052007497022891e-03,1.079177626196137565e-02,7.794953086118893565e-03,9.700844241146002606e-03,1.019315517681663313e-02,9.003420356534209967e-03,1.008082825873882898e-02,1.172439623634324857e-02,1.159810069161592780e-02,8.626870216596750976e-03,1.022736872836457409e-02,1.130386033999182006e-02,1.060656127736655380e-02,1.043573369834844590e-02,8.882206073954223083e-03,1.059437490280172416e-02,7.701364218994234678e-03,1.088835531380603558e-02,1.094502518017887241e-02,1.057120335330496812e-02,7.319151768175368236e-03,1.076133443530491104e-02,1.140784352135233194e-02,8.327444082189066135e-03,1.068372245420800767e-02,1.149317784584545990e-02,1.116877399324421941e-02,1.137974822877982350e-02,7.018631086654597562e-03,7.777527129121437725e-03,9.088332238222435883e-03,9.102570979205229854e-03,7.076193487640975929e-03,1.064045567118256791e-02,9.664727726113207448e-03,9.405305569152644374e-03,8.986945271103906341e-03,8.732819266264299843e-03,9.032820889483384949e-03,7.695753585817583300e-03,7.359840783936711858e-03,7.929552599157287454e-03,1.144286255363736148e-02,1.024748818115362933e-02,1.037606456743682230e-02,9.841892013185082888e-03,8.315875329376937533e-03,9.053873666817983251e-03,7.012791692271639309e-03,1.108463233333388531e-02,1.065796964321045343e-02,9.354452610920461000e-03,8.719108723950937112e-03,9.098559638942616684e-03,9.532675021036999402e-03,7.810368185790528620e-03,1.071420414682457481e-02,1.004603078107736518e-02,1.053258383719239168e-02,8.698737223284250253e-03,1.698751075606578023e-02,2.208385725327560722e-02,1.150591340420722801e-02,-1.306762725445786630e-02,-2.440959877828839664e-02,-2.423339121039403549e-02,-2.137830202943053620e-02,-1.851996141016033423e-02,-1.295001985952483510e-02,1.033959315062817422e-02,1.521271901296331226e-02,1.252106321786611298e-02,-5.126292569406470066e-03,-1.566959319143630680e-02,-2.508864455550775807e-02,-2.908612154779521494e-02,-3.230471183901528764e-02,-3.123391123281810122e-02,-2.982256952929964941e-02,8.339992347992247063e-03,6.807344550299916641e-03,-4.321550408768346820e-03,-1.906621296743051669e-02,-3.035577911602993506e-02,-3.114919931791187632e-02,-3.091081382106253272e-02,-3.778683099193031608e-02,-4.029032524741601312e-02,-3.855990568210783398e-02,-6.991807734457212986e-04,-6.198111210862958242e-03,-2.162950089945946119e-02,-3.282627868876569766e-02,-3.571473275076159082e-02,-3.794131859554464303e-02,-4.004242313244998214e-02,-4.086547155763911587e-02,-4.800168681359497785e-02,-4.848455416427937398e-02,-5.380002732846631518e-03,-1.857141993377187453e-02,-3.281607087991492838e-02,-3.899126424438886795e-02,-3.810375696590934808e-02,-4.074131362301267739e-02,-3.910700017516086785e-02,-4.616230412746648998e-02,-5.438463985169998682e-02,-5.263689263156631770e-02,-9.830466627814350364e-03,-2.182089048815534157e-02,-3.566546977971361831e-02,-4.139455230276825604e-02,-4.194495764551198214e-02,-3.960294083166476797e-02,-4.166031599912706912e-02,-4.532949921932653142e-02,-5.580894068613109077e-02,-5.830933562869718145e-02,-5.458510434070520598e-03,-2.381264637554305133e-02,-4.009411765860917271e-02,-4.445916403084067270e-02,-4.363411861076046949e-02,-4.063980259935540823e-02,-4.110822808638167625e-02,-4.791137303577766571e-02,-5.351570355027444881e-02,-5.532972979159256344e-02,-5.338967444181858847e-03,-2.571299947370132843e-02,-3.730331706057259805e-02,-4.222230698588688713e-02,-3.982613433300451894e-02,-3.672312983874363723e-02,-3.929922147305570795e-02,-4.475558812072693432e-02,-4.814898279381714385e-02,-5.363141089277613516e-02,-4.523118087078959078e-03,-2.041173478469492791e-02,-3.441325583033590096e-02,-3.909252031625497226e-02,-3.526848934183002271e-02,-3.147401393762265520e-02,-3.388527044870557475e-02,-3.755901546331686519e-02,-4.718130060936010645e-02,-4.517247136060120044e-02,-4.665630659744684702e-03,-2.081124123877638871e-02,-3.188418978321082287e-02,-3.911520684309030549e-02,-3.435199167901925588e-02,-2.925049989389739286e-02,-2.815311407345066214e-02,-3.403205255275720820e-02,-4.508833396980715252e-02,-4.222041992392579907e-02,6.694595078425617796e-03,9.455048666776610239e-03,8.877596732882546068e-03,9.546015785872245460e-03,5.220217256101498601e-03,8.847484722035439328e-03,9.603598789603616515e-03,9.335943777879052163e-03,6.007085124393435338e-03,8.367773018257331635e-03,7.372059589623209015e-03,5.620865529310180818e-03,7.212738956128581479e-03,9.491255465855538698e-03,8.293355115624236398e-03,7.513429933095495256e-03,9.775624200791385374e-03,7.296726734584390618e-03,6.965974211496006249e-03,5.876120477332166282e-03,6.033292336789063647e-03,6.458566699244145011e-03,8.582502557265088775e-03,7.276327895340156150e-03,7.376178556524200583e-03,7.614112067968401010e-03,6.336656744097570425e-03,8.309917916575594934e-03,5.980373059190832556e-03,9.236559795391341421e-03,8.281879383986206350e-03,8.372272284105308771e-03,5.766238748596004549e-03,7.111009589415085916e-03,7.512060793391705724e-03,8.476259803159965495e-03,7.088071823091042847e-03,7.832888899771892066e-03,8.180289478286502727e-03,6.543241744248689575e-03,9.590545872215349224e-03,6.982460984286596034e-03,8.669054980191224016e-03,6.661527688978703503e-03,6.392365137671482400e-03,7.021822799523107055e-03,8.157983928835646145e-03,4.721045022925660604e-03,8.215376919425766353e-03,9.285407336228566552e-03,9.422961015481479477e-03,8.426237595932922417e-03,7.356516605533388632e-03,8.301928057456428589e-03,6.978967696986343623e-03,5.921722065469382443e-03,7.100734187957942652e-03,6.254405183507661531e-03,4.614006867442344874e-03,4.793726105037685904e-03,7.526973432121817666e-03,5.175155714477977509e-03,9.401971470410308215e-03,6.488463460783608187e-03,9.507967733361391560e-03,6.446622006229979149e-03,4.813436508227666479e-03,7.612778437769854821e-03,7.702542734433423521e-03,6.094722110270023481e-03,8.224906161146241027e-03,8.139825402074715374e-03,5.843389954511126437e-03,5.541988195159178177e-03,8.455767631236883394e-03,7.494342396775425207e-03,5.290481152890706695e-03,7.104107443580230836e-03,6.308932680697860659e-03,6.014249753643737852e-03,7.761897225467869442e-03,8.937547651308754004e-03,7.542614219443560981e-03,5.393632042062074076e-03,5.867447504891793765e-03,6.116818160155117895e-03,5.238878146525770448e-03,7.269467620170057612e-03,9.326521595182548155e-03,6.493636923145485081e-03,5.729703730160717531e-03,8.288753489224422524e-03,6.926467603805178987e-03,8.154979663882410551e-03,7.933286350483886168e-03,7.765082514986503502e-03,6.990958717620818913e-03,7.255995479576999099e-03,7.682634023805794826e-03,5.274187511353070623e-03,7.981422656734382323e-03,1.058402260048816115e-02,9.879478305993578263e-03,8.828597691967685068e-03,1.132781412421775616e-02,9.035483689653501377e-03,1.083674819075862092e-02,1.171624825891260518e-02,8.951251801405879505e-03,7.672414534209389195e-03,8.202735606256027212e-03,1.117682061557222564e-02,1.149933746692015715e-02,1.141986575065911252e-02,1.023657806548061711e-02,7.636483891713754385e-03,1.128776866906952905e-02,1.032067989983199291e-02,1.179812228938064908e-02,8.352117725833817577e-03,9.276236739622523153e-03,8.787209318843018646e-03,1.121078419567466192e-02,8.372870271869040440e-03,1.010364714240313475e-02,9.723004627934808686e-03,8.465987069368890311e-03,1.070379696534430949e-02,1.197153395708079257e-02,7.713704329681384669e-03,1.105354590815600321e-02,7.527474209619995985e-03,7.498604114550083688e-03,1.206989445323058616e-02,9.738815909894931594e-03,1.116166037548489698e-02,9.545371605420519684e-03,1.045928599100190773e-02,9.638958604656570894e-03,9.988881689366797823e-03,1.114776646983026490e-02,9.155511230399121514e-03,9.684681080969901462e-03,8.020784899893796185e-03,7.426283146222189407e-03,9.978240145687003460e-03,1.093072425972453979e-02,1.056527300453634702e-02,8.623612636580724883e-03,9.173508893372473577e-03,1.164660479541054436e-02,1.076291893671106614e-02,8.161446984611079453e-03,1.022783401428607047e-02,8.619989281292973066e-03,7.875642011117501423e-03,9.340869113777239274e-03,1.165963507344995945e-02,9.033357796019488711e-03,1.031591264644655601e-02,8.882285453881897525e-03,1.064623140931072673e-02,7.667053014228828248e-03,1.163126873130666469e-02,9.262763265024231973e-03,1.029036897443879814e-02,8.015994997340800468e-03,8.725883778088406456e-03,1.051726064354486720e-02,1.159736680832102254e-02,7.291351444182679956e-03,8.286217023452462430e-03,9.443798133023054153e-03,8.842561979808309658e-03,9.225937219632208280e-03,8.772528907589883379e-03,8.153410040717866403e-03,1.036603501141011852e-02,9.989109424184960950e-03,1.214640500890289826e-02,1.109682468336183406e-02,7.514803783428156136e-03,8.999607701211560784e-03,1.095760039896598315e-02,8.435312395423010673e-03,1.108676997022834884e-02,8.696604786830628570e-03,9.179131834994219696e-03,8.128773682239473844e-03,1.197629786032055818e-02,8.425891614967161852e-03,1.036912208436666441e-02,8.812291414386559663e-03,1.025561550258588875e-02,1.082099618420178169e-02,9.149367753617285159e-03,7.796628947407629670e-03,1.122404067434411290e-02,1.029083599330029783e-02,7.651334983701048656e-03,9.035821805930559572e-03,6.534397511935317870e-03,9.684597961650942555e-03,8.496524450567949360e-03,9.581216189865088967e-03,1.348859594776833336e-02,9.719218408710412690e-03,1.217269592490775355e-02,1.147379448100773434e-02,1.198371755851330468e-02,1.077783509184830450e-02,1.129824909959417992e-02,1.185591142429535082e-02,1.232279546922430621e-02,1.169513914058387810e-02,9.588658334189150215e-03,1.028781529131579837e-02,9.027771083646924863e-03,1.248239070480760583e-02,1.115776076073944981e-02,1.119920343369766591e-02,1.191326084197610533e-02,1.180993382159069641e-02,8.144229844686653313e-03,1.017134154861076660e-02,8.639812120129868045e-03,1.066626322437187573e-02,1.224615512159305843e-02,1.232476067715449451e-02,8.089297530649486659e-03,7.933685142439170918e-03,1.158971922554854171e-02,1.234593358691638346e-02,1.220544550080147894e-02,1.215799471685925434e-02,8.586545415881864651e-03,1.158028572898534524e-02,8.849775066443828567e-03,1.228902751095279668e-02,1.051177930633543679e-02,9.805908721720144050e-03,1.180199759743782995e-02,1.275019902731949414e-02,1.017421833330248160e-02,1.169230232979787468e-02,9.972119961488754708e-03,1.050711200032945422e-02,9.036174115800651302e-03,1.022647325695989415e-02,1.131312099100977367e-02,8.665381055928636500e-03,9.413411156691893836e-03,9.048255652899754933e-03,9.458272182427656521e-03,1.084255146420039055e-02,9.936450133199027646e-03,1.130070496008545380e-02,1.016947282699479961e-02,8.739703978760697198e-03,7.313465004479618829e-03,1.151545432434709394e-02,8.677900470694558527e-03,1.044510182390078618e-02,1.183159036324862683e-02,1.197599656771163208e-02,1.233786710490440523e-02,9.071654103946438438e-03,1.015974418540420768e-02,1.041414021384890962e-02,9.031368437666342092e-03,1.129927572729983939e-02,9.168847913404212444e-03,9.118598584493724582e-03,1.000405425952711341e-02,9.120484424004557042e-03,7.765249012294452025e-03,1.163121113904523954e-02,8.225817280343555513e-03,9.401820204770226785e-03,7.992574591724118174e-03,8.501190187566178350e-03,1.248305187418008444e-02,1.251933907107121921e-02,1.082674924502662929e-02,9.890004953150385858e-03,1.088292713932020872e-02,1.128012769743457974e-02,8.212637100580968963e-03,8.504544792801424502e-03,7.863285742642812937e-03,7.228059521891576182e-03,7.967679951042387285e-03,1.242444435620515888e-02,1.033920816098601175e-02,7.756579188358145478e-03,6.012542255845570484e-03,8.514330669432237583e-03,9.931248922224427192e-03,6.891184196973207561e-03,1.110633761799268739e-02,9.467004672067094034e-03,7.669818575373646419e-03,7.459963692672088968e-03,1.129355979782361435e-02,8.169282034424673114e-03,7.277250407747125859e-03,1.042770676232335041e-02,7.703240302613914049e-03,8.525678748715846342e-03,1.114176472444694359e-02,1.181470727981588816e-02,7.102499043398098448e-03,8.493173498138727878e-03,6.367698303560793451e-03,7.705288187089999116e-03,9.764884368429503636e-03,6.328280417452408942e-03,1.008037903400535451e-02,1.040693693008016250e-02,9.562192092457195286e-03,9.829185780934250258e-03,7.811436310308813094e-03,1.057580750513720073e-02,7.635775657350016461e-03,1.010354451237618564e-02,7.156829350870815010e-03,6.817944694182451366e-03,9.029376718699164833e-03,9.009066714270817441e-03,1.046530351543909117e-02,9.509726664473670127e-03,9.593112057980409529e-03,8.320259622590052417e-03,5.965304856829162575e-03,7.719970640421150616e-03,9.161922061531487665e-03,5.798661615820173594e-03,8.816002476585146214e-03,7.765739640561378915e-03,7.044931304870232294e-03,9.445137516210197134e-03,1.065518850386990533e-02,9.702828883114741204e-03,9.980643268420930428e-03,8.471109688790133541e-03,8.612688349734897580e-03,9.057458913436719494e-03,6.860306564979846804e-03,1.009824943368983936e-02,6.014971586443847509e-03,9.150822754185520755e-03,9.489342692393435558e-03,7.897708267713896002e-03,8.004707417396608390e-03,1.010250591278063527e-02,8.159920567585080692e-03,6.929971153124583373e-03,7.949222384627111990e-03,7.431318353166187392e-03,9.162809189476298424e-03,9.503212171137621900e-03,9.213470349358404698e-03,1.029118825746977786e-02,6.547094389356443618e-03,9.640538627584760781e-03,1.034594716829472828e-02,9.496752893105649129e-03,8.202706870037702186e-03,1.024225703833303233e-02,6.358144530724958374e-03,7.099946740358507348e-03,1.057560477697081641e-02,8.356357489167357683e-03,8.003788339909487237e-03,7.800763997597149474e-03,5.727393075255634951e-03,5.908100849696491449e-03,9.665097179520590331e-03,8.197234079323361539e-03,6.087987829219427931e-03,8.599896951278170054e-03,1.006481219652056829e-02,6.062899949734890624e-03,6.758838551093489938e-03,9.734465865460147430e-03,8.564388442774585261e-03,8.438532970417498419e-03,7.478248199439312127e-03,7.967152661540093453e-03,5.565976000900232402e-03,1.068993545164636724e-02,1.030921695230225740e-02,9.791332150694069883e-03,9.512237293612861230e-03,7.979250819824737842e-03,6.953318743096424670e-03,9.741300214318683939e-03,7.735221827765217939e-03,9.676883577437728548e-03,5.961544695396979628e-03,5.038072627195785969e-03,1.985155079182574639e-02,4.058490628865964178e-02,2.849277643412506666e-02,4.238634324606072729e-03,-1.499839203146410144e-02,-1.656459467943909025e-02,-1.066517002345953972e-02,-8.249048045421553815e-03,-2.212001219991115500e-03,1.258882979224544910e-02,2.438124436729539185e-02,6.562631018085519907e-02,6.802361875431293947e-02,4.807407726492077954e-02,2.925322896868383024e-02,2.830282844225209121e-02,2.740086896054689733e-02,2.807327614549110298e-02,3.860273222260768300e-02,4.049605310612009595e-03,4.761930824811506924e-02,7.997989969100056939e-02,6.981350068314708113e-02,4.557160546588456818e-02,3.826411421208173597e-02,3.925168650832663170e-02,4.048498898891604580e-02,4.216220574107926861e-02,5.121537564452477431e-02,-3.665231174497717188e-03,4.914165939041277575e-02,7.366442708286341512e-02,5.336039925018123270e-02,3.539951013948617470e-02,2.946546425513994066e-02,3.073806775816334894e-02,3.175570254103425583e-02,3.234124329000345049e-02,4.217780104882974668e-02,-4.492021391246039594e-03,4.586551071344806968e-02,5.118369298645984028e-02,3.579649985754487090e-02,1.933797590737627511e-02,1.978829306713748154e-02,1.902902276568418233e-02,1.989671667258011145e-02,1.811652294038972738e-02,3.266140083710104142e-02,-8.888619049137069794e-03,3.714931576564570875e-02,3.325551537302785798e-02,1.896894972395510998e-02,1.269828350263611967e-02,1.153677689484552786e-02,1.294329548267053945e-02,1.327704968544089065e-02,1.010482746306052594e-02,2.634730994558537667e-02,-5.401217204389382846e-03,2.929187685483128703e-02,2.891185427675600425e-02,1.626897483552445373e-02,8.482858396264020967e-03,1.030795334373716537e-02,1.075371300833559765e-02,9.401496484778965740e-03,5.144546173190414108e-03,2.058172787421074998e-02,-7.614760976221543638e-03,2.212409630446601078e-02,2.775415561057750433e-02,1.501180506178914978e-02,9.481696610426644523e-03,1.331915979831355644e-02,9.212060062342618261e-03,7.625994714799370390e-03,1.106920143018935189e-03,2.141507896381496939e-02,-7.766192078164321257e-03,2.759987211582449682e-02,3.356875258089979386e-02,2.899260347929370416e-02,1.878824871034127236e-02,2.055946034227838087e-02,1.360383986043026822e-02,7.975231361222662185e-03,3.220584914904309724e-03,2.373207912222643004e-02,-9.558114060835436882e-03,3.240228893870702315e-02,4.733204198100651738e-02,4.358063449049940502e-02,3.438034518879065637e-02,3.468453270192139309e-02,2.849567759573280734e-02,2.085731045936430744e-02,1.913611171825492507e-02,4.008849109986012405e-02,7.296036667254196008e-03,5.603926195324753293e-03,6.426711358002406248e-03,8.053627052446069023e-03,5.284080906506625867e-03,5.498819570690984329e-03,6.120877525482686272e-03,6.211218927635715759e-03,5.626869610755306193e-03,9.689431110559167809e-03,7.691822128261372078e-03,8.763237215405398489e-03,6.800654367236042518e-03,9.780373314632643048e-03,1.026132207601833553e-02,8.472523961369930745e-03,9.645115772112652572e-03,9.623339822758529560e-03,8.743154985267554552e-03,7.629736735773890409e-03,7.489857798153125995e-03,1.050033610327776382e-02,1.079019781273702835e-02,9.150212985434455840e-03,8.444123057513869962e-03,8.295493718066234215e-03,9.569955976385272761e-03,7.124413856469965708e-03,1.029534381636495501e-02,6.989184444239210370e-03,9.419474613521857179e-03,7.937062099175652002e-03,1.037937816587590316e-02,5.819308061567959531e-03,6.518294541173278930e-03,8.564961887562401455e-03,9.227662601356424049e-03,8.541594101045340073e-03,7.440145653444871568e-03,1.057323446088086032e-02,6.102206675701465043e-03,6.495720488500218541e-03,8.286703052155489427e-03,5.681233710822172767e-03,7.840958865360087710e-03,5.957448837170091667e-03,7.262917146601412244e-03,9.913784835243846447e-03,6.139360977131993330e-03,9.238921877351596521e-03,1.018516549994560871e-02,9.308489458797905569e-03,7.009968253076062812e-03,7.349453637399378653e-03,7.001661609139795198e-03,6.522579129667491725e-03,7.280310025121041438e-03,7.085146317552557665e-03,5.698016716571766525e-03,6.162056626241226368e-03,9.910190835047164373e-03,1.044702223101719174e-02,6.513918224065690966e-03,6.178114670529571278e-03,6.528326330294803755e-03,8.148560508697919730e-03,6.552165280845113210e-03,6.655693665861337274e-03,8.223865590142608734e-03,9.848371310074589130e-03,7.442788211393290554e-03,9.173736415712643172e-03,1.006431886086875567e-02,5.842205569432823431e-03,8.829442527543482702e-03,8.443078036117004914e-03,1.020513763980508345e-02,8.568982909218973709e-03,7.845769764607704241e-03,6.556595264709895628e-03,9.632018120578862003e-03,8.438521207770036461e-03,7.403887831928477985e-03,9.225625567003650079e-03,8.753637897262283446e-03,7.714660697047084903e-03,8.629288495709212109e-03,8.901847696770860685e-03,6.516570387966150700e-03,6.450494560100545130e-03,8.399394452462365449e-03,8.308428759399726776e-03,9.536715246413014421e-03,9.407634433759165526e-03,6.923573845560221374e-03,6.005165693688189164e-03,6.310767969599879665e-03,7.860685262039099688e-03,8.144188470375119185e-03,7.645661636714633919e-03,8.864347714028796010e-03,1.140565837995550016e-02,8.924951457973923086e-03,8.156140115100221979e-03,8.030718055941977671e-03,7.441906742575053399e-03,1.044299040739342724e-02,9.513975808861718092e-03,1.008221785386638480e-02,9.007740792123641177e-03,1.081510529050402555e-02,1.172780457334047718e-02,1.145838746420499779e-02,7.504993220462805731e-03,9.223419365284483279e-03,9.146370058374323625e-03,7.399218398417554965e-03,1.184311160152947198e-02,1.092840272010627695e-02,1.211708949564168497e-02,8.629394352030628906e-03,1.046043239631194027e-02,8.863630244512539502e-03,8.786705556023982622e-03,7.374598867318407636e-03,8.423855051967864965e-03,1.209354049626295072e-02,1.090793804543500542e-02,1.100580495315860857e-02,1.149367930743801919e-02,1.088893140165052634e-02,9.938432978264376272e-03,7.525274057394872040e-03,9.236521342109969834e-03,1.002864684771162529e-02,7.578270628704260325e-03,7.396205964686109954e-03,9.810502201933593569e-03,7.452005910110328507e-03,1.163719860858852123e-02,1.176988926118520754e-02,1.178314509171493954e-02,9.505299450954542845e-03,8.927699747456226131e-03,8.773649063559124661e-03,9.481822202791742593e-03,1.092827733889082178e-02,1.081714620023327758e-02,8.491819758638080584e-03,1.009712290874715396e-02,1.175802533649768916e-02,1.120062125051305563e-02,8.109755040281997965e-03,9.495762327584290896e-03,7.352631709135006022e-03,1.031532216120252185e-02,1.187894416854795923e-02,1.205522828175790984e-02,1.104128916396793572e-02,1.076072233476037601e-02,7.641768770594761784e-03,1.203975107781100895e-02,1.165127247728615575e-02,1.188859446775517720e-02,9.939789325194639535e-03,1.114623560880672812e-02,7.674089915478169224e-03,1.005211457507037415e-02,7.305068463837535719e-03,1.114709407977271943e-02,1.047891148679308895e-02,7.591049518719347744e-03,8.406027879062095629e-03,1.136711213314708577e-02,8.940333223241708066e-03,8.490400573672177847e-03,1.086610438209899623e-02,1.152235293575482739e-02,1.027492291516120607e-02,7.252581881591045956e-03,7.596200204464980538e-03,1.213759083086765264e-02,7.687038919918875654e-03,9.671783847296337028e-03,7.172343900223289437e-03,1.199974436754829010e-02,8.768197534675000598e-03,1.122268005150262385e-02,1.194717530654937354e-02,8.295338226757870484e-03,7.790022221399576369e-03,1.195873612132296315e-02,8.820260435911848190e-03,1.107604863978332507e-02,8.755254237716472016e-03,1.075184033060850794e-02,9.100735264657475176e-03,1.190086243467794458e-02,1.039006247892905813e-02,8.177527489827030038e-03,1.053231197644271741e-02,7.242507808066358209e-03,9.099263635435802730e-03,8.715764564321054272e-03,7.485874697020833413e-03,1.192855556354271984e-02,9.026037204845753850e-03,7.807677028503547459e-03,1.044878851676493518e-02,8.122326764405319449e-03,9.613339204976610597e-03,5.570193381765730332e-03,8.353229600662512994e-03,7.564743580383203811e-03,7.792016295492371590e-03,6.400575225897456484e-03,6.598683176243284876e-03,6.223474360417428214e-03,5.738222142375043466e-03,1.061232216083116478e-02,7.194579592716529061e-03,5.343985974118638932e-03,9.723639447738552030e-03,9.444815183541108161e-03,6.555412517733129850e-03,7.712933321465863419e-03,7.702670656026997485e-03,7.681576699112701613e-03,5.837811634965314744e-03,8.567586689671457395e-03,7.973435943314816088e-03,9.204948202282313419e-03,8.713376460177677321e-03,6.273514031658995738e-03,7.910843621410338852e-03,7.296465696736203696e-03,9.823787158421557614e-03,7.061200548709884069e-03,8.993566062363145611e-03,6.021728791662687291e-03,6.655841849792725785e-03,6.536899957906429186e-03,7.227807904941339033e-03,5.845190604761438952e-03,1.007072730269915548e-02,6.503102456680863452e-03,9.867717552372552020e-03,9.290651548602974277e-03,7.984671923130121432e-03,6.062645860751533604e-03,1.013171386183862183e-02,8.836418096731470453e-03,7.732979738053872426e-03,6.813473373235315496e-03,5.756088537900575994e-03,6.826194691033588696e-03,9.754937001166610194e-03,8.977782121488276160e-03,6.330870266955208533e-03,1.028371104743284851e-02,8.402321101549229884e-03,8.257521322129089333e-03,6.596056791571210803e-03,9.376842222536591401e-03,6.291179062678771937e-03,5.700649558005060034e-03,7.502980424562737637e-03,