-4.325362513214298099e-01,-2.025095587032189892e-02,-1.854900641807791586e-02,-1.320776954507766471e-02,-1.145956126884374593e-02,-1.421177066143372754e-02,-1.389754336880143215e-02,-1.189958887047776019e-02,-1.512905707703126809e-02,-1.499199080492297741e-02,-1.387967403518919340e-02,-1.698468224228262546e-02,-1.569616740016391981e-02,-1.300818048990569180e-02,-1.228160811364358007e-02,-1.540357477401609575e-02,-1.474578584897516358e-02,-1.814577258572044535e-02,-2.071248517004008888e-02,-1.808589783067937259e-02,-1.781518875152451886e-02,-1.348967615202768811e-02,-1.435775064272657581e-02,-1.400177499559765795e-02,-1.396515913121105373e-02,-1.374962700262417035e-02,-1.587207539549818219e-02,-1.689966800458593196e-02,-1.943008650261539641e-02,-1.994391165527378482e-02,-2.147388084174198242e-02,-1.794205160631553997e-02,-1.512773343525456241e-02,-1.252405368874825141e-02,-1.386079437129805227e-02,-1.183311430113457262e-02,-1.742358655223744460e-02,-1.606208128691843581e-02,-2.045389973085562710e-02,-2.305731049306844471e-02,-2.407489553686179007e-02,-1.334930610012304356e-02,-1.141758097976111608e-02,-1.273327804214847807e-02,-1.124735363579876073e-02,-1.633290874581925720e-02,-1.718395569396331812e-02,-1.715265049491089891e-02,-2.058374912949589158e-02,-2.233635983719298862e-02,-2.604859164158538146e-02,-1.152343554139398894e-02,-1.121428081870830609e-02,-1.085033931575036560e-02,-1.010678642841191660e-02,-1.485878108005912746e-02,-1.701963861024166288e-02,-1.455926847431634509e-02,-1.788325736940091920e-02,-2.206252839872890545e-02,-2.665917494595914511e-02,-1.046500367532959830e-02,-9.722827818025577690e-03,-9.501061198640008837e-03,-9.380746522441143001e-03,-1.235042418384830164e-02,-1.399403040265334054e-02,-1.693916591319483828e-02,-2.082180009351504435e-02,-2.259982352146620854e-02,-2.298020196394207765e-02,-1.046054057841473532e-02,-1.289828310123703956e-02,-1.409828756037405893e-02,-1.041527086846374094e-02,-1.125084934220998631e-02,-1.607888573800173720e-02,-1.347544762233919904e-02,-1.955288362182943523e-02,-2.388832509531706519e-02,-2.166786112490627983e-02,-1.261785941392061169e-02,-1.080490237118866652e-02,-1.102109007159963842e-02,-1.059654585848253221e-02,-1.014604487431523122e-02,-1.266323360077717224e-02,-1.473319175674747683e-02,-1.655718371361158264e-02,-2.106707882289787781e-02,-2.250417538304687673e-02,-1.255397236345544808e-02,-1.234174727754300781e-02,-1.146512615390942770e-02,-9.313030432811428977e-03,-9.711166673545233718e-03,-1.012346808315003899e-02,-1.449764469289015895e-02,-1.725594170595381657e-02,-1.541455042770663655e-02,-1.965961142437510495e-02,8.786390931357322687e-03,-8.183364857890032540e-02,-1.154584612864512777e-01,-1.468280616391752849e-02,-8.831098258720526673e-02,-3.867723172910929319e-02,5.309011140921401917e-02,6.932172203477383714e-03,-3.205624074111708410e-02,-2.832197156510778135e-02,-7.971914281481165543e-02,-1.315995366159893321e-01,5.487332614865880059e-02,4.722525331101108670e-02,-6.157544754851664026e-02,-5.956232914464706235e-02,1.551096282910008339e-02,1.198838751452719620e-01,1.874378530573106438e-01,2.055119493202222647e-01,-4.007708643860445619e-02,-7.639586003791212776e-02,-1.839774594371187608e-02,-9.403548089616541039e-02,-1.526734135788990754e-01,-1.449181359893020604e-01,-1.168165213975252276e-01,-4.366311389381398456e-02,1.710755554310290083e-01,2.668544868221012778e-01,1.534656987860978650e-02,-1.031327574407115283e-01,-1.557200130694047155e-02,-5.750961833039547333e-02,-6.403505099748239837e-02,-6.940429666006595055e-02,-8.041710037358516805e-02,-4.952459322301991373e-02,1.740813590709692493e-01,3.671005409556906129e-01,-4.709937660353841204e-02,-1.110537636232783038e-01,-2.405255889827038682e-02,-4.832893255552758033e-02,-2.556843853990877283e-02,-2.490188502898176698e-02,-5.717523012772362384e-02,-3.729220879952605677e-02,1.803151788825174406e-01,4.100537194377196215e-01,-1.256997549546660653e-01,-9.119168624825924052e-02,-3.647463027458665297e-02,-8.837505491575733951e-02,-6.216194240561293688e-02,-5.512639276990667636e-02,-6.117570643792739904e-02,-2.454945141862078031e-02,1.916537205982024594e-01,4.114555303556515220e-01,-1.930431285488697357e-01,-6.279157218775457960e-02,-2.159689108329513121e-02,-1.080282795750254904e-01,-8.613561309625054896e-02,-7.098887816805200812e-02,-6.115246519786472768e-02,-5.587152710785094588e-03,2.020974440065220756e-01,3.789711096649165389e-01,-2.435141165425446785e-01,-5.468741376670448184e-02,8.677540463379729632e-03,-9.224820378835539569e-02,-7.086552948739374691e-02,-3.785997310178819408e-02,-3.012825311535474292e-03,5.650977698207651501e-02,2.148040020971313524e-01,3.565838535141535592e-01,-2.818649253356461659e-01,-1.375137327486883609e-01,-4.002592222968631014e-02,-1.157207921925204469e-01,-7.989329018746629818e-02,-2.634393205080958963e-02,2.742526691791609059e-02,6.449419350899901482e-02,2.024657592593054889e-01,3.286693711319524369e-01,-3.063635728149156079e-01,-2.435160603822939807e-01,-1.860857867636397656e-01,-2.839515165409550734e-01,-3.105734528429862640e-01,-2.727646162790391404e-01,-1.746909402324667848e-01,-5.642930271551045013e-02,1.438693194215770466e-01,2.758212481395332927e-01,8.809238948244925774e-03,3.480791038321858714e-03,6.297420386180490985e-03,4.469101251573332108e-03,5.131857949115939573e-03,6.471587247807461182e-03,8.084696939373215221e-03,3.760012408086431043e-03,5.484618515066890312e-03,4.879812683972813148e-03,1.967933248278305736e-03,6.955498728920320867e-03,8.232695742300344399e-03,9.102944281111776184e-03,6.421337360903000245e-03,8.562813254077296377e-03,9.618178945805978472e-03,5.791546958964258543e-03,1.018884131487950671e-02,9.379410604649010899e-03,4.901175626440550277e-03,1.066530688660787679e-02,1.130214720750211642e-02,7.626217349640634392e-03,6.386766192929485206e-03,5.519242089639033767e-03,6.980941940711971917e-03,9.323354524663195544e-03,8.178377400648586051e-03,1.071054245293705243e-02,1.061218850733533850e-02,8.591954100843957054e-03,7.872478823103960452e-03,9.263979829676808470e-03,7.865820635067622552e-03,6.921602567794170845e-03,8.440142419788491598e-03,9.277124445999384433e-03,6.653646452214283420e-03,7.586501935330264464e-03,7.681940196172829666e-03,6.239955986616026878e-03,6.808766110236043334e-03,7.898755524096424604e-03,9.430830636876608164e-03,9.958717856419991091e-03,6.780001111421760616e-03,6.556924748800994733e-03,9.531344966915577741e-03,8.946463988658210839e-03,9.046228555399960305e-03,1.073860986335322537e-02,8.578018118140651530e-03,6.673586176933174290e-03,7.482827790727918094e-03,9.116134326858637074e-03,1.067817576359923748e-02,7.937670796709622723e-03,8.418201076273163289e-03,8.656310261101184469e-03,5.059382715413481349e-03,8.109119235702542255e-03,6.227543547741594583e-03,1.090523962784392328e-02,8.670356490338980079e-03,1.084047985216904028e-02,1.016893308268520223e-02,6.618847511075440400e-03,1.133842959975263007e-02,9.086640173328280543e-03,5.915079493804293632e-03,6.494640990280021488e-03,9.459927235406334969e-03,8.601033970061502595e-03,9.227489066698313716e-03,9.217180761203348782e-03,1.037625268950313588e-02,6.933022092289646034e-03,8.334825189369654205e-03,9.817425720378624224e-03,4.162199843109094799e-03,4.940827964405311752e-03,7.813878771596149617e-03,5.236981539711809894e-03,5.743480344172114012e-03,1.018180914522367163e-02,8.727651363124623585e-03,1.030482643534685709e-02,6.571282641142310588e-03,1.038988974324416698e-02,5.114312158439480484e-03,7.113591500255886900e-03,5.027950818277787323e-03,4.310922509898199202e-03,4.660802553553796031e-03,3.503676287605903342e-03,5.051177611920437509e-03,7.719253194374230825e-03,9.819811901704757207e-03,6.057115480350571887e-03,-1.920797712844058217e-02,-1.623800326961617052e-02,-1.962637616267981153e-02,-1.576526736555723326e-02,-2.031903597259157243e-02,-1.786077782648680043e-02,-1.566948293997977651e-02,-1.685538537055732144e-02,-1.961021449694492005e-02,-1.665185765352125008e-02,-2.029802215842364463e-02,-1.805668657119148882e-02,-1.904014457955511760e-02,-1.733884506852640187e-02,-1.576697692824563166e-02,-1.882912125571161929e-02,-1.627142775569512603e-02,-1.719577951072203889e-02,-1.625671320643676254e-02,-1.727632859383180716e-02,-1.787157610526155307e-02,-1.608564334286417472e-02,-1.708831840246489639e-02,-1.803555699741011056e-02,-1.928373100782322311e-02,-1.852314910596645006e-02,-2.003764977306263587e-02,-1.995614451598723069e-02,-1.611340598579277458e-02,-1.587115820081328940e-02,-1.856323085993226082e-02,-1.966837690345953418e-02,-1.571692030781735722e-02,-1.863821570413138826e-02,-1.816638918401081507e-02,-1.867791702998250133e-02,-1.957934521012905452e-02,-1.706428447222676364e-02,-1.840708743657913996e-02,-1.585075553851169466e-02,-1.751907717402181527e-02,-1.619281558917642222e-02,-1.564862908805568845e-02,-1.900001546897895147e-02,-1.830528370219102960e-02,-1.987994725886274919e-02,-1.966609084067045751e-02,-1.871055593393336144e-02,-1.896843784425411919e-02,-1.915977693027190801e-02,-1.826563127575621739e-02,-1.612972748763985206e-02,-1.844816971892894106e-02,-1.724790224355819343e-02,-1.853044506519215331e-02,-1.662411896264051267e-02,-1.929413382607619507e-02,-1.918522162174505011e-02,-1.610678186200673045e-02,-1.654220514406338355e-02,-1.764697781584548611e-02,-1.991955789289149778e-02,-1.559687097722768472e-02,-1.651167031960543846e-02,-1.869824338516758513e-02,-2.023072944029684697e-02,-1.704145389367882693e-02,-1.815378838072628440e-02,-1.783999181819911559e-02,-1.713290147615706069e-02,-1.726462479340331799e-02,-1.655675019935928804e-02,-1.576356544955231226e-02,-1.576014662816559858e-02,-1.652742302592924081e-02,-1.856394211295953403e-02,-1.712515793847423431e-02,-1.780172557361027127e-02,-2.020962591763223251e-02,-1.886337777552951969e-02,-2.037309308559268409e-02,-1.988415624001549711e-02,-1.641350871576260223e-02,-1.915780224184385552e-02,-2.015107316059608009e-02,-1.878072896337060552e-02,-1.860228468646199854e-02,-1.624848058183634564e-02,-1.791789492013090915e-02,-1.733366323572587894e-02,-1.920682755485434226e-02,-2.028806424061542144e-02,-1.838858547919884276e-02,-1.686190234576651417e-02,-1.620009121376365241e-02,-1.730124436135810004e-02,-1.881508630055546763e-02,-1.785481294387513893e-02,-1.762879298108793388e-02,-2.005070867827810424e-02,-1.715689900777500262e-02,-2.041832046426054342e-03,-2.980398381310685879e-02,-2.034150553883077792e-02,-1.286881043031716000e-02,-2.214183879273748032e-02,-2.464832693756623463e-02,-1.732404071484831484e-02,-1.721661372591159686e-02,-1.973254567263584350e-02,-5.856777124921194559e-03,-2.684732357187127189e-02,-2.804765474799543468e-02,-1.610669484691260034e-02,-9.397515733423438683e-03,-1.551965527888010156e-02,-1.949498199905700183e-02,-2.371941045477341317e-02,-3.203120861230054212e-02,-2.962671556167598488e-02,-2.244938817204426146e-02,-3.149787691094250303e-02,-2.619189807453305499e-02,-1.639039073227144261e-02,-1.117475668610016203e-02,-2.150792814129698707e-02,-2.049901153367611473e-02,-2.543131223296604335e-02,-3.091580568670114840e-02,-3.315762364849169502e-02,-2.440463809824388458e-02,-2.935148757490627092e-02,-2.734060481002996076e-02,-3.859396794371255934e-02,-3.532998898556026501e-02,-3.906457975122687443e-02,-3.423844985926545459e-02,-2.736723578574752277e-02,-2.762478140511129276e-02,-2.959044885684235932e-02,-2.691017812853532809e-02,-3.247985783032584367e-02,-3.377979578834672258e-02,-4.652883215072048384e-02,-3.993585662009356552e-02,-4.034532368688248383e-02,-3.686194253499761736e-02,-3.268984600221268300e-02,-2.702384550333565214e-02,-3.198482079300393743e-02,-2.522305389357653096e-02,-3.146816352890860480e-02,-3.134550851799787485e-02,-4.374223984149314126e-02,-4.261655658032711957e-02,-4.594692322948012997e-02,-4.100787265632065831e-02,-3.916730411684669205e-02,-3.593280283441642464e-02,-2.802927417296434062e-02,-2.766707990691645233e-02,-3.000914347793382300e-02,-2.996595559646408891e-02,-4.607194875130350697e-02,-4.744407585102024261e-02,-5.023072947622411050e-02,-4.532151195085645096e-02,-3.670249178928847167e-02,-2.939811567517022772e-02,-2.189486332877198585e-02,-2.779632127956930057e-02,-3.192376984616424052e-02,-2.587321092114109808e-02,-3.902639509427268533e-02,-4.362878184804292597e-02,-4.276993818368135525e-02,-4.001892808157820475e-02,-2.968783408058293244e-02,-2.099077200407683044e-02,-1.935505765344724266e-02,-2.908060393778650818e-02,-2.809012698942414329e-02,-1.477244788650485495e-02,-2.259151173873616067e-02,-2.632988960391545452e-02,-2.264012560040990982e-02,-1.762359070353862814e-02,-1.557639860305975489e-02,-1.736144686433969964e-02,-1.876219600083973288e-02,-2.731564309630069368e-02,-2.657551049881898622e-02,-1.259591906444561780e-02,1.791806910366026875e-03,4.162857398991064856e-03,6.057070483574125523e-03,-1.315703084965555523e-03,-1.175490140136983570e-03,-6.979776719494398991e-03,-1.268272383489926942e-02,-1.973140231454280011e-02,-1.490072256912518961e-02,-1.294693243637818833e-02,-1.006762340042350289e-02,-9.702968917481949104e-03,-1.076510135605412630e-02,-1.292578310485722679e-02,-1.314478147023238550e-02,-1.459707814203258132e-02,-1.505231689483241438e-02,-1.730562879422467906e-02,-1.030005942333870293e-02,-9.201644879036430594e-03,-1.237271098593569971e-02,-1.113464703948069401e-02,-1.208840356172543283e-02,-1.269861407893301160e-02,-1.373403598925990003e-02,-1.278814086788741117e-02,-1.499585083377163140e-02,-1.703819715888110764e-02,-1.108136073570776398e-02,-1.019989235799876465e-02,-8.407205442793951738e-03,-8.914292518142004004e-03,-9.982054257038052922e-03,-6.674572647513767575e-03,-1.041167390074137188e-02,-1.209883447489094183e-02,-1.460652831488643000e-02,-1.654783099813415467e-02,-9.127838220650504042e-03,-5.230910605564670530e-03,-7.147992787445149598e-03,-6.937115134999573794e-03,-8.863915378943288195e-03,-6.721568513824922528e-03,-1.005910894670200909e-02,-1.383687512415175680e-02,-1.512438226605584794e-02,-1.434120984189390241e-02,-1.029425937035750860e-02,-3.672681522135073148e-03,-4.040530073337729629e-03,-2.065940143199550792e-03,-5.540698542710770572e-03,-4.563396001573035918e-03,-5.881066097716851002e-03,-7.835101028959621725e-03,-9.661075628386422628e-03,-1.327770722777975830e-02,-7.454524121870669505e-03,-3.463437441883638387e-03,-4.450514008391674541e-03,-3.712924523979647257e-03,-4.118824242981988792e-03,-4.089963387955763280e-03,-2.948938714574066925e-03,-7.750854355187086070e-03,-9.046729723475354160e-03,-1.206743476035888885e-02,-7.976529861018166051e-03,-4.591728652303547764e-03,-3.470761574517328401e-03,-1.333832542250377919e-03,-1.989045242132165062e-03,-1.230913633950436888e-04,-2.760958240655158550e-03,-5.738304190869547225e-03,-9.983028674722869283e-03,-9.777981368990822097e-03,-9.031101937770716695e-03,-1.989621802109479975e-03,-9.413619544692929239e-04,-1.917026111320066506e-03,-3.580813221304373663e-03,-4.416298397141537463e-03,-4.812809822555313283e-03,-7.263844043838248339e-03,-1.150699783979793576e-02,-1.185056868698605541e-02,-4.664707188846262988e-03,-6.273611957422966547e-03,-2.605416531212840798e-03,-3.185033438022526978e-03,-3.381865526262215621e-03,-2.738211044379002153e-04,-2.741223283276909405e-03,-9.119463873851397021e-03,-1.218395377363218519e-02,-1.201473106600107511e-02,-8.756129049481279833e-03,-2.532869248776916694e-03,-2.711948580361160221e-03,-2.936391167135106537e-04,-5.508287782169679235e-04,-3.017516249666644165e-03,-3.512414837792089337e-03,-7.277741274264177239e-03,-6.789400035881484538e-03,5.764808780335440100e-03,-9.907939843129956459e-02,-1.606723479832555257e-01,1.539671528814355039e-01,2.735820680131843541e-01,2.624977117126727211e-01,2.290436599741881019e-01,7.663653390566944890e-02,6.607667285139275093e-02,9.033600614231196424e-02,-7.374490788615094272e-02,-1.545018397019665146e-01,1.521214171944386961e-01,1.963662017988708486e-01,1.486440355727872142e-01,1.050460106070788130e-01,9.617567507269227101e-02,6.815121699728200755e-02,7.730514467809293522e-02,1.103221108761794911e-01,-7.458607223515695273e-02,-5.321601957333004645e-02,-1.195400686231889303e-02,-5.662681911490136111e-02,-2.985863155675665820e-02,-5.426959201618889589e-02,-1.210562818812242342e-01,-1.677689452664862246e-01,-7.497056339237935518e-02,-1.064883192092204792e-02,9.965040741233577304e-02,-4.670545225883269980e-02,-7.028340596983648214e-02,-1.216758801579439914e-01,-7.831979419698244238e-02,-1.324142748297839067e-01,-2.099626156669552324e-01,-2.736350661463993750e-01,-1.599937276452547408e-01,-4.732451235157455333e-02,1.763413128741378733e-01,3.171134028139871441e-02,-1.253791007653970793e-02,-6.940789313049433584e-02,-1.738596638507601544e-02,-7.956775564598654593e-02,-1.658076537964043307e-01,-2.387343787851534394e-01,-1.427930765194345419e-01,-3.503940330650302110e-02,1.615806418653981391e-01,1.842886868171013381e-01,1.354097963973338870e-01,3.821850532546055418e-02,4.504097447037484075e-02,-3.058994365331594786e-02,-9.891618020148421064e-02,-1.476974124583538273e-01,-5.313251258567253804e-02,1.149234853500948061e-02,1.075561413434443642e-01,2.666216010040090012e-01,2.225513309830952080e-01,8.510000266023518001e-02,7.276475220907739627e-02,3.130066401883079257e-03,-3.165189363609906270e-02,-5.257666615640754076e-02,3.954644293944377387e-02,3.898095768017489221e-02,3.862081371691503118e-02,2.800274580838922334e-01,2.644439717296188097e-01,1.009989547099676144e-01,7.518431950405846109e-02,3.260404625783189930e-02,3.033275861474121760e-02,2.382902934563391889e-02,9.871975530235306551e-02,3.188277344588321544e-02,-3.898144117617270699e-02,1.457453611611577715e-01,1.617271172749404073e-01,1.849827947744431961e-02,2.076603483424331251e-02,1.942081315471806333e-02,4.524677271266407119e-02,3.830788331694454790e-02,8.461668199913621735e-02,7.389540364368985502e-03,-8.954020645104585063e-02,-3.310762642332318317e-02,-1.019344567898500531e-01,-2.320453699529921865e-01,-2.407904846676058030e-01,-2.063518912486394241e-01,-1.134221107900350023e-01,-5.298648265967926402e-02,3.018537247534857151e-02,-3.622464704398335039e-02,6.820902775979777177e-03,3.696806378677937929e-03,2.360074078802424421e-03,4.498740598195620846e-03,3.115369124314970855e-03,4.967933748287980088e-03,3.938928704844637911e-03,4.547734857392307650e-03,3.805980184651989486e-03,1.624464718404553453e-03,6.091210847299934755e-03,5.396776563606502444e-03,9.424581550275553873e-03,6.521057846260251353e-03,7.652540543524414922e-03,6.476827278501848424e-03,3.964081402264075724e-03,2.894003750389377398e-03,3.605817790935256836e-03,5.685683652618629680e-03,7.874000327328144547e-03,6.079287842471190959e-03,6.236794702327350289e-03,4.146786469728460517e-03,2.832196897269374184e-03,5.098348125188734321e-03,2.191351760323849689e-03,2.400842443856623151e-03,4.318806356652461591e-03,5.897227145787236995e-03,8.999088060659474544e-03,4.195591348282699806e-03,4.235761326410566324e-03,6.635645493858585882e-03,3.782226513514837934e-03,6.342352898706945553e-03,2.348105956298476241e-03,5.453168524683674537e-03,4.810598659799432235e-03,2.687385582490365871e-03,8.061588658940087998e-03,3.959572545183046889e-03,4.479488630633252436e-03,4.589025186911489806e-03,8.374802008853831498e-03,7.657095630455915819e-03,3.615975181740781717e-03,3.341513443121059326e-03,1.769269097447416419e-03,6.566724669709026428e-03,8.761984251022168768e-03,6.781359660317097700e-03,6.983037116861945566e-03,7.036996368266949277e-03,5.710100472213383051e-03,7.337274023345292245e-03,6.331895919763940069e-03,3.429750291599940014e-03,5.769300350520862111e-03,7.335495404082779426e-03,7.161727522937979054e-03,7.765350214235723636e-03,8.180191245485515447e-03,8.764523824106227462e-03,6.271853516937970704e-03,7.676777238536422465e-03,6.171402873396632238e-03,6.028629598684462874e-03,4.362663715854497339e-03,6.427480239317771502e-03,4.830942354415225862e-03,5.152005830498313649e-03,7.883551632004581408e-03,4.654453653418966740e-03,9.075217423007335762e-03,5.511976436734333622e-03,8.022818465421275441e-03,4.540556783941140581e-03,8.558053456791676894e-03,4.157498654557571262e-03,6.142493859543369378e-03,5.575863658945034301e-03,4.300535327269746320e-03,5.125086978055635664e-03,5.885839593068963212e-03,6.349004810093060447e-03,5.255849815677993836e-03,5.330743948805732532e-03,6.740990675890250541e-03,3.951150442959823830e-03,7.249973205689242382e-03,4.782156447430469491e-03,5.127391110500568137e-03,1.122907922503886460e-03,5.653433679753893607e-04,2.868698683654731605e-03,4.490796140567424044e-03,2.236528352390693662e-03,5.456643238660055864e-03,5.706849608629392494e-03,-1.605239709648983645e-02,-1.710415170931124315e-02,-1.864440512256390278e-02,-1.671674703768914055e-02,-1.885529130569062531e-02,-1.659116490834371821e-02,-1.775258663060895123e-02,-1.803710769492357716e-02,-1.844816841695061035e-02,-1.565119933172647027e-02,-1.601524250587128828e-02,-1.696416555134474743e-02,-1.977796419652031248e-02,-1.600743349462984202e-02,-1.843544939311304517e-02,-1.829161633707063542e-02,-2.045736156362406091e-02,-1.835227534755842424e-02,-1.589187152737163780e-02,-1.890889030368459248e-02,-1.775632201438346811e-02,-1.916268650821241828e-02,-1.862210226323029669e-02,-1.788324737751049651e-02,-1.925618114389539628e-02,-1.608824211827676251e-02,-1.753871984854872210e-02,-1.693695631467921625e-02,-1.768420480101834738e-02,-1.751849399016004380e-02,-2.012631790373234711e-02,-1.890202710759663826e-02,-1.814835667235220260e-02,-1.666309045640631398e-02,-2.029117119313010240e-02,-1.673967231548625922e-02,-1.745405643457530534e-02,-1.747851268181510251e-02,-1.577846848921816633e-02,-1.807489585116543382e-02,-2.029461528497902498e-02,-1.992975798513186084e-02,-1.853970471282799168e-02,-1.957475809976506539e-02,-1.952253478904092052e-02,-1.563498597747033439e-02,-1.687333686705400071e-02,-2.025400529132738089e-02,-1.567328163154484838e-02,-1.633929863949158331e-02,-1.911253449359244863e-02,-1.841685181041943439e-02,-1.713008739858050411e-02,-1.908525423535974500e-02,-1.579308337302565493e-02,-1.771902017567005341e-02,-1.975510941129942841e-02,-1.922672578353066056e-02,-2.052086718667546147e-02,-2.031855101096385549e-02,-1.672444878637495413e-02,-1.994372817222283753e-02,-1.716949122830674704e-02,-1.883029269620384652e-02,-1.767773352490514469e-02,-1.715630147239763023e-02,-1.578169285298331587e-02,-1.704743164107598227e-02,-1.956553809134417912e-02,-2.003781803421898419e-02,-1.661600505005862011e-02,-1.780374011485262239e-02,-1.728836287644030731e-02,-1.573867606001842778e-02,-1.622466004266533146e-02,-1.992594035447857806e-02,-1.669370861980588525e-02,-1.748898953825305316e-02,-1.942051453171045675e-02,-1.854958962423157789e-02,-1.675835278307983081e-02,-1.847511667761447471e-02,-1.556603452620031712e-02,-1.972888888995763881e-02,-1.663318765618985659e-02,-1.625679640997491904e-02,-1.694579305090803539e-02,-1.718473501128108330e-02,-1.761609026615335374e-02,-2.010123921053791687e-02,-1.771902952412203816e-02,-1.652080097760666444e-02,-1.883704020944023186e-02,-1.870617154481337904e-02,-1.932781019844348816e-02,-1.878396712733383309e-02,-1.821797205531150085e-02,-1.966686178980691160e-02,-1.759413850948997673e-02,-1.713757233013782355e-02,-1.697113549365295709e-02,3.295851278188769579e-03,-2.545656189742629208e-02,-1.655208161786370091e-02,-7.611899114405127828e-03,-1.417817335002477530e-02,-1.372855079062004768e-02,-4.956521898117244827e-03,-4.061605904429163756e-03,-4.101357659860528117e-03,9.853277391263814446e-04,-2.070058819362730063e-02,-2.125656897510851129e-02,-8.552317074875246880e-03,9.200459955270215819e-04,-7.874421457854602693e-03,-1.033026594537771875e-02,-7.294038380927796335e-03,-1.293530633578458822e-02,-1.216319795845826127e-02,-2.288522899311941708e-02,-1.712301495621605663e-02,-1.566143438125608411e-02,-5.366572669857939959e-03,-8.106420203670977468e-04,-8.001689841423473629e-03,-7.889270610932187094e-03,-8.112350306003355410e-03,-1.070352117937569542e-02,-1.429040457736288280e-02,-1.827003656292558453e-02,-1.694635650825329284e-02,-1.553917968767180684e-02,-2.405106150931250047e-02,-2.467877452971973737e-02,-2.106540078403093194e-02,-1.577486000932019905e-02,-1.032397067025451684e-02,-1.212984722895387411e-02,-1.574213580642309929e-02,-2.940514518374698696e-02,-2.125854522716608477e-02,-2.170462491599182628e-02,-3.343106710244823226e-02,-3.207867860860957876e-02,-2.322415923656085887e-02,-2.015524294675936912e-02,-1.402588770266740420e-02,-9.059297839213610939e-03,-1.439818165816720251e-02,-2.912963338046491851e-02,-2.204415582001444454e-02,-1.480919877063565857e-02,-3.178115145043933915e-02,-2.919201429101242820e-02,-2.551147169884339025e-02,-1.730333581701274173e-02,-1.082024409105478840e-02,-9.172696568922271421e-03,-1.010177971265961705e-02,-2.777423714064456914e-02,-1.922050167943787496e-02,-1.303631646538044170e-02,-2.814263798786714385e-02,-2.408049740092760294e-02,-2.322441355959098744e-02,-1.397979239325002412e-02,-7.661994854468905450e-03,-1.060099512985614341e-02,-1.216452829760414703e-02,-3.210988341266134832e-02,-2.256361443997174920e-02,-1.283661617199416405e-02,-2.164869337793575571e-02,-1.837703474529583589e-02,-1.733021124207673527e-02,-1.141622066747559165e-02,-8.308438550747976326e-03,-7.738190200438745288e-03,-7.862781403592608229e-03,-3.115761698255023471e-02,-1.832620370630302573e-02,-3.797891105140856378e-03,-1.410241280684433780e-02,-9.774610427860028206e-03,-6.803222945782409249e-03,-3.654276270518525688e-03,-4.993811246484513265e-03,-4.318127182173133946e-03,-7.288158583710398035e-03,-3.350173040953872972e-02,-1.635205401204807216e-02,4.910296102361062526e-04,-3.494603322239549052e-03,1.514440345460371824e-03,3.153944182726226616e-03,4.483331666669305819e-03,-9.528282172549138937e-04,-3.698346383759062213e-03,-5.741208730927200958e-03,-2.028672207615786136e-02,-1.471862482990070331e-02,-1.130836240141425836e-02,-8.435867006750820060e-03,-8.289795250463014020e-03,-9.879158658166596607e-03,-6.607088283713627788e-03,-9.704073830955436963e-03,-1.015138108265316828e-02,-1.013185495340721866e-02,-1.748459106983118322e-02,-1.504066993040255665e-02,-1.180747379190190578e-02,-7.584287724309572709e-03,-1.104361045208560217e-02,-1.053212328398125432e-02,-1.011559115896269734e-02,-1.221584407467313921e-02,-1.338916413850687465e-02,-1.143494628370145261e-02,-1.716484576791753314e-02,-1.410885729319304692e-02,-9.748864629612042504e-03,-7.948664119401895739e-03,-6.869456965212453713e-03,-1.039260829636687831e-02,-1.227318779647515110e-02,-1.063845569019056768e-02,-1.546093808663519080e-02,-1.608786393192402839e-02,-1.650944874813247906e-02,-1.356703186441727237e-02,-9.049662271038889233e-03,-8.477384789532393591e-03,-6.156653364582292086e-03,-9.877656996414362761e-03,-1.083005955175899912e-02,-1.467122948060586678e-02,-1.371145013193035729e-02,-1.451541091136362635e-02,-1.754853182611777751e-02,-1.101645078790624253e-02,-6.901205964901959214e-03,-6.176635353099029814e-03,-8.392825308661443218e-03,-8.747290404429564070e-03,-1.091973241781274417e-02,-1.154081919635341000e-02,-1.267515115492597912e-02,-1.710948682823843284e-02,-1.301930168894699716e-02,-1.221863281165433239e-02,-8.111577337455254735e-03,-6.161069957922693345e-03,-4.998017380777213144e-03,-5.078987995483833472e-03,-6.091742080447113197e-03,-1.093699634653285888e-02,-1.361441487799643080e-02,-1.426635883916085000e-02,-1.584701309609897260e-02,-9.410810661728356494e-03,-6.965271417675047635e-03,-7.279014573662537929e-03,-4.815038263353929593e-03,-6.412661354784430189e-03,-8.869499410371942463e-03,-9.949551132663641412e-03,-1.206723585434008560e-02,-1.328624583710867439e-02,-1.368829026008851722e-02,-1.014984992187036549e-02,-6.786623728970079920e-03,-2.868459999448927551e-03,-3.967900368440907023e-03,-7.619471381540331503e-03,-6.034945933010400602e-03,-8.763477038025348914e-03,-1.224346629702458174e-02,-1.713339194550657710e-02,-1.163024235431191038e-02,-6.891975337808279450e-03,-3.467799517112485352e-03,-7.246138513283318684e-03,-2.788450877004584449e-03,-4.145823529422153556e-03,-9.213173164200142914e-03,-7.795597858302293418e-03,-1.045146393703084639e-02,-1.641918995332026718e-02,-1.358486221758111075e-02,-9.635580722641361173e-03,-8.746730754893445800e-03,-4.625474279767954541e-03,-6.464908287519318363e-03,-4.719560573890627109e-03,-2.749309042388119618e-03,-8.140374930717814150e-03,-9.756517942007830388e-03,-9.829091046794023387e-03,9.210443418549894845e-03,-7.361587538868183400e-02,-3.004968862062943336e-01,-2.436629763069625976e-01,-1.613947919383480201e-01,-1.073592835942533130e-01,-1.070429684300302359e-01,-2.831247507701012966e-01,-3.620624714740315331e-01,-3.623419724832384059e-01,-3.464802925788298960e-02,-1.163049364539747721e-01,3.975726431214037654e-02,9.454343614613863744e-02,1.621002895937531385e-01,2.545179410168801892e-01,3.554005261867167476e-01,3.297308393945354021e-01,2.356730575171394615e-01,2.000072673448916871e-01,1.388916141959864459e-01,-3.984164052626699287e-02,-1.255988210885678746e-01,-1.197257532898400451e-01,-8.215335361012602450e-03,8.197513439926526480e-02,1.515425361122278991e-01,1.297175916717464850e-01,1.338175019246629904e-01,1.590195303743795474e-01,2.778112492035015868e-01,-1.517620191107328376e-01,-1.951596686960670457e-01,-1.901266491008788972e-01,-1.162263652356280569e-01,-7.801888368364479076e-02,-3.355593011613342697e-02,-5.778214556945453911e-02,-8.543956779895053172e-03,5.411043551298565235e-02,1.921607869290022919e-01,-1.284096241550669038e-01,-1.278747136531380446e-01,-1.472403908702795139e-01,-1.039289121538759381e-01,-1.150241359898307586e-01,-1.133711874436854755e-01,-1.491741397532014846e-01,-9.871751581140782161e-02,-4.394700755918998225e-02,5.307780767581475601e-02,-6.306899065475959215e-03,1.177005827885103592e-02,-4.254654034688198222e-02,-3.647679907071166294e-02,-8.922538383322488331e-02,-1.051668479699959524e-01,-1.410232346662350922e-01,-1.066077897633148641e-01,-8.049356773685424626e-02,-1.425467164232444711e-02,7.921435093173237463e-02,8.470876683251184203e-02,-1.777255855561647377e-02,-3.286410848284183200e-02,-9.042261927757110074e-02,-1.171131972216250261e-01,-1.465618175805566692e-01,-1.185070040307407563e-01,-1.122484536582560449e-01,-6.017523573152071259e-02,1.056900760081582874e-01,1.424840088060436716e-01,2.089170312975164798e-02,-8.081366959451934118e-03,-6.653044897137685987e-02,-8.942534694122840355e-02,-1.153013201667388299e-01,-9.714829862230237034e-02,-1.120513540097907296e-01,-1.231571498297842349e-01,1.866672092772614019e-02,1.145096255950951852e-01,2.354022562651917824e-02,1.502606727279411601e-02,-1.958950109985609783e-02,-3.050788384699996622e-02,-4.048935862324676976e-02,7.026754163576762018e-03,-2.457684968432678752e-02,-1.583448197554731818e-01,-1.599423840596679858e-01,-1.145493359375350517e-01,-1.339745776073616723e-01,-9.563499369151241825e-02,-4.682021823702391811e-02,6.307210473454981370e-02,1.344145712976355378e-01,2.020442031573578268e-01,1.530241132076720634e-01,6.852103943987088164e-03,3.452915464353505711e-03,1.230399277962373897e-03,5.746782216638409227e-03,3.695999760874088720e-03,4.072328979245422656e-03,2.090156549129840689e-03,6.613881008212896349e-04,9.284743474744935020e-04,1.724686483762454805e-03,4.257466669967670432e-03,4.353190939340796824e-03,9.859681146838470550e-03,6.570618424968921456e-03,7.296266184419099819e-03,6.406418994935553744e-03,3.934513332777491053e-03,4.608153945405865821e-03,4.286089252789823667e-03,6.591804219981989808e-03,1.022223554105873740e-02,4.699870737478776053e-03,4.110049511439959127e-03,5.349574893854023953e-03,2.605238952755216907e-03,3.496768180866514399e-03,4.975504012758879407e-03,4.238719193780612383e-03,5.791825503722060169e-03,3.255868741274337789e-03,1.125518272658869966e-02,6.049416732607061122e-03,6.259566160504446801e-03,1.590218373016804090e-03,5.499418038064034404e-03,2.345438992519236973e-03,2.593479949295368105e-03,1.648744235422484839e-03,4.108836969105903424e-03,5.873112871877328792e-03,1.099683959444206632e-02,4.742324961711836054e-03,5.176346937586861520e-03,5.264619209794913976e-03,5.710806369107581867e-03,3.616239261653129977e-03,1.248217612133225435e-03,5.217963887887555954e-03,3.284513197190153718e-03,3.476451769585613746e-03,1.076380260570324390e-02,5.124416707258491049e-03,3.028329276571350634e-03,4.245460975826116472e-03,5.229169968466843704e-03,3.971796750632429138e-03,4.704234468121617704e-03,3.513731542294902532e-03,2.279459011768973555e-03,5.142631463254393118e-03,9.283826543283619712e-03,7.023327649844169143e-03,6.889679402780608461e-03,3.243567077677614492e-03,2.285788350738968220e-03,2.991600743579826260e-03,2.375301160846808330e-03,6.668616800993285194e-03,3.997281311077613419e-03,1.536776568135463485e-03,6.984881284725864489e-03,8.677668136897695797e-03,6.875833390977532066e-03,4.310542295795602961e-03,4.055891320929683706e-03,6.024451711334470605e-03,6.971453623929328193e-03,4.913942404209234796e-03,2.589020610522719656e-03,1.523492070095026777e-03,6.990742991767309213e-03,7.097512254119523432e-03,6.228690027223290730e-03,6.056796842200303996e-03,5.420905895031262814e-03,6.303337140592448276e-03,4.900609776316709916e-03,5.290025820818410919e-03,3.574390045144168991e-03,3.719332736795209152e-03,8.589017843191347479e-03,5.199511142198114805e-03,1.644773059994120113e-03,2.437160065341654677e-03,4.093457702489290695e-03,1.541638767314921360e-03,3.102724258846539969e-03,3.180413514979336942e-03,3.427965122671414091e-03,6.359920817632730428e-03,-2.012003403760323147e-02,-1.843309763828539574e-02,-1.915034579142892504e-02,-1.881431128220218199e-02,-1.960553706488274775e-02,-1.687215303851236775e-02,-1.764641210517415085e-02,-1.749248448118677704e-02,-1.572071872707371185e-02,-2.024437740331476790e-02,-2.016024465904478133e-02,-1.658529525308424443e-02,-1.985575064362555750e-02,-1.868314949892665652e-02,-1.682182673434514178e-02,-1.992350473340115044e-02,-1.617645665517587761e-02,-1.761757167885060274e-02,-1.774169576927459371e-02,-1.905278102307228147e-02,-1.883477177961660406e-02,-2.039566709224780242e-02,-1.735229973043917948e-02,-1.897057544553638550e-02,-1.686915697787718174e-02,-1.814637583750122393e-02,-1.733488535530687893e-02,-1.677801163299736872e-02,-1.709823764577218796e-02,-1.725741341349746119e-02,-1.850577321630006780e-02,-1.919689848119223927e-02,-1.732830044802373751e-02,-1.639582571239500339e-02,-1.562343287412618596e-02,-1.870218885921339988e-02,-1.786700739175725236e-02,-1.711303387054698144e-02,-1.990726856007598786e-02,-1.751966496176843649e-02,-1.850047435281381228e-02,-1.735566581860404842e-02,-1.786741299175291856e-02,-2.008886173669680378e-02,-1.935031312965393088e-02,-1.618392008447923358e-02,-1.814299434656676743e-02,-1.983421449306131332e-02,-1.928146427416954287e-02,-1.856512897470504950e-02,-1.635655395858509262e-02,-1.818427882532143783e-02,-2.033412884002379697e-02,-1.946906837513287178e-02,-2.019907074949487194e-02,-1.963889967145890716e-02,-1.712834594837760183e-02,-1.572982050971973023e-02,-1.646936929376351458e-02,-1.602737291455935340e-02,-1.911779774254535394e-02,-2.034193154780193288e-02,-1.776537984563606939e-02,-2.049420070763228671e-02,-1.703962172997192798e-02,-1.672492489835360543e-02,-1.605525886678177763e-02,-1.584378376848791931e-02,-1.557475180488329843e-02,-1.638700881431960632e-02,-1.867237049007630309e-02,-1.971382997839509280e-02,-1.769589762449002776e-02,-1.773363136965370665e-02,-2.007508806866130716e-02,-1.832098345095096656e-02,-2.033886798794435832e-02,-1.856973135045143428e-02,-1.692938992103723561e-02,-1.721295339795521004e-02,-1.830003260492739023e-02,-1.965791091397344967e-02,-1.669595580502688387e-02,-1.885899854285233088e-02,-1.819039177468910126e-02,-1.762056665490067606e-02,-1.907157941472830895e-02,-1.972620271893232510e-02,-1.782119597880379644e-02,-1.597987287288010413e-02,-1.673894887801913658e-02,-1.590667703475810366e-02,-1.885278070094783057e-02,-1.611061194684388145e-02,-1.989875659509466113e-02,-1.574654314048650611e-02,-1.848487874305035708e-02,-1.572002656423362663e-02,-1.755634468687988434e-02,-1.933383837534022667e-02,-1.701702657572181504e-02,4.075332774297791769e-03,-2.049582095508466553e-02,-1.498150442076273681e-02,-1.207803404712480891e-02,-1.144498318203970508e-02,-1.615137451280821562e-02,-1.020703310216181103e-02,-6.973896467297770185e-03,-9.958498611735767600e-03,-8.321304285346494550e-03,-1.745486930240607720e-02,-1.613828325058849419e-02,-2.973867679576776626e-03,-5.807949733223653419e-03,-8.622924581600062074e-03,-1.008522490825256544e-02,-1.052013135119643158e-02,-1.367188373318825763e-02,-1.266046259625786159e-02,-3.126615844919954784e-02,-1.596250560767709450e-02,-1.356958865820616540e-02,-2.680408216354090902e-03,-4.216218085576203985e-03,-7.196266884253284951e-03,-5.990781223599864896e-03,-9.361176401267493757e-03,-1.436940617145715353e-02,-1.506107964816780394e-02,-2.334147569320281154e-02,-1.422117281319162756e-02,-1.568995347348661057e-02,-1.527337113745848643e-02,-2.060746515497054523e-02,-1.634077284036921512e-02,-1.598983357069549624e-02,-1.230760142807526929e-02,-1.464709033599194930e-02,-1.250138918452532721e-02,-3.442684692900219168e-02,-2.014113818506724912e-02,-1.561748099878327439e-02,-1.758351470257420862e-02,-1.868616737773539510e-02,-1.555965580888886077e-02,-1.585241990680998081e-02,-1.175607136091703052e-02,-1.420746456135954343e-02,-1.382350509484721497e-02,-3.222195740085782162e-02,-1.696014456054374675e-02,-1.291539018929802919e-02,-1.624527821215645054e-02,-1.409046682948936029e-02,-1.270373073323135919e-02,-1.132731898058272554e-02,-1.122430832792422652e-02,-1.130722393276072796e-02,-1.515330128402585762e-02,-3.410851488570059570e-02,-1.586189070185653818e-02,-9.131203831044499772e-03,-1.112619219852977771e-02,-1.332018087671162782e-02,-1.452119794309573303e-02,-1.126589030504295506e-02,-1.252297595796523881e-02,-1.206734073922072041e-02,-1.426544625465945085e-02,-3.409121930872435063e-02,-1.718238393814870008e-02,-1.088678376843112312e-02,-1.329037777116506142e-02,-8.002622664132638675e-03,-1.020939357754307997e-02,-9.494032412737231016e-03,-1.214470983830493248e-02,-8.542491908063085809e-03,-1.277671659020870355e-02,-3.274115075730141267e-02,-1.921005074018198450e-02,-8.530019751575228931e-03,-1.021890841501160371e-02,-7.954176511102537331e-03,-9.077595826002333307e-03,-1.040960025216594934e-02,-1.126481001969403123e-02,-8.897392970817721847e-03,-1.255129656284233002e-02,-3.082472214475562994e-02,-2.016579720164776365e-02,-6.402781899582580052e-03,-6.085506125840820478e-03,-4.459015354884471836e-03,-3.783243159341530357e-03,-8.738184552812855790e-03,-8.253015845108097048e-03,-9.269095986640269250e-03,-6.958229785020301171e-03
-4.557018850900648038e-03,5.432587086291748059e-03,3.779368440004802088e-03,5.981119205532923165e-03,5.507950920966611305e-03,7.803788030200721135e-03,7.497604958343747836e-03,4.694790953384223899e-03,7.771592794904970750e-03,4.864808967277230514e-03,7.189953264563095185e-03,7.165555035912079401e-03,7.787585219493411808e-03,3.333788523345113195e-03,4.023766811959587908e-03,7.894852821071839805e-03,5.732434528643711065e-03,7.716387728555281107e-03,6.641412861118109294e-03,7.334910315081995258e-03,7.397959956268935523e-03,6.981474546025374754e-03,8.213163325865316389e-03,7.700523934946979128e-03,5.562740962579436343e-03,5.829972294218224542e-03,7.862244140519624586e-03,6.772288261467346478e-03,8.552035554254669436e-03,6.497805783399027667e-03,4.386350831833355467e-03,8.292004844685495549e-03,3.762979736954390371e-03,6.700069635670309262e-03,4.143787480021540216e-03,6.840126968961934319e-03,8.056337409812422065e-03,4.791632889417665915e-03,6.166322895785189204e-03,6.531144750116629413e-03,5.047441208909549983e-03,5.620288654779267458e-03,3.734169127191251311e-03,6.727672954246810555e-03,8.240907467914324047e-03,6.903885990824148652e-03,7.073554329018688289e-03,8.859792827631256945e-03,6.901659174123304409e-03,8.678654646830675015e-03,7.164874677051443451e-03,5.380221768934684290e-03,4.599954115175529552e-03,7.895109658893142285e-03,4.803310783189913835e-03,3.896765815059025431e-03,8.684750087124482737e-03,4.644849318943035550e-03,6.070293311673968795e-03,7.836261895758969351e-03,4.328650262681273293e-03,5.441944592800264380e-03,4.296597820761754657e-03,8.342607316051436905e-03,6.089259636221542107e-03,8.240533199250008392e-03,4.716616061582924388e-03,9.172786484510180721e-03,6.664195101174138873e-03,5.948124179805679840e-03,7.619083810231341673e-03,4.883355659482310589e-03,6.663429329970533763e-03,4.359859581153505310e-03,8.593786031490012814e-03,4.627469145299521053e-03,8.109888079469053726e-03,8.296510832328287885e-03,6.596793210234173921e-03,6.103763913689681103e-03,5.082266091233882642e-03,5.235308502926345683e-03,8.500337287704206116e-03,6.201232682900985858e-03,7.882708007110560827e-03,6.051257117844055684e-03,5.631515503676610100e-03,5.855977413464663606e-03,6.681772315154023423e-03,9.062431530664577517e-03,6.998472550909619512e-03,3.863066406201217263e-03,6.544416749209146927e-03,8.064748469146032842e-03,8.456922791995001229e-03,5.174642940456080330e-03,5.601641969743386372e-03,7.143477405543757069e-03,6.099318584932220122e-03,5.657842599997757807e-03,8.654709790543935882e-03,6.155799706422086619e-03,2.651396501572450548e-02,4.026456590257914553e-02,3.752562927817483518e-02,2.418105217607125976e-02,9.623508186868828806e-03,7.921954403917240081e-03,1.453139289760019097e-02,2.142251639849101011e-02,1.683118496143688053e-02,6.742053550298693354e-03,2.140148140977863114e-02,3.114927285657836595e-02,2.471792257013658359e-02,1.803708864163266687e-02,7.044685851307361593e-03,2.800649889358726094e-03,2.898614972334883060e-03,8.044236178154197739e-03,5.528287223788490995e-03,4.347744090989488254e-03,8.926797505362718890e-03,1.986023144833634624e-02,1.244007326909328352e-02,6.243288176380781124e-03,-4.260471073358465185e-03,-5.124585533645603479e-03,-6.682781166574353754e-03,-7.448633166718059140e-03,-8.191020193731170240e-03,9.706281031914299959e-03,6.125145975954553092e-04,7.312365093385470721e-03,3.650237387629054042e-03,-2.572189837130573094e-03,-7.299499999815776269e-03,-1.168765062798317496e-02,-1.337188546995025408e-02,-1.337432147419447340e-02,-1.522952194344394730e-02,4.941982156253239659e-04,-3.798613370860400712e-04,8.860565220386151103e-03,5.610010468449097565e-03,1.635628824648436858e-03,-1.320290242923783525e-03,-7.382147256061649676e-03,-1.085372795307899298e-02,-2.000044966928178625e-02,-2.139481092275376251e-02,-2.288013942381224644e-02,-1.938854869367043557e-02,-5.667651047091508756e-03,-5.762647620671931467e-03,-3.634073272853869524e-03,-7.307321370807514337e-03,-1.093569594756414395e-02,-1.594885876954117362e-02,-2.267937232509466619e-02,-2.560382844000865660e-02,-2.580364946616926086e-02,-2.694802234247934553e-02,-1.518106723588091497e-02,-2.042900263187141796e-02,-1.719067019645587058e-02,-1.185834883724972040e-02,-1.304994855010628563e-02,-2.119167384005230664e-02,-2.658484584820210161e-02,-3.100847717451432270e-02,-2.328346631386089133e-02,-3.024952553499204305e-02,-2.364977253269772220e-02,-2.718931210215432340e-02,-2.587476360095337241e-02,-1.641786876916869614e-02,-1.808839597107191402e-02,-2.425022780366796124e-02,-3.193714313134175115e-02,-3.596785805130871955e-02,-2.272736533616703108e-02,-2.944001353091610373e-02,-2.355859689132888332e-02,-3.301072407884528270e-02,-2.842444164457174488e-02,-2.625120852608093386e-02,-2.291193959420764759e-02,-3.273943538599708575e-02,-3.925750622682547958e-02,-3.883920477871318638e-02,-2.261688024613124279e-02,-2.741419423108740205e-02,-2.507392104916907755e-02,-3.138219260017079126e-02,-3.370954476408906386e-02,-2.750599232620995482e-02,-3.088125050301836205e-02,-3.599134186595331214e-02,-4.154512824924875419e-02,-4.096972776396019811e-02,8.924936998423452922e-03,5.329003944018398733e-03,8.509174794657113974e-03,7.426732836036725217e-03,5.724587287509588784e-03,5.971558840382322833e-03,5.114453838784492092e-03,9.594078817698052306e-03,6.673499879676202812e-03,6.745088076091304043e-03,8.828556248094939982e-03,9.655152483214272593e-03,6.749165445601793857e-03,8.264265697004859884e-03,9.192730784668647417e-03,8.484901320086085663e-03,6.914692401465418262e-03,8.090175390478217265e-03,6.969406942684089681e-03,7.053947382705226532e-03,8.833207424855065229e-03,6.461444180012649099e-03,4.982408376753688813e-03,7.230069078139268919e-03,6.490564876716134468e-03,9.552807175556921396e-03,5.103799781936685549e-03,7.216497261378420312e-03,5.571724861497275548e-03,5.358669037844954533e-03,9.780418249902295830e-03,9.788661139515713802e-03,7.186436565227734448e-03,8.856845263106037300e-03,7.167644048804143811e-03,8.272962978738761936e-03,9.489132868084315317e-03,8.971351804047913991e-03,6.184342254883936664e-03,8.949576223198455263e-03,4.905058322716151012e-03,9.576886380832557930e-03,5.406679544928824459e-03,8.905645342872362674e-03,5.755074468888430467e-03,6.465489608554170209e-03,6.356976204105797661e-03,6.212822557373274927e-03,8.197916129718832434e-03,5.167080670457960094e-03,6.596664753966326351e-03,4.983635927105337961e-03,8.621275458395326330e-03,6.104067155705137498e-03,7.508247033256054172e-03,6.681157961569766587e-03,9.284453702912037407e-03,6.543953870935585726e-03,5.440824066230467645e-03,4.744647335157882624e-03,7.762541912168581526e-03,9.259060929667758955e-03,9.121193446362568097e-03,7.834064389107974966e-03,8.861168460469722244e-03,9.055996540348573362e-03,5.367882157741020802e-03,7.607234418830777396e-03,8.183886611798474320e-03,5.113042483977024190e-03,8.230627975459646126e-03,8.707934202612434282e-03,7.247505013121894636e-03,6.945289935528941097e-03,9.098946224353501172e-03,9.199052679275730379e-03,8.179034663939790256e-03,8.023086337262503101e-03,8.653175128094088217e-03,8.550676146840061054e-03,6.902669351964887089e-03,7.903502961524689480e-03,8.239943119584852010e-03,7.787645410539681401e-03,7.594089293042483556e-03,9.592853359638846625e-03,7.347033893028234904e-03,8.562549628418698183e-03,8.021055371778293072e-03,5.361832254136617536e-03,5.758485102722410258e-03,5.265093144512420463e-03,9.461058134651451068e-03,5.413187460035653528e-03,8.856831524637400269e-03,4.969200139504943194e-03,7.876461606642192609e-03,7.147426136713323948e-03,7.242122455829810672e-03,6.175599955549608555e-03,5.462155992716350751e-03,5.737500945213446120e-03,6.700121798101932487e-03,5.771813858985242081e-03,8.154966935012390034e-03,5.905623287483208715e-03,4.227580410585384148e-03,7.164287514114304166e-03,5.783274279926192175e-03,3.882885388150187755e-03,6.782079160185360521e-03,3.400142314877987928e-03,5.349127652214471194e-03,6.993416961709173797e-03,3.460644369984782528e-03,7.064550108508252900e-03,3.738053214009190439e-03,6.468186123108830322e-03,6.303585800586253111e-03,6.312263180746611503e-03,4.240753822234534683e-03,6.622387847450154734e-03,5.325933259991539291e-03,4.328066592642247114e-03,5.076223043052627802e-03,7.882490490009375766e-03,4.642928760670122536e-03,5.264619395197757228e-03,4.516625028918727462e-03,7.277358304231104115e-03,6.914934075955915353e-03,6.151266351958059771e-03,8.258569359740241395e-03,8.220320303394455103e-03,5.468040244788454664e-03,5.144995160848504952e-03,4.442495331670274876e-03,4.701169436487235946e-03,5.666906610460590264e-03,6.499796575703362979e-03,4.919935254924322383e-03,7.542690976361321985e-03,4.170210942311289477e-03,6.968855534143290724e-03,3.917939104124705009e-03,6.467359778069729954e-03,5.907697083354622632e-03,7.407117510603527730e-03,7.992623698841443830e-03,5.305639367127973870e-03,3.629097964663945478e-03,7.402913078007432660e-03,6.505249613829985379e-03,3.494741358232115840e-03,8.277102466942246745e-03,5.418342632107110181e-03,4.788484604787235886e-03,4.064263135718409851e-03,5.351363217984438266e-03,7.564925865845068507e-03,7.130684014513755629e-03,3.412240300927741037e-03,5.124241467150954070e-03,5.786291774287267813e-03,7.472483257105862024e-03,7.702021349444473225e-03,5.183043906851544404e-03,4.735331182849204269e-03,8.231866982737638672e-03,4.460676752735404614e-03,5.181194165736808903e-03,6.367273341717585335e-03,5.982687970978279972e-03,4.650165942058277248e-03,8.011157479690434596e-03,3.861845675672818511e-03,7.201425758322979077e-03,5.155452761393138246e-03,6.004470109541796240e-03,7.941802957596253570e-03,7.176591502027250026e-03,7.842782988669659561e-03,7.157185993361447722e-03,6.927015505789568990e-03,6.750404919195463448e-03,5.441281775207386200e-03,7.765112405122610167e-03,6.153543698074461117e-03,7.222589630101126403e-03,8.196775664772098374e-03,6.714598522793948331e-03,5.382070483710226470e-03,5.303202908116445673e-03,6.149941449598389683e-03,6.134123373989796603e-03,4.896257213436967966e-03,5.056906975479515641e-03,8.051882012143692091e-03,4.207353122608676298e-03,4.308717822060210804e-03,5.050497581009504543e-03,2.782786153443403149e-03,5.155987877893042012e-03,5.339937352022505225e-03,5.509991806642636908e-03,3.317272846894050130e-03,5.759682189289211385e-03,6.806406536137362892e-03,5.103166521256594437e-03,6.024240306558115848e-03,5.615906723222524773e-03,6.810282726906689323e-03,5.973255623670113180e-03,6.864957618712288524e-03,5.022595577951249717e-03,6.166666353613803504e-03,7.133308128888100376e-03,5.761288618518966773e-03,3.790299428317186418e-03,4.727354192048224997e-03,8.051096971867718888e-03,6.810827349464764618e-03,8.771933127304150715e-03,8.412016958439769848e-03,5.085278625306289754e-03,5.212143961943632199e-03,8.053677040505077128e-03,9.029669501079279348e-03,9.262721166424184999e-03,7.825630448933884944e-03,7.826071375317416451e-03,5.345786554149702628e-03,7.610376230673144941e-03,3.565532292163160581e-03,6.806656342904024957e-03,5.768557262587978816e-03,5.776689130464114988e-03,4.162636546981868593e-03,7.152515646062662484e-03,6.443740194173282372e-03,7.148328650595761960e-03,4.045420480090904623e-03,6.903115938153002798e-03,5.132383581928266769e-03,4.559871175921018267e-03,7.883506423692869178e-03,4.292447066500104484e-03,7.897820761601453618e-03,8.193934155152975476e-03,4.817805897399656846e-03,8.862641717046355547e-03,6.024696226671949831e-03,8.746489237250744744e-03,7.319333611317948435e-03,5.765748191059324838e-03,5.113321845532194272e-03,8.214177991124428646e-03,4.995418621570661862e-03,8.395506095834219529e-03,5.507229850791967897e-03,7.228890602133361369e-03,4.748060650291323521e-03,4.186062132978654073e-03,6.458776228166648176e-03,6.715783765136779798e-03,3.811052635430687771e-03,8.752838745007988225e-03,4.670607731535718517e-03,7.240545194075832802e-03,7.940331978294350168e-03,9.109519421345767254e-03,6.984533168231140191e-03,5.549074654455301778e-03,5.236659313072616721e-03,8.737909705461092622e-03,7.416509152686200437e-03,5.033660858633015947e-03,7.578955177851953717e-03,7.448714214095241044e-03,5.862372900098990376e-03,6.804904198079510767e-03,4.365386812276196571e-03,6.671363232320080307e-03,7.942092605440253042e-03,5.133846853520279696e-03,7.755775299875408701e-03,7.249184420676287738e-03,6.890640027229950892e-03,9.211177969814811003e-03,9.163015005346018815e-03,6.037925293582718442e-03,4.802165524982969155e-03,8.455259140527018533e-03,8.840807838381061629e-03,9.358576288589007253e-03,5.721551460927342368e-03,6.999735852885500056e-03,7.928533711358178721e-03,5.851253581282598280e-03,8.495836843098198560e-03,4.658967664753839617e-03,3.971638589010287150e-03,6.286700004092647329e-03,7.515173343800923486e-03,6.213764373317147253e-03,7.009543525888273056e-03,4.090701368603084226e-03,6.203483743713082525e-03,5.540227559075748369e-03,7.946536683687282707e-03,4.984604860387396863e-03,6.367843646270346034e-03,8.101852030061482482e-03,4.014183857891018802e-03,7.344621259249735357e-03,5.636843414025963575e-03,7.294410942528892910e-03,6.493438203104206878e-03,7.607018890564315114e-03,7.732395033317834149e-03,5.229856741547414360e-03,4.948819876319261214e-03,3.938668449291329171e-03,6.586083245938548561e-03,3.912256360331799361e-03,6.463304897666288101e-03,6.345018258126027509e-03,6.951350631656823438e-03,7.577747210301263511e-03,6.913954478164340521e-03,5.582670863159916452e-03,3.908808476824216123e-03,8.053883777699478996e-03,8.486031828859558895e-03,7.768573971241463094e-03,5.077088446331070627e-03,5.798721985237538859e-03,6.984407203118138396e-03,5.603264423899322923e-03,6.050857608263651884e-03,6.464602765272516212e-03,4.179592421373907324e-03,7.021435206347515813e-03,4.996989604274557767e-03,5.062649173889659411e-03,7.413858627036374813e-03,4.866558856422694909e-03,8.514672014991770885e-03,7.174814731743129476e-03,6.736149253977917126e-03,5.281279508613317096e-03,7.418550340123626630e-03,6.398525317622857228e-03,5.309751962573620344e-03,6.273532991548961928e-03,8.716435277495363301e-03,6.777584264553103074e-03,8.435071299842398021e-03,6.134296844523377465e-03,4.710866675325544803e-03,7.365620440718831895e-03,4.229016837283766130e-03,6.486463128559304299e-03,8.284245054978413292e-03,4.275196809352665821e-03,4.724668209181470332e-03,7.558489897758295488e-03,6.682121950574147241e-03,6.548571256836186426e-03,6.717979781805559318e-03,3.655635513727031796e-03,6.660919850077497498e-03,6.744486549181339351e-03,7.922261727549752969e-03,7.179038989381177245e-03,8.204604626354651195e-03,4.850174478158796910e-03,7.195986045135389919e-03,9.565219610924534724e-03,8.551853528039464469e-03,4.763857170873415058e-03,5.040263150417679736e-03,8.643472324395728296e-03,5.115099167698246470e-03,7.601887044713424683e-03,8.793485651224605681e-03,7.217324377313438094e-03,7.226376956601469545e-03,7.900618998335910345e-03,7.105820874098120812e-03,7.821860626354955673e-03,5.602149126655612058e-03,6.782427516052741065e-03,5.217150491459671829e-03,7.832537364102897665e-03,4.472312345196393160e-03,7.789121367060466636e-03,6.224653156062605677e-03,7.295412550809483344e-03,5.010491947930387560e-03,6.890575218734450169e-03,2.935037307855729166e-02,4.447749687561657062e-02,3.838304170643518781e-02,2.306657527532852969e-02,2.479238925376345357e-03,-6.514069221618713768e-05,2.768249679900474432e-03,1.101734193244355980e-02,7.327089631122470428e-03,7.161799729035200207e-03,1.814924362467403712e-02,3.327844453814433195e-02,2.202345884048278676e-02,1.045157116355861782e-02,-1.701000073605946246e-04,-5.351005290246161998e-03,-9.743742821321756814e-03,-5.849430421631856246e-03,-8.896928023805653757e-03,6.374935664623456073e-03,3.046207740571309566e-03,1.080807874146362188e-02,4.038683956580434165e-03,-6.776160849998429103e-03,-1.474777619208937803e-02,-1.832561509287086027e-02,-2.212455118414518446e-02,-1.888305634712423783e-02,-2.519571230356277419e-02,7.231132934635254531e-04,-8.572171200386207585e-03,-2.266026751238166704e-04,-9.982554470722266107e-03,-1.457400988561108335e-02,-2.430881636883871350e-02,-2.468655107563342069e-02,-2.701555729889125804e-02,-2.857960318443506301e-02,-3.399605297101727930e-02,-8.526261082295802374e-03,-1.544616844035376010e-02,1.469674174960996452e-03,-4.821774805121721054e-03,-7.061228226069487905e-03,-1.515086034317531839e-02,-1.681347041545067089e-02,-1.881694950161274041e-02,-2.341815332267908889e-02,-2.827451201647365395e-02,-2.805383011400421067e-02,-3.133723820128121729e-02,-1.025410493673561269e-02,-1.469096838859294124e-02,-1.236803654045826040e-02,-1.184214985612686011e-02,-1.295644325043020587e-02,-1.581506531906251914e-02,-2.165755440534690088e-02,-2.895953530918644533e-02,-3.310699276274986502e-02,-3.975888080620337134e-02,-2.349562774360436021e-02,-2.296201947387444334e-02,-1.402240169593496621e-02,-6.515047776900405492e-03,-6.915825854916935432e-03,-1.162893188056838070e-02,-1.638513638249113058e-02,-2.851700604091754465e-02,-3.393015933971021969e-02,-4.536972365749786934e-02,-3.182370755954410518e-02,-2.806846455608729210e-02,-2.070216403968108687e-02,-1.003447892560025041e-02,-9.268735634374199173e-03,-9.395319721695379739e-03,-1.900411060176007000e-02,-2.852663415718602671e-02,-3.239012586090252860e-02,-4.044362330265056926e-02,-3.644918710195339806e-02,-3.416160981364523702e-02,-2.338334894920441817e-02,-1.439619230135531433e-02,-1.385554083544342577e-02,-1.547503838273282806e-02,-2.565596806421424278e-02,-3.040632878805932249e-02,-3.052715585587858008e-02,-4.284612950450095159e-02,-3.610788749699112010e-02,-3.460337921971831654e-02,-2.742667843991697732e-02,-2.316664555486500077e-02,-2.027931643286173813e-02,-2.515433062397959968e-02,-3.213074964771113484e-02,-3.560732469569253406e-02,6.745072091047969905e-03,7.006944234406412009e-03,6.352912802077647844e-03,5.677744352884444949e-03,6.106948026479598959e-03,6.568414963796193745e-03,6.605665285936908847e-03,9.697339145197200749e-03,5.980495900855905232e-03,5.841891100128624240e-03,8.268900503453639056e-03,7.537932200124963268e-03,8.096075570184704459e-03,6.934943058336339936e-03,6.385439446331604187e-03,6.200269274407040065e-03,8.562116661691168695e-03,9.380457239921263443e-03,6.241828010095399823e-03,7.627098154742602103e-03,6.170778419351071256e-03,7.578502294756563756e-03,8.241762582102907242e-03,7.722736629408006627e-03,7.122051322887739018e-03,6.569039364435892529e-03,8.064551204255299838e-03,4.784532078908771205e-03,8.144151896672797292e-03,9.290988342715128870e-03,9.156089283626021175e-03,6.925453442743425940e-03,9.736094156720729101e-03,7.099588609801409447e-03,7.633518258645187460e-03,5.066765451360410837e-03,7.248549749352336223e-03,6.567309173646885406e-03,5.209894089685042015e-03,7.481049194285516526e-03,8.065537480466386522e-03,8.020083032848799101e-03,9.570540417557360860e-03,8.744584526299540098e-03,7.872463509144075541e-03,8.877772873564572162e-03,9.196103006157599347e-03,7.420253372506980041e-03,6.986482297142018044e-03,6.326429270476726686e-03,5.319165986304489301e-03,8.961206367351927729e-03,8.231930406584875293e-03,7.764632863715701869e-03,4.915913025930397640e-03,4.900082798100903990e-03,8.600547365034155733e-03,9.364026315899751790e-03,8.197332906155929688e-03,9.330272561838505105e-03,8.364128217066514256e-03,8.434071024637735878e-03,8.074587722491113201e-03,8.639034600273303582e-03,6.657177501514859388e-03,9.060149417886138867e-03,8.884856112131999870e-03,7.229150653345267803e-03,8.849091428175413429e-03,7.493980792455192524e-03,6.493384139410599866e-03,4.556390390693700054e-03,4.946751901488528891e-03,7.133271337200920888e-03,5.441941538343189090e-03,6.760882060996069483e-03,9.647097644926501403e-03,6.446153435747738712e-03,9.073498591880106712e-03,5.557897440975621481e-03,6.482072661885849262e-03,6.909187218830797894e-03,6.162855069811399786e-03,5.901982965481577560e-03,6.053107119099282799e-03,9.720945853207910506e-03,9.601493928249521526e-03,9.258090216669279809e-03,7.259313589387157012e-03,7.523124861977661948e-03,6.693708166499108374e-03,7.101057738552840441e-03,7.033425419138882723e-03,9.272468937464620545e-03,5.480117749576888901e-03,7.858650433461551385e-03,5.288075313548521936e-03,6.232365793450160736e-03,7.893758850680202346e-03,4.923209495804842066e-03,8.003471417280295236e-03,5.513292889596259870e-03,4.758039232212954960e-03,6.711471811498444066e-03,3.910554617468103671e-03,6.951068433920151897e-03,8.236613406518471930e-03,6.610690524420635185e-03,5.219673133389710930e-03,5.279939749951789892e-03,7.517390200611480215e-03,4.251131059230272603e-03,5.529847816372610199e-03,7.936696853061572798e-03,8.163702153570328440e-03,6.702467847262941376e-03,8.120873831524218212e-03,7.660256116062694014e-03,5.608689544750957053e-03,5.612835107684103868e-03,4.489907955900364518e-03,3.485885888803792916e-03,8.043750641599713147e-03,7.901160407089026505e-03,6.407708070314822348e-03,5.999637184776506101e-03,7.075198753956755092e-03,6.750323094815035944e-03,6.024956080255257883e-03,4.423003548037147785e-03,4.083077029500568715e-03,6.334987616909389281e-03,6.000701666777653702e-03,3.566666119661313430e-03,8.276977106632530529e-03,6.538869176460549403e-03,6.561097652265142181e-03,7.683717575685714007e-03,4.780164207974312192e-03,5.868161555914135248e-03,5.135167829359943946e-03,7.341818288565422380e-03,3.444942982602373482e-03,7.183025018686663328e-03,7.986114741481892265e-03,5.091346393169123193e-03,3.661730987722903660e-03,5.181919550111394913e-03,4.685683118864576550e-03,7.061801197841068543e-03,7.819460438555202869e-03,3.461898262865690298e-03,4.836014378151278111e-03,4.701291070252335870e-03,7.731090029742475334e-03,6.955409442774065747e-03,6.102944713396428640e-03,4.749436529212798692e-03,5.465710887839910458e-03,7.661745468466769036e-03,3.889123443753727313e-03,5.017588433942842506e-03,4.407096939345453955e-03,5.090187664497733237e-03,4.033970336022826321e-03,5.532482172867179797e-03,5.950950071038611615e-03,4.816302433066451359e-03,4.078896938710488938e-03,4.122441471240876308e-03,7.703970897507531057e-03,3.744334401562753739e-03,5.368230641518186540e-03,4.439660712209101377e-03,4.285624467513081230e-03,5.310810772399942627e-03,5.937539478860978139e-03,4.458374635075870555e-03,3.711017241260336844e-03,6.559534629306662014e-03,3.393460821068640648e-03,5.949856110510965725e-03,6.238900857306971422e-03,5.562265978823192035e-03,6.950058155914610493e-03,4.498617059939456937e-03,7.406137797118022767e-03,5.563882513130286554e-03,6.454916797406223296e-03,5.605631630422102350e-03,7.529001121677077711e-03,4.655428181687788595e-03,6.170327595831233934e-03,5.546715727291959101e-03,4.410306574484234611e-03,4.990665590374694476e-03,7.483920373016597453e-03,6.092864607177746368e-03,6.165002259272027614e-03,8.280602726799722590e-03,4.580407079782627434e-03,4.070609840917266582e-03,5.400318567688638591e-03,5.533659348263839442e-03,7.900310974449009996e-03,3.974774198051582441e-03,6.903655008733361985e-03,4.795447360349038360e-03,3.760461314330337465e-03,2.948718678036295858e-03,6.859233919739409803e-03,7.609688327443264212e-03,8.234413419378474111e-03,4.942581826222381021e-03,4.085267714166165506e-03,7.576556600962559146e-03,4.334008409807915338e-03,4.521289897849142640e-03,4.736542014012990257e-03,4.632905671133820055e-03,6.023725087089809929e-03,8.001344816390226766e-03,7.029923532625878720e-03,9.883900104605722672e-03,8.728755701897808472e-03,8.185531884642386485e-03,7.611820352229187701e-03,5.482421639412309033e-03,8.895839000122390816e-03,8.894101110537382809e-03,4.987585721089741846e-03,6.576563395439989461e-03,4.132507677792756490e-03,7.352464522381445787e-03,5.471201906909932758e-03,5.907957114239277899e-03,5.826462952084013325e-03,8.054467016687267070e-03,5.930881902506152971e-03,9.291010277793875297e-03,4.836594463178157770e-03,6.417004366221574357e-03,7.696301981181808555e-03,7.117044114543591080e-03,8.630472868533673944e-03,4.529950501779217605e-03,8.373961505937057084e-03,7.723601534713442872e-03,7.354104792749834724e-03,9.158148942098870773e-03,7.099511344634529438e-03,6.079780358323327513e-03,6.982024240137875599e-03,7.672614237842984367e-03,5.994474506880868511e-03,8.287299210647703848e-03,7.951595295674473290e-03,8.064395136025399521e-03,7.854362492583914779e-03,9.526779734742869821e-03,8.974728868025650882e-03,6.886315399214381662e-03,8.714165753714893728e-03,7.716037561760603555e-03,8.104747607894747380e-03,7.020262010738779861e-03,7.876375236962055576e-03,5.601111571237913506e-03,9.474876860739337575e-03,7.982210083664814659e-03,4.828326000410479782e-03,4.684829630066837843e-03,6.939116197070663121e-03,8.416817269031959953e-03,8.809700664423918831e-03,4.619726445226334313e-03,5.914634568509496634e-03,8.219561947558542275e-03,5.775125252101733463e-03,9.815563621266377992e-03,7.004632611040501403e-03,7.672672317655154089e-03,8.872573573336496253e-03,6.403916004626406845e-03,6.654092197694464438e-03,5.709769429666307697e-03,6.485218233228257946e-03,7.923622013673067843e-03,7.521682260521914826e-03,8.097867853532454696e-03,5.950720150285998544e-03,7.919647492063038030e-03,4.498938401131179557e-03,4.572119155484557877e-03,4.633166453002021505e-03,6.652330893445369472e-03,9.351785532161748307e-03,8.003062395998288003e-03,9.750195481442826273e-03,8.852126152757391897e-03,3.409714675158846253e-03,4.665227654108688310e-03,7.399775003417295022e-03,8.069827014312675947e-03,5.529965064694656283e-03,4.063176906701621710e-03,7.495015784822187110e-03,3.923122015087182612e-03,5.355515656310554443e-03,6.848792673421714473e-03,5.519544870684807598e-03,4.685124636396648633e-03,5.492240110406417311e-03,6.941147709107706523e-03,4.805689676764024303e-03,4.795126026515135823e-03,5.726669442659782297e-03,9.382071348817806744e-03,9.047496773424434230e-03,4.662870207457252281e-03,7.063737281979514011e-03,5.128488393586793856e-03,7.575871233112921842e-03,8.096316842368707009e-03,8.492510221727775019e-03,7.563054669857792976e-03,9.126582173524395644e-03,7.002907058377266618e-03,9.053128304982518970e-03,5.743330238121148283e-03,4.612484126347604282e-03,5.465541439240981236e-03,7.594794439783288977e-03,4.863445919001473106e-03,8.611901985884158964e-03,5.729903818627705286e-03,7.145381456438547677e-03,8.685854983957044112e-03,7.977641462401366054e-03,9.022759536665316341e-03,8.141701994995170777e-03,6.613032940168599681e-03,6.067775653938291616e-03,8.522613560977783387e-03,7.162159293242383040e-03,6.508696980008985868e-03,9.181045485651087579e-03,9.876544805510045072e-03,7.232272955200980472e-03,9.055102296895945965e-03,7.295787126999876519e-03,6.148904624525498332e-03,5.556180026785201634e-03,9.002362415261229781e-03,6.934493641084823155e-03,9.478378009748640240e-03,6.533126291562473160e-03,5.965294545331341174e-03,7.995655828748721508e-03,7.453673998364155305e-03,7.649307041479534372e-03,4.741290908696917626e-03,6.157541684711331786e-03,4.573680384275406741e-03,6.516754597293829450e-03,5.437711383055508774e-03,7.791272022930458008e-03,5.507350158368236326e-03,6.798451376653339220e-03,5.823456611350637940e-03,7.608778350729687549e-03,4.414286364632002448e-03,4.849831678112499073e-03,6.566796502890379257e-03,5.046367632762922308e-03,6.691074646526047089e-03,5.357117541644064451e-03,9.242048373440966622e-03,8.291245598622997565e-03,6.263285789944216322e-03,8.099808349786076847e-03,6.770537867784729574e-03,5.639415700924800025e-03,5.800683423190068112e-03,6.036930219927799310e-03,4.903981454065968817e-03,6.287175914016416255e-03,4.987715546406474958e-03,5.097773699759145481e-03,9.464008950947049720e-03,5.394521650708201076e-03,8.679925979231688585e-03,8.690930127738596966e-03,4.596759486378292417e-03,4.390758784329085000e-03,8.661715405171766316e-03,5.693277097700367821e-03,4.871683290128062116e-03,7.328042100726130451e-03,5.282873837071671089e-03,5.101755270357458127e-03,3.028507619206174603e-02,4.285107525413815732e-02,1.725422475812327799e-02,-1.211950002226824114e-02,-4.371250078318749538e-02,-4.822634514407090484e-02,-3.539581196512966293e-02,-3.032285926295146677e-02,-2.988339755084379323e-02,8.657994479569162613e-03,1.551324664194505230e-02,5.929713064138877887e-03,-1.715249813978968890e-02,-3.322283273675802340e-02,-4.899176560971449379e-02,-4.993063321500080393e-02,-4.407763693188545412e-02,-4.601100296325383310e-02,-5.171955368438441170e-02,4.811927384323507612e-03,-1.090653205573645368e-02,-2.369274179825301904e-02,-3.975483414093223394e-02,-4.210875007317615992e-02,-4.623441397065053415e-02,-4.611054681493235302e-02,-3.791354758468916397e-02,-4.589186114768775693e-02,-6.000696060588186359e-02,-4.590218741174800429e-03,-3.929546570355292590e-02,-3.836254331342945495e-02,-3.729362787929934447e-02,-3.435566986642277221e-02,-3.691779681521335787e-02,-3.138765491084546944e-02,-1.549009072806469337e-02,-2.173113172216595626e-02,-3.667282013581061456e-02,-5.632557165540520369e-03,-2.536253074236855670e-02,-2.401702755097826630e-03,1.041799178667808176e-02,1.771669074457758383e-02,1.820286533509377774e-02,2.526572114055268201e-02,3.348866832677799277e-02,2.813294236260546755e-02,5.491100996110083801e-03,-1.092087806521825806e-02,-1.981437414755423537e-02,7.607125310473966152e-03,2.768685621237581412e-02,4.499024568530207019e-02,5.017527522861363332e-02,5.845070722681405123e-02,6.626385146837494855e-02,5.560927974510496141e-02,3.230186305933338553e-02,-1.226926230803259202e-02,-2.487230873271784048e-02,4.314115302270241266e-03,2.619238955517088491e-02,4.495438881023535588e-02,6.110490952651260327e-02,7.266703777281230403e-02,8.003937190780249789e-02,6.952888369803232604e-02,4.427386237690066756e-02,-1.712809728289802977e-02,-2.508235929870269304e-02,-8.230576582372063632e-04,2.481814411102256993e-02,4.043627423268257581e-02,6.095995326525011776e-02,7.331911730202339550e-02,7.603339624084869131e-02,7.004487366542420934e-02,4.194934008955662763e-02,-1.444676813600066605e-02,-2.680515619529783705e-02,-4.219011327514118198e-03,1.272375506916485072e-02,2.936048923225140911e-02,4.514187628029248806e-02,5.733835371662277663e-02,6.121186425820360905e-02,5.289970334475169872e-02,2.743497303181577363e-02,-1.198718520431340737e-02,-2.182397786661800093e-02,-8.099680323347579342e-03,4.351710777326935412e-03,1.699906560062085931e-02,2.634820591230276760e-02,3.366936888775397263e-02,3.481974862044739244e-02,2.769721531060739123e-02,6.870998712022060792e-03,9.094580986204303663e-03,6.092028399703009606e-03,1.000295182060902642e-02,7.235723134500863032e-03,7.459922986734502173e-03,5.787191289328726465e-03,9.075312759456541367e-03,8.447187839549940083e-03,5.410895806922865099e-03,6.297914349880722427e-03,5.425432205291019425e-03,8.546310331421730008e-03,9.646727115036363154e-03,5.040322659333473093e-03,8.363717719647247723e-03,7.480433113621882610e-03,7.839609579473241080e-03,5.581635862777241733e-03,4.803567925958636062e-03,9.252334211894322480e-03,9.716306081850142190e-03,7.561541374985610887e-03,5.416815933119550550e-03,4.474286862374048102e-03,7.200078768309371366e-03,5.521138033682758059e-03,8.271284932475173740e-03,7.515059076727747568e-03,7.428391566765430061e-03,9.274766292808362886e-03,8.873996866381829440e-03,7.684688406760156222e-03,8.182441032653831395e-03,5.004134952402367401e-03,8.701504495617204057e-03,5.639120054163955509e-03,5.479339675975432485e-03,5.448657848558948781e-03,9.204849265156305957e-03,8.876032357944128176e-03,5.189608535546641824e-03,7.350415478727052691e-03,7.532363568613334621e-03,9.120928182143848983e-03,6.181171601829873324e-03,8.492575661615439989e-03,5.574891326445181004e-03,7.506117394424645373e-03,8.877249254645587853e-03,5.371763559538521304e-03,5.963393596660745977e-03,6.094037757269459878e-03,7.958257911214471764e-03,6.236929389770693583e-03,7.562632410398438011e-03,5.474863034966746464e-03,6.956944728501965845e-03,6.881580986309879244e-03,5.816444123225084258e-03,8.616054143412517699e-03,8.300156788042413816e-03,5.111405704525777416e-03,9.602876780667381207e-03,5.345309724411489473e-03,6.072461609554714347e-03,7.554355800328313615e-03,9.096608034945382476e-03,7.205369681024302586e-03,9.953117650454470708e-03,6.056831967322535808e-03,4.967922342509507351e-03,6.292824886423791821e-03,6.044648270649604846e-03,6.231713766731905232e-03,7.573994680016994663e-03,1.002267967097145857e-02,9.254755893729007393e-03,9.337191182753803304e-03,6.728969378496902666e-03,8.326859241554069105e-03,6.493757512863266787e-03,7.845319754109193397e-03,8.760260402985102501e-03,8.259689992343338324e-03,5.041503867119047702e-03,6.658009129317901328e-03,8.004461868631507909e-03,5.509842951711092784e-03,9.735499430888109804e-03,9.276003703642664647e-03,7.110876738399288244e-03,7.313772843873344101e-03,9.406958198787555847e-03,5.686703448624695970e-03,7.336623303758191793e-03,5.054352944928131204e-03,8.728095740608954323e-03,6.745209130904967695e-03,7.261078677420465879e-03,5.622810547374922953e-03,3.658499932629372120e-03,4.060635990135127472e-03,6.497912210425628964e-03,3.820091929082566808e-03,7.902659212223099583e-03,8.102266848143625105e-03,6.068231729952287302e-03,4.149124849588900661e-03,4.948794601407895989e-03,7.202052809433195403e-03,4.715278035025616786e-03,3.583693466899748672e-03,7.321070322862073716e-03,3.474601403065164917e-03,6.690971449624547214e-03,8.013135787196878218e-03,7.772913886996305616e-03,6.541684512960222776e-03,4.208109397848601961e-03,4.331669872973440728e-03,3.379454941361114111e-03,4.030390290799460047e-03,7.316202606664303811e-03,3.853005092791870600e-03,7.464959786822228209e-03,4.103116525693602766e-03,6.254598611130978390e-03,5.644919538553683398e-03,4.077574717733124278e-03,4.035265278744222701e-03,6.652456654142582283e-03,3.450578021023872465e-03,8.328262677793324409e-03,6.245522446822447844e-03,6.858039546594390211e-03,7.787350153487488519e-03,7.977877081262928216e-03,6.226650224716496519e-03,4.212985220440329005e-03,5.880747822766656425e-03,4.277721538282041290e-03,8.097281120852103942e-03,4.055283941798976284e-03,6.612047988526212512e-03,5.974855513472549472e-03,6.130986236472010971e-03,6.601343058069236887e-03,3.944898474930133049e-03,5.953865976606160550e-03,5.555225692651937115e-03,4.817277510987964632e-03,6.734439183793928911e-03,5.648561563511689428e-03,7.852842369974123021e-03,6.639799405343237322e-03,5.238260405979488533e-03,7.104069054185177361e-03,6.528215140023206110e-03,6.894308659675683036e-03,4.812610328801386443e-03,4.196455321587242056e-03,3.485012185372495571e-03,4.279156955162176888e-03,4.482575221750683715e-03,7.285909536603720794e-03,6.035808783870551079e-03,6.800481183821600016e-03,6.248423211056599626e-03,7.586326641634726260e-03,6.394748011130995009e-03,4.960755442121051427e-03,6.811963242315212906e-03,6.150135649586351873e-03,4.386135990957573151e-03,4.756343034045001743e-03,7.928707059776756577e-03,3.474768356188301984e-03,3.475181244990647924e-03,5.685531697172173902e-03,4.017978228456485675e-03,3.887868907100922641e-03,8.213226664571159075e-03,5.521868692704817207e-03,5.243460328162784408e-03,6.472442724414328129e-03,3.468041355939046732e-03,7.267032539540357362e-03,5.318386801445254379e-03,5.865247634513791851e-03,7.044831687279383241e-03,7.295482163044230729e-03,6.602336777383072293e-03,7.341803868173108101e-03,5.608157060278251040e-03,8.135632836832686759e-03,7.364670462023854315e-03,6.210811896333504924e-03,8.118680717595260637e-03,3.404604305492126264e-03,8.000707850529479442e-03,3.804545233756497554e-03,4.456822442174562630e-03,3.655196008426139440e-03,7.468063981902243152e-03,8.787299873762300512e-03,4.073633497062705347e-03,6.780153651700833624e-03,5.255311888107763903e-03,7.120364819932871285e-03,4.601340935055567467e-03,7.258033841541227001e-03,6.382416104179331959e-03,5.850484057448921901e-03,7.814286613289237252e-03,5.241499793653922254e-03,7.938436023535730759e-03,9.017214245025918784e-03,5.650815374987177599e-03,4.948197758059050960e-03,7.723127401048994999e-03,6.111616424677530392e-03,9.909104784692063239e-03,9.235649988111847841e-03,7.273829733462244818e-03,1.047607450551774760e-02,7.146202355259693995e-03,8.724005215035969887e-03,6.826718058214878079e-03,1.049862750799904036e-02,6.608020612470798076e-03,7.772187969450821549e-03,8.592693784983854166e-03,8.468658045394421297e-03,8.188979078336121320e-03,8.181164829162455160e-03,5.509840436955845862e-03,7.639780664276629024e-03,7.839320400154834931e-03,8.789928547076242618e-03,8.776620123390966449e-03,8.555600084741597430e-03,6.915668891430486534e-03,4.883242973337063170e-03,9.089140964497201616e-03,9.464986415077874735e-03,5.117960516795070670e-03,6.919532628827835229e-03,9.660154982002419274e-03,5.590396676329750097e-03,5.380084620752126172e-03,6.267182000909862077e-03,4.790211402479061312e-03,7.941818889415664176e-03,8.406680495354991109e-03,7.774667563074411612e-03,6.275441356774102107e-03,7.468843800189787011e-03,6.179266404661734775e-03,5.928173632224757912e-03,8.358223134838225349e-03,5.598355735040173864e-03,4.116639222534575898e-03,6.679014169508764275e-03,9.160716430829210152e-03,5.628588119947015335e-03,6.035540041637626335e-03,5.737669115649157714e-03,5.282174767184432025e-03,6.753108588171834008e-03,9.984979922812584757e-03,5.738590139657747183e-03,7.163740073376589565e-03,5.140577482201432770e-03,8.451444002600063191e-03,8.288960766098562791e-03,7.641318309826200528e-03,6.692490384357433625e-03,7.076301855116522849e-03,5.135874331131825427e-03,5.983626109082317533e-03,6.792125743197736411e-03,6.315495447833145530e-03,5.964922616129312606e-03,8.462831996009985078e-03,9.749860855373059659e-03,5.495775452068705005e-03,5.600252317023964380e-03,1.004809525631802924e-02,9.068456331345460530e-03,5.517821937353010325e-03,7.969064614734115704e-03,6.794369578784682263e-03,9.330222719742488693e-03,7.016740282666467099e-03,5.093016302254975078e-03,6.874613121446052771e-03,7.574804967956197052e-03,8.602902818372672525e-03,6.906315559284350279e-03,8.230666658719338821e-03
-3.389755845457500388e-03,1.222123339536219759e-02,1.187941661533814183e-02,1.158759838828854125e-02,1.177525577184609755e-02,1.111295147381526245e-02,1.143195081699888670e-02,1.193193796999486751e-02,9.748505215350060024e-03,1.102461552900140147e-02,1.261564307494358363e-02,1.228648167388729680e-02,8.282473399472538647e-03,1.227029870655028596e-02,9.315329044257405697e-03,1.157195965257896281e-02,9.831141864409953177e-03,9.313408972028099087e-03,9.261284876460567153e-03,8.411236146761435356e-03,1.058654657777227150e-02,1.091921586028951792e-02,1.183070104732744134e-02,1.027381790370597570e-02,1.156661456267086933e-02,1.157711775810333840e-02,9.345404720975036481e-03,9.875918712823689855e-03,1.123185873424505619e-02,1.106929775848214392e-02,7.996343795741850391e-03,1.077161102141310778e-02,8.288731490112810282e-03,1.232907843590639110e-02,7.729002584319927954e-03,9.528740606287720502e-03,9.225285102740352419e-03,9.052168814802429714e-03,8.128338555488759734e-03,8.539248799188443872e-03,1.152521959484262629e-02,8.415929099077153544e-03,1.077572205240818343e-02,1.063112459640394407e-02,9.938446431171804943e-03,9.046906724468051914e-03,8.513660856664717613e-03,1.151542618757119517e-02,9.303877163736793549e-03,9.466707542636808304e-03,8.509774024600612677e-03,1.105863517360757518e-02,1.113565369888393393e-02,7.794606505287197430e-03,1.054411763659325769e-02,1.195579321185090242e-02,1.047515828577321416e-02,8.467722364952932901e-03,1.028547387503917117e-02,8.454717279855588838e-03,8.667318603545625180e-03,7.852207593801818417e-03,9.968146547796617740e-03,1.259536538588343010e-02,8.241230789740110543e-03,8.810259408636837014e-03,1.166109635680123192e-02,1.143949497912445309e-02,8.914704532882091609e-03,9.064028210807839950e-03,9.453010587601683862e-03,1.034277834784605443e-02,7.887459434767072480e-03,1.033903384050041847e-02,1.082328750477384340e-02,9.665564540284186934e-03,9.975443781626004008e-03,9.830358178421729626e-03,1.185210660996797311e-02,9.514467186033119875e-03,1.091873271959514780e-02,9.874041989376528689e-03,8.321565734282700133e-03,1.234888066984134343e-02,9.194769073861221165e-03,8.958696720795555554e-03,1.256727028724962877e-02,8.887981690934186260e-03,9.189834310455804317e-03,1.208690817901215790e-02,8.329446389321336353e-03,7.941047632939238904e-03,1.258906751143996222e-02,1.023766796321403695e-02,9.225782391400998497e-03,1.077026223147980501e-02,8.695111815514302081e-03,9.324296175769476377e-03,1.071434019421719890e-02,8.558792252109370668e-03,9.868876760676327867e-03,6.237686395132936018e-03,1.713076603956096428e-02,2.080389126895180324e-02,-8.801134702736946279e-04,-2.847027060321406094e-02,-3.201382201655331855e-02,-3.370005142812664001e-02,-2.910009880748686342e-02,-2.528676868659843202e-02,-2.211190693303635713e-02,1.283433217512664620e-02,1.987085719411862267e-02,1.887103951439806065e-03,-1.042284757951737924e-02,-2.289094395313638619e-02,-2.786795362614406801e-02,-3.795254257005689635e-02,-4.267583631447426085e-02,-4.184140996617440045e-02,-3.427457966361859704e-02,2.611119402415224000e-02,1.156610717929690973e-02,-1.197200246699827407e-02,-2.120997755618732675e-02,-2.717132024666976675e-02,-3.288587948582576137e-02,-3.820177844398028877e-02,-5.127197083251822107e-02,-5.141144052492108152e-02,-5.109558011331077204e-02,1.780455882004000276e-02,-1.045289661590328469e-02,-3.369443215093555211e-02,-3.781611333681157705e-02,-3.959818512091392573e-02,-3.873146207538129271e-02,-4.639958742609907177e-02,-5.641511068564038917e-02,-6.407379618026187718e-02,-6.252604833139933926e-02,-3.654822259802018719e-03,-2.922751121703082502e-02,-4.554371979825550670e-02,-4.874470793367171456e-02,-4.689180445456812146e-02,-4.911108754703445711e-02,-5.307511705743218205e-02,-6.268020966511322900e-02,-7.377325171394877312e-02,-7.366843188829096112e-02,-1.123878121854300464e-02,-4.158783432795293972e-02,-5.035844462944124439e-02,-5.156531949599926085e-02,-5.152237703800444796e-02,-4.675403608395663213e-02,-5.537815398425509350e-02,-6.736227367858613202e-02,-7.314929260777726372e-02,-7.487287579220111566e-02,-9.114404862095181262e-03,-4.138453611677952310e-02,-5.245587437873946990e-02,-5.554805645852511214e-02,-5.287169951111676119e-02,-4.857477950305330583e-02,-5.440817473667326765e-02,-6.460361987674206885e-02,-7.244280120602072937e-02,-7.570545362099823095e-02,-4.763840991062140429e-03,-4.264076676252379072e-02,-4.983757355203959766e-02,-5.064569164506976112e-02,-4.614326810994787142e-02,-4.390963324987594979e-02,-5.082522991797516765e-02,-5.792499281570557407e-02,-6.680992753220567348e-02,-7.078144248737083810e-02,-6.496329578515214372e-04,-3.543827343944329356e-02,-4.580278093824002861e-02,-4.680787313938165883e-02,-4.086501291823055326e-02,-3.776473710463388450e-02,-3.789308254760160449e-02,-5.027085963606388319e-02,-5.949671566175416398e-02,-5.774565567657624632e-02,2.595440112351549145e-03,-2.774356945506898514e-02,-4.124652722996546145e-02,-4.212853527376275720e-02,-3.885494984461550921e-02,-3.399529128411835077e-02,-3.761312537610769086e-02,-4.613562702540582872e-02,-5.507992002249895852e-02,-5.520163108872360586e-02,5.648765075726463331e-03,5.487333023819715785e-03,7.951648357265994962e-03,5.576416302498029935e-03,7.282237799238532559e-03,5.147611766411239013e-03,6.082378746705557893e-03,5.811415465789762994e-03,9.172073780074905050e-03,7.933696206198367906e-03,7.409101130931586288e-03,9.160240027842228572e-03,6.707042999090754437e-03,6.382496546671260866e-03,6.130022594770509481e-03,8.516540369680265093e-03,7.069733815421697966e-03,6.976516224187156133e-03,8.616414422634723416e-03,8.221795564255647906e-03,6.616607307728520661e-03,7.135326500691877710e-03,6.421558269461336010e-03,5.333280421123934474e-03,7.029114283495631853e-03,6.567416375651049729e-03,9.150259026845930857e-03,7.388818165089663416e-03,8.461205685011905994e-03,5.990107360696421239e-03,9.000323192000789577e-03,7.377121197095657876e-03,9.236092507217085606e-03,8.650591010339814951e-03,9.714292517797502163e-03,7.237243770658686147e-03,7.694220757659440274e-03,7.220198530760286136e-03,9.534215193995689702e-03,5.934233804261571099e-03,5.884343335079209383e-03,8.862036783627838185e-03,7.810080687326140941e-03,8.689255508890257954e-03,5.313727145428315084e-03,6.344859596371717203e-03,5.415811395427252116e-03,6.133607247491081570e-03,4.846177203838024708e-03,5.239710159905339691e-03,7.204780654471539501e-03,8.189851505686547919e-03,6.926454478320986409e-03,5.351342576519486048e-03,4.817100385905218746e-03,5.953925311678378955e-03,9.321643939754946720e-03,5.685471177178528894e-03,6.664090933745069230e-03,5.040103505882805035e-03,7.551185538653468372e-03,5.321197641784486398e-03,4.875250742018492033e-03,6.055791261562503032e-03,7.184315246571940095e-03,5.682817430784462519e-03,8.080153553535123628e-03,4.821948379361791492e-03,7.924925264135837533e-03,6.384155449311255601e-03,1.021687269950671655e-02,5.833539331123419915e-03,9.450100812989458213e-03,5.496708664051817329e-03,7.818376580489923636e-03,9.638167267058286511e-03,5.155922432694135145e-03,8.541893033620802378e-03,7.049019058232525690e-03,8.443113823121295436e-03,9.133441286168719753e-03,8.538393836043775900e-03,8.912274941517670662e-03,9.313320827486405717e-03,9.808201736198920301e-03,7.214179618257908662e-03,8.888963191097949690e-03,5.672531489343709404e-03,7.917895181649474423e-03,5.446384396299006059e-03,9.298098821340297290e-03,5.613714796300548621e-03,8.903202679691257088e-03,9.471312841585984021e-03,9.062643871893276762e-03,9.645069779273872032e-03,8.736374700557089645e-03,9.244790987268601198e-03,8.654953828996257009e-03,7.762017812147455585e-03,1.103669437233134251e-02,1.119509748387542344e-02,9.206358710659369449e-03,1.145385861863017912e-02,1.232216640767285626e-02,9.554852047864503123e-03,1.248784098631129658e-02,1.308388086085081337e-02,1.163812635344914706e-02,9.206633098661992295e-03,9.491227961081611514e-03,8.626446747291302911e-03,1.194340931963988606e-02,1.066023382434203373e-02,1.285923364287394968e-02,1.344896184443830287e-02,1.160224256222107050e-02,1.310520293182651508e-02,1.261355971014907484e-02,8.840533086943543756e-03,1.170128699082061824e-02,9.480423737079808622e-03,1.119153340375206307e-02,1.144041222631099822e-02,8.486536376333257345e-03,9.695003202507809781e-03,1.196010326783316854e-02,1.169596788117320887e-02,9.649228525861041489e-03,1.042062306001750871e-02,1.065132098158323368e-02,1.009672955656414073e-02,1.138129428572684856e-02,9.377345714140096489e-03,1.280028548492423771e-02,9.880882424339598735e-03,1.053912991937085500e-02,1.087200551311283750e-02,1.074205457515715889e-02,1.067628300380279310e-02,9.412826998102700321e-03,8.872915306645946798e-03,1.018431699576344274e-02,1.069046919546877764e-02,1.086437410725403854e-02,1.274808302605381569e-02,1.209195002285549242e-02,1.248030024122337087e-02,9.019688432521920721e-03,8.506870470239040125e-03,1.166219171064262691e-02,1.339423772661211751e-02,9.722682321555889406e-03,1.180687668122178818e-02,9.470425188783025000e-03,1.005235479508128846e-02,9.805211436009892562e-03,1.187144398807796902e-02,1.126735853453070951e-02,1.172114934661067434e-02,1.158724017713476731e-02,1.302616015964375498e-02,1.062854090141120492e-02,1.279029590331562730e-02,8.626796223086166671e-03,1.206809364840918941e-02,1.053395768921402964e-02,1.209022513053380210e-02,9.624255067310558132e-03,1.330983608663829226e-02,9.791150185967184560e-03,8.602626848174315874e-03,1.096151567017073641e-02,1.180469394733666896e-02,1.213496223544076671e-02,1.261110212538847294e-02,9.173727907003053836e-03,1.174078610802308312e-02,1.335338075858376675e-02,1.331333681467437510e-02,9.966394984799769458e-03,1.188683706417796929e-02,8.773059425608393733e-03,1.037871013108218610e-02,1.043659561511433090e-02,1.138472405003971774e-02,1.236598470071638770e-02,1.180212238601958258e-02,1.074622449661617393e-02,1.262435507214376348e-02,1.249725474864184921e-02,9.281560297674133070e-03,1.154036975428189907e-02,9.286028360836338230e-03,1.101928602527306802e-02,1.254579162014221247e-02,1.313667351119539653e-02,1.318969196349819087e-02,1.025775830473843811e-02,1.266245132888791161e-02,9.067908004245582576e-03,6.662528973267164804e-03,1.357119820949595837e-02,1.339110255630057526e-02,1.438920409472049279e-02,1.028485667143367102e-02,1.127218493203760788e-02,1.330834622689953083e-02,1.095856225888867247e-02,1.307037465777339744e-02,1.069834122626414120e-02,1.189180264211518387e-02,8.694216201305700678e-03,1.283246431924909073e-02,9.510619018136793820e-03,1.250434956767449562e-02,1.425757846555926814e-02,1.263883098217299938e-02,1.338223819826736723e-02,1.154415093557232402e-02,1.247284738049749507e-02,1.112169545504796547e-02,1.194152578229802641e-02,1.241452750818450475e-02,1.129949802274110224e-02,1.202494622881741457e-02,1.317298766778385137e-02,1.355806940204953674e-02,1.118283099146467549e-02,1.310415974530884479e-02,1.191097720572195130e-02,1.140365810304563507e-02,1.034832884851910953e-02,1.123392016302612352e-02,1.435400146365940592e-02,1.088278871886304636e-02,1.230281642416592575e-02,1.047793776351474762e-02,1.234563655736001936e-02,1.060183001760844554e-02,9.870018779261510722e-03,1.113548380569980012e-02,1.248954308986124744e-02,1.055173066719031390e-02,9.893245677745094585e-03,1.166789375626942245e-02,1.083018850475154192e-02,1.243075297850820653e-02,1.104364006379754404e-02,1.267255955238326577e-02,1.165444011103874446e-02,9.557474733844158882e-03,9.600190612825146297e-03,1.427169795667363426e-02,1.047412141499867722e-02,1.243775083946252642e-02,1.146358765549613037e-02,1.272523075250973565e-02,1.420699622317264654e-02,9.615267057225245634e-03,1.135086570305912125e-02,1.169481018802930559e-02,1.047576444491397051e-02,1.154460081816787928e-02,1.448032665006290104e-02,1.436540788070739261e-02,1.240167174425241964e-02,1.248956191003475040e-02,1.179796631041100767e-02,9.588676492912144231e-03,1.139256315763901954e-02,1.276957483776756767e-02,8.629358045233485527e-03,1.248397177388126111e-02,9.994600991739743465e-03,9.096766767351929447e-03,9.962631445500802485e-03,1.279423010214305982e-02,1.127662566738442569e-02,8.975097913472238412e-03,8.855099127585445637e-03,1.017388242379705168e-02,1.144549447845758308e-02,1.050632633056919341e-02,8.669672492185516097e-03,9.763960174349817916e-03,1.042431112570733204e-02,8.547289234592400642e-03,1.010169668269900352e-02,1.017371427967003923e-02,8.846240770797045988e-03,1.095388691066595706e-02,1.074740046799917484e-02,1.028278554895945170e-02,9.215226965991368466e-03,9.839057688290474973e-03,8.407204336221075006e-03,6.705613931276921923e-03,7.080481333558649899e-03,1.021138866112204953e-02,9.567629140943225211e-03,8.373273689347690563e-03,1.241676243342518422e-02,9.858528068464475491e-03,1.172612800035282427e-02,1.030098247635203267e-02,1.245005501557945593e-02,8.714044100061419870e-03,9.794519926910938423e-03,1.015071942360991700e-02,1.073470994694695688e-02,1.036638937091085601e-02,8.878805683956507780e-03,8.895832028972091438e-03,1.070909204789333678e-02,1.017920545007819887e-02,7.780683676643699448e-03,8.323927522303079321e-03,8.261540468402344198e-03,1.078944622551707838e-02,1.132879553636302605e-02,9.499536246562686331e-03,9.914957609724592280e-03,1.035456170212279738e-02,1.008393157114106584e-02,1.107633241051223481e-02,9.209220628863231187e-03,8.793436529126475235e-03,9.253501401273712956e-03,1.006214099115975390e-02,8.424077261392803537e-03,1.024195478974729984e-02,8.221870607377831236e-03,6.538177746891409882e-03,8.275262695179847958e-03,7.266430588989084005e-03,6.750969694162486934e-03,6.577455922134618077e-03,6.264374795276052114e-03,7.440707148730817989e-03,1.162568425812257784e-02,1.019756174697103619e-02,8.784355496820422243e-03,6.149432189645588978e-03,6.706874317952467128e-03,9.230084024619012936e-03,8.130812961724994195e-03,6.050582923524517806e-03,9.330373160381235514e-03,8.052908194621071977e-03,1.053365535269677571e-02,7.355667830485281868e-03,6.791040808250382345e-03,6.382672435879343728e-03,8.330212511574121639e-03,9.537099247807368646e-03,6.590442117432230781e-03,6.206242489865647013e-03,6.019691890596729801e-03,1.024186291006999594e-02,1.029436791431994312e-02,1.056862977090719177e-02,8.639667614701708118e-03,8.411812519941698485e-03,9.092890410945710794e-03,8.399790025493368562e-03,8.657712543386203788e-03,8.786923853415401151e-03,1.031010485596780754e-02,6.378886910809378717e-03,1.198838155637258103e-02,6.781300993403038303e-03,6.928537687765624203e-03,8.755111883398045136e-03,9.926017004804452495e-03,9.150837385125350221e-03,8.635204356950088034e-03,8.470166208752167789e-03,8.295081858753274376e-03,8.646247346162917041e-03,1.077343220714653028e-02,1.047100500425320740e-02,1.108920025920943388e-02,7.221824396669033509e-03,9.647291050647358382e-03,8.163463554344113290e-03,8.935094504207284627e-03,6.161227059861150782e-03,1.026361148705713829e-02,1.002265207872534564e-02,1.016263801196328267e-02,1.124762011006805520e-02,7.571864318476827574e-03,1.020363582733953452e-02,1.050523455234112120e-02,6.976995704214913538e-03,9.898429719564070042e-03,1.078497244547117241e-02,7.345738682670278040e-03,1.068949042835339557e-02,8.521146790682014929e-03,2.103103237937284375e-02,5.008593802259649758e-02,2.040285238477643898e-02,-1.097558290772569951e-02,-1.287981210379578537e-02,-2.582762383953218777e-03,3.989959696487608426e-03,1.028140688398117807e-02,1.545619571051091122e-02,1.336834882213142409e-02,4.350107637578120440e-02,4.724410891826509584e-02,4.317965204499642912e-02,3.540878907928696195e-02,3.840717309871208296e-02,3.810387775791038156e-02,4.206885043863868578e-02,4.744459726052545345e-02,5.827590801012327848e-02,3.490297684379859572e-02,7.544210064652423497e-02,9.271033524978922191e-02,7.689858967147934765e-02,6.248944466323196750e-02,5.603816117045650608e-02,4.820969056004850012e-02,4.838917370521674671e-02,5.363040279785838416e-02,7.167112022558169704e-02,3.716235996465357128e-02,7.223204040232421297e-02,8.456129687856156485e-02,7.051951680319959448e-02,5.636538448609592494e-02,4.680831688681046793e-02,3.819573910583869136e-02,3.427960765883237421e-02,3.387428464601735523e-02,5.476349409739242335e-02,2.333550585143381872e-02,5.685050331683506875e-02,6.487084884568229681e-02,5.497993762653415745e-02,4.435646260877415537e-02,3.617242273642540945e-02,2.990498939050497199e-02,1.895461046461718174e-02,1.765274711809931493e-02,3.803038993090841757e-02,1.012658919690960849e-02,3.808633098124906968e-02,4.580373684624282349e-02,3.952672480249146830e-02,3.432300156819119430e-02,3.068285079365733192e-02,2.707474184196445588e-02,1.221869810575967191e-02,7.489923517279565429e-03,2.829237465720154179e-02,3.646339718984193973e-03,1.849338205053745882e-02,2.931514538916939194e-02,2.246166601618100611e-02,2.266846853010371157e-02,2.366321251785955676e-02,1.705382114112505287e-02,7.698914223861874628e-03,-2.338366622685471036e-03,2.412934615021469428e-02,1.304099250058912175e-02,1.857986677761842148e-02,2.306771207513349728e-02,2.195626933669679939e-02,2.152404126959135688e-02,2.302723688065203347e-02,1.546424508289296479e-02,9.345054560910568200e-04,-6.166413376059090914e-03,2.494202995130353345e-02,1.471390727329631790e-02,2.913801409436930084e-02,3.762414043452626949e-02,3.144320134194462241e-02,2.779014454275131885e-02,2.796529542455238049e-02,1.736631386907957694e-02,3.700809699192339659e-04,-1.506593156290754291e-04,3.116574105502132111e-02,1.657810600113853935e-02,3.869369271147780204e-02,5.962236719610776448e-02,5.550290244119603089e-02,4.926031555500524906e-02,4.030030574851289210e-02,3.213089764607603149e-02,2.096419028651740069e-02,2.378208078430029543e-02,5.105384447516604640e-02,7.602736153712182435e-03,8.938907757027554635e-03,1.024207308364783083e-02,7.839860996880120697e-03,6.232424586495126199e-03,6.335971595416698722e-03,9.507788865348674318e-03,5.695743606580348957e-03,1.019119582493466583e-02,8.002161733460232476e-03,8.854722212982895843e-03,8.939202262810736974e-03,6.460911769614856824e-03,7.330191139958065760e-03,1.010022891143162391e-02,1.056548085834070269e-02,9.609601507910410512e-03,9.319679576274055369e-03,7.547109033184267596e-03,8.467357472781735644e-03,8.341032344729297152e-03,8.996734681221540270e-03,1.039568804862748760e-02,7.578191965408637328e-03,8.854636023044430010e-03,6.535901689932915697e-03,8.467913611844618896e-03,1.062548324660149424e-02,6.686019177426038781e-03,8.768842557814633676e-03,8.669428914003893261e-03,9.848741432450989347e-03,9.560742376153858607e-03,9.389464072018119042e-03,7.553109987812906684e-03,1.000668947592964035e-02,8.574414947575714763e-03,6.831063339669116684e-03,6.128146290131569057e-03,8.427559394825227465e-03,1.043591851078490805e-02,7.121137436335240982e-03,7.409263724471952181e-03,9.376784545267432755e-03,1.011458781259386326e-02,6.189349410908090779e-03,5.885666909157547325e-03,7.999641609716782314e-03,8.465657663376197420e-03,8.137779949810981100e-03,1.050215637409931090e-02,1.045851734992717282e-02,6.031906433582307284e-03,7.560151991766675926e-03,6.712885862493662460e-03,5.797840195941198448e-03,6.262731925700706741e-03,9.838156864098081961e-03,8.966970418282951133e-03,1.033841432805765979e-02,1.002845678130418611e-02,1.066767573267812103e-02,7.130220588624032810e-03,6.589437657782308728e-03,8.908646071692911256e-03,1.056548325720929604e-02,8.520201889590081970e-03,8.267582278930759448e-03,6.570074961682073784e-03,5.811926698991114366e-03,1.017743327970173188e-02,6.171311880825566636e-03,1.040768806884918331e-02,9.623647035043300657e-03,9.055578721624038194e-03,1.060183855093994529e-02,6.297698449126693312e-03,6.182692424735519374e-03,8.481591040157351533e-03,9.703198814402316102e-03,1.050294221815949516e-02,1.023890635541967707e-02,7.724524469139316778e-03,6.056220259480289865e-03,6.332670090381647791e-03,8.898561119450776671e-03,8.831926828898729528e-03,1.001092349854010993e-02,8.052648300377916041e-03,7.830120817591025573e-03,8.167493954200593168e-03,7.598952978847735469e-03,8.731408541769028475e-03,6.059884684432284910e-03,9.300772864194666034e-03,6.417876310980251409e-03,7.232414476522189273e-03,7.690341564877917722e-03,6.938903059361880600e-03,1.049355552631837073e-02,8.821820111332256964e-03,1.282195690787470838e-02,8.853189116659446883e-03,1.190352209407995535e-02,8.691501130304828474e-03,1.134435557996704355e-02,9.702004880927452696e-03,9.180691193869392266e-03,1.191697518743865813e-02,1.178901650822404210e-02,1.343009822668899192e-02,8.732949025692628847e-03,1.100055459268168417e-02,1.329410176067081714e-02,1.281414445454311796e-02,8.778429126413109934e-03,1.048906134207282931e-02,8.808915669947185029e-03,1.254960526465988963e-02,1.009478139306088651e-02,9.788185842450430191e-03,1.119959585300109653e-02,1.184193074821605213e-02,1.281968840491424719e-02,1.062746188360460045e-02,9.646888764554089474e-03,1.187374450125411318e-02,1.024279475850549403e-02,1.248951905099561152e-02,9.763149774419995625e-03,1.091163337300625827e-02,1.054302508941799138e-02,8.587930059179165604e-03,1.038047688010366315e-02,1.068870557573221511e-02,9.381274477291406261e-03,1.217115439173655639e-02,1.097961462170145980e-02,9.959857567137225115e-03,1.339946641390401399e-02,9.666157512801632629e-03,1.171554942528755389e-02,1.221500829787034934e-02,1.135517406266297116e-02,1.276141821838198617e-02,1.026332460654480472e-02,1.249146264085893368e-02,8.849090876978679340e-03,1.322017209809052754e-02,9.251301994964459749e-03,1.265251524138044995e-02,1.095713733032396831e-02,1.070321941611313346e-02,1.006947657396060555e-02,1.305245036287147956e-02,1.082283932168724358e-02,8.506125008123883308e-03,1.110789975121572251e-02,9.025155806592452534e-03,8.673007779219452790e-03,1.023552781544877222e-02,1.111431930041439572e-02,1.248288997979927345e-02,1.087818543345651576e-02,1.083817624868160454e-02,1.010217076331224040e-02,8.550147663994924277e-03,1.288889247407529887e-02,1.232819771036428036e-02,9.609220130182762054e-03,1.342870847679264110e-02,1.271617242898322175e-02,1.137068913423189276e-02,1.037340758070130070e-02,8.775289342117079811e-03,1.252819814823245836e-02,1.057072755448351317e-02,1.281809167779737746e-02,1.300038468747128848e-02,1.105584274691766983e-02,9.395689475526096401e-03,1.095756640976313853e-02,8.934645137474496804e-03,1.236424045939704675e-02,1.260267529173552184e-02,1.247709551828506472e-02,1.095199223677052747e-02,1.035308588922499370e-02,1.105050765948832267e-02,1.061889812365548677e-02,1.180198784764940195e-02,1.072386518908060443e-02,1.289513878644103426e-02,1.298160652854212990e-02,1.233160609937108965e-02,1.312900254730332492e-02,9.967186787556474303e-03,9.577551631157366074e-03,9.066698202652349534e-03,9.397348851629058752e-03,9.380205458698618118e-03,9.269895192284053481e-03,1.125796658260465148e-02,1.048825289218806474e-02,1.156878554856814213e-02,8.431800077928370066e-03,9.061717923485586995e-03,1.087617053851093994e-02,1.250977477760458791e-02,1.028175256015614013e-02,1.070206381354736960e-02,5.862335880831012931e-03,5.713542472350468041e-03,7.155109931505929458e-03,8.084905609278405375e-03,7.971409391108451661e-03,6.427084205927002455e-03,7.370240878600358390e-03,7.042091729376651413e-03,6.874261657373936969e-03,1.014463477328503976e-02,9.003614262705236099e-03,9.002494303649185431e-03,8.446286158129829441e-03,9.167660260864376326e-03,7.929141356273067265e-03,1.059906249225138312e-02,6.069554251561913236e-03,6.829841461384955105e-03,1.054440881704176054e-02,8.437445830654847004e-03,9.384655493782390404e-03,8.443413608263641151e-03,6.098379867597422850e-03,7.177374589898788057e-03,1.033013069587790031e-02,7.534739045442706389e-03,8.046063872839815181e-03,7.621951283435506909e-03,8.483281961001740493e-03,6.663871771242808363e-03,6.411620841842754180e-03,