-4.923856447361639743e-01,-1.641419336062149847e-02,-1.518666463553833453e-02,-1.530657220387528217e-02,-1.450774959439566150e-02,-1.495935601851589372e-02,-1.484250539516822169e-02,-1.659358676374571295e-02,-1.510421817919845901e-02,-1.454796758891196799e-02,-1.770017486999896084e-02,-1.761597474412124331e-02,-1.094452896254975195e-02,-1.701915658993500419e-02,-1.376105583025512280e-02,-1.506756808071292933e-02,-1.510241273886473064e-02,-1.717066461335526456e-02,-2.067869252520128723e-02,-2.266075474676310791e-02,-2.066173238087767178e-02,-1.786196113178462400e-02,-1.374851742119813369e-02,-1.303043976440291379e-02,-1.401749450347854892e-02,-1.589678215721724089e-02,-1.877799865968455065e-02,-2.103045735497070107e-02,-2.294785973210020785e-02,-2.492565718715997192e-02,-2.268863803589163050e-02,-1.845969755030216555e-02,-1.486180290193319861e-02,-1.782189779853952938e-02,-1.297936351166366180e-02,-1.756821207464816237e-02,-1.671920398285591663e-02,-2.142487190526490629e-02,-2.099859992804460271e-02,-2.797467684287391690e-02,-2.898866990887844636e-02,-1.433500244233425376e-02,-1.199504994320999517e-02,-1.617738223509288670e-02,-1.668355923564036197e-02,-1.767117036142241623e-02,-1.626899696453938324e-02,-1.927347142715605047e-02,-2.112249534690920777e-02,-2.472799750649231493e-02,-3.015952845409593935e-02,-1.709605078645314719e-02,-1.251886905555404245e-02,-1.202493385705583062e-02,-1.170854248049859637e-02,-1.640101955487124549e-02,-1.850044463079139959e-02,-1.889813862126672392e-02,-2.461168392053488668e-02,-2.627952329248585406e-02,-3.102548108882377878e-02,-1.522097119669579314e-02,-1.339437387842196993e-02,-1.542247057865380258e-02,-1.106534354795983034e-02,-1.415446736995591877e-02,-1.663910571678221470e-02,-1.994870664622652723e-02,-2.469318650159756448e-02,-2.792873078274995396e-02,-2.659374971265924051e-02,-1.018133093176932548e-02,-1.387075348532551544e-02,-1.272411399413336981e-02,-1.582696864941935191e-02,-1.674857592785034335e-02,-1.914489888258722947e-02,-1.957227227143152476e-02,-2.321566671290931083e-02,-2.810832316704937536e-02,-2.971653039318147491e-02,-1.357633826917225769e-02,-1.025685483995747091e-02,-9.932185907335735683e-03,-1.164038929058868951e-02,-1.559516460315905212e-02,-1.873267527981528971e-02,-1.668607433578257748e-02,-2.252030434424842631e-02,-2.441323829421532601e-02,-2.848322689521200907e-02,-1.270147347203691955e-02,-1.139174640298804865e-02,-1.223730349360444350e-02,-1.246596541407839903e-02,-1.240293998247448369e-02,-1.568292956076398556e-02,-1.613607526080632765e-02,-2.060673641111120460e-02,-2.223051154757903214e-02,-2.594666096933205893e-02,5.302449076873032123e-03,-9.691014872601033669e-02,-1.246551929157224126e-01,2.200021818898866346e-02,-8.151274509049645511e-02,-6.591616925578416830e-02,5.605720823317097978e-02,2.282359373363150243e-02,-3.938287890948052698e-03,1.032325094135468947e-02,-1.227760122824000794e-01,-1.582382531526471681e-01,8.837353530638979160e-02,6.942633222240673918e-02,-1.078138165766226036e-01,-1.599760024127354352e-01,-8.698897430784201246e-02,4.102823995647088273e-02,1.415167210001378462e-01,1.873169252520666128e-01,3.948426224610100677e-02,-3.420193975158626609e-02,3.436204957275547367e-02,-9.448604488139396296e-02,-2.046426131116577951e-01,-2.199882762875777220e-01,-1.939496090384688898e-01,-1.293504700476373337e-01,1.136399741515080469e-01,2.500030687212330682e-01,9.978109907033244630e-02,-6.404434551514832583e-03,4.924075601147828718e-02,-8.047086705838821241e-02,-1.208446558629750062e-01,-7.918939441912066501e-02,-6.373514027211397981e-02,-7.311365156448776381e-02,1.574029396310335227e-01,3.912792691788010702e-01,-3.576028569171556259e-02,-5.789746151713484612e-02,2.856581947850426323e-02,-8.957492070334999168e-02,-8.361519275507021953e-02,1.922132564521945516e-02,1.912240708690918570e-02,-1.797501927243549610e-02,1.822845950848909768e-01,4.571733913468007393e-01,-1.366658941232020141e-01,-5.126489833808726970e-02,-1.295975895765670181e-03,-1.346601415583056349e-01,-1.086119014608547539e-01,-9.861941278127303676e-04,8.002020543097822236e-03,-2.298054954158339561e-02,1.696414989654633221e-01,4.205391032243310234e-01,-2.224898118912552181e-01,-3.491944313604473937e-02,5.523210828776003306e-03,-1.467247562297485930e-01,-1.313641469987249233e-01,-3.245697966854708266e-02,-9.017312828700982386e-03,-1.706076784378324218e-02,1.666245044264371145e-01,3.650111053591099664e-01,-2.924059871685246170e-01,-2.496991486298820104e-02,3.579740763196260361e-02,-1.160114698739952432e-01,-9.549124955633142564e-02,1.240185251198573993e-02,5.710415969021113980e-02,5.910313965957943866e-02,1.825234766973311273e-01,3.371256196272129912e-01,-3.336741694181473705e-01,-1.197484977861982963e-01,-1.528060371432784365e-02,-1.385443485537285191e-01,-9.270848989756005909e-02,4.537140098967182983e-02,1.107537210089495350e-01,8.885946872683869735e-02,2.001050735646031919e-01,3.412376172464682278e-01,-3.619633443407443973e-01,-2.464827669932296017e-01,-1.906597469860202843e-01,-3.287471108470155223e-01,-3.441524670555538012e-01,-2.306040655951873686e-01,-1.173822703798486633e-01,-3.774249473851393200e-02,1.563469710324361106e-01,3.154079569926632187e-01,9.371881496610697318e-03,4.204131468824680307e-03,6.798347049582661485e-03,6.606030448022201518e-03,6.384606463401800575e-03,6.019029219296705320e-03,5.334245468979431290e-03,6.550878542188323314e-03,4.885956493769706005e-03,3.612540368271882629e-03,2.674623905291709756e-03,6.047327079957990660e-03,1.101985363795292099e-02,7.372019505266864427e-03,7.838099285358541765e-03,8.869650275825200977e-03,6.852942573975903152e-03,5.700323593781920530e-03,7.030807686029715703e-03,9.163876725071559703e-03,1.023375625749143973e-02,1.215260285807957460e-02,1.121711927656642710e-02,9.935620186837624407e-03,9.804462360359290918e-03,8.804959578883853402e-03,8.389407287309243871e-03,8.172652771941736963e-03,9.708607630371750633e-03,8.344383268765921333e-03,1.086169097277061950e-02,1.106109352830227967e-02,9.103651873134605346e-03,7.572099805662780951e-03,1.107508277275484100e-02,6.789780481625433579e-03,9.896271303111884438e-03,7.529306013744581361e-03,6.967428165522250756e-03,1.060467635838796552e-02,8.074770670492011082e-03,8.560560515498572692e-03,1.234493843018365233e-02,1.086998215905615392e-02,1.134090814352023066e-02,1.247183793688067845e-02,9.584711056546886196e-03,9.257540287816704364e-03,7.241652793077301212e-03,1.002416124978928492e-02,6.561239045880232733e-03,1.005785503282541522e-02,1.017147792058807794e-02,1.081429849691109904e-02,7.997881455558637775e-03,1.091514623643418357e-02,9.467471499853788441e-03,6.785777107226460998e-03,9.960840594718032084e-03,1.200394384018420996e-02,6.807076130337780945e-03,9.148275540515216769e-03,9.803367755252466800e-03,6.766177360959179168e-03,8.927808967088763856e-03,9.201432903158928561e-03,9.633338681278726112e-03,7.872108544623760210e-03,1.172952927415047038e-02,1.119150919171382590e-02,4.757791477436751522e-03,8.399741910205415010e-03,1.045697325698687931e-02,7.170798491709331167e-03,8.275257915358066527e-03,1.140757673652533812e-02,1.158779888924034614e-02,8.816353324952839673e-03,8.738284591268057760e-03,8.753480004426985803e-03,6.512409695433525256e-03,6.816649296340274514e-03,6.427280884862054781e-03,6.906877846521349180e-03,5.489776718803793427e-03,1.150329439923063884e-02,8.073621686392281130e-03,9.853266396390341839e-03,7.379486175587703436e-03,1.101396171169344990e-02,6.773903673751681571e-03,7.455402286200027082e-03,6.507754892080606576e-03,6.051260703320494871e-03,3.243418136432260970e-03,5.132678083395273219e-03,7.877874724354647432e-03,4.079664191415159971e-03,8.837318831280466594e-03,9.876016650838786992e-03,-2.040719063247093193e-02,-1.812166063033177760e-02,-1.946104417347097396e-02,-1.973321869047516344e-02,-2.054867437517381504e-02,-1.692180738317418387e-02,-2.019045000081965205e-02,-1.826067147169952928e-02,-2.024076495446342980e-02,-1.859108082635478609e-02,-2.033738569870969723e-02,-1.842890467450062492e-02,-2.009193291391983202e-02,-2.088238539564005528e-02,-1.804764206875578494e-02,-1.696742873286101808e-02,-1.725172874292489611e-02,-2.022256046409134575e-02,-1.868652365038566895e-02,-1.981974790401043809e-02,-2.079990134466496929e-02,-1.981696675427213963e-02,-2.049459220181868227e-02,-1.686666887134292622e-02,-1.754417784249701420e-02,-1.943545322731326033e-02,-1.627037804467004745e-02,-1.910132521783259804e-02,-1.751516403688662196e-02,-2.002210893679772299e-02,-1.863038545029710447e-02,-1.651072675960847322e-02,-1.949511986416554640e-02,-1.925616103216342204e-02,-2.040985532785461951e-02,-1.591461986331369968e-02,-1.785283835158810867e-02,-1.912062647448930022e-02,-2.027835217446179519e-02,-2.059160532968088222e-02,-1.919349809758023537e-02,-1.834381420949354399e-02,-1.797926048787637510e-02,-2.048905909963516861e-02,-2.042044702005089626e-02,-1.702624162146747916e-02,-2.056604604756380808e-02,-1.851326012860890838e-02,-1.981418524807054479e-02,-1.741068839826130643e-02,-1.613864746391314650e-02,-1.608685906338483060e-02,-2.023210398404321278e-02,-2.054006323803755571e-02,-1.756618947723371030e-02,-1.699686678649570820e-02,-2.040118819491304122e-02,-1.999763546580550846e-02,-1.612434821156022088e-02,-1.944171959003452091e-02,-1.885568208016554989e-02,-1.934875796815323581e-02,-1.776027529205830013e-02,-2.087473787246943088e-02,-1.923412712402863475e-02,-1.825602338222631973e-02,-1.668722664632808078e-02,-2.050923720657308116e-02,-2.075620507951120644e-02,-1.894669302371468703e-02,-1.612154843814476643e-02,-2.078795604039289022e-02,-2.076052883557523085e-02,-1.811645999242258998e-02,-1.804836585763749598e-02,-1.721224364292643291e-02,-1.853006564541482062e-02,-1.979247573224050469e-02,-1.655041168032818366e-02,-1.663240112077260871e-02,-1.776782892241451917e-02,-1.709884254051510441e-02,-2.003561611808877749e-02,-1.992072529293866315e-02,-1.842986370643613647e-02,-2.073869847189823909e-02,-2.087678881356560059e-02,-2.071145754347855986e-02,-1.988632172843285070e-02,-2.028845807552448130e-02,-1.650324060015023395e-02,-2.090684152875874405e-02,-1.596173161997869669e-02,-1.980133159884965230e-02,-1.629416733820081287e-02,-1.633400372640490122e-02,-1.991648616068688801e-02,-2.059042135741508475e-02,-1.702748447399200435e-02,-1.666738521178981122e-02,-1.790193122229409226e-02,9.278388321254198417e-04,-3.144612669261031418e-02,-1.896997144793917747e-02,-9.685256468589443016e-03,-1.894525950345445076e-02,-2.385852955873356274e-02,-2.243948674801134538e-02,-1.982214944768595846e-02,-2.288449111989801846e-02,1.657157026746000411e-03,-2.799816900317184457e-02,-2.947838300634154224e-02,-1.426065854669537197e-02,-3.165156555938009736e-03,-1.474639196504895847e-02,-2.481983987430878488e-02,-2.955697645998962494e-02,-3.649890668477357575e-02,-3.272238512393387672e-02,-3.464763559049154062e-02,-3.616476872017328897e-02,-2.954770532795710294e-02,-1.927250057315013990e-02,-1.386802351225592360e-02,-2.453682103249618662e-02,-2.627329556776712011e-02,-2.468834781086423277e-02,-3.630710996114553529e-02,-3.303945094529044807e-02,-3.266269610706084431e-02,-3.910712055788961861e-02,-3.403496017362184906e-02,-3.802130454148031080e-02,-3.986297959126785390e-02,-4.402907076470227721e-02,-3.797652330778818891e-02,-3.527642552797272124e-02,-3.280475070923621894e-02,-3.378842058038789703e-02,-3.259527438406276123e-02,-4.431711502030066807e-02,-3.999049711423629389e-02,-4.934625848959810906e-02,-4.743090206264486547e-02,-4.662301215303384788e-02,-4.598219884783563000e-02,-3.936693952351890541e-02,-3.372984270747958480e-02,-3.527360000792760519e-02,-2.854552978989902817e-02,-4.071555516896826349e-02,-3.919166564520930318e-02,-4.722372046493748116e-02,-4.804541688481801798e-02,-5.516589526833032275e-02,-5.029052730116881365e-02,-4.371008125774251268e-02,-4.216849414559163678e-02,-3.021039769887993651e-02,-2.648240823810128416e-02,-3.644976885731406741e-02,-3.776515397514720873e-02,-4.761711188128130157e-02,-4.982568541005671231e-02,-5.643126056638569227e-02,-5.248784355477548874e-02,-4.651862157162166278e-02,-3.561153825773091808e-02,-2.814450594015489165e-02,-3.325644930630695245e-02,-4.038439724213744447e-02,-3.473678936904005948e-02,-4.137018922392514397e-02,-4.747972820359664531e-02,-4.897913824355364792e-02,-4.494677221146797103e-02,-3.133354442092613906e-02,-2.925249302827283293e-02,-2.610709034217590166e-02,-3.404423514716298921e-02,-3.572097081946280783e-02,-1.910211492935625505e-02,-2.566476764011780751e-02,-2.891209525589759008e-02,-3.088302070556261242e-02,-1.993043462171366006e-02,-1.861925245285395158e-02,-1.787066887520199349e-02,-2.048927890973955071e-02,-3.334787007656982161e-02,-3.377721703119021535e-02,-1.532060092472984844e-02,5.897270437172729904e-03,5.970906851419952553e-03,4.726913742475679150e-03,-1.750743245266237359e-03,-1.168803024072419565e-03,-6.969963707955454703e-03,-1.363208191285322952e-02,-1.753457960084583295e-02,-1.850754958162870514e-02,-1.219157823014724654e-02,-1.149997226383939544e-02,-1.360300098521104173e-02,-1.351877949289266925e-02,-1.421598480645252724e-02,-1.658098447400505743e-02,-1.299755205437085406e-02,-1.686902693436207953e-02,-1.831867264258328631e-02,-9.297965754449957418e-03,-8.147969472530136245e-03,-1.272861466156186006e-02,-9.437142695782189603e-03,-1.128230140525076329e-02,-1.536093189224635794e-02,-1.518312750236558428e-02,-1.319002751490865391e-02,-1.733504714016014317e-02,-1.355690131377768233e-02,-9.786851413506044567e-03,-8.174513915811013401e-03,-9.168604115551063846e-03,-7.216464281626961026e-03,-7.258344794463631074e-03,-1.223414439027012413e-02,-1.165867507872126764e-02,-1.450643255567572558e-02,-1.322600252377323024e-02,-1.432409324667980634e-02,-7.655672668848859629e-03,-6.520888488275634193e-03,-4.482758120374430791e-03,-5.622691689502133314e-03,-9.314473516197555383e-03,-9.424243056712147681e-03,-1.275951017995237587e-02,-1.250560799524530996e-02,-1.381192646023014954e-02,-1.077370443397722768e-02,-7.009933430528421383e-03,-2.604015543485054159e-03,-5.578163601820881889e-04,-2.476731978569296153e-03,-5.494093201202011889e-03,-9.599463993946823204e-03,-8.735225441214258812e-03,-9.542789148917259906e-03,-1.613643969030077382e-02,-9.371065856731031207e-03,-5.152447071938808312e-03,-1.633649866464196871e-03,-2.886648122107061346e-03,-3.543690396377149800e-03,-3.914390879354188654e-03,-3.777457582931972348e-03,-8.412993663242602019e-03,-9.888604808381861941e-03,-1.052852412841102751e-02,-1.233815508802530402e-02,-6.781188492837850017e-03,-5.659912997720013394e-04,-1.796727367393181549e-03,-5.724508839435592006e-05,-1.697917435880809053e-03,-4.348176329399106553e-03,-8.565920885266548740e-03,-8.763726837429389183e-03,-1.330276782000598852e-02,-1.037553449550094112e-02,-4.907249422907031255e-03,-1.773494284638420281e-03,-3.220979647672782276e-03,-2.171115886994780080e-03,-2.169973430472376449e-03,-3.836964247462844486e-03,-8.098540598586662434e-03,-1.075585461699526089e-02,-1.134592619908509140e-02,-1.051867916017669262e-02,-7.887472112069870284e-03,-4.842640297852635403e-03,-2.869085786141033732e-03,-1.622283528054481840e-03,-1.941949973449546337e-03,-2.890349611408082973e-03,-5.884841290374360871e-03,-8.939591211356240005e-03,-1.330095218760729732e-02,-1.349571001949521898e-02,-6.997072937714838084e-03,-6.645468927804012299e-03,1.222462582203152285e-04,5.901795880995471715e-04,-2.446335378185659007e-03,-2.673053381265523814e-03,-4.736862958741838193e-03,-6.560133927722754631e-03,-1.062123211838976455e-02,7.766561396374488738e-03,-1.118007459233665984e-01,-1.940796570607875859e-01,1.724405386632142934e-01,3.098840542629404671e-01,2.767943955882273821e-01,2.156383618588434969e-01,5.406554224164825118e-02,6.840622635402010543e-02,1.122147672441297234e-01,-1.502555446203956702e-01,-2.474667749711402243e-01,1.263385921696483227e-01,2.490236241639262604e-01,1.722250141111618393e-01,9.270428847296785513e-02,5.856072638184867812e-02,1.915458718183588385e-02,5.495322900959458828e-02,1.049928816118730346e-01,-9.298817953958310456e-02,-5.211889600716296256e-02,3.252453700328687691e-02,-2.836561592647102170e-02,-6.274620320040204258e-02,-8.883887555116506962e-02,-1.473888049568422287e-01,-2.086814396736050015e-01,-8.623347251140926761e-02,1.627557198742759711e-02,1.598842551757624353e-01,4.025194672112059752e-02,-3.146366449280048327e-02,-1.605337259998298738e-01,-1.665516942015906887e-01,-1.297188325094119632e-01,-1.548581501891763135e-01,-2.568862177747928133e-01,-1.484467005569474196e-01,1.641749682594997525e-02,2.145602040381420494e-01,8.334874048900745014e-02,2.785798493498618800e-02,-1.264852408313314469e-01,-1.166186923791569935e-01,-2.146756264220199897e-02,-3.346121194073520960e-02,-1.622942508482759782e-01,-1.028114323790051271e-01,5.943780234633937176e-02,2.278381488900781959e-01,2.438638388789962641e-01,1.777829403196371505e-01,-1.257082955634930901e-02,-2.981845740183770854e-02,3.752335754910342963e-02,2.967549856691570342e-02,-8.386373875304910241e-02,-3.692748965130952105e-02,8.192515779640810458e-02,1.499445660601757546e-01,3.388732371006587529e-01,2.709044627305204900e-01,4.458140165043338737e-02,1.224710089451016594e-02,6.692844225383332013e-02,6.119803864371951146e-02,-2.403117302375682232e-02,2.677552066550569626e-02,7.139381665889756035e-02,5.123288553290646780e-02,3.408529786817971474e-01,3.027455627791252879e-01,6.317020471218137700e-02,2.682443481990287593e-02,8.034827473737191084e-02,9.963004979405175321e-02,3.350071391021713918e-02,6.023678500762178617e-02,2.798455853013592093e-02,-3.374645492068716751e-02,1.712981394250039646e-01,1.652153653146406775e-01,-3.019956646175431941e-02,-2.950013423601633919e-02,6.528445435083726767e-02,1.073534891664281871e-01,3.979870986718744147e-02,3.486694285715193770e-02,-1.208652902637304301e-02,-9.032907947866315734e-02,-2.677986762876341173e-02,-1.253828483640269109e-01,-2.939250615616629259e-01,-3.065994798591075710e-01,-1.838867936722633212e-01,-6.363233989849437222e-02,-5.506814402222979382e-02,-1.391913013601226053e-02,-3.966260628266810029e-02,8.937286887416844017e-03,4.851295356399259323e-03,5.055545737321400813e-03,6.223593545422003923e-03,4.329657225623988019e-03,6.239227659954955235e-03,5.452423141566577550e-03,1.949702663733962962e-03,2.389390688889459283e-03,3.205413358935129287e-03,2.815843270940838507e-03,2.137286524967592794e-03,8.788769024588555245e-03,5.337000194179032826e-03,3.082339567749492297e-03,6.329625484265987735e-03,6.064320237690557121e-03,1.961974188310543817e-03,4.831717148039148778e-03,4.672220618404412246e-03,4.154215181018836370e-03,5.932503719624497573e-03,7.117638892277331798e-03,6.269486011745383641e-03,6.591398377765175093e-03,5.530699789265946034e-03,5.477111076969262346e-03,5.262375502280488594e-03,3.127828638176326052e-03,1.524498600665727009e-03,9.551885874426293069e-03,8.964276855709194664e-03,8.717239209354582172e-03,4.795811553885205580e-03,3.712817230902831778e-03,3.868117765840494663e-03,4.681431823280961420e-03,5.354997101977003460e-03,2.203426892899704777e-03,2.378654329791029566e-03,8.710835268219455432e-03,5.087367369183481286e-03,5.343177342486142914e-03,3.461690294197069823e-03,7.912166336431963876e-03,7.186515210126128393e-03,7.334891249948893681e-03,3.843364782425071936e-03,6.572619418406760658e-03,3.385634392058117087e-03,8.014752063705155721e-03,1.014047676904242766e-02,5.334077749259459600e-03,5.614602622130590755e-03,4.925483659581652782e-03,7.115948795375579179e-03,9.557668238399612617e-03,7.934550578258418863e-03,5.290868117544063678e-03,4.332722971245629717e-03,8.348807178904824738e-03,8.200043113977649109e-03,7.325200159936395318e-03,4.014639176453887494e-03,4.240050993144599094e-03,9.537150972294726817e-03,9.170677763541570590e-03,5.615552429767863007e-03,5.503980262883867783e-03,6.743643674129544408e-03,6.797327412990107967e-03,6.327364153597117916e-03,9.140202007576458607e-03,8.315124639915169591e-03,7.999631612977569847e-03,5.767005668803238012e-03,9.843210005849405836e-03,6.312422928804302391e-03,7.842786353921061757e-03,3.299808123141301838e-03,4.324520673550259070e-03,8.803516040012887914e-03,5.063471218163138540e-03,3.569158192655657279e-03,3.777894355049281165e-03,5.424383267639676549e-03,8.887751322055449307e-03,6.589082442731146461e-03,8.020715536944389434e-03,2.812688489935437092e-03,6.177191615461394801e-03,4.988810767442146063e-03,4.087976315547032190e-03,2.745847044115470436e-03,4.366036831929065790e-03,4.905863252874865035e-03,6.730862045214836865e-03,3.189681362870157733e-03,3.414443606180771890e-03,3.772183280504195959e-03,-1.644171016670808658e-02,-1.926206255954506993e-02,-1.695894558674188035e-02,-1.934797244361915677e-02,-2.029747200414265193e-02,-2.022396171135918200e-02,-1.866768664398801847e-02,-1.752232940471013661e-02,-1.961725858117068996e-02,-1.975783147244259200e-02,-1.894835690673602954e-02,-2.007121812860622814e-02,-1.726224307691183804e-02,-1.972716970674951234e-02,-1.686718480803946207e-02,-1.711045878091277048e-02,-1.815382327976896096e-02,-2.033988622774671531e-02,-1.928268228076845600e-02,-1.801458613834659370e-02,-1.592607354123570795e-02,-1.882046722844802830e-02,-1.736785564592397552e-02,-1.595857226544237714e-02,-1.911507247297132908e-02,-1.611959667145912781e-02,-1.857587378630628019e-02,-1.667296837343605620e-02,-1.683331747278158166e-02,-1.815499124291570371e-02,-2.080009855530680005e-02,-1.599747675040274347e-02,-1.656263772048365349e-02,-1.994699312713895875e-02,-1.775921604575143517e-02,-2.022919818813442502e-02,-2.043778806662545702e-02,-1.637543278239705913e-02,-1.960378790253540851e-02,-1.731445077815709291e-02,-1.998826107993476389e-02,-1.892777052369559385e-02,-1.810957236047609775e-02,-1.866509788828806665e-02,-1.649404752673987520e-02,-1.707951964884672769e-02,-2.027385392265694877e-02,-1.613188739939416458e-02,-1.785755882137330525e-02,-1.843703537622495836e-02,-1.964502411554048741e-02,-1.934688588677285423e-02,-1.699960376866058859e-02,-1.629444542683191471e-02,-1.772598037077336569e-02,-1.636431149866527518e-02,-1.663641627698449199e-02,-1.862969796680590678e-02,-1.874960358101967692e-02,-1.607329362518404928e-02,-1.905235223431841693e-02,-2.001368521669544612e-02,-1.833758781463258256e-02,-2.081988763676527118e-02,-1.976577363531073842e-02,-1.930650928707688604e-02,-1.882989199553261259e-02,-2.042847531041342216e-02,-2.054520862957881847e-02,-1.621001152521463554e-02,-2.035085264197036489e-02,-1.887704708699749004e-02,-1.889306576746368690e-02,-1.769822221816711241e-02,-1.677932206035369703e-02,-2.074802983698789335e-02,-1.663806233107299401e-02,-1.946330806375946507e-02,-1.830330588247433207e-02,-1.870332253622415328e-02,-1.704188369531852570e-02,-1.760000511454339403e-02,-1.881026825725301901e-02,-1.677804245301944136e-02,-1.978932424632062412e-02,-2.059085725034575168e-02,-1.593240669515097116e-02,-1.678151197964000002e-02,-1.661431281042162825e-02,-1.639403455464583104e-02,-1.642258393691371082e-02,-1.976768708887218992e-02,-1.679135576488255399e-02,-1.726551051504559078e-02,-1.976278825161826083e-02,-1.625447631133304649e-02,-1.600210764057116361e-02,-1.866158607550144621e-02,-1.930607059840888304e-02,-1.721643500240243804e-02,-1.894335917868250271e-02,3.628312095239075597e-03,-2.236376409838899959e-02,-1.709121761420223651e-02,-5.788890741605447719e-03,-1.111312074226067891e-02,-1.326809400433848034e-02,-8.107050983556558441e-03,-5.539766618359140589e-03,-5.335413262796159621e-03,6.544891703953863681e-03,-2.152813662400883746e-02,-2.452043566586962695e-02,-4.845086847989758458e-03,-1.640174656298289471e-03,-6.379190683078335943e-03,-9.189964113404091792e-03,-9.985960050912382271e-03,-1.191683894781953024e-02,-1.164386560126567591e-02,-3.288322270778343964e-02,-1.796322601467802149e-02,-2.154081100209323876e-02,-5.530077008872639165e-03,-2.476670350710633538e-03,-1.101442594946725265e-02,-1.001576293773800974e-02,-7.894846378115797855e-03,-1.249280863388423785e-02,-1.562308532925884771e-02,-2.628612174417674363e-02,-1.771067311309148726e-02,-1.471684318403475127e-02,-2.092214868193780636e-02,-2.321621591417947703e-02,-2.676625094429863766e-02,-2.081391398374793367e-02,-1.448609866180720039e-02,-1.633325983688303090e-02,-1.554923018431885948e-02,-3.345872237852493686e-02,-2.499955195778804165e-02,-2.482810918635695169e-02,-3.054403303193799213e-02,-2.999599310430868179e-02,-3.417457745460146523e-02,-3.000774398517674219e-02,-2.085570682009646459e-02,-1.482751614889601770e-02,-1.530870968835422626e-02,-3.010353010109869179e-02,-2.584396682352632993e-02,-2.133504328459481791e-02,-3.036397472639568509e-02,-2.957382820977974905e-02,-3.467004074612146242e-02,-2.551386420374996550e-02,-1.700250413536659108e-02,-1.485415308552379132e-02,-1.282338404805356304e-02,-3.352007917810383153e-02,-2.288325596063089246e-02,-2.023755599989870979e-02,-2.705466467322934290e-02,-2.785457809174076566e-02,-2.844105075901027027e-02,-2.505638347127239762e-02,-1.611687744334888359e-02,-1.158757503966388429e-02,-1.085980716179745995e-02,-3.664987455371112451e-02,-2.984846423262119131e-02,-1.816889135013945167e-02,-2.400396683804092296e-02,-2.205497228808650165e-02,-2.268946212403712484e-02,-1.574524617337445115e-02,-1.067895839779756800e-02,-7.195428360103290309e-03,-1.062331967415635313e-02,-3.298796660566543498e-02,-2.291757121146974566e-02,-6.633543596492016796e-03,-1.381005054716582560e-02,-1.193106016226260988e-02,-1.127009631236689999e-02,-7.424411768694178307e-03,-3.634797000225515728e-03,-4.749872550856282065e-03,-8.183661515288201058e-03,-3.303899629670717375e-02,-2.342833046533687388e-02,-2.733033718825772940e-03,3.294055220583452272e-03,5.154779017469445987e-03,4.715815607822264680e-03,1.522743754246504242e-03,-7.195349525718040687e-04,-2.899558617081983165e-03,-6.679553781137259443e-03,-1.701149131319093510e-02,-1.587688734666857851e-02,-1.139108691225088933e-02,-9.973123497441492916e-03,-8.491746476524831416e-03,-1.121911387442775868e-02,-9.134916973969389384e-03,-1.164366265717727174e-02,-1.254785336984814634e-02,-1.347974451956409150e-02,-1.673019354663043273e-02,-1.335601195427109020e-02,-9.463089196410137335e-03,-9.655700068184822071e-03,-1.050121657370863514e-02,-1.256613229837622372e-02,-1.324307746674447707e-02,-1.344174998218429506e-02,-1.713879943752221260e-02,-1.341374828341984626e-02,-1.649333459598045434e-02,-1.407968492470492404e-02,-1.031864626214742432e-02,-9.636199929812487228e-03,-6.880984639859568687e-03,-8.483661940301303814e-03,-1.276587311017543178e-02,-1.633438567677926098e-02,-1.469693087646252276e-02,-1.912174424346751306e-02,-1.899893716939401317e-02,-1.255782719600874626e-02,-7.631051134737000877e-03,-7.781108124601044014e-03,-1.021345482065496441e-02,-1.283506266295484678e-02,-1.180093712329819897e-02,-1.676582346174500596e-02,-1.587120644208082562e-02,-1.736225089467732102e-02,-1.616566700932906692e-02,-1.169089390678134527e-02,-6.853291453673403602e-03,-3.679465251329679977e-03,-5.226123548015125519e-03,-1.102845469204989833e-02,-1.239209301229330686e-02,-1.337344775167489952e-02,-1.675005879570655790e-02,-2.034076287548467962e-02,-1.714297284376520639e-02,-8.923796745367279515e-03,-3.526475538742970643e-03,-5.724580614803331455e-03,-6.523819816815841673e-03,-9.648119815186644022e-03,-8.078728893762401192e-03,-1.359726426559542713e-02,-1.299252953714471678e-02,-1.657727837231250112e-02,-1.536743796472336311e-02,-1.060779312516405178e-02,-5.975044103466835461e-03,-3.135639849034774738e-03,-5.754841426487268367e-03,-9.370145155488354693e-03,-1.048350814820209025e-02,-8.905168953409963589e-03,-1.502359037745923907e-02,-1.544827808248262768e-02,-1.629236164694721281e-02,-1.011613054344919459e-02,-7.388743071003291488e-03,-5.201000550302697402e-03,-7.066359277516890032e-03,-8.568894887815776268e-03,-6.970373322051429121e-03,-1.301075484092906534e-02,-1.547662858493033429e-02,-1.678562568807390534e-02,-1.640944774124231814e-02,-8.691612658805735261e-03,-6.178442879408995413e-03,-4.799206607854130183e-03,-6.680722584100332387e-03,-5.055552000492759095e-03,-9.035405670567370554e-03,-1.305625885984230787e-02,-1.314002370253913692e-02,-1.782574340030915541e-02,-1.599945876500855763e-02,-1.073733266224582636e-02,-4.705264433420125111e-03,-4.797824595448484802e-03,-2.327816745408153518e-03,-6.795142404541689753e-03,-3.855988471713031347e-03,-8.626445543529674340e-03,-1.071877365823525712e-02,-1.209696753365801028e-02,7.680596308214452696e-03,-8.550907526250511870e-02,-2.893036441763065514e-01,-1.702341967891600749e-01,-1.110073000110803343e-01,-8.225866591727454269e-02,-8.689649449636882572e-02,-2.682661746722281859e-01,-3.242278385084402248e-01,-3.039087259265163543e-01,-1.099341543480740063e-01,-1.997734122706189552e-01,-9.802261557524828001e-04,9.833289076237763937e-02,1.472073406324884148e-01,2.346713080774551485e-01,3.522751322105711069e-01,3.408516110852645165e-01,2.609583731188691025e-01,2.450509324229416530e-01,2.015294207473863619e-01,-4.168463370468010465e-02,-1.378877832884808918e-01,-1.305369952864180727e-01,-3.108965548761576450e-02,8.624049070830316910e-02,1.754338394228801556e-01,1.496554577217040771e-01,1.688539919322320504e-01,2.285279455648351887e-01,4.015522056366039316e-01,-6.176372177799208107e-02,-1.961900865478770628e-01,-2.501034751848099091e-01,-1.547590813653555442e-01,-4.267238463799567089e-02,3.631997301711122755e-02,-1.355951461257963800e-02,3.367722828544966740e-02,1.257551856478466568e-01,2.639987087680922273e-01,-1.088197449139776674e-01,-1.422827779924396852e-01,-2.159610253022826720e-01,-1.429247450051839285e-01,-5.654412952472924470e-02,-2.774150415432533739e-02,-9.929112777539762791e-02,-6.007709101184217221e-02,1.879364189279753017e-02,9.449278384573726874e-02,-2.178797661203082589e-02,-7.851405004040308555e-03,-9.234834811301415036e-02,-6.778778497803887582e-02,-3.365719750383115022e-02,-4.022913839242003159e-02,-1.172781268805130617e-01,-9.313890003466264444e-02,-4.543761050738812091e-02,-4.461367295175457798e-03,4.937812841155763549e-02,4.515254053164075021e-02,-7.922604775001154676e-02,-7.996904936593744739e-02,-6.338896686577366602e-02,-8.493152070103328344e-02,-1.541681141104671582e-01,-1.329692782463629264e-01,-1.117318235590498698e-01,-7.868558189487415144e-02,6.457334350970490855e-02,8.824436677086490433e-02,-5.018779339623025137e-02,-6.023504918897432808e-02,-5.472464480992961233e-02,-8.362016396265092855e-02,-1.431729672534161890e-01,-1.439124719619910286e-01,-1.472121582040960552e-01,-1.530001461879026137e-01,-3.735770950420694292e-02,4.962429579903034765e-02,-4.479992215676536355e-02,-2.246625344708290395e-02,4.307897349796113717e-03,-2.443636276861254307e-03,-4.232863689792133732e-02,-2.168664318818796372e-02,-4.066757639052327733e-02,-2.000503946586586201e-01,-2.386017168380736575e-01,-2.010637266696540248e-01,-2.137421670128638040e-01,-1.204176537236273520e-01,9.276232037645200032e-03,1.366115293870824865e-01,1.876225438185183114e-01,2.402804486095064807e-01,2.028190800153955586e-01,9.587387028750867304e-03,3.487570239192615100e-03,3.507618276128846892e-03,1.946242275213374813e-03,5.690576171773555590e-03,5.610345376348885305e-03,3.432752698121140610e-03,1.169116913054996836e-03,3.761950644093367199e-03,1.266135670688595637e-03,3.919954848825297176e-03,6.264293154637991419e-03,1.004939455646802413e-02,5.970437867885172029e-03,5.534933195388402200e-03,5.182752821085526498e-03,7.921305140782619950e-03,7.553531256463647675e-03,5.292982122418676653e-03,5.875373180473803143e-03,1.197671531514883647e-02,6.478035266621203457e-03,8.005098357276464044e-03,2.072362641212663163e-03,6.701118991320823004e-03,3.042319348682486890e-03,6.578137893791414538e-03,6.063640526607204373e-03,2.085516838394822249e-03,5.141307794575837760e-03,1.422071615596047674e-02,6.993626265402334841e-03,7.361287269366036633e-03,5.881240240973385595e-03,4.243426414701866392e-03,5.959189629313627404e-03,2.511494913346466133e-03,5.492366524334076419e-03,4.881602131307315358e-03,3.289293756489794409e-03,1.089714298864105819e-02,5.806624914383741280e-03,7.160679804888782016e-03,1.327535512272641537e-03,4.744118409043526774e-03,4.803483147583969236e-03,2.993760458282657740e-03,4.515706633399961360e-03,3.363434476939930473e-03,2.196713969773059910e-03,1.196266517559931367e-02,5.219626041892144047e-03,3.585169832630108553e-03,1.754029717358496655e-03,3.760103215955184607e-03,4.579702247092922243e-03,3.951436774928432198e-03,6.030849284065008080e-03,5.216999281419060740e-03,3.446448635389521339e-03,8.171056750688191622e-03,7.737959054674571277e-03,3.985704625154085252e-03,4.216851448507350809e-03,5.766034538328498708e-03,3.799410551908468606e-03,6.172974450210725814e-03,6.049952162576666473e-03,4.175356171013275448e-03,5.215588458285565915e-03,9.716139265652689455e-03,5.619605793691275636e-03,2.542525583736368611e-03,1.417058765146014809e-03,3.634255987886120861e-03,4.567339182570027793e-03,5.617579660017211172e-03,5.158967952021999842e-03,3.984090586156594643e-03,2.519839897034702441e-03,7.960250402224375646e-03,7.424473893237679145e-03,1.824126272535173598e-03,1.500217123495768820e-03,6.458588969723922171e-03,3.720667524147502729e-03,8.019387341717683013e-03,5.221327276934808852e-03,4.984176680567565729e-03,6.636067685307152006e-03,8.917078958201696964e-03,4.631311865765974471e-03,1.411007588120257719e-03,2.216057561216950959e-03,4.490277221303217055e-03,3.110843543656369777e-03,7.459825056992535480e-03,5.576836203682894282e-03,3.211221859246504457e-03,5.287305493369249924e-03,-1.691570496493819201e-02,-1.713011119923249503e-02,-1.836004573062349418e-02,-1.823436633003042151e-02,-1.891747520182453582e-02,-1.762580358510280887e-02,-1.991424713572081603e-02,-1.772103918609715945e-02,-1.973857888018891102e-02,-1.625263651579791566e-02,-1.893274960510858348e-02,-2.085262075034366794e-02,-1.815635842581456855e-02,-1.936235133637339081e-02,-1.679383778481174927e-02,-2.048140461218306632e-02,-1.893708174082953458e-02,-1.661624664182715511e-02,-1.813356071350645873e-02,-1.892295109765616476e-02,-1.711307658475159227e-02,-2.024885461568170023e-02,-2.071521800503857078e-02,-2.037682254414410407e-02,-1.870641857159936403e-02,-1.602689718476641920e-02,-1.737642618757783211e-02,-2.027375985884130247e-02,-1.594987869090247826e-02,-1.912579416497568394e-02,-1.951668366531129559e-02,-2.084644885064609529e-02,-1.674274089151318173e-02,-1.902161511609554503e-02,-1.846876982556557023e-02,-1.756256722049636537e-02,-1.787303115076787144e-02,-1.825252522895923560e-02,-1.852710132246610311e-02,-1.793516037685406392e-02,-1.871134328302395330e-02,-1.621325738848763270e-02,-2.059754461851562649e-02,-2.050387421215800129e-02,-2.018861996647597010e-02,-1.983804139941344399e-02,-1.967157658553450247e-02,-1.706636562264965754e-02,-1.943858306414010875e-02,-2.027344709659083602e-02,-1.826679172186855549e-02,-1.885346088720566207e-02,-2.060777397567739935e-02,-1.851642895839267569e-02,-1.619785793335620089e-02,-1.656400967661569162e-02,-1.831581547448496786e-02,-1.686929165676995593e-02,-1.895292476490104475e-02,-1.928468530231738573e-02,-2.040823669527671788e-02,-1.728146078715317793e-02,-1.606485672018959435e-02,-2.028167263953830138e-02,-1.769905384089975539e-02,-1.902410983803220004e-02,-1.598378196198316920e-02,-1.997043807701886012e-02,-1.736956027213691980e-02,-2.071927341030114708e-02,-1.935049969267316552e-02,-1.602599035916664125e-02,-2.057300644489297101e-02,-1.934764880312382293e-02,-1.989247077487734869e-02,-1.850277818784243702e-02,-1.875945043372302320e-02,-1.678717786841138829e-02,-1.772396027579050543e-02,-1.881061960056385277e-02,-2.069573814648175900e-02,-2.035285110386290605e-02,-1.904968616153825470e-02,-1.860362566804794893e-02,-1.718699145369559367e-02,-1.981204736192561031e-02,-1.696668042881889493e-02,-1.957283468717065447e-02,-1.716874648996376956e-02,-1.826796614425561793e-02,-1.734241388248593599e-02,-1.812402526502745678e-02,-2.069250902888612395e-02,-2.007081361162583663e-02,-1.984325357648261332e-02,-1.927486360208204366e-02,-1.651725509877125658e-02,-2.059546777209339194e-02,-2.046278251196858786e-02,-1.596528736916147731e-02,-1.810696212553115220e-02,1.505667625050179179e-03,-1.802960444055976691e-02,-1.630143883295310028e-02,-1.597597783128446372e-02,-1.652786996930632676e-02,-1.753034969495401163e-02,-1.318757055598385533e-02,-1.243495312858920038e-02,-1.070757016096082412e-02,-3.000701946411662730e-03,-1.602833926438395826e-02,-1.921479511648180316e-02,-5.486695767349032173e-03,-6.250641846232228745e-03,-4.683088616015036038e-03,-1.135501043076300731e-02,-8.885298323522524550e-03,-1.111067708818366286e-02,-1.371734070765640197e-02,-3.838464253486809780e-02,-1.625463324710656188e-02,-1.288699030942778989e-02,-2.548899700137499062e-03,-3.363683856330112847e-03,-1.189506091962338509e-02,-1.183447180125620293e-02,-1.054078326130002824e-02,-1.677869262521651181e-02,-1.833083206953830396e-02,-3.468479935399571001e-02,-1.770869693691645361e-02,-1.515155370435835105e-02,-1.399353384161878232e-02,-1.957538512751478069e-02,-2.431572118945847169e-02,-2.170496546611764416e-02,-1.519299822365781892e-02,-1.652065050996741336e-02,-1.810457143692845508e-02,-4.175258549028236510e-02,-2.325534784666670809e-02,-1.937212763105844102e-02,-1.736073475461812413e-02,-2.555928656554553105e-02,-2.253347649180021534e-02,-2.142415654661513832e-02,-1.831093243342139104e-02,-1.558820132974220347e-02,-1.606171969137328015e-02,-3.627284203904248411e-02,-1.990545535054705911e-02,-1.599923335019329956e-02,-1.885325444984729468e-02,-1.834127376434709425e-02,-2.261525694934539421e-02,-2.024083501599750062e-02,-1.645034662793533678e-02,-1.334739583575328056e-02,-1.441906994886290802e-02,-3.636422813843604579e-02,-2.200047691537994690e-02,-1.269328757339881555e-02,-1.416002885056114741e-02,-1.620434849060344365e-02,-1.625084747107074720e-02,-1.412655647795834843e-02,-1.446996706195751055e-02,-1.508661226059930180e-02,-1.419090200309150625e-02,-3.731480592666421708e-02,-2.174197358577516226e-02,-1.269539493790972084e-02,-1.623396991134534381e-02,-1.445257646087289710e-02,-1.535168910182652460e-02,-1.378162420540861473e-02,-1.441269574201920096e-02,-1.467388322789009956e-02,-1.561264619180198487e-02,-3.735517035802390917e-02,-1.995112712057014667e-02,-9.733005217595824474e-03,-7.602626276355099744e-03,-1.161342356396614407e-02,-8.110105190665023098e-03,-1.297342602158681538e-02,-1.169555143378136521e-02,-1.363261743543100687e-02,-1.102858812365669836e-02,-3.668041084418009745e-02,-2.018490817922540675e-02,-9.701910756898468602e-03,-6.576044658867070784e-03,-6.475073615045424773e-03,-8.115944465573692382e-03,-1.099102190857890841e-02,-8.378648554966769413e-03,-1.050508105398952237e-02,-8.899091622418387262e-03
-4.221619366583485161e-03,6.193897935279985695e-03,6.207872009344685311e-03,3.879102693879554233e-03,4.484729527371312217e-03,5.734214630790130697e-03,8.960260741773581200e-03,5.203981709531377113e-03,6.512382059386666311e-03,4.965274845907351534e-03,6.520156408883663081e-03,4.777593566482486905e-03,6.015415363381191108e-03,4.385341877203283167e-03,6.262198835053707675e-03,7.586751589916907075e-03,4.355818819428371527e-03,7.429633868091176790e-03,5.712451050036842191e-03,8.327301635336735106e-03,7.467439902882415728e-03,8.191004529155474639e-03,5.235476890823129864e-03,5.316548481527845309e-03,8.710611481857212166e-03,7.048619202201227875e-03,7.036000179668496814e-03,8.027127892463976205e-03,7.474602007950719405e-03,8.589357662750910297e-03,6.075490829337255351e-03,4.980313052049693649e-03,7.691127559792133514e-03,6.803745337707555428e-03,7.325380242500501710e-03,7.631676105964946451e-03,6.339722512236256775e-03,7.073823333085120166e-03,5.853407920067585195e-03,5.818049117225909152e-03,7.848431353767596277e-03,7.718372785522998464e-03,4.305983070294718169e-03,8.923922467818179091e-03,8.150068562186399759e-03,4.841020101020041856e-03,7.744341126256268533e-03,5.436462161913546351e-03,5.242833137981366479e-03,5.723259415110150752e-03,5.296610889696000239e-03,4.907585251936580871e-03,6.347997665630278515e-03,4.447826324371443978e-03,4.420223152891976023e-03,6.724908566060409411e-03,6.519482421216600716e-03,5.820595247455382162e-03,6.886889009376657642e-03,4.719392135173402190e-03,7.550288535533041141e-03,5.389634306843401300e-03,6.215013303511163385e-03,4.552249790918429240e-03,6.566769608330279458e-03,6.093392122223031601e-03,5.510029966212320711e-03,7.678388340404221704e-03,5.136095327800497060e-03,5.210740146902644726e-03,6.091056073778020226e-03,8.691443190664224078e-03,6.075945277315935103e-03,6.796615640382462110e-03,6.708292494612640156e-03,4.782730920948836950e-03,8.582697696661244560e-03,5.680847176182076026e-03,7.801508928284365575e-03,7.972961370154425104e-03,8.377686950631976423e-03,8.317529626218954017e-03,6.719273590284595074e-03,4.732413465610242620e-03,6.185188565260744779e-03,5.429865862337566670e-03,5.905989141613223262e-03,5.643635113734875829e-03,7.177186790285518779e-03,7.182993732915453518e-03,6.496954257467430285e-03,7.477773181859295043e-03,8.541631068538588917e-03,7.112755184737720900e-03,4.566233741885061467e-03,5.049748366230314041e-03,5.659426102041945593e-03,5.501514801997553321e-03,6.608030167027310366e-03,5.070757614575152443e-03,9.147079733167000001e-03,1.216359482480749814e-02,2.690903916116366146e-02,3.563016145888573544e-02,2.522522165472649083e-02,1.337254014654290155e-02,3.630973442664794590e-03,3.577517152599299626e-03,4.421178119581314903e-03,4.863447819450462256e-03,5.427502877220071603e-03,1.424676970124223729e-02,2.062837924440371479e-02,1.958117039456359204e-02,1.612293090968969916e-02,5.841880642334838780e-03,7.742360291198858427e-05,-1.333389065569956511e-03,-2.713929734541044650e-03,-3.135054708676815547e-03,-3.319536906539701480e-03,9.775579701092771898e-03,7.127332265995096720e-03,9.622627834603094885e-03,5.908072989366412037e-03,1.211955638899575626e-03,-4.769410120067769064e-03,-4.968051917038897314e-03,-6.937595775844548722e-03,-1.005290830296838231e-02,-1.373675128088888697e-02,4.104392363615395715e-03,-6.328570348564530046e-03,-3.517648198924686574e-03,-2.200718424966478185e-03,-5.183107353634067941e-04,-2.902560095400217883e-03,-8.222378290336566226e-03,-7.654123905037138638e-03,-1.127925487781588840e-02,-1.600701437301510141e-02,-9.883134048823684695e-03,-1.118971723976966252e-02,-4.068020791634438874e-03,6.178586565342494841e-03,7.160185256321123515e-03,3.305862241573537339e-03,1.794400170752368222e-03,-2.224624146536768963e-03,-8.596213412019453395e-03,-1.465214407973220931e-02,-2.106012677713235692e-02,-1.964199635682365233e-02,-8.926921457633870891e-03,-4.937147926712736300e-03,1.553289175897821389e-04,2.090984357037568072e-03,2.077015211435463519e-03,-6.986800221760947754e-03,-1.146890507277948529e-02,-1.595394956315491705e-02,-2.806166032555180642e-02,-2.756884055409733816e-02,-1.646553744571156025e-02,-1.218640281255771451e-02,-3.180080149687127770e-03,-1.183303733760423431e-03,-9.505575361424114860e-04,-4.962806624361344038e-03,-1.308160864515708205e-02,-1.575728537197408977e-02,-2.667174122092563424e-02,-3.204900025653282386e-02,-2.571391580015788825e-02,-1.589456016817461514e-02,-9.015507381692005121e-03,-4.603897835283024195e-03,-3.803871721604493075e-03,-9.964458769362397397e-03,-1.357948551064318797e-02,-2.157901784342675794e-02,-2.464008868650964523e-02,-2.969233358318690980e-02,-2.724964170248083545e-02,-2.146001557170203883e-02,-1.574434790162029460e-02,-7.848537131944536074e-03,-1.023286382220581041e-02,-1.176476920757057662e-02,-1.748957254954739554e-02,-2.387417112299360100e-02,-2.613401197118940533e-02,-3.015805887286522255e-02,-2.617405790435933105e-02,-2.148252025496489442e-02,-1.703937977399593712e-02,-1.358708867421776559e-02,-1.677078159847443864e-02,-2.108555250743083392e-02,-2.376737037145479348e-02,-2.632367448844239594e-02,7.297039825361560303e-03,5.805912811244254811e-03,7.410629023279957997e-03,8.421374946143660514e-03,7.900323760536738515e-03,5.507383801413925917e-03,6.909349899057315968e-03,5.008212001844472225e-03,9.187891175962890206e-03,9.564154849630631533e-03,5.583185476422202094e-03,8.035640260652074721e-03,6.279756947118888578e-03,8.276961269940652510e-03,5.501908566696711925e-03,9.629354111323150042e-03,8.918589436014928359e-03,5.515932591139269779e-03,7.293957920683660605e-03,5.294791111503724737e-03,7.926270960503183083e-03,5.604583804602460834e-03,6.762835154411696997e-03,5.030957937046083052e-03,4.812836953822620736e-03,6.971101435147290977e-03,9.172319267396976047e-03,5.847961744499712358e-03,6.576946664401405601e-03,6.272265074996449113e-03,9.309063559064601270e-03,5.402024056797047162e-03,6.915397155713171734e-03,8.698689384006719552e-03,9.736682642630027293e-03,9.055455899556542551e-03,9.227018987081343770e-03,8.398651531699654824e-03,5.197963496994062980e-03,5.092894498583080791e-03,5.368228501671123108e-03,6.530149241655012690e-03,4.990845867945964062e-03,5.446392160768203858e-03,7.645165103175007373e-03,7.723455389705396155e-03,5.176364039099540584e-03,7.017474434602842537e-03,4.894318956185874335e-03,7.345565262527167620e-03,7.681381121458942009e-03,7.893788716739895406e-03,5.922880610742421205e-03,9.650758987110426984e-03,9.676174393978095867e-03,6.534162802342851489e-03,8.103258410311215895e-03,4.845401670866963592e-03,6.428573993211039381e-03,6.864575677821230931e-03,5.112371980643314918e-03,4.816265321968942088e-03,7.346461702495598461e-03,7.723034725448002166e-03,5.111305564780748226e-03,9.799911720890983752e-03,8.483579821943153937e-03,7.246222458560684296e-03,5.695185299533314996e-03,7.815859929182383467e-03,6.901141743379136419e-03,7.513615351277073799e-03,7.914354584300386034e-03,6.943265774029837301e-03,9.155135383508625907e-03,5.268099805284728702e-03,8.994551485260546958e-03,8.935366813401551117e-03,8.492988824471220388e-03,8.203879142530973861e-03,6.181096614907894207e-03,7.593023562737910050e-03,9.282081046966749252e-03,4.942206727653167958e-03,5.720960687284385414e-03,8.229208347166751952e-03,8.166675952281673631e-03,6.165712631094225765e-03,5.094287028438714351e-03,9.327393768670614801e-03,7.544079960591195538e-03,5.498244830170528896e-03,7.963434941678138382e-03,9.055898071463451202e-03,8.608448461155316506e-03,9.415814414061203508e-03,5.188119835544019107e-03,6.353838093115892274e-03,6.835005362764085164e-03,6.806861754153315305e-03,6.286639540675225193e-03,4.631721510099776756e-03,5.261386593612768156e-03,5.057629588671435500e-03,7.853677998792810491e-03,7.926716071199641986e-03,8.451060583142162852e-03,5.681415039184246549e-03,4.279208017027259434e-03,8.788385738418256349e-03,8.721598108179528380e-03,4.173986638899391047e-03,8.603012827624182887e-03,5.909364231055482322e-03,7.467641846943869760e-03,7.998778690651331055e-03,6.972808306402556583e-03,7.627787521007846697e-03,5.748598094296330022e-03,5.792116281993940283e-03,7.028149430324476601e-03,7.564456371837099957e-03,6.444884219562236130e-03,7.429487011294172438e-03,4.643261359569687483e-03,7.358644152278437378e-03,6.833781055018297787e-03,7.605979785770811824e-03,6.153070077255783435e-03,7.434849777097992177e-03,8.507910949323370386e-03,7.128914289036529170e-03,4.834654891310996225e-03,8.141363790417898219e-03,8.832772647435116822e-03,7.365136391638375801e-03,8.417696152701442322e-03,4.124324489284443215e-03,6.103099292744509907e-03,7.687092385896996186e-03,5.915152832657867912e-03,5.322199324472063481e-03,4.163890811545780182e-03,5.560229390452366485e-03,4.573743643523498284e-03,8.788272011250236604e-03,7.671616433236806698e-03,7.548037914994235389e-03,4.377924509252359084e-03,7.340473434898766442e-03,8.722168961360896033e-03,4.802576049790034315e-03,6.252743410075482094e-03,7.893707837971360511e-03,5.273194675180932142e-03,7.307210494657524757e-03,6.737277994669246123e-03,4.338284420811125072e-03,5.165550721017020050e-03,8.532822565419814070e-03,7.978793148724466419e-03,4.518326485155575029e-03,6.974298571400441155e-03,6.681816203885325434e-03,7.145423982636997517e-03,4.043877347597720981e-03,5.077554306525748976e-03,8.379727483746926206e-03,5.531972588562559384e-03,5.260778327068824090e-03,6.742769022270007906e-03,4.740040809503303851e-03,4.714706657287386776e-03,7.510752701590739377e-03,5.068762747869361152e-03,8.646057188684637754e-03,8.375524230352057384e-03,8.454120761766248035e-03,7.427445700017664895e-03,6.019148951650697688e-03,7.836864167470631790e-03,4.388159556373521022e-03,7.666573185143457300e-03,8.570324320280953492e-03,8.019047517213677770e-03,4.855460016220997446e-03,5.207307132478520770e-03,7.410781711311082917e-03,5.553592645864528082e-03,5.124472793862815470e-03,5.170661536189016805e-03,8.395992781624285820e-03,6.533818179739242851e-03,5.884158948098726707e-03,5.593718917972473337e-03,4.268534787717282938e-03,7.686514972717798863e-03,6.073497858990216380e-03,7.241557789671658821e-03,8.787663679668081609e-03,6.966017238587174018e-03,6.410553788213483456e-03,6.812937409418821574e-03,8.410214178980544852e-03,4.492372445589370641e-03,8.503140918656766287e-03,4.405141871229519522e-03,4.355402202057525630e-03,3.635236756541980561e-03,6.534461193023596327e-03,4.379428803365119534e-03,5.499158986764900343e-03,4.456172325072576927e-03,5.148415314182032756e-03,5.077459013810202426e-03,9.140813836408837392e-03,4.470666596053393151e-03,6.755489751675549867e-03,5.741918245296446718e-03,7.222667213314099346e-03,7.970259432017911400e-03,6.840169964269790862e-03,6.633376912059132935e-03,6.289218420250157655e-03,7.887303984480622046e-03,6.284441168803127711e-03,4.742875968546810157e-03,4.743094210981521099e-03,6.321008805703279623e-03,9.391434170429677902e-03,6.596321783159270549e-03,7.893754997054899802e-03,4.939845555698676310e-03,5.906377500476294937e-03,5.951741330584957822e-03,8.680836757291827271e-03,6.038906355899315362e-03,4.745877963351598922e-03,9.073369505894624334e-03,7.711440122212141410e-03,7.240506587558095779e-03,7.098120787153852813e-03,6.694038785391227125e-03,6.219966128319641754e-03,5.210018888444414679e-03,4.136024849533560983e-03,5.597697369400330206e-03,6.709115778185919220e-03,5.938808759671052907e-03,7.843236105038068479e-03,8.719484369356805126e-03,4.954314547769044993e-03,6.123444269991012642e-03,4.470225952716136431e-03,6.572067581244620156e-03,4.252867603889067677e-03,7.444839732458093280e-03,8.123554444217761378e-03,6.874147182147575391e-03,9.775740562364163694e-03,6.887960901747192805e-03,7.687198283425198363e-03,9.028916209556944392e-03,4.669412821887090892e-03,5.069945003591022625e-03,7.026475296955502631e-03,5.258406237406251967e-03,5.075747659528955132e-03,8.746369047727034496e-03,7.850477800593969394e-03,6.001368708380302314e-03,9.103800090250597360e-03,7.048040945081745709e-03,7.215442349867417018e-03,9.168595436855086697e-03,7.170441491926240682e-03,6.157913626228144963e-03,8.369109284709139521e-03,6.835703392066961627e-03,6.070283296020603098e-03,8.582955613843255491e-03,8.490288627994927242e-03,5.118416290005855900e-03,6.012859781111819929e-03,6.760160696590297898e-03,6.346601246806330907e-03,8.005098589525751554e-03,4.848946046114670921e-03,5.167898689402525281e-03,6.550083132421545030e-03,6.254015095382746761e-03,9.404646888764202003e-03,9.600240805623603754e-03,6.588695865278148059e-03,5.228960599043244208e-03,7.755808377825501240e-03,7.458799865323992480e-03,5.288731129105111659e-03,9.368535445835794381e-03,9.280191200958848655e-03,8.058844491246480030e-03,7.117670077661383821e-03,4.472082148469996334e-03,4.620845233743045913e-03,8.663579957276776322e-03,6.336290871819807817e-03,5.795830880360723636e-03,4.847585351564757949e-03,4.558238865336414550e-03,7.477310714143868206e-03,7.306033713734720603e-03,5.347576787755208873e-03,7.414007546584474966e-03,5.180452029467211977e-03,4.360366454398851080e-03,6.504228269682998075e-03,7.109938347239565769e-03,4.582263716186286105e-03,7.717069452908362735e-03,9.182434826367828068e-03,4.283320065107719746e-03,4.405974491383028019e-03,8.835208243167098213e-03,5.290350264123241594e-03,4.667946206590740249e-03,9.348404365386435780e-03,5.912216884829107205e-03,7.768330115683045115e-03,8.296239341364496089e-03,5.233583746527070181e-03,5.444142924088589408e-03,5.764191968194000773e-03,5.786952736149099732e-03,5.324223861003722635e-03,7.983159006451584147e-03,8.412050705323447994e-03,6.981732716753258350e-03,7.723137926520212693e-03,8.154138486396891525e-03,7.493191742718925165e-03,4.190226459304014113e-03,4.966309875821770491e-03,5.916324393720095304e-03,8.896978929320707025e-03,8.819337692540252585e-03,5.348722931921404827e-03,9.347172174396692346e-03,8.575393384378243375e-03,5.200369777141588754e-03,8.128733148559750404e-03,7.481226540809420358e-03,8.078542176940319355e-03,7.433866139643076527e-03,8.933613272805722427e-03,5.185713817948642626e-03,8.429354110452041624e-03,9.421959185516842056e-03,6.656664412838536431e-03,9.911980328631978324e-03,7.695347402641146937e-03,8.885188395826007848e-03,5.849029835068174712e-03,5.378503342615236285e-03,9.441677145590908135e-03,8.602810103011938186e-03,6.491470174491171564e-03,5.690517006294286244e-03,7.302290778251323104e-03,7.297748588036609592e-03,9.866443251927529967e-03,7.149227324979382132e-03,6.776411901936642106e-03,9.031882756612224020e-03,5.051091459438409800e-03,5.371594517621948277e-03,7.374198801458485726e-03,8.620256365188027139e-03,6.758695056445587247e-03,7.151558699404530518e-03,5.262193437586719542e-03,8.477189987642375427e-03,8.711875678073433341e-03,7.498737004402397828e-03,6.537054473020696005e-03,8.533772826377610671e-03,8.199414140606254425e-03,6.106962907572437843e-03,5.115650475181529773e-03,9.117885169664460485e-03,8.452840811986351080e-03,7.549771051892465411e-03,9.226347753796763917e-03,9.428823512427074102e-03,5.673795731909070383e-03,6.013133916111718970e-03,4.760582919671461563e-03,7.142320698446672639e-03,5.696526977135105835e-03,9.262414692674872385e-03,7.131326089327549161e-03,1.062922660053677686e-02,2.734176257275641037e-02,3.904961571703352563e-02,2.683842000296878666e-02,8.844106263743533106e-03,-6.779807235718771433e-03,-7.495732804243223843e-03,-6.765600164529663417e-03,-4.601191863318874857e-03,-1.112223409166536014e-03,1.114854635346223567e-02,2.480779233806504336e-02,2.202625386545840544e-02,5.501568426164076334e-03,-4.118001349856907807e-03,-1.401364797038112675e-02,-1.036787498540192934e-02,-1.787172756985783151e-02,-1.323840518010416592e-02,-1.490673818213578139e-02,1.037851764884537183e-02,7.212245913339174197e-03,1.857157863639257453e-03,-7.123447121740358878e-03,-2.144470822990352313e-02,-2.417870262441071394e-02,-2.240080991347940739e-02,-3.044643348052158971e-02,-2.692390129138364299e-02,-3.300607329413505348e-02,-1.380612664477680156e-03,-1.174084066619347604e-02,-9.253506330429229002e-03,-1.754559813320266670e-02,-2.431257857105714043e-02,-2.594403751726932078e-02,-2.636914085303134272e-02,-2.521161508399796802e-02,-3.165878075587953006e-02,-3.410920116290507009e-02,-1.430066608956660767e-02,-1.629151645205214813e-02,-1.553559621600601043e-02,-1.473443816714653347e-02,-1.414143720860522660e-02,-1.398433849447194149e-02,-1.370762335606594620e-02,-1.553302754717371739e-02,-2.348481972599871653e-02,-2.672376585195180426e-02,-2.463343336350453522e-02,-2.840077111194180132e-02,-2.547667517018411404e-02,-1.787553301382264342e-02,-1.511601442085955260e-02,-7.815327191666813014e-03,-9.590735343056577475e-03,-1.278766050845243918e-02,-1.730449537689773484e-02,-2.348307579028275846e-02,-3.018298630469006330e-02,-3.803147015874840109e-02,-3.417890235010647565e-02,-2.464895897136683278e-02,-1.417956424428909457e-02,-7.333087743422593736e-03,5.675565310736209370e-04,-5.954797211624793599e-03,-1.146179853981765806e-02,-1.987487626468607826e-02,-2.820093030765951150e-02,-3.980107582783579123e-02,-3.618209465803968322e-02,-2.747101188233397329e-02,-1.408154650333075415e-02,-6.719824607970902898e-03,-1.012711473643601459e-03,-3.090185340689287179e-03,-8.797298555909927736e-03,-1.830558040359530833e-02,-3.195934362937506018e-02,-4.308103959780149733e-02,-3.788801169316908385e-02,-2.812110672062040004e-02,-1.671818554657943795e-02,-9.025218577100551157e-03,-4.080463317290929093e-03,-7.841957670714033019e-03,-1.234426502417294846e-02,-2.136365573926073125e-02,-2.696958623954584869e-02,-4.358845585155327745e-02,-4.101582201303569791e-02,-3.454370391912249538e-02,-2.560283187339626801e-02,-1.665146495729527901e-02,-1.209357389811986823e-02,-1.662411245375110605e-02,-2.354518937758106820e-02,-2.933838972341203458e-02,5.294369009794012981e-03,6.755814635397251050e-03,8.230763480590423675e-03,5.817369672588631677e-03,5.071477335544822412e-03,6.316554065666244409e-03,6.808883643475246127e-03,9.307036804757687007e-03,9.261710534335819769e-03,7.237657033059063938e-03,6.791087991162126671e-03,9.109305835967666451e-03,6.930039146380535114e-03,6.785002758833896808e-03,5.256851374348766280e-03,6.486652776863323540e-03,5.895177779237196179e-03,5.326722087221760944e-03,5.713791262633095142e-03,8.524580320494915681e-03,9.490838908515323441e-03,5.230748388761760105e-03,9.607367497954856506e-03,9.653783586103368078e-03,7.837095770684325904e-03,8.327223086000330038e-03,9.368847032712474682e-03,4.791268696437521804e-03,8.903675763658318656e-03,7.265204820689969041e-03,6.698574629376678052e-03,8.114673070931392035e-03,9.254998462773255871e-03,7.823795035287652716e-03,5.799281043413166171e-03,7.849461190248150852e-03,9.452604776860728392e-03,5.178722483373105617e-03,7.281204359814249030e-03,7.522687206974644145e-03,7.362631647666120077e-03,5.438507477430648378e-03,9.080227133054910582e-03,8.073257628097877878e-03,5.717256688459548472e-03,6.037811060035205672e-03,6.597476181368681913e-03,5.689164466879146481e-03,7.466948458915918449e-03,9.227711311651889611e-03,5.087139819798685604e-03,4.825594476130129137e-03,6.799299175828336234e-03,9.250416438772291958e-03,5.627771581194831139e-03,8.788742306955232494e-03,4.904066761009540434e-03,6.386279756688066286e-03,9.369397090580338164e-03,9.432538145332890547e-03,9.009627646927772723e-03,9.022569142683475527e-03,7.077846033767093772e-03,4.869278285591450116e-03,9.489538398434988614e-03,6.503489687495107169e-03,6.511638577680441825e-03,7.967768395998600303e-03,9.276905043327125094e-03,8.415805392410378657e-03,5.062375152992514525e-03,4.933338693498587335e-03,9.256608415037365090e-03,6.033186600427703494e-03,7.266619935198201201e-03,5.568353991016191697e-03,8.524265369498977910e-03,8.740993756126759148e-03,6.686165458907307978e-03,8.175242132500683268e-03,4.908621666482820486e-03,4.971770126289310095e-03,8.912667351531702170e-03,7.620618811748436708e-03,5.007475113788710172e-03,7.409610825339977419e-03,7.559290212871717408e-03,9.427323663106845081e-03,6.089106493093785800e-03,8.968175869691778768e-03,8.630311851493576922e-03,8.401542923275572006e-03,6.060416012469801994e-03,6.399718810763279850e-03,6.375705913491189550e-03,5.066939432012386273e-03,5.255116871027730625e-03,8.849700400416063428e-03,8.696684889374153848e-03,6.380484458624577186e-03,4.708552944449698532e-03,6.916187382277319898e-03,5.343081520819666433e-03,4.961178855608582364e-03,4.327863548795938750e-03,6.309898166753933127e-03,7.328014579862507719e-03,8.093691005940635216e-03,7.842628311378599046e-03,8.307615798418476263e-03,4.368175598867677853e-03,6.095161600807039518e-03,5.506280428741157709e-03,4.718315405378890881e-03,5.000183861753848893e-03,4.266209760729633774e-03,5.242527803450709040e-03,7.773430307054390170e-03,8.635530110662573491e-03,6.942664864426715404e-03,7.096688900658149057e-03,5.632690376073931637e-03,5.088128937366992108e-03,6.047764115229012707e-03,7.369295660827885133e-03,7.654746233054713148e-03,6.952945496704355036e-03,6.589098984962122110e-03,7.277156892599860247e-03,5.666659762800630926e-03,5.598636064286387562e-03,5.919537765661904427e-03,4.786524765387184521e-03,6.073377942676982943e-03,4.660418441791564642e-03,4.818286326500269279e-03,6.225433940560642226e-03,7.315070714692926274e-03,5.110818966729199775e-03,7.449068348865946210e-03,6.222982893953888511e-03,8.515168518396018862e-03,8.770277328693339841e-03,8.670583873289988003e-03,5.195075575067716056e-03,4.684670690045729044e-03,7.814045333867267532e-03,6.823578365773661641e-03,4.006909382434867967e-03,5.069854287652282576e-03,6.804716792280448429e-03,6.886018548564999675e-03,6.469269744087530888e-03,6.720992741595170974e-03,7.270215249270673558e-03,4.128697785136118195e-03,4.747563029497792880e-03,8.548372191438400117e-03,4.608182274956422811e-03,6.385056461081282594e-03,6.858398182460544862e-03,8.784709994374398714e-03,7.698995496502308161e-03,7.046354834089772409e-03,7.648921589766249224e-03,8.837634870508948373e-03,6.682901698069766694e-03,7.918497098125219791e-03,7.846371985690155787e-03,4.795137817415690354e-03,4.330181048157194165e-03,8.748267367921993762e-03,8.322078335907817301e-03,7.561886906911728309e-03,6.242038908994674770e-03,4.800822852069584756e-03,7.638774010820069751e-03,8.509668988803075623e-03,6.356347676616965620e-03,5.243662888073732237e-03,7.224576446961041010e-03,8.438687822975151839e-03,6.649898649190532501e-03,4.964226855869880578e-03,8.703278461738241448e-03,4.176918344571482408e-03,5.708410081466578842e-03,7.300124834817617661e-03,8.645077920802277452e-03,5.401404457104174231e-03,4.389511247571848893e-03,6.927319376815954666e-03,3.944201699293246183e-03,8.809027045104165718e-03,6.618737327344604085e-03,7.086807803114495569e-03,3.985799455741990960e-03,4.371103325019956576e-03,6.053641264394451008e-03,6.206090238786482818e-03,6.820755870045890762e-03,4.727905695728518327e-03,7.332688522012221176e-03,6.187562337022786164e-03,4.789004307412247918e-03,6.109345777674865009e-03,6.053449548502088176e-03,5.297152658721733694e-03,5.253393653085661370e-03,7.928117327211266913e-03,5.792698369445530363e-03,4.985697730349323425e-03,7.240916399633316909e-03,5.687429400594114226e-03,6.479585071939950036e-03,5.991225865064857617e-03,6.399408608750365747e-03,6.178279126233014555e-03,5.157657777453627905e-03,8.499854951790676919e-03,6.575120066508873332e-03,4.933626686158669797e-03,5.122750928108239267e-03,5.053093985200593670e-03,9.706983126520610586e-03,9.455842728518333226e-03,8.550919537891606831e-03,7.624040141694677156e-03,6.098288803500983082e-03,7.014808901129685609e-03,9.110450340601818423e-03,7.902405382498714492e-03,5.683361799120333763e-03,8.286081873636341050e-03,5.409278491746368454e-03,9.303100308858724965e-03,8.599055418833543782e-03,6.655529959136404286e-03,6.371342711559732468e-03,5.278309628777168479e-03,7.561923156577381178e-03,4.680036990533408166e-03,6.768688064127388430e-03,6.637425310150987974e-03,4.347007353437006179e-03,6.945354221881294525e-03,8.890490238668143433e-03,5.842336377328115858e-03,8.630562888634030552e-03,7.023816230707300920e-03,6.711569332534797136e-03,5.679458678062501188e-03,7.603501746099997245e-03,5.376521880406884106e-03,8.111976897845377815e-03,8.184168327122577635e-03,6.462758700944287726e-03,6.555432435813604748e-03,6.919980683243896410e-03,5.586147091758414743e-03,6.504791149169288252e-03,7.145627204983139719e-03,7.537032411295586931e-03,5.238876836844832095e-03,6.568373888606164092e-03,9.106383585357062313e-03,5.571492913970134755e-03,9.017598066816828045e-03,8.600565362204999620e-03,6.043171117627714820e-03,5.839141266338379252e-03,9.163308151756217185e-03,9.017299334409447503e-03,5.748116875799112215e-03,5.031369694082445110e-03,4.906763860829912310e-03,9.132578010806070151e-03,8.854906547604585870e-03,8.127437956800195873e-03,6.417984159230521839e-03,9.087936777595643709e-03,8.478241717159646848e-03,9.294767665302744106e-03,6.515565558854411604e-03,8.092050198255720805e-03,6.584274793228286210e-03,8.610887702644880876e-03,8.906269214334877615e-03,9.505589275183343179e-03,5.536354345089019267e-03,5.671312427888947766e-03,9.565379014172004438e-03,5.598663459781832649e-03,9.504003697369086540e-03,9.122661616882904792e-03,5.215459084004302193e-03,5.290395946654831601e-03,5.391146497199189244e-03,5.451414849535774106e-03,8.918908950288850779e-03,8.546625799726204065e-03,4.660755248985397337e-03,4.767576265930463346e-03,6.747244963879826113e-03,4.877365990050669745e-03,6.391793192896958603e-03,7.624467933857725747e-03,5.147823389513051309e-03,5.865418144090733983e-03,4.969449140652920649e-03,8.558109326403877393e-03,6.585698737402607798e-03,3.877625913006316379e-03,7.815376629451630322e-03,6.887165483554641421e-03,5.346824239268036828e-03,5.295092531148571681e-03,5.078669237274644442e-03,9.115679502100597006e-03,5.314407306046662130e-03,5.824105347360536596e-03,8.686828223131206825e-03,8.493010070431385172e-03,5.801100589168662648e-03,6.431742208605114794e-03,7.229000084184866726e-03,7.157613019129782997e-03,7.902438102676018206e-03,5.869619419843168442e-03,6.554720257538156590e-03,6.480087303666001025e-03,6.566540904437586507e-03,8.745492509721959629e-03,8.830906951135393881e-03,6.629739788487243324e-03,5.848869419405986966e-03,8.074050110499778748e-03,5.436555820007419638e-03,1.019334797732286864e-02,9.173133800256083603e-03,7.100644691352559976e-03,6.276562140844754549e-03,4.702684109374708453e-03,6.671604030496273291e-03,5.437591514494105605e-03,8.996239604494457587e-03,6.826280606481439396e-03,6.033000590049679424e-03,7.091785891096213934e-03,8.173290568492736982e-03,7.815274662654560223e-03,4.474525619584527811e-03,9.201825676897970249e-03,8.976809159780753389e-03,8.428005404865481984e-03,8.778854412105911026e-03,8.060163308273903329e-03,5.461033304572635028e-03,7.689396844431437353e-03,9.012601741726942312e-03,7.625680131282225674e-03,7.041033202815048103e-03,7.998717799163694228e-03,6.702111791328529793e-03,6.121133478440998581e-03,9.827035350101088335e-03,6.707367882890749762e-03,7.893080256810305895e-03,8.811904780912318061e-03,5.882311740380822933e-03,4.334511091115744383e-03,4.986554169168461170e-03,5.357725868779403267e-03,7.064225036951086653e-03,7.922833857323936455e-03,7.165593992187656303e-03,5.276527357131782087e-03,6.539291025952409520e-03,5.494105651135605499e-03,9.692458562315577064e-03,8.015944105367258862e-03,9.139835147853813194e-03,9.141191489177517837e-03,7.661023532356056251e-03,5.313591684317259430e-03,6.855903658367318992e-03,9.440543735455993873e-03,8.460626724592745784e-03,8.416323527662481277e-03,9.687961618917400111e-03,6.846434525269441858e-03,7.384809390796983307e-03,6.610162081247799443e-03,8.692244915590152318e-03,9.324102515718947493e-03,5.512475427704050315e-03,6.750415876389710863e-03,5.947865321112412798e-03,6.119178494663110243e-03,7.095158218690254120e-03,1.119463122741836715e-02,3.114850003071997428e-02,4.009782290732653159e-02,1.911516331171429425e-02,-9.612524190570652036e-03,-3.157799305759206171e-02,-3.547336621636149046e-02,-2.973052814015102532e-02,-2.693827445158756412e-02,-2.469429982977858901e-02,1.644162300539886087e-02,2.643965790704008029e-02,9.160319952209948144e-03,-1.413759129852814114e-02,-3.041414094001371887e-02,-4.094615909047771146e-02,-3.847889599687653178e-02,-4.086412780951995116e-02,-4.342535610504390242e-02,-4.824662549205919332e-02,1.150642499458332836e-02,6.098260269822304135e-05,-1.568098036601935780e-02,-3.070526551296471132e-02,-3.718879213031998920e-02,-4.445516642265241736e-02,-4.274690844110783094e-02,-4.073121520412389951e-02,-4.348083374846291316e-02,-5.342801124373166427e-02,-3.574883914992489815e-03,-2.261550424013131222e-02,-2.296472160672190926e-02,-2.511463494118159473e-02,-2.743499319483841403e-02,-2.570833123646031754e-02,-1.910821804337865110e-02,-1.159664868930589468e-02,-1.743351563766336668e-02,-3.074746746210553147e-02,-4.099380102607899298e-03,-1.053684035164318376e-02,-7.894348234933849101e-03,3.043819838191935689e-03,1.467621756451542060e-02,1.671100158115470385e-02,2.348536034093528374e-02,2.466134965043578070e-02,1.851711347732829319e-02,2.844857489842049850e-03,-8.272188244275488489e-03,-1.130330598893496477e-02,-4.931757240021395275e-03,1.548544687446158641e-02,3.157787854089128682e-02,3.996805430850362828e-02,4.510345353622470521e-02,5.017818742144373317e-02,4.255873416929991521e-02,2.236081536797557626e-02,-1.022204947465404218e-02,-1.930327484524062970e-02,-7.248192665389856584e-03,1.448956986033175451e-02,3.345554818653507373e-02,4.714563927903404894e-02,5.817617549370126401e-02,5.994969978377671926e-02,5.515369451182400296e-02,3.421362323547207790e-02,-1.529817318416935336e-02,-2.273399025339007187e-02,-1.025394268299798482e-02,1.371802463145760376e-02,3.295842160187452408e-02,4.879397887497048669e-02,5.738638250573202537e-02,6.396439932169681319e-02,5.655192759483284454e-02,3.590478619959083795e-02,-1.757657889477784452e-02,-2.077158859514315753e-02,-1.505270907409125662e-02,5.559782962086606654e-03,2.315421790319804538e-02,4.280330134756141214e-02,5.029617152024090654e-02,5.130395776663573826e-02,4.275539556523409723e-02,2.473211543077646901e-02,-1.514291411911634737e-02,-2.328170545028177690e-02,-1.877935859192357906e-02,-1.339395249797000961e-03,1.137150089262134109e-02,2.532406375426648690e-02,3.110143177356250802e-02,3.521656556753433726e-02,2.310108616982637503e-02,8.442416374954780228e-03,5.284949888922367729e-03,5.767958742429185083e-03,7.224176756403922692e-03,7.121339915307244896e-03,6.272863457146823918e-03,8.930634434972349600e-03,8.107608802047196542e-03,6.100126045287099577e-03,7.294614177183139300e-03,4.876588095168960663e-03,9.419854287728223266e-03,7.557689744203146404e-03,5.372580503909174868e-03,4.725269438130034680e-03,4.870522655752810084e-03,8.037580469605506289e-03,5.524562151588009729e-03,7.294419523733624948e-03,7.434050889788073289e-03,8.536883497025521753e-03,8.400226351167413077e-03,8.583256792052665687e-03,7.018369508338090368e-03,4.964906429500599849e-03,4.713432761663000070e-03,8.184287613014006035e-03,6.167143738781190668e-03,8.223374333421514665e-03,5.780437109562304790e-03,7.930924420348428594e-03,8.875936415211806846e-03,6.570683882003647107e-03,6.495706033454073242e-03,6.533797791906845696e-03,6.515120945510181547e-03,5.731984392245511109e-03,5.910631286211300711e-03,4.953389625328758275e-03,9.309006598727539647e-03,6.640188953544257436e-03,4.916631903934470110e-03,6.170754852799286566e-03,8.851279208744657068e-03,6.289325339721769069e-03,6.246841835710115198e-03,7.309873536204719233e-03,9.738181577363872257e-03,5.431651765013555989e-03,8.590987470213319252e-03,7.424279982498776555e-03,8.494316216526303850e-03,7.916334519446252202e-03,5.658067128166818435e-03,8.886833102486710323e-03,7.514437207506838648e-03,7.995848773315125321e-03,6.443720577461849175e-03,7.874421946691054913e-03,8.383371997786479013e-03,7.293427043080776689e-03,6.910077415111041607e-03,6.585764302661595467e-03,8.506595746873540920e-03,7.771036558281608705e-03,7.014087011298205873e-03,5.189159545439513480e-03,6.788944863828349878e-03,6.983316032978422773e-03,9.529309672486477659e-03,9.069109541747558817e-03,5.308758818498054283e-03,9.175994191998382288e-03,7.557006692381809665e-03,7.859518958295588081e-03,6.521450905670515830e-03,5.180330875003277651e-03,6.333593264481868039e-03,5.227414353947062303e-03,6.734783272621670293e-03,8.681917134030972885e-03,8.882683646014058812e-03,5.271041716118906977e-03,7.551679831224487188e-03,8.215146239046441923e-03,8.134170793022815413e-03,9.654043125068029890e-03,5.906448643588392555e-03,8.097253405163370304e-03,6.815968491671747960e-03,8.815866132017501425e-03,6.634383319796295989e-03,6.821909367489095710e-03,4.901205867073621728e-03,6.080741121008295148e-03,7.884188367746878395e-03,5.397142207856798352e-03,7.072194956716678499e-03,7.800256700284894512e-03,8.445448599114824956e-03,5.590158471658596313e-03,7.390781149572762943e-03,8.822626664944105065e-03,8.862391753278847997e-03,6.692066415322142983e-03,4.811030276288744481e-03,7.954490539422782308e-03,8.517024975758354099e-03,4.224014352849109200e-03,6.759953353804838694e-03,8.376494071866569940e-03,8.669748284031919203e-03,7.856657054426551337e-03,4.389856555922760223e-03,7.062362641855174025e-03,5.655488878394458047e-03,4.704203721840369279e-03,7.280456562531147785e-03,7.419211960181720800e-03,3.898970118199025087e-03,7.838176951511162047e-03,4.025680176624796616e-03,7.303450077137891086e-03,4.862279130099940103e-03,7.089248836159118758e-03,6.118800403131422969e-03,8.685494178272181939e-03,5.449761055214838792e-03,4.842210984229666088e-03,6.200706870813713079e-03,6.705788205599416685e-03,6.401124472794405412e-03,8.001307298557389786e-03,8.725744271795345466e-03,7.972461694846775734e-03,8.023487667966526862e-03,7.510287361677643603e-03,4.279975688032117490e-03,6.449239041281069548e-03,3.942363303225728324e-03,5.543879506981789704e-03,4.768902335233580689e-03,5.763304554850039521e-03,5.342446681443867307e-03,4.429378065048427890e-03,5.486144176859936508e-03,5.087650125935924000e-03,5.230565025497005069e-03,7.303064312067945874e-03,8.657558603710072478e-03,5.984245460006674261e-03,4.494011989533924431e-03,4.822724064579694478e-03,4.829283245200722760e-03,5.525575381276697298e-03,5.822409446902376828e-03,7.218768168458985016e-03,5.653875308802777666e-03,7.056357758674601521e-03,4.998896808709732062e-03,6.851467890995655702e-03,8.288835883445595798e-03,8.717780612448910657e-03,7.385571990416527066e-03,4.912248929628134156e-03,8.718201456900000548e-03,4.402808635818043423e-03,6.663439484103635818e-03,4.655509400595465169e-03,8.742050901799343007e-03,8.590908666775410457e-03,5.655270963556661978e-03,8.572886182780027273e-03,6.919085781526257070e-03,6.594879058429314878e-03,4.045037101202127866e-03,7.973243466329434787e-03,6.698792742804401609e-03,8.114689327774112990e-03,7.484613296729678358e-03,7.781850146328461379e-03,7.942312009560638722e-03,5.406687759339114455e-03,5.850454993358452510e-03,5.547699978624200459e-03,6.144557861875817387e-03,8.491443381340234992e-03,4.691393923759328011e-03,4.001222401250536728e-03,6.382195868393598578e-03,7.542596959511191357e-03,4.272447065671170288e-03,5.469812829954170605e-03,3.894330072219934560e-03,7.468117672383652039e-03,8.365513653659487417e-03,4.988354973088840807e-03,7.127537750976123063e-03,5.667501709565467283e-03,7.523152597808221292e-03,6.913920821226229863e-03,6.169141198992603159e-03,3.196819369037965167e-03,3.943901619920977056e-03,5.218129360711524188e-03,5.574399431912273155e-03,5.875580094499487267e-03,4.468043956355559516e-03,5.824794663276917223e-03,4.577273060963463203e-03,4.839633578074395079e-03,5.838022663866666503e-03,6.411445821412746840e-03,6.980074868955359231e-03,8.059575341718023048e-03,8.788828226842288274e-03,6.317366409118307415e-03,5.896485931878109321e-03,8.265812384713546596e-03,7.714220109966254783e-03,8.928041864395091370e-03,6.374774131217298030e-03,9.456968847255215263e-03,9.587445204534217683e-03,7.723610143027905169e-03,1.006596214051997881e-02,8.957763597399451619e-03,8.964702675311827032e-03,9.244231777912928841e-03,7.849186946250712518e-03,9.851422425515121706e-03,8.148261670189236097e-03,8.687682904015531227e-03,5.553523261388029590e-03,9.398537688732564246e-03,4.940935364040180411e-03,5.719232117190620364e-03,7.107397587882686649e-03,7.809476744773807821e-03,5.268711782455160267e-03,8.486217649842456648e-03,6.922537104974187637e-03,8.294531173135241339e-03,8.333040203940702759e-03,7.705319448846103050e-03,5.837827246360411532e-03,7.586096592163215670e-03,6.939253318395921868e-03,9.666716345393209370e-03,6.427597186496164169e-03,7.442037781906794824e-03,9.209732424296759173e-03,9.049597214820062283e-03,9.307043425446760374e-03,9.137838812433627875e-03,6.129586063014327499e-03,8.355738499972141520e-03,9.055696354965586670e-03,7.674519989889964575e-03,5.461311096307497510e-03,5.977446642702875269e-03,5.597221652817850439e-03,5.406584528913332272e-03,9.405736397352825601e-03,6.974857751154218792e-03,7.145308821006610307e-03,8.767852883404521000e-03,6.009015656970047303e-03,5.711650529934469110e-03,9.301995440263092010e-03,6.566604489098541372e-03,5.291303760634706067e-03,7.692362993155432357e-03,8.236054961100351679e-03,8.863508011725067942e-03,8.144620295316437955e-03,5.954338097004657770e-03,8.200919039402791016e-03,7.611732859155864034e-03,6.990981633824360462e-03,8.603509157758468251e-03,6.030989187395831112e-03,4.890403888189050717e-03,6.223151754028026332e-03,4.918638960528833037e-03,7.005806769231574110e-03,7.591322895622772300e-03,9.516388901848195706e-03,7.423712596930428544e-03,9.087820738589158509e-03,7.856543889735811623e-03,6.821692602573526526e-03,6.286409609206684845e-03,9.153546610023759189e-03,6.214197453161027229e-03,5.546881724785008086e-03,9.004165636508628529e-03,9.178067701709587828e-03,6.860327702597303519e-03,5.376949860176629369e-03,8.712594554934288346e-03
-1.074640226301002040e-02,6.764891330211515556e-03,1.126306725850274859e-02,8.462654023613578116e-03,8.234340500701686424e-03,8.786586786474374217e-03,1.049147145180680772e-02,9.874221652856425904e-03,8.742692070503982685e-03,1.117694736633127739e-02,7.554410094973425076e-03,8.774429492336558931e-03,1.112254386738921463e-02,8.542842344113569381e-03,7.644045433211614504e-03,9.882053971645756926e-03,7.333053637545645584e-03,7.401947329334545612e-03,1.064874623012922704e-02,1.044427399573212220e-02,9.546250189933928876e-03,6.335187642897110484e-03,1.011944063032161299e-02,1.012922590964017953e-02,1.080853390873935324e-02,1.007906574575711742e-02,7.750106643469274921e-03,9.650465996573135211e-03,9.041103261163502269e-03,7.974733814176791433e-03,1.035828421233229470e-02,1.043790119829825225e-02,7.417998068510697415e-03,9.423468456289963227e-03,9.293398101606793749e-03,8.666025271666957103e-03,7.605481997032875405e-03,9.473618763824569189e-03,1.045343088947715479e-02,6.821006968658063600e-03,6.959116016482899680e-03,1.054760231887366673e-02,9.923105444278332646e-03,1.104120946532831903e-02,9.230509525437784885e-03,1.020914788081007073e-02,1.046933808686336363e-02,1.007470914546063252e-02,9.217779987156048474e-03,7.345963946679746372e-03,6.956135851482601884e-03,7.710070179233315980e-03,1.008910388068060687e-02,7.174103401776722386e-03,8.438374458949054330e-03,8.441078652149977546e-03,8.122260366686845021e-03,6.774003370475454797e-03,7.032438403698871437e-03,9.142508833984944183e-03,8.225697040334965099e-03,7.024692291617441048e-03,1.072947917167240209e-02,1.023798958055805244e-02,9.069661195448712465e-03,7.766880159793784419e-03,1.036628986674628834e-02,9.598178806593358689e-03,1.036577036430679465e-02,7.839661527891618811e-03,8.319890119339602361e-03,6.837961470344133472e-03,8.174892964079869331e-03,6.667147301881812954e-03,1.021916003416558326e-02,1.089774432202332902e-02,1.076589579667315034e-02,7.734075891855166952e-03,7.663781958241454653e-03,1.065924094171561212e-02,1.040526016516850859e-02,9.079942858820829257e-03,8.655864923661415675e-03,6.084371952176622148e-03,7.910038590518687213e-03,7.191214973485867898e-03,1.050154108991415737e-02,1.001745885184840423e-02,1.046916532541849326e-02,1.028922256622098914e-02,1.014158555204605974e-02,6.711150819595144285e-03,1.080603548383206325e-02,7.467786812928052693e-03,7.577773366023395074e-03,7.083248961190238835e-03,8.697529360504866261e-03,1.089446324521820518e-02,8.105941213789196603e-03,8.671108811958984711e-03,8.892879662084501174e-03,9.961862531380637556e-03,7.475921952739744691e-03,8.806992449563389586e-03,-5.687343108301335000e-03,-1.493134516640998513e-02,-1.762609824522835475e-02,-1.472542367274436506e-02,-1.380224231191446924e-02,-1.077493260631327485e-02,-1.105997192276658020e-02,8.589362237293273264e-03,1.054583167001474711e-02,2.794630411708808743e-03,-5.879615302040735667e-03,-1.166832400823139895e-02,-1.341901580533729106e-02,-1.467600755857980527e-02,-1.357839367129031263e-02,-1.209728475443366466e-02,-1.276254902311056705e-02,1.612803391217038432e-02,3.302859158117463136e-03,-9.890046616962158005e-03,-2.017576143299548361e-02,-2.386103638501796409e-02,-2.488055890973180778e-02,-2.473899127028731174e-02,-2.302671192558414237e-02,-1.950844935456834406e-02,-1.956961982757388432e-02,1.420646239613952005e-02,-8.531601326410009900e-03,-2.142690997319635429e-02,-2.829115594974164830e-02,-3.347194413694801196e-02,-3.074496157809434790e-02,-3.574472913973811977e-02,-3.456897435233174248e-02,-3.310259971978095350e-02,-2.968298741886272671e-02,1.183949980001204431e-03,-1.810906893872885060e-02,-2.807121100694202551e-02,-3.481342085329081765e-02,-3.228849763162314895e-02,-3.630055740917394191e-02,-3.806320598043810149e-02,-3.863960737815871210e-02,-3.612179887777747928e-02,-3.632388480310211332e-02,-8.813711432102295032e-03,-1.933744654573445534e-02,-3.045742970427136459e-02,-3.293471637200327817e-02,-3.648662392721133130e-02,-3.558753393454429370e-02,-3.817727420185756948e-02,-4.201970102466966173e-02,-3.948372068895539960e-02,-3.799227690008135511e-02,-7.451892074837164134e-03,-2.145490396728779239e-02,-2.816011452351220926e-02,-3.416651539196503135e-02,-3.832825365301647386e-02,-3.393538915837415043e-02,-3.494962872987411595e-02,-3.924666548166875352e-02,-4.007611321555459155e-02,-3.830901961209410428e-02,-4.137310328759284499e-03,-2.059046928959188186e-02,-2.939036864827183904e-02,-3.289303234108240798e-02,-3.203722245348721021e-02,-3.214355227471829557e-02,-3.581587203217528187e-02,-3.727964545978978278e-02,-3.991439530752871612e-02,-3.923001432863602173e-02,-1.564841000146980493e-04,-1.870374933227648626e-02,-2.796403271900614607e-02,-3.266393608590364289e-02,-3.182192760667098413e-02,-3.004879201852251117e-02,-2.753024871028167397e-02,-3.432024708978688443e-02,-3.411466349764691319e-02,-3.326416390428772740e-02,-2.074220895887037182e-04,-1.441989847578093419e-02,-2.663443889014690397e-02,-2.788052855211312422e-02,-3.082352294485354860e-02,-2.670600348567650148e-02,-2.801842442409217468e-02,-2.948494437774207277e-02,-3.403758118821932632e-02,-3.086588400857905728e-02,5.818199256791880755e-03,5.338251074742852986e-03,1.002756222026786673e-02,9.308323999246087208e-03,5.880079654777346787e-03,8.288879307900592908e-03,6.928260911272638399e-03,8.700287634662445119e-03,6.480438327718416464e-03,6.229775943092653347e-03,5.573423879534452306e-03,6.963737614520079146e-03,6.496045905371565683e-03,5.718525158260159662e-03,7.657166196639725309e-03,9.554443765058867957e-03,6.899863405092836015e-03,6.265158779307417915e-03,7.662084887367802064e-03,8.350236880539674625e-03,8.794204209503872494e-03,6.049355712886061998e-03,5.473128578035802230e-03,7.726615503937161143e-03,4.931660418215835263e-03,5.427868030987164846e-03,5.923071065103487076e-03,4.991930401962048174e-03,8.825530284796750252e-03,7.528706724894538953e-03,6.854308212734485338e-03,8.108155091187629199e-03,5.846731771630760133e-03,6.847367141368214047e-03,6.345578717355432156e-03,8.553720160637325390e-03,6.683891120378340073e-03,5.378390755205203315e-03,6.252784806077186716e-03,5.502989386944350490e-03,6.797328549338125386e-03,5.843184187093016825e-03,8.808987335679759056e-03,6.637882747097241173e-03,7.860421867772377641e-03,6.860688902895725402e-03,9.142290498284551606e-03,5.616191549271259097e-03,7.149473432918677408e-03,8.568367644973743161e-03,8.079645903745978977e-03,5.481530216220585790e-03,8.993843656590940969e-03,5.390535202537276999e-03,7.925470156785555456e-03,5.156205137247646050e-03,7.187944295523034793e-03,6.065631834452503771e-03,9.559679258672420035e-03,6.993462804244778182e-03,6.187654147926313457e-03,5.663215480090609717e-03,6.598138204792955951e-03,8.609785867867526116e-03,9.154975607138236479e-03,6.266689008093065914e-03,7.548308094291761132e-03,6.497724173183370283e-03,8.000732479423381185e-03,5.330048346904566262e-03,8.953678358132564907e-03,6.039759852197035608e-03,7.486987502508150177e-03,9.685607492420355083e-03,9.175697615710328228e-03,6.912854153429504739e-03,5.166315239101620764e-03,7.305512804352013063e-03,5.910308624234210731e-03,9.603457502418802014e-03,1.012366085022205556e-02,5.686471826644136189e-03,6.209519087686655829e-03,8.250584043691149699e-03,6.477317686781962694e-03,8.509071814289791841e-03,8.005325709515795710e-03,5.487586395641524777e-03,6.140065564390301961e-03,5.584766244703621638e-03,7.324919710724605085e-03,9.753488015603340930e-03,5.626523600327717686e-03,7.248017533290224308e-03,5.629727142090769007e-03,8.521284468402896828e-03,5.035905292921427807e-03,6.027502749655401677e-03,6.365588325369035683e-03,6.490550742357792738e-03,1.123429485973946595e-02,1.117894530253423641e-02,6.855521568147563555e-03,9.753782881725236997e-03,1.058887116340890069e-02,1.097042592619614648e-02,1.092555966384723548e-02,1.041039170514530821e-02,1.130194906553418782e-02,1.077671277684625131e-02,1.065273930021620047e-02,6.450552521623452787e-03,1.058226350602170171e-02,1.001633845278195739e-02,1.082271191426754237e-02,8.809748187671134767e-03,1.042028818497462567e-02,1.114084778694153510e-02,8.516698891287475745e-03,1.134833063595404659e-02,9.185301998517549776e-03,1.015385905030257233e-02,1.104205551863125800e-02,1.081561997127850755e-02,6.894404400655826035e-03,6.764568432688118291e-03,8.756679867800636757e-03,7.577520984648169339e-03,6.913647884499525900e-03,8.675312645838997860e-03,7.079269667613892134e-03,7.324480059890432423e-03,7.745847605107859801e-03,1.132773896970206209e-02,1.021340269147711505e-02,7.533006903150422581e-03,1.024989270030035593e-02,1.079279380488144466e-02,7.911886286271860302e-03,8.572971801353091933e-03,1.055366116989907982e-02,6.696216540946219736e-03,8.307120643697256390e-03,8.457218914222493569e-03,6.606759403026331301e-03,1.142131255948422575e-02,8.163441816331402229e-03,7.363687259068003865e-03,8.419639983903286565e-03,9.924967901627789607e-03,1.122487291298803619e-02,7.932698933419374959e-03,9.952804814166944791e-03,9.009224821493334867e-03,1.008817774004172260e-02,9.740488935758108424e-03,8.867360838304205045e-03,9.077210237835302287e-03,8.544116684448705215e-03,7.838140544024334647e-03,7.437730684295340913e-03,8.751596324066704402e-03,1.127858326377850079e-02,7.168843824822595037e-03,9.690534184390430655e-03,6.928159630786060244e-03,8.769762264852452860e-03,8.017812127769800845e-03,8.294388608650046790e-03,7.752970576638408551e-03,1.001636500425076223e-02,1.040873675458431347e-02,9.353433095004026754e-03,1.073081577646201740e-02,1.063713113172802885e-02,7.842932785983984870e-03,7.979553595839877778e-03,9.057894702234538242e-03,7.396627831657141827e-03,1.035778636717766057e-02,7.753499417561727017e-03,1.036756044172349941e-02,1.133729743531202913e-02,1.134978370990451929e-02,1.014242731225120306e-02,8.576045922372547287e-03,1.083136307073075816e-02,7.328443460833156814e-03,9.822430855376422520e-03,7.356115963429919052e-03,7.489063804733445476e-03,1.122041864445411444e-02,7.196603644262460422e-03,8.085627250076761127e-03,8.208844794848730100e-03,1.087029159067049930e-02,1.052736981283073497e-02,8.586048132521909015e-03,1.056092596876715556e-02,8.770113314039561236e-03,1.050326560887909419e-02,8.512596798953810107e-03,9.048062047732216562e-03,7.905387195978006223e-03,7.724806093430189660e-03,9.968803497517907120e-03,1.007948175178483355e-02,9.285277289512543913e-03,1.099686487494398388e-02,7.546115746596093916e-03,8.942780679743035296e-03,1.084063291497425544e-02,7.200709776306226349e-03,1.031735486708082634e-02,9.051772855897623205e-03,8.272154457760220667e-03,9.281646764081136203e-03,1.112281496246391409e-02,9.925803483660318796e-03,8.121400186272456634e-03,7.055481187753745442e-03,1.011264557289549490e-02,1.123348791139470830e-02,1.145670677077112627e-02,9.365452776166295970e-03,1.202529022437338890e-02,9.691317566501069652e-03,1.123435184038549216e-02,1.138202438466731289e-02,9.596058376581808463e-03,9.020458010909858382e-03,7.976261383769877103e-03,8.690046333984067714e-03,1.188025346040825700e-02,1.066526831920325789e-02,1.109835822963935702e-02,9.349605082078363619e-03,8.807762117662341905e-03,8.342499278361984252e-03,8.138047806144799168e-03,9.510147189487928865e-03,1.171690541025314711e-02,8.484786838524303182e-03,7.901164784053485782e-03,9.070683502903102366e-03,7.783603315018616277e-03,8.587908128147503026e-03,1.144292719147825890e-02,1.000909664480551138e-02,9.722704764941343322e-03,1.104757852072216738e-02,1.103761696237803500e-02,1.110210360815487053e-02,7.944593710148599441e-03,8.660527684944499885e-03,8.651935921280580824e-03,1.182594884719772449e-02,8.762037995310594657e-03,6.903903548400540553e-03,9.145691294185250009e-03,7.231184108261006806e-03,7.600074321212904431e-03,1.022319424408676958e-02,1.172744890932356752e-02,9.889658556518044277e-03,1.125605747785182395e-02,1.115808802611864027e-02,1.101330208087300359e-02,1.146574863152588324e-02,1.033232957561328741e-02,9.666288038636294128e-03,8.237612054940302367e-03,7.819530673302257581e-03,9.529167446469970215e-03,1.110851660011110895e-02,1.048719389757788584e-02,7.689881754330544182e-03,7.482314961877721896e-03,1.048967637375602599e-02,6.966692604818608414e-03,6.397180007669823684e-03,1.047257050800915780e-02,8.157109864028034077e-03,1.126033162607323855e-02,8.693428651857083508e-03,6.895505929080111146e-03,8.589543055175447375e-03,6.366159054210814364e-03,6.253605007347913698e-03,7.284705585610604973e-03,1.040967351426602162e-02,7.282968833308642483e-03,8.056216388968471739e-03,6.198547274737471920e-03,7.721961095337300830e-03,8.463184402470104450e-03,5.802906035709070286e-03,9.739096911418670607e-03,9.845641642649829647e-03,9.209214385523198723e-03,1.111591437328566558e-02,1.039344184042332794e-02,8.853447457350794789e-03,6.393228288593092931e-03,8.740418887234318798e-03,6.925874113931326445e-03,9.530821216939201063e-03,8.071024750476298720e-03,1.044879547627776233e-02,1.054281668985584432e-02,1.105303469108936780e-02,7.604553623310706008e-03,6.285553230310980503e-03,6.908608007843013675e-03,5.790557440498964557e-03,7.205585914716935471e-03,7.939870037823428331e-03,6.925513764876358759e-03,1.035207962748676408e-02,8.605450854374330563e-03,1.108682138562361655e-02,7.201657929092815900e-03,6.543692750394016280e-03,1.000426305588732016e-02,9.046288417690527550e-03,6.403070745297174092e-03,7.520445806616168558e-03,9.257838357366441132e-03,6.621672203324811302e-03,5.904806503979273535e-03,1.015918123364856554e-02,6.372090931309937548e-03,9.198741481475220666e-03,5.982642419534605661e-03,9.161715972778993605e-03,7.328097226959972080e-03,6.168686681053463239e-03,9.356924152920196441e-03,7.083381432661075942e-03,6.332019279604117132e-03,1.080645513736321062e-02,9.135677404661757262e-03,7.397025185740973598e-03,5.986284655748879378e-03,9.677119673382946277e-03,6.735274682974739559e-03,5.263449083113710264e-03,8.449719426093104876e-03,6.995373701759786608e-03,9.455093842499312853e-03,6.895734825510774040e-03,7.641480057403254866e-03,7.471501900074639137e-03,8.996212035033463936e-03,9.064742308626746320e-03,8.867208632955779490e-03,8.431389176568594018e-03,9.114579015582867719e-03,6.647844563647290275e-03,6.355479815786102549e-03,8.194697484624164502e-03,8.391397029886516964e-03,8.887755240408636362e-03,9.909762992630088280e-03,8.489130677106115214e-03,9.219005343764463678e-03,5.250318839678980339e-03,6.339311944403342239e-03,7.888582170087001660e-03,7.619852423379227385e-03,7.697110284706037454e-03,8.945512355833608320e-03,9.954705296299517364e-03,9.607683438072618654e-03,8.146846871122510186e-03,7.261479052508105873e-03,7.221336580398372666e-03,8.881310687920557223e-03,8.491995372932039862e-03,8.222326440178921378e-03,9.353888415575384307e-03,8.442807865038565174e-03,7.525486673551881438e-03,6.495872898598961491e-03,8.588899124076617569e-03,9.104120098154738078e-03,6.626977163022828785e-03,7.897011037020068222e-03,6.901549537186894671e-03,5.299040434347571452e-03,1.011866268467660236e-02,7.851560515645604824e-03,5.578863525816823120e-03,6.237232542743423661e-03,6.641663982905353369e-03,7.608075679043657842e-03,8.639612146979527146e-03,7.277484487907755727e-03,9.858468735385678139e-03,8.294327788862430884e-03,9.917249671302089814e-03,8.726068735341417984e-03,2.051978404295728281e-02,3.695819849509190784e-03,-8.233309386121216017e-03,-8.141854406144736350e-03,-4.354357050131924325e-03,-1.547805355629522546e-03,5.032831845464304232e-04,2.852783593888134211e-03,1.389335411958262517e-02,2.481055132430241145e-02,4.011228498915334062e-02,3.667283761166791056e-02,3.127955362704135100e-02,2.940206128460912810e-02,3.213068033604046109e-02,3.553498522329281983e-02,3.616808330601792992e-02,4.126837482770205623e-02,2.194148688796056929e-02,4.198753980112429618e-02,5.457140177275367210e-02,4.261764460739418670e-02,3.370039446828520385e-02,3.229999901048123678e-02,3.200699260557796078e-02,3.679926105679585252e-02,4.163392285019377331e-02,5.130906155883966507e-02,1.989302261556039064e-02,4.281433691397689562e-02,4.297107311659656426e-02,3.314143938304345283e-02,2.404313468987520630e-02,2.187682069185612269e-02,2.184057320573596500e-02,2.059932628548685057e-02,3.012307756125099170e-02,4.034696109413941911e-02,1.122429079026878232e-02,3.108641110937990920e-02,3.602128970596656793e-02,1.892508294219708703e-02,1.533770965804922420e-02,1.307402115492671373e-02,1.101457177592429955e-02,1.390433403419512152e-02,1.309917735482809230e-02,2.832982139995658330e-02,8.588952914277778877e-04,2.549331973844322016e-02,2.662393889117799575e-02,1.320096565006702652e-02,7.889459534897672738e-03,9.263715175828961257e-03,9.134531665124082100e-03,8.137457950890776559e-03,4.502795843835274633e-03,1.773157062212913845e-02,3.490892697657972839e-03,2.040924685286778228e-02,2.033179384754001812e-02,8.293527288037292125e-03,7.243605751694505435e-03,6.799184395937237640e-03,4.257050282361584705e-03,3.357363177821911203e-03,-1.434216759392161009e-03,1.250257467053218947e-02,6.969219432213703651e-03,2.041736175423002411e-02,2.248071134239183061e-02,1.345373912222948797e-02,5.813474895371635240e-03,4.819322613476111072e-03,4.399971890559633766e-03,2.149847721719287934e-03,-7.217847762994322562e-03,1.059675332982839592e-02,9.371693042231156456e-03,2.319782807950118708e-02,2.794834369777786029e-02,1.919172936306727181e-02,1.347984045910063586e-02,1.191625796168698306e-02,5.588670113972587020e-03,-5.803346189239269245e-05,-7.465168958692381881e-04,1.348703638761662368e-02,7.205446853736275151e-03,3.202329095534291181e-02,3.768923516102411220e-02,3.021744653431403249e-02,2.391508822958196209e-02,1.875867661118173907e-02,1.445385834122261265e-02,1.288683595194565004e-02,1.091674444607697997e-02,2.665304158918732277e-02,6.806544111038542386e-03,8.363834838801183572e-03,5.313408521565406682e-03,9.304658676148226323e-03,8.635119876265877695e-03,9.049223550201270297e-03,6.175401528467738821e-03,6.133457882191283711e-03,7.102136255909913265e-03,8.149721249629808539e-03,7.636534800338434792e-03,5.767131507021692853e-03,1.022091004760240437e-02,7.431140167411014880e-03,8.484526642780841621e-03,7.082896545059738647e-03,9.808583204617542586e-03,6.752409576894428944e-03,5.701587769615829547e-03,8.815646221883384828e-03,9.753893159127965604e-03,8.651369700858576803e-03,1.022358151991815435e-02,6.958538684666682947e-03,7.241114664910387050e-03,7.146848095959452106e-03,5.659074717546834499e-03,6.809942652907651807e-03,8.490089657970397927e-03,8.093411117413353353e-03,6.354403207812115394e-03,6.364010600215064088e-03,9.659878036068506035e-03,1.016693670881271827e-02,8.436288755849575757e-03,1.030189198816489245e-02,7.902184055125761192e-03,6.293717750823506554e-03,1.016420541170638334e-02,9.891437204913523101e-03,9.425764240662205112e-03,8.138874310483301330e-03,9.168778082232723059e-03,7.861992327762416105e-03,7.232551973004494941e-03,7.912693084759725437e-03,6.473303610143076384e-03,7.478198031534722887e-03,6.976028649260699460e-03,9.738190528348102115e-03,6.782896254343910580e-03,8.111768498943062317e-03,5.531778720484473513e-03,6.680712465802804423e-03,7.010164649210328010e-03,5.765966661906302311e-03,9.380220461132814103e-03,8.534988330884176258e-03,9.423876275918383061e-03,8.130234959257846838e-03,6.556529295641649359e-03,8.176158998541080761e-03,5.998062901982418628e-03,7.809362927135588169e-03,7.986344520505476649e-03,9.450530375427266053e-03,8.029935694862353618e-03,7.065119695134134195e-03,9.886731027759403448e-03,7.466950217994059412e-03,9.205618865549483262e-03,9.089583986905252003e-03,9.797883859789739691e-03,8.155314119799698253e-03,7.507340439337970017e-03,6.039749814792229853e-03,9.940136405468090117e-03,6.831687745673280417e-03,8.424233252801966582e-03,9.334681685673799911e-03,8.957904868805941292e-03,9.569458481947389419e-03,6.824410941129379661e-03,8.705375153028572024e-03,8.775438669221301627e-03,6.807874793918820659e-03,7.229650244013050876e-03,9.739942100051218743e-03,6.003685127774247704e-03,6.686803498301443355e-03,6.655718017017193781e-03,7.702975192602296885e-03,8.717213009538796534e-03,8.623559812165174782e-03,9.862358748133849898e-03,9.818474496902086096e-03,1.014251900917615204e-02,6.312646135833705277e-03,8.531849676790761658e-03,5.546595939353485272e-03,6.457430861887526741e-03,1.020482431518563576e-02,7.832190940069184981e-03,7.383087221916247514e-03,9.801874442729927722e-03,1.016655579044221935e-02,1.055205485246284505e-02,1.110147129174368294e-02,1.124838313718299135e-02,7.857567346152548662e-03,8.959429107575730966e-03,7.330850653484665552e-03,9.115215106369787407e-03,1.005803783849252425e-02,6.820215224102685325e-03,8.425951074507154887e-03,8.616594585352207666e-03,1.038935356385347134e-02,6.518098839414069451e-03,9.124005239073286477e-03,6.733831388078467817e-03,6.497495448577647950e-03,6.936823732584961391e-03,7.744481179965713447e-03,1.045511985255808893e-02,7.817271731609079510e-03,1.140220393049457340e-02,6.496342344197214569e-03,9.498641080266510828e-03,9.487240465666225281e-03,8.449313075318222108e-03,7.610177862918964670e-03,9.677171645711666464e-03,6.546364641700264803e-03,1.042174137191456684e-02,7.157144935635934013e-03,9.816242493586632700e-03,6.643022579985193715e-03,9.371926144109195972e-03,1.030366986750710923e-02,6.675564400749761651e-03,8.590353613848439318e-03,1.073384619875989918e-02,6.777278336547358853e-03,9.190196535534315980e-03,8.617198614990193711e-03,7.509941276082600370e-03,1.076104242268223488e-02,9.727018570467010905e-03,1.050867709980233752e-02,8.633713869116333914e-03,9.296154170644287812e-03,1.139824347725494277e-02,8.349597567201161308e-03,8.721403557621881797e-03,1.138848309645591056e-02,1.019481434926633803e-02,1.120905971227272729e-02,8.204583714351294799e-03,9.357580209901558699e-03,6.590524025028550795e-03,7.077677568421128843e-03,7.418072555493858758e-03,7.102232248644008150e-03,8.591400934080188970e-03,1.143080837442890171e-02,1.127936578302124807e-02,9.160885861206231884e-03,6.939298908359399845e-03,1.088450406034725121e-02,7.304624883824583845e-03,7.107452265934696353e-03,7.243666448678303879e-03,8.648312995390474919e-03,9.859431659938081710e-03,7.872606691481685154e-03,1.052221377562315499e-02,1.039689761664213882e-02,1.068563272280623200e-02,7.890415439266579289e-03,8.580610396700249706e-03,8.749608532551904350e-03,6.816800016914726160e-03,9.583267875710423794e-03,9.929756064669434390e-03,7.998061237429727674e-03,8.907922408350081589e-03,1.116602150989539494e-02,8.537822500221366531e-03,1.034429782127962993e-02,8.783476144920795980e-03,7.166195130693780654e-03,7.932236258747379920e-03,1.110210699791352659e-02,8.998988012904947376e-03,9.443943345622644869e-03,8.680460430378230535e-03,7.081113665460920734e-03,1.047236140429589832e-02,1.099623874827682785e-02,9.190932091760178196e-03,8.608788943441780458e-03,8.154687321377186021e-03,1.019171094405697982e-02,8.869392972053793608e-03,8.249988507354998057e-03,1.065445268042250829e-02,8.044850324941418482e-03,7.653089534397214053e-03,1.075487068813822666e-02,7.472952550674961079e-03,4.749107953569091552e-03,5.535899888128224984e-03,9.591518208903308113e-03,7.986962853529759251e-03,5.709841977734935771e-03,7.125471284809078640e-03,9.115043234205316355e-03,7.131417759724540360e-03,8.330542124985414187e-03,9.616154804387893121e-03,4.871001870902179169e-03,8.140276561764111032e-03,8.087150478499029876e-03,9.242621182816782022e-03,8.662249150631219641e-03,6.974727126698027947e-03,9.224367235200151699e-03,7.728433544981009803e-03,6.201041671448192204e-03,6.126050069857912929e-03,6.723052480319833581e-03,9.354918819634985144e-03,6.543681207054117752e-03,8.757894454489897548e-03,9.721342199889312571e-03,9.970081971370160084e-03,7.313390254750932497e-03,1.000138495841273664e-02,8.872011530398699747e-03,9.262017937738720869e-03,5.574581036883088925e-03,