-1.043104350360316429e-01,1.595135136552767920e-03,-7.289563746486597568e-04,1.382584156593059119e-03,1.319454725207954305e-03,2.889042386168984462e-03,1.184535120641031685e-03,2.491267657403867589e-03,3.349893578700930980e-03,3.843615554259200481e-03,3.175297207314047108e-03,1.403587782030628599e-03,-1.436507256329084376e-04,-9.227813977440826919e-04,2.209892013328196379e-03,2.166705023440824475e-03,3.074395166042695167e-04,-1.573919215880722816e-03,-5.869692933469693391e-05,-3.221119994904124515e-05,1.584587316124048961e-03,8.845636063866224412e-04,3.678145303755256043e-03,2.952950662316101895e-03,2.905561557741429945e-03,3.914800211612009563e-03,1.267044068195212437e-03,-1.082528333854854488e-03,1.408024372052537124e-03,-2.120086980655874406e-03,5.748166296025375519e-04,3.150185123473062294e-03,2.451611646183596890e-03,3.199265584100950514e-03,1.346202301572363771e-03,3.051707081624304395e-03,3.469223116929889394e-03,-6.017975407294368648e-04,1.869056479422536842e-03,-1.349750775701802526e-03,-1.807576219307947644e-03,2.042421652066211783e-03,8.939844584323307364e-04,4.168071851784246190e-04,2.122622117839271984e-03,4.128562140165254087e-03,-1.216950244491318530e-04,4.988490505911455245e-06,-3.140348705857346693e-04,-1.929518824615453470e-03,-4.151302441135957567e-03,2.687474677996576009e-03,6.939606900262999638e-04,2.184451375870681816e-03,1.234841712647455347e-03,4.414400509003127589e-03,-1.945810190271242900e-04,2.895147954147193371e-03,-1.345962899662138650e-03,3.813260720757095240e-04,-2.823978871067135514e-03,9.490838515406232589e-04,3.147915978403313924e-03,2.378713158777653967e-03,2.078826325097561482e-03,4.457017176358131841e-03,2.916699441826002027e-03,1.561906676122554703e-03,-2.909530971162351291e-04,-2.366676250380392917e-03,-6.932153392905467853e-05,2.865170217394713017e-04,4.296250569547945854e-03,5.446271459296399015e-04,6.605229729759265825e-04,7.239535480344993449e-04,4.037262309702254956e-03,1.055050559223245487e-03,1.067272417418030882e-03,-2.217217351317845100e-03,-2.697733459742276269e-03,1.437830835241646864e-03,6.531719077354182154e-04,3.347848458715783296e-03,3.561251806702721637e-03,3.999286491592787644e-03,3.582483703217169413e-03,-9.802719549779361462e-04,6.347917788256031858e-04,1.091746228107692666e-03,-2.256480671138132860e-03,1.511415082677503626e-03,-8.629347967842180200e-05,2.855354124164872880e-03,1.654923106554343458e-03,3.828289419024332504e-03,4.143959841651706673e-03,1.448721387161764056e-03,-9.167125435872191565e-04,-2.552089412001645480e-03,-5.725144738511554580e-04,6.893438446564763462e-03,-2.052736812590129009e-02,-8.912260268873398172e-02,-6.434790765131115364e-02,-3.657568147660099356e-02,-9.627945177704580818e-03,2.403819655227099755e-02,2.627871888779419532e-02,1.840824764338709618e-02,7.311005935066909080e-03,-1.351129393309474097e-02,-7.532341137592159230e-02,-4.577764846226214240e-02,-2.026761081993534372e-02,-2.051661551737409689e-02,-1.206031948458820627e-02,2.026648038191738305e-02,8.604350938268701121e-02,1.233550037430942992e-01,1.132788693493321369e-01,-3.143249839285539027e-02,-7.415810909936072781e-02,-5.744639222300081116e-02,-5.674398301054073279e-02,-5.939371169892297686e-02,-4.602738159086797870e-02,-2.017255160481557993e-02,4.032302626836769405e-02,1.182733383623835594e-01,1.390613207163023946e-01,-5.035393411550857790e-02,-8.061903711534917916e-02,-5.749994104117105848e-02,-6.485179103295020397e-02,-6.020800915429139200e-02,-4.145942619515039645e-02,-1.108088499403022537e-02,3.945380536664865739e-02,1.258157182552697706e-01,1.723160177364509438e-01,-6.665647645893765794e-02,-6.964944283984635109e-02,-4.320695562002701412e-02,-6.353080493029733544e-02,-5.934688275565958016e-02,-2.680418516284287234e-02,1.461381605512495924e-03,4.614227143919918256e-02,1.214477639849724094e-01,1.854565171460865469e-01,-8.702425633157445661e-02,-5.743889948678670282e-02,-3.980705294471966610e-02,-6.007417979566545552e-02,-5.811157257487743755e-02,-3.359211163059344640e-02,-3.725457959985234262e-03,4.092699771721709096e-02,1.121195311481094220e-01,1.738221326610444317e-01,-1.025224177002988929e-01,-4.397912730064913733e-02,-3.165920128933154276e-02,-6.008979405188154266e-02,-5.394501536920173063e-02,-3.350089691862735003e-02,-2.613852366223919955e-03,3.553205411262583963e-02,1.018978899259015691e-01,1.553243882088578276e-01,-1.143393660915139470e-01,-4.125127021258394311e-02,-2.122925226040744615e-02,-4.789078240698415451e-02,-4.752361600835843664e-02,-2.091010354429202397e-02,8.092196480465380440e-03,4.464688334233492956e-02,9.812125748817940307e-02,1.392904459500440839e-01,-1.279115613842751742e-01,-6.402510029188482332e-02,-3.991373143212428171e-02,-6.056776500568641225e-02,-4.611639745012493380e-02,-1.556833188036445444e-02,1.586509014930713099e-02,4.689726036032108858e-02,9.327003531063611519e-02,1.302379016079843188e-01,-1.355771088705255145e-01,-1.029513239001309671e-01,-9.079328688575569184e-02,-1.211598259533936683e-01,-1.178885038140218694e-01,-9.198058522490826228e-02,-4.585098395237293539e-02,4.318311010982510065e-03,6.993532495344086108e-02,1.077616340221042995e-01,6.974814554114215637e-03,7.164245771079649425e-03,4.531561320541573241e-03,6.517803618506973901e-03,7.607949419029712973e-03,5.419924491109614356e-03,7.401589061624924866e-03,4.917407263740609588e-03,4.775291887554356483e-03,6.436272416285933502e-03,4.440837995015232964e-03,7.770000005799593441e-03,7.323347558123851839e-03,7.753087824897292486e-03,8.986425069197952198e-03,9.787717333349724158e-03,7.945638741760732357e-03,6.139455150647529433e-03,6.189308552406380323e-03,6.888013205755763244e-03,7.821631549435690417e-03,6.914091746037082618e-03,5.705005246852067405e-03,9.419000838751226748e-03,6.459545769160447704e-03,9.254395777011628979e-03,9.922266626183536345e-03,6.621579425610812052e-03,6.343710937526128579e-03,5.889821663381585720e-03,9.230943957114131140e-03,6.671788590633873084e-03,9.603427661060495724e-03,8.240463926344946885e-03,5.784132699808534027e-03,9.565778607027283081e-03,8.355153712449159276e-03,7.098980584226863462e-03,7.345613598210335403e-03,1.036786586427378663e-02,6.287225443336887619e-03,5.024066497044931898e-03,9.200644435627665027e-03,8.435009805096935556e-03,6.123167658296212353e-03,7.984723227858559272e-03,9.500224885075524844e-03,8.893936233959801041e-03,9.874061699365129993e-03,9.820543466244700120e-03,8.475967721030963284e-03,7.282191945758773738e-03,5.888916599812567786e-03,4.860557480744437039e-03,5.817924905144431121e-03,7.466802551388620340e-03,9.641105739658459989e-03,6.996781283635972876e-03,1.085866518963693982e-02,6.507443656723875709e-03,7.662430159147249654e-03,9.052265150550645179e-03,8.239321348396666522e-03,9.751734659578297978e-03,9.394599180310528666e-03,9.689563124239585629e-03,9.500699579037610865e-03,1.026933724791319683e-02,1.052062794301196133e-02,1.077224445255061010e-02,6.085236805194849108e-03,7.248439865728537219e-03,9.082772125063217836e-03,5.784752892184484921e-03,5.477829975582344108e-03,6.193512201514888085e-03,7.353961871428168345e-03,9.460215151286694227e-03,9.621843323918423049e-03,9.522531846941826444e-03,6.759395370167007797e-03,5.418523205392244621e-03,8.491230197381492012e-03,8.759930769690147528e-03,5.472746069909812001e-03,5.928163352712611037e-03,8.662591809696940440e-03,8.024489967377129024e-03,8.913721032737008734e-03,1.035755559731537170e-02,8.053765366443511875e-03,6.674119380409382005e-03,7.452936934965695426e-03,6.687174624736592042e-03,4.739515751368335306e-03,8.087103333868394736e-03,5.998608111697555610e-03,5.151302480295478700e-03,7.272077657060774768e-03,8.075675225915256161e-03,-2.780969213049385639e-04,-6.998843327435709874e-04,-4.596988563747947290e-04,1.915805305027220087e-03,-8.349377056624889513e-04,1.144589709739463924e-03,1.131640873345943904e-03,-1.230136970765361110e-04,2.206145306111327760e-04,1.982506643074878269e-03,1.835032339959394299e-03,-2.734207949799046921e-03,1.753107360828591241e-03,1.465436891488588328e-03,-6.281594028328615648e-04,-8.045686926536417712e-04,5.880246395578284969e-04,-2.679372916462920053e-03,-1.570995947553548155e-03,1.953904979749435458e-03,1.557847364511383108e-04,9.625079440395644358e-04,-1.564155739952754684e-03,-2.528938182284601040e-04,-1.740604721995707340e-03,-7.610102694791795377e-04,-8.445283660787794751e-04,-2.862051282856703234e-04,-2.373625428834633035e-03,-1.685895146192085536e-03,1.786247244917023649e-03,-1.605419787309834317e-04,6.569440643928951135e-04,-5.071709552868814298e-04,-1.131198097933227426e-03,-2.474592824884848646e-03,6.888869742693553948e-04,2.010963420447033252e-04,-2.325667535635539841e-03,-3.068598038833854065e-04,1.764457458502026801e-03,1.686860931386208705e-04,-2.087416532939833248e-03,-5.933072831255392383e-04,1.363438675017675239e-03,1.969653967186233909e-03,1.498939841588244754e-03,1.305997201561455608e-04,-2.745257351813827715e-03,1.626360185643428886e-03,-2.303394032377548400e-03,7.360586937551062518e-04,1.910607858958402600e-03,-1.308604521033297340e-03,1.160053446365250616e-03,-2.545880468345905392e-03,-9.030577162060819869e-05,-1.596720364418354691e-03,1.488023928843604238e-03,-6.641078758662067542e-04,1.758588988373327791e-03,4.764362652393213412e-04,-1.124450384258056726e-03,-8.181917810995355429e-04,-1.616301214720344478e-03,2.121910961894422475e-03,-1.866671110674845025e-03,-2.166393404749234527e-03,-1.808053929304690496e-03,-2.371236600302021724e-03,-1.534121177756469535e-03,1.622219871517852942e-03,1.752628424963162748e-03,1.455174530535067318e-03,-8.730273942623176329e-06,-2.563925560553617731e-03,1.528495093152281402e-03,-5.506190581260706016e-04,-1.506676695702994107e-03,3.567102125395591318e-04,1.408080450350974750e-03,-2.236815810823682138e-03,-4.317045007078459929e-04,2.849601761332274242e-04,5.184773987976574842e-04,1.714938586763805131e-03,1.049799113684001580e-03,-1.091006026521468015e-03,1.387326843777268465e-03,-2.105167822309641622e-03,-6.709944379560946279e-04,-2.576129461569428864e-03,4.114067654446297291e-04,-2.488075036799267375e-03,2.116619111432394267e-03,-1.219284379164431572e-03,2.743921493173577249e-04,-2.217815704201495444e-03,-1.337516656221796919e-03,1.541952729993681902e-03,8.120371640640959045e-04,7.752644171535049561e-03,-3.732440869782458468e-04,-1.858513281168155170e-03,2.949688128125181911e-04,-3.150273149753454304e-03,-1.846703097077714677e-03,-4.024851582883117070e-03,-3.622655408078095420e-03,-7.995278762477427310e-04,1.938815765405258254e-03,1.130844989796422765e-04,9.655007397953161482e-04,-3.152036919572842339e-04,5.147091576265586371e-04,-1.901925394012647002e-04,-3.240794038505227185e-03,-4.892174220748503680e-03,-6.819245987821468541e-03,-4.265372142760689468e-03,3.357607287959258301e-03,-1.362830228751200478e-03,-2.229093636442985686e-03,2.349541725013073578e-03,1.008762558111551185e-03,-3.925228126985927206e-03,-2.526261994376188726e-03,-4.798560670727891955e-03,-6.609637855586779180e-03,-4.897071616146483029e-03,4.997697078442761998e-04,-1.524282739566916239e-03,-3.760905824140491679e-03,-2.217324787517240773e-03,-1.375973780013258580e-03,-6.108985985346733830e-03,-5.264823878796544288e-03,-3.444501791274847281e-03,-5.968796260331866478e-03,-5.601454857268245609e-03,3.773344777595967524e-05,-4.674622577798598702e-03,-2.854058974414849185e-03,-5.384063331992578957e-03,-3.798743801689196189e-03,-6.655903305132075329e-03,-6.789623946667549745e-03,-3.882048766057694632e-03,-6.692548070567973760e-03,-3.716256612621934331e-03,-1.906450394588965307e-03,-2.780560466491618834e-03,-8.732583962740480198e-05,-1.496989892701251464e-03,-2.463662360590597889e-03,-4.778450325445244597e-03,-5.940798279558702315e-03,-2.331762963088520636e-03,-6.218230712966082811e-03,-2.114974050721753988e-04,-1.166243710480821061e-03,-4.381902125258715528e-04,-8.957420952911508011e-05,-4.001704427330205101e-03,-5.179804689800285994e-03,-3.237735662469800203e-03,-4.889595148448873906e-03,-5.775780585785448250e-03,-4.731947034596773599e-03,-1.487624321253938923e-03,-1.034517086315334426e-03,-3.886520685016808981e-03,1.316919681411302329e-03,-4.496962847159635592e-04,-1.594548117258489533e-04,-2.743737968163906683e-03,-3.357687693967322234e-03,-1.101141049517322026e-03,-2.078470517208122481e-03,-7.297753609944346471e-04,-3.099873352891076989e-03,-2.426424428701087592e-03,2.263210921607570082e-03,1.144800362058964694e-03,2.099806310798066496e-05,3.947329500491522105e-04,-1.109416973588760831e-04,3.386649564640264055e-03,1.683128853896035575e-03,-2.978481263528246045e-04,9.391153804268637540e-04,-3.920802271938804082e-03,4.473678600932180782e-03,7.851458745788169463e-03,9.991065511487802128e-03,5.830560565751923864e-03,7.794521631375483581e-03,3.040877161987920029e-03,1.543814682559432926e-03,3.353759596336245786e-04,1.591465899867142847e-03,-1.274353426108594143e-03,2.992540497502908792e-03,9.540129526258061057e-04,3.208851453379680564e-03,2.238575937758319374e-03,1.519502305282123197e-03,1.873880735378517706e-03,1.775328569340952484e-03,3.922544065111156081e-03,-1.305052606592387336e-03,-3.995339748348473779e-04,1.989351030572684021e-03,3.217834349380854254e-03,3.986815108161489637e-03,3.441160628934695521e-03,1.382937748241798263e-03,2.750927781597991856e-03,-1.066650299509827029e-03,-8.702243774872762006e-04,6.941604511383366299e-04,2.549962454353695744e-04,8.172655138663708577e-04,5.413659246234566076e-03,3.304706172565275140e-03,2.198621754955550327e-03,3.576214077060003212e-03,3.580777820723271944e-04,-6.430874950529848026e-04,2.798225886482686407e-03,1.856019530097419937e-03,1.355278438647780116e-03,5.442651998974387326e-03,4.658702274410635516e-03,2.372100883593449526e-03,3.011504451458952170e-03,4.960444674825006256e-03,4.692532189251368176e-03,1.544360546589619533e-03,1.773789763925855958e-03,9.517783173483940033e-04,3.247182478383600027e-03,1.576194392193963883e-03,4.972019137438389060e-03,6.027711297080995054e-03,4.474621405285554923e-03,2.602964389720416240e-03,3.460080109292296494e-03,-1.759804353742946189e-04,2.487295473936992560e-03,6.482482666114960414e-04,8.153676891819694158e-04,5.248801895150603802e-03,6.030093786581191932e-03,5.003378355185351782e-03,6.612769356110583842e-03,4.199718647831138414e-03,3.558502396821567205e-03,2.940994480713477431e-03,-5.121625810290271171e-04,3.332596408729965841e-03,1.287981931672318829e-03,4.649832038930231011e-03,2.142520590835814923e-03,5.576684861551634877e-03,6.592131418128917113e-03,2.524590597069705476e-03,4.616845949204975534e-03,4.504807639677772986e-03,4.124392727666581666e-03,8.495536394466076053e-05,2.519908229444090420e-03,3.760585749223560679e-03,3.666378205845058965e-03,2.178349662248031150e-03,2.844412253249330950e-03,3.953045515976162487e-03,2.860799676430275749e-03,4.873857120065708455e-04,-2.477005451444483581e-04,1.957240591677280803e-03,3.485282472234230156e-03,2.850518958465463049e-03,4.522417696996349455e-03,6.955072406956690212e-03,4.506799363592630531e-03,2.844456179061415416e-03,4.240857634779996582e-03,3.719161453441470477e-03,-7.464677227222857791e-05,1.664316923779768928e-03,1.798547760384787636e-03,3.981903511694877620e-03,4.776555254566733182e-03,4.736432215462350707e-03,5.833547208193204554e-03,4.223083205080012739e-03,3.771136159227567348e-03,1.763242247869275820e-03,1.565048111226461725e-03,7.028836892795565019e-03,-2.884647591695691307e-02,-8.344772024171627500e-02,1.681957827505519906e-02,9.718393223960361538e-02,1.216857014540875109e-01,1.345460304730621004e-01,1.179258906252823869e-01,1.061323152836688710e-01,9.690305931429674113e-02,-2.309575362331162812e-03,-2.181482248445957076e-02,4.577942650323447993e-02,6.871974079076259567e-02,5.689877035711541492e-02,2.783817211979763145e-02,3.992016044420833992e-02,8.073667897782765834e-02,1.094729953165207437e-01,1.067691280539435350e-01,2.243502491421955555e-02,1.781494252348600482e-02,3.757572135156972675e-03,-1.655144982794138145e-02,-3.321964119704215457e-02,-5.286669900142776379e-02,-5.619037841683754975e-02,-2.607165666506040466e-02,2.047931785600239779e-02,3.769825181777629319e-02,6.249897020516350515e-02,1.608977966601524839e-02,-2.366168679157048399e-02,-6.590245043557904636e-02,-6.985354577921736030e-02,-7.755302346682468873e-02,-7.637868254283959601e-02,-5.593813340257856870e-02,-1.108817291995223796e-02,2.108577960181350769e-02,8.779881027544891858e-02,4.729663708366627084e-02,5.158619463403679717e-03,-5.097694235369307214e-02,-6.321435160890540028e-02,-6.623287985871412209e-02,-6.423924540514308612e-02,-5.398137386978368868e-02,-1.651029844952868475e-02,1.767353592764065590e-02,8.163597235756617221e-02,8.288390516953945963e-02,4.228858774707527218e-02,-2.458194256979441550e-02,-4.831291588611923149e-02,-6.056406916037436472e-02,-5.913505864380745602e-02,-4.851579150635730586e-02,-1.909370782598114602e-02,1.375550317801699923e-02,7.466255701923524279e-02,1.099555540545676668e-01,6.409754241495727034e-02,-1.251555558248354516e-02,-3.718224932606013083e-02,-5.070581091219714814e-02,-4.700530070920758141e-02,-3.939598662465359363e-02,-1.369052657727089402e-02,1.175175695566615941e-02,6.093666139438067703e-02,1.198920642384955354e-01,6.904814380932858264e-02,-7.545699319830377789e-03,-3.110817671564513817e-02,-3.934478987781670628e-02,-2.984993220162266564e-02,-2.147636064980115028e-02,-1.247401519487290403e-03,9.858769073800285193e-03,3.764757872852768361e-02,9.135265466783182298e-02,4.519161022820365053e-02,-2.506785777023530157e-02,-4.319183249125774920e-02,-4.003310824807430196e-02,-2.346090528817550841e-02,-1.973048183409491924e-02,-1.112383346989123407e-03,1.123457673519645018e-03,2.300925332627025421e-02,5.195473234722777084e-02,-1.384051647401218603e-02,-8.401216786300051698e-02,-1.035239232054056546e-01,-9.509618974581422746e-02,-6.255986951826349174e-02,-4.085639098763182986e-02,-1.484236068591420106e-02,-9.463931674035742231e-03,8.540030664037192090e-03,7.420508471484996149e-03,5.874058356412061900e-03,3.987242542660664885e-03,6.464038554636520814e-03,9.397221000509293001e-03,9.236171392909805003e-03,8.027921878407659473e-03,5.891780535876474378e-03,8.823540108089349479e-03,7.600739219487877979e-03,5.309538093759602444e-03,6.260573776316900700e-03,5.920248713401470193e-03,7.383768444462062396e-03,7.667865772622965009e-03,4.883273188739054374e-03,6.931680358957452263e-03,5.636300457678928080e-03,6.482367455800963109e-03,9.286439164965978876e-03,6.620250241145808449e-03,6.342736682498914015e-03,7.107303245449806024e-03,6.519844152017954114e-03,7.870592978316355917e-03,6.178773079404909982e-03,7.134943898124570735e-03,6.877160906343326996e-03,7.143443692265665987e-03,5.739616450883429886e-03,4.665244506493347945e-03,8.017082969368786657e-03,5.869836327068266371e-03,7.854856312323120829e-03,4.320872993628039130e-03,6.225419096121991708e-03,6.840391202264387883e-03,6.902765785564669680e-03,4.989733863884029084e-03,1.018284670276381650e-02,8.602594717196387214e-03,4.859564318132752157e-03,7.544074774675523821e-03,7.810578321192736782e-03,4.360225165785843945e-03,5.040284520258220095e-03,4.526784757819380008e-03,8.840992307456998003e-03,5.780569918458267932e-03,7.051202583259618024e-03,6.477364374940967374e-03,7.585649999789413449e-03,9.138401794240046117e-03,5.133815332173626185e-03,4.546105989858510200e-03,6.062671848425012049e-03,7.295603214834040645e-03,4.942485933209752463e-03,6.375143646569630951e-03,5.284083987722208893e-03,7.368202839866121873e-03,8.419026194903478366e-03,4.750909163866013848e-03,8.613819571988161686e-03,8.147081646995143686e-03,7.934731813227551694e-03,5.489107900002839630e-03,8.852331023462512924e-03,8.460106939652047367e-03,9.651005577203797606e-03,7.877438759455186734e-03,7.036250048054353001e-03,5.722578627221037995e-03,5.534016526723590200e-03,4.615470319870457368e-03,5.954622062881378616e-03,8.311528777487435862e-03,6.685297461599178787e-03,8.911761715003898784e-03,6.719739709673739660e-03,5.925318399430661888e-03,8.852063415243874300e-03,5.893245120507948319e-03,5.786619028527877767e-03,4.738849926564319033e-03,8.517207549993792426e-03,8.453950666134728981e-03,7.572191122277872541e-03,7.622844967906463459e-03,6.636175875614853427e-03,7.145077953501235979e-03,7.922006374877740495e-03,3.668086543017769728e-03,6.268156148777805602e-03,4.539202769961699427e-03,7.069902930392034553e-03,7.943449831322059798e-03,6.692427626427508748e-03,6.641191801093153900e-03,-2.362761606578264294e-03,1.149442355164276112e-03,-1.718729683606601884e-03,-1.749667973931582406e-03,1.010859097344955684e-03,2.028633451479597369e-03,-9.130429195603111201e-04,-3.506239117515797736e-04,-5.557806919538126837e-04,5.436087492161133065e-04,1.643704077523904135e-03,5.152604157242462839e-04,1.579395113208769547e-03,1.154756826449015832e-03,-1.654847576463459521e-03,1.830891919416197111e-03,-8.799831185123288373e-04,1.486630633258025080e-03,1.411425068895754992e-03,-3.765385899290422402e-04,3.414836073254661863e-04,-3.203744371498126113e-04,6.379891920833243371e-04,-2.076617238072442622e-03,3.542257463006378833e-04,4.399613467216021106e-04,-3.452218080137473759e-04,-1.250573056340818345e-03,-1.655526523750380785e-03,-1.379091855830139220e-03,-1.256401573482456274e-03,-9.284341279502342920e-04,1.856356087455966059e-03,2.014736136965694039e-03,3.315053978969579001e-04,4.915732193511497972e-04,-7.220122835719395421e-04,-1.096999009887012193e-03,1.498118812914183556e-03,-2.009770086019986135e-04,-5.745082971280403750e-05,1.320865811211572802e-03,2.490665581493492118e-04,-9.238803053954209449e-04,1.281744833090044458e-03,-2.224772493833943217e-03,1.815800399343546305e-04,-2.504000723796323807e-03,2.048538816461223638e-03,-9.711968439153812784e-04,-9.683680593786992731e-04,-2.506063769320215819e-03,-4.004360284309385382e-05,1.635559377077868033e-03,-9.771769647102372149e-04,2.834640991877668682e-04,8.114474782836239401e-04,-2.087539131620021974e-03,1.304916445916700848e-03,4.366257562718191504e-04,1.681042299084204231e-03,2.034934484242133333e-03,1.328784318880842259e-04,1.520076184279575519e-03,-2.202500260430325339e-03,1.509977097513828630e-03,-1.928796218534814088e-04,2.213032650592235227e-03,1.046654051498606321e-03,-2.773244056602632100e-03,2.125750449714875184e-03,-2.298336165433556826e-03,-1.666286873499996189e-03,1.613304878768603325e-03,1.055435553197494724e-03,1.016466515939400735e-03,-6.952487971916701884e-04,-1.062973177206068438e-03,-3.764684806822175280e-04,4.883766749198159996e-04,-1.356410327558807069e-03,-8.476249238075811605e-04,-1.904288328224883978e-03,5.234276310567271932e-04,-6.219896457607756741e-04,1.871483745921470598e-03,2.014485356041621853e-03,2.543010923999753292e-05,-2.380976886593083163e-03,2.139599277601464660e-03,1.391269145488243947e-03,-1.363361710926485162e-04,-5.433336151063220074e-04,-2.777406872391353660e-03,8.890115694509905832e-04,-1.213463252977452700e-03,-1.167293061496541603e-03,1.015123322107262024e-03,1.494185877823218933e-03,-1.861420546277852296e-03,-2.545725073123257217e-04,7.535842790626952857e-03,-3.488171161126805237e-04,-1.005668879171841591e-03,9.096921754035678948e-04,-1.053773232247920584e-03,2.573486079466456248e-04,1.364346059316961287e-03,3.464201237670839909e-04,-1.568083278833524476e-03,3.757632311507677625e-03,-1.585416094006198741e-03,-1.907447124450349814e-03,5.107657792378910572e-03,5.526878704513083114e-03,3.419188553274156179e-03,1.794352394984083995e-03,3.625339745052811972e-03,2.434643470282699292e-04,-2.493823576956061315e-04,1.288043727824692442e-03,-1.491367963921096107e-03,-2.891925174103644638e-04,4.367722674414628407e-03,4.883700087878754120e-03,4.294509115199502888e-03,1.828700920991178176e-04,1.729252147251278361e-03,3.080453979180408555e-03,1.591258750191036587e-03,9.369675516770933606e-05,1.321275626059472286e-03,2.982158931247919000e-03,4.561622237790954014e-03,1.284948870374770253e-03,-2.909754403398566577e-04,2.373708491256815644e-04,3.200921143498955575e-03,3.607182217890445280e-03,3.130587352950383977e-03,-6.313746679434616496e-03,-4.267566591861332061e-03,-2.174681708477684862e-03,-1.811859263462039160e-03,-3.844576395827580071e-03,5.265460463108697677e-04,-2.026164502517326365e-03,2.212430436993686935e-03,2.906203777159941867e-03,-1.663836825134848386e-04,-5.667772765447271280e-03,-8.172527595121560498e-04,1.671544417504833291e-03,-8.099933751704605162e-04,1.431011131706691171e-03,9.555906782813275652e-05,2.309924292610604675e-03,-4.214779516664364815e-04,1.265200480686951793e-03,2.327685797698789746e-03,-3.364410031967914397e-03,-1.519297754597091158e-04,-5.253132717499150138e-04,-9.638799492764412585e-04,1.564804467893287255e-04,-2.447922025960841061e-03,2.881301521422141750e-03,1.836312343450803922e-03,-2.774316248655955938e-04,4.415319992495967370e-03,-4.447810614124494272e-03,-2.124174968054859738e-03,-1.252380756724335090e-03,1.577673706796358776e-03,3.056611744506716570e-03,1.308727898919101679e-03,4.218518968900834658e-03,4.990197698990688283e-03,3.713112255478791084e-03,7.888556181323224357e-04,-4.768370836251001679e-03,4.112615109155418665e-04,3.410947059337740995e-03,4.696620202670482268e-03,1.044842539101406131e-03,3.317741992198989989e-03,3.325221465391074369e-03,1.844711596781359970e-03,4.655380586292915887e-03,6.981358129659721119e-04,-1.347689951931251061e-03,-1.699855715437676882e-03,3.790276899470313311e-03,7.565189712043302733e-03,5.910755985461780063e-03,6.873050548317779541e-03,7.344993411894257598e-03,5.157717973820523383e-03,4.957765053714260732e-03,2.657823386882110679e-03,-2.306025642238617064e-03,-1.507332877533422997e-03,1.577533128473723300e-03,3.889488528186163183e-03,3.639852656118809301e-03,5.137865416572028748e-03,2.050903219170757685e-03,3.587984537861234509e-03,1.857347100105943361e-03,1.854986728707569638e-03,1.154368221974869492e-03,2.742765795603050762e-03,2.941869659541876143e-03,3.564472893382673348e-03,2.412553408201028975e-03,3.262512524980587178e-03,3.193532226468818753e-03,2.432403198474368533e-03,2.893046940156808987e-03,2.232474389465229081e-03,-1.645219371097451878e-03,1.252443077453161508e-03,3.520328267470246991e-03,5.901167061508887958e-03,5.765992750879057015e-03,3.247910933193622757e-03,1.121478314228728295e-03,3.140627780162700503e-03,3.915865226666818272e-03,-1.117117940471033669e-03,-1.309963067428650263e-03,8.451302332244067274e-04,5.993846782371966414e-03,6.749803257491632583e-03,5.470813132110181887e-03,4.319516018520923317e-03,5.630187776128492243e-03,3.575777153613687344e-03,-1.833403334694535375e-04,-8.108625934383796845e-04,-4.356030834210936650e-04,3.585272661901729198e-03,5.185752882183896316e-03,6.676942524121258493e-03,6.875993347758238387e-03,5.382345771346650799e-03,2.977709267098842000e-03,2.813548913431028649e-03,4.261698893945493059e-05,2.335984496870751291e-03,1.213653905680718223e-03,2.115977364329820008e-03,2.335553066237974068e-03,3.864500617237734328e-03,3.171333051092026147e-03,3.116065789456261542e-03,3.444514466215232301e-03,2.650409755390233709e-03,2.521147920736840995e-03,2.124012286266018044e-03,2.155986527989377948e-04,3.625562667624826225e-03,4.323089731680895137e-03,3.985896340235070209e-03,6.554640158094839769e-03,2.509316833436876955e-03,1.768122210865291167e-03,4.423147477662435316e-03,-4.506935598716447621e-04,-1.533338624936181338e-03,1.217600754176034880e-03,3.249628016529122754e-03,2.253956217926016310e-03,2.683472170479036818e-03,1.853213999015637398e-03,1.774756830731853696e-03,5.448624497576450530e-03,6.794106698537243300e-04,3.118675339702169178e-03,-6.520087962180508376e-04,1.512562278184674796e-03,4.827369120888528112e-03,4.925601419696669717e-03,2.230891017599715559e-03,2.560174296155277082e-03,2.064193344302733650e-03,2.515949126559557068e-03,1.878175089361585996e-03,7.758850750176661537e-04,-8.987187433375006668e-04,2.612636637823624423e-03,2.485502236007019593e-03,5.128832007070464709e-03,3.048984002451532709e-03,2.296102134702597986e-03,5.816255933463968658e-03,4.262516728506763643e-03,4.676274880825706873e-03,4.399072121725890183e-03,1.137205309337562149e-03,6.854962683304314207e-03,-2.229246422579047454e-02,-1.534907631935535921e-01,-1.839958588322720412e-01,-1.361084597295459941e-01,-8.251152151193957840e-02,-4.943749086146033422e-02,-8.250580292687792472e-02,-1.119567273765575549e-01,-1.323126970267898828e-01,5.749594063734530906e-03,-4.568084784527138426e-02,-3.613357693971261386e-02,-2.292778723768390363e-03,2.560192375943579415e-02,6.294863043985950146e-02,1.203380266826741957e-01,1.627618828357366154e-01,1.510168694774382259e-01,1.134414991486329127e-01,5.031955892433306182e-02,-1.795441873186072457e-02,-6.397554856229924203e-02,-5.749272033998609893e-02,-3.126730925070728140e-02,3.586528402974523827e-04,4.358543421098130810e-02,7.720377773692901902e-02,8.566657344644020011e-02,7.761681422916601181e-02,5.182237294391663085e-02,-3.764544491069674731e-02,-7.954563398362154980e-02,-9.798887426367389186e-02,-7.835433103001526733e-02,-5.309671255721499367e-02,-1.426969244910573920e-02,1.537689869927061359e-02,3.171045447029066655e-02,3.339693378088764986e-02,4.432747591479577892e-02,-1.539221891770181302e-02,-4.919278158170952570e-02,-8.462837963811870035e-02,-8.386500034877644727e-02,-7.233908028011210023e-02,-4.780754580693442890e-02,-2.094743833350609305e-02,-1.099935557527430968e-02,-8.006857857799747069e-04,1.186444081003458322e-02,8.472839447825269293e-03,-8.876325053062007059e-03,-5.575919090172813675e-02,-7.148454385910191222e-02,-7.947924152275220866e-02,-6.805523640689764564e-02,-4.912246996337660959e-02,-4.309818925531051781e-02,-2.542096859941153295e-02,2.695921269817926676e-03,3.772949083490521188e-02,1.450853794623901613e-02,-4.433583595898820534e-02,-6.890983707659920077e-02,-8.148272309523663104e-02,-7.530182525434535312e-02,-6.555374970866471862e-02,-6.050282052364978902e-02,-3.968132574696766474e-02,-1.086331329547376469e-02,5.373049713327889693e-02,2.418829875834530019e-02,-3.811526111912070386e-02,-6.007192981807153026e-02,-7.123653017874534421e-02,-6.574950462412569585e-02,-6.083538185041492685e-02,-5.845487478584852209e-02,-4.087204320947043779e-02,-3.118348807981645432e-02,4.101912311903124775e-02,1.520481839735432668e-02,-3.946869279086907129e-02,-4.856309842015649192e-02,-5.391595354879151480e-02,-4.693491128839683002e-02,-3.639448654452662191e-02,-2.788731454074176025e-02,-1.534257620306823944e-02,-4.644973532435400787e-02,-9.773927823726845376e-03,-3.995319397332002670e-02,-7.888125817686872376e-02,-7.363364629598406763e-02,-4.626506467153013863e-02,-9.710327898881605801e-03,1.579478995755188159e-02,3.020988480473540960e-02,3.585204613087975001e-02,5.372100322826272104e-03,7.379295480736912209e-03,5.976657104773726824e-03,3.546812212529836927e-03,6.200805995323061155e-03,7.682292727210689523e-03,6.147966725873153619e-03,4.685223187414449923e-03,4.926576571472484137e-03,4.013159383583936833e-03,4.531862101420157211e-03,4.008726308757594795e-03,4.544809890665619731e-03,4.385710652219578821e-03,7.533091437367489887e-03,7.182427006750025794e-03,9.140155587157907865e-03,5.814289844099804205e-03,4.706562320134722623e-03,6.602070881120175767e-03,9.066368142211339923e-03,9.233355967252158958e-03,6.612159282366004975e-03,4.756845022304328520e-03,4.731549890086553765e-03,4.909569300965299470e-03,4.814942900213561687e-03,5.387148444704015389e-03,6.127364783125111361e-03,8.807570038715102981e-03,8.901901868014098357e-03,6.615719931660039854e-03,8.694933549282662932e-03,6.908869982895761951e-03,8.327760523899718770e-03,8.093566360943249202e-03,6.341656170389790154e-03,8.615040327467321513e-03,4.884928779052887492e-03,5.694170769948396840e-03,6.846902098206385061e-03,6.419344620826421960e-03,8.488872977133545689e-03,4.233355699769987025e-03,4.731070859067498108e-03,6.784626313895473181e-03,6.633992925124326118e-03,6.268849736427905585e-03,8.024345347808364143e-03,8.095283007518997570e-03,1.008579504754929593e-02,9.340165357573038118e-03,8.078593315773036423e-03,7.966399151852831401e-03,7.919381009992034620e-03,7.555571608261027125e-03,5.016979364989565884e-03,4.681206896030751588e-03,6.331205643957732096e-03,6.705291798721397557e-03,7.627201672337940649e-03,8.286114077858400956e-03,5.563697623983034773e-03,6.016393940359908085e-03,5.664075708528865973e-03,3.750972952729031504e-03,7.939001405844916051e-03,7.644920033001351145e-03,8.253336318183040685e-03,5.331356930924825710e-03,9.770005917735491777e-03,6.876687448075585567e-03,8.727045771172841845e-03,8.761571410546275043e-03,7.083174735193524356e-03,6.707313705266437602e-03,4.723856544579381825e-03,7.119952800963638868e-03,8.105520375802369865e-03,7.054429173500622804e-03,5.912684842488915953e-03,6.682160284811326789e-03,7.668759169240860728e-03,3.964212206698577469e-03,8.203124673839502431e-03,7.117096272459512256e-03,4.624645588062115641e-03,5.076588225800740886e-03,4.786814678619740610e-03,8.031104014263235405e-03,5.619177680091440134e-03,8.712821534245525357e-03,4.347724394852463953e-03,3.629891767207997326e-03,4.070126652360056899e-03,4.278914550187864867e-03,4.013153342283835162e-03,8.863947431525217094e-03,4.616510018131087661e-03,6.559018376417680672e-03,1.422534899058442315e-03,-1.335328550384780495e-03,-1.683157907391790841e-03,-1.727563365384938553e-03,2.098422418329248373e-03,-7.689465690146532733e-04,-1.926583556335636788e-03,1.943932265378435151e-03,-1.578559151980617539e-03,1.430438967987583774e-03,2.039481428211360140e-03,-2.044318999888409313e-03,-2.895017112985165115e-04,-1.520268518370275924e-03,-1.244394444631906609e-03,-2.756373823771330559e-03,6.363703934264691719e-04,-1.862979416135752010e-03,1.488136702913245984e-03,-1.734155876279273780e-03,-2.021867420630420794e-03,1.944628641238608548e-04,1.297892184787300188e-03,3.141107024754114310e-05,-2.343213563140685799e-03,5.246497898999074976e-04,-1.710258744062824032e-03,-2.771460051364617750e-03,-3.556012371152305934e-05,-1.846687565003882724e-03,-9.572858962346411822e-04,-1.033271716293690697e-03,-4.558151343537600905e-04,-1.662994416689462119e-03,-1.372311584779788152e-03,1.360614035220088572e-03,1.008650215132100760e-03,1.161000980697600958e-03,-1.451008153119663375e-03,1.601187642305912026e-03,2.074269313938971720e-03,1.384624960905422603e-03,-1.587611916128250575e-03,-4.123455104930914806e-04,-2.258280703026912389e-03,1.597999788613949437e-03,1.126815918766437691e-03,-2.699477865768145583e-03,-2.060479352719456984e-03,-5.264326273613083741e-04,3.686936149948543198e-05,-2.168694541374640954e-03,-2.491071048251752070e-03,3.021817561690189470e-04,-1.428586554034663985e-03,-2.691608262108699610e-03,-1.651269303302763461e-03,1.045537028124034814e-03,1.472715389035341577e-03,-2.426192818466694785e-03,1.216199596111310326e-03,1.497936003015728351e-03,-1.850331122569849433e-03,9.180974587753019164e-06,1.157219139805216145e-03,1.386484697157527347e-04,-2.266302670354542262e-03,1.886788359899468220e-04,-2.123288462038338664e-03,2.039596968957886006e-03,-1.183669774132497295e-03,2.051692174562090836e-03,3.967611831194965406e-04,-7.463577219070649527e-04,8.355029297672264370e-04,1.801062329584551466e-03,3.937381652275555722e-04,-7.319548697897046083e-04,-2.697638439593777211e-03,2.799888422203497258e-04,2.040478198694793775e-03,-8.938529652613081051e-05,-1.232404721232685648e-03,-1.042621762595335490e-03,-1.481229683227487746e-03,-2.631967564965050684e-03,1.496115830313098777e-03,-3.314015955410504958e-04,-2.438501885673476869e-03,-2.093493754429677240e-03,-1.028223404614087933e-04,-5.802957406994895765e-04,-8.355605405240148185e-04,-1.315740873600950399e-03,1.065773110628458979e-03,-1.895470883797359309e-03,-2.192835592343165586e-03,-3.379334280244891751e-04,-1.176542198324846222e-04,1.170524361895615949e-03,-2.006186253414215582e-04,8.059447936759755668e-03,3.376593406478633954e-03,2.067597210332291092e-03,-8.193486497628320970e-04,1.094844528469515309e-03,-1.654488111552000242e-03,1.706774728795085465e-04,9.545177458556830920e-04,2.775475515117211377e-03,2.537476959079957694e-03,-2.398722845960294271e-03,2.061606802122769797e-03,3.823639741680175813e-03,6.927795775589125522e-03,4.070327473143848206e-03,4.394183168259165571e-03,2.208245861133323242e-03,1.746442681237425588e-03,3.837123898247453424e-03,1.029691777038757019e-03,2.522592885750629677e-03,1.440342834768583956e-03,5.283977965113373365e-03,2.532177621925297325e-03,4.799143848376782526e-03,4.972578247601521818e-03,3.888186367852570092e-03,1.791089756751535400e-03,-7.716768789150677899e-04,-1.294289723938407384e-03,1.962434676034120491e-03,1.162194507225323015e-03,5.971222236715179564e-03,2.208769983617811950e-03,6.673976750559633517e-07,1.924426884735585706e-03,2.237397416914219204e-03,3.524714874104824518e-04,3.186519777604462662e-03,-2.262345096986172373e-03,-3.051962560922793642e-04,1.107808725759834665e-03,4.460112404289339437e-03,2.888758860086044003e-03,2.113791018896955896e-03,3.369656817422847679e-03,2.006795168589564204e-03,2.883128324366694521e-03,-4.237235903546397210e-04,-2.593355766869928983e-03,-9.419338508232467586e-04,5.312251937203806354e-03,4.470311861505295303e-03,1.754987024143812770e-03,-1.382894618584350047e-04,2.125016376701243954e-03,-2.293448218338302693e-04,1.737362801500416925e-03,3.836021009397922767e-03,-2.630465653013642092e-03,1.368904223857332842e-03,4.402415287042253482e-03,1.684596850608047116e-03,4.444440665037699412e-03,2.307558959450175043e-03,4.133610779197028316e-03,1.944192024173561342e-03,3.470652658142618814e-03,1.803461382907066857e-03,-2.902131336926588694e-03,-1.892254807116742262e-03,3.529599898526046119e-03,1.013100370938240912e-03,2.816904881143560743e-03,9.513957633972522669e-04,1.659181040454453613e-03,8.958932336549185835e-04,2.847615833561868790e-03,1.884473147929207953e-03,-1.340072844010665705e-03,1.344985421586309413e-03,5.476263940104520583e-03,2.701782925690752579e-03,4.935647803281055859e-03,3.223178459066458178e-03,2.664153323199968358e-03,2.399170882043725767e-03,4.064518286440769144e-04,9.595366733019753541e-04,-4.059024025942475217e-03,6.294799095588953864e-04,3.051921371872388759e-03,6.139370829560992712e-03,4.613950766273795627e-03,4.105881259124342236e-03,2.319830487471981773e-03,4.782514525108427957e-03,5.338536283956776124e-03,2.296876820288588136e-03
1.831986935327435673e-02,7.094972984434380105e-03,8.740879371591753905e-03,8.932536997683527408e-03,6.327188190466396210e-03,6.936288199302280064e-03,9.239018336835980866e-03,7.105339915764936551e-03,6.358424270568475284e-03,7.534521098495871802e-03,9.304906941589856373e-03,8.503311116819211798e-03,4.419030436202613099e-03,4.757882327321301744e-03,8.698042883447621929e-03,8.349052973759834087e-03,7.728836244271271826e-03,8.239719596526327849e-03,8.099436102921162700e-03,4.885199467448646422e-03,8.428463201670101379e-03,4.417274978677338503e-03,5.170136272305303829e-03,7.410075249210264746e-03,8.637951176778492501e-03,6.159527633377976513e-03,6.467516603232715058e-03,4.672779324865815841e-03,8.457924447111332678e-03,5.325183388531003204e-03,9.016289079416111088e-03,4.493301612979117877e-03,9.323750819922274613e-03,8.480932194256839834e-03,7.099537666427354655e-03,5.444100828143091757e-03,6.395910700736360741e-03,8.920141655939087255e-03,7.923512925697038731e-03,5.816600872196250015e-03,6.874408683288336756e-03,4.848208576621549672e-03,7.691794434561753831e-03,4.684222933431977584e-03,9.555699605853042178e-03,5.345998189867900291e-03,8.071824981032692595e-03,8.337751661067359724e-03,6.259382359587800475e-03,6.774132701941272885e-03,8.742463128974652803e-03,6.022509891837607779e-03,8.863397315814008914e-03,7.411627070312847183e-03,9.299447814933033130e-03,4.859457744705625477e-03,9.579935936267349600e-03,9.786858061350059423e-03,5.858062893514841794e-03,9.086256011140563318e-03,6.248946343824198293e-03,5.662211575443876904e-03,9.098886874373763103e-03,7.416832600339279095e-03,8.031265098909218594e-03,5.909102425341007485e-03,6.665222099422516387e-03,5.769121848861574232e-03,6.275002321076691286e-03,5.595541595650456793e-03,5.152950150675006218e-03,6.111497861348627429e-03,8.276096500013575830e-03,7.504263630917764813e-03,6.968068459383332594e-03,9.362994064306786809e-03,7.493802212946259513e-03,8.425914937201354343e-03,8.415855544364908916e-03,9.188290780556078105e-03,5.846267289922368708e-03,9.166962362273253784e-03,8.671032468198083126e-03,8.106377615084980892e-03,6.061716859559495608e-03,5.973327665419593188e-03,6.700009686544203258e-03,9.443127578574510295e-03,7.518488391860681311e-03,6.344817014588087674e-03,8.460272396033407041e-03,8.570589048856795331e-03,9.418787324392365046e-03,7.922538413650408867e-03,8.953952442074149254e-03,6.071243726364750071e-03,9.473936560935527704e-03,6.399996117738969426e-03,5.725418747659570887e-03,8.053445560027372788e-03,5.339852110039499181e-03,5.665724250807402211e-03,2.339919829003866275e-02,3.103846480469482985e-02,3.445835306442571883e-02,2.565432653062971191e-02,1.619109623809580206e-02,9.224722969464192388e-03,1.105798860356519385e-02,9.156134375570159842e-03,1.199166961478910325e-02,7.290870482832317173e-03,2.233494629271778886e-02,3.476104039974824145e-02,4.237631491238041254e-02,3.699067587122156775e-02,2.523701330029164136e-02,1.689838752666049382e-02,1.142551624305907301e-02,1.090359205133671974e-02,9.888033093922481837e-03,1.569191282268324675e-02,1.446984974728730312e-02,1.827705461631173867e-02,2.515094498909422466e-02,1.726009521831942464e-02,9.664792377126450035e-03,5.101287812388066029e-03,9.196856714005258344e-05,8.741633237254881061e-04,-3.239546660148133906e-03,1.158623686745335196e-02,-5.712966025837954917e-03,2.089260074162796032e-03,5.090277310997652800e-03,4.713192732503621724e-03,-9.032962370766257389e-04,-6.639385942588284586e-03,-1.240226664900827280e-02,-1.030244736034806492e-02,-9.705486978681260313e-03,5.933030207194400253e-03,-5.625655910512335905e-03,-3.319232128632911482e-04,-7.255695146211833596e-04,-1.010925125991650898e-03,-3.801510047174781574e-03,-5.127114913788461022e-03,-1.307792643580903830e-02,-1.633769903627093137e-02,-1.817078198841040257e-02,-3.754600506887542655e-03,-1.430733081987190305e-02,-3.804006482597876559e-03,-3.568836854704791894e-03,-5.377318790891968091e-03,-5.725381926029957450e-03,-8.634380693405262555e-03,-1.302349108800417848e-02,-1.649021653992330944e-02,-2.026978199052685559e-02,-9.520843211727919239e-03,-1.785047598865729945e-02,-1.203223924406629855e-02,-1.007040475730603714e-02,-1.047376632135890717e-02,-8.405678811559272670e-03,-9.397090479703142096e-03,-1.613119039808526625e-02,-2.211703340516233199e-02,-2.087539490698363948e-02,-1.040198913708687521e-02,-2.272543274914470834e-02,-1.755994059681436487e-02,-1.552843132867074913e-02,-1.305207216083373312e-02,-1.421999448820675770e-02,-1.456850692460861900e-02,-1.652269966031458953e-02,-2.417651352911487361e-02,-2.545720971502358349e-02,-1.141580214804098145e-02,-2.214800040216564556e-02,-1.937486933192450814e-02,-2.227230657111104947e-02,-2.172857069714888983e-02,-1.852148288841500012e-02,-1.945400555077273289e-02,-2.293131067632092623e-02,-3.019446899717169452e-02,-2.795115403868777063e-02,-8.739334190183554313e-03,-2.356546102976309412e-02,-2.244483147238100079e-02,-2.324108204158843380e-02,-2.299649638755561429e-02,-2.346284776403765801e-02,-2.583999464496303591e-02,-2.833946641082135329e-02,-3.530928465008057598e-02,-3.513047697394659774e-02,8.737296808614538474e-03,9.582197959874940579e-03,9.417921541902084942e-03,7.156081688845898625e-03,7.931855217395965621e-03,9.889694369079547395e-03,9.788692862906804917e-03,8.202985134313516349e-03,6.362358542610300691e-03,7.835907663986440078e-03,9.775644057682299909e-03,6.700060594291666963e-03,6.330484582212439655e-03,7.257741694923874366e-03,6.980946747892926435e-03,5.349841582851019330e-03,9.699237342789200980e-03,5.076828738184126916e-03,6.638324154800833744e-03,5.059079150748969911e-03,8.702825445167277144e-03,8.209883386797109384e-03,7.488508869128790262e-03,9.160831666997083789e-03,6.738975433564093828e-03,7.418791335914788274e-03,7.661037156476174781e-03,6.390148473562790553e-03,6.490367706902205533e-03,7.056766614331844850e-03,7.060137894480920939e-03,6.405573002112127656e-03,6.373320546728507979e-03,6.407317683951487507e-03,9.454987758354117117e-03,8.509631937926420697e-03,6.390673763220570437e-03,8.977061695064543836e-03,7.537156505652252425e-03,8.865839575314886367e-03,8.416530595494910519e-03,8.207565946589992154e-03,5.405127079326371015e-03,9.890448649138405823e-03,6.792854819131469331e-03,9.432388805980164437e-03,7.566423406677242301e-03,5.556289601089332668e-03,5.963226939381473940e-03,6.279980859958723266e-03,6.540008589244722392e-03,5.680031535644677367e-03,8.626303701920646702e-03,7.323969636690064004e-03,7.910632609038785457e-03,7.495346058774026397e-03,8.279447090133548737e-03,8.592419259446936602e-03,9.257377317200918970e-03,5.716686997503704973e-03,5.555095851387963080e-03,4.959138635934677401e-03,6.095902777349850553e-03,7.816599203728400933e-03,8.184906745872657513e-03,7.439663441695529983e-03,7.045762141906039555e-03,8.257436449157634639e-03,6.538678756773001061e-03,6.447321929826176773e-03,5.398722089852560184e-03,5.048846341189887170e-03,7.672987514620997762e-03,9.224008415170263306e-03,9.754235171895725073e-03,8.155585098202253538e-03,5.064353410185615245e-03,5.889247741915838025e-03,7.962516738090789220e-03,6.990439570534586790e-03,6.034876629573400139e-03,7.475025489366563490e-03,7.858896908155341490e-03,6.167621249948773351e-03,6.299477809263455234e-03,9.625665916476245851e-03,7.597209955386590753e-03,5.124279161663517455e-03,5.631017997400484566e-03,6.691896861272576824e-03,7.325638129959463965e-03,4.909824218210400402e-03,5.031437047014604598e-03,5.452961733267666297e-03,6.586529920902919714e-03,9.098033892613623802e-03,9.461290704627757855e-03,4.766597398489435915e-03,5.000146861807175554e-03,6.879935645465843318e-03,5.070495282051443349e-03,4.728038715899550957e-03,7.768418629526827393e-03,4.843995895819400675e-03,8.138293363553509782e-03,9.215954739868541593e-03,7.230569528478355754e-03,4.893347757928395540e-03,8.048946530442425626e-03,6.300496275737606407e-03,7.245489417173751195e-03,5.803937267462497794e-03,7.516913624931659439e-03,8.296702407107873004e-03,5.847068511316197252e-03,8.621719234518486139e-03,4.658470237656046377e-03,8.688124057849752960e-03,4.931438772997912869e-03,6.901887149964701894e-03,6.840636571276246559e-03,8.985381960743192217e-03,8.813089173547934349e-03,5.076050168903057692e-03,8.517496463178576491e-03,8.414906480943026498e-03,7.931347916552930824e-03,4.666096507805534387e-03,5.677614582503004263e-03,5.399293401955767603e-03,5.123992435289039145e-03,7.995310718088359872e-03,4.760623505993243250e-03,6.685643944189451245e-03,6.971350577992164836e-03,8.297495891951863281e-03,8.932716261779117747e-03,5.288924817494609736e-03,4.409366141775695851e-03,5.917122025932446648e-03,8.976731151305780351e-03,6.111060891802259400e-03,5.248339780914134008e-03,4.835133717733018123e-03,5.206756465341018207e-03,8.791771707595456495e-03,8.188087921681035455e-03,7.794822084511319679e-03,4.441633554940317176e-03,5.096587705170587367e-03,8.384943267911585882e-03,8.554213173408079310e-03,8.036985017083808289e-03,6.719121402619162610e-03,5.074078796135817089e-03,4.973998578384119552e-03,6.483182043055822456e-03,7.428820491251222034e-03,6.590638130608357688e-03,5.063647998138620480e-03,6.028109706751179526e-03,8.132653331289612167e-03,6.669699777208445458e-03,6.357829902489156061e-03,8.669981068103427627e-03,7.561838312541529529e-03,7.222182994968934233e-03,7.074811410739025551e-03,6.693025942139480162e-03,4.708659139882119364e-03,8.288837981557896015e-03,9.088893344544610522e-03,9.241941169444376977e-03,8.960918259261539329e-03,5.286982887056979920e-03,6.818630199434579965e-03,5.608440239657013111e-03,8.550827937852811464e-03,5.876163052555001369e-03,7.391612894922198508e-03,6.929484489473387680e-03,4.677793243775713559e-03,5.442371596064380680e-03,8.807024382213755540e-03,8.813197076470052557e-03,8.479006115372387728e-03,5.105137022732881592e-03,8.886583000589974232e-03,6.537197611930085396e-03,8.541982396082897430e-03,6.946754720093530240e-03,7.828374984749053925e-03,8.588187255209428841e-03,8.706830785363864691e-03,9.259305775722695073e-03,6.694061476297142634e-03,7.697254856917190580e-03,5.040938238828993924e-03,8.064323025731701469e-03,6.515220018564680561e-03,8.659360729226845202e-03,7.810963802675603695e-03,6.147135459610398103e-03,4.071784152301676646e-03,8.447110219994639554e-03,7.220089992746265249e-03,8.144641474707149664e-03,4.346160144371103567e-03,5.342003384293915816e-03,9.043425340146189761e-03,5.581048270532852108e-03,5.358026379518788032e-03,3.983662877418392943e-03,7.005816544410382006e-03,8.157815001592794157e-03,8.751699591924205768e-03,6.240524521419163820e-03,6.572861579668994383e-03,4.183429683450754118e-03,6.077187115257179188e-03,8.281213590591448084e-03,8.169347647666021922e-03,8.155342284368996553e-03,8.314122235560205201e-03,7.787715260628344169e-03,8.581574112044321537e-03,5.763549330960450641e-03,7.595637416164558245e-03,8.768931559540482298e-03,5.823367074857918775e-03,8.246702855438887980e-03,5.411714119463999217e-03,6.155599898236205347e-03,5.525482118890397490e-03,8.254274104053967512e-03,5.377515177043883272e-03,4.838790791367063825e-03,5.065066209849870132e-03,4.752686477304889079e-03,7.470149954600128692e-03,9.001348896479329301e-03,7.091352479304630259e-03,4.891586186009814173e-03,8.731044834153387293e-03,4.519509028608792098e-03,7.128741929678627555e-03,5.519728910958127295e-03,7.541290745966118710e-03,5.794771551360448393e-03,8.976262401404656519e-03,8.132725829535484077e-03,4.871034924750355932e-03,4.512750227242929603e-03,7.131450016880839723e-03,5.486091326009519958e-03,5.672406403409969121e-03,8.200483770622339977e-03,6.579865361130320806e-03,5.774185956632211202e-03,5.542704817481942242e-03,5.288855001368791657e-03,6.165750621683545145e-03,8.319004297663384895e-03,5.742692550928222076e-03,5.222570407123582406e-03,6.680414339452382839e-03,4.353612009587296862e-03,8.861640109642517776e-03,5.750166257024208472e-03,6.430667047527456950e-03,7.876867003880488882e-03,5.445020726134566606e-03,6.095597310493586912e-03,5.813305490287078679e-03,6.176872033961296367e-03,5.929853962811156877e-03,7.111136618726341535e-03,6.728815814637154578e-03,4.921515560018358514e-03,5.674771603526179882e-03,5.897812508112667065e-03,5.751756344721178048e-03,9.239321811366064605e-03,6.103727198219706905e-03,5.315048314053968763e-03,8.993930671184232131e-03,6.985408020879878797e-03,8.894558381795007393e-03,6.874275054585878356e-03,6.820261567133227738e-03,8.421331644850500037e-03,9.396185449277708393e-03,6.020729144936013549e-03,9.369651125706429315e-03,8.137658201879409761e-03,9.476551988350911254e-03,6.611203487109940449e-03,6.931402373991315917e-03,6.403287301890925147e-03,7.862953623258110702e-03,5.948054813613649038e-03,7.113101239624899930e-03,4.161767253038519201e-03,5.905360945225678233e-03,5.137182230201100923e-03,5.506328455338957949e-03,6.919926174128050375e-03,7.042917879927368917e-03,6.305823331926686121e-03,8.715200198625016811e-03,8.039289663377482964e-03,4.369386137567750003e-03,6.135336175531871071e-03,8.551245597760517153e-03,8.991319882905106017e-03,7.069911559716124047e-03,7.814174759719641483e-03,5.349682132286932845e-03,5.072635968002662220e-03,7.273557308073407002e-03,8.023838670938743950e-03,5.437957161733160925e-03,4.558773027712613793e-03,5.330954910917112301e-03,5.470274257460410426e-03,8.747128694101378651e-03,6.005970829225613754e-03,5.524903644309710031e-03,8.493532195202324608e-03,7.113607746309708567e-03,7.359081053435311687e-03,8.646192817084718055e-03,6.921148219140926990e-03,9.748389622317469791e-03,6.034654675243683424e-03,7.722711766549434330e-03,7.311495692681698778e-03,6.307727601106681743e-03,7.964716738352313474e-03,9.370261098155830207e-03,6.508108878771085709e-03,9.339848067566708725e-03,8.105434767905195931e-03,5.262415683917277300e-03,7.651176253233569514e-03,8.654980681443002338e-03,6.393577358078514003e-03,5.590882614264484907e-03,7.009581085134735171e-03,7.210941245189247603e-03,8.718307747180515169e-03,8.344025765460926988e-03,8.374219210969579066e-03,5.566097407871182026e-03,9.580486875697697552e-03,6.614446129260260869e-03,5.525230275643902567e-03,8.863244672864638296e-03,9.105198412820848797e-03,6.173319596095302488e-03,4.493668554200337673e-03,8.490804738071046354e-03,7.851755362954035075e-03,9.607236351972503127e-03,8.272396945100821825e-03,6.959817043894951129e-03,8.267371484523559216e-03,7.437823243036162900e-03,8.488225556402165944e-03,7.778701254782523049e-03,6.721904577078652993e-03,6.891092042187667993e-03,7.076958407043811364e-03,9.919016554045338371e-03,9.198786195484774664e-03,7.756128771038040860e-03,6.626112710205952182e-03,5.910443719306309428e-03,5.744094405661933668e-03,6.188621489124560351e-03,4.603087248416809323e-03,8.778668674107878780e-03,8.223888969641645133e-03,8.602350080982052588e-03,6.313809335710406610e-03,7.122256612401492784e-03,7.596339154931237674e-03,6.875911422147763102e-03,7.924587126174009039e-03,9.751548477099107257e-03,8.800782899917498209e-03,5.837956440632524439e-03,7.008023890777236205e-03,5.552835201016391789e-03,6.386848863581717946e-03,9.418724971072952798e-03,9.961951230789873463e-03,5.446822118414044664e-03,6.206443500734282886e-03,6.518298926825924662e-03,8.714544712312654456e-03,2.720868627717751634e-02,3.438527869833444411e-02,2.646629503445073472e-02,1.211682343599803507e-02,-3.389887574396392711e-03,-1.464026123654710299e-02,-1.292490781248671790e-02,-7.208142217789641204e-03,-7.535579517079372958e-03,8.253731300964938997e-03,2.359320292939290700e-02,3.501823745065496540e-02,2.907959279036858441e-02,2.051270943954286788e-02,2.532515350444926490e-03,-3.334030968650877370e-03,-9.996072528745836988e-03,-9.887125388784594876e-03,-8.916126762261571484e-03,1.255702203648058173e-02,1.102396947867187796e-02,1.346406612621048500e-02,6.091370036659590759e-03,-8.497337735707778325e-04,-9.092641639278488050e-03,-1.776635130227872950e-02,-2.017233065271697295e-02,-2.511362663927585101e-02,-2.396028945936692217e-02,1.066740737127118074e-02,-1.077859113642979684e-02,-7.278399072846139344e-03,-1.441684037137456499e-02,-1.764263982841350609e-02,-2.436671898145511758e-02,-2.318387433764529729e-02,-2.955759773756789360e-02,-2.832514180609231949e-02,-3.115899980345860840e-02,1.441878254174563077e-03,-1.652064456171173715e-02,-1.627370040306056614e-02,-1.984113634734505777e-02,-2.235434012757159597e-02,-2.280816833449701014e-02,-2.247057795200812710e-02,-2.793689398139153138e-02,-2.924880773355558253e-02,-3.089866566021292824e-02,-7.846932566414771895e-03,-2.321970973443492417e-02,-1.982509247809813649e-02,-2.447079508596380557e-02,-2.219655531779896399e-02,-2.072938710142319466e-02,-1.563474665513620715e-02,-1.957181858513871650e-02,-2.376717161260909553e-02,-3.112669277772192253e-02,-9.312741034906335882e-03,-2.998882928455708780e-02,-2.866322857905552468e-02,-3.220235039537214933e-02,-2.691810465003349057e-02,-1.812403718297440208e-02,-1.494308721855374181e-02,-1.618154975356813491e-02,-2.346686325702714709e-02,-2.761913247299459945e-02,-1.214505333531284807e-02,-3.562073103955581271e-02,-3.420123967223242384e-02,-3.354817557851056536e-02,-2.641807829109800096e-02,-2.007685554504892375e-02,-1.350974079022309975e-02,-1.635435627757306221e-02,-2.223865609036940541e-02,-3.249522923234714894e-02,-1.530951540691727862e-02,-3.467262267161716482e-02,-4.007224406916100323e-02,-3.643569502639367602e-02,-3.277775881428789811e-02,-2.257621530111172253e-02,-2.139072625580971942e-02,-1.693938659748512113e-02,-2.576472150967304420e-02,-3.446620811572768950e-02,-1.494574131034195376e-02,-3.706401283773937821e-02,-3.994838012670789279e-02,-4.313531113174082915e-02,-3.930769065414314173e-02,-3.466388040225985151e-02,-2.897838671267175328e-02,-2.632627394277528912e-02,-3.149965243745977278e-02,-4.219048963071893310e-02,7.952318538090273614e-03,8.176303405628280313e-03,8.278142912152555363e-03,7.298574577900326064e-03,6.666082842552055292e-03,4.983945132939380032e-03,7.799481987130069995e-03,6.955403526505644397e-03,8.122124633938607868e-03,7.523249309824946163e-03,7.225258946076095097e-03,1.002653856937498096e-02,9.121984968348121822e-03,6.256888684137204733e-03,9.526075502028052977e-03,7.401720125916206802e-03,9.611363720558960960e-03,6.021678471765413987e-03,9.265809524184426618e-03,6.788273261935666783e-03,9.416316661394983148e-03,9.799297855091993956e-03,4.936977284138708601e-03,8.752276641151595163e-03,6.737038334345680363e-03,6.811565837573721645e-03,9.530995984763311266e-03,8.024109857367517015e-03,7.449985143882453809e-03,4.678033430792427616e-03,8.949334217185921786e-03,6.045702510549560114e-03,9.667862042443266940e-03,6.023704684310737800e-03,6.900966671917761579e-03,7.374935059311243414e-03,5.506001230437127664e-03,8.762291886690823373e-03,6.134332505628471537e-03,6.276415983241646554e-03,7.962708999908970492e-03,7.369936005088563793e-03,6.806551127657878286e-03,5.131915194316139482e-03,6.261888957919495638e-03,5.769413976835505858e-03,6.220684292314750292e-03,5.808478157138876295e-03,4.871407948456921849e-03,9.225754933491529808e-03,9.741115232343293753e-03,5.662414636228049573e-03,5.125530950431159659e-03,6.787685563268953080e-03,4.824014589722131971e-03,9.427571385565601189e-03,5.419008712499298608e-03,8.988308414616492589e-03,6.539214421193213778e-03,7.404419372633978119e-03,9.367129070506453187e-03,7.667111653108595742e-03,5.939367150613669190e-03,9.658364201751576394e-03,9.576053807720861719e-03,4.965060548473483951e-03,5.360367728099558506e-03,6.179028832771936083e-03,8.138088363663000674e-03,9.369265641763987323e-03,5.656893909827270459e-03,9.346798251177103334e-03,9.437003649805313088e-03,5.269310025897614921e-03,5.396287976220423555e-03,6.389954673542643307e-03,5.180525858995945615e-03,4.833478534692748838e-03,4.912617957346807930e-03,6.153385841603882869e-03,8.440898759563364093e-03,7.482286894261623404e-03,8.257131613186355010e-03,7.126757593994175084e-03,8.203538485909043707e-03,6.541582481826428361e-03,7.149413809295399221e-03,6.328642313182675748e-03,6.055907087443949781e-03,7.088667000834078351e-03,6.968390941732220505e-03,8.922258853367271564e-03,7.297460132127996449e-03,6.587694782833832322e-03,8.151843198697907716e-03,8.308418407393667118e-03,9.323713776855178242e-03,5.479642665210659840e-03,7.060154507298973571e-03,7.143227063096756375e-03,7.733155507370675225e-03,8.301273718384639608e-03,4.653602479490855613e-03,7.683890285145218713e-03,8.962387584323222231e-03,4.616260863749424050e-03,4.562845308133640400e-03,9.175874302874401436e-03,7.522012167097338366e-03,8.492958219224936919e-03,6.979016107151350505e-03,5.251349954952795433e-03,6.462912093838222259e-03,5.143208568245749741e-03,6.793915513255120893e-03,8.826180304586145678e-03,7.409138798549570228e-03,7.994989005831993831e-03,5.544524336275040259e-03,4.996097314420370507e-03,5.801727040697810152e-03,4.830649370576144651e-03,9.272179673638086470e-03,6.854372532996742297e-03,4.645849834556598813e-03,5.846043464188860513e-03,6.005893149868418886e-03,5.653177871917690507e-03,8.823252685951544008e-03,9.247701042948601804e-03,6.190616588788084608e-03,5.739124751233963019e-03,8.225463850574264366e-03,8.899772805803686168e-03,8.628282647348621895e-03,6.614286329591017276e-03,6.587835509224944548e-03,4.709982272078613690e-03,9.185806168259534263e-03,5.357708044283960268e-03,6.898308263108350775e-03,7.266931727563806856e-03,7.756730046720387850e-03,4.940433178535176377e-03,4.805376569555403800e-03,4.611212535529054211e-03,8.210577560859284516e-03,4.296492626055464260e-03,6.894863176365609823e-03,4.296333844417203097e-03,6.073163763625676927e-03,7.857667498859280744e-03,7.922390810283294962e-03,4.490151111143317157e-03,8.092594198769313338e-03,7.372878722901462893e-03,9.133729221570434029e-03,5.753808815239832251e-03,4.423456287788628087e-03,7.450667656071813423e-03,5.531802190025469045e-03,5.333918451422787164e-03,7.600031692014693092e-03,8.683489887670871668e-03,5.511827012016175774e-03,4.605887927546859113e-03,6.950764919755406286e-03,5.193986710345905623e-03,8.242322848001344335e-03,4.933260001576208857e-03,4.740328462727253465e-03,6.435604130363846605e-03,6.479051040217185913e-03,8.840544450431567572e-03,8.225738610749178462e-03,7.263206010226059064e-03,6.121047173106267288e-03,7.526821831253049412e-03,4.775977306512046473e-03,5.647976322146325105e-03,4.548079122898105765e-03,6.564468277485124674e-03,4.670482185532305770e-03,8.376294112692512714e-03,4.865594409773815569e-03,8.106216957293530326e-03,7.862821229670030262e-03,6.287551909037324312e-03,8.145946647319242742e-03,4.624291468195652378e-03,4.373902176280724217e-03,4.964495432007688495e-03,8.105738648561193818e-03,5.917885906281649018e-03,6.103009684404587208e-03,4.868864647059069177e-03,5.694528846126443132e-03,6.946263988712716130e-03,5.308371458596251348e-03,5.386956886467020485e-03,5.244320192587695155e-03,4.943164514363383374e-03,8.259400516856417115e-03,9.160269556171659472e-03,7.199414007521855868e-03,9.186274670315979288e-03,9.627179044358424517e-03,5.575036916574566473e-03,5.022147324014170772e-03,8.486083666849650320e-03,8.012869962031508864e-03,5.364580525307296663e-03,6.751088339850041045e-03,9.006189988420901932e-03,5.625578906952693505e-03,5.520005741274962990e-03,8.955531470428405513e-03,8.165557495579284578e-03,9.079988844871884901e-03,5.518060042230172463e-03,4.729883303483366740e-03,9.621177931186282450e-03,7.308032307940286881e-03,6.718151455087817588e-03,5.971178950974456029e-03,5.608291223425859034e-03,5.274010122449489767e-03,9.050973510207829462e-03,8.484107066982918624e-03,8.387825856733463481e-03,6.641778754590672157e-03,8.068993514222673122e-03,9.407218683234836940e-03,8.302571007047256785e-03,4.533056233333955173e-03,8.945002590573299106e-03,5.693499338956606141e-03,6.454843763591319554e-03,9.402212972494619625e-03,5.114706573240959155e-03,5.873013104882562549e-03,8.102263110840951174e-03,5.563742210842865729e-03,5.227918134238329455e-03,6.615336753536435813e-03,5.562925508514855039e-03,9.568372818533409790e-03,6.373086333448639389e-03,6.637664386220666277e-03,9.246477459612567965e-03,9.846695053282773086e-03,6.510542822828179962e-03,9.454952939550929220e-03,6.897251140634443403e-03,7.281478101240156965e-03,4.609691971248746321e-03,7.121914551775137756e-03,6.430921350360728310e-03,8.284862784885998685e-03,9.012091293291052754e-03,9.292513203831441818e-03,9.768731227245204540e-03,6.043073093147974077e-03,8.378406402038173287e-03,7.314342876691718939e-03,5.325158907379516117e-03,4.909165046269772792e-03,9.540117295095153910e-03,6.253491670162186072e-03,7.687331101896366717e-03,6.212419851719858978e-03,9.524734608520291426e-03,5.270952255385334163e-03,7.835132545161563322e-03,8.605913890765799421e-03,5.065149381596560467e-03,5.868838713762900700e-03,9.284542759830153452e-03,7.243257457416883358e-03,9.756974154616709916e-03,9.936152099633553322e-03,7.688255811166977080e-03,7.595053697643120404e-03,5.168786176842867473e-03,7.530562373479155781e-03,6.318893633395811400e-03,8.895830082308077424e-03,8.913530146317700381e-03,9.477796494900228574e-03,7.224725097657215198e-03,5.494361017636389434e-03,7.303959713945454464e-03,9.038864279096366430e-03,9.164559784055652941e-03,8.375752247415232596e-03,8.399386368014617049e-03,6.798374417753388563e-03,9.158768308754073814e-03,9.667604412651933238e-03,8.747754337727222870e-03,4.741942709404123844e-03,7.218577913142201069e-03,4.829814247904085263e-03,4.772767591401435444e-03,6.017022568220357394e-03,5.853842450501078008e-03,5.634809957766461798e-03,9.121654678348918577e-03,8.651135535547639990e-03,7.504607598427616433e-03,5.158809536060127154e-03,5.429979664379525062e-03,8.833344188770103633e-03,9.149850454774470856e-03,6.978298667181585119e-03,7.965399111554454653e-03,8.471358065108588672e-03,6.075614237007605396e-03,7.490005652629147005e-03,7.384619480617235499e-03,8.869262897938398268e-03,9.263462961399602374e-03,5.214587901143515405e-03,7.223030243497167817e-03,7.122068679040811923e-03,8.506256794526486503e-03,9.756124677550484167e-03,5.640705422179165957e-03,7.144617347809993288e-03,8.167603837924471838e-03,4.452404270972443352e-03,7.349040402187868339e-03,9.305185638957024982e-03,9.994004976852835509e-03,6.244239780397067667e-03,5.330655222368378167e-03,6.450524657815286632e-03,8.895590765327114277e-03,5.545254557433904920e-03,9.822593632289457893e-03,4.900781909538621389e-03,6.683205411476835466e-03,5.788079625376570635e-03,7.320781281961919254e-03,5.621377173061485599e-03,6.818516105411202496e-03,5.823938264662592047e-03,8.064427086732120498e-03,9.611428319959076580e-03,6.877778515458309039e-03,5.191568666956159275e-03,8.137743308683401122e-03,6.720674805611673991e-03,6.442117034146038236e-03,7.208897051039643566e-03,8.417187592667225646e-03,7.576403553593649004e-03,6.780854933779209559e-03,5.491063973953901056e-03,9.636657345459757884e-03,9.238397894336978361e-03,8.898284256514350787e-03,7.244844345141863290e-03,6.886075956854478645e-03,7.175497782568450444e-03,6.200480883029218723e-03,1.044097476882594258e-02,8.181976470540849866e-03,8.735873533533503738e-03,5.730401550752333047e-03,4.558320408528227126e-03,9.411483318689324931e-03,5.754004936673078573e-03,5.438327721026882042e-03,7.676835908828553989e-03,7.918957176484008736e-03,7.794490260389413429e-03,6.099523245633645292e-03,7.709172481653112606e-03,6.977881323868814593e-03,8.652744398958090929e-03,6.658081921950304016e-03,7.263471464946353630e-03,5.526327772435335461e-03,6.300661909323844456e-03,6.536371016215261794e-03,8.092961847935998404e-03,5.965076760424082788e-03,8.171830844834243948e-03,9.362244402363099904e-03,4.404192654209148142e-03,7.610084394831529049e-03,8.443800434796665255e-03,8.549756939058524019e-03,9.017522761957009678e-03,5.754560309838445409e-03,7.620405057926925643e-03,7.402427252993691587e-03,5.502377597750939160e-03,5.659166141727362681e-03,6.160455146543987459e-03,2.436125630721432470e-02,3.167719586676003701e-02,1.830796348597849357e-02,-7.387804544456311184e-03,-3.910412378907508757e-02,-4.458484150319311917e-02,-4.181146477445904508e-02,-3.673583363138711866e-02,-3.441653921291369655e-02,1.200317275643880861e-02,2.211345542455165486e-02,1.659622142143516929e-02,3.580077242676563826e-03,-6.117947375071213986e-03,-1.597442489059048426e-02,-2.279480537772818685e-02,-2.923339715386683024e-02,-2.780279053531638928e-02,-3.021543419517182597e-02,1.564114164874833707e-02,1.880144838331539430e-03,-1.657699684871414766e-02,-2.186003056011546694e-02,-1.898546389434506085e-02,-2.307740606585504534e-02,-2.157043403046046692e-02,-2.390650327509645512e-02,-3.000227118578822558e-02,-3.847776358599273860e-02,1.278199280119356705e-02,-2.333018950597035707e-02,-3.413852715061559823e-02,-2.640741331008175652e-02,-1.720782194707363641e-02,-7.571399320332487456e-03,-4.621266139450973948e-03,-3.247465043099926132e-03,-7.203531090804252135e-03,-1.773876730146293351e-02,9.580540353763352182e-03,-1.630163852247804024e-02,-1.488213371302782306e-02,-5.154111524739883772e-03,9.050836205754404437e-03,1.591223152833473597e-02,2.688249239376947972e-02,2.533803698556415240e-02,2.042618699393548148e-02,1.090986545023440654e-02,7.266920211564961360e-03,-1.924967450555128620e-02,-4.822868991580922526e-03,7.942370387647019331e-03,2.402015346550114006e-02,4.337224753703743108e-02,5.349999903194337103e-02,5.697039159538618697e-02,4.581267134244221273e-02,3.211033537255250647e-02,1.136437211566343778e-03,-2.551437650766553294e-02,-1.025806813937741452e-02,1.032473196520388055e-02,2.672728818140979873e-02,4.726075496206515181e-02,6.533250986517372128e-02,6.613350931445063918e-02,6.168974071802015707e-02,3.898426977376553970e-02,-1.875837171305594049e-03,-3.168944992161019936e-02,-1.469834545506798484e-02,8.181565595598690177e-03,2.587216534619664332e-02,4.557426561437887685e-02,6.319974559656034441e-02,7.317075272374243267e-02,6.148047692085727850e-02,3.564251696497495320e-02,-1.964769410402484890e-03,-2.981384564242075402e-02,-2.150638062079543444e-02,-1.342895249575001490e-03,1.778765922170482891e-02,3.952900241952432558e-02,6.076900096459866146e-02,6.588892255126943542e-02,5.456040626434341401e-02,3.241535586006056430e-02,-3.992683887294836906e-03,-3.384200539302168603e-02,-2.395993114137564411e-02,-1.065424715927141934e-02,2.330770133549055732e-03,2.151435404729979545e-02,3.938713322287315521e-02,4.393762459270772469e-02,3.645590442365138906e-02,1.630897309107915902e-02,5.621071249600373410e-03,8.182942533654488995e-03,9.180631934426173452e-03,8.682915446516576569e-03,9.398197013659799481e-03,7.123446786767360754e-03,6.650762217875000326e-03,9.355502369944279986e-03,7.774179741062064129e-03,7.675531966722597133e-03,7.420165813512282979e-03,7.647270995341104959e-03,5.590838345211035856e-03,7.176368868207103242e-03,5.431867468041815319e-03,8.718710217212419233e-03,5.847976196417120805e-03,6.555756802544157255e-03,9.546476493658992077e-03,6.617338288636533464e-03,7.411166516599133544e-03,6.492870959410313760e-03,6.237987533251171043e-03,8.379612859577582548e-03,8.651248068196282226e-03,7.588917281625671279e-03,6.128122479804999287e-03,4.572281627375071253e-03,8.516460336322554878e-03,6.176065660589870679e-03,6.794943668632732851e-03,5.616966269617702442e-03,8.369237123870564704e-03,9.060949571468890004e-03,5.695291827751605869e-03,9.037518560445708532e-03,9.430796425474513231e-03,8.088898842068434694e-03,6.508333266315510270e-03,5.759017120968025483e-03,9.914289897229245502e-03,8.149364967313251287e-03,6.711378125350803137e-03,8.140241081250533528e-03,9.614256509214831603e-03,8.110749292469562888e-03,6.152787919940313870e-03,6.234598045425013627e-03,7.961993384415926717e-03,8.255960812286829500e-03,4.991481372777344452e-03,7.146464317405134235e-03,7.032204399694648271e-03,5.503729693258172830e-03,8.463087896400118409e-03,5.938921318690049828e-03,6.017777933653227843e-03,6.761162943897954837e-03,7.951193111619759071e-03,7.308344141628046568e-03,6.578879810807009357e-03,6.927712077619762113e-03,6.227111139256570269e-03,5.490713000153447931e-03,7.674068571899657874e-03,5.438133624734410414e-03,5.277483216706808228e-03,5.733002221981540851e-03,9.871232328143183382e-03,6.436681078571957620e-03,8.025487176262901395e-03,6.184699103689243922e-03,7.107087456881981680e-03,9.603345779570986868e-03,6.526732692616742972e-03,8.500670246513384459e-03,9.375824692791067186e-03,9.363898773655485869e-03,6.922040660206380848e-03,5.325417604945757374e-03,4.999280147220724370e-03,8.590223308944221897e-03,6.475050050157499237e-03,7.580807928507449049e-03,5.951038320620338079e-03,6.954279147906984246e-03,5.448683117766145098e-03,6.095620190654716351e-03,5.296279902373211834e-03,9.758914669903589675e-03,5.650970976864705397e-03,9.492794998733598139e-03,7.829763424942510000e-03,6.643399554563304485e-03,6.656334326496202332e-03,7.142881861760480046e-03,7.267391605110876118e-03,5.835306470483570679e-03,5.483186619052387613e-03,8.520351422721249290e-03,5.543228522642795232e-03,4.821829349132131758e-03,6.158784165922070834e-03,7.583938234804588237e-03,6.736060564866054416e-03,8.377968670429012180e-03,4.640974685523181591e-03,8.929692529732186426e-03,8.405754824791519461e-03,5.787091791912412665e-03,8.685680537537888643e-03,8.525279246862230501e-03,5.725441167241963718e-03,8.764270110910464193e-03,5.876178714889144540e-03,8.819171464035156435e-03,6.577938423103777028e-03,7.210460743821214824e-03,6.429109776355878582e-03,8.855066272347772785e-03,5.811011921520537436e-03,5.217006829562577212e-03,4.790894305015767386e-03,7.783040182038304319e-03,6.611891571236607444e-03,5.862821140554984149e-03,7.070875090130061304e-03,7.462087272574211526e-03,7.211840064802917116e-03,5.849187407477537438e-03,7.918741093363381237e-03,8.726986958135831904e-03,8.360511959124761541e-03,6.609088013503344218e-03,7.982605334244568043e-03,8.380108934608989854e-03,8.149482606266104587e-03,9.278890325389614266e-03,8.070638180998004549e-03,5.536852371695052434e-03,8.085133691217350274e-03,7.527746692011926151e-03,9.077834681173480372e-03,6.689770718451189431e-03,8.405383030114959783e-03,7.254963988298640531e-03,8.763014636084540468e-03,7.366136957155557628e-03,5.752797457717372283e-03,5.264134174732536774e-03,7.231343342842283528e-03,8.854907811183138425e-03,8.024189551895431413e-03,4.914168252910694999e-03,5.949177278161343722e-03,7.430004143477829913e-03,7.923764187007123136e-03,6.597223023793783066e-03,4.438881057994178460e-03,4.896146701449942927e-03,8.172456715369225480e-03,8.123809860923111512e-03,6.655795385073362026e-03,7.274298163150625177e-03,8.060425137374980717e-03,6.104704105433262674e-03,9.285317842288887472e-03,4.394397004080944323e-03,8.164902776871216586e-03,7.085596821203813712e-03,6.730703085376369375e-03,5.498425256764651568e-03,6.254051933611423468e-03,7.607245396367493841e-03,8.164385776174719681e-03,7.287207095920573974e-03,6.481977610227667753e-03,8.063524526246366661e-03,5.934242453723598786e-03,5.066673596433183928e-03,6.496034542619801878e-03,8.747630735777721031e-03,8.215790883800066710e-03,9.110184422956359510e-03,6.039018156152066268e-03,6.005196476245766753e-03,6.153220923452526296e-03,5.687280286014209131e-03,5.194030677228195052e-03,8.428344048512269662e-03,9.166538361421639261e-03,6.311973581157385473e-03,6.534200745043044177e-03,8.367648878976485446e-03,8.441755392921216836e-03,8.815828497408939937e-03,7.764959233840653535e-03,8.840360738837827956e-03,4.980524060832059070e-03,7.008223266934979385e-03,5.475599500942379856e-03,6.899105413689442939e-03,8.395037721469015765e-03,5.544488620929987309e-03,9.715818046161603383e-03,6.121468931936068815e-03,6.402329972242301430e-03,8.147134177465960650e-03,5.826593317313289062e-03,8.091131956779904974e-03,8.059061485827981319e-03,5.836873381036909725e-03,5.314004830974453954e-03,9.345822158620368733e-03,5.296404090515816412e-03,5.128908417501768999e-03,8.158750522177704925e-03,7.070366775152126318e-03,6.474022084085528754e-03,6.941576183749981893e-03,6.212096938188660725e-03,1.068456233483347506e-02,6.694146320273523625e-03,1.059860707523892567e-02,6.483107416650051372e-03,6.018400300867581855e-03,9.859161550234201918e-03,9.639427965722048228e-03,6.199272931659846088e-03,7.012467699463068721e-03,9.527841308348666480e-03,6.354521153613528275e-03,8.173990878375753111e-03,6.004757657803155152e-03,7.174324182768621570e-03,9.545245680656944814e-03,6.626476297891165795e-03,6.238058142578454569e-03,8.343769208137011978e-03,5.848362501831236467e-03,8.036352941948382220e-03,5.167368566849945763e-03,9.259516935857102504e-03,7.684690906804673115e-03,8.470411922533565771e-03,9.589745589631487946e-03,5.908648658241671091e-03,9.304154060687084074e-03,9.370098689293270347e-03,9.667658111551831121e-03,6.973468379126887898e-03,5.245031857039953588e-03,7.625682044233340895e-03,9.139308241188102977e-03,9.386420933230612065e-03,6.493143818223208637e-03,7.742466587082836270e-03,6.477809560974654053e-03,9.945383788670200675e-03,7.188536966107521818e-03,5.511675356304437945e-03,8.448655849825461098e-03,7.316893267222653388e-03,6.904416387228756898e-03,5.276832103246447379e-03,9.169985868099701787e-03,8.825509194835864935e-03,6.142213734416969613e-03,6.114799830761169681e-03,5.463356757616036688e-03,5.330869936768512819e-03,7.509838357415445781e-03,8.577191455275714332e-03,8.946560853876692546e-03,9.285939225569446800e-03,9.497955491513155463e-03,9.596493701965981213e-03,8.333044651799121141e-03,7.258115490266574613e-03,8.483093598679254319e-03,7.364031377974763516e-03,9.915116436493096735e-03,5.767263418713509081e-03,8.177885342301073959e-03,6.797919616957267749e-03,8.220701966713536007e-03,7.360377990515193716e-03,9.570212673120441146e-03,9.738032266373285173e-03,8.309487306698925754e-03,9.147434134488117985e-03,6.396060837645184405e-03,7.827999372703713793e-03,8.396089115452537097e-03,9.839698176586921322e-03,5.071527234291728532e-03,7.424178724895508230e-03,7.239787324928866064e-03,5.379754605006509781e-03,8.178431168483369512e-03
-2.212263910226065083e-02,8.012727889446541463e-03,5.711392921951888996e-03,7.154530903819435184e-03,5.139572646957248428e-03,5.669970548067803685e-03,9.090655639910441912e-03,8.542203370493234998e-03,9.734695595460165357e-03,9.285276830414107563e-03,7.141327215127624313e-03,6.660148167759716124e-03,6.526398495664643973e-03,9.319447280744252299e-03,7.669570842905223604e-03,6.421364741238953615e-03,5.808116507978694151e-03,7.473868132742616209e-03,6.612424988470544558e-03,7.027143277835552759e-03,5.318222558997661581e-03,7.757689603557956989e-03,5.899647309856372382e-03,5.321756261676216689e-03,7.915062695019018518e-03,5.904769608039857863e-03,8.931405738611892034e-03,7.497218455735537787e-03,7.473885616575689367e-03,8.871616169438918328e-03,8.212153785478478948e-03,8.490912314132462863e-03,6.951972297973576208e-03,9.313987117396775595e-03,6.622557248969152856e-03,9.468477547490757040e-03,7.996897378544535334e-03,6.476281516555605113e-03,7.616742812397900818e-03,7.999735153783119057e-03,7.330823886337232108e-03,7.755581818218690825e-03,6.676658334053797890e-03,5.449869172445877437e-03,8.252309879850757562e-03,6.912914996445800042e-03,8.432644517234780604e-03,9.890205461534838996e-03,9.456200123793487289e-03,7.450200042386374497e-03,8.755280250195901157e-03,9.356961157403942755e-03,5.898335114354420240e-03,9.614557969662545708e-03,5.821784589299879714e-03,5.662936311752217282e-03,8.216833551994363188e-03,5.168520690635789241e-03,6.262077167324492377e-03,7.315589160935348327e-03,5.210985367068735226e-03,9.632874769971214862e-03,8.965684984552330095e-03,7.362578996315822209e-03,9.913053982894805272e-03,7.207467121994123524e-03,8.097641802720070142e-03,5.536837993717460930e-03,8.228262398030070784e-03,5.677825220375835695e-03,8.153492481966704425e-03,7.974881934090759239e-03,6.837491315295586743e-03,7.942039635219430571e-03,6.292915836772410530e-03,6.702651694219068090e-03,7.712059488757128795e-03,5.235948210013476045e-03,7.951816894230662180e-03,6.576908761219320450e-03,5.382394521229104563e-03,5.905324443171396272e-03,8.787118217724904090e-03,7.250542323544217904e-03,7.857483187776704084e-03,7.949312769509223747e-03,5.811531574578253020e-03,7.966962000284898149e-03,9.656156959044185153e-03,9.319055617093875699e-03,9.568308854981891903e-03,7.771625725771618039e-03,6.069771431650143427e-03,5.278894576208102186e-03,7.466952890859668811e-03,6.877760707897375390e-03,7.437889460852426145e-03,9.524833557375891879e-03,6.804158202706218385e-03,7.796203820122721284e-03,6.628819140367800053e-03,4.650594020830046103e-03,1.240619341354918170e-03,4.539586287104692419e-03,2.453765778515699068e-03,-6.255645053099292106e-03,-6.635515992019475930e-03,-9.350162549537343118e-03,-3.758111874825817433e-03,-7.053182741419966942e-03,-6.135507892579985731e-03,7.401534666907336191e-03,2.951611080425848091e-03,2.899599685344796639e-03,-6.215963878578034674e-04,-7.023712497049874881e-03,-6.036642789475579578e-03,-9.466952892986905607e-03,-9.154883274055799700e-03,-7.302961075030907009e-03,-7.732150263865020245e-03,6.413662570400619628e-03,3.844225748382879698e-03,9.429742558967188146e-04,-8.196184511640511663e-03,-9.200151945364784881e-03,-9.512415806573998323e-03,-1.108987000451022199e-02,-1.174324540756111618e-02,-1.420538219984170819e-02,-1.367090749532633327e-02,-1.826227314468086916e-03,-2.331987039672014581e-03,-5.111104789343281704e-03,-1.002569905109864865e-02,-1.199211270384997578e-02,-1.079277704646858412e-02,-1.311508106675480546e-02,-1.369728067382172676e-02,-1.740063419557751762e-02,-1.796732102066718809e-02,-6.238617568375647883e-03,-8.663981744180700856e-03,-1.266016737390280103e-02,-1.632311873901276869e-02,-1.380703079499351338e-02,-1.352488866898762798e-02,-1.344616967842059314e-02,-1.694785056396587788e-02,-1.762973465685077276e-02,-1.989849631526112439e-02,-7.723979228534836629e-03,-9.939992817417461768e-03,-1.657003103839038705e-02,-2.082630960627570096e-02,-1.943718841250002133e-02,-1.816834099229281199e-02,-1.850353351964280357e-02,-2.016642851312621526e-02,-2.095524772886528039e-02,-2.519675181544960008e-02,-6.375761937041884812e-03,-8.779945679977150044e-03,-1.433737246982023233e-02,-1.931392128224270963e-02,-2.085935407368586653e-02,-2.099836023703218271e-02,-2.078787189678217573e-02,-2.146197783838136100e-02,-2.436826730205279151e-02,-2.784507774513687167e-02,-6.775083201547446587e-03,-9.970456667454469235e-03,-1.449033646763702235e-02,-2.007009273901792790e-02,-2.118476342056162601e-02,-1.980817033321404311e-02,-1.703442522081209665e-02,-2.099417453205871392e-02,-2.253115718358635403e-02,-2.712493837686122053e-02,-4.906111829846539901e-03,-8.619578122475914095e-03,-1.466286125554587018e-02,-1.803559483374312170e-02,-1.763959671200375501e-02,-1.699801234965201552e-02,-2.088353299062415541e-02,-1.978063563788886106e-02,-2.127302732012348666e-02,-2.248788130666511814e-02,-4.617162800003264331e-03,-7.526672877111090232e-03,-1.604841618004640424e-02,-1.793076457879206470e-02,-2.139121694605890245e-02,-2.120959444953407838e-02,-1.783028208970027437e-02,-2.396504418928254582e-02,-2.595135258006095111e-02,-2.463749038686730355e-02,6.690947188056936383e-03,8.141865891187517745e-03,6.694233846131669892e-03,7.697136777343237778e-03,9.350324452307191836e-03,8.538562527164566748e-03,6.742555204449197058e-03,7.130858243237322980e-03,5.751866494914104934e-03,9.787538909282888708e-03,9.127554858640014521e-03,5.349160345715422808e-03,8.399063580132919149e-03,8.573291316170362705e-03,9.832953198960220006e-03,5.713686059552683903e-03,7.285683972206169999e-03,8.513358942514608410e-03,8.752401121982975735e-03,9.803352969532384484e-03,8.559101213356297422e-03,5.817946440649681729e-03,5.188157736670767455e-03,5.452223155016686085e-03,9.786061020409129660e-03,6.654791998260747680e-03,8.055804962648814571e-03,7.783200576745544219e-03,6.412397522643728878e-03,9.301819734776084828e-03,7.521125277461076716e-03,9.803022561957301650e-03,8.113439672624544671e-03,8.490592557452778313e-03,6.067031333011512102e-03,6.091563261698157428e-03,4.842952991043331795e-03,5.084742577044507397e-03,6.508856651759771517e-03,8.177079729918410728e-03,6.627212716270710659e-03,5.794071805228550101e-03,6.347452008603380116e-03,7.800924487844185934e-03,8.445045183296067542e-03,5.928417576935920107e-03,7.213250989918189131e-03,9.673189822624418677e-03,6.908556870315371579e-03,7.427206004053950317e-03,7.083923604439824363e-03,7.004774215773743561e-03,8.197925043088388763e-03,6.991233261392047239e-03,9.647031256401381386e-03,8.669209933283019212e-03,5.004223311950958472e-03,6.911783967262879504e-03,8.105846307221097405e-03,8.898477933668809056e-03,7.699654646620254089e-03,8.814096555934347599e-03,8.963122980531585196e-03,6.283501851254378115e-03,8.921592831447460251e-03,4.900189009289475546e-03,6.672327195832575449e-03,5.244416783145706279e-03,5.740119958677458722e-03,7.094272251592462566e-03,9.113959091068027721e-03,7.071299484511957105e-03,8.276053199203334612e-03,8.611732482733284316e-03,5.664231477550478802e-03,8.214175383194901800e-03,4.962775445100299498e-03,5.636856691103646518e-03,8.633561696797471818e-03,8.591878961270808454e-03,9.484673027984660484e-03,7.852046877285120963e-03,7.292982173325069511e-03,6.355297102263290920e-03,7.794067242904987800e-03,5.019737556347395047e-03,7.004285174989382211e-03,5.324811294780346441e-03,8.616346422941293520e-03,6.548062134780686071e-03,4.991203360992940881e-03,7.589528930964940454e-03,8.449988485575170641e-03,6.637300201153968973e-03,9.677828295447641477e-03,7.478454162762828220e-03,9.731319547639968523e-03,8.847593546208672860e-03,5.640228575836968988e-03,7.696476290436600823e-03,6.794078844316726179e-03,7.054417649950180808e-03,7.281182643385616243e-03,9.252262078874829224e-03,6.200738970390968011e-03,6.795570556300971343e-03,6.723136251416154605e-03,8.919749782972602806e-03,6.674825130088195974e-03,8.066963379218441282e-03,4.909531305800641718e-03,7.259573482832583011e-03,6.457113354350407092e-03,5.795032033042704298e-03,5.347392245974852756e-03,5.231257427017375894e-03,8.779284230173238154e-03,8.174121492450333454e-03,5.700676361244416332e-03,7.423520015938824337e-03,5.806443116984482539e-03,8.446911060282813119e-03,7.060438613417140477e-03,9.515922901039355550e-03,5.010072336022675793e-03,6.636738523800438452e-03,8.640120020061788433e-03,5.533673741198077978e-03,5.809087748888748862e-03,7.107975942888597812e-03,6.707125871564091277e-03,9.521521178425673346e-03,5.389150891596016305e-03,9.152848648510019877e-03,9.525350678120969236e-03,4.955134137836580618e-03,8.958561081065101114e-03,6.748153950981045437e-03,5.158201630915845021e-03,7.189253140167130990e-03,7.995925280402490370e-03,4.898076232027247581e-03,8.553232718618733119e-03,7.312361170948664807e-03,6.883140730503762780e-03,8.483929117507617648e-03,9.410670024007276521e-03,8.557314226759217199e-03,8.391055044965694057e-03,7.229217840989165048e-03,7.207552024219278375e-03,6.273709477357931538e-03,8.352535376570156475e-03,7.508855241700992597e-03,6.843138847209429693e-03,5.629484183072599318e-03,9.315778594397429099e-03,9.115291584228106189e-03,6.496376683933867760e-03,7.745196962581990877e-03,8.319417374384090527e-03,7.286222851147565807e-03,6.160645961833497580e-03,9.655132028813786724e-03,7.121956321136551846e-03,7.909002872206402635e-03,8.295911694883842738e-03,7.434451274239020288e-03,7.570604900375916060e-03,7.739981921460631700e-03,6.147456603533874714e-03,5.655971127810813237e-03,9.286741518122811415e-03,6.578482061787569932e-03,5.757406652432559002e-03,6.341936345008819531e-03,6.051095345285487093e-03,8.443730089164136129e-03,6.674260605465005824e-03,4.871717311298772585e-03,6.938326327535802168e-03,6.686835406061531970e-03,5.737707399584467821e-03,6.387774441267320136e-03,4.881415048526434666e-03,9.474545495596788450e-03,9.380180689522921514e-03,8.879793745342411462e-03,5.523655931551263790e-03,7.687067806935633449e-03,8.093252434824633329e-03,9.515911339687562961e-03,7.442848164920639817e-03,7.903707030828530100e-03,7.557428521455956255e-03,4.887246721595550278e-03,6.341741245028025345e-03,5.430514871255192125e-03,5.785429210671374362e-03,5.948651752594926595e-03,6.243067174794724415e-03,7.767639196534011949e-03,5.970590434089980553e-03,7.188354789551532759e-03,8.532244356020870363e-03,9.791893326615693990e-03,6.345662775924781202e-03,7.816903400195328311e-03,8.786313679187354383e-03,5.553362315101938521e-03,8.350611587504209316e-03,7.165159829499805587e-03,6.474691929156438722e-03,9.026918792325871674e-03,9.889453817998718546e-03,9.258131043887953340e-03,9.358005511923757694e-03,9.516934830947386750e-03,8.190774226881025744e-03,7.922765292062580733e-03,5.848126728634502926e-03,9.569200109417440314e-03,9.234498714362184696e-03,6.753667451624013017e-03,5.614011697622201674e-03,7.846710763028714661e-03,9.980380182437607189e-03,8.245709690909241649e-03,1.031443604197602483e-02,6.740645407360165535e-03,6.467724628436901692e-03,5.829721387473498981e-03,7.582751974399455641e-03,7.913279013006785378e-03,7.105367813519200375e-03,7.158129672602311575e-03,6.230887388545479702e-03,8.204726103889703123e-03,9.090615071561565508e-03,1.009035227711295273e-02,9.085532570424870863e-03,8.256483091927141471e-03,9.166935921867078521e-03,8.202843491599299056e-03,7.006638548561309153e-03,9.905201686986117929e-03,9.891501970624268919e-03,8.238188538476362913e-03,6.561542037362543683e-03,7.760384250747895049e-03,8.941924296183333468e-03,7.209817549980623852e-03,6.573543236701451242e-03,5.884699173329545341e-03,8.192896954883368416e-03,8.192399193659672882e-03,7.513971848319716922e-03,9.654365790239427536e-03,9.824688786878093757e-03,8.848568175657951090e-03,9.599752169890705261e-03,9.581027415227733046e-03,1.051617820132744185e-02,7.925625578981222719e-03,8.240853190116286670e-03,7.639973643344405950e-03,8.743194431168881120e-03,1.024324737929420415e-02,9.835172629991643586e-03,1.015979971585577804e-02,7.196402085551677902e-03,1.013259706017837283e-02,8.665670232975156845e-03,8.853654342337535788e-03,1.051816267375313418e-02,6.683900426170436178e-03,9.589610956238852138e-03,9.739414340404713155e-03,1.013043555322883267e-02,5.778453478745022159e-03,8.895641704357973994e-03,6.757490111876537225e-03,9.350791313607109689e-03,6.813577851604409735e-03,9.847791974845452462e-03,5.483601568020979485e-03,7.197828162614636899e-03,8.417872574587956930e-03,7.929729781588224641e-03,8.731718573516933021e-03,7.370585277158504291e-03,7.124583061477568133e-03,9.530912561267593924e-03,7.507070748565911750e-03,7.550000215402007282e-03,9.850187803253140917e-03,8.111103920566806527e-03,6.251033681365746400e-03,5.692344970544301400e-03,7.282840652799164177e-03,9.057596389881388682e-03,5.620016638394486827e-03,8.251668031933735367e-03,7.049829776574535224e-03,9.447279314974459108e-03,8.762431781888358959e-03,5.193226538852011194e-03,8.790803372366111715e-03,5.266185432322291297e-03,5.379688480895212198e-03,9.079333353874440363e-03,9.845863302052485291e-03,5.060009792376703175e-03,6.808065986691758976e-03,7.755999171483561258e-03,6.244477251638079311e-03,7.621191473112358568e-03,6.436423583271804263e-03,9.231073790912097329e-03,7.095638092570703305e-03,8.793616144223541722e-03,9.410013693171377994e-03,8.331309402102297923e-03,8.129975549756494890e-03,8.287423290434622891e-03,5.294685018924538515e-03,9.049740387348809839e-03,9.001608829345081678e-03,8.029456236333488289e-03,4.969052934529919439e-03,8.262087987869122865e-03,5.949971610605827264e-03,7.559858523310794033e-03,5.136970360551399752e-03,8.469903757357819668e-03,8.190528441382420935e-03,8.060643123385356767e-03,4.836810490973557364e-03,6.992848533968172055e-03,7.764161129639852131e-03,6.612318717326145373e-03,4.787234746275570441e-03,6.805270350861156517e-03,5.252847201029567717e-03,6.661185819129155153e-03,9.245993284521580868e-03,8.329018110728491145e-03,7.079809056240627015e-03,8.911087549924284756e-03,5.551263267288096895e-03,5.655254923625300557e-03,6.534166331819915401e-03,5.851505518686185917e-03,9.294125990885625591e-03,5.037805368102948531e-03,4.647124740708276705e-03,7.969566818048780601e-03,6.552238070930103964e-03,9.098560156501695612e-03,8.709180297851008140e-03,6.949934862480369735e-03,9.177048779880920409e-03,8.516751956742917018e-03,7.436636933378414430e-03,9.140431012136990274e-03,7.680520100534714810e-03,8.104989253053208539e-03,5.703823869447625233e-03,7.565853797116566318e-03,4.567542863640536646e-03,8.762404801112823327e-03,6.468324285524826994e-03,8.758703366474211716e-03,6.435285843734398110e-03,8.237711677937588003e-03,9.005456699486241723e-03,9.355416416631335413e-03,6.035907690876663248e-03,6.453211043075049967e-03,8.849475554652732473e-03,7.894530593206544947e-03,9.035296317614984613e-03,5.203734520479444924e-03,8.730490066949363193e-03,6.635463368601018930e-03,5.425546214422742423e-03,7.259618574399983107e-03,8.127546276415148832e-03,8.822098456653638954e-03,8.689813064532455125e-03,6.094508253392665574e-03,8.106024634957298414e-03,6.013051237104100402e-03,5.829033294412417146e-03,8.414033256617430012e-03,7.453369863325037814e-03,6.635242198362787530e-03,8.914362181692940534e-03,8.375147554306192413e-03,5.688289365826205285e-03,3.791649726367170205e-03,2.580311674767622049e-03,7.595844426808273653e-03,9.469999961425071278e-03,4.525314912458494945e-03,-1.378723783423891399e-03,1.065547962572412424e-03,3.209430950193330363e-03,2.735620870493701232e-03,5.078250297896286930e-03,5.488416155402115956e-03,1.128086563656890626e-02,2.783263499255101553e-02,3.270236885619947492e-02,2.572943032549909054e-02,2.331345504269739105e-02,2.226193644779773245e-02,1.922611159643782680e-02,1.832914290627086357e-02,2.299976899606999414e-02,3.299310798700807491e-03,2.483731763582102542e-02,3.840588319977014664e-02,3.574341673669611391e-02,2.857376788046033303e-02,2.598158785424575096e-02,2.257470843250788950e-02,2.003372174478081080e-02,2.355524800778451694e-02,2.674525541381394048e-02,7.412643039707976500e-03,2.930715942502244709e-02,3.359775218844095190e-02,2.796909414776179575e-02,1.997867134605645426e-02,1.673168633066356159e-02,1.692900857465088130e-02,1.500319489688488328e-02,1.489348566062691573e-02,1.760980290930448666e-02,4.215942985407601304e-03,2.163428293750241371e-02,2.529204950188089496e-02,1.940635522081063033e-02,1.527914117659045883e-02,1.304993815657510062e-02,1.142379772640206986e-02,1.169486053061437672e-02,8.168358835603118512e-03,1.178471493181713729e-02,-5.306892303989872023e-04,1.862186184282695750e-02,1.871022126380529615e-02,1.335727066233602899e-02,9.939644446027129376e-03,5.823371186824618205e-03,6.838547034684082371e-03,3.379137910521511426e-03,1.882467042617731907e-03,8.331859198837342911e-03,5.911625205004024386e-06,1.481427834881402644e-02,1.651654895916327553e-02,9.069545196499901457e-03,2.660158604986656832e-03,2.934480746223272138e-03,1.072318867981735153e-03,-5.277285785712298657e-04,-3.649276494491734794e-03,2.534476928883991342e-03,3.253424747466269855e-03,1.632268990658754249e-02,1.352204608830267704e-02,9.810665933252027404e-03,6.547502019459112456e-03,1.611978344843464570e-03,2.958250866485832679e-04,4.117636822697384215e-04,-7.250804330762087441e-03,2.616037589606671088e-03,8.017114786868636753e-04,1.510902274083830710e-02,1.778880292060139312e-02,1.175880945675058034e-02,8.155940911007870248e-03,3.091908863745792754e-03,3.158059636485661872e-03,-3.224178814654234115e-03,-4.881445971536009509e-03,4.840166118131542655e-03,-1.296970591917548550e-03,1.544749608521560347e-02,1.858206288949479715e-02,1.683838793514140161e-02,9.853575006895605448e-03,1.015015983009793545e-02,6.741483897855507328e-03,1.874607113326544686e-03,2.115659050860440628e-03,7.484735135696958183e-03,8.933405094695803447e-03,8.215185355888950103e-03,6.330677723837631159e-03,6.498744570740866769e-03,7.546658712280759906e-03,7.551674975695846573e-03,6.776925023125809043e-03,8.265211338334767927e-03,6.969810101852030176e-03,9.810680364119570007e-03,7.591035737658790271e-03,9.880069229384941601e-03,7.120146817738043019e-03,5.203293620380966544e-03,8.474451822752823368e-03,8.656520532898344389e-03,7.967351355160710857e-03,7.062434818969494030e-03,6.391745717505109906e-03,5.480931842957663391e-03,6.125696837251864112e-03,9.646386402994068521e-03,5.806491661383773699e-03,6.492790110250288085e-03,9.440744422494370264e-03,9.347878049413820695e-03,9.759211421194085093e-03,8.317589389118033166e-03,8.456964347228120363e-03,6.934698289230033577e-03,5.078412816754080197e-03,7.671899174893697000e-03,6.447970781647412511e-03,9.860935457597343190e-03,8.891186007352152448e-03,7.718432143981920901e-03,8.559171157303738578e-03,5.522950461271113748e-03,6.336629646076346808e-03,5.945300995760429558e-03,9.067505683194174854e-03,6.589484647838090951e-03,9.196778405763994524e-03,8.280073304880560675e-03,9.393619993525528095e-03,8.637435144761734448e-03,7.692193673211789214e-03,5.109957141154948014e-03,8.085513061553360400e-03,8.294972567580454273e-03,8.050151339094892972e-03,6.500933085264934408e-03,5.941681266110205792e-03,8.352008782799732328e-03,7.622678160191635917e-03,5.095497788674488611e-03,6.828982531770742825e-03,6.689917358002606812e-03,5.433414967474820001e-03,9.300819741576265773e-03,5.423877740011911683e-03,6.646724739294855924e-03,6.564694666482797161e-03,6.041777673739025419e-03,7.498292875045383526e-03,9.414122951083177954e-03,9.987833186746909384e-03,6.149280725651993379e-03,7.385180702548915614e-03,7.268768196231061018e-03,9.080881325626941059e-03,6.490404551312349037e-03,6.191294914714463860e-03,7.006061170754064593e-03,9.010513935764102866e-03,9.707547177477557354e-03,8.809586159454147261e-03,6.379745314267911208e-03,6.080037454369793468e-03,8.700562974445751746e-03,8.216615030703125835e-03,5.174421680314605226e-03,8.331453124339941937e-03,6.051551650107381622e-03,6.659748584641744795e-03,9.145777838520555841e-03,9.210192537991322356e-03,8.569369500083683089e-03,9.187582526390090931e-03,6.182102407178088205e-03,7.963407244959967712e-03,8.236087989198771081e-03,5.352339555931388826e-03,9.278193924177948262e-03,5.802825829536430169e-03,8.762763677420832772e-03,9.530780824875876786e-03,6.116233973887786821e-03,5.806944955362348774e-03,6.789884613722161136e-03,7.552185972485773655e-03,8.298678487414020907e-03,6.186798553053584129e-03,7.744835828884666026e-03,8.098226934479230144e-03,6.287140653001907845e-03,8.605033812166684379e-03,6.613775849386285821e-03,8.715169441831571370e-03,8.663854363926528149e-03,6.046453177586437119e-03,6.043504395823930814e-03,7.033444620820590923e-03,7.151276614426400197e-03,5.871941601100874250e-03,8.533391100728331471e-03,7.149035252877140867e-03,5.214098342569903344e-03,6.262356665113891219e-03,9.124154526585185818e-03,6.436590584300072582e-03,6.871694971770696270e-03,6.496122499518907148e-03,8.956139405624919184e-03,5.142498696609718381e-03,6.553265609514011270e-03,5.961329354866054531e-03,6.114185607585380725e-03,8.191770382516434454e-03,8.039162092901546569e-03,7.785708738009142205e-03,9.327763291845281649e-03,8.776162832776960784e-03,5.453966868193868556e-03,5.970840326497335940e-03,9.232084373213487669e-03,6.824170445980095798e-03,8.430321848884076916e-03,6.385356318941307410e-03,8.611919302195807438e-03,8.642729168762986261e-03,6.001653065436226772e-03,9.180327939806122092e-03,6.689439298601787542e-03,6.408248867155913117e-03,7.567401160765584514e-03,6.279154702424051548e-03,8.508926060581964781e-03,7.214270851199522383e-03,6.940302686542318411e-03,8.226828040400891232e-03,7.040108214542727116e-03,6.299817110140461945e-03,9.117607117590886476e-03,5.621271790697832463e-03,8.016962094914602960e-03,8.357152777510765476e-03,4.952270205872489131e-03,6.960887278274398987e-03,9.543960471435171053e-03,7.120673975173037046e-03,7.586234490463075394e-03,7.873931409929545849e-03,4.960470968837928096e-03,6.353845351230525892e-03,8.951084952361377037e-03,5.210286942356191081e-03,7.459358969991447541e-03,5.098794565817261343e-03,4.981135071192339600e-03,5.428167525902581267e-03,5.543356875654352131e-03,6.598473762172461093e-03,8.428491093430965850e-03,8.815803294440172425e-03,6.009180562176011722e-03,5.979859748231343766e-03,7.695760572487450948e-03,6.032309575190415718e-03,8.592992561796674103e-03,7.435334172108532327e-03,9.546133273369708863e-03,7.659896143596156906e-03,6.278375464959757429e-03,7.747757045461463668e-03,5.047317414801629626e-03,7.008061471288223182e-03,8.861645894272339799e-03,5.626115647429374977e-03,8.479054929175050895e-03,9.621330874120476509e-03,8.894218791810680133e-03,8.174621746749832080e-03,7.723669580652533714e-03,7.141622610352017439e-03,8.995793400627090722e-03,5.416972073214653891e-03,9.001468922642029066e-03,5.418661860342293898e-03,8.186939863859260882e-03,7.209004776471105054e-03,9.313501201699908583e-03,7.824267971419187478e-03,7.503468081184426486e-03,6.177353240892267949e-03,8.734794768783273738e-03,8.456955702367648792e-03,7.886706419445234026e-03,6.708057318178667350e-03,5.296984031924039174e-03,5.427567510851563637e-03,5.816757482065591095e-03,4.776761135276020448e-03,8.522979447910836864e-03,8.928258179939044248e-03,6.615255989179573762e-03,7.325151184843966753e-03,6.346295968747310730e-03,5.641248546002250105e-03,7.726062675419268812e-03,6.668368313878793655e-03,4.572530425378449476e-03,5.368853811959010264e-03,7.974371674456982514e-03,7.598877776648594803e-03,9.670502807317090874e-03,8.791808822336034251e-03,6.836087357708587817e-03,8.333842256205613308e-03,7.825116715674342721e-03,7.350355226508955946e-03,9.347544058872760131e-03,5.346577113051468287e-03,5.276346223897858921e-03,9.071199891384751010e-03,8.128948910756696178e-03,6.487348529858531603e-03,6.948566721673326771e-03,8.245548422657541024e-03,7.688194160650856958e-03,7.626380271129764785e-03,6.391996008670231683e-03,8.092708046673306385e-03,6.151328479386927034e-03,8.323905032306910118e-03,5.816097283511302216e-03,5.745989716642403364e-03,6.187960966535529725e-03,7.374478000238528230e-03,6.135679157352993268e-03,5.703833742769824112e-03,7.158115833436428863e-03,5.549453492301190463e-03,7.612043411413700611e-03,6.213551669041693024e-03,6.747500869444611818e-03,6.098239308666712939e-03,8.134685300812188533e-03,8.581181555547226503e-03,7.020916828456013302e-03,7.834119570861710832e-03,6.087972749851651780e-03,6.398878528698999715e-03,8.490387372766269522e-03,